{"sizes": [6, 12, 3], "weights": [[[0.0009104816712095308, -0.0014259140495380565, 0.021373343895462898, -0.0052484733896789185, 0.005880003411723872, 0.006321322693874598], [0.0009104816712095323, -0.0014259140495380624, 0.021373343895462967, -0.005248473389678947, 0.005880003411723876, 0.006321322693874612], [0.0009104816712095309, -0.0014259140495380582, 0.02137334389546293, -0.0052484733896789116, 0.005880003411723874, 0.0063213226938745965], [0.000910481671209533, -0.0014259140495380578, 0.021373343895462967, -0.005248473389678908, 0.005880003411723878, 0.006321322693874598], [0.0009104816712095331, -0.0014259140495380552, 0.02137334389546297, -0.005248473389678904, 0.005880003411723878, 0.0063213226938746], [0.0009104816712095313, -0.001425914049538059, 0.021373343895462908, -0.005248473389678925, 0.005880003411723871, 0.006321322693874601], [0.0009104816712095316, -0.0014259140495380585, 0.021373343895462915, -0.0052484733896789055, 0.005880003411723873, 0.006321322693874599], [0.000910481671209531, -0.0014259140495380543, 0.021373343895462887, -0.005248473389678913, 0.00588000341172387, 0.006321322693874591], [0.0009104816712095325, -0.0014259140495380565, 0.021373343895462915, -0.005248473389678909, 0.005880003411723874, 0.006321322693874602], [0.000910481671209531, -0.0014259140495380565, 0.021373343895462894, -0.005248473389678914, 0.005880003411723872, 0.0063213226938745965], [0.0009104816712095309, -0.0014259140495380552, 0.02137334389546289, -0.005248473389678908, 0.00588000341172387, 0.006321322693874591], [0.0009104816712095323, -0.0014259140495380606, 0.021373343895462926, -0.0052484733896789384, 0.005880003411723875, 0.006321322693874602]], [[-0.003930197799349262, -0.003930197799349367, -0.003930197799349192, -0.003930197799349123, -0.003930197799349057, -0.003930197799349327, -0.003930197799349215, -0.0039301977993492524, -0.003930197799349152, -0.003930197799349241, -0.003930197799349249, -0.003930197799349338], [-0.007497370537802945, -0.007497370537803237, -0.0074973705378026945, -0.007497370537802542, -0.007497370537802487, -0.007497370537803045, -0.007497370537802701, -0.007497370537802911, -0.007497370537802665, -0.007497370537802858, -0.007497370537802921, -0.007497370537803057], [-0.12167204271714306, -0.12167204271714828, -0.12167204271714016, -0.12167204271713722, -0.12167204271713514, -0.12167204271714543, -0.12167204271714038, -0.1216720427171423, -0.12167204271713809, -0.12167204271714174, -0.1216720427171425, -0.12167204271714654]]], "biases": [[[0.6089576784882526], [0.6089576784883739], [0.6089576784881776], [0.6089576784881038], [0.6089576784880503], [0.6089576784883084], [0.608957678488182], [0.608957678488236], [0.6089576784881322], [0.6089576784882207], [0.6089576784882416], [0.6089576784883323]], [[-6.5460242193558065], [-7.085033018231736], [-12.440197089957355]]], "cost": "QuadraticCost"}