{"sizes": [6, 12, 3], "weights": [[[0.0010302606576637627, -0.0022879127640434713, 0.016990827995403544, 0.011036962532486778, 0.0029004295450265585, 0.0007924769363245748], [0.0010302606576637755, -0.0022879127640434965, 0.016990827995403714, 0.011036962532486866, 0.0029004295450265954, 0.0007924769363245939], [0.0010302606576638026, -0.0022879127640435437, 0.016990827995404117, 0.011036962532487028, 0.0029004295450266483, 0.0007924769363246277], [0.001030260657663771, -0.0022879127640434887, 0.016990827995403638, 0.011036962532486844, 0.0029004295450265815, 0.0007924769363245854], [0.001030260657663777, -0.0022879127640435, 0.016990827995403725, 0.01103696253248688, 0.002900429545026597, 0.0007924769363245946], [0.0010302606576637731, -0.002287912764043493, 0.016990827995403673, 0.011036962532486849, 0.002900429545026587, 0.0007924769363245903], [0.0010302606576638137, -0.0022879127640435676, 0.016990827995404294, 0.011036962532487126, 0.0029004295450266787, 0.0007924769363246437], [0.0010302606576637532, -0.0022879127640434544, 0.016990827995403423, 0.011036962532486715, 0.0029004295450265256, 0.0007924769363245602], [0.0010302606576638152, -0.0022879127640435724, 0.01699082799540433, 0.011036962532487125, 0.0029004295450266856, 0.0007924769363246442], [0.0010302606576638124, -0.0022879127640435615, 0.016990827995404252, 0.011036962532487093, 0.0029004295450266726, 0.000792476936324641], [0.0010302606576637655, -0.002287912764043476, 0.01699082799540359, 0.011036962532486804, 0.0029004295450265625, 0.0007924769363245789], [0.0010302606576637736, -0.0022879127640434934, 0.016990827995403683, 0.011036962532486856, 0.0029004295450265898, 0.000792476936324592]], [[0.004331090799227117, 0.004331090799227124, 0.004331090799227198, 0.004331090799227104, 0.004331090799227148, 0.0043310907992271126, 0.004331090799227246, 0.004331090799227061, 0.004331090799227223, 0.004331090799227197, 0.0043310907992270935, 0.004331090799227109], [-0.0056130886372615825, -0.00561308863726182, -0.005613088637262112, -0.005613088637261694, -0.005613088637261833, -0.00561308863726176, -0.005613088637262211, -0.0056130886372614455, -0.0056130886372622235, -0.005613088637262199, -0.00561308863726162, -0.005613088637261787], [-0.10226651148291188, -0.10226651148291464, -0.10226651148291858, -0.10226651148291373, -0.10226651148291499, -0.10226651148291405, -0.10226651148292058, -0.1022665114829102, -0.10226651148292092, -0.10226651148292012, -0.10226651148291248, -0.10226651148291419]]], "biases": [[[0.3083462450749507], [0.3083462450750124], [0.3083462450751118], [0.30834624507499087], [0.3083462450750197], [0.30834624507499897], [0.308346245075146], [0.30834624507490616], [0.30834624507515546], [0.3083462450751389], [0.30834624507495945], [0.30834624507500197]], [[-6.607312235351343], [-7.102531849354387], [-8.729606541384243]]], "cost": "QuadraticCost"}