{"sizes": [6, 12, 3], "weights": [[[0.0028128224539176196, -0.004413266544448409, 0.05310185911870569, -0.0026860634719153755, 0.016494609649642392, 0.01394691908049646], [0.0028128224539176187, -0.004413266544448402, 0.05310185911870566, -0.002686063471915379, 0.0164946096496424, 0.013946919080496467], [0.0028128224539176205, -0.004413266544448402, 0.053101859118705665, -0.0026860634719153864, 0.016494609649642403, 0.01394691908049647], [0.00281282245391762, -0.004413266544448409, 0.053101859118705755, -0.0026860634719153976, 0.016494609649642417, 0.013946919080496478], [0.0028128224539176196, -0.0044132665444484, 0.05310185911870566, -0.002686063471915374, 0.01649460964964238, 0.013946919080496466], [0.0028128224539176227, -0.004413266544448408, 0.05310185911870571, -0.002686063471915377, 0.016494609649642403, 0.013946919080496467], [0.0028128224539176222, -0.004413266544448402, 0.05310185911870571, -0.002686063471915375, 0.0164946096496424, 0.013946919080496473], [0.00281282245391762, -0.004413266544448405, 0.05310185911870568, -0.0026860634719153794, 0.016494609649642396, 0.013946919080496467], [0.0028128224539176174, -0.004413266544448408, 0.05310185911870574, -0.0026860634719153907, 0.016494609649642406, 0.013946919080496478], [0.00281282245391762, -0.004413266544448411, 0.05310185911870575, -0.0026860634719153976, 0.01649460964964241, 0.013946919080496478], [0.002812822453917617, -0.004413266544448396, 0.05310185911870558, -0.0026860634719153616, 0.016494609649642365, 0.013946919080496455], [0.0028128224539176183, -0.004413266544448396, 0.05310185911870561, -0.0026860634719153647, 0.016494609649642358, 0.013946919080496455]], [[-0.027002136926534904, -0.02700213692653504, -0.027002136926534442, -0.02700213692653397, -0.027002136926535192, -0.02700213692653472, -0.027002136926534984, -0.027002136926534904, -0.02700213692653377, -0.027002136926533863, -0.027002136926535754, -0.027002136926535757], [-0.04698663087793578, -0.046986630877936204, -0.046986630877934706, -0.0469866308779341, -0.04698663087793628, -0.046986630877935594, -0.04698663087793614, -0.04698663087793594, -0.04698663087793376, -0.04698663087793387, -0.04698663087793737, -0.046986630877937405], [-0.1921576558540842, -0.19215765585408595, -0.19215765585408007, -0.19215765585407685, -0.19215765585408628, -0.19215765585408362, -0.19215765585408567, -0.1921576558540849, -0.19215765585407626, -0.19215765585407654, -0.19215765585409023, -0.19215765585409073]]], "biases": [[[0.461615242556239], [0.4616152425562636], [0.46161524255617736], [0.4616152425561244], [0.4616152425562715], [0.4616152425562257], [0.4616152425562545], [0.4616152425562458], [0.46161524255611197], [0.46161524255611625], [0.4616152425563353], [0.4616152425563404]], [[-6.347868444438243], [-6.760376435479435], [-10.716871135878776]]], "cost": "QuadraticCost"}