{"sizes": [4, 30, 3], "weights": [[[-0.1088300786779089, 0.661426640032175, -0.49682534048583626, 0.69336341064751], [-0.687379201741184, 0.2622045965252198, -0.7459422223130945, 0.4885750283033728], [0.23419586993957883, 0.22555923695841967, -0.24468117234854042, 0.17485036925635203], [-0.6241881008339262, 0.31649198848232146, -0.30651485328919315, -0.12438108574284079], [-1.0300621103292003, -0.6653477678476277, 0.24877764824112356, 0.4544615042953701], [0.28279387135189266, -0.10859709444891076, -0.003893332971721636, 0.5915974449442637], [0.026492369315328015, -0.5188261138717779, 0.1864847674029891, -0.02094554503892439], [-0.43164160158856746, 0.5201796018347218, -0.39859152520725133, 0.1285909919442666], [0.2555855245451483, -0.4095408227596875, -0.5915449659058521, 0.5610113901079061], [0.9233994209972614, 0.5382635322861665, 0.4770323406222207, 0.5025150868060649], [-0.7305297936665932, -0.12181375915558375, -0.2477069616346033, -0.3826158329979332], [0.4004636237364845, 0.1901938674624682, 0.01056787477246104, 0.09304100649295878], [0.559131274084009, -0.035359065335450926, 0.7351770672250187, -0.4812997698313933], [0.5647007185685806, -0.5117692756128102, 1.3234593900416487, 1.0606949726570503], [0.3818555300771945, 0.6618830571135376, 0.5916515193279198, -0.7452645106876918], [-0.5176146246485502, -0.3800886310598837, 0.3462136492761959, -0.7525112873975324], [-0.047650817063563826, 0.07723612220979373, 0.21127096109399998, 0.07200850686986643], [-0.7296421057901026, 0.8298038517571068, 0.17529007714344508, 0.43753979148160144], [0.16646110809861514, 1.554328923306663, -0.042382437839543985, -0.11776392831549519], [-0.16824914368055247, -0.7509075168967861, -0.7748753473777498, -0.795908552457582], [-0.6031208300452209, 0.19865514066036388, -0.8185920657316763, 0.34505834079143644], [0.3562454568986102, -0.3919410884816466, 0.7779085078950083, 0.04006561870089996], [-1.144500250321379, 0.36786857561014175, 0.10783910058328101, -0.18403101180182158], [-0.5783167026381928, -0.4667197023404592, -0.18320766865172372, -0.1871719184242704], [-0.1121147172098801, -0.2665241974035809, 0.26051504198554737, -0.1945045436250268], [-0.46123262087573674, 0.3173766101190334, 0.07097308853983739, -0.7114138368748227], [-0.17841891869519136, 0.14807569108563323, 0.2827495106521635, -0.19954375318510922], [-0.4734522859645917, 0.08645715549332335, 0.1033368214192445, -0.29157422331561905], [-0.2221113263662152, -0.8065717550688085, 0.13144964502260462, -0.46378862332740234], [-0.8043831244147207, 0.23212842142626475, 0.11486426847612104, 0.33283500856339665]], [[0.011445066365216493, 0.24915343645262897, -0.21108551068979367, 0.04740425480644597, 0.34646649361878956, 0.0609912098432362, 0.0934057719176137, 0.1912534280021007, 0.019196073488286468, 0.2944480372605339, 0.021220905161084918, 0.05628601154903189, 0.050886130780942444, -0.05590405953775795, 0.18634515480293976, -0.11693229023048406, 0.21495983685624548, 0.12947878012409805, 0.10034877690619366, 0.016604586935556942, -0.0776270478507736, 0.11118089433186625, -0.25541688152764314, -0.012984995584758798, -0.1689177938098101, -0.5781277001333981, 0.302399137838195, 0.02426571535854227, 0.043570110628123354, -0.04766648853008187], [0.2646734485051944, 0.006013809070220388, -0.060535631040337844, 0.1520028076225653, 0.08874227897884811, 0.07536194421947703, 0.21208069630508097, -0.08215751681573173, 0.1979990515928729, -0.24555815583554177, -0.22354809420787103, 0.0346395320493524, 0.3342982598191725, 0.42828721324550056, 0.19847976153084226, -0.3588383418770661, -0.21431623769692626, 0.09007779868293517, -0.3869822195096631, -0.04047417005223609, -0.17209918968321453, -0.11039887829444031, 0.16621285107700612, 0.07091095376337428, 0.3315974425920202, -0.28967295923768593, -0.2810697477822833, 0.05075772499157654, -0.12031712043262302, -0.06910956944969285], [0.041124252997437716, -0.15878153559481412, 0.15740569321166806, -0.3038527931951652, 0.2897251218438145, -0.08017971359531775, -0.14566371793014285, -0.5648103907698638, -0.2834706880297716, 0.15005932176360548, 0.10263949118410483, -0.19114066747940478, -0.11793671248105224, -0.0394326557357625, 0.15293451297160848, -0.2503539074649372, -0.3618476460173701, -0.1646973150386774, -0.15579420443233186, 0.03777434443854445, -0.13902761198078775, -0.34177482083864963, 0.07683885985688331, 0.019780089185112575, 0.003365011628293005, 0.31139790394321243, 0.07361524824539137, 0.12606352413258715, 0.46228968140994536, 0.16905276817133935]]], "biases": [[[1.3798687817087445], [0.14099663440767823], [-0.6318197123081684], [-0.7346278738646954], [-0.741088933828695], [-1.261937236207722], [0.6917521731503412], [-0.5576679217927929], [-0.5143135374501463], [0.4320683718540555], [0.45196223499233484], [-0.3119466834461934], [-0.2469029508852695], [0.6802213839529634], [0.55526294674064], [-0.21917462942406923], [2.5251321839898733], [0.24443372317835924], [-1.6221166682879113], [-0.18937892878788967], [0.13837947155377783], [-1.4403895568774097], [0.9706274922955193], [-0.7103838016290872], [0.05079872806771068], [-1.5208385076500965], [-1.3020832193682124], [-1.4125155409604282], [-0.18674332571128222], [-0.9434661695833234]], [[-0.4925935527934458], [0.060574806997907064], [1.715924550430103]]], "cost": "QuadraticCost"}