{"sizes": [4, 20, 3], "weights": [[[0.023610251131588638, -0.05779692969823574, -0.21065209013892988, 1.2011732805333655], [0.4189043475038992, -0.1938531472670496, -0.9061877175982991, -0.16612210398580937], [-0.2967265921367505, -0.054245808855862374, 0.486677421776679, 0.3112592172110257], [-0.3515693827293574, 0.2612668772774735, 0.016997393420114488, -0.6300697254278462], [0.7704502794236802, -0.2225127174114456, 0.5987862490406284, 0.2749849761611689], [-0.33131113007067825, 0.28406657733173024, -0.7573049694244833, -0.03545506298711469], [-0.33138864833458076, -0.3636345866580435, 0.045525961805568, -0.3933069392424325], [-1.5508399928614838, 0.4851672431900027, 0.2177089286309545, 0.2504119786598026], [-1.082700067504831, -0.10496860952958631, -0.12885479760688565, 0.2062962806120973], [-0.33669148294900764, 0.6422000385838915, 0.13863362459373943, -0.004727649765320963], [-1.139070781672728, 0.18196563980439304, 0.36719962237990494, 0.710811836307761], [-0.31274744685119565, 0.12216640272657923, -0.4484696813282666, -0.24583860668049712], [-0.5386946053523484, -0.12819796426283955, -0.46133446398259087, 0.010951653063726894], [-0.5376031835804617, 0.21978250849399586, 0.220620960704751, 0.5676629689328396], [0.05888061149634157, -0.37538650432315623, -0.3246180679603794, 0.7399005645241006], [-0.07974994629474444, 0.24981819126580448, 0.4357165468095818, -1.061738286115856], [0.1605842663346237, -0.11660801705360345, 0.6329584350696399, -0.40381398364521287], [-0.042549316134257234, 0.26922305825325976, 0.017998986980898805, -0.0009092736879836279], [-0.1871695505613973, 1.1444243357967907, -0.5008496294628192, 0.20703796775548108], [0.014741604646477478, 0.1312780261758512, -0.473764363388056, 0.4446266975819902]], [[0.19066107746787572, -0.3371079626808488, -0.0881040851673357, -0.007248136817546672, 0.10887575585762782, -0.20249547368781404, -0.2734059133551692, 0.2362653379562506, 0.10425345254492421, 0.18196665430124045, 0.11659535699211922, 0.3071333404228722, 0.1505739051250606, 0.27987088424745354, -0.22134362081208805, -0.14808056652128046, 0.2519573566608546, -0.0604620420183523, 0.2749975575335959, -0.45274249388851084], [0.11477450173856087, -0.022266201408931943, 0.09808898335968999, 0.1061862577927152, 0.38899116511150555, -0.22740962329985748, 0.05140978047284586, 0.18772483096822468, 0.354960440653905, 0.002947282007222889, 0.6495901336624652, -0.26090378901628564, 0.08157577443942478, 0.2137550892056746, -0.3465264053120066, -0.040664309742241486, -0.026414426852514165, 0.10680193026005336, -0.12434322111327727, -0.0577933179538367], [-0.12664278224013223, -0.1443199358808718, 0.25629910184261345, -0.2276632489685301, 0.7060162639003017, 0.16983817125483372, -0.1190158105128772, 0.13507760879984987, 0.09777307889108205, -0.4535580722363165, 0.19009200416955216, 0.13112349300526718, -0.40788237160627033, -0.1374532592183133, 0.024128005013740773, -0.12437944044917705, -0.10518501284494275, -0.3872104871102519, -0.01211201854640756, 0.05638722054126701]]], "biases": [[[2.5281805089967557], [0.3303552813209243], [0.6770315758290018], [-0.05134821101872505], [-1.2865853180686468], [0.03449278515926143], [-0.07288992962178943], [-0.6070275181727847], [-0.3012512364826095], [1.58023928955303], [-2.079787054626794], [0.031125644044924204], [-0.13589947397170055], [0.1568869902825736], [-3.246434632377425], [-0.9496094207821485], [-0.6463228500828433], [-2.0687720140319485], [0.6572318268974812], [1.084888585592411]], [[0.022991215885731494], [-0.42748779780235596], [0.35718625966273054]]], "cost": "QuadraticCost"}