{"sizes": [4, 30, 20, 3], "weights": [[[-0.2891866320879958, 0.06679230881571722, -0.183442996840883, 0.07344867214180952], [-0.31338400722205134, 0.6750680037599671, 0.43774156559224686, -0.13104956805672116], [0.2180204494448854, -0.1469404160402371, -1.5222827223160218, -0.06227983837675386], [0.4904224675929442, -0.3756790092425395, -0.33717045178220434, -0.037705495026969404], [-0.7245085347685412, -0.7007583123899481, 0.24002147286989403, -0.4665305037165432], [-0.4156774292633258, 0.18096311328569242, -0.005944014391093556, 0.3914840521004297], [0.06951539617710188, 0.31362479628873, 0.8074144277166135, -0.3504887522731349], [-0.26626709156184575, 0.058029064389874804, 0.45963583630247085, 1.1689379664110164], [0.47171262602706426, 0.8984156933158346, -0.3532703770835367, -0.43088177687519474], [0.6342627007675239, 0.09692673020201231, 0.3371997236571936, 0.7804013581552353], [0.2658702710211564, -1.443892906485809, 0.27623978091082135, 0.23209850581669306], [0.9809186221368417, 0.7569794396978501, -0.36777974046235656, -0.6592655095852261], [0.06110320420329292, -0.9556253293906657, -0.11968625114584805, 0.3076814019088036], [-0.6848379988244516, -0.812649682084981, -0.6813308310324095, -0.12145081446742348], [-0.690667868028468, 0.2081927785690846, -0.22705007497281265, 0.9795201925193414], [0.4236484811542392, 0.31379177623506876, 0.02903288698286484, 0.5121880505937777], [0.4352739412601893, -0.05742293942029487, -0.1612309668315045, -0.14990068145604107], [-1.596290218572721, 0.01661414371915525, 0.3413548675467321, 0.7950610316941286], [-0.3926563645134082, -0.347509602495649, -0.14234608176697805, -0.4419754609762928], [-0.3758709344366781, 0.6346815642596052, 0.0056617327404659395, 0.3799312145972924], [-0.15416297851795915, -0.09083542388436959, 0.024581994462663747, -0.6890783273057869], [-0.2787085876525357, -0.17738876784005084, 0.04242876240974465, 0.8317592025302901], [0.6791777257767986, 0.4674515044420272, 1.1418021552731163, -0.3056890575128712], [0.015315108737783452, 0.8506955367492124, -1.3486380542496215, 0.4880635314820027], [-1.2860256044991272, 0.6441879351297262, -0.5077162876329953, 0.23108398196224827], [-0.23349228512979228, -0.05312439671561317, -0.2835850172229265, -0.437789288208551], [0.7056769635860458, 0.6503498587346127, 0.5251065926504258, 0.601138078318981], [0.10925300538286364, -0.5000748148008514, -0.9022422344827292, -0.3805737585177111], [0.7768178437994235, -0.5463321102705039, -0.4740814590759517, 0.659802548077111], [0.676723846261569, -0.2081373845137428, -0.3806907583998299, 0.030238925091359094]], [[-0.28878943611740143, 0.10935127640856333, 0.39669672040019055, -0.05781816958289114, 0.08463146042583762, 0.16969188264088955, 0.027505864282706006, 0.40397481714058975, 0.2202359527819444, -0.027496692683717665, 0.20419089417754374, 0.18646920405085127, -0.18728311181120505, -0.09847285555236149, -0.016193007987802405, 0.1477787628705228, -0.26939654839404453, 0.014233762291167967, -0.13501731150623908, -0.24967951823473075, -0.11051868241499077, 0.08112701054624029, -0.15668595267006047, -0.0016130979331006583, -0.26642114870591604, 0.19893841233102297, 0.24348936468236812, -0.12872500600761913, -0.13003341566837234, 0.18163509803354175], [-0.07945205012348068, 0.1291004534554084, 0.2911847531122094, 0.2945199689776791, 0.017061754755031803, -0.06187439320488446, 0.06572948005372355, -0.12819760876148908, -0.14993473355996684, -0.13182349881423658, 0.014061747497075264, 0.2139326900708723, -0.08263405695486196, 0.04029738333808698, 0.08470430067338337, -0.08876604438442101, -0.5269329030017763, 0.014888941141514516, 0.020762646943359234, -0.1774879487995346, -0.10079402529610988, -0.15409659748935156, 0.11319644308598835, -0.19731282812428697, -0.2047599241373988, -0.4050659897535718, -0.240399229545115, -0.07380906143739338, -0.08474865933637954, 0.4480943201348612], [0.13374607553994688, 0.27163130038882954, 0.16166592553177972, -0.056766900046384114, 0.18754571455231664, -0.1212478211479378, -0.23631868637650666, 0.058871067713923426, -0.07829985982908734, -0.013953423448004532, -0.11220560838787466, 0.2822977380290608, -0.16675449105254914, 0.043461006904302615, 0.35412896565161, 0.12624623893020187, -0.03620956091826851, 0.1344679840219746, 0.10668772619670322, 0.17825569216742304, 0.03625817212202699, 0.09220214602063749, 0.07161159711178681, -0.16106363149092512, -0.24710586809341137, -0.2887283239285672, 0.2858091200285181, -0.118263120174648, 0.3586180878282811, -0.054728749743165], [-0.10307393515881628, -0.010527030256258453, -0.010250827176958731, 0.021663560266330636, -0.013430422865027644, -0.29447387164666333, 0.05332823994310779, 0.2365673262301432, -0.21525164206842698, 0.08924293803533113, -0.2325228765637167, 0.08541041089475235, 0.16910521285325758, 0.03217789213578792, -0.22421788784144653, -0.00041322427229829596, -0.09233578580439684, -0.35739190031651263, 0.1655323574248403, -0.13534370934495546, -0.009430874248306275, 0.18980327379457712, 0.02062047185135235, 0.07773893109003321, 0.020637563370367516, -0.15409597057895585, -0.07304326817312946, 0.04214906973315809, -0.15497383784636057, 0.32147852539319005], [-0.025529748761787728, 0.08873470323532953, -0.09923320135066338, 0.09990319866060828, -0.02505144851869788, -0.12161995074540823, 0.04081147355314068, 0.09794994312157242, 0.08831369880901017, 0.07144977250468165, 0.299028058730516, -0.03705156767809612, 0.13802883547412537, -0.006027717697102349, 0.15058018313761176, 0.4583337397121343, -0.3192524435681867, -0.21885949982158556, 0.31699132895398563, 0.3559104194124762, 0.07456846218053045, 0.17412956039876665, 0.034258971770473046, 0.06718594207452692, 0.011948838760555277, -0.08726224076174786, 0.08582057941249048, -0.02628209609406868, 0.2400498324402256, -0.24228004311436818], [0.11231102201939559, 0.17755453242748415, 0.11251136929135024, -0.05975928075741397, 0.013871029280842594, -0.21359826881654054, 0.2723170661933637, -0.13963155737970448, -0.1069890885831192, -0.13274951003098545, -0.2504803935351723, 0.009548696733885198, -0.11571586354783103, 0.11823874775156139, 0.19570450829387942, -0.0659314223809079, -0.3961452439941027, -0.12217370081234924, 0.2887152198560209, -0.11598745884112133, -0.25343333541388713, 0.17166272292959384, 0.24216144335281953, -0.01085221538925512, 0.3462765749264697, 0.09022078194973226, 0.23108264726947148, -0.04669199046390634, 0.043887172429111575, 0.36716635905514355], [-0.04501569331574017, -0.02803749759938201, 0.09735126797899578, 0.24961767985477284, -0.03279001659755843, 0.4059999293857134, 0.18541249815415506, -0.13717917571446592, -0.10422565238001198, -0.019618012012190458, -0.10941944775010944, 0.06389881233566846, -0.02148828959615993, -0.1124638960640044, -0.10196622808346043, -0.40581769149173386, 0.03260008440392803, -0.21019818491642964, 0.2022052467783032, 0.13592668509032596, 0.16740327444407094, 0.1604211478348197, 0.06068203054135284, -0.1351995548164656, 0.13704383024787067, -0.11197140791218221, 0.04012628670088289, 0.2021465172547203, -0.2674526515838699, 0.36589555988944167], [0.09031962516501454, 0.0019504998801819686, 0.21051340601933274, -0.24675727561468017, -0.42362795529720476, -0.157319891079329, -0.0026715468494897133, -0.1809082438004434, 0.1696742216994096, -0.04130609783864543, 0.05578139612543081, 0.1411563118723824, 0.06326765924103567, 0.1066095091224909, -0.028902309618689018, 0.10967259207232795, -0.07425888376754222, 0.046557770050629534, -0.22937330780660506, 0.03020423694487175, -0.2724984465209569, -0.0003901198505679059, 0.1912391967771534, 0.3202785133647377, 0.06445729902845489, 0.17599823459179711, 0.02760501365348876, -0.006754924204004873, -0.08477653620031925, 0.1321664951930599], [0.0019428026357820245, -0.24580765432590862, -0.14573579563811212, -0.1336321943377572, -0.21976982377978185, 0.049089914651432476, -0.20756696644419698, 0.23294977210722, 0.11529109785203587, 0.06356431915442531, 0.04558015974236577, 0.30238725943636147, 0.019840860524099866, -0.08824072224904092, 0.17989937422593022, -0.2195610626943894, 0.09672328259263925, 0.094950607063199, -0.22908293640797392, 0.006944862638370681, 0.2293680039415438, 0.28963763626967953, 0.22853959643742153, 0.06497279687227757, 0.1232848325206146, 0.1658293441272181, 0.29800030478908945, 0.04695554858013484, -0.014261580522807515, 0.09180118574597437], [-0.10279477614760021, 0.031026979454933778, -0.08490042872687226, 0.24438353677098432, -0.11024990149499118, -0.04849621604517647, 0.0005369339726987364, -0.05526218528521978, -0.27231580393025834, -0.050872958148964094, -0.18920962168169875, -0.3049241191926696, -0.008741989615670305, 0.35170350080207674, 0.07022433032081435, -0.2248969711558632, -0.17264277421284863, 0.2881119570520825, 0.09794641710372354, -0.2710619552278722, -0.020996405831893383, -0.08694993966792457, 0.00048336024703928395, -0.013372701664987397, 0.35311085041425766, -0.07316438753105417, -0.171173118646053, 0.17577595608797306, -0.22017945804982794, -0.13874885308805407], [-0.17759647905500928, 0.1687584276146394, 0.0024674816682736843, 0.12891823303180522, 0.15506658390465666, -0.058545341239133214, -0.0007097577609836254, 0.027346248015648587, -0.050471191667290596, 0.15915472560978253, -0.20478357035648886, -0.054805747865514565, -0.12831959371618207, 0.2838227525634809, 0.03371750094694192, 0.09307265468995835, -0.01891867892629799, -0.18904748616483524, 0.3078467851904443, -0.219110298491321, -0.22276932604386446, -0.24946583982484127, -0.33040614564242843, -0.17208757076741305, -0.16454545846077182, 0.03276260198319642, -0.03527115264148201, -0.007215275133035959, -0.28346656147962407, 0.029568913709144478], [-0.04122644333802066, -0.13357357015843888, 0.1077884716393888, 0.2645508885252575, 0.2310050573826691, -0.083245029177801, 0.15566930872808327, -0.11454431987190876, 0.04539268454481689, -0.3936762750324119, -0.1720973192684426, 0.12061950266240071, -0.0052618132538775906, 0.016180713600766717, 0.07358736952567203, 0.022749970964076608, -0.27841310487968157, -0.052598348112006255, -0.08616323023828674, -0.29891929416069646, -0.038885491231412606, 0.07960667723933718, -0.47164539879443845, 0.004472546010827285, -0.1896203553866925, 0.2257475707905006, 0.1321801091819968, -0.0419077882810766, -0.1418640552831867, 0.09887684690845412], [0.23884542222397454, 0.22036575185784169, 0.059154935696621974, 0.06271343194214515, 0.02111182491711179, 0.21153195908449005, -0.26282628053313506, 0.18083971003513724, 0.03165069896301862, -0.022851325782056533, -0.235928488575883, -0.19952969715915006, 0.08504192402863728, 0.23235253327834154, 0.1715807484381493, 0.0008193781876194361, 0.06070830994690066, 0.03112328817698044, -0.04621363019306145, -0.28141166527539463, 0.040993577630397786, -0.2274341186128075, -0.0022536428884757497, -0.047888683276407544, 0.2235494318278432, -0.011380762988631379, -0.07572628217083553, -0.08116053307081969, 0.27860836163390096, -0.1550438582803233], [0.11104697525758019, 0.39566541243930775, 0.06846283418997831, 0.06111406737191471, 0.022005380267208517, -0.11570763904090697, 0.16805021667770076, 0.019891121725115063, -0.3863972782686893, -0.06243751753539453, 0.04217265590743533, 0.1304569896527216, -0.019255268524113796, 0.06644806297021925, -0.03815802375804788, 0.0839436142541038, 0.11202604445892772, -0.09063301898687076, 0.002088637908494771, -0.2207581766069038, -0.06371609558771286, 0.2251952681380074, 0.05360646756984466, 0.32076885163067137, -0.11881379382926185, 0.11249068738429534, -0.24311658312225462, -0.037185128152499886, -0.11239988142038292, 0.10452590289502971], [0.2085087811580381, 0.045541116456941415, 0.07405274001101729, -0.03237365563131405, -0.11887410772596468, 0.20501597414079845, -0.16198302026839004, -0.10151560471141415, 0.01543747363347551, 0.11984074647795212, -0.2235364572225177, -0.09132118328682794, -0.15543257241647054, 0.2582315763793032, -0.033887514950522044, -0.3470272657716354, 0.11506367490494414, 0.047114443561184556, 0.10369262085459809, -0.05369331092652235, -0.16401787283855454, -0.20298720581055063, 0.07359098812421447, 0.1742343243256974, -0.061577824623510025, -0.11196911855310049, -0.0010076499765959044, -0.14523718392843044, 0.2566092670100286, 0.19245309643929367], [0.07068818707104947, 0.09393976291264981, -0.361660467961738, -0.004945007244634844, 0.00028739047011189017, 0.09549410537706307, 0.2834082107943489, 0.11586795287727729, -0.17926216274338083, -0.1870446880684967, 0.015882450480624876, -0.1903072630668849, 0.022173908072978296, 0.032686136732106345, 0.11873064404738468, 0.05192409745088574, 0.23831564554348572, -0.06552208374217625, -0.3049795908969101, 0.06681106475460426, 0.22014843351455538, 0.1326281614097709, -0.13872899160232158, 0.10346628913863147, 0.11654199588086618, 0.15968584329021715, -0.16137563316566303, -0.07710841710983755, -0.2231568556414764, -0.05796992611652902], [-0.27848673420649006, 0.17114675593170756, -0.178553283721522, 0.11287647762117446, 0.11463271547374942, 0.041463120513683435, 0.299171728942856, -0.2559856672759226, -0.0795848519228023, 0.11186309383702346, 0.1746169520073681, -0.26373298831279823, -0.023291686904053612, -0.19570056140094585, 0.2807546988279243, -0.07835159094780404, -0.007476450132040538, 0.17399425187851356, -0.5313534894517512, 0.023655722987336862, 0.15122193277933924, 0.04570247964407601, -0.012395762953595731, -0.07087275937387719, -0.1315801478271775, -0.2860179309568763, -0.19642045078974577, -0.05073071084913344, 0.32679590574848016, -0.07917249784382199], [0.34666219285546057, -0.10127001530959384, -0.15325242006055279, 0.27496025204389984, 0.02941881697472549, -0.18167498953570665, -0.4699915905518472, -0.18267116833388278, 0.1414737000087262, 0.2146458470239241, -0.006608867927670075, -0.21682217163983503, 0.43470979578938945, 0.08420021751918796, -0.15199984646447115, 0.39152137271868576, -0.36107327576494586, -0.1864118155409561, -0.0659437522814519, 0.15834875675718854, 0.036934259375308115, 0.04664354730053485, -0.2788636168333843, 0.00485772396868218, 0.32688522166471384, 0.22062153429766293, -0.11542300446755545, 0.10442948923344149, -0.2312251182608083, 0.08870485750867903], [-0.03448648453985048, -0.09756223617248946, 0.24490265417487633, -0.09385491529285098, -0.1292317219831683, -0.0579350756973672, -0.10696255178584933, -0.20130881942162504, 0.11457473076249215, -0.03269350221683114, 0.3271715983210203, -0.13460649401783337, -0.043200893333733316, 0.02792340238839782, -0.28692405265695853, 0.025128121225247418, -0.21473506364559022, 0.14440945320678952, 0.44781846602752085, 0.17567463129792987, 0.2657628965954389, 0.07774713326030595, 0.17203625330289804, -0.15828594657160155, -0.12723888937660996, 0.020481345113495985, -0.10340590820682842, -0.25870351661387087, -0.18557965596967882, 0.1566122415200269], [0.04560587462354401, -0.09803574889319236, 0.11725356689462084, -0.01100784082672764, 0.19116191368160207, 0.24301309218875422, -0.19982704334469747, 0.0897750341251292, -0.06241674408455793, -0.043107724107035644, 0.058257642446428975, -0.028991828025325225, -0.23020820246242302, -0.16920272259999264, -0.006204414190062662, -0.10009654340724342, -0.09079368553847081, -0.1499186858876715, 0.11019289965749947, -0.2089740884834309, -0.2428614132321032, 0.15259679359698886, -0.0992119676832004, -0.21614608086734782, 0.4613014361597749, 0.07810096938633805, 0.11322353369683877, -0.3144690340169475, -0.09428933072675721, -0.19008174115399876]], [[0.06876297345863709, 0.25307052554720505, 0.381081143935802, 0.08438317502856864, -0.12808686604466038, -0.4737418787913704, 0.16353539206423545, 0.2984566422994429, 0.03770401903810315, 0.28727508038703103, -0.0755967218111304, 0.03795978260841389, 0.14591521305340782, 0.04336204419610615, -0.3605248684591071, -0.01872402363805418, 0.01977141556009578, -0.015645112523739256, -0.1658056986564341, -0.09320924186944163], [-0.21537884786453274, 0.3675124635408353, 0.4191379458284088, -0.05990102268805008, 0.15733284445625298, 0.1556090879967738, 0.01577749294300603, -0.10062586012093584, 0.43883355947625574, -0.16303378091071535, -0.35441495075309226, -0.06990896276310389, -0.23941349060743994, -0.3536781862936586, -0.2910685362210035, 0.2682397140542461, -0.14294930096217517, 0.11933409595863274, 0.05300270162902964, 0.1395084591681576], [0.0893882679303452, 0.24201099563317796, 0.48111247690816095, -0.30923239699992006, 0.295527408287246, 0.16371548298174637, 0.3658034564140294, 0.43464070391741827, 0.37363194859999815, 0.41175539806047423, -0.17392739382507805, -0.03936741985947268, -0.007681505450146526, 0.20892851149764263, 0.06925159182513281, 0.059014240717653085, 0.07813812727877822, -0.2696735841369466, -0.267065050704803, 0.06504953125869423]]], "biases": [[[-2.260356381349451], [0.5821309762312757], [-1.733625262720239], [-0.9988906520840988], [-0.9633532514135403], [0.7239647543718293], [-0.41976959428298427], [-0.8701980376833255], [-0.5183140662102065], [-0.1551690922308302], [-1.1419580992966478], [-0.8776608690192564], [1.570507802916143], [0.8267603500118242], [1.8091982637041626], [-1.370940772290474], [-0.40188632084893855], [0.340640246943031], [0.06481894454047661], [1.6454785798370049], [-0.04350709907237975], [0.09119228334404161], [0.08428013844938516], [-0.519219791696514], [0.20196451398883292], [1.5098606878789314], [-1.607902055101619], [-0.7970689450058379], [-0.4668565590222653], [-0.9433551307799163]], [[1.6322648213813091], [2.303952435147812], [1.2517329639988006], [-0.9926211215678267], [0.7339703675967577], [0.5262365336423723], [0.0549158313444079], [-0.21539911936567696], [2.042238220944616], [0.7206196214499824], [-1.5043365525094083], [0.7665091547022055], [1.5494106069366664], [1.9910722539024828], [-0.5634666427263751], [1.8937909653836267], [-1.483724719282283], [0.08310496014850206], [-1.226619063308909], [-0.027324760495091513]], [[0.17742171757203634], [0.21027250541111497], [-1.3138936961537275]]], "cost": "QuadraticCost"}