{"sizes": [4, 30, 20, 3], "weights": [[[0.21119528594481413, 0.027236139185364553, 0.4708454367914457, -0.3583995079627505], [0.6931232315346136, -0.3336716318653681, -0.34429625761223, -0.03744536113577049], [-0.39801731828879183, 0.5327069062237643, -0.3331266421282095, -0.105088998163342], [0.09063641431179605, -0.3765554505805969, 0.5716939558683206, 1.1288986965466814], [0.8657687059604005, -0.23621735118901643, -0.4385085312189502, -0.07034969638606134], [0.5613850749092123, -0.22662888153078095, -0.8230137101721652, -0.13566790499854298], [0.5909098041888858, 0.047634437824229034, -0.7287442078437427, 0.666918591646997], [-0.38969733469817275, -0.11253216077857858, -0.8037296737908783, 0.08311251937292867], [-0.07221877625179073, -0.45615017762823984, -0.27314585478920367, -0.4647191033268335], [-0.6195585390272861, -0.4612917917947411, 0.17382759352095475, 0.26999713374943085], [-0.08664434834111297, -0.04047756894563479, 0.724377616054532, 0.253666203814549], [0.8277472935786975, -0.21313996008264113, -0.3856630415414014, 0.44212654435213733], [-0.3935757497902945, 0.7026888298068688, -0.30679228113069357, 0.3141477168293505], [0.022331791498069905, 0.5858852082389124, -0.3510154151311158, 0.04083047859498488], [-0.11925867203463211, 1.0488731948185017, 0.3207037238668172, 0.08913655061909175], [0.45132798319308676, -0.17594708570325396, 0.567425764594169, 0.3201667353452807], [0.6625222398921902, -0.8283169151861682, 0.39901820648593433, 0.050387212121224184], [-0.42921168436851537, 0.5747480514812296, -0.24814159612173683, 0.11463891155735671], [0.5701763314640395, 0.01752033378681666, 0.4749332345555357, -0.6892079693445158], [-0.14593337612775667, 0.12313639044842427, 0.7101985732375495, -0.8069438916702022], [-0.6683105310916191, 0.017013635241609808, -0.07699263935972417, -0.5505330314348806], [-0.4814375395796316, 0.2891721673335408, -0.31948178066327376, -0.050727537053198886], [-0.973990528992647, -0.2669068527631064, 0.4212505063408427, 0.3338762579678637], [-0.6640384748512954, 0.30689270198321367, 0.12375989610544484, -0.08498281477638381], [0.9043254773460602, 0.4777126851658714, -0.2536676471903611, -0.34769576523015716], [-0.8043949003059602, -0.33819089374070954, 0.09416580815594633, -0.058012285598695416], [-0.6984989580402027, -0.2926123456302938, -0.1104228127740305, 0.3269212995583131], [0.5155723851507324, 0.3583325862144565, 0.0851741308407819, -0.6814623085031828], [-0.0039171779395892215, -0.31614303972896923, 0.5994607798233391, 0.8793027146872276], [-0.03833909870533159, -0.01768834522366009, 0.47481337362025977, -0.3339979888113367]], [[0.22011770529846275, 0.25997611369994167, -0.07477020629605226, -0.2551546897505166, 0.23118980850850154, 0.17378278658496418, -0.26306226985436726, 0.2628680440382461, -0.18015086010925016, -0.10170368134634748, 0.017723934587022445, -0.2604109101802787, -0.03720510354108866, -0.026379782537236284, -0.08115166413221864, -0.07292925619462068, 0.14610264060306435, 0.21101425238113253, 0.1591208448804443, -0.5446032613746714, -0.16802264693451577, 0.028944187636365682, -0.049495049788760674, 0.44651812108433325, -0.2520608506562579, -0.05439202418894751, 0.16599400615074514, 0.30692027739406286, -0.11444556787182249, 0.16117774525140657], [-0.06267458663845894, 0.03071885889086241, 0.36742919526812223, 0.007432490979643587, 0.12620725010508554, 0.027613857128249174, 0.17253391574659604, -0.08843615377048923, 0.2089448175567749, 0.03991193097762816, -0.11258257480310849, 0.08299602198232237, 0.34502084118429593, 0.12482193386977593, 0.2838496204840217, 0.047449368509523714, -0.26342642039135566, 0.09760899271952535, -0.03071686964453367, 0.07250813220565688, -0.008614945505451993, -0.09062118937306038, 0.2835896606349884, -0.1162334290719173, 0.09609752422942339, -0.03945689164358798, 0.02521137484018477, 0.10698632403895131, -0.18974221997915758, 0.17558836194677777], [-0.14232805811077265, 0.3994063834101562, -0.42968871801459924, 0.06777781256709231, -0.07895673687697805, 0.02920869662570114, 0.02917836952121326, 0.23869893958453525, -0.03140749709877608, -0.27555703119176767, -0.3032343065263791, 0.3226911636103254, -0.07585992402104243, -0.30087157662045205, 0.12371584211570312, 0.13231232360718903, 0.27746627240870214, -0.1453094271140149, -0.08724773148407608, -0.15752700033519937, -0.027449280590963222, 0.17082218279956404, -0.09902261481845903, -0.14009175425232273, -0.08823301717300387, -0.018538827553549412, 0.019925300780917383, 0.4239912252710078, -0.037597082757829664, -0.020118796739895736], [0.15557343236653123, 0.0209673427342484, 0.037384913897313805, 0.20824698575573164, -0.1434966229306561, -0.1210203936002903, -0.08160357257109559, 0.1893384500068148, -0.21451572435215918, 0.00023570233449525245, -0.030891163117935085, 0.04103583932285838, -0.0822332306025708, -0.024395985398471636, 0.13977535828284526, 0.2952368340663698, 0.22710711968242345, -0.12645467851565384, 0.13539278629956872, -0.13072827980538285, 0.27288847954735473, 0.044756870082399605, 0.14492783639332826, -0.21285523097341913, 0.08986040350298269, -0.23483119298278157, -0.10725380883483024, -0.01196326212552939, -0.20173777612994048, 0.007722081989355812], [-0.015763271933905306, -0.06523473565091945, -0.45524566900280156, -0.14649706580035365, -0.1697139435215831, 0.08790353101349148, -0.24191160067806428, 0.07919504897647821, 0.20849145162049004, -0.010540940280230417, 0.0872817826087139, 0.06592236262200436, 0.10583874973706346, 0.040458561863804594, -0.055607535422167065, 0.004883169539364973, -0.09371988265671795, -0.019802980624148328, 0.14712575842347558, 0.230812041614207, -0.03681510625232882, 0.19776427141927844, 0.15732477101625433, 0.18177847357232796, -0.24932931438327469, 0.05008259216896668, 0.02619554500525585, 0.13467509362396465, -0.01190376059057373, 0.21099258440357058], [-0.2969940080990117, -0.32370337935099047, -0.015160603949643562, 0.16228183213770261, -0.19223269292162914, -0.2517869385467923, 0.1574737935047589, 0.0786671807963829, 0.007477388110975839, 0.18579792122078254, -0.04049535357524544, 0.18439184126188887, 0.04146588930330139, -0.012415307794000775, -0.35132906931657587, -0.25950732122900344, -0.18811094492698777, 0.05624088079485108, -0.1736898373797619, -0.23849854109438198, 0.07401759149224757, 0.11732290918902577, -0.061582161616412424, 0.26481225181637236, 0.1591651562926518, -0.12224927182015997, -0.13956731373187467, 0.11409794037065318, 0.1621503499178159, -0.008299022575132245], [0.07252362507010723, -0.2481402027814933, -0.12212631402487897, -0.02986285689902073, -0.039455992166004546, 0.044692872307876774, 0.3031287977763241, 0.33494459392661036, -0.09390274669310815, 0.07974876213025908, 0.01283917572884584, 0.07018896682814853, 0.09002409298289435, 0.2765749903927592, -0.04494613524225615, 0.2550194857416614, 0.021366097529018826, 0.20331312195682266, -0.3469083008566059, 0.42311299780941286, -0.007364715008659453, -0.08950616827191397, -0.043137301810124554, -0.35166488663429574, 0.09036148948761498, 0.01802584819831647, -0.06424357590269789, -0.01879432336246842, -0.02263136292980517, 0.2902548848277191], [0.32837657459344166, 0.05514422630721547, 0.3422146893708561, -0.2258396555713374, 0.25554683108011167, -0.3544166259868278, 0.1620124904746238, -0.019060260934811245, 0.06378823839071127, -0.04126814174882013, -0.057868354429931344, 0.19854825826003905, -0.015748923814291875, -0.10284688149408935, -0.06147546693895953, -0.17868692502268949, 0.017101312124780818, 0.2791274277710701, -0.08140770549353857, 0.03992567434150224, -0.025454065587854326, -0.4000586983738114, 0.06378379763925338, -0.25438826386617, -0.05227210083518601, -0.18673900458195614, 0.026715231388627348, 0.029502415220379736, -0.2519352464158054, -0.3587779374445823], [0.4561220757802216, 0.07264062856497572, -0.0934108768746934, -0.20583246454820742, 0.302552741964386, 0.33236897182627895, -0.21317228502806118, -0.5085271517365461, -0.13434521976860272, 0.2195125278521016, 0.3297540399034969, -0.24707356545080153, 0.05497849378707113, 0.02566126340149685, -0.01253011855369366, 0.08350648270509715, -0.0726296987815712, 0.25142728115795376, -0.1608754680799729, -0.03061764404219456, 0.1108214790757793, -0.27249600414988684, -0.02218673453512986, -0.04530845180408972, 0.1638761908895596, -0.0756773469104, 0.14409794328384407, 0.11925935450022133, 0.06872010395820166, 0.28819068968523565], [-0.15209312870440977, -0.07895038074179692, -0.3041231770441082, 0.4570700994601672, -0.17874380633939532, 0.2259749292256091, -0.19218066710442022, 0.3033308758508404, 0.1608449771192135, -0.02075388432127543, -0.03855397891042632, -0.2077498482532099, -0.04800050718227733, -0.27950206527656124, -0.12841011771398492, 0.09419132456547598, 0.1398053907808075, -0.038518778931642864, -0.026426746813643983, 0.1308537266187382, 0.052316998538629395, 0.19969208662666174, 0.026752679261671356, 0.09588476431588326, -0.126176173087905, 0.056157167042455665, -0.42146643159918196, -0.09247728525191114, 0.07863956778616428, 0.16405166947217373], [0.13180105206385687, -0.06434867048218242, 0.008926907869773768, 0.11236749661982012, -0.0321482847252343, 0.40592367390518763, 0.060987915861562124, -0.08535311606051267, -0.21589964241944784, -0.1363920033508996, -0.18342276619953607, -0.05299448621655174, -0.01279893167936947, 0.07110622855798164, -0.05943933698698305, 0.1597478964338799, 0.1484536468212764, -0.21138357995452275, 0.3080624349882089, -0.24107850693140975, 0.058815582144786036, -0.4110272518360611, 0.18195584434511503, -0.12182939046423967, 0.08404540882862079, 0.3237059064414179, -0.06558318313138874, -0.2789859100074138, 0.2346995443471789, -0.11005503921299854], [0.17175888624702024, 0.031601571011455276, -0.30268967304738426, -0.15192784560859438, -0.13675871664575018, 0.07539021654392988, -0.12832335454147475, -0.04317268296487934, -0.16409040231876304, -0.25473818201968557, -0.15230104283690468, -0.022435356949996113, 0.044116172021637624, -0.1582034403457866, 0.1745411969854975, -0.005512501755141652, -0.12286894263524903, -0.055427760140720844, -0.2596607179211771, 0.009778165553297104, -0.09000971668942763, -0.08533557638286983, 0.044277249696963054, -0.1133303114558348, -0.07430022227314066, 0.5121247642967975, -0.184982813640583, -0.22511363206369508, 0.4901597122746232, -0.10102534403376251], [-0.22039492577169725, -0.07536890331027403, -0.04662243750829636, 0.16940162348586454, -0.1449008144346609, 0.18755863715462542, 0.17419465620019264, -0.00903400634016067, -0.21583773869794948, 0.11821479803668172, 0.20052659826278338, 0.4231323725599862, -0.19513120859860478, -0.19880395783924762, 0.007470507295794828, 0.16740657645005924, 0.11064234271579233, -0.05544055269023793, 0.14378603454996416, -0.09921255252955538, -0.17421144161924243, 0.09025367867875768, -0.15331979079921065, 0.07807699462524643, -0.10769696647823532, 0.1472159572151354, -0.19360062019886698, -0.040492995395297354, 0.07011722993779095, 0.19206887669930137], [0.37879351304349235, -0.025264057996897776, 0.03794061273189598, 0.1891253166595152, 0.2049255865877048, 0.13825612751616026, 0.19614018087983634, -0.09587851801240568, 0.13057339118305666, 0.183346330591841, -0.19890126584999504, 0.08198230992268654, -0.10310625107264228, 0.2064776583436867, 0.04340987057451357, 0.32801673630986544, 0.047495964802208156, 0.005699938770805124, -0.14223618871295532, -0.06023654803381227, 0.1947149593747054, -0.1482343295077233, -0.21363626687675993, -0.3522051294003483, 0.05842946976123642, 0.1616737412159118, 0.2606853031836281, -0.12938636057435632, -0.006799188201610871, 0.1577715286613584], [-0.11606213817271134, -0.17511195650927489, -0.15516886113595899, 0.36139881400580076, 0.09736353472726947, -0.08596331778156212, 0.11573874159806351, 0.15067474987251353, -0.21356854516697701, 0.053770888466967696, -0.044799542849692876, 0.054046422310901295, 0.03643590658902417, -0.016575704580373204, -0.24978868672555493, 0.0628965937455981, 0.12129012333414634, 0.21322262676950288, 0.2328020907665374, 0.046352482515642474, -0.08893480012422575, 0.10755027424910162, 0.04553307325232847, 0.15091122400244858, -0.20710113940789743, -0.2992281091263602, 0.1189882419153616, -0.03560668442436221, -0.11461343276521563, 0.431809964630792], [0.21748234469781833, 0.22979444776080388, 0.09303996551722361, 0.317800927191572, -0.16329493164941125, -0.05683666297486603, 0.05239534322134864, -0.011747543811934952, 0.21629689788389983, 0.15760407169821786, 0.025605925177923306, 0.11179266134431637, 0.2246333759743906, -0.12405362173608232, 0.1443490921661669, -0.15058550051677122, -0.06904334679173124, 0.11820360285044736, -0.18206255742275718, -0.011860405878497246, 0.05009854637884137, 0.019025401408250292, 0.04133509626953268, 0.06119143061555024, 0.012652013078022425, -0.17998404270185298, -0.0325737159447211, -0.12753147168944265, 0.024962925932804265, -0.24199430723554824], [0.41938319235279725, -0.06226977186575408, 0.08275930334766426, 0.14216327218717814, 0.1163768977201886, 0.0433507728853513, 0.033730094960934945, 0.08961632364110558, -0.1948805343720331, 0.04969867894785525, -0.04888472683625938, 0.21495406779266601, -0.1322385162913462, 0.322500182724641, -0.06947805374181007, -0.0038404710656282813, 0.25332500834032085, 0.18776887248193433, -0.6446062504863117, 0.1461558148067213, -0.19467527215926927, 0.02055355084370189, -0.1445305146666489, 0.1833121978772026, 0.029129981940443635, -0.25886743600229173, 0.26507888487982506, 0.3598205727121795, -0.32878327969119064, 0.29215229234126905], [-0.08395701307505567, 0.005620501601049419, -0.28555552421397806, -0.21280141609145609, 0.21184494858498226, -0.12753057163685985, -0.19683875430684042, 0.16338639688005763, -0.3288226215040839, 0.1367877228696833, -0.11030418860461381, -0.06565225248156321, -0.16838570291843194, -0.18108828747552128, 0.0411673369881076, -0.1872692643400299, -0.18762823837041473, -0.09039912112383135, 0.09855118281503539, 0.18840586647866076, 0.2377580275241264, 0.17724142335811535, -0.34053046212061067, -0.2930961588925802, -0.39247044375147855, 0.3047867863129446, -0.015147607640003493, -0.20103141048218773, 0.036579028061225455, 0.08450165010849536], [-0.30135605533103615, -0.32764942409490905, -0.05349939874344513, -0.0061436436616695705, -0.33991536242230797, 0.21865585628496775, 0.10502345147494578, -0.2261534142640834, 0.16437324603417922, 0.13374677184121694, 0.06745451213412132, -0.15486605164781664, 0.0037252826539874075, -0.027286811758399143, -0.06482202438469722, -0.05437838118748428, 0.14425904162678338, -0.04039823608187613, -0.09782271018734386, -0.018374332827705404, -0.06733623646474057, -0.18272176796102527, 0.04857221594142464, -0.2634014008192606, 0.2388244043148608, -0.0571405393621684, 0.020212563855656215, 0.0875378537265089, 0.03608347894690275, 0.12889245477143096], [0.39626148170305875, 0.07354678533135019, -0.09031964038569529, -0.2598616385214057, 0.43507359362981307, 0.07718045361346278, 0.06707210676699242, -0.12967729860103017, 0.28214081572479915, 0.08481793553716357, 0.012261257682363564, -0.23105515092102558, -0.3553818757388217, 0.08222910774327268, 0.06862901495071425, -0.4910324491560666, -0.07102432104620393, 0.12718462643593315, -0.30215774714468274, -0.10183830925684564, 0.10680775041694852, 0.36847569964695975, -0.026084926553026522, -0.21309165458224105, -0.29635187854617284, -0.016432959263428068, 0.15372306220172363, 0.15602246577272685, 0.19183805442063198, 0.10684412041122028]], [[0.3779163942717265, 0.034833731843128705, 0.20559920093526585, -0.08774724833153502, 0.05693501515798601, -0.13377814863860726, 0.31958156575962327, 0.02478161051278187, 0.4991949087585941, 0.16787980966327776, 0.1081359020816038, 0.14827865953316577, 0.2998773162452628, -0.1084170406932297, 0.29923342206571635, 0.2586751577885653, 0.04746128465296956, -0.3852104302663152, 0.12200418512717559, 0.28749310863959543], [-0.004845051006300725, 0.3651142112281608, -0.1412590448848645, 0.31052360880773716, 0.15210758428221455, 0.06042544281045753, 0.5569362188274158, 0.271309897136012, -0.02410591938181083, 0.052663976229688984, -0.08763368490400626, -0.03951209207717036, -0.02314010462398987, 0.017834419396402967, 0.3336293268388813, -0.11588033002691214, 0.12986635455651302, 0.2054242334545509, 0.23644864201054472, -0.12315697043555256], [0.2543656207237704, -0.2819062007059935, 0.2925426048624777, -0.007667701180872284, -0.17908783665373368, -0.02806520632411169, 0.1345741195789382, -0.2968813566878167, -0.0642494917427752, 0.5170690241861609, 0.21928572223524045, -0.24364391128166618, -0.2678647105079351, -0.01883799666939258, -0.039821978415843805, -0.31014327121929886, 0.3382755669816278, 0.11487527993236338, 0.3243733407240523, -0.18901514368864436]]], "biases": [[[1.179126371962188], [0.14747668341552872], [-0.4654457854935887], [0.08782988450131275], [1.9114749692175659], [0.03957460372520297], [0.6462816105183377], [1.061594682188841], [0.3377431632649912], [-1.857761035239133], [0.3847526186101766], [-1.5526916540269693], [0.863370601718335], [0.7141390248944075], [-1.6437747178249025], [-0.48064454389433453], [-0.6805114828588228], [-0.4897645468961929], [-0.8409521372436042], [-1.262733010748717], [-0.588139373115246], [0.5593603330526147], [0.04286553621704287], [0.8094659991164449], [-0.19850670382015348], [0.2639819173208514], [0.23360807124678082], [0.43773651981503214], [-2.131387985430636], [0.13736397219031873]], [[1.9323130089148928], [-0.24195223118696987], [-1.3853697605176738], [-0.7416676148037044], [0.9342640968296204], [-0.6122892448711613], [0.48559531071481554], [-0.022445266409711596], [-0.43505291119785694], [0.6747206014947565], [-1.3261408221814819], [0.3688739699209384], [-1.6514870152086645], [0.44359060508291626], [0.31297645689711734], [-0.34849608439884994], [-0.6411290696935412], [-0.696913829816348], [-0.19006192867182575], [0.4406477130638044]], [[-1.1288142913257218], [-0.30804857004600283], [0.6785287237305363]]], "cost": "QuadraticCost"}