{"sizes": [4, 30, 3], "weights": [[[0.6257235647225691, 0.4850101339909071, -0.3725725629438092, 0.027250754519796503], [0.8568464091856657, -0.5155714020261033, -0.0891573802105148, -0.3980728673410419], [-0.14015468601746398, 0.369894212442685, 0.7207740209803787, 0.7670902676232058], [-0.39500979664137653, 1.1395775037113929, 0.11362480144826123, -0.48322879136079566], [-0.7504921714064303, -0.624868634622846, -0.24327457394513996, 0.03242463196829255], [-0.2530047866598568, -0.09936075154253876, 0.33043435997638215, 0.3522577111046243], [0.07963323707373687, 0.0526063289827723, 0.24046838113215196, -0.05919639935986082], [-1.0028706477751868, -0.3114826590614588, 0.71264699036314, 0.33781922006837933], [-0.18928309041807068, -0.4937444214571938, -0.08838153870858269, 0.6249392191205398], [-0.27111062908618094, -0.7032664609069397, -0.42900493549165886, -0.809457168170747], [0.02536773726871963, 0.12299383882064821, -0.3170911546525016, 0.4307604663834309], [0.3835169503035133, 0.8183670088004206, 0.34992326958531605, -0.4595603156970794], [-0.5341555165512905, -0.020005079972565846, -0.4132088742066718, -0.5105443054528681], [-0.9274870476325817, -1.3123019270187375, -1.1001908827620437, 0.6249470578480385], [-0.7500448880417064, -0.5747925339989933, 0.3069630406888538, -0.36724059183797914], [0.8429093279379821, 0.47328162451283445, 0.28235403625516337, 0.13828784578408798], [-0.5777929084893603, 0.46901981266716347, 0.25784071731562996, 0.4111725707955114], [-0.19390304093488744, 0.29203041614110636, 0.21464615261976847, -0.2098254741075133], [0.11571472603375549, 0.6194759899127706, -0.26759323944726743, 0.17343964381445984], [-0.1646956102205795, 0.26460249686242987, 0.09199756486334751, -0.055162972260132406], [-0.846941226720065, -0.007122288349385986, -0.36134097960404926, -1.0034021581273083], [0.7954316765282788, -0.1855340098589672, 0.9521368193284943, -0.8292156858541728], [-0.2594520617998935, 0.5220884499426244, -0.26904542847335955, 0.33056279096045116], [0.7251450178619543, 1.0402613129792332e-05, -0.29691339635536174, -0.9850420493897498], [0.7567691892638841, -0.10647924273307387, -1.1356523825180846, -0.14203364626038428], [0.35518509355668776, 0.016110628578367744, 0.6359890555660923, -0.2298495148500601], [-0.6417344718419886, -0.00041213623062440517, 1.039146404567989, -0.34539679419034314], [-0.45011091616585114, 0.5445287875397767, -0.07713758337949163, -0.9295131615187708], [0.5748573361697635, 0.0941543472321569, 0.16812968750459695, 0.986131916504273], [-0.024585783492154116, 0.4220066728355228, -0.01130774405267729, 0.13372087554744821]], [[0.05161145247337178, -0.18057828897972608, -0.13539067643726313, 0.14740607397973446, 0.2936149508375075, 0.15414283594053385, -0.17969250381831056, 0.23210858015817618, 0.06568369184810026, -0.019038172020320387, -0.009522768322549755, -0.13334455370895182, 0.10656840017931599, 0.1037460809543738, 0.028132691414684555, 0.12044160788146314, -0.1560987253363039, 0.1092210502775219, -0.3625297495145746, 0.2535397574852918, -0.03444638553120823, 0.06513284987997346, 0.06795873796561004, 0.18317344957207327, 0.07290696258008507, -0.08713300457678892, -0.26804886953728396, -0.2233840071548277, 0.24777674852772308, 0.13331954517815767], [0.024831909054368318, 0.2772037001330787, -0.02671357338554555, -0.20708351188477966, 0.2077127248429768, 0.08559300392140853, -0.06440696508278229, -0.17294607249615623, -0.21741097583071806, -0.14775825083482158, -0.1993807368345501, 0.12455033916266559, -0.36156219031698617, -0.05644926411364858, 0.11014886458160467, -0.20175493184377824, 0.01847097758710458, -0.014680036699007368, 0.0034215764549505217, 0.1991446668700716, -0.23294855105850115, -0.23102032525256191, 0.16468848080809798, -0.0686599216741093, 0.13196309854949598, -0.04223460604263955, 0.42571901518082833, -0.1932025510717335, 0.11922464833969151, -0.10078149645119838], [0.17125318993598126, -0.5237506704229551, 0.1239692874905033, 0.183401553547699, -0.15402644214792646, -0.2609161858538065, -0.11392223908484383, 0.1246929998695087, 0.05319460644245246, -0.07656094288867067, -0.4344194069699357, -0.08472116448068653, -0.0852447084526337, -0.05388172005367056, 0.3407202688182386, 0.07627984856795304, 0.19981091060895964, -0.11083035095653423, 0.041026004923278084, -0.23394610950877076, 0.11998970135187119, 0.325333536408673, 0.07326210215492195, 0.05080054239632567, -0.2377986402776899, 0.04311382731965622, 0.005479874986236386, -0.17295011892483786, 0.04925820316989629, -0.19705411724905456]]], "biases": [[[0.39608763047155265], [-0.31654077230488575], [-0.5803126679306243], [-2.074459168583787], [2.311263289910253], [-1.7002967273044431], [0.20739331069112213], [0.4270539227982461], [-0.6295286758665196], [0.17921057525490697], [0.13853994151290167], [-0.7202557659360022], [0.7216316492219277], [0.49506119405184246], [0.19480362892623207], [0.8146802570481114], [-2.0066820621389523], [-0.3932491018396262], [-0.338064624892659], [0.19011689320384142], [-0.5355012036001652], [0.5135323008496953], [0.7425286915096241], [0.39034713089415607], [0.5142493129900441], [-1.5976762760962866], [-1.2443117094619207], [-1.1931359688157666], [0.38798847232793426], [-2.0054199226711313]], [[-0.14080756496751345], [0.9618700605888372], [0.9913830376732812]]], "cost": "QuadraticCost"}