{"sizes": [4, 30, 3], "weights": [[[0.5014108497179215, -0.6324259221704338, 0.13286845437570272, -0.03276846818033748], [-0.1514596637860587, -0.6557678853860551, 0.3318691093625518, -0.17655749573201793], [-0.2604158224468544, -0.15748287096992264, -0.1897780409730325, -0.09486550549754769], [-0.3066058014567612, -1.7669156799917165, -0.4008438530960706, 0.16846317492690252], [0.10097145811231716, 0.3858571331557514, 0.13720093521082602, -0.04685581774783502], [0.325146215780498, 0.5225183674255371, -0.10646085348607288, -0.14380869133655655], [0.09701573961354439, -0.2422195029498049, -1.0312450681635459, -0.19646440988120062], [0.4767136648078796, 0.23048144212686733, 0.11432237162057916, -0.07850264876066765], [0.1865363080914279, -0.020840262637907114, 0.6708473813803498, -0.40245762935072676], [0.23915395725921382, 0.32875259699404835, 0.13875202464948608, 0.7739026055777166], [-0.2845175619509462, -0.23868419730322482, 0.1941433332623101, -0.660762755629855], [0.16544621136709206, -0.4172267316105503, -0.5881334966145003, 0.2805210382546374], [-0.022241450783455873, 0.44492581142078913, 0.12045110599723831, -0.6326894458610295], [0.1976897503681493, 0.3135555908333097, -0.36903691525336035, -0.5046227564820627], [-0.3024750509903199, 0.6211810891656981, -0.7901174361856816, -0.2586556001010968], [0.4854998396822703, 0.4167674440383195, -0.15564912993331484, 0.1668950010942243], [-0.08929487649594336, -0.04119105878085881, -0.18028321282778265, -0.6635302230884187], [-0.34476819363568445, -0.6850281599635332, 0.7896873945324125, 0.11676024691014039], [-0.018947507844624907, -0.6662031404530373, 0.09805402078074783, 0.09441633039098002], [-0.9084115174674118, 0.14176745499884158, -0.22345897339463167, 0.13274069962836652], [0.2689776437316976, -1.0123935447382069, -0.7890747174677227, -0.2807175169590096], [0.6358384991452785, 0.32709543342932523, -0.5502532946337257, -0.1486585175505564], [-0.33759036135144027, 0.10238463409418198, -0.5468660477896264, 0.044052400382356145], [-0.27545235148689434, -0.33787481400277974, 0.5405299805392773, -0.21102440309101939], [0.21856859616183455, -0.4759634079311711, -0.16416495439217613, 0.5660420786872059], [-0.03151758660832209, 0.36207424820268674, -0.9500634139770223, -0.04068704456651547], [-0.5545667166591585, -0.27354339591307203, -0.06297998651488072, 0.5243832218587956], [-0.41675860767316997, 0.3012305064829975, 0.369982661407123, -0.15593244830963052], [-0.36689148621443757, 0.1659629736397725, 0.5771460574833868, 0.8269424951112303], [-0.054343057554663954, -0.09393117540248169, 0.3839817829846928, 0.7071181616849855]], [[0.29352277547217764, -0.10273960035829467, 0.18648099884271954, 0.07586845126334416, 0.14546705328402812, -0.06427783250467725, 0.05242259943552501, 0.18652366146089, -0.11622360720612779, 0.1308783992538104, 0.047661689607290544, -0.28776735492681854, -0.147613009726691, 0.16287556700346748, 0.2619322842576497, 0.2648939842813761, 0.5112074007420429, 0.22991504559020962, -0.07229540894611698, -0.0030995962792187077, 0.04792463797446779, -0.3782937254330377, 0.04256665471587356, 0.1298971562282068, 0.125316588472069, -0.1542525925486009, 0.07986075550858587, -0.251347503881548, -0.33744287382029586, 0.06859541054492312], [-0.28604738704466887, 0.20625463713056003, -0.028889476713718006, 0.046237949055750856, -0.004372800920446147, 0.15209151727726214, 0.09650128357235341, -0.25121948700937236, 0.024687970057491737, -0.24932116744657443, -0.1399426899379958, -0.00844927565911677, 0.016870146730522714, -0.24109217707261527, -0.22264422293367822, 0.03652103632378607, 0.07626763056658649, 0.08691301864284823, 0.10524204137190867, -0.11196544162517923, -0.1550188952821566, -0.04552560295481322, -0.1288949359681955, 0.025049129245638766, 0.014251404807835912, 0.23096522336956565, -0.14130898441938344, 0.14558513876740978, 0.15459703127767727, -0.11941548327601174], [-0.10437980032195003, -0.023828087081497893, -0.11564559153116519, -0.019402226590155586, -0.4699695584202271, -0.18186949637005506, 0.21982146130942887, -0.07582009149971257, 0.14537568146876087, 0.3137125243139719, -0.013793533438602176, 0.008496417728336807, 0.033464530388983844, 0.3013624492929794, 0.27945217061108685, -0.10613567106083427, -0.07514767373351244, 0.010569582089132645, 0.15805681483944373, -0.15387829768896474, -0.0009117902621014894, 0.12994498804017382, 0.17036514367190564, 0.04061684953422511, 0.3710304818233625, -0.28431047964758677, -0.05811169001220951, 0.045530320970550986, 0.18867078534207013, 0.2440873052814983]]], "biases": [[[2.050402650226261], [0.6398786915580073], [1.6237280807851242], [-0.22598469810016733], [-0.6594698769502437], [1.150896821589902], [-0.7535978149709711], [-0.844300670046571], [1.0446360441132407], [-0.4128381171362728], [-0.4866985595006036], [-0.5027661055339501], [-1.7811976814494195], [-0.8973923073045763], [-0.5469457665930108], [0.29585238628693855], [-1.935794306982124], [1.6580457343833017], [-0.23755464617130542], [0.1361586982308133], [-0.3705400835420882], [0.526688092010221], [-0.7076086446684243], [-0.5924414661195135], [1.195823500431769], [0.09705998800380394], [0.14181101206653984], [1.74595530181886], [-0.12353920755228442], [-0.2736665507015665]], [[0.17503290119685438], [1.0598874853306666], [0.03216904723531216]]], "cost": "QuadraticCost"}