{"sizes": [4, 30, 3], "weights": [[[0.0790295607203048, -0.13793815777700122, -0.040078441310782316, 0.018574163418333598], [0.2601511225802187, 0.016209153962253225, 0.10020909280894172, -0.2706274968033237], [-0.22661153248066557, -0.5381077199305822, 0.6264659348651451, -0.501514427152042], [-0.1903085269556964, -0.44652870114860443, -0.45714655182925296, 0.3977185557285391], [-0.49202734886181637, 0.14296640724649232, -1.2346551969849222, 0.314409050174946], [-0.4375280738874203, 0.50000354441099, -0.28400577507724484, 0.9863836401730204], [-0.04819660399347956, -0.2430510358081277, 0.4584570028733419, 0.11873416318842452], [0.2452413207349686, 0.2149720306130513, 0.35639173786649836, 0.2996848417424023], [-0.7300694990418432, -0.008175491390784514, 0.1950137227833251, 0.7938956814288365], [0.7936894964553269, 0.21129525850582714, -0.2844155279456847, 0.2908318700472992], [0.5060656610776644, 0.5416251900285128, 0.33138854313266075, 0.46993416212063077], [0.3986213568116446, 0.17379566379558795, 0.269065767186412, -0.07538409042451015], [-0.6171030415236853, -0.19146173575451836, 0.2239735129508069, -0.1779642135507464], [-0.9604715412814462, 0.4665795775804833, 0.4217688199254012, 0.4939203460398124], [-0.28606739503567125, -0.1517153362433091, -0.7115714282090131, -0.9109067909180149], [-0.4238255385212295, 0.14108896564409948, -0.6068672062945196, 0.0309422219861432], [0.043295297033839934, 0.12623837984924013, -0.28501860485625485, -0.6042734486376447], [-1.4093830694877252, 0.8254258488022282, -1.024193157613601, -0.1669935034465329], [-0.8291967807012622, -0.035556861906294986, -0.06599741890905039, -0.5699986090755237], [-0.45636037752646363, 0.462494157066849, -0.10752167772369714, -1.168249975449951], [-0.6884900251477685, 0.6124406392110205, 0.1873431327828382, 0.29867160089127015], [0.04646070082044584, 0.08046382041764186, -0.35676019762065214, 0.6372410869887626], [0.061578615600365046, 0.2334037067776849, -0.7588790201932338, 0.6601797557020143], [0.39340340322649237, 0.9763002613113966, -0.05159307600135541, -0.5686633049539431], [-0.19068366400050268, -0.23120872552219476, 0.22178107817948187, -0.14393879743353752], [-0.13319781423086663, 0.8967048366057925, 0.31698732618323866, -0.5046382534353256], [0.4897748738747609, -0.2703110025095119, 0.5681770159970331, 0.03612136046056863], [-0.9748581394617386, -0.14032154288296128, 0.05790199753910695, -0.358821194890982], [-0.056188882333205535, 0.15424332141558753, -0.4517096712980286, 0.30976778455083237], [-0.6655179235766192, -0.5898713178296441, 0.529546721519114, -1.000308289262312]], [[0.221068004999977, 0.318818137030903, 0.07115252589316494, 0.07277968775600965, -0.09038850383497629, -0.29201871382946426, 0.12814169755912078, -0.2073864200382924, 0.3060497184740123, -0.03108240599325283, -0.19743349317044775, 0.0020578670171550687, 0.5116135595365748, 0.12101047277441074, 0.06507944172589024, 0.012564593982389351, -0.005531756216755247, 0.1581979955617995, 0.08191965417068384, 0.09303211266086724, 0.28844337881574583, -0.07084837224933611, 0.005152927858500561, 0.0013397600676700201, -0.23207030473703302, 0.03566046506553131, 0.04912074227163018, -0.12796544360508574, 0.09320109865625475, 0.006131949417821422], [-0.35147639050176444, -0.06669469753727403, -0.016602884785999552, 0.1961575845898664, -0.06388549367979385, 0.08169805263287615, 0.247358632603526, 0.26449236870165377, -0.038612976401873764, 0.06828782115110317, 0.17750109818436535, 0.3404403408815727, 0.13394639459954943, 0.2709249722100568, 0.15302870504055685, 0.02500110256182533, -0.05007049526774705, 0.023678445011023508, -0.25629658432250096, -0.09870031673648912, 0.05295969008015956, -0.18760891571317878, 0.09708990303556653, -0.11321032956733433, 0.1878582885324642, 0.08606537142702639, 0.20620381464752174, -0.11192726293809044, 0.15259494288598574, 0.01848979681715667], [0.08259592910485719, -0.13952936373303532, 0.19120759309629223, -0.4205270239323585, -0.28654187763328126, 0.11866507431660273, -0.24826920422290535, -0.07212186192803052, -0.026383466819675204, -0.007516039417413526, -0.3842072423035775, 0.30807586134183235, -0.1613587323891266, -0.07090435717094551, -0.011852783563322217, -0.03252292628551715, 0.35783668168840027, 0.02923661801650476, -0.14504604454622386, -0.027137343423279565, 0.0504330222931138, 9.728656993154013e-05, 0.12897141822341923, 0.05948252330962606, -0.21368211191296135, 0.10330577234715546, -0.34447803372252106, -0.21258424979929352, 0.1422657959290934, -0.11831909481277393]]], "biases": [[[-2.010264083281231], [-0.32991847603769525], [-0.6734669744903803], [0.5921070603771507], [0.10032003677550196], [1.4335171653109957], [-0.49757396402589854], [0.5707958335771807], [1.9306121516059889], [0.2778634919791357], [0.09508796173414365], [0.5819122291164469], [1.6189380956584642], [-1.2349945145691998], [-0.5867867672277907], [0.36273657897111605], [-1.7857136591393559], [1.8454246631129116], [0.3185218801044304], [-0.7448093159281233], [-3.038713029946753], [-0.3843095340332657], [-0.5434650695369377], [0.6465196608200765], [-0.14523904774078714], [0.6656732244768638], [0.5180745648361423], [0.09683403070541392], [0.5628679992456791], [-0.1358422321495717]], [[0.2858516848815692], [-0.8860308554394554], [1.9186085188300526]]], "cost": "QuadraticCost"}