{"sizes": [4, 20, 3], "weights": [[[0.49190398916465516, -0.08433813849669496, -0.11816697601711036, -0.15786175577942563], [-0.08845668280036123, 0.5035011293614572, -0.13869923139634024, -1.0120577458397726], [-0.04762377594769864, 0.2967131996679398, -0.25815027551450626, 0.0200219120993683], [-0.4973433222261178, 0.6042019055941514, -0.0928966272508306, -0.15822190694996952], [-0.6022654584358382, -0.9169176978719638, -0.4543441504247185, 0.48303349257188444], [-0.17017671230323955, 0.47662825388711233, 0.34412645806587444, 0.3975008146005535], [0.10971989558351915, -0.26264777455070526, -0.1723306968291432, -0.23860217943112222], [-1.1281119393493573, 0.24439671160189985, -0.015567630635093149, 1.3310226831276706], [-0.41033327715547285, -0.16020806254546516, -0.4531921775635744, -0.14372238714538924], [0.6920882050670694, 0.17021870045910514, -0.34094323087993583, -0.382592386966065], [0.36429518138868855, -0.2768209720005032, 0.011480834717177677, 0.20913941596896393], [-0.2568093333116374, 1.2010624474516476, -0.25486977631938734, -0.008583069801990756], [0.05887864230999074, 0.9021605938491489, -0.19363309550235394, -0.5953300470466747], [0.15364369651741625, -0.6400757711882199, -0.9001052170592513, 0.32235976979068304], [1.2915987757700147, -0.14731384893000285, 0.22689598627243965, 0.6852031211593665], [0.548748196273128, -0.426745829045133, -0.3912311313256755, 0.26531208372365067], [-0.234739596173657, 0.3712542516611091, 0.14833844913195451, -1.0598508453037736], [-0.8494562593216362, -0.007837877552488862, -0.14910847558884557, -0.22601505429849839], [0.8153478742784247, 0.6868356232231474, -0.30990699564651664, -0.3015820983462913], [0.6842451632883316, -0.36898940044171746, -0.029921926404578348, 1.3947196881584052]], [[-0.28759789232824323, 0.18896057846304248, 0.40538844382162803, -0.19596495045623133, -0.08468133283931631, 0.15030326024440602, 0.13598965875582514, -0.13379964846835612, -0.0003363972071951366, -0.33781580322827764, -0.11875968720716792, 0.2839348406934525, 0.18616324739866882, 0.19482194434654587, -0.1851897929633004, 0.30259002814108305, -0.11484970674809049, -0.06854904902707794, -0.14793378476180946, 0.1150451098292167], [0.1063579901562554, 0.12943240948553042, -0.3419328997595314, -0.08706602527656991, -0.19970737238473613, -0.13626055035270296, 0.02325856560837166, 0.0787980298001522, -0.04372799476397581, 0.23373687521861947, -0.04485787131205337, -0.6110142838372831, 0.050604240496363924, -0.11607660939900873, -0.2768510117582906, -0.17328848252332418, -0.07639496780380832, 0.2540837543873501, 0.1379252580549664, 0.044643417853686265], [-0.03209827028815022, 0.03509543620812133, 0.08264006645451041, 0.3368343490076777, 0.05097479172380562, -0.16337417751010383, 0.2723963590244406, 0.19971082997700038, 0.13876428472243987, 0.17259213649569774, -0.012495461885441251, 0.1651706728509537, -0.25350874023687053, 0.0016941681552622688, 0.05080076850065514, -0.47440377426289165, -0.0441944790888379, 0.13496891085323937, -0.1618253862647559, -0.3816518180346285]]], "biases": [[[0.23904687122086377], [-0.6710698979006083], [0.13532132349596887], [-0.1537384071615743], [0.32069268676372326], [0.8364054327521113], [1.2491402593397702], [-1.792403849584411], [0.7040448463211266], [0.14695882726814305], [-0.03514763797717535], [-1.1646377331325284], [0.945262583801204], [0.7172118199341254], [-0.04909708449515663], [-0.665105587679927], [0.37725093553009625], [-0.2398532028585052], [-0.8036740767516497], [0.8301465477449169]], [[0.8531462390778232], [0.2557040423673394], [0.7326272242418962]]], "cost": "QuadraticCost"}