{"sizes": [4, 20, 3], "weights": [[[-1.1413041809071702, -0.999050054211591, 0.23791457558780277, 1.4105659764090654], [0.42892972996498385, 0.2862390236830264, -0.03968447593677681, 0.3183769306065706], [-0.8170995841636792, -0.4069332241755245, 0.04751915595665642, 0.16780533180224663], [0.2754461399336934, 0.7568423952126113, -1.2124732476909577, -0.7409540442266224], [-0.5898909595233929, 0.035514444567147786, -0.3537734104691467, 0.3634374943997104], [-0.012363664167152436, 0.19739406578136617, -0.3440413868777254, 0.6862720905546495], [-0.791223032279989, 0.8596634111026354, -0.48022205025533504, -0.26248420227172325], [-0.11203902955604297, -1.2683496591777543, 0.3352408063170863, 0.4927118275285722], [-0.4184756309363806, 0.4817304085997152, 0.5720273407829305, -0.20281686913689287], [-0.02115446338196765, 0.04718915343122452, 0.08853374406709412, -0.4919990781564456], [0.664003714037048, -0.4775522168864812, -0.21564526158312222, 0.08312742466736349], [-0.43475483033171924, -0.1851053572696809, 0.6957179033846174, -0.3724625799652382], [1.1230711798448052, -0.1097994940019209, -0.8091564335581878, 1.0514300763011943], [-0.6572827287085785, -0.03198883104690121, 0.22562879737759223, -0.45158139795200564], [0.7785702033071676, -0.1523268578374044, -0.7649041973163994, 0.4576802888317238], [-0.5496585945873056, 0.7872005865921125, -0.7282794844626435, 0.06443268310177923], [0.4907708246892733, 0.7582025862713181, 0.5544744684678695, 0.002385468379660558], [0.42511411329764853, -0.18444694730640795, -0.18884337863409809, 0.6475636744365105], [-0.7191275599126024, -0.2697959385844787, 0.5414777189568434, 0.2292969918191881], [-0.0825865666583786, -0.32555162137367977, 0.35704367784326596, -0.1826341010355147]], [[-0.10032423940341965, 0.03295993148365998, -0.22824508560866844, -0.1462211857148715, -0.14030596664871417, -0.015394734258314958, 0.16616946080927114, 0.0428720353348376, 0.0665328670582783, 0.17537952293699016, -0.05611842868872222, 0.1302009915836326, 0.2711967854741391, -0.43187478966276166, -0.06203159094394023, -0.5004543279669303, -0.10504648499306755, 0.1950736957881079, -0.10590721468614456, -0.07153464098955165], [0.4637833646137621, -0.047183389036619484, 0.6494731995778218, -0.390153113868217, -0.10480983056658251, 0.17278138792775938, -0.26312782125794104, 0.3235699193619539, 0.09182532643189412, -0.07411864593703826, 0.2774674065186158, -0.041717652210309354, 0.24289717730560523, 0.16373763390889265, 0.028975955464026076, -0.09862924707252885, 0.0800765260838575, 0.33150202390238637, 0.15167749902717975, -0.0889730141274737], [-0.09942170892187814, 0.27467605392786304, 0.026747101174394435, -0.25977143606829056, 0.408750827258829, -0.035795076392175676, -0.04478979257224692, 0.5233469685279096, 0.10146421749433285, 0.3881590700212203, -0.3894728709070461, -0.46261662565696726, 0.05511388895180938, -0.21010504194459423, -0.04996167298502996, -0.39174721606674767, -0.23374522329654446, -0.5234473912604911, -0.256460166478378, -0.016896810689678955]]], "biases": [[[0.17921999492649976], [0.5850621044807671], [0.3487044185704364], [-0.8499538294747344], [0.026683597159678017], [-0.14778078916573645], [-1.6640410018368346], [-0.2984412466962461], [-0.6254641317507111], [-0.4505293878608689], [-0.02879071179445483], [-1.388077729629818], [-1.0664128948593683], [-0.40790773873639424], [1.368268739901098], [-0.255110919744478], [0.8937681965009991], [1.361350677566918], [0.4948488439446931], [1.1003854714448875]], [[0.8491712507491828], [-1.3657528537699102], [1.116392806081801]]], "cost": "QuadraticCost"}