{"sizes": [4, 30, 3], "weights": [[[0.4152707267214299, 0.43094243299094476, 0.6138577649533503, 0.6404229076109358], [0.427523950707766, -0.42822571055296865, -0.4397818748000097, 0.09470853448112036], [0.49834244540826594, -0.3281698030980338, -0.2678593813058603, -0.5741927040719556], [0.013984567293230974, -0.3878576087750697, 0.29492215156042656, -0.3973744678840684], [-0.25052893629784007, -0.5999366710924577, -0.5430507267384042, 0.45685829911854026], [-0.11005821050431566, -0.5506253096033712, -1.0589971315371671, 0.32684181696378484], [1.4464351293125914, 0.2963057805564474, 0.01734892907955449, 0.43360576269713674], [0.48967843085006224, -0.030928280573293405, -0.11666009950306772, 0.7056021261537424], [-0.05782132755621483, 0.7357222202647915, -0.613074992698304, 0.9795662223500657], [-0.5144130666031039, 0.602255787595174, 0.0011919844404748288, 0.10069666847488673], [0.18270702101551406, -0.437086740783242, 0.42955229454324784, 0.38103321593852363], [0.40831395466815223, 0.26323730245882593, -0.08829674966760902, -0.03749336775621581], [0.6941600918422351, 0.23480052454159808, 0.06843348727136758, -0.3285180963586683], [0.11657469307258687, -0.6950419089731941, 0.23907567391546217, -0.014264360193837611], [-0.10893400595433264, -0.5054558094255776, 0.7025030082090498, 0.12573292245004156], [-0.8606833663502395, 0.7046967368418106, -0.8638790714339878, -0.6396718154439253], [0.05162314440537156, 0.2253088655249292, 0.0617857853906446, 0.25912408801313785], [-0.16874005547011423, -0.41070636206568756, -0.023560635146237865, -1.1420441158295975], [-0.4428361134663149, -0.6327906742948173, -1.391168186350969, -0.709557988217174], [0.14624427822248026, -0.0404095198393418, -0.15366935183438812, -1.2244853593973035], [0.2917407182346158, -0.16051981626120318, 0.16153163873149703, -0.061901199877205444], [-0.4341851254522903, 1.0267160043712036, 0.2653539624801764, 0.3087199679038354], [-0.13197514413885902, -0.4641431967343622, 0.0725257027233986, 0.009943110006772967], [-0.08372429063388781, 0.4631845036471187, -0.6386964032175735, 0.49810275440228463], [0.41928566725508826, 0.3477499470585236, -0.020637438060946586, 0.6670325502616766], [0.13315274022735796, -0.9821982190189695, 0.533335354452294, 0.9268228570383042], [-0.25521324426339004, 0.4448886444037357, -1.0451095427158121, 0.08383425214430101], [-0.033239956591165035, 0.028236820461216033, -0.14725543020846146, 0.5024163732338756], [-0.05318737407344608, 0.021497353270709552, 0.28055848981943915, 0.4207844069515927], [-0.04189365811448187, 0.5374065202761764, 1.2094817007759557, 0.08708117893026653]], [[0.07091981985596811, -0.19383472942136745, -0.19464275824919283, 0.2442795217060902, 0.07447256749214162, 0.010271038224340034, -0.19582937272103498, -0.007013013737321702, 0.04389918987652464, -0.06082743787056265, 0.2797798881133424, 0.016794650297645007, -0.07819167156320637, 0.10860753743969799, 0.17945447281874435, 0.0482383791691481, 0.280746273900804, -0.3233463420234062, -0.23413050471634728, -0.21159400867371803, 0.3857905680233897, 0.31966307086534584, -0.29637943130719535, 0.019323905018283138, -0.4083660787186581, 0.1081745566778404, -0.28872153479990514, 0.17696524329418778, -0.26927753978689045, 0.5107817969877237], [-0.01872698150490994, 0.06952208378641989, -0.06253398519502765, 0.03452181316867202, 0.010788888385694884, -0.13076873868878233, 0.22184355491350263, 0.4938158129404114, -0.2541911121151325, 0.06028852738203045, -0.5051217508623796, -0.30475861077508104, -0.2509670132820078, 0.28765894808559517, -0.05805525760067916, -0.15073840591464863, -0.36724457475106864, 0.12683908024536023, -0.06973398215538297, 0.2749555033975951, 0.04243591745718839, -0.01951220142313984, 0.020173684838179575, 0.007574037351413432, -0.15006272534981885, 0.20253092585406027, -0.10150312344227047, -0.04459278858535485, -0.13302275665998187, 0.3220149501213137], [-0.00041632464748880534, 0.09650365215983896, 0.2184368941563544, -0.12545736560743542, 0.034899320256093935, 0.0680084913782825, 0.21302488671498968, 0.15987285296600184, 0.20404937209251675, -0.0827314116580731, 0.06992780281547793, -0.18441551186341987, 0.1426549368888076, 0.21425230365710193, 0.3868960228517887, -0.020461396839043484, 0.1471790125942932, -0.035845295303217235, -0.009275159253409004, 0.1487906662018319, 0.25959453040316516, -0.08400776564615241, 0.2522256699418961, -0.11600420447956185, 0.25125314983476793, 0.05689410724032814, 0.08355875120803749, 0.5482064877068621, -0.014617205388938546, 0.049211609503598916]]], "biases": [[[-0.8309983174572892], [0.733901155869788], [-1.1442909221553457], [0.06862697697170853], [-1.0070021744329327], [-1.940322155115603], [0.10022637836119665], [-1.1124724718831265], [1.2806877482322432], [-2.0920437698654917], [2.1015760822957614], [-0.07116809058739967], [0.8427257361798064], [-0.8707719208375969], [-0.36567352504652867], [-0.47845556175978005], [1.7081257854867802], [-0.0382716057983886], [0.4383716028554009], [2.435100399203526], [0.4351388781398123], [-0.1725214808758905], [-1.082797545144999], [-0.21280239984943816], [1.5100696248704055], [-0.7178091982947874], [-0.7050938649355011], [2.069460112597774], [-1.8096222570759195], [0.6641331089819407]], [[-0.59328819165475], [1.289203349649646], [-1.5121696761278334]]], "cost": "QuadraticCost"}