{"sizes": [4, 30, 20, 3], "weights": [[[0.9031529708588547, 0.17166794716361516, -0.3925944642277821, -0.3923818389817752], [-0.3717126369196322, 0.027322551385505003, -0.6045633655095585, 0.025363981168498993], [-1.6576020512545637, 0.23689988486597013, -0.4479861919873624, -0.12224972276065349], [0.19912623397569587, -0.07906915962282718, 0.1398697929763535, 0.8004707900934642], [0.3636242054272276, -0.7755688286519934, -0.4397122984209856, 0.9876599884021322], [-0.6945260441653917, -0.1364321577976047, -0.22284079871259668, -0.3436716019114627], [-0.21188946110085424, 0.5977612411562635, -0.48652680633822454, -0.4882697215651711], [0.45773336591316893, 0.0004444633396315084, 0.1733022972851293, 0.33867828016587614], [0.16030362621090707, 0.29348101311732505, -0.7701211047120518, -0.2696031787409076], [0.6526299334704165, 0.01780361488851492, -0.08784464927322289, 0.0256529186467846], [0.32939293092894417, -0.5288360065192408, 0.525878636662339, -0.05028229551649787], [0.5838053714838114, 1.0550619006896398, -0.08171283042890395, 0.9127338091046636], [-0.3826219655423119, 0.22639135719638576, 0.28964966089892974, -0.04884161273350932], [-0.27998905605901786, 0.5594470018801971, -0.7401989985659114, -0.19058767325279957], [0.123727667818377, -0.37084594427040485, 0.18486027805054478, 0.23224318806896493], [-0.2835995490816684, 0.13393406420704643, 1.3235005631469154, 0.05622376691204433], [-0.7172163286929071, 0.35355084992471, -0.19169522273165301, -0.285379428972202], [-0.06414159841602388, 0.3619745344299548, -0.21074661152968294, 0.04737873061090334], [0.45184327765173865, -0.44897530332492513, -0.11952540646539213, 0.1428583232247191], [0.3806471709738398, -0.24057140432105767, 0.31525574411736185, -0.02922407839650811], [-0.5733024279234719, -0.7713010174037674, -0.15428621895189804, -0.18657855945699633], [0.816952818691293, -0.42985616259294496, 0.33442283075342005, 0.5715471943593566], [-0.7933652120114194, -0.19688342159542033, 0.01269697297797051, 0.010073095300807283], [0.43948937674255656, -0.3488462586851507, 0.31555472745772756, -0.52265942535438], [0.7329485618342713, -0.18685753530656585, -0.08030749215928677, -0.6689025813946113], [-0.5381139861631765, -0.47002038215013797, 0.7078419152652471, 0.4200741101893072], [0.2427166291910734, -0.06992450180761343, -0.4230447995170827, 0.048055025239963876], [-0.8550981935502702, 0.6802749929384773, 0.2607422583790846, -0.28255253238373357], [0.9151317139414673, -0.5048655790270691, 0.0459629052516265, -0.47881831643580314], [-0.42251221243413434, -0.3172115482124638, -0.9050715288314499, 0.6494058570186121]], [[0.04739264403265413, 0.24257133212638143, -0.05695399955773369, 0.07857651852105545, -0.05317963065753864, 0.2748714130082784, 0.25184204778351177, 0.14531722501780328, -0.12756312339899514, -0.012463930990402002, 0.02445417230952511, 0.10635411905110878, 0.0798767743955543, -0.0913124726686366, -0.05511516496554385, -0.12922859916799795, -0.4668312216704523, -0.09214882304387599, -0.12344664620692279, -0.21660992952895416, 0.26518473163121586, 0.29834318124317266, -0.10123493016489077, 0.20889153746872258, 0.2405695475542278, -0.2619385772544395, 0.044868865918158626, 0.5204844246835486, 0.031877525483178105, 0.23822197694932723], [0.23149381351172071, -0.0272668073419388, -0.18399941627221153, 0.06674023352432187, -0.03762637374669753, 0.23891623942093393, -0.202785866912897, 0.08174739848082427, 0.07429801408325291, -0.21781846740919955, -0.012711334855827656, 0.25459738053746955, -0.14972402636244236, -0.30599440791785015, 0.06757408415484042, 0.1494478463325057, -0.10522300565271289, -0.017466738418452216, -0.23605022279730792, -0.031454003624248356, 0.12125674784740569, 0.050502369986080715, 0.005312395441011284, -0.11739343468490394, -0.15347552103312734, 0.3309951378218113, 0.1680431691265346, 0.09417795614635999, -0.0031714488816538817, 0.16987623089924295], [-0.1367723071296933, 0.3362456105271615, 0.140899245159539, -0.11206436319787569, 0.13172560041002884, -0.06948869298559097, 0.14655381483020613, 0.25626677130606873, -0.12245475024136403, 0.09337892853163957, -0.012472632503199233, -0.13053435423334475, -0.11871987153739268, -0.21492454716581244, -0.0629550982288187, -0.1463698687928222, -0.039869321900638174, 0.18582465122137648, -0.13323209829201632, 0.11643859584049422, 0.11394493621787981, 0.007609956486751545, -0.10421099930299606, 0.1918696543993851, -0.12883765963779112, 0.11526506628276517, -0.2860503843778663, -0.16976931528973732, 0.03417784863112815, -0.11350313540604898], [-0.2812202163099433, 0.05235528276236813, 0.27370024633894346, -0.21053142395535177, 0.15144501074733244, -0.06209559281825085, -0.11718652595050695, 0.3531738266456782, 0.2857611292596218, -0.0078000186775679945, -0.1834335645370571, -0.01205807154457658, -0.5543066819185289, -0.12963045665225492, 0.3468996171080616, -0.2343995397929148, -0.30190228284699394, -0.10718624607250198, 0.00921452013188475, -0.08322475978920654, -0.15084262035961785, 0.4420562755487705, -0.0222224076087402, -0.07766528729775253, -0.20440055328801446, 0.1297370634249132, 0.03435465334444029, -0.1393349293781816, -0.15040615709071178, 0.4084819101962006], [0.23305075996226682, -0.11480467902107651, 0.15384129071314165, -0.016363494433734364, 0.07984704351295283, 0.17339851804791184, -0.01386915914050751, 0.1151745093979127, 0.3108545332356776, -0.07612702461442353, 0.247439065056037, 0.051135721414821, 0.08404973486350341, 0.4039317364808945, 0.39335474043035457, 0.04128204681545628, 0.15473489167148902, -0.06465181562013662, -0.11760282609881852, -0.08299982261258228, -0.0840704094827861, 0.3370027044817446, -0.15071395600013412, -0.3926457272402293, -0.12355331193490643, 0.4142874631156557, -0.10709435201191511, -0.08604385537685642, 0.07267077607609967, 0.1404735723072379], [-0.06399438920493931, -0.11786249166069312, -0.25267099510886737, -0.2349331078023995, -0.5100264476773384, -0.05841690126025019, -0.05473711230705313, 0.02656786024855703, -0.15668650415154117, -0.05679055722339973, -0.12101747641076764, 0.07054284890461829, -0.1321731332927156, -0.010506546513476, -0.09432568963702911, 0.036697599136450106, -0.09356565192899843, 0.4310989812505207, 0.18947122745380962, 0.28538991978420064, 0.11738512554090576, 0.025219061041881288, -0.1701839009033797, 0.03578826316042313, 0.13597455615621612, 0.17119037003182438, 0.07596621795051685, -0.05979357749765193, 0.030000528700648826, -0.30569480572360475], [-0.2206836269279322, -0.46856939644159723, 0.1854460920296255, 0.031647876248844034, 0.18375095762544952, 0.1029535917700662, -0.09713319512910625, -0.06322647481211684, 0.180824076689813, -0.10633069421666748, 0.06114775550308496, 0.08433845851104749, 0.03568584418977961, -0.03735277471012968, -0.043493424672068466, -0.08556582661335727, -0.1354647117288591, -0.13528786546690952, -0.1491888632782298, -0.033607719629616374, -0.12208038824270202, 0.01530529605119073, 0.001740622264552114, -0.14396363350262573, -0.016776967590099733, 0.2115520266409671, -0.1747993364851891, -0.17796885176496324, 0.3834163165293965, -0.08466660289865958], [0.03564587909582445, -0.1438444478048201, -0.3132471656855104, -0.2972418581003104, 0.052426652640074095, -0.34314871532675806, -0.2222549648609592, 0.08669119487502316, -0.24021919946455944, -0.13368418667025206, 0.0863974263852011, -0.38397597105042836, 0.18375826462190578, 0.17033891220976685, 0.055864934469888904, -0.22077390267720923, 0.20552675075666282, 0.08110112527489981, -0.12583592466819876, 0.06728805176572085, 0.2360969265578208, 0.10178908259142654, -0.18265504763184456, 0.16903976030901097, 0.10348378467899422, 0.15176828336809134, 0.18728574827787614, -0.31587109604189617, 0.37278073403007744, 0.26273509396531397], [-0.16805542670881565, 0.1950051007345552, 0.12038213189712645, 0.042934820028757814, 0.16225978082548947, -0.1005876040618457, -0.18299783988781546, 0.2620724803804419, 0.009380928396266777, 0.14588774367239865, 0.04579959794879224, 0.4041982978228483, -0.1297593997045196, 0.17542120871642716, 0.12826989918588183, 0.08951974724970833, -0.01997931114650505, -0.07899082326910342, 0.31419804642598326, -0.10509613818685386, -0.16671975103437067, 0.11063551322098353, 0.25571815079381494, 0.1252635744927452, -0.16249329484887945, 0.44141458872375305, 0.30205026041131744, -0.23117280671964227, 0.2751050804386965, -0.02286439767725996], [-0.48632179798354924, 0.03613290634524991, -0.23154752746412816, -0.4463402185835013, 0.3342507420045769, 0.2809694092060376, 0.03653520057071251, 0.05464815194556785, 0.0663206522518406, 0.3035175328232985, 0.010819470924304573, -0.11568626212093817, -0.18594773372776588, 0.0022111740592640405, -0.006471877266527106, 0.02121561146449717, -0.16110544370415647, 0.31441320778369813, 0.10390196401065212, -0.10512273322901199, 0.13629900183493798, 0.07820011459089747, -0.19065402194209194, 0.3010626169555219, -0.06783885096801565, -0.2307254252996837, -0.13569421643884796, 0.1564148038704816, 0.1891633295877909, 0.009898231262330973], [-0.2151320456693175, -0.15890999629660715, -0.10467060144073377, -0.01923998676509597, 0.24908305922941323, -0.2519330199228017, -0.18402239953016625, 0.047005383010118126, -0.20983642374560346, -0.14096770163923392, 0.05517743276516877, -0.12339645487285247, -0.3104244973554036, -0.04542839236713475, 0.1283747241433089, 0.04070274074236534, 0.0838778043494627, 0.05192972423793589, 0.012478592321049406, 0.10116009758958262, 0.21378426543908524, 0.0919052280341248, 0.30761635487268413, -0.08016728947786542, 0.4433555167968843, -0.07127003733689656, -0.016724612085075898, -0.15939186202518496, 0.004017673073104568, -0.1645578014500897], [-0.09407060293920008, 0.0569758188486083, -0.1745776204180672, -0.2039559772656601, 0.07059519410039056, -0.15634304073475955, -0.09996673321626051, 0.10899098091439292, -0.11578175350093362, -0.2978036958371947, 0.08439960780582333, 0.04332727095466804, 0.2585963222635291, -0.1393807807770754, -0.01324641569553587, -0.00379340762298484, -0.1254626029338671, -0.001730835081850153, -0.016047631825507523, 0.14519975200687973, -0.13702583449893638, 0.08625971610771602, 0.1179766268026353, -0.0007458742774505886, 0.187673085401757, 0.03599824923803572, -0.1647939724505037, 0.13386396515894458, 0.006478975864694834, -0.3318872719519683], [-0.008116569660452941, 0.05051943741479186, -0.26027194596222236, -0.1432162410510452, 0.17144159462395225, -0.1697653168205782, 0.01889609883257992, 0.08917236740280048, 0.06408931113086742, -0.15708147231950473, 0.1334173282145254, 0.09566400677867008, 0.04544367470051746, -0.1027367417124166, 0.21722982608987126, -0.059845491036825134, -0.30798126909926865, 0.06939061559709561, -0.02354513248050292, -0.13523054147992927, 0.21963774461210522, -0.20272360995308658, 0.04577605943382072, -0.09635475700216531, -0.12527604972771725, 0.2872517920120082, 0.1300932038140791, -0.200829285372886, 0.25144961994045845, 0.1445172717796157], [-0.18167134645278937, -0.05932303853302581, 0.24121183332864962, -0.21823127742321244, -0.23142517519198036, 0.2531149751801482, 0.0220074985355623, -0.11727088184716965, -0.19429443007844022, 0.12642435534326124, 0.206451470705352, -0.07333096270115311, -0.04460315825151283, -0.021643297281555316, -0.2421750285962935, 0.024730398918371536, -0.35782328202520414, 0.035277295132580225, 0.04462732577063252, -0.15539056592989858, 0.23809376068933621, -0.06381726071368414, 0.10573261357909039, -0.24188487624470809, 0.17727332627100126, 0.3223343946979806, 0.06535848290458116, 0.030298322009468023, 0.1374261774588196, 0.08613979389429982], [-0.06223495957059744, 0.16805319841599028, -0.04293658784553478, 0.22996220824610927, 0.08176980906038461, 0.03456341390307495, -0.19400213749149248, 0.08995928425715789, 0.13430752932205095, -0.039108965314870583, -0.19139909298929894, 0.05836324723050941, 0.24405677230027817, 0.005469978596774185, 0.09242307109311688, 0.159684763399946, -0.025797667261759295, 0.11778127758673503, 0.26740345378662134, -0.013236153941479815, 0.02870961939114276, 0.09346251670642236, -0.10896252673051059, -0.14727117458045255, 0.2364096219991771, -0.023991106728532406, 0.08290485709702529, 0.23931956506532207, -0.02921772511693608, 0.2623904272274207], [0.10577027640067072, 0.04801712495866425, 0.3167004581420559, 0.047225441658624266, 0.10042420747845111, 0.08868837050913199, 0.04141652304907756, -0.08873422781055114, 0.15064486790436463, -0.07530339733451323, -0.28454045687708646, -0.004588199668767063, -0.12014951607837977, 0.12134389945058931, -0.14467955480474617, -0.04545561252945067, 0.013277445214043232, 0.11323647353495835, 0.3248839039146974, 0.17148828148365086, -0.20051550217927455, 0.24914509430515608, 0.008751044369354307, -0.06201157891924329, -0.0031973457261678306, 0.1540512914035376, -0.027439648981561194, -0.0685191075037385, -0.06598499829203956, 0.3673728283605247], [-0.2674329753125656, -0.2773012106487597, -0.045010395114105275, 0.03567055125276726, -0.02486146391784449, -0.10768050198755737, 0.2588371038347482, 0.30485358880078656, 0.0816199347438634, 0.1645101612685197, -0.05293408231132142, -0.11641019539323573, 0.16729883477088417, -0.43312791416663854, -0.1844698459846044, 0.23123768979831966, 0.07774923892098555, -0.1574877532182503, -0.38762297235091325, 0.08885242591597027, 0.11864015944059035, -0.10355738256094343, -0.02735320148159854, 0.26951555767771795, 0.07834376518500892, 0.21218181086972088, 0.009544580274236039, 0.014946084424982574, -0.33105992639611964, -0.06728057593119494], [-0.0018148871191222818, -0.06083348173672161, -0.009477577901153085, -0.5283134939338382, -0.3087914475328857, -0.12408643288092318, 0.2398104051964403, -0.0445069766058881, -0.01769978780643958, -0.1513309439237445, 0.07334261266649056, -0.22059114728145987, -0.22063716379996987, 0.042917791987917474, -0.1964797090292759, -0.022694185639468557, 0.12276435897020807, -0.36504381800278746, 0.10346439166834183, -0.11640393386913124, 0.19870543705223068, 0.23974149803377448, -0.09222052261296691, 0.10528057942665443, -0.0037520746543601717, 0.1468683143650064, 0.026038021611875607, 0.01561400897424241, 0.19045020522136338, 0.17583540541379622], [0.25815716080259593, -0.2584046923507027, 0.21591607686804346, -0.07130534564305062, 0.017459484750369514, -0.06585788931507928, -0.4481415313563667, -0.11667750945803686, -0.10032953084997988, -0.20352011660011105, 0.23567350957697972, -0.05667831239342143, 0.3571559209066063, -0.16234531640528166, 0.13013583242669874, 0.29109294881910036, -0.18768533586995056, -0.0574476993787893, -0.3268966535077493, -0.22077961555324213, 0.09575726065538515, 0.09921105171201003, -0.0370366931001844, -0.003286683055149667, 0.12247776347381344, -0.23106313061526898, -0.3041242724390379, 0.13088906468989522, 0.12158154220609972, -0.12083996678716018], [-0.00413020573987784, -0.24840364650681143, -0.22487420823278875, -0.28165254442604215, 0.09598475018538503, 0.07548117869676525, 0.04926374484730731, 0.034479369090385195, -0.0026690551620937313, -0.19837450091554648, -0.14579573483198094, 0.22361438560096422, -0.3616493462886365, 0.025974214660111357, 0.18097660891434406, 0.05741956332811328, -0.06334099553184654, -0.01725607713806396, 0.09086742798193667, 0.18996149797705458, 0.6776993614597192, 0.1709373323308498, 0.22708083257253966, -0.2814746004584383, 0.16800473873826507, -0.05704120063673994, -0.14477373452912612, -0.04574730428721768, 0.13416826365789375, -0.28550769558459627]], [[-0.25126249724098876, -0.1354722587302365, 0.029945187473725765, -0.16508709953513104, 0.4243861779816914, 0.31987959209013034, 0.5578301674478119, 0.03458973107631484, 0.3747958122331056, 0.15446200700013096, 0.2226604486804814, 0.15273895998489986, 0.17605383598308036, -0.12013694366582575, 0.2941784917708277, -0.17803146890099034, 0.5101693997425937, -0.17338333865713074, 0.08642799891374688, -0.026345179098612788], [-0.05618468109322488, -0.03039763918686818, 0.29839860773890015, -0.02480241686621417, -0.3016500415761275, 0.05493076544407632, 0.2538646520614007, -0.44283736227153164, 0.09498514254276275, -0.0636991278746831, 0.021825446629623383, 0.04537421637786156, 0.3031159069429545, 0.12596146332037497, 0.3046503673938668, -0.2535577991338481, 0.12555356140995613, -0.21820176625005283, -0.07865603274617038, 0.3295051871166298], [0.23687746304116547, 0.4152508566300374, 0.09136784733056867, 0.2322335398013024, -0.08940410474729629, -0.36911701669493907, 0.1473944782801125, 0.7736001586210277, 0.07606450262313277, 0.3310302643141979, -0.4391491051034627, 0.02169540876877947, 0.3540316940798453, -0.24672688178951185, -0.033694591356541514, -0.09893793456870704, 0.25763363924048055, 0.31832111276297315, -0.009143335459905892, 0.15816717071851227]]], "biases": [[[0.09735316659251521], [-1.2893789689651225], [0.1534864571399672], [-1.9518627714437389], [1.1366180025171115], [0.10264582328840559], [-2.501776292857751], [-0.19617071769532649], [0.6125702577899222], [-1.4211681967655005], [-1.6030593496699939], [1.2779635674555332], [0.9728747971138915], [-1.1931740447306063], [1.2646458799778346], [-0.40318202757822164], [-0.32168893241261065], [0.22358175641202097], [-0.04066279958090653], [-0.623745519251171], [-0.23372943317890615], [-0.18607624790550845], [-1.23298016595781], [-1.346389557785531], [0.7129576995356977], [0.6639184171517254], [-0.8057852564025906], [-0.13881721452955936], [0.26362672805360293], [-2.2059434783893668]], [[-1.3340644206639312], [1.5987739546714903], [-0.35914151013668144], [0.5663010004479704], [-0.13408389842044185], [-0.4994421257643372], [-0.36706580710921344], [1.0237492982560197], [-0.5039314325516159], [0.8690442103029128], [0.006712024523703345], [-3.0027244649041935], [0.45438567037248334], [1.775609300047646], [0.19328225455906467], [-0.1188831088303336], [0.14413646366057928], [-0.6733914821705025], [-1.8640322145493895], [0.4384477100870456]], [[-0.5327226848163953], [0.39403198203062684], [-0.5755846604151869]]], "cost": "QuadraticCost"}