{"sizes": [4, 30, 3], "weights": [[[-0.7193971638373663, 0.18970878901089522, -0.47636570468913786, -0.8418375049395989], [-0.3261671740594435, -0.7071962506967719, 0.2400932462032922, -0.10028089436099319], [-0.4575868961928398, -0.023940151198299512, -0.61689646287049, -0.15078285721912496], [0.30027584906225746, -0.14114750205921636, 0.19860694657730935, -0.03768253245219519], [0.14579242575713622, 0.178744587970648, 0.2181718038188684, -1.1459849511328002], [0.47799191292586135, -0.18435463329260188, -0.09859793233625094, 0.29425662958819987], [-0.6359181193968968, -0.7201256710220668, -0.3473245982539366, 0.028242731732913803], [-0.4050293779774817, 0.46448764610586885, 0.3715627301766173, -0.013654244618606426], [0.24306563635949874, -0.0953850210666252, -0.0807998443144307, -0.019115821914062393], [0.059142888953408475, 0.33391578357621615, 0.310708977017412, 1.3006896505168768], [0.3643450253884078, 0.7028297752710372, 0.27284866618017833, 0.8894520028344309], [0.39316244842757364, 0.2529620907807388, -0.16382325003842316, 0.9475728575938203], [-0.10368206414940295, -0.4948660273889182, -0.21755259585975775, -0.27030294585561154], [0.4916407481342909, -0.3149338714581019, 0.30418129305277514, -0.5236738398591243], [-0.5742899243820975, -0.0929989245776531, -0.03107864049753347, -0.694328972110067], [-0.08467033459169196, -0.530377300259381, 0.2527921461183878, 0.418213974294765], [0.0359174293614397, -0.6257501805790066, -0.9731328326896972, -0.13056890198880655], [-1.1148339676539536, 0.10394413827918934, -0.523326862498732, -0.6676457459485449], [-0.05636956948833283, -0.4490191440999138, -0.18792087696262758, -0.3904188551438686], [-0.14357256459366619, -0.4894000496291236, -0.18751983362933564, 0.9249297960005404], [0.47845937445206915, 0.12176114154478117, -0.14806725576406277, 0.14925066967317477], [0.8041100860363917, -0.6212579075767138, -1.109365397560105, -0.2430581963115799], [-0.5811215531656182, -0.07188413724430337, -1.0960858850137696, 0.37900524641099453], [-0.302659777091618, -0.3305806515707961, -0.051644622838942715, -0.3650917418001879], [0.4073696445681939, 0.1640566122958469, 0.521650001337054, -0.05196708472627845], [-0.0005609414637888654, 0.2793424592223182, -0.2959205939676692, -0.1762850590703809], [0.6819320014815928, -0.6454815401537222, -0.20999862925601623, -0.1558129215373351], [0.9114550888022633, -0.11463615388166612, 0.13830063779632512, -0.39393108359964674], [0.33026741625121386, -0.09293754826767207, -0.07828559178176427, 0.1602488813240388], [-0.4874230162277942, -0.3119238668329153, 0.4531068899625557, -0.1891297646153827]], [[-0.21506894523264836, 0.007593683146525312, 0.20428796211304606, 0.12667871533676184, -0.17922599035601122, 0.03692090118331925, 0.39134687164317006, -0.07063622713487494, -0.016396473953933222, 0.13254128581962996, 0.16234167707413333, -0.0662092730904856, -0.12714640869957458, 0.08915442978620822, 0.1949617874557329, 0.20161772801626426, 0.05349185440996508, 0.25076733730706335, 0.3202458129777792, 0.13330500770183706, -0.20919935622765537, 0.2641941934790789, 0.15198009472256885, -0.05806785497443852, -0.06694965452211826, 0.36471952409563, 0.08876586147944951, -0.3407262650094763, 0.5031652966855885, 0.12006519876157239], [0.12743671796117248, 0.30509108874041047, -0.19752765499007832, 0.3923266232530527, -0.0834924307517816, 0.1854245929274122, 0.11424844265090542, 0.12820864109659227, 0.2908716848862166, 0.17592786819238276, -0.053556136127366524, -0.07299681641817117, 0.13521150606774263, 0.11406323502529872, 0.08268115785275108, 0.04545965268282463, -0.09176336453721513, 0.13326075370560522, -0.21470969903429743, 0.24765097458514715, 0.1096263005652906, -0.08687109288558531, -0.23676450653458714, -0.39633534880542826, 0.3073552457584375, 0.04252866666670606, -0.08440625782669965, 0.06584956659352953, 0.37316697911816304, 0.11923618101335116], [-0.15613689678378798, -0.06987373677274607, -0.02200275702996107, -0.020819422215333505, 0.27945561239107597, -0.22794004824839137, -0.11802880321732599, 0.03511998059748553, -0.16918897041366154, 0.07338910773771432, 0.1603891642045693, -0.39088930291902363, -0.15926435737750716, 0.002276711611004017, 0.16596503660142364, -0.09563881982030402, 0.10172645510551949, -0.02612494884798611, -0.3827019171819617, -0.026411566562421444, 0.15439080277383926, -0.08645927859330875, -0.09300730536585079, -0.016480818069085, 0.19070840134519224, 0.08132778692792972, -0.04917965529062082, -0.23607900770439008, -0.3516376537563588, 0.086537912542797]]], "biases": [[[-0.18578658610588006], [0.5315870616367928], [-1.1375669982745622], [0.4241744871719005], [1.5050265769330955], [-0.23669825580800966], [3.20266451345387], [1.4964534085546957], [-1.8074178536938592], [0.7961397900430273], [-0.5703680869305867], [-0.9511019858054329], [-0.5160600966270004], [0.6061163772930629], [1.6566665953160757], [0.64776773726377], [-1.766948492064572], [1.001548854997935], [-0.658085552022904], [-0.1169247730068013], [-1.5488942470225568], [-0.2913995700142961], [0.5558289277387422], [1.3453315929981657], [-0.26199457023832645], [0.1779909213900692], [-0.39862967141571665], [-1.0136104575910845], [0.5843709888806341], [0.5829354666606612]], [[-0.931186703025984], [-0.7497304451855445], [1.5124997832600933]]], "cost": "QuadraticCost"}