{"sizes": [4, 30, 3], "weights": [[[0.08718794030040233, 0.37621904528725963, 0.4088595707190861, 0.007683483055449481], [0.12969695670168213, -0.45223396602419175, 0.12511691262206737, 0.6687114043021244], [0.053781787650793125, -0.9872360874136771, -0.08197810392273794, -0.10750536151685841], [1.1421044094404476, -0.8729127427703854, -0.9439813107910713, -0.8315194318020614], [-0.003629846631148451, 0.182299344158222, -0.3310133569531144, 0.8391815627796315], [-0.4189668234818091, 0.2400146169205549, 0.3148405883985846, 0.426512241290144], [0.7799695680140682, 0.2039493812355797, -0.8339747169638956, 0.17391303184873014], [0.1799555592031596, 0.8713277073660254, -0.14714758861740146, -0.2973190653020252], [0.24416947902315034, -0.062103857668146745, 0.030321244142453296, -0.45596708123221774], [-0.2880079844931849, 0.8005159573841142, -0.775070919658752, -0.16420621830660304], [-0.5650966049266927, -0.9972955053991831, 0.34467913569494013, -0.42613018129312286], [0.6455385148312811, 0.3485627953398218, -0.8513861075030902, -0.3493173642594818], [0.3629092311883811, -0.3777916186957155, 0.8215975967734105, 0.015319053261780525], [-0.14785075211078447, -0.4720898632567926, 0.42561919744754334, -0.1831023824158111], [0.5451966984746764, 0.15097308268300158, -0.2632057244870315, -0.018450702264191394], [-0.5092648541464676, -0.18139139660444242, -0.5948124399074137, 0.1558906268863197], [0.4644288030768749, 0.41700754899683495, -0.8085528805558435, -0.04352912403735674], [0.49249651899175084, -0.5579327155756193, 0.27410488762462804, 0.3995504195784255], [0.34921584712907533, -0.5018121799312838, 0.1824425372592677, -0.8352390214291591], [0.0020216973967358766, 0.22381785221998007, -0.2590098633736136, 0.040270912963014334], [0.4430479947299456, -0.6724564304090255, -0.7088144413773901, -0.21084947588464698], [0.11107444541560456, 0.6266920339802023, 0.21352611386389192, -0.3281388195891427], [-0.7082211316171028, -0.6565875110399145, 0.17448675255860935, 0.7934269410232067], [0.06052024381523157, -0.04101552316538944, 0.06458099020109004, -0.4512228333875859], [-0.35077909274721114, 0.39110001387417437, -1.1245523494963012, -0.6763139174530679], [-0.7239597229572153, 0.8927380001163532, 0.6826735585898814, -0.1713015119003496], [0.25175864370374673, 0.5555044589773798, 0.5153693526117114, 1.0266750495254429], [1.055132359115801, -0.045988111028798254, 0.43165550836283695, 0.6136961220429641], [-0.4057805083528614, -0.843775398276099, 0.22227649195633087, 0.16537638207529776], [-0.9000451539415582, -0.050635048930762844, -0.17637711322094426, -0.42565268525343225]], [[0.05927398359430889, -0.006013459951631439, -0.36251774815159565, 0.040953851174882774, -0.0429161483728908, 0.18793662749085685, -0.12095243088951792, 0.17597503512067267, -0.016280704469027834, 0.416181248659656, -0.03261331650633927, 0.13801779288769733, -0.20194272006994862, 0.25032874021318224, -0.10785100874831009, 0.012069637209569224, 0.041626365828890864, -0.06702130759875598, 0.08837453895340808, 0.1003137198323292, -0.053353743941493885, -0.04134996192883953, 0.007471614850482282, -0.08628174379101095, -0.27636001041661434, 0.045836837682799184, 0.07390392198668308, 0.1638117135030228, -0.041990505910315015, -0.13977538460059588], [-0.2802860602792437, 0.4448002787826067, 0.23479044994316456, -0.06029563094841869, 0.011603972102689807, 0.18940715741108777, 0.04904921281378241, -0.0016968902239861909, 0.02260042513666022, 0.2030774963847778, 0.25274568913873113, 0.021876634937910405, 0.20885139023165467, -0.06654045494386916, 0.2628491040263944, -0.06571947120947806, -0.21472020963402264, 0.05069762428429084, 0.5457226011414192, 0.0701462145989141, -0.2241791157943705, 0.16120514606840564, -0.04351906201936994, 0.27004847681081307, 0.03970795997953206, 0.08086309748880466, 0.18478044691643164, -0.02668684007276175, -0.09798336569798441, -0.1768644020343649], [0.12825971942783576, 0.21185399083526107, 0.08581954160516161, -0.06673725345643969, 0.01840672520585005, 0.055201219785959994, 0.3016888623969125, -0.0551820639894292, -0.14565647470674098, 0.032562140193746876, -0.2272273998333971, 0.16308722996621122, 0.023090394800224498, -0.13763803066958094, -0.05528923246045567, 0.10592170282783088, -0.05271877632423328, 0.39293877692657175, 0.23151725947206792, 0.2897180566171786, 0.1493425653300331, -0.07974267573148734, 0.04148209399671007, 0.26084042564332144, 0.002928573519141164, 0.07273006656572928, 0.3679700179094203, 0.35632272711379837, 0.23412258390780724, 0.014904100867418175]]], "biases": [[[-0.8167296011851278], [-0.831104125586221], [-0.9350978362136608], [-1.4935387200226031], [-0.607488341130968], [0.03554918389360254], [-1.3784173891212914], [-1.2306428221990284], [-1.5495741635669884], [0.8985442078595088], [-0.19816770586341997], [0.8940365732359671], [-0.9794299348883199], [0.3803061433723888], [0.34377358385795576], [-0.6967904254035315], [0.0005365931167802937], [-0.8201080332401123], [-1.3854186092305003], [1.9629925801110057], [1.6681390097093585], [1.2229158360408323], [1.5284842508155876], [0.5699673543239389], [-0.04730032853899423], [1.5902524322572296], [0.8978439392410702], [1.0942318845496617], [0.4369555434118172], [2.3562415778207266]], [[0.3519173981985765], [-0.1618649732841714], [-1.2397581187736462]]], "cost": "QuadraticCost"}