{"sizes": [4, 30, 3], "weights": [[[-0.9457015456253809, -0.2708720446032356, -0.35117846266344355, 0.8098351932194247], [0.22447485166172496, 0.051097597803296056, 0.5302736499518836, 0.14645595886417523], [0.5680420537019899, 0.013386505651557072, 0.4115287461593353, 0.05642376039483113], [-0.41584508998122904, 0.7725155059109584, -0.7027818177281302, -0.6539227779564338], [0.13390340804292092, -0.09365779562842781, 0.8740947811653975, 0.12858310628149902], [-0.015593564068672378, -1.0395929337165353, -0.7577734697246681, -0.004427248855905537], [0.7177525097240806, 0.16194774669230377, 0.34806927303153024, -0.9205444856922699], [0.8879704122381454, 0.19663910762444373, -0.05430393943784809, 0.2845423729213135], [0.08696157254782293, 0.8983315921312867, -0.1256404214325575, 0.507569380048501], [-0.42856430960581815, -0.2649693413437379, -0.23634400762281108, 0.15618023179292762], [-0.3001681431139046, -0.9792433450737451, -1.1918620070783057, -0.1214995537548597], [-0.15058256205216947, 0.505160713944409, 0.11827552541051126, -0.7668219306975562], [0.2896684938221629, 0.05922173542439993, -0.09580108117429803, -0.3874218238445141], [-0.7873704785860236, -0.07766635981045233, 0.21583297305913282, 0.6453114099459598], [0.9462766966767262, -0.560979113914178, 0.6220272721488429, -0.30201543255947705], [0.17973126098931216, -0.2553783352661795, 0.5014114715477305, 0.0178919486056153], [-0.3839682043814718, -0.31239181166038077, 0.42727815586987894, -0.44041589806491727], [-0.7855602705994169, 0.3177021720395354, -0.6914488158367055, 0.20906750889846346], [0.8018150242994424, 0.2713275248530838, 0.49346289954778655, 0.029600895528072397], [-0.5494944051370231, 0.7460634864090725, -0.1694521280331873, 0.2331351811388129], [-0.01854026538480256, 0.4581466330860725, 0.11883997308225785, -0.7327338312865145], [0.15047100126981527, -0.026151473021637065, -0.3199290305868051, 0.1683137286553058], [-0.9482234864617781, -0.7230599989916456, 0.2111948393564242, -0.6109426938837718], [0.22218335811525605, -1.3727523227210763, 0.5807493315356592, 0.4503288080532947], [-0.5717471490184176, -0.5899203363314033, -0.02911212142672371, -0.20601818331316854], [-0.20416450041870376, 0.08595084601228736, -1.0165950032683415, 0.7355718046468444], [0.4513646385781536, 0.2659672532397542, -0.4351195302013601, 0.002661862317729982], [0.9454362237459673, -0.381862457617754, 0.15315761338855283, 0.04510992474919453], [-0.44708933062549056, 0.15614737816741917, -0.23314960925781342, 0.20325933635225804], [-0.7943589676643731, 0.3197603490750085, -0.2907735305100789, 0.6522240226451848]], [[0.023087751141688657, -0.06571914958549487, 0.09345814295790429, -0.10639348844574771, 0.2377775966664213, 0.11717577165653568, -0.09601540329750244, 0.3128734011877575, -0.12986697594937963, 0.12221846197465623, -0.0011684603123878225, 0.11977767369224544, -0.05165381119034141, -0.2515078603852707, -0.1953265672577785, -0.10048192413255015, 0.1295235476317802, 0.03952674798345643, 0.13610885981085669, -0.0898025374362092, 0.028411003891118725, 0.07922470688631515, -0.09792006806429526, 0.09876523776237243, 0.11684936149844719, -0.16925241876470634, 0.36935232499393655, -0.2086821545804095, 0.07452844572755293, -0.18633800733560926], [-0.23307635218064515, 0.020315726795400352, -0.14407084586535834, -0.174833908836348, -0.27408435679983023, -0.32589582060342903, -0.10521715455684635, -0.1262891892655892, -0.23178432744666894, -0.25157224194807276, 0.31009398306241065, -0.3282640214986264, 0.04113267464791184, 0.4357109203582157, 0.07596645659027526, 0.4215730259655969, -0.08854237842059932, -0.11849596596181809, -0.07704899563429649, 0.20115600531827654, -0.15420140953333275, -0.10114463094350881, -0.07268168527848352, 0.06171142497760271, 0.034781236762837106, 0.04126318019088317, 0.04492699691437038, -0.09176803871176965, 0.02593839357073245, -0.12359484627721669], [0.08733274803840557, 0.028937344703461442, 0.06141536399380299, -0.02056271732262405, 0.09704021008151924, 0.009827176136049203, -0.05245889411889792, 0.001312258042260047, 0.10471716459848265, 0.1238444636849749, 0.1616274947010093, 0.07673137119335476, 0.10674933651906518, 0.10107747149050299, -0.2237031850762621, -0.03031520947274444, -0.24753919352658235, -0.0738054123138332, -0.22859259877429572, 0.14029815226320572, -0.020586692727916515, -0.03262617767255251, 0.032466345612341935, 0.3033218852956828, 0.01068742069926038, -0.35242084801038187, 0.04846549946584689, -0.0676899480809204, -0.12970018599258135, 0.19569987714511394]]], "biases": [[[-0.8828070890515822], [-1.2800237414993145], [-0.21978180389336568], [2.271103506061166], [0.46078909380071226], [-0.45985138557084215], [2.0775840762051825], [-0.735732494397933], [1.4915314585678336], [-0.36298148186457824], [0.05952916347385102], [-0.3805481194184116], [-0.6421697186977491], [0.07738061968458138], [-0.6572871618711645], [-1.2779031239941139], [-0.43263535155255084], [-0.8209044987620212], [-1.8239229172341922], [0.8838647856927343], [0.19980951869458344], [1.277746075974581], [0.9985580717580197], [0.14917234076829447], [-0.9317646943095654], [1.2839020301227562], [0.2360276245405658], [0.7190846292832189], [-0.26219900713401467], [-0.7571091061555717]], [[0.6912992006501844], [1.2973733765972568], [0.3423889447817312]]], "cost": "QuadraticCost"}