{"sizes": [4, 30, 3], "weights": [[[0.45455219824004106, 0.046426329241204364, -0.1702530335011903, -0.0786538332333297], [0.43774528336775037, 0.20841564256264627, 0.2763523430408843, -0.4649631823261003], [-0.5888841323097096, -0.21916528739878494, -0.321782364342572, -0.051704861405193], [-0.2309916819985713, 0.6616805681435197, -0.26511030637130634, 0.38264199893730316], [0.159385882775853, -0.26620315821209417, -0.9926507970016007, 0.570936023453938], [-0.41473369943717914, 0.29214977172954004, 0.8302345992520543, -0.021263093084219517], [-0.6499924165382407, 0.476275789648226, -0.3324697462668101, 0.02611153506483455], [-0.15267859105428397, 0.3562572917229666, -0.3695449150761885, 1.4592441924917532], [0.3639140868704333, 0.6932292181502606, -0.27481376326605467, 0.364124520109974], [0.089974503751791, -0.35116624201327734, 0.26613478666232115, 0.08105402894547176], [0.9400749286071698, 0.15644123419615485, 0.9448931879791742, -0.31709727250691877], [-0.9861225353216845, 0.24946662311944848, -0.7636474229561324, -0.47611388445108066], [-0.2094522868207532, -0.027656417067387803, 0.03167518454648229, 0.12771566330036555], [-0.20315325451208052, -0.21368920793208102, 0.17512098635191925, -1.1515815799781792], [-0.5496446586082565, -0.3100961993932245, 0.09587194270707948, -0.38523808897782086], [0.46896298058196323, 0.6391613316850765, 0.13824967390441872, 0.4912946598938283], [-0.5994291446292132, -0.23631909076600963, -0.503401498011896, 0.17415017263203172], [-0.5374440435383373, -0.448261229721074, -0.6880123214338472, -0.6075204485369394], [0.29555317267206754, 0.30120173953286056, 0.21907214724699936, -0.5844736227679572], [0.2965253009837579, 0.20993119225924453, -0.5051031548320967, -0.10192671037067198], [-0.7770964618255948, 0.31236335906763607, 0.5563657144062383, -0.4919689098400326], [-0.21867286017941095, 0.44516045475891786, 0.4645669236417506, -0.18903180870782502], [-0.3425991751341171, -0.9961642355878136, 0.30123653705855247, -1.0547598751209506], [-0.35342987276927545, 0.06814059482644377, -0.6916056932690904, -0.2854394311771538], [0.8418858923192484, 0.49918301587620445, 0.48241932393180237, 0.7652006148769314], [-0.14234084414988865, -0.4659470171090043, 0.1236280210161748, -0.17616937217498554], [0.008777009660092521, 0.4956893973521733, 0.2609557411841641, -0.10585722885116519], [-0.41846204105507073, -0.33207947531360277, 0.580956928070783, 0.017644015682446192], [1.1422274141598925, 0.20530472840067066, 0.460358741474132, -0.010045288030398607], [-0.6293772885332028, -0.17590454356609636, -0.06639366637890062, 0.3290997581661981]], [[0.008227704080213045, -0.16186758521240127, 0.17784104612942872, 0.09191865434656461, 0.08620065680661074, 0.1696042967827808, -0.10016906361720444, 0.41087800264436347, 0.061839830771433915, -0.07697477985528994, -0.017321807808164356, 0.13730166387873552, -0.04289529760353062, -0.19686298271942615, 0.13195299697713947, 0.07194475199944554, -0.08768421400031293, -0.11140651022579916, 0.10376917049972402, -0.30676174600736894, -0.061710756855386587, 0.3094487081540681, -0.1199508354117105, 0.04743761632542227, 0.15866176939293583, -0.18857741568531225, 0.1714105174792535, -0.09011648313302897, -0.09821550230031659, 0.19752426956038763], [-0.19235485643965225, -0.013062148728159214, -0.16586352156870385, -0.03194088520405826, -0.1041447511558722, -0.14003283695803473, -0.47055236739561335, 0.02335341123637877, -0.3546124696193664, -0.3243449433059632, -0.029639066714209992, 0.10811131119340996, -0.036054766718679736, -0.16532094637298472, -0.04225270592568975, 0.002133601788001864, -0.28600673291388184, -0.04682676968817066, 0.1794138945079182, -0.1994919599633291, 0.07035423617837358, -0.05789448700979172, 0.013435914498657059, -0.033740285798048955, 0.09654194793985325, 0.1832066860610754, -0.13145387099587333, -0.06229274706691421, -0.05849499827806477, 0.03775061510933661], [0.21177215712901157, 0.09105321847881373, 0.07607556593325576, 0.08059841281375489, 0.2696222863751807, -0.09489712741881785, -0.181176362128036, -0.16334701885101796, -0.2989342545597078, 0.34132445204856166, -0.1535022146651887, 0.23667375785093345, 0.41013056945853443, 0.1090542479720759, -0.188156786716408, 0.026213674628596095, 0.018926544754994692, -0.12311085615771916, 0.3001700042675574, -0.32206944629357215, -0.12190762643176198, -0.05889073861537046, 0.07515137057428238, -0.07798587648895873, -0.04847444049028483, -0.14964285731092458, 0.20653132173687544, -0.021574043529329952, -0.17152586363682326, 0.22614827756239037]]], "biases": [[[1.113338369177855], [-1.114313238702383], [0.6990204361249409], [2.1244489703136544], [0.014158202629723485], [0.13411172944867175], [1.8707645371123849], [-0.9161910441400991], [-0.49898244203298353], [0.5447923553272203], [-1.2020446988234095], [-1.7136771950476304], [0.8994731338135764], [-0.5846144112194706], [0.029621640366440542], [-2.308813573891708], [-2.1061608287677394], [-1.761344379128494], [-1.2112305808098827], [-1.4437597819528767], [-0.060233069155782755], [0.8760988615138261], [-0.7339419210461822], [-0.11779553240516949], [1.487227871274188], [-0.3176067630417661], [0.5104644598887559], [0.07005335854921588], [1.532553972717447], [1.1298725623144457]], [[-0.5098579522457795], [2.22777492442196], [0.30490384181607033]]], "cost": "QuadraticCost"}