{"sizes": [4, 30, 3], "weights": [[[0.12395813763835517, -0.7552719706074353, 0.6965607259988541, 0.7374620465056463], [0.02149818812896564, -0.33266155992049784, 0.005625838377836196, -1.324397663367449], [-0.7782323765931067, -0.30439722454495427, 0.5712312561102705, -0.14277687073219814], [-0.3262058517047729, 0.18458400260281374, 0.9359162953728448, 0.6539759689727936], [0.34130119729031533, -0.7949023217324315, -0.2066131363303612, 0.1165644376167458], [0.9991522047047128, -0.7470689940098518, -0.28729511849677253, -0.6979205199740207], [0.0653371088399103, -0.21721297294588388, -0.7172234063288004, -0.7653700767638163], [0.2472843862989195, -0.7931707357530893, -0.380812350953614, 0.4719317984853484], [-0.6601155717237402, -0.3211121045579132, 0.29463711150186717, 0.527018421447187], [-0.3508240560363779, -0.8411353028754881, 0.14035238018287646, 0.5777045126491615], [-0.053840794646957825, -0.08445843531715597, -0.30906349633976476, -0.9226436445426697], [-0.876769897694672, -0.12422153204807537, -0.6978927736027266, -0.6459589848850117], [0.020535158174185764, -0.31648073040671926, -0.12969937763592632, 0.045158598650328605], [0.47676050696905103, 0.5692379386283716, 0.7176476199792506, 1.2808928253837892], [0.5261706966518594, -0.26127802689395124, 0.47175706141162593, 0.33619403602450226], [0.40480738861147436, 0.1898354733188152, -0.32015600766097846, -1.186904264042149], [0.12421505799648608, -0.24711805015788949, -0.17222374323417078, -0.03362330083334198], [-0.6187210271893446, 0.741639824432699, 0.4692634944033502, -0.5742878508094753], [-0.3315729933354522, 0.0948947074764837, 0.24565670716053087, -0.0373787519047219], [0.2002371491616536, -0.724223563347294, 0.6012339678064192, -0.4074107149146831], [-0.6378868975156906, -0.2347822134365939, 0.7530409896084246, -0.09001565325798094], [0.1930503978182548, -0.02056275773575948, -0.055733980267858994, 0.40404102225816757], [-0.5242181928019864, 0.20537963333752224, -0.5737564420674077, 0.25009684690217365], [-0.7036735187387483, 0.3962565783693396, -0.37103283658247177, -0.4190207466470178], [0.27504847255984083, 0.4552131090235065, -0.4026531706580647, 0.7994180141282675], [0.526880947427434, -0.6208511163811993, 0.6255100869202584, 0.14277767510014444], [-0.0833297756208224, 0.5068561251326608, -1.0343511015233857, 0.1669173795449245], [-0.6814183400813244, -0.11758684931784726, -0.25733020736428713, 0.31872421221056785], [0.26663833998696473, 0.30423624519722836, 0.17087475962237522, 0.08079583004154617], [0.2914047403555738, -0.7515566484020834, -0.21545378865288875, 0.5227281984222154]], [[-0.20178508890015212, 0.2197555616468134, -0.09102355814372141, -0.0738742097804019, -0.4496382773019297, -0.038716645011593526, -0.18927892045845185, 0.3966724117638847, 0.08725637970779439, 0.0228891473552136, 0.37764245256476114, -0.2409250399376139, -0.09761855960635571, -0.09864927511003141, -0.00814690717761859, 0.05885255047704644, 0.029503773687445074, -0.3024436287867959, -0.19573469916830896, 0.2230850386791805, 0.2403037032450748, 0.12050245571666751, -0.10719838351487872, 0.09848529653021013, 0.14824962270318243, -0.3315496786552004, 0.021345644098822412, 0.26734869502641545, -0.054793034628395375, 0.23306705848790418], [0.08434663848788944, 0.15831741737313484, 0.27755932777284165, 0.2409152041425612, 0.10249275432595094, -0.059160088477998925, -0.04840634337462269, -0.12141719978748146, 0.31189211766720853, 0.05217838509258168, -0.0008544028729214428, 0.18323860969971897, -0.21482517288134875, -0.009427917205384799, 0.010927585908651245, 0.09456552412743481, 0.1067556857938534, 0.19701277601764264, 0.46593548773014043, 0.1436142158010995, 0.09789940959570267, 0.09908149612057973, -0.025033089481697482, 0.10313661097231652, 0.28859797083863364, 0.09250082148045201, 0.09454451550051676, 0.1006781315823874, -0.05916082940422123, 0.2061325486099889], [0.013531770706944744, 0.0061409742423524484, 0.053631683547001936, 0.16306119872851063, -0.10938063157124703, 0.144576839585452, -0.20795358422685414, -0.005854411654324074, 0.1277706652709759, 0.4155604547537594, -0.16430684049837255, -0.10788913268654396, 0.3066756944727546, -0.08602866282384947, -0.17374466324647556, 0.09073488538653407, 0.23800592009811125, 0.11251876723875204, 0.005873608061382739, 0.006672059776292511, 0.12337090771532505, 0.1760503750875032, 0.1349615119970511, 0.11279112505845797, 0.2884418259600994, -0.12023370348676365, 0.16147170761777188, -0.222468359034063, 0.08198983491619598, -0.012005651293655814]]], "biases": [[[0.9836057430268498], [0.5364602831381106], [-0.24087085595231839], [1.6181186269886751], [-1.1578983596598065], [0.36436942245566156], [1.750407753012963], [-0.3674632154716189], [-1.3888084122409046], [-1.4600577084483992], [0.5689850005513953], [-2.1689580152109516], [-0.4140296675104191], [0.34149705864521285], [-1.4748466308821802], [0.26835859825929326], [0.7483182394356905], [0.2983158527323279], [-0.4096160255339778], [-0.4143395076340598], [-0.7947545656797838], [0.9458521782274024], [0.9855065699944999], [2.1855706066006357], [-1.1802605378226785], [-0.6098464812457414], [0.5493390569054074], [-0.5509425471659731], [0.24276991482070254], [-0.2017451537541208]], [[0.479632980395478], [-0.7032225666615227], [-0.37233255950654554]]], "cost": "QuadraticCost"}