{"sizes": [4, 30, 3], "weights": [[[-0.9353041056912719, 0.11054755308944772, 0.6197634601996239, 0.48656261420872715], [0.460489810623459, 0.4233224260232519, 0.7543919216890405, 0.6685790349413231], [-0.37765035661758495, -0.6541975979256254, 0.9022944294797055, 0.03230856729406183], [0.5299587522594132, -0.27278326712320855, 0.37457949684158953, -0.35000006801343136], [0.7797974085463484, 0.5642688360001032, 0.24658138269593863, -0.9497810334384648], [-0.2694264543025129, -0.7530222988700065, 0.13176181035272952, 0.10961310353753308], [-0.11283034367519909, 0.47659467168210523, 0.2831916412469497, 0.598934843296415], [0.7612623983749635, -0.8560129653176582, 0.6702141614912406, -0.5435418547734425], [-0.04904021574715952, 0.44688645778816705, -0.39635384919102856, 0.7678227505950049], [-0.5778965418587112, 0.9361113206501102, 0.5594525761151775, 0.11416938723084372], [0.5821120756660529, 0.09629398183405953, -0.054868933373018125, 0.21807361768898564], [0.606429461908659, 0.107265340773536, -0.0975248968081095, 0.2701272039572131], [0.17283342243410307, -0.2396902872822861, -0.3729829610966791, -0.11743045249719086], [-0.26327204319003206, 0.1555225220366415, -0.46052775584416045, 0.3153804781044277], [-0.5696869879722848, 0.3557824585406785, -0.0012967637087732166, -0.1766219133862194], [0.755472433128745, -0.3617018504072734, -0.007852721969549755, -1.4067546694092619], [-0.24685470216974958, -1.3777030736045492, 0.8185000393029503, -0.2550375012823002], [0.8306404534956111, -0.37231995395709616, -0.8947739898900336, -0.5310465593973946], [0.7567324719369698, 0.20323065183088207, 0.47027576135612925, -0.0005334018865019007], [-0.1158195656528145, 0.03182576215781216, -0.6487179450800005, -0.6024046971581675], [0.03127755855010945, 0.17996556790384902, -0.029842283643672262, 0.020123937367553777], [0.047885956751346034, 0.33225361294889083, 0.24652896550647127, 0.012014498950242116], [-0.11904233802854233, -0.18002459935187282, -0.37982465592700465, -0.9323938835947329], [0.27958497587171255, -0.6278960938074722, 0.4901453609142598, -0.5973418687884574], [-0.08250909599388495, -0.8003831821673147, -0.07678604962473139, -0.04693727268303013], [0.21853585821765603, 0.45876005320653274, 0.3461304446468198, -0.531773250368046], [-0.07873621864711548, -0.7402764308350716, -0.46751200741704263, 0.5857629377461038], [0.3622445899693117, -0.4956596071847096, -0.48404543570171293, 0.10843578700305476], [-0.5658866782275148, -0.16162312199498172, -0.5397798623940809, 0.6334875448075515], [-0.0949600263825592, 0.27795635504399185, -0.2143161842252338, 0.7846994570439177]], [[0.01438621664315964, 0.39051389953046645, 0.18026896108151008, 0.13981532260406418, -0.051514283375391746, 0.05974712562172181, 0.4633933295545534, 0.17005028799245364, 0.07055892950581995, -0.09758590679798625, -0.2743167436186555, 0.164521318169745, -0.1686670315130864, 0.5221992541293113, 0.3161065432988365, 0.21518385999335982, 0.2959109594789001, -0.014910170571778023, -0.07718991257901121, 0.05708993918314233, -0.07894756708134867, -0.10134286873689682, 0.22932080709902683, 0.11058328206718465, 0.2039027394150527, 0.1398228070156629, -0.018989427202217156, -0.2859841743187046, 0.3154622309557164, 0.0886333667731262], [0.18039249645872726, 0.21326863726425466, 0.13090225782322992, 0.033176137297788226, 0.44426010157123974, 0.053074305726738276, 0.4318085899976691, 0.1670837478584161, 0.1484186445429667, 0.1795233712575656, 0.13248570878798716, 0.13608004927919373, 0.38202487882694586, 0.21609683264117863, -0.06913106964880536, 0.32085662459128544, 0.05640263361812532, -0.154563822278204, 0.2682492664464757, -0.08187688436196709, 0.07690522983916567, 0.23186311581280084, -0.4206916618236757, 0.223469098291948, 0.12912855063482118, -0.19529758365175393, 0.22867070352855673, -0.01245504214643747, 0.26048934764728315, 0.1690722420769087], [-0.15554282508673362, 0.29058690454617925, 0.21049256582381426, -0.016450762185486394, 0.10342969582260078, 0.4367510625369644, 0.329616893427175, -0.01655313664555387, 0.18459533096307282, 0.3722479384995958, 0.17008270764327468, 0.12625708576015587, 0.18026237939243386, 0.009503571113954182, 0.21028174410936556, -0.052201726406651286, 0.1722656632765771, 0.1283735568472835, 0.15140922248130415, 0.33387941614650096, -0.11852797765659802, 0.16276604904936098, 0.14688914279150317, 0.04754648359702375, -0.10093778270420627, 0.12814339012929488, 0.1431638529187635, -0.14696033811773085, 0.13585067645170848, -0.30496480354497846]]], "biases": [[[-0.8241297787344061], [0.8161679063320078], [-0.7441444315912654], [0.07686546757250932], [0.18061344069353866], [0.07284373686635034], [0.07912058329041494], [0.23906324435358464], [-0.10627210711513006], [0.011158013846144784], [-1.231833663197735], [1.311781812814835], [0.570934023959614], [1.0805443393000131], [0.7028715635336842], [-0.23583247969137902], [-0.03790257502710252], [-1.8340151915416887], [-0.22827357842018672], [-2.078629715159978], [-0.44863329634449467], [-0.7820421613189031], [0.1202862476402822], [0.8014489732605121], [1.73329538596096], [0.4698101059598207], [-0.3327736507290665], [0.84885544958948], [1.6681846827271676], [-3.0421196758703597]], [[-1.511170914872604], [-1.959230300202758], [-1.181440148099108]]], "cost": "QuadraticCost"}