{"sizes": [4, 30, 3], "weights": [[[0.3174452822789168, -0.22063871091126636, -0.07272116026964982, 0.5808605094888456], [-0.09153846300320786, 0.4067804897191962, 0.8490775940199119, 0.10763381860392784], [-0.7371197684116512, 0.4490192755513011, -0.24517682606924038, 0.026024369862900465], [0.18608987152382347, 0.13498698107789212, -0.3075965246072912, 0.4508295820931348], [0.7333221530316785, 0.3852614003644169, -0.856651453928522, -0.8660742243983681], [-0.29557544172417405, 0.34637921717752485, -0.0751863314744942, 0.2594810576796775], [0.5248481535862445, -0.12931526088792075, 0.5270843890917059, -0.30884323672869796], [0.6694095476705728, -0.3804396976403914, 0.49945407642504985, -0.07677985375932689], [-0.7279036978399934, 0.28447839527781077, -0.7521768300604882, -0.05534493248243511], [-0.5156602290268969, -0.6135275850047853, 0.06005582568701084, -0.4985592499064423], [0.17664487401312376, 0.5551634867157614, 0.4111735485890299, -0.05058435535510824], [-1.0266603448312808, -0.5797409645113311, 0.3875917088053918, 0.03758858091851925], [0.34887631773532624, -1.1182970907735752, 1.1073623244180724, 0.5932900276663423], [0.2582668965492481, 0.48918483307448063, 0.8542745355881036, 0.491224996039279], [-0.8847640897678722, 0.062184090813348414, -0.6092608187814417, 0.14550984903975275], [0.591744317083537, 0.27834156916719566, 0.22332676408747604, 0.13297832899364526], [0.3453923199881708, 0.2699941580396343, -0.3188267312616271, -0.41756852852505166], [-0.04960910120071304, -0.7496644576775096, 0.4866937554789645, -0.016872371956958062], [-0.07705767818863536, -0.20473012232184604, 0.18921383323614074, -0.6971946845868192], [0.023619336036099513, -0.0110252500965404, -0.3099029120789623, 0.697067005582536], [0.34719346381853805, -0.8946461617222286, -0.16339068508302218, -0.11871605451972679], [0.522824939680904, -0.3692255954296812, -1.0783046762943684, -0.22979024701982984], [-0.5621586164233553, 1.0259162843604395, -0.5570623325966132, -1.272339872761409], [0.40076381625728724, -0.1442329437321969, -0.03250589855057941, 0.3130541007945616], [-0.5192102730383059, 0.09319372938732179, -0.3802793841386129, 0.4222906771023293], [-0.04491729093869855, -0.32008557979737695, 0.3073950426164294, 0.3789935016801602], [0.17579001805439715, 0.40401776328812244, 0.3803955433253581, 0.7484787931516835], [0.032241943555143114, -0.35394149200196945, 0.34511865634665945, -0.11543293583870337], [0.23517675685059156, -0.12924404634849596, 0.7596423110961452, 0.3903067756983555], [-0.351373026441554, 0.71694037383618, -0.12384444071173736, -0.42230561225182073]], [[0.2858879407775621, 0.25607202481596375, 0.07424461157777136, 0.31243569975920943, 0.07799294659645009, -0.2207430650201852, 0.4560395749330003, 0.2747089013097065, 0.18785114420783308, -0.225249678587451, -0.06271361565144155, -0.01138926843399034, 0.06149349431082506, 0.23274678577096639, -0.06319016199038893, 0.14506712948558736, -0.08781377334161876, -0.09667311366857674, -0.00899006378147989, 0.26023187879266935, 0.2581265389424531, 0.3958236667817857, 0.12944253210119766, 0.2117587220471995, 0.46047853742587264, -0.03915907515601468, -0.0911960141920713, 0.022631574582196043, -0.11647056272664837, -0.06711143571836319], [0.17023029364489192, -0.0040639617783127455, 0.22696170906082325, 0.24428154476124858, -0.1003073018060916, -0.11388703095961844, -0.011613777154109271, 0.3355588645217088, -0.006225683300919213, 0.10798624843937024, -0.18673794278166442, 0.3078901762023434, 0.14442619476085589, -0.2105491368668174, 0.04979707312375065, 0.39549193790303316, -0.08815168466305778, -0.0025460252605828517, 0.07372088573455145, 0.16773012193124837, -0.2935546614203001, 0.11437774277608742, -0.32662982930195095, 0.13290892069781615, -0.3471012603522052, 0.009015190329253882, 0.1981378068886626, 0.08271292234567326, 0.5014766633087293, 0.13928595571289024], [-0.05890061936789664, 0.06081517747362334, 0.11871357551278268, -0.1320337353117714, -0.25365695129514787, 0.2143902502642889, 0.11302625323946461, 0.3018772307126837, -0.15112468372852245, -0.07187683530001159, 0.08897600464415238, 0.31532456802574527, -0.13380036202104373, 0.152900707248059, 0.0018418643687177503, -0.03417859963024349, -0.08659006826100903, -0.032160161114668184, 0.20984573716046556, 0.014119699049583831, 0.26107895764332667, -0.19359254601680492, -0.011781624510379087, 0.11432105059825802, 0.10678723004682883, -0.036070236121409215, -0.22855851434421648, 0.25251025213342576, 0.11776748984238361, 0.13616041825318848]]], "biases": [[[1.251415170534903], [0.8436388695356895], [-1.4484642490097583], [-1.2440949318813534], [-1.1264041789970987], [-0.3401941879152111], [0.17758860615903152], [1.296719917841942], [1.1742794464449469], [-2.4456904013816176], [0.34728672017478884], [-2.00906225420108], [0.6232680542939206], [-0.5596592207437948], [-1.4025955176979787], [-0.7443077066769336], [0.28524161007035786], [1.3225964938853079], [1.7256826277675639], [-0.7238133670149235], [-0.40027036379214637], [-0.9042610428675437], [1.0897747088186571], [1.3067929345602995], [-0.6898062377786812], [-0.2548798996694263], [-0.36105610177084163], [-0.3044215053257252], [0.615029337322345], [0.43244387511783]], [[-1.3033408200168135], [-0.5459798315150347], [-0.0013679698156935094]]], "cost": "QuadraticCost"}