{"sizes": [4, 30, 3], "weights": [[[-0.23607032550791926, 0.6443984534192841, 0.3260714706166626, -0.8981852529115187], [-0.39427555297535705, -0.20241700027601608, 0.14642027036479183, 0.4880234130558594], [-0.19980075169274825, -0.0047615100897726425, -0.7103355395031526, -1.0797909422683838], [-0.8631925998406551, -0.3520507300648637, -0.827760102470934, -0.21806433571946388], [1.4590921458273562, 0.4250793753366048, -0.20327554981033552, 1.2900804914035398], [0.5830778939566332, 0.7149579577434024, -0.36180348457894596, 0.11354440586863082], [-0.5933272254608971, -0.06733593196033336, 0.003434652201300092, 0.06631046877292121], [0.08793884067189721, 0.2297875569191869, 0.276290160556441, 0.3201825294026817], [0.5113906805107403, 0.4427444864189729, -0.3845210873731664, 0.06992073395003268], [0.14141568034478366, -0.26763284497861267, -1.1419323589817945, 0.35948115055692587], [0.5417394577909322, 0.17321074087508065, -0.06207956409764886, -0.2813147424994244], [0.2813103551957804, -0.07220950760269779, 0.22676804893261257, -0.011820142004658684], [-0.005470629700187573, -0.4237186501568384, 1.403646818802692, 0.11177930377758136], [-0.3780841163673193, -0.14504366067051092, -0.683873702024695, 0.6349997941939977], [0.08980805071849766, -0.1319276047431926, 0.27317189504437817, 0.06236561315107147], [-0.005525392490063382, -0.48098293029801886, 0.17873858386903668, -0.11752675108901224], [0.4529997795945149, -0.3187319231259538, 0.1470771043141514, -0.309988950427064], [0.0908078439183922, -0.24565003998738155, -0.2941801309668897, 0.022132422805425003], [-0.21621301533543763, 0.5477524923519493, 0.6871485687560692, 0.7247138599450386], [-0.1481517747350963, -0.8340467286481729, 0.37681950416096827, -0.4425149894420187], [0.3982878416891837, 0.45174147051258884, 0.6612027348312698, -0.10292634553232524], [0.30082195121865807, 0.32628170705539794, -0.661521764631771, 0.1413189662279321], [0.801168773138946, -0.0969816204635397, 0.4644072143478831, 0.21195319732946025], [0.9609005973776191, 0.03221712811868152, 0.20507860363837482, -0.06800271739575083], [0.07845503222045376, 0.728338162767183, 0.1996342740281757, -0.44388013287314815], [-0.14588915145991382, -0.17177964955642505, -0.14460054237249526, 0.16599535478212946], [-0.08287700427441685, 0.7628173531849288, 0.1089171316761379, -0.16614881137647303], [-1.087643123806537, -0.013453155045605176, -0.5481886851049018, 0.8107939873869334], [-0.33940824547641135, 0.4761423213951185, 0.203995735939244, -0.00802041652412632], [0.35236381734273825, 0.041198750859270696, -0.1350014709748502, 0.00898027190289335]], [[0.20542845507980678, 0.2237391250825338, -0.0795866822544288, 0.1947234962429962, 0.009617527565181753, -0.11298463947299937, -0.034888166028778096, -0.0967767309412723, -0.11236396091835847, -0.08716954459090978, 0.2242330980830933, -0.35365704927023167, 0.024959172718957857, 0.14529569792759303, -0.030554553515807135, 0.1612390020834265, -0.14024149222212628, 0.12607450731357758, -0.06919715585143627, -0.22360879764729527, -0.2686583871841084, 0.16376606468599245, -0.08644110561318795, 0.04670556974379897, -0.26707350118637047, -0.1649100068710536, -0.09226864670448863, -0.07252685283424697, -0.22038790575461303, 0.13968147065514985], [-0.20597764413020553, 0.08171251632088437, -0.3549619199754903, 0.014065401759255788, -0.29843855911786493, 0.05947334705332848, -0.20462390569405214, 0.2674901931497027, -0.10791329987838331, 0.17411478544706113, -0.10154634454866894, 0.36040548168819475, 0.06821835029939438, -0.27980050700886816, 0.023592628377092743, -0.07757028878936967, 0.14798141537851178, -0.06387425409686479, 0.16870856487297914, 0.04030463031103639, 0.1781732034781427, -0.022432560522878245, 0.010251654119478247, -0.21674793641277085, 0.1419713337077409, 0.0766877750198777, 0.02712969104383556, -0.0009310205978650953, -0.03384054410111816, -0.44885429232142826], [0.011251760561765382, 0.15546788072523235, -0.08082099132873458, 0.07459388584968575, 0.17969055677250417, -0.20043645379943492, 0.14913032288136935, 0.14872513128408973, -0.2699011625319126, 0.036833552446825055, 0.10163862450856392, 0.038064959629193366, 0.20832328810210474, -0.1815068388253167, 0.10384210737696653, -0.14963342089023313, 0.0707584977127266, 0.16455556261960286, 0.051198064600794284, 0.1716420080949416, -0.13704964402436662, 0.07745287255971757, 0.06984470015379766, -0.11634855310157037, 0.16883649308836152, -0.09285573197224582, 0.2211590036268, 0.4931511082358204, 0.12024883797928733, 0.11073024725699378]]], "biases": [[[0.08166955696641845], [0.8398935784153155], [-0.19484475808900262], [-0.006111346596496845], [0.6446443769774782], [0.43050317631984736], [0.8651997880693367], [1.3029279013006556], [1.2252368562887355], [0.051540081228055264], [-0.18712078384682496], [0.09413955842807128], [-1.3900250247260173], [-0.9242631695517329], [0.6739530654842145], [-1.4135959161717935], [-1.5802801286409542], [1.3598587522500032], [-1.2493673203051912], [0.4852497553915532], [0.5702142633946092], [-0.8880291144530434], [-2.4604751129760465], [-0.825247208630822], [-0.7005630488757859], [-0.0731210671944335], [1.7558699751123197], [0.7285664770895695], [-2.3151616449253707], [0.03468349102047378]], [[1.1821471772556653], [0.7762270125232229], [-0.500934083229338]]], "cost": "QuadraticCost"}