{"sizes": [4, 30, 3], "weights": [[[-0.5624076777785632, -0.6701671331334133, -0.36925769193004, 0.1383407019079489], [0.3319455570797153, -0.29871184283260654, 0.19951930832273213, 0.38211509605964056], [-0.07953180410230042, 0.24313961067241466, 0.44556885606953284, -0.10473959034093865], [-0.7368435223700428, 0.3167298950982282, -0.20587779147173235, 1.0407347052838551], [0.7253001939485814, -0.2287725699242664, 0.48705490768133763, 0.6188140762116333], [0.7600164362644586, -0.15502162288910262, 0.023617912055866715, 0.21082154132871173], [-0.4800290087820692, -0.4949689991860034, 0.4865962042323309, -0.06225700528895802], [0.10201017335383186, -0.2398651297587487, 0.3081465488026493, 0.11566913896802035], [0.4380233034968489, 0.4828578379110504, 0.6825240359747934, 0.048993902527258805], [-0.24188531444250405, -0.6113202883716964, 0.07550753429212313, 1.1871833884126388], [0.03165773904517084, -0.05351141153489633, -0.383250246873213, -0.05371443442096052], [0.6303311465189325, -0.0026643058728807244, -0.04391132233893893, 0.043083985793373525], [0.33524521270293695, 0.30809894802131266, 0.009664502179612223, 0.5240612106309437], [-0.1351293097079014, 0.7138139896238941, -0.15821678915301754, -0.46923726931181686], [0.06441409552757812, 0.25726919374672597, 0.2550131187944406, -0.16690382727609976], [-0.3139323396771227, 1.1874286813932828, 0.10900186309634058, -0.24698474309979393], [0.7731597800779105, 0.9299889356506997, -0.2479291136627344, 0.1406023333559334], [-0.18558651563638953, -0.2803579362486768, -0.4782638646503563, -0.1420815030325353], [-1.4835100533729728, 0.03718892055938269, -0.5540830494307123, 0.7299072992449134], [-0.7337723328946164, -1.037826494239139, 0.0669364308447942, 0.3420294720845375], [-0.8612724867361673, 0.11476191460925991, 0.29781612983200584, -0.5578946827857616], [0.017049465211669293, -0.7291765512523404, -0.29289967746022455, 1.0272603154457096], [-0.358248092229468, -0.16816054039241687, 0.11382578077829489, -0.30106065207579985], [0.6157595329629152, -0.09567597264088644, -0.7153440819091708, 0.07710451763751394], [0.32146520047102756, 0.669728738203728, 0.6805306742176537, -0.296645860468027], [0.18114309460650804, 0.1049971654709967, 0.27449516982796923, -0.1257780412087184], [-1.134715146695549, 0.05309443159319791, 0.8031599689206319, 0.36244656775724576], [-0.24088770679818172, -0.17159095724916684, -0.538166304266545, 0.25748349596485703], [-0.12108024915330316, 1.1700317720942428, -0.028803823194065, 0.06694942346304596], [-0.3062386880735558, 0.30305846134404274, -0.617406352222937, -0.24309346440925705]], [[0.08236962098815716, 0.299306590211004, 0.15580468517817175, 0.33768185894429237, 0.23306795118271018, 0.09948940732817901, 0.257393123209109, -0.0126752062763478, 0.2858936472868409, 0.06625463018620431, -0.17961933686260906, -0.04068059270657217, -0.15123043357104163, -0.06096118249954214, -0.151757251862073, -0.2216989093106552, -0.03771588124784696, 0.004714542532998823, 0.17806732028838834, -0.15376270041870474, -0.36076984245576793, 0.2541306640150844, -0.12240718487380448, -0.2170750690950911, 0.14810294236288146, 0.24403489256516422, 0.056259409673131526, 0.13635202110788894, 0.11355245589344133, 0.14156637052884086], [-0.02114903042258683, 0.24132902196914624, 0.112993674266014, -0.22649389859509433, 0.2301073633444826, -0.0896593299321207, 0.2378374093389178, 0.004483674083277945, 0.04508841979116674, -0.1439572938341612, 0.20950716737023067, -0.04795744642925213, 0.09325668839899715, 0.2713935162976599, 0.042539867678256564, -0.005415224757310191, 0.08627552547371434, -0.113183472404544, 0.1516725109407305, -0.25074247689161894, 0.05882747820434975, 0.4290707517443567, -0.009436820487197337, 0.06920371091823554, 0.06463229761301197, 0.42500179059262017, -0.07173841387412438, 0.060646705036184245, 0.33816115650306816, 0.011606174779718313], [-0.062233453808182196, 0.07291292889232381, -0.06461397866415561, -0.06664430836888134, -0.2232286844079012, -0.2380815146455706, -0.07168325141336666, 0.20506389856051577, 0.007548625661008807, 0.04034290273077987, -0.21244979775098297, 0.10776250803650747, 0.15405847251479224, -0.1335324295608999, -0.03434086328166213, 0.2537323530848296, 0.15123465219690452, -0.03466113612903854, -0.20472046144428593, -0.023344378091892954, 0.12267112784154761, 0.23076306511257885, -0.11573997100779342, -0.05188968104264252, -0.18390188589154793, 0.28128705689520395, -0.2375379542696251, -0.15395734829322236, 0.01667483275354211, -0.310285162120966]]], "biases": [[[-0.9531449365176614], [0.33395736702673157], [-0.7474401569777471], [0.7181932747956521], [0.998202056104944], [0.07113480146580436], [-1.1195084009590268], [-0.4518166747142858], [0.5572800988754797], [0.8427734440259574], [-2.014164183625331], [0.20658506853710445], [-1.3623517021471072], [0.7077570878120408], [-0.2852958173905909], [1.6739159213836745], [-0.3019467872374569], [-0.3743781267864038], [1.939150836593609], [-0.6832543168988457], [-0.061842497264363215], [-0.7432098435923972], [0.4958282809204987], [0.7913340215597068], [-0.3760216607887822], [-0.6622507410122417], [-0.08363483706267023], [-1.1790943657314896], [0.014271042931139184], [0.303928940465385]], [[-0.9136794109596834], [-0.17002631380488017], [0.972135385329966]]], "cost": "QuadraticCost"}