{"sizes": [4, 30, 3], "weights": [[[-0.22262742376818484, -0.011082346246828344, 0.4132517968616447, -0.8823950999884459], [0.059971406741466185, -0.4936939348612686, 1.2814469434789244, -0.28837763284422], [0.15604974058233342, 0.7375092397608893, -0.4412822947335985, -0.4121545615421198], [-0.7358959002275497, -0.4028558501645026, 0.13129121350085568, -0.4901507120441601], [-0.10653371346416413, -0.09621955052000482, -0.1299081439655178, 1.3232705783617043], [0.3339954461944041, 0.5778022771541471, -0.2700606210710792, 0.21200276622018666], [0.4004780861249056, -0.7395594327332908, 0.2783030919402766, 0.48213481806513603], [0.2547119848523138, -0.07064824085528132, 0.6560178753086073, -0.3448418494448165], [0.43873523354414157, -0.19393316925155688, 0.9365910331182352, -0.8148881985583095], [-0.8377313937883953, -0.25527260890025966, 0.17134933529258572, -0.6416803321084416], [-0.41978046895879445, 1.3404557278082543, 0.0307556527466037, 0.005051300273186475], [-0.6665870756681501, -0.1601744030502012, -0.31510191868813825, 0.16709910781250356], [-0.5838666403821343, 0.9288127570535999, 0.3818319368276823, -0.3286635672169053], [-0.5842293201047225, 0.39481460258040624, 1.1093953394904499, 0.2730761303188138], [0.20519288522089651, -0.06764322223713702, -0.7743063732075883, -0.18084093722058286], [-0.6844703378389952, -0.11217683040495743, 0.15451763356086223, 0.41303255016233154], [0.26155027189027097, 0.06137723464210213, -1.027632178021228, 0.04436116763394852], [0.015536553030319837, -0.8871888537117494, -0.027635646371443424, -0.4388065352881644], [-0.11508144920791023, -0.47868262521721766, 0.1278217191973455, -0.6789116074177015], [0.40921379971156285, -0.39501840593450294, 0.25804235266996706, 0.3613175181526266], [0.12103932649375916, -0.15230497907842758, 0.22733741414991793, 0.43289589595914485], [0.8506051845067081, -0.5205300584336107, -0.4421840028184104, 0.4593203636677433], [0.8246427547268529, -0.06650053502433623, 0.5682249452524896, -0.8226511525893895], [0.3842810880923768, -0.5009259420696756, 0.03386599842122853, -0.26694722557777306], [0.5576585030757257, -0.04682838837706761, -0.8432634938635002, -0.36911803503545415], [0.27978105122879554, 0.7374579849569518, 0.05547256964543761, 0.9056258945350307], [-0.4891556864490363, -0.45793524981933925, -0.3239831085232179, -0.24301263179686272], [-0.7763116081701257, -0.3107343086919762, 0.05897915105767767, 0.03959681859232515], [0.025582015897277707, 0.23275630368756814, -0.09188601432899104, 0.539734781674916], [-0.6304108408684268, 0.22176873689661022, 0.8485771368284336, -0.6042682524081886]], [[0.08377925082636013, 0.3355893499894289, 0.2704857974908475, 0.07341527794438611, 0.05886113544994059, 0.08719535055389879, 0.12321715233783799, -0.034612493989461056, 0.08291797694035954, 0.19774586707282432, 0.3506106863002574, 0.4596121059820021, 0.045392088285900314, -0.29248198851867124, -0.10014569859453276, -0.3713274213462636, -0.11060709147237338, -0.14023631844224574, -0.040645792184434, -0.15849665807630187, 0.0826329571974569, -0.35090528156274053, -0.041962518884070515, -0.04902947832479097, -0.35907426218663047, -0.5032307687498603, 0.3181159478213874, 0.010646899637460046, -0.30217049814174557, 0.018022932870559567], [0.08318806473049417, -0.21739743913324966, 0.25367682368652544, 0.08507153672161953, 0.190880186772452, 0.4256218049494681, -0.09198872742554126, 0.09663543750687054, -0.06427006382635311, -0.2835916714180756, -0.020963016038910542, 0.24008846449545465, -0.012147383139422053, -0.22169106297795246, 0.05666655636556711, 0.10825887489964939, -0.012655727342400116, -0.15310329036200934, -0.31017502760643323, 0.2189542770482054, -0.2051952585258799, 0.10130644704725787, -0.08904826898918324, 0.15167665499800953, -0.09689573818699145, 0.2628206868492087, 0.09998836173545805, 0.16254900126476737, 0.1357639096489542, 0.083732898181978], [0.08157212072398877, 0.33165854221138497, -0.10783684698084152, 0.040173174671725806, -0.01110898361949507, 0.10381551587852113, 0.2351109270378557, 0.1009716086142012, -0.04867361058585059, 0.05680031373409112, 0.10614566333693923, -0.006515791694895713, -0.027971860882059645, 0.056783273418073384, -0.10453708080954827, 0.31863608753791206, 0.05793686779988952, 0.2681107512888121, 0.4017609746147637, 0.32581391879916083, 0.01718143547907369, 0.5329205445254006, 0.1893144715393088, -0.07025223733690059, -0.07132419831363952, 0.39951282205508176, -0.24960096896027512, 0.3684564787748181, 0.0006086549750356198, 0.15349290495857815]]], "biases": [[[-1.6078619394284284], [0.5489123236292514], [-0.11239284233352445], [0.25853231857455305], [1.9106211785909935], [1.286489228322901], [-0.17825187362960748], [-0.24840562283497558], [0.5001355851494873], [-1.6548924161014649], [0.9009004060445933], [-0.31268622744152164], [0.8210244291550409], [0.7414574635632645], [1.254700452605903], [-0.08552374672733229], [-0.45980479777795646], [1.7740924663525457], [0.5613585810408281], [0.5072740558100781], [0.9573124579735107], [0.17039772553473873], [-1.5442189138770928], [0.52188061461465], [1.8261363683844085], [0.7336665999207368], [0.12200866221361013], [1.1940286702049951], [-0.10508462728795401], [0.05064959503617879]], [[1.5252004554741174], [-0.11133014523547771], [-1.8186454944159773]]], "cost": "QuadraticCost"}