{"sizes": [4, 30, 3], "weights": [[[0.5813939220507427, -0.011591095314425062, -0.09579300855580174, 0.783046051300612], [0.6545890145463051, -0.9028321052554961, 0.2792586516930638, -0.2681139016373716], [-0.7243297883928529, 0.6085237714997493, 0.5904996333062825, -0.14185954388530655], [-0.25716705987164845, -0.6642625243878504, 0.041310337591591445, -0.022990127423728364], [-0.869647250070171, -0.13329536937274922, -0.4995000368836153, -0.0216773316742691], [0.2423656984655269, -0.1529205952999035, -0.1878171393514935, 0.8165430295010138], [-0.18689052304752687, -0.14548169567745792, -0.9728500890856743, 0.2207199119018836], [0.4327323730604764, -0.048787695552864496, 0.030501264802297555, -0.4706662334109557], [0.7826537376390192, -0.3884650467737811, -0.18154496399709533, -0.3449099935868927], [-0.6373996012946298, 1.1963360628194657, -0.8432961331037283, -0.14750892883716019], [0.06227716898015852, -0.24474274730256143, 0.7279942460309362, -0.5377126568432378], [0.6406927831461017, -0.26336720261922947, -0.06173019289589829, 0.32102992640312117], [-0.6572693372104774, 0.3719197596336739, -0.5754840914108199, 0.06606270282556653], [0.35755323525405924, -0.42509836030342246, 0.1542400169892413, 0.02342493940681468], [0.5508644967940084, 0.49639262750125734, -0.29080578575199095, -0.3110922053031458], [-0.6132192539135396, -0.1453793918554276, -0.49160116220628686, 0.6399515867324086], [-0.29517307987797364, -0.023288792504628505, -0.10402261129486863, 0.22959061699475183], [-0.11338199020970735, 0.083140560029755, -0.439079092507916, 0.16311922590604708], [-0.6513951133298803, 0.3813981642231732, 0.5053965641664051, 0.27650253261336183], [-0.5889107682112559, -0.49156572277659344, 0.15046887575495965, -0.41554698706217535], [0.10505474966622315, 0.3477046136504712, 0.10080074021406372, -0.06189561510988631], [-0.5004839960330583, -1.0319827117839762, -0.32630033601190017, 0.2590051091163697], [-0.7553657338105582, 0.07815147179091275, 0.35048506768205034, -0.5812050025818619], [-1.348241022698379, 0.2660440381486158, -0.2859294063220366, -0.3718372254707128], [0.5416417438062737, 0.9212366453872894, 0.18604413544050383, -0.1914146306179786], [0.3504749783635237, 0.6669705094312349, 0.41516508179707684, -0.5294517840110678], [-0.7656664829587796, 0.4621915901055223, 3.294593601003093e-06, -0.06805337455203497], [-0.2958588595213906, 1.0427330762612772, 0.5923609354675384, -0.5692803887757303], [0.6111731638174694, -0.3096656277164446, -0.8172201205273709, 0.4643457906737094], [-0.04963422093329683, 0.3295340942944791, 0.9692037135881181, 0.37919153525950305]], [[-0.07867107357370388, 0.24999475418177614, 0.24100519893303277, -0.09680611665192505, -0.11221271986562878, 0.06575747813439507, -0.24818268128511603, -0.11348268886472997, 0.21823207045312873, 0.020354998817061105, 0.02775810134202068, 0.11461169111121394, 0.11036400517894474, 0.11026740907220046, -0.31950585715545393, -0.07710093118348908, 0.2107218481182145, 0.057410543101654686, -0.05532878235296736, -0.10536376713967519, -0.25096311329479276, 0.1328294632375306, 0.1822379499652173, -0.11220008211439583, 0.03803701708954312, 0.2927772858529497, 0.027400208228319966, -0.10485876637563506, -0.010037265793763503, -0.2153445265436799], [-0.17804650893431953, -0.20036536509021394, 0.09566690291665703, 0.46360421279836356, -0.1466400694277274, -0.07408463980288202, -0.0668408616092011, -0.057626922386484876, -0.020039055840377767, 0.08862688808138475, 0.10481055355821567, 0.19513071690776101, 0.14846299575075636, -0.1407556444077298, 0.2389710302739142, 0.18961528421138504, 0.11161554618366763, 0.10290471381103315, -0.13474318686515083, 0.1824737480039846, -0.002884594276284825, -0.22559516223706474, 0.21236646676654047, 0.34096229696331903, -0.21065781210485982, 0.18608825953585603, -0.06214704274092317, 0.051866949777314285, 0.011823225307870763, -0.015106804253125118], [0.08373516707586447, -0.18130192747957002, -0.24714080163500896, 0.49081734535177507, -0.025938355485770878, 0.27939898659035706, -0.048800257736595104, 0.3617958963054751, 0.13945033287476263, 0.13338984934348133, -0.09283255964672203, 0.1989815610027952, 0.04384422799905974, 0.38793150140475696, -0.1947929981026074, 0.4627731942621221, 0.3179327219010246, 0.2267033799643904, 0.10623151276425132, -0.30499235074468023, 0.31376337427237405, -0.11125994808384097, 0.05588758639940644, 0.012480989113928285, 0.06623129091143884, 0.23682924286399218, 0.17141701730648443, -0.14952018637505307, 0.0818231965070117, 0.1354453810152999]]], "biases": [[[-1.3190077309409303], [-1.5370139246162537], [0.43705892148736336], [0.08241958052868464], [-0.478961733074393], [0.3699457040370286], [-0.6824793040474328], [0.5414126221141532], [1.1565694824660897], [0.08057396256227799], [0.18865711624489323], [-0.27402040884326023], [0.42902327490760517], [-0.6956395745234095], [-0.08268202332071176], [2.0209520715731375], [0.976402244781847], [-1.6387110038227655], [2.0922709557367387], [-0.7695064490686931], [0.9569355893021564], [-1.6301537134375812], [-1.2035464089966983], [1.0637455193571135], [0.5064766186966655], [0.3538044548873593], [-1.5432014259621485], [0.42046679352456984], [0.12033299604490612], [-0.4076407874508532]], [[0.5313806486217031], [0.587131397352999], [-1.3960794475379108]]], "cost": "QuadraticCost"}