{"sizes": [4, 20, 3], "weights": [[[0.011139643597084883, 0.16980361335532632, -0.5383203714638184, 0.2965934138946995], [-0.06448840655509312, 0.1512087863031684, 0.21946661719821844, -0.7442273442825706], [0.44458078595538425, 0.28658935365773053, 0.47344154992592763, -0.07482131275076723], [-0.4688544637977411, -0.016941282461267144, 0.0008664907259385074, 0.25646570587000594], [0.23690895339419896, 0.7439488541097952, 0.7403539893574633, 0.15770393752010772], [0.013317278146174545, 0.7153326421982629, -0.25378527660475036, -0.2466381477163264], [-0.5972231646890153, 0.056140024663945305, -0.06246690448680441, -0.22429339522902356], [0.05857273916125897, -0.12104490148441235, 0.9158168528901894, 0.39507518711194256], [-0.34964628923780433, -1.1661597065936282, -0.2878112641039042, -1.3246898676998953], [0.4364025507620343, 0.2798383437694298, 0.8122193004906252, 0.2933588354914723], [0.395171767436791, -0.057287859996703626, -0.6744132805863825, -0.26830954178975897], [0.15709844275498364, 0.6707433430465328, 0.9867289880321919, 0.46239013310212707], [0.17346556360862578, -0.30766551794297187, 0.30144363822941983, -0.16828746957373525], [0.26427614539432615, -0.09031249912966856, 0.14493572156594367, -0.43947857800053425], [0.2854711857854221, 0.43337576072779, -0.2775699309498574, -0.40073962320888185], [0.1355405772867008, 0.05167716308974223, 0.46539537914482143, -0.00643235993465854], [0.45209196347828706, -0.0004205654839819481, 0.6873620322694415, 0.44214375498564984], [-0.04131824024334323, 0.3437516304339105, -0.17958114297663966, 0.21253548390559973], [1.3295005361379275, 0.3177858055031853, -0.5969885594806849, -0.37658947784928526], [-0.08397309702814129, 0.2923415859841097, 0.38909354491778, 0.34724380762713875]], [[0.1512228940490749, -0.1605238214051095, 0.002015326289555031, 0.4866913394985849, 0.13119060187709802, -0.060213405444323666, 0.37287244359017563, -0.0388339630362413, 0.15478123020982426, -0.05361406506773901, 0.058014717311681625, -0.18659691354842772, -0.2975834947403275, -0.31628285093099073, 0.46921907260281803, 0.09037183836356462, -0.22468037955340286, 0.1950853995254892, -0.44723839223841455, -0.4137620668658583], [-0.23941785421379316, -0.2363290419853795, 0.03555293635588538, -0.2633738937311285, 0.1056015143775955, 0.1410345815136405, -0.03210575502689369, 0.09956767284795505, -0.28713134443780264, 0.04645261356434037, -0.3526185694101008, 0.10467294555148744, 0.09967661387821877, -0.024550514730540752, -0.14165757014079988, 0.035957942028432846, 0.38174044250166816, -0.14131413200907023, -0.19681766322652738, 0.46641522433386107], [-0.0334323609771804, 0.007041137369507011, -0.129883316767559, -0.13302428311932146, -0.07061215747468588, 0.05547618540400852, -0.42529910511162433, 0.10875594500184066, -0.14699456442995637, 0.007580348165874499, 0.014033726446748204, 0.3047347493981781, 0.03164401032471862, -0.33478628752030654, 0.02696466626651114, 0.3607932197816781, 0.1384466970768977, 0.24152244520121807, -0.20172054999889089, 0.18721709969167588]]], "biases": [[[-0.945934933480561], [1.418687186223604], [-0.8778524814985422], [-0.2589364435416378], [-2.718194456146838], [-0.9596270133465592], [-0.5838606334197475], [-0.4273218524187098], [0.675170495808495], [-0.3455464256430742], [1.5946986722914007], [0.2976007345901156], [-0.22928155401587733], [-0.10639259881903225], [0.87710588983273], [-0.6136750693393547], [1.426882804700272], [-0.3685408533399267], [1.408399311692252], [-0.4860196661962541]], [[0.6159211710328212], [1.1730258737200812], [-0.5702120508862771]]], "cost": "QuadraticCost"}