{"sizes": [4, 30, 3], "weights": [[[0.46395291831224816, 0.8099320400457329, 0.6143473361413296, -0.4426815426724822], [0.08256458372242105, 0.4328189940278584, -0.0387743813578921, 0.13510038013357728], [-0.033470598082288375, 0.6698946708774655, 0.2507523473461777, 0.3689372076494388], [0.15383559822563445, -0.7689521826394373, 0.09664348965678055, 0.8568133292345188], [-0.3374164490210528, 0.15952505570936398, -0.8715687897527582, 0.5799440258989965], [0.30898563157542663, 0.06499901962628599, 0.14339504032037514, -0.2780948492123272], [0.9702580854694729, 0.019383197737242785, 0.553428431733919, 0.1941921372208526], [-0.07269912331361407, -0.16150886420749602, 0.1836425943231941, -0.5110059506076471], [0.3241043312122725, -0.4783696192145439, 0.32617873177734796, -0.41878862414959894], [-0.6895466453659348, 0.05115194795816369, 0.16956259804821777, 0.1441872678696958], [-0.5141182799123034, 0.6044277655332877, -0.385344635736321, -0.017288216823759], [0.024597072476468636, 0.3018985408715479, 0.3318909437876161, -0.9557719061078542], [0.814621895083214, -0.04869064191456158, 0.18380416187847798, -0.25500513339046127], [-0.6695380231697892, 0.29312684611142703, 0.17937380341812767, -0.6038879740248797], [0.2180465492501461, 0.40129823178280094, 0.12525861534670804, -0.23586173141446143], [-0.5883082492905897, -0.4681483067564753, 0.25675886906354295, -0.6576175582155219], [-0.25804017435151405, -1.0577169829814939, 0.849565434962731, -0.9575401617249699], [0.012611750557613852, -0.021208127639026835, 0.2428421351391289, 0.43276762807785285], [0.8024884247404541, -0.3022128560736682, 0.46323994717769085, 0.5170112563472983], [-0.13035021845103342, 0.23527182273817068, -1.080810305437807, -0.4478142325516438], [-0.6329426831963418, -0.3536564008177988, -0.010410545721011813, -0.30232677135738695], [-0.4052276951805348, 0.23842188245201937, 0.12815830443139486, -0.14603697820891096], [0.06553989833012602, -0.2160226496393031, -0.33671347746022356, 0.5801266756033662], [-0.12621042428945298, 0.5809832697850387, 0.1551099228504321, 0.29302971807421246], [0.5373010243953755, 0.26112782075970914, 1.200352472474815, 0.2183512795422678], [-0.3390013020106353, 0.01677570137253794, -0.0038905934299383886, -0.43932542745067565], [0.18536478431204179, -0.0667704255921908, 0.5530234891493914, -0.9932752939057184], [0.7914595990874779, 0.03145884077423106, 1.112732010809006, -0.27808548267621336], [0.03772505241505573, 0.5874885516806075, 0.15690441763775456, -0.1528396971087718], [-0.11136419522577717, -0.6001414000812667, 0.9089487425738095, 0.9950581579681429]], [[-0.10709524365715271, 0.34278451651117386, 0.10570603198634977, -0.2950570641707847, -0.3953534620698915, -0.08335301889576088, 0.10984594816246904, 0.17442234089431985, -0.2277641066071109, -0.054076815878770876, 0.033211363742862814, 0.1938813876649455, 0.1117205761353854, -0.14354177525181808, 0.061429735566215546, -0.009681063553325254, -0.03146949950302759, -0.05367383633615782, -0.14163472508658814, -0.1796892093016496, 0.2594890289789119, 0.05056066578108085, 0.1125156597687791, -0.08171622800073074, -0.15956431666271959, -0.06438074314304428, -0.24838129507535353, -0.07183105513562478, -0.005111093070716096, 0.31823814217564367], [-0.1824407256290977, -0.24976208518157672, 0.2079828101433969, -0.06053748882844381, 0.04033111522516496, -0.174493867473903, 0.35304852406692605, 0.17597948290813836, -0.22208432587305937, 0.0838311505046925, -0.08155991949264135, 0.05452100620105712, 0.20727849846987775, -0.17594598787310103, -0.020094135386981824, 0.0201052151781955, -0.07230776688507826, -0.12764890555327799, 0.04412452896226922, -0.006103886339662154, -0.0172745459689504, 0.003135416501370077, 0.15909032567012005, -0.09286593619903381, -0.17525057227118715, -0.13336141583407848, 0.017809676525367298, -0.3365074086074187, 0.30645188011530305, -0.1109781926623507], [0.2591527793571154, 0.29867997374495525, 0.34067741826409187, 0.17291773656048506, -0.1461370454716893, 0.11523968090396694, 0.31842951241723183, 0.13041621643148021, 0.16664342120489484, -0.10826077761982468, -0.1478999388538376, 0.0007747794747508539, -0.1976238059539925, 0.04482429876481691, 0.27677531345531864, 0.12560328339694424, -0.13920548553781173, -0.09665651503761288, 0.16012272440687253, 0.11016589143442097, -0.102204802020209, 0.2442450395169973, 0.07487055226551921, 0.15746334604469944, 0.04548939808890024, 0.46094805514309706, -0.07364820558085126, 0.08694978134715003, 0.017794575658319673, -0.03291425495661108]]], "biases": [[[0.25592348613258625], [-1.6141788808173767], [1.1402187041358598], [-1.0575012972158906], [0.19390546167209388], [2.261940715572699], [-1.6633894834076528], [-0.8320936996299869], [-0.9928041720858728], [-0.25870164858312716], [-1.1299782341939535], [1.458201096234552], [-0.6573357861076026], [1.5048593443643883], [-2.63848840804736], [-0.18663358219010556], [-1.4733226639014567], [1.2898337217018307], [1.1700852096890413], [-0.07427543347650581], [-0.24779068227344114], [1.2834300077816145], [0.043192244738122866], [-0.1691089020947058], [-0.40716610174708673], [-1.7656076581910003], [0.03828247808727098], [0.38159236701250654], [1.4809660339898039], [-0.6310604193069468]], [[1.0840807120491993], [0.8990777624841482], [-0.5159052830070519]]], "cost": "QuadraticCost"}