{"sizes": [4, 30, 3], "weights": [[[-0.11982411919239468, -0.28288822573759753, -0.055490744656298205, -0.3793522721718413], [-0.42658095352676473, 0.9629501337409619, -0.2047125878192086, 0.7962969501350697], [-0.22161992112693354, 0.287218429318987, -0.03235865443088217, -0.27748374481825805], [-0.10240099906289177, 0.46476427416043214, -0.3946373622426274, -0.7087388405817632], [0.007257551242230853, -0.1611991872891899, 0.20451708265311755, 0.5414021514814287], [-0.07923257512833977, -0.0029341455467448347, -0.3362902659049718, 0.13382815209251836], [-0.02189133515365933, -0.13664134964505212, -0.04580075638671648, -0.11857972213081841], [0.5498633409647943, -0.7087288013569487, -0.2061132244349578, 0.035311823715628125], [-0.4222968154435438, -0.3833428796459781, 0.5030553030515902, -0.05434826731689174], [-0.7575668245110552, -0.3845026438761312, 1.166118112731299, -0.07631339391567848], [0.055792969069365136, -0.7912736864010609, -0.07370446946836659, -0.5313283193751202], [0.04416904843544674, -0.10353443967534243, -0.4461303809597503, 0.5493248030196669], [-0.2264892119354572, -0.17063930890132098, 0.4169370775597908, 0.07799697607145314], [0.3133641886119011, 0.5273026884588943, -0.6774603807401579, -0.22544205416237909], [0.5966170835050625, -1.0021013547012234, -0.1277592078950967, -0.32346426138197143], [-0.7274784423991945, 0.07554804857664488, -0.10653068095606333, -0.9649196305854921], [0.06189517383076291, 0.1197763899875623, -0.25790762501957015, -0.3557739434600118], [-0.551166158959139, -0.2630882262748168, -0.3593494494278584, 0.19721363090735863], [-1.1217816324312126, 0.20262232385444767, 0.1470079280954283, 0.4355110060859048], [0.3133682252277783, 0.541274673308838, 0.0016385270600163377, 0.0036630190918563728], [-0.27705695179431367, 0.9963209325525827, -0.20122782190808608, -0.3159474398691737], [0.5294938730423957, 0.1499858539227487, 0.012896110082466931, -0.9972435005596347], [-0.7612896647379098, 0.011253149931462121, -0.6602841415662882, 0.25543791304290364], [-0.14139917244854538, -0.4897995567307459, -0.42830052068902147, 0.23629624786290282], [0.18588745067354917, 0.3702341479942246, 1.0069905344443877, 0.2668635822801957], [-0.6076770876455194, -1.1393001091127457, 0.9693850079814373, 0.5621065147188294], [0.1966984462536991, -0.4372499002101362, -0.6750401482403698, -0.7013195620080092], [-0.8632978511401792, 0.7343930001936085, 0.2839111647182112, 0.7826473843429249], [0.19814515471321895, 0.31912831701468797, -0.21952927049168658, 0.3533054874085501], [-0.3905608911556831, -0.12103731000631854, -0.2715151104789972, 0.3013404862122042]], [[0.1893068780086151, -0.07508615612569955, -0.0017947238288643253, 0.01278870955547286, 0.25527538069477107, 0.07609451856085593, -0.07123129570263922, 0.24855637653205245, 0.18223928412920581, -0.08804235889802496, 0.015205653693887105, -0.07531708311537316, -0.1642031967125092, 0.1423912200617387, -0.1908400672505986, -0.38476322338181673, -0.07270456172273367, -0.15505880013853743, -0.11462449201594303, -0.05155419864551174, -0.1996765614186954, 0.19779508500447934, 0.098594324982141, 0.2838969069948472, -0.31629672372656675, -0.14397323388969235, -0.11333710501501172, 0.030787214813115787, -0.27480299892435467, -0.1311943323331649], [0.04139888097138763, -0.04344501477086286, 0.03885053017663693, 0.19514405486116235, 0.1313502611990472, 0.25274686929909357, 0.09006401850741352, -0.2594226940992924, 0.1575814544197168, -0.1069709790396027, 0.14771005823245703, 0.04831162568144261, -0.04560628041539325, -0.003189685065217904, -0.07516707134048127, -0.2801724379478195, -0.03779064101723434, -0.1155775756517095, 0.1468116532809734, 0.12827153440289107, -0.01780682256880569, 0.032593727378628, 0.10947662777197832, -0.02720073279990313, 0.05771109786249823, -0.15395497856954954, -0.0385924073627376, -0.06670585627061273, -0.06898470625405553, -0.11153494362182399], [-0.0028216686134613905, 0.36909041377779345, 0.23162085257368578, -0.13499661921063547, -0.32830903298398906, 0.27050631606732134, 0.07899200663491747, -0.46101443834742006, 0.04668942215667623, -0.06647175644673047, 0.17396661425967816, -0.05705382618313543, -0.09382896963514875, -0.08332199247919131, 0.015477193646187376, -0.04670669889252569, 0.3608665090094949, 0.10765595125242759, 0.13655548281351426, -0.06790555952670416, -0.196192790379786, -0.13884311925735895, 0.02211170931569118, -0.25507550818731395, -0.06879577277930662, 0.22129566809657245, 0.16037466174817008, -0.34764251726426476, 0.20162159927020334, -0.20648783716971317]]], "biases": [[[-0.23459742034013806], [-1.5238437803562122], [-0.23135589967752054], [0.1569476714703305], [-1.4506431317385997], [1.6235542906501539], [-1.078933740553116], [0.3375691657539364], [0.684433636922705], [-1.20539239671891], [0.07556924073193852], [-0.6983081791166245], [0.25075533557184865], [-0.2377513972555675], [0.11020179711630246], [0.8208065929737], [1.488623078076798], [-1.3206533434884262], [0.8236425383156422], [-0.3627446760013078], [-0.6951003702910732], [1.0916320830236812], [0.3267022833965801], [-0.5221033215637654], [0.30886053191104107], [-0.6626695030173926], [-0.6035166056898551], [0.9024619022878889], [1.6840293944637226], [0.8453856800416493]], [[1.1572353446858707], [0.7655338461229046], [0.9461020543741673]]], "cost": "QuadraticCost"}