{"sizes": [4, 30, 3], "weights": [[[-0.69378399450442, -0.307849979926756, -0.16322464355708266, -0.38720572415053034], [-1.129754403224252, 0.09443979234376751, -0.8192040607303752, 0.4673966031391507], [1.2949255381977727, -0.10756802451287177, -0.3473156234990914, 0.25013884587007584], [-0.05667447791083646, 0.6158827119780385, 0.2201703672916115, -0.1336455078514059], [0.01579442700214447, -0.12012070252630058, 0.4513232978629759, -0.01545848737681813], [-0.5869924846269272, -0.01690551041884514, 0.16075585184384097, -0.14800686441263933], [-0.0065444622537291705, 0.511815467257997, 0.5899917876237096, 0.3175714422704258], [-0.6690238356688132, -0.7533323991390579, 0.49659128862804974, 0.5659662797956695], [-0.21033033159248285, 0.20208722053831418, 0.49128920883781085, 0.5273786937590995], [-0.7866923164354653, -0.024248714272170697, -0.07315767379806272, -0.7668250695674051], [0.015537344413331416, -0.021688449175672964, 0.6740258370305637, 1.0826431650672992], [0.06837710561644367, 0.957521605426501, -0.8164789955341264, 0.026696618339274166], [-0.33142982822486605, -0.6389779083966584, 0.23007653184026383, -1.0857628708650824], [-0.5466047428616682, 1.0238539311835384, 0.012551420449439252, 0.16800450569369968], [-0.11569474562611795, -0.03826503038296682, -0.4221027011594316, 0.6862805425441375], [0.054308452859539634, -0.5352504445971842, -0.4399319857798928, -0.637718916969642], [0.38716750106338527, 0.12902976958677387, -0.2400662972055345, 0.8972918500714477], [0.32141728755308563, 0.016574550232902135, -0.7009763927786973, -0.038157002855135055], [0.06761603925175198, -0.6619979758936879, -1.1560765474902979, -0.3225871957869922], [-0.024697419613178805, -0.09892207290597037, -0.038619227268896036, -1.2535110604214934], [-0.27293841271707486, 0.8112262346300159, 0.5725784573461883, -0.2796439536345322], [0.5976381323817713, 0.058931179866923186, 0.7248594295579065, 0.057670555120549874], [0.05848117121661911, -0.20761544331177778, -0.15695585772610612, 0.09684320775765214], [0.039114175738945156, -0.9212457005955798, 0.29302124687325154, 0.022312965976936102], [-0.4473099885318663, -0.8643079421927065, 0.4763732644419859, 0.5605062436591561], [-0.3634708319483426, 0.30666939139582694, 0.09509171593187478, -0.4550240134555637], [-0.4084609475008452, -0.38891755857772253, -0.025264800081347984, 0.4530980778411885], [-0.7654288031785217, -0.7551642350279334, 0.03794676662341578, -0.6888562225818089], [-0.03745250724143801, 0.09227062482090584, 0.8336505188396217, -0.9749947818102235], [-0.3357423919650797, 0.8953277800788868, -0.0793967364007314, 0.259208517792455]], [[-0.16888008080565112, 0.07464786302478818, 0.023463666529572005, -0.04872007664176631, 0.11234482139803363, -0.19485471497462747, -0.14557760061193964, -0.031845978326654395, -0.1904535337457082, 0.2831880837973717, 0.3953293512539718, -0.0623678190268925, -0.006387852947566505, -0.04592527389232805, -0.29624240186891043, 0.12577770637181881, 0.06517860059602147, -0.09878004609503778, -0.1754625198276746, 0.09495502386749624, 0.043424262363099785, -0.10174748040174056, -0.35874508632607577, -0.03137188674868847, 0.03629143549796497, -0.022896190173002567, 0.14449426523148381, 0.12417362386134848, -0.01464792665159708, -0.10395079276993892], [0.015099859629714572, -0.03582017739771747, 0.06470977938572156, -0.17215359448692732, 0.08257607592386605, -0.27218220297545054, 0.16698712404679872, 0.2282132127837136, -0.21584372015877226, -0.032333716758206676, 0.009824087985555766, -0.11617705864153417, 0.16984203030947653, -0.08319215009675333, -0.09086778606709531, -0.07998398147644457, 0.417478335387819, 0.08410294379164257, -0.012957558961649969, 0.04411212444750515, -0.08817241891321748, 0.2587796976229615, 0.1658390690151886, 0.2960742396943533, 0.15413416068698305, -0.13534307844389476, -0.05594046222691064, 0.11780195375860211, -0.08785606886492117, 0.2473071071484321], [0.33257111374700665, 0.09935039256096904, 0.18288214707230654, -0.03503595314701524, 0.06330658349154729, -0.06745596376436927, -0.05146904970121563, -0.2942983721081267, 0.1429567751553616, -0.24162820653218878, -0.1416575844512144, -0.14683237130061252, 0.10328981468658621, -0.16733841860727822, -0.07756933926866436, -0.04801114456671665, -0.05490245334975707, 0.308911761973756, 0.1403725950792242, 0.277947684818744, 0.17076089333148187, 0.40757152054933776, -0.18885168018558418, 0.21591053531999185, 0.35590377086616426, -0.06142910220981887, -0.12532289221209286, 0.06255213809411486, 0.12235440852035323, -0.3147197946765025]]], "biases": [[[-0.841640944138826], [-0.4824317491058857], [-0.5954668093960809], [-1.5893225364193526], [-0.3699856309658654], [1.705172835849348], [0.534588782272982], [-1.4355617905335174], [1.6364871505680443], [0.5735991331284727], [-0.4936951829000409], [-0.3322592066394688], [0.24482884291021656], [0.8096393649836718], [-0.8438221411722253], [-0.5776512299111793], [-1.0138049491993841], [-0.1471006826782298], [-1.5071003073366303], [-0.47723254133142073], [0.08017542737226334], [0.8606938376389031], [1.5875737891908914], [0.5763271071039576], [-0.3120789770577806], [-0.8523163973577058], [-0.38974637467838896], [1.628667499178938], [-0.11899967577642329], [0.7503063696167239]], [[1.184136751830832], [-0.393926705648985], [0.726348464661882]]], "cost": "QuadraticCost"}