{"sizes": [4, 30, 20, 3], "weights": [[[-0.2548824049476549, 0.08224435136174538, -0.24088044687350268, 0.3796061183708107], [-0.4070318063665932, -0.0796689609048953, 0.2304309072594368, 0.003738325274253536], [-0.8467410324536553, 0.24364201893738358, -0.10856487762103616, -0.04534579190239672], [0.14026321033442218, -0.21920629571972694, 0.600638699235253, 0.7108999438374181], [0.9195153817403903, 0.036466074412852954, 0.30819333629037954, -0.1614089852286145], [-1.3149047419923037, -0.7801028563359796, -0.12928485957779356, 0.10389944593722099], [0.25506236196921794, -0.6604388615390645, 0.058087146682892186, -0.3222489542030054], [0.4004246101311933, 0.41729634693592804, -0.04139055212119841, -0.08287574990997837], [-0.8495404141619255, -0.5639366689843186, 0.3761597444133994, 0.3831349349713882], [-0.1971462836196124, 0.7907825438003323, -0.2511886644827615, -0.544779395798032], [0.1994833134277919, 0.7029027818858422, -0.5051245361043751, 0.7028965908077744], [0.13327934276101752, -0.985442761954124, 0.8270037257823523, 0.5624671686145014], [-0.5169569930785791, -0.08201782633136741, -0.5034728453293923, -0.6100369743995855], [0.1261860729331058, -0.36891787167761064, -0.14314657954509302, 0.1882360701929074], [0.4381879989776612, -0.208355461844723, -0.6095793966032487, -0.16635494224019118], [0.17931267194298545, 0.41330384073302195, 0.34581755523685465, 1.6171422066792835], [0.17647233310238447, -0.18566659944868014, 0.13100389979821936, 0.33421222253536054], [-0.3435614513465729, 0.5882287606174255, -0.06270464470125904, -0.028075887114843857], [0.4216486289128483, -0.3604943878427116, 0.012305682291516441, 0.1537964222088621], [-0.5406075508055187, -0.19708735274253664, -0.05312874336989413, -0.7979306892042423], [0.16686473818696812, -0.4817574343363804, 0.28721333026267165, -0.3246835075624586], [-0.3128907607018225, -0.2504711174367402, 0.0660827326747939, -0.4628522326009037], [-0.10234714409983015, 0.21430598890638272, 0.7466751942321241, -0.10575442590891765], [-0.5316608215348543, 0.14472960529228404, 0.2700742514751207, -0.02534560825827344], [0.4426620704775887, 0.9455249229759822, -0.5847780354909313, -0.42169961950659346], [0.31486996056421446, 0.6534985694797102, 0.4448547085308958, -0.011567101845928875], [-0.10047794261854211, 0.06772901833625686, 0.12122256028041146, 0.1174130175576663], [-0.29085724567600385, 0.44309872882647844, 0.2190068077087359, 0.7972380714941266], [0.07182207317130336, -0.1394957214745882, 0.06014669161566382, 0.14119827331788468], [0.21834648125210343, 0.7509212103006773, -0.06947706251506551, -0.3792700979407101]], [[0.49684552023136364, 0.23657926227062406, 0.07837273033962666, 0.2179650344139011, -0.005926224033063317, -0.2529761365938467, -0.23978529194537734, 0.018355876318218067, 0.0750606739548431, 0.21675195978458037, -0.3191429947346875, -0.29583717840029994, -0.06476175282600598, 0.08690471796727041, -0.12435041667386834, 0.014225650759649794, -0.1529733250003889, -0.10370238182638598, -0.17323753688331794, -0.20396748729561823, 0.38405585990038743, 0.11845967668871006, 0.22080876142053443, -0.0031930398826241096, 0.09156625659314353, 0.26050833801668394, 0.3733744749146728, -0.13388173733414946, 0.14189372040891002, 0.23981074710452918], [-0.1400945404982601, 0.24179618005346348, -0.146167693816234, 0.09406957399614825, -0.3047164341225995, 0.18219383655250565, 0.0026313525752022135, -0.18698405322026693, -0.21790731510287364, -0.08262530886592077, -0.16701001451413297, 0.06272378683422046, 0.18084027799865865, -0.07044052718282066, -0.04449154821149456, -0.3154827438249191, -0.2903610732119142, -0.3569728005951405, -0.07183924468560311, 0.12677299561924663, -0.03562752159385455, 0.5369852609487761, 0.3400852394858819, 0.3396503197212974, -0.3967672929001175, -0.24567545327578277, 0.12061569656894626, 0.2761849496764233, -0.0815791593167496, 0.2768876687220045], [0.0654636756268493, -0.052896760050280066, 0.08962417740160623, 0.03544895495793455, -0.15708421286313512, -0.030537557104937656, -0.23030059326013455, -0.0460637382807528, -0.31443541243241807, 0.13361840708652978, 0.11265276142719959, -0.42860529161782224, -0.2552369257146307, -0.0661630309739202, 0.2036359629665099, -0.06248541381106571, -0.20915976488980648, -0.19764081995445146, 0.018867891184981386, 0.036228638342758475, -0.20812533547953566, 0.06501872030692109, -0.1124936758819686, 0.13117625905778377, 0.14860846245247109, 0.2867431769131086, -0.020957526556508035, -0.16006952715980785, 0.03975079407730079, -0.11167165184466983], [-0.06423655034523283, 0.2225799703349537, 0.022617665509950324, 0.10109630498070661, 0.041559906074826736, 0.23506328551677313, -0.4924453654421113, -0.004764145529601639, -0.05313574350372238, 0.07005533247315526, -0.12070147807630356, -0.06060208242107668, 0.018443014730050042, -0.1569109608849207, 0.2602893668580306, -0.0038517686533064725, 0.03284531469702041, -0.3402070873721755, -0.034891320897830896, 0.14284391887924397, 0.013646563227797337, 0.1472305036210439, 0.005954721036551645, -0.3512511749419845, 0.4062650102574384, -0.09802335353218897, -0.023202760462415796, -0.02453843704259932, -0.014633445924065442, 0.15000220518844662], [-0.1481889953196991, 0.17500900625413499, -0.06354501400834926, 0.11338491544452843, 0.10202954620195619, -0.20459594311788556, -0.14206760367982335, 0.054322424568516686, -0.32299512999982954, 0.08604276447666377, 0.2483158198290478, 0.10929349715351813, -0.20172792138149603, 0.04739748273923649, 0.04785103723626337, 0.16901569441683031, -0.1485279436281101, -0.009133005004613176, 0.11398926059798412, -0.02946706236662008, 0.21485839205049673, 0.28366152525489235, 0.22153556037603786, 0.07276696708766156, 0.11977794628307777, -0.10636336045066401, -0.09868478443801654, 0.21098877016157666, -0.08905202831146028, -0.20744338400105639], [-0.11549185664669735, 0.0033653237723304573, -0.33249514130361607, 0.08145415940774164, 0.35621301004795886, 0.2052041815430954, 0.11941397616769021, 0.15144677469956477, -0.3136933489990155, 0.061900870022864936, -0.0711875331770644, -0.122427825537021, -0.42241501771389606, 0.22189923211313559, -0.031455788199336754, 0.16223297257181254, -0.00319380468539463, -0.28530253817303897, 0.09589631385870574, -0.02695318069240125, 0.05048017884632109, 0.35942069216207967, 0.10479597966852504, -0.03399001576181893, 0.11470990152698599, 0.22041553032161726, -0.0034446238313285047, 0.14632063617028385, -0.031159791587776667, 0.03609307222872526], [0.03256028540114083, 0.09682366273730764, 0.22787759332415194, -0.16183464429878405, 0.26593326788386346, -0.4255560868300539, -0.11356424774286579, -0.15081037617924573, 0.17221835103377836, -0.25067080218619, 0.07248008962917568, 0.11011021947571725, -0.22975363857777578, 0.06658929561161894, 0.392397210914395, 0.3034698095324249, 0.14271125664645398, -0.026894446203715464, -0.006245349777234285, -0.28823179863623566, 0.30919223164587234, 0.023093722213690784, -0.036284076221440635, -0.29125933015595473, 0.24061264210944786, -0.043745874736299685, -0.4527726579336042, -0.013161000470086797, 0.14846763921415615, 0.03791205162156272], [-0.1086624772831801, 0.06901998906598697, -0.06027973593978169, -0.15629527714308813, 0.06973075423517991, 0.0058047350742768825, 0.12387135030214533, -0.00447175790432869, -0.058385728613566945, -5.703939121298765e-05, 0.1249703213128501, 0.009165495928732436, 0.1299613149291129, 0.22932611193570646, 0.12791417479702083, -0.03548491923952508, 0.19822449561355646, -0.04835214424010631, -0.1000609430810877, -0.10059931102341936, 0.15744069471079733, -0.0040861032904143686, -0.29264482239970724, -0.02940696756531132, -0.05616574972571439, 0.05989489362884762, -0.08380795260232884, 0.10698064999633886, -0.005791233822893327, -0.056571535691083544], [-0.4531558344463437, 0.012957365307310731, 0.03140193575613157, 0.23278857801251354, 0.5855859495328377, 0.07229253238492991, 0.23024165238573666, -0.16688763374204565, 0.1695110527793967, 0.025768663050970426, 0.043510155569120294, -0.2990152193731659, 0.25823992863171863, -0.049016007967038346, 0.08166381887165808, 0.08126913429434221, -0.21957157493511695, 0.0876465716090248, 0.10382504729350525, -0.004696465329273699, 0.21100666691809067, -0.10265372588822849, 0.24837296111794024, 0.10748783389290845, -0.18171126622715705, -0.36112777125595263, -0.1379830323031313, -0.09888916610100772, 0.3772037080136903, 0.008180141815212424], [-0.11550691305990615, -0.18374277293538016, -0.03547282641696037, -0.38166082084561953, 0.014020114030611515, 0.1869717827413816, -0.18454373013593933, 0.19213105695766597, -0.3760984856066747, 0.09334642686613344, 0.14796649405612927, 0.10807801244031061, 0.1765394947443631, -0.29688559533285996, -0.19637081398592052, -0.01832800299052625, -0.21391334727610195, -0.21149384002881438, -0.09702283692145071, -0.020260195471608507, -0.05089122207658987, -0.16004371064866685, -0.13142110763141585, 0.030352862110186278, 0.029627007667167887, 0.19561434521832058, -0.1506780946288264, -0.4164525973816304, -0.34649421450985146, 0.17279422575336625], [-0.2947264614160575, -0.15887148573426793, 0.16477343443902565, -0.02396426700444933, -0.2079130809496332, -0.11513722213763199, 0.08902763934380205, -0.0911632258549366, 0.07144677143677182, -0.13005562977903284, 0.22117723240735443, -0.06477882252289925, 0.021569870687024165, 0.20522526698546092, 0.26696470710160636, 0.32010296007047995, 0.36439383592753016, 0.14053368948160203, 0.211175306431134, -0.2495957967993479, -0.02755551054960183, -0.2587732705944313, 0.1612326837168042, -0.6167641072924815, 0.25033554113939205, -0.263832252262596, -0.28264294918162647, 0.1632759270954335, -0.07015685129978859, -0.3002144669881518], [-0.191512233592001, 0.010267020187782782, 0.16694223504260522, -0.030214070524306243, -0.03019564406806424, -0.0775011068904394, -0.10354218768961447, -0.2611260608938648, 0.17753081731574788, 0.06380500941442989, -0.1667758319263091, 0.03452635397098117, 0.17809384953416096, -0.2961680453644458, -0.07592634895650442, -0.05936915072187778, 0.2543330421643908, -0.20655120180764017, 0.01437159307393988, -0.017625405982210945, 0.021772153968152692, -0.2390919452535838, -0.12945298783862572, -0.23177072790346473, 0.19807485967657337, 0.0849606829024234, 0.09522828802375054, -0.003005586064349136, -0.21940906150162465, -0.0438538173573268], [-0.08930956250744716, -0.06977706095051368, -0.18243287156687074, -0.016884416209850997, 0.09876547836929099, -0.030500569807752054, 0.30292475330976254, -0.013082011885033214, 0.003447442358172131, -0.23436037466232562, 0.22247018340288804, -0.10929139628248531, -0.06537323000203138, -0.17218112075126096, -0.24940293822430834, 0.04723981855530943, -0.15261182648712146, -0.10255675509878896, -0.03811855663152337, 0.19834885373857897, 0.15128605216489655, 0.017679807721636413, -0.18514376546358782, 0.22837685521488918, -0.19289859304384283, 0.1718529022217216, -0.26705189536265694, -0.2320242400478448, 0.02739290234589388, -0.32487773300756134], [-0.0341644350936768, 0.03641019467456665, -0.49929737933052193, -0.051485178596128806, 0.19781878824952123, 0.1677083946953715, -0.33796948253178544, 0.22700063922772612, 0.04853591167053385, 0.14480879822581397, -0.031781418364034704, 0.15679783904690636, -0.24977345323789696, 0.053087360906224186, 0.07771767800594974, 0.10713140362823574, 0.1081512877439451, 0.2105359504610902, 0.05202622814802099, -0.16095126412311578, 0.09357199170928011, 0.27297186019547287, 0.13791756314775047, -0.03806261576887013, -0.12310816406671068, 0.001879143689678055, -0.02788811989966447, 0.03893906378971849, 0.21939843695640415, -0.024727494593133732], [0.09789209147455484, -0.15334557047275865, 0.1606750005599003, 0.2433345135106168, 0.1652097504991076, -0.3403117466660952, -0.09903459975889879, 0.1598774780105761, -0.020248360772054753, 0.0424962879003847, -0.20144288078547562, -0.07087620699412335, -0.13335719496842088, -0.18104856143627054, -0.0013804797429375624, -0.4483622054062617, 0.23727626508937338, -0.07809526426860999, 0.13980837620813427, -0.08621570824414619, 0.15700611485901816, -0.1922200492142696, 0.16516897435164204, 0.11278791069969163, -0.33173589693211614, -0.025186746387656916, -0.17504487566929364, 0.23334868940763215, 0.0006730027863922414, -0.061886296998600085], [0.14946450923109003, -0.2284525197808146, -0.18483833585363868, -0.11842411628280157, -0.04487540399755719, -0.10736699771369798, 0.4011529149285458, -0.14091166163406513, -0.13345437452349435, 0.3227504128025831, -0.17548349309236885, -0.23645483026711545, -0.009243094970332868, 0.04277520227362555, -0.23414508070863987, 0.2551124546390623, 0.12532085440914972, -0.04347066051693467, 0.2719529843504296, 0.14970151699983936, -0.3054450743519102, -0.09709078929896674, 0.078360432090181, 0.04280151908670635, -0.35370797567639156, -0.024171373823398873, 0.24190660295436586, -0.2826545684712219, -0.07493356433373548, 0.15331132658358132], [0.10273422586398998, -0.14739061467731332, -0.06611614612123443, 0.1657002840578865, 0.14735081181170326, 0.08650295198037104, -0.08583855044678425, 0.02608572595747083, 0.12529911002409186, 0.07598451711887123, 0.0038784384429437365, 0.131173279887299, -0.19725123279301052, -0.05781943611660861, -0.22073389871980303, -0.05055296067421193, -0.16566264985684243, 0.04233111895814988, -0.33915529866360267, -0.021826289674798507, -0.06144308934596218, 0.07585082488176631, -0.21916637922312204, 0.24206208056885556, -0.03568529291952836, 0.17914180911197417, -0.12300933456043803, -0.19204496953813463, 0.20783393457013577, 0.24098027907899588], [-0.03659435523273276, 0.11244563283800015, 0.12799322161652793, -0.4470951521974754, 0.11629794868292402, -0.05057820374326276, 0.1721048030896901, 0.11510428855067642, -0.12911623137457515, 0.09080304170336534, 0.009491033613292428, 0.10607013198740646, 0.12087604730612382, 0.03255416537414944, -0.08002699128810054, -0.00775856601575304, 0.029627903808805214, -0.15844508840937924, -0.03768699500870863, 0.09815144082622042, -0.09355885311957463, -0.00884408794542996, -0.07683926219848358, -0.2579315736311257, -0.07885168205893547, -0.030354426396363335, 0.15801970707586974, -0.215925545041264, -0.12169898803479737, 0.11917933382407359], [0.41747798156747207, -0.2379381107416937, 0.19226405155561851, 0.07718711194689075, 0.05317425915894984, 0.33716334818478905, -0.11136766887887632, 0.20678088145477333, -0.3375689067220332, 0.011453498820687857, -0.3437310339322148, 0.0794765616683233, 0.24493654623924227, -0.015145081876695212, 0.17050091717886812, 0.06308430852669093, -0.014984128740422608, -0.02339634611530702, -0.12180556270702621, -0.1127320535846184, 0.15729787904996104, 0.3053813543823683, 0.17769457651445428, 0.19408369553662322, -0.26694913493874806, 0.09712258563707679, -0.06060633980791477, -0.04050054563335646, -0.2072825749755208, 0.07359262824492141], [-0.019813155214393835, 0.01479532296701092, 0.2638022765144765, -0.05818051583703113, -0.09038906910261539, -0.1171737297367525, -0.06711249444073145, -0.03979542353348801, 0.18833397436890972, -0.025373728921999968, 0.1006628833431544, -0.2719747752351153, -0.040708711953955305, -0.19535655060194376, -0.11205600445812577, -0.13695650206281337, 0.12913914629430845, -0.0875480232920394, -0.19417268029308057, 0.3325269418139553, -0.027796705330442678, 0.3643340375977044, 0.15725665485619725, 0.042699449735373075, 0.23865920852506747, -0.08686240823023651, -0.010772658640242662, -0.01320215227179178, -0.06746991360107707, 0.21545148893570962]], [[0.2538294315229279, 0.0341670350204304, 0.3224059618883265, -0.29215553065833055, -0.5662241882566781, -0.4179583088573192, -0.05319128784712578, 0.3024470547148673, 0.23996919745712547, -0.18632399564133922, 0.2737451075426533, 0.07593785862032243, 0.4515938726025865, -0.32243216665080693, -0.2872795317659353, 0.019677321098859314, 0.4691812295979483, -0.06859002843193888, -0.1590967853372131, 0.1691666204830628], [0.15310607314084188, 0.22478849371140144, 0.19443190276962122, -0.17723483714198285, 0.19027487816346367, 0.2086580257781359, 0.08647156287421356, -0.33844889384027305, -0.008552755998135111, 0.18868216826302214, -0.05783955854671843, -0.4276815924453345, 0.16970921093494068, -0.012670765427587747, 0.30203304339461057, -0.007001485125756246, -0.18695619109913722, -0.17600640186361832, 0.02017971406929562, 0.1417568014830758], [0.21658583988779992, 0.07739182962783712, -0.13395860748571145, 0.025532726875198097, 0.17827958588747078, 0.24232684436017357, 0.3658807322948682, 0.3580785798049136, 0.03948623162387427, -0.16093379720707848, 0.12073752978532062, 0.13942442006788008, 0.3859910729834352, 0.4963169847460023, 0.06369102172999233, -0.061967538984627986, 0.41658067199690263, -0.26563140211401753, 0.44349843759242386, 0.3217212973392512]]], "biases": [[[-1.0100074172911888], [-0.801371505966966], [0.680195700611919], [0.0021974740121207276], [-0.07545503812468256], [0.12271114122687002], [-0.5718001191479128], [-0.23720113480527769], [0.9504095437639217], [0.0808067394176286], [1.0132185019974922], [-0.5701685789390629], [-0.9895338219596929], [1.6775302748567096], [0.44272788411098424], [-0.6669253944057816], [-0.5821766589237618], [-0.4503328956054862], [-1.2763156002320546], [-0.029152859348582295], [2.345514169092785], [-0.23233141447644273], [-0.3499212494859207], [1.9586674202572885], [0.079389814037333], [-0.4345120680803066], [-2.0999725798837012], [-0.1277025379812944], [1.774775692054587], [1.63476996054718]], [[-0.5522735948362607], [-0.28681963519722814], [-0.5222920673696722], [0.26473607673435295], [0.7457839178417406], [1.1105089986311267], [0.3457319060429442], [-1.456676525776005], [0.2810682835056434], [0.3354020144459754], [0.45112075934479323], [0.12372094160637004], [0.9385828339373461], [-0.41168660155020576], [-0.24454895908616384], [-0.28507321454100637], [-0.4631080301360789], [-0.04484749250499504], [-0.9286931964458393], [-2.92689824435388]], [[0.8501583653426895], [0.6059845658915614], [-1.055780404275313]]], "cost": "QuadraticCost"}