{"sizes": [4, 30, 20, 3], "weights": [[[0.22452189594935434, -0.1825896777927569, -0.9024856733216255, 0.024583957427274424], [-0.2964306773696896, -0.8629917824083569, -0.712889441323221, 0.1812397948727082], [0.6316385219546943, 0.7901245611928169, -0.07576716645568499, 0.554453470911797], [-0.2670482003252726, 0.1485576314513627, -0.15336586511500339, -0.5782905801771951], [0.7651242136221185, -0.2416965435065133, 0.4812541612689208, -0.4953530680295548], [0.44585415402181744, 1.0594140300358137, 0.35946994875197513, 0.3576705187664947], [0.1707786209871237, -0.13611576760025493, -0.6709526665954471, 0.1392948249366012], [0.11721532845277315, -0.20128572593134972, -0.44240663057989815, -0.18583186491178025], [0.5681507217719953, 0.758423196520198, -0.39755223598305045, -0.46778393220823206], [0.03391705534674945, -0.14465071055439702, 0.22248988719830032, -1.0006875358865457], [-0.22937094117082424, -0.06972904332797747, 0.15559342488036276, 0.05650755491594876], [-0.46532932809231525, -0.7521806476695665, -0.36033151856097356, -0.16003371125094037], [0.3902660446741576, -0.27130045243820633, -0.4313863765791813, 0.021952185435506488], [-0.6785735408680751, -0.48034788064826, 1.4015992284796448, -0.05426021678669671], [0.6856699726270473, -1.2383595564232746, -0.05133457597388985, -0.646069929846964], [0.22924708197240423, -0.5536957230508376, -1.1697110477701007, 0.08161670185979022], [0.0942715054410233, 0.17345412428078988, 0.18088719128983877, 0.6869247052713204], [1.0552923549314224, -0.201443598837031, -0.881382736124967, -0.1363727684422617], [0.5518657946087256, 0.06972169107052367, 0.0703126947271957, 0.09302429641221319], [0.07129847392876011, -0.5024434979087464, 0.0646032335863387, -0.32184821369587285], [-0.5263517876520328, -0.3926859547327652, -0.2665907354380228, -0.7955638367670315], [0.5865711518556471, -0.8122091722615371, 0.003964169714429033, 0.8016167689257868], [-0.570589272803083, 0.5276336936746995, 0.8679906537917971, -0.8813546320118583], [0.47271480224922796, 0.25805768750745184, 0.1839341080571969, -0.33272281720177543], [-0.5284824789208072, -0.05915918085723197, 0.4509561065985982, -1.044434454028945], [0.20393952608807836, -0.7409384366383645, -0.4452004085599462, -0.37713107095228493], [-0.2710890218671398, -0.1840699850274222, -0.20126325421874117, -0.4251740653814764], [0.5028883083791463, 0.16006084582450672, -0.11955183450626033, -0.08788515101619357], [0.6832650508332171, 0.5818047153355201, 0.36785502036746065, -0.994622528798899], [-0.009254218143915284, 1.110645394840899, -0.7393255636072766, 0.30496887021064634]], [[-0.17211419046535917, 0.2815882279934438, 0.20952264215745767, -0.07808186483576776, -0.009422951762940102, 0.006334995166740045, 0.08423580731769865, 0.030160578521157486, 0.09622944751496694, -0.042519751948829225, -0.034399950676217275, -0.26233198601017776, 0.21639660359492205, -0.11609986816543899, 0.5031057547923566, -0.0919374803713126, -0.0847952513241604, -0.05557922538410287, 0.13306109158458754, -0.11598349143971615, 0.0990643192119629, 0.20069345700184973, -0.15864297076054518, -0.006129436058392517, 0.08249810446914042, 0.3749528332597902, -0.055256288435235314, -0.13861392861068825, 0.1970679811282991, 0.1920142982679384], [-0.24597389471215061, -0.22788362022723396, 0.07765456687564898, 0.03230122976322441, -0.008130961927972939, -0.3831156271604339, -0.0179012389132143, -0.22966093663922668, 0.3691538273034116, -0.05959539252248354, 0.1273545626609046, -0.05635115264858319, 0.32243878668587567, -0.09866783252724375, 0.17355238956787625, 0.07185663620658297, -0.3932839986955186, -0.21747440953969457, 0.09200911744110889, 0.08065667795828965, -0.09097104664456589, 0.14345261581658827, -0.1341831039024024, 0.12467127534668856, -0.04836633307879966, -0.14132415675392704, 0.10490735181122221, -0.07489777771392307, 0.036305016545303076, -0.24199450634223166], [-0.08251997891222351, -0.3679684181197854, -0.2247141702232047, 0.057370899389292615, 0.20876249331489863, -0.06328093105350252, -0.2290924082005227, 0.04771912655350931, 0.05172142907983319, -0.13605026453014196, 0.07260301820253968, 0.24027255941391745, -0.10848461885163142, 0.253109063626478, 0.14537363665629496, -0.266511595314199, 0.06134278426038319, 0.20995245317211947, 0.039353451471797855, 0.23165783974514834, 0.028474473642748434, 0.08414748805388818, -0.0316955480874272, -0.210747721662048, -0.15339229768306029, 0.26595617804017346, 0.09468902739202618, 0.004690547837660893, -0.04508084388338589, -0.08348775727531742], [0.14115152755873517, -0.06561257513735372, 0.26975789832727115, -0.09986157443209857, -0.17373209001877882, -0.08752849723723524, -0.15480917887119397, -0.043706470788983605, 0.10012860447290749, 0.08991729979944534, -0.22689522950712912, 0.2309689001498717, 0.04786810791975325, -0.024698587453312028, 0.08375384449771155, -0.03897037879456131, -0.2313972934039641, -0.026464133027242206, 0.09919241978255469, -0.1275467273450811, 0.05470283909139322, 0.3118171326847662, 0.15045035903342727, 0.2556402588962927, 0.19550297970739258, -0.1598254119582462, -0.09483777044122886, 0.28134879956198744, -0.021759722314357202, -0.2135611037970335], [0.3528210771605237, 0.030856415135013367, 0.18269559372807126, -0.1113291825780241, 0.2672979814688463, 0.09403948947848086, -0.09616931299948085, -0.10622940659028555, -0.32562164564840756, 0.01083921578167513, 0.2015021094873841, -0.19919196943298134, 0.0500235604778115, -0.11404254653990424, -0.20385415091797984, -0.31706643869638323, -0.006528873902160772, -0.031204328874092187, -0.15826823491273734, -0.014769824033679753, -0.020347341226797936, 0.2867893895334007, 0.01518901618482481, -0.3485795797254444, 0.09742525897232406, 0.015564238067965457, -0.273194551189003, -0.17886452021962088, 0.01171864428212693, -0.14369180703212053], [-0.04094877960547162, -0.09827727231734207, -0.1271367055511486, 0.284972399091745, 0.017299656389522983, 0.21039754328801769, 0.06611247636981035, -0.060082173863599306, -0.3778113319950775, -0.12519810672757453, -0.15228279300182238, -0.14787358857866062, -0.02726984520734356, -0.21511337764930477, 0.07850203992824956, 0.18571881582909708, -0.21823181032114167, -0.032183850961308665, 0.3838874996734743, -0.14854767983346595, 0.25759377369671604, -0.16627012385984555, 0.011973020409930809, -0.005299883963963236, 0.021473026084778975, -0.05752538069115999, -0.007326340874563155, 0.26988551734331534, -0.3759516989486624, -0.09500406239277581], [0.12600484912370924, -0.1530142842358614, -0.27385565188883876, -0.08591614185597014, -0.39667240482784394, -0.1663513710638485, 0.3239368023955948, -0.024830722268017188, 0.24662696807381662, 0.12986051747079863, -0.11147125828160248, -0.06016189157324065, 0.0384683725248905, -0.02461480958531934, -0.12388320651665721, 0.2380931401833295, 0.1419862019781511, 0.5632310991944182, -0.015155226202661274, -0.28080451035834575, 0.10584623220037385, 0.3988790150326999, -0.18487896547459326, -0.316963409278032, 0.14598252940758102, -0.23760695513451005, -0.15439499007944762, 0.10761718125096092, -0.1692780710707042, 0.02452663671418835], [-0.14795450362996515, -0.24274163276111022, -0.078695336906905, -0.041308072049576476, -0.08914217951950347, 0.08846675045674156, -0.11852487151501638, 0.24774840517774707, 0.13243994961795502, 0.001024693502201869, 0.07147178576982112, -0.025161102049168188, -0.06528147124771735, -0.08730431658981633, 0.07277813159270918, -0.08999943134367934, 0.02839689072762771, -0.3352772227193678, 0.15601030072953764, 0.22373580566053589, -0.05570092647856422, 0.21141494256758767, 0.29508265175028153, 0.08145976871160038, 0.1649011165715659, 0.1373733595047644, 0.01633277712322588, 0.11470167345030671, 0.1781577559981833, 0.051994356311992916], [-0.34306057460394374, -0.0035307317604340686, 0.31831284100232243, 0.19941047206196733, 0.023619850460285047, 0.11524527685880227, 0.21985615097350023, 0.1703996299460515, 0.012807258222864094, -0.2446810727229176, 0.22575606498889128, 0.06907593531400952, 0.36863649475037513, -0.23439503157491956, 0.1809285774349977, -0.07390025812368564, 0.06583153665653134, 0.13269379969105924, -0.08711352830822573, -0.21881689586994527, -0.18657208606126802, 0.23124143400021208, -0.014903503317122455, 0.20836881393254952, -0.061505409401330285, -0.12200480860507125, -0.2413103020646317, 0.17482208776436212, 0.155467787497034, -0.08410520204876906], [0.08220747655742736, 0.08681518538700989, 0.1484324520071613, 0.09173203792573402, -0.19503595172931687, -0.2020711930401685, -0.3102110206725788, -0.04775159169428511, 0.05187843750069475, 0.26365291301879473, 0.22154364325170903, -0.009446452060273147, 0.10173394513799046, 0.10996954531944644, -0.25500329734974175, 0.008139131554259918, 0.09075504021041748, -0.21890625794858598, -0.13728686552096406, 0.36662316540962475, 0.11981773705225776, 0.23936444386758407, 0.2009336428173536, -0.09703811401684788, -0.04005634911839728, 0.0040480396451789144, 0.17695557694040684, 0.16317469010190302, 0.19842083701840768, 0.4431320840339429], [-0.21110320236637023, 0.46245773623761915, -0.235795539993972, 0.19515734396086207, -0.1570337216495965, -0.02321593359260735, -0.07671793589568429, -0.3348341033245922, 0.09017123098289496, -0.5298333221457779, 0.17799335862818924, -0.22402720423245376, 0.3621391556208295, -0.3353674501029153, -0.14346372243052716, 0.08355224401008995, 0.29296343205531966, 0.07012600114339052, 0.056812360507471696, 0.15128611501318642, -0.021162329626759818, 0.17975308232496592, -0.2653306986013805, -0.1774879783007366, 0.14269927434130353, 0.18220424157705598, 0.257522467296211, -0.04297871861254201, 0.0523733905842663, -0.10275824482667387], [0.04428033535237172, 0.032293338806651396, -0.11851770637463448, 0.17026138971459354, -0.0018684703737584815, -0.07491551338027715, -0.043813256758362375, -0.30696225167291125, -0.3711655249422686, 0.15974513548691766, 0.33830829353085273, -0.07530522887756616, -0.36565022721614343, 0.02366385702042704, -0.0072748949633925095, -0.10041022571017086, 0.13314388969643057, 0.024706127507753316, 0.0786675253084662, 0.4090203449687773, -0.058911188391360336, -0.011143436528263485, 0.012300401640905935, 0.08936846391385218, -0.03263195123509412, -0.14933111561303095, -0.3081044168459377, 0.34675599227748666, 0.03181964146467176, 0.3701795950223321], [0.16693411206074169, 0.0028743666773943617, 0.16944458015373912, -0.19331471715776868, -0.17868937725347236, -0.019170457401155014, -0.21234894200698692, 0.03519960731602398, 0.07735024147022401, -0.0644551244036513, -0.051223441327579104, -0.03177129622800816, 0.028546879080762214, -0.01613375040173863, 0.04774818870202092, -0.06478015926971947, 0.3181921871028364, 0.41425338300610104, -0.016915008612148816, -0.46764515216400204, -0.2688946279538793, 0.1684970452948691, -0.262173165708383, 0.136583444718803, 0.17355325615625974, -0.1620158746347414, 0.06770764848010956, -0.2099943138235217, -0.19791248384215834, 0.18516514646544213], [-0.21219990763893398, 0.013988776642641464, 0.1401873964113936, -0.08175172839300793, 0.18472458415408674, -0.046041111563950146, 0.25858035604162133, -0.043809274494506646, -0.15853177605213278, 0.1903742070810965, -0.3266735718719126, -0.1486843435464334, -0.14994932489124768, -0.273003961302882, -0.03321669182008799, -0.15042834419071505, 0.07050637888026987, -0.04088482394119337, 0.019776412892631167, -0.18686015088790714, -0.27569235754866905, -0.22848768116157883, 0.04975655324777513, -0.27130752426539073, 0.052599930098243146, 0.2648994221804854, -0.11613798109130563, 0.11639715003231647, 0.201546406655579, 0.10191164718301501], [-0.11934896762107458, -0.020747426932781556, -0.11278291307007525, -0.02178665418957797, 0.003131664462569226, -0.3099047994381677, 0.13467952332201347, 0.15630576216850844, -0.2760953889518323, -0.02854364345022159, -0.2797526788328183, -0.10311629412105686, 0.10541148319791206, 0.04470416083074578, -0.018624979218560492, -0.01195859113174884, 0.2173371804891042, -0.06528720091620009, -0.2115863180393954, -0.03947465045028358, 0.11809561421892842, 0.21447905371537782, 0.00013437366101011432, 0.02719539295700214, -0.21622633289185914, -0.35438051251612457, 0.0665757264096317, 0.048196252896189465, -0.23140055434972023, -0.358352856941104], [0.39771848648520375, 0.30617482871552304, 0.06768659331157402, 0.016076569387308996, -0.11848488450385442, 0.299378896661364, 0.019268588316213916, 0.08099143744237153, 0.3746906527280945, -0.04245418446956699, -0.15891884704489478, 0.30363341998343274, 0.1916150288076554, -0.039049972793695556, -0.15660338496593537, -0.23678118064773512, 0.08316813724002058, 0.022435766531035056, 0.16758458428768183, 0.07250015809327363, 0.034991291524244524, 0.03999671626831083, 0.08514932531203359, 0.10930843575602033, 0.10185330937075097, -0.26678897106451327, -0.3427448213260263, 0.12799638234240474, -0.05804136027921433, -0.03390600042246132], [-0.13005298183181357, -0.15947002467507004, 0.0009300315865191315, -0.038180085981182325, 0.10999866413769747, 0.052311013319539676, -0.0029312819596402683, 0.2981216691111595, 0.10851274845923968, 0.12558659338604922, 0.11284872945085911, -0.05806407610166794, -0.24410680726173625, 0.13494756340966715, -0.01308210841656601, 0.03678813741634892, -0.04707567260924066, 0.005905246091824262, 0.005791150474603782, 0.33829695204969845, 0.02528007811657695, -0.10768502556275632, -0.09576495196974139, -0.141046392943926, -0.11913363047513757, 0.02531471110223346, 0.05397411389387503, -0.47692131564301793, -0.10621344762204164, -0.4266484498438081], [0.08908786307454773, -0.1752678146491947, -0.009421028507947031, 0.0321009875245418, -0.057846886760423454, 0.04861246165137189, -0.016867598066760102, -0.11127579809931386, -0.08216820215179954, -0.34023687041318323, -0.6456509996802685, 0.21929899861012717, -0.02277787252141106, -0.1180448907331962, 0.0190037023117697, -0.07183610475369964, 0.0678070649279846, -0.15317425911135923, -0.3226153306833776, 0.26957633042680607, 0.16669576289766394, 0.019419702131119966, -0.11411837872619265, -0.1897125841842634, -0.05401197532666237, 0.055937358452361106, 0.19886713284260335, -0.3636123679959569, 0.1471847487301817, -0.20559326918447848], [0.19459682083902416, 0.061822710630368545, -0.0425993242304622, 0.06120755832967847, 0.06289642889821832, -0.19499782980938948, 0.036879241298220594, 0.15637434913030301, -0.05949830498843397, -0.24073931365329082, 0.05215178986676609, -0.2500668723134441, -0.15512129621074516, 0.27468346941717775, 0.20931542088159868, 0.10524530915408804, 0.14888496486077638, 0.04268179637133828, 0.2144964321765515, 0.1778370878789308, 0.1660208585718784, 0.33826328208770484, 0.011927759896583586, 0.13357013973501322, 0.0479795397149252, 0.455262124180315, 0.12220917600653027, 0.05640518964718869, 0.05857999958392952, 0.15252077851048262], [-0.23735405697508646, -0.43087531048050925, -0.07155609735749037, -0.049698724010096326, -0.027605334965751144, 0.24004736742864055, 0.0769085051165859, -0.27950285949485304, 0.41286713415544163, 0.11600259183464656, -0.04637118653629446, 0.041360423797433946, -0.2897876776836527, 0.10701901170808574, 0.06112202547948761, -0.05688149496316079, 0.07702825434091255, 0.02142269898176741, -0.18714732283681165, 0.02503362761844636, -0.40088741952936685, -0.4034117838703424, 0.3074629233540007, -0.2186081659202079, -0.1646032589194959, 0.0382591466936323, 0.015287081388163756, -0.13224338798030394, -0.11901755673421512, 0.1812688274618957]], [[-0.22934500775533181, 0.11133250071592905, -0.4591908082475841, 0.2901554913054623, 0.1593400924705984, -0.23582153851541504, 0.02237915914505026, 0.28115805100453084, -0.1546334405323575, 0.2256131732488065, -0.4831581362249565, 0.12792756223376311, 0.14157089008499735, 0.028631873000440355, 0.534928151753634, -0.1853669881031914, -0.32789753739082506, 0.12742934120348462, -0.17525675504655794, 0.011607693919287102], [0.44532281347712693, -0.18781520420256057, -0.1368982710863586, 0.025074303181478116, -0.009181430695679631, -0.06135526292726293, 0.3047050919234506, 0.11198268604042023, 0.5782609896617559, 0.2306498677514856, -0.0202813272328576, -0.3908236642267441, -0.08475485204887803, -0.3209580753568605, -0.3154109704792593, 0.26437974320120106, -0.59531746024466, -0.07519436342113414, 0.07812626431592425, 0.14609114610692242], [-0.1155933882837923, -0.1752285578183192, 0.05021574755511066, -0.22949660130878605, 0.030794345661908445, 0.35568662469255674, -0.06072802537958235, 0.4611347634592222, -0.007472346505087106, 0.41434152966687227, 0.08980709326393892, 0.6622961395886916, 0.00792562075928198, -0.49153421175235984, -0.018832685695040614, 0.32236772318132206, 0.04073487056734081, 0.0797803616906984, 0.3280803332761301, -0.08026469423796707]]], "biases": [[[0.6607880697416334], [-0.664775355662245], [0.41725649342041576], [-0.8297642784215447], [-1.6703717258440685], [-0.5958532114025166], [-0.08153986072285309], [0.6038429087706512], [0.07694400537312052], [-1.247594150886542], [1.751834005057753], [-0.27257464185980906], [0.4371443529417568], [0.7091068272978476], [-0.7133702372399789], [-2.364719990830596], [-0.4020471314192664], [0.8428912049278644], [0.686214192135149], [-0.21781364874675496], [0.3138561133396324], [-0.9810486625969841], [1.1554248969519723], [1.0291178855112666], [1.065426352394661], [-0.22996664757273952], [1.5355597546536779], [-0.8609397933761694], [1.042851324867826], [-2.341570102513359]], [[0.7927886947216507], [-0.9597538982184279], [-0.06430757046592224], [-0.4612585087041662], [-0.6522107295535292], [0.963217368856826], [-0.2969597228107462], [2.814575665637562], [-0.07020235704479609], [0.09439223240929628], [-0.40402861225997594], [0.4859777519872047], [0.06259710181396969], [1.0781682627243157], [-0.4851541463533195], [-0.4338686296080195], [-1.4791144006984092], [0.7011928483413046], [-0.5178756726698611], [0.038607837276445116]], [[0.5946963340160977], [0.3489395098530453], [-0.5348399689151102]]], "cost": "QuadraticCost"}