{"sizes": [4, 30, 3], "weights": [[[1.1176014229537352, -0.34812832441265923, -0.6703983418874002, 0.5124081141587646], [-0.2607157387105097, 0.9795703170931025, 1.3314830900170136, 0.10748890750595924], [1.2757763690051867, 0.061978247813234036, 0.72036782352958, 0.23134833631204088], [0.0024572656843526515, 0.24856208302737917, 0.027649570069813986, 0.09142293431063162], [0.3504964303403477, -0.28690858455809587, -0.678046322780948, -0.2397890896055471], [0.45817157424528154, -0.4235692838493935, 0.001371236806635862, -0.2739757720615608], [-0.9481320101966658, -0.4776517358088159, -0.18104638559303857, 0.5992214090497022], [0.5068201268556923, 0.4178424615604349, -0.8649124739309119, 0.378778314246545], [0.4532472103086616, 0.8606223861913211, 0.4584734071989757, 1.00552804130028], [0.00017390377600495847, 0.1531200446683611, 0.11341970565543855, 0.9335805488720078], [0.36107726522644334, 1.008822153976892, 0.5790367933425886, -0.16781472832842562], [-0.7968880753984717, 0.0045837729047449325, 0.06452574760779252, -0.7961428709185161], [-0.10249204759312336, 0.2436718881070779, -0.0726565727667025, 0.24843363556486844], [-0.3719524612913635, -0.2972321099372013, -0.5714560073610901, -0.5420071952799156], [-0.38880884082965417, 0.10474427815469567, 0.47361199456310243, 0.26230095345561555], [-0.16515671743063476, 0.14965902844200968, -0.2605039416107751, -0.7661511470110496], [-0.3133903967821212, -0.7295175133149043, 0.334071709751287, -0.06459467171129019], [0.25291865957109866, -0.5657326849819393, -0.48802514350871207, -0.19404051766354743], [-1.47381957105172, 0.7858661425653075, 0.29960152125502393, -0.015859483118270488], [0.005157922171448958, 0.2632620037435084, -0.5825551218561781, -0.748754947120597], [-0.19455847545836258, 0.02287893427246342, -0.1546516452419966, 0.18058465324793033], [-0.6133854598615861, -0.10090355368658874, 0.43870332997527284, -0.6226416636415658], [0.07051284691356978, -0.1403782898400927, -0.4342853461818067, -0.8130829627186023], [0.19436442770776732, -0.2124216910785845, 0.3902192363081939, -0.10499701712994987], [-0.2032292810407139, -0.5300432744223743, -0.7573183942909164, 1.2255597936643832], [0.42902056830913143, 0.2669931432849465, -1.0352508930750335, -0.14092016634494745], [0.5678541712703713, -0.6692173741933314, 0.008241586414190448, -0.7854245225060368], [0.556212543519902, 0.2088684188517082, -0.5104397621217126, 0.6224355585523317], [0.13519965783852947, 0.07391920971268717, -0.09900481420772593, 0.10226459945098315], [0.09100552203400332, -0.09644634686823171, -0.30935275306851284, 0.17325382923488272]], [[0.14453677673683876, 0.22756632675952904, -0.18591617120944837, -0.013811837424239177, -0.11906976099740836, -0.042545552556580976, -0.0819535658397623, 0.10252379018313432, 0.135883388831354, 0.43127695290319246, 0.03808799759591886, 0.20606091677974445, -0.1162595625795754, 0.13566795700829248, -0.4201891982765371, -0.09987948053994615, -0.15995784227906756, -0.28110077445379206, 0.05141294398445547, 0.13940618975203045, 0.037203440736478056, 0.04426014961122113, 0.08543902831677755, -0.15333006711029443, 0.1354485505892486, 0.049246414523555514, 0.22991147127878303, -0.04011671188126534, -0.05919966718470681, 0.35004674672093467], [-0.2653197483250215, -0.04765842187356223, -0.027726520069518357, 0.19451460109570448, -0.008179598484539445, 0.1474878226480078, 0.08136289432827634, -0.10823387932200702, 0.11299630325421603, 0.18442946788032985, 0.2636060926556639, 0.005372406503571153, -0.23112408257280628, 0.0003274149580972248, -0.11983083970695926, 0.2852846387897782, 0.051438070854409296, -0.3391329560143565, 0.13385759984331952, -0.06215291240099061, -0.1253304757831785, 0.0010309394885123391, 0.031417098794532757, -0.26929107016297316, 0.01689827999843513, 0.014704420820359563, -0.24416476078733818, 0.13538992396992952, -0.13280774321255256, -0.03366594660334059], [-0.0782540885194348, 0.21407396340487325, 0.06387400623892961, 0.07416860976329877, 0.010562207068582729, 0.0898793582049868, 0.10185282251393434, -0.029722999491123753, 0.380342598843119, 0.27391560004350185, -0.008088561362308119, -0.04406919303872923, 0.021565547928212105, -0.175624955967532, 0.31726344744461793, -0.21258640272530002, 0.5056606686434607, -0.18804085187947656, 0.35844784414200404, 0.03845915767870634, 0.06920992554966257, -0.017551969820670553, 0.16042555216487006, 0.07249729724794361, 0.34444968694743466, -0.08560130544131021, 0.06503056308868457, -0.058766379318090305, -0.08824621528284883, 0.09000013380185062]]], "biases": [[[-0.21792394621708708], [1.0141544729654792], [-2.8270839660013203], [0.7730684291658044], [0.8654527514032856], [-0.18990932960400625], [0.08266362408352887], [0.603030396370026], [-1.567739617533643], [1.5554158503803972], [0.7545239098650665], [-1.8502694584387742], [-0.3158152395849438], [-0.6250541190826439], [0.03991037999171009], [-2.6910553718418906], [-0.053211509160428196], [0.48538059918491155], [-0.626519368389969], [0.32505433340767026], [1.946840318940897], [0.11645178810079952], [0.21408795383406296], [1.772044334911286], [-2.813421192397717], [-0.15619171092956044], [0.2993717596381665], [-1.1407222172908031], [-0.8366069812162276], [0.5870035710385314]], [[0.19853595038839195], [1.037815308356426], [-1.3287496049040244]]], "cost": "QuadraticCost"}