{"sizes": [4, 30, 3], "weights": [[[-0.5524657754304226, -0.1716643916823213, -0.20926373186480246, 0.11849198407201744], [-0.22933376139782374, 0.6379334856341513, -0.3569156873686694, 0.44773550421150815], [-0.0713767556371784, 0.03732335060115429, 1.175950386335831, 0.34473630389018817], [-0.11374220573719042, -0.2241244486204474, -0.06608035942171044, -0.13899899649099406], [-0.06581287677626893, 0.198283978141528, 0.27199069689468053, 0.18845799038791541], [0.2354793669657445, 0.21779831013143924, 0.6306228663127319, 0.6630410858814951], [-0.595817619058259, -0.42259633993649387, -0.19208704578591562, -0.11656096636178713], [0.15314927956820534, -0.09720879883305832, -0.940918447847535, -0.39672780940540636], [-0.09822135284538146, 0.04445601635555626, -0.16632701661711413, 0.9180230455822865], [0.4000180476811278, 0.3717934589894512, 0.48367945553673564, 0.6345514846048897], [-0.3710937556263907, -0.1700170016659026, -0.4364071645414213, 0.6941641660155409], [0.14444774509229355, -0.4128845439664261, 0.15194205544510772, 1.1417010571120223], [-0.07228274008672429, -0.34761248082521945, 0.6152127156426079, 0.7481037270985852], [0.4221693699265668, -0.6529585387896929, 0.09935807764097802, -0.5994629984805807], [0.48812370162766494, -0.5379054185493777, 0.2661031133562681, 0.3181974769634367], [-0.36130390728399037, -0.755679883642964, -1.4659443114151358, -0.4990845424741063], [0.0563850015414474, -0.0629736789235511, 0.3079414395873666, -0.6987537807861988], [-0.1108853788789753, 0.0063790805173954525, -0.06904370650337624, -1.8058840924309343], [0.9931551314307364, -0.2278327911981055, -3.687117513854927e-05, 1.0903804284609835], [0.2620082128206964, 0.4703627003256848, -0.6302732558779236, 0.3525749390415184], [0.13907422242194215, 0.2734750893637755, -0.17198001615300543, -0.17437643006908415], [0.511097819917971, -0.2579079916109088, -0.46159860781394996, 0.9463032324303663], [0.09592359021532339, 0.4724721834724593, 0.059645514524437844, 0.6044820201081759], [0.4127629559335419, -0.781029947880934, 0.125115180985799, -0.6841626216352323], [0.11344449429689972, 1.0402735744069067, -0.17313776728444694, -0.17130595119537131], [-0.8424459041710953, -0.3566982762649053, 0.10038135097140043, 0.3183845888062091], [0.5766281547413608, 0.19998565641097044, -0.12656555572112915, -0.8656385823553266], [0.1011887935050877, 0.21156879031489653, -0.2441905609004588, -0.08379588636753339], [-0.03288649646477189, -0.1329750625600944, -0.40890421420661277, -0.2718752238871967], [-0.3429916630083558, -0.22725573973147978, -0.06306342175216878, 0.20610006920248536]], [[0.04873558005079613, -0.195517416874977, 0.26390508263831297, 0.07506926243523299, -0.008288764523812345, 0.24787934316411983, -0.003436540113716144, -0.18844035721999255, 0.06069572320348409, -0.005499422208787011, 0.20211937973222943, -0.1857709598644013, 0.19393642759919544, -0.06076574003664306, -0.14745506492349666, 0.13059470811704307, 0.35651781832895224, 0.3580368387153552, 0.22025059866858807, 0.4162014177094831, 0.09833663247198407, -0.35777997315548343, -0.27802936811418444, 0.03809406567590204, 0.08735728575311495, -0.04218382136920956, 0.013811472304475108, 0.3317315464993762, 0.06449780599755368, 0.04839765430456107], [0.07504071406121651, 0.17982127310678928, -0.28824230309687193, 0.029944329628444843, 0.2470656187759329, 0.12165454569932009, -0.06115732385128431, 0.1944975373574407, 0.058376347401669616, -0.02826044810270966, -0.21590109459222173, 0.21198201361950514, 0.1424727378114458, -0.23276514005364515, -0.056524041675466416, 0.3282538138996737, -0.10383570990519157, -0.1319971506045111, 0.13630934093012154, 0.1573115581203752, 0.16365849004901503, 0.1783561103209423, 0.2063849327726102, 0.10370889705471582, 0.10793149634909124, 0.2308731980973208, 0.19699859382886764, -0.18463247035597652, 0.029845180914694448, -0.040281998473837684], [-0.17490960052620458, 0.02552807305314368, -0.12415331498022623, -0.06306627635700057, -0.18800183864123413, -0.14144376175587514, 0.03966720478651984, -0.4359224885319077, -0.02948055066531684, 0.06066735477436448, 0.07089488124134932, -0.0025455136973567415, -0.1026875983367222, -0.07563425927377647, 0.05305377168263692, -0.24330237810324656, 0.10882812369956495, -0.0703603665075041, -0.11900981086465541, 0.11989360010938135, -0.34491930263692944, -0.046047169982512536, -0.020047503056449256, 0.11287726623125786, 0.5145938533883277, -0.09837594249581924, 0.022950441290761445, 0.20865552168741158, -0.17538614084008644, 0.3340872148047435]]], "biases": [[[1.4699345274245745], [0.24183859778370403], [-1.3431335686221024], [-0.03653919899899392], [0.5196885438379532], [0.9739733926944235], [-0.8452337076363938], [-0.03940405946924106], [1.827939333306659], [-1.4623593213770705], [-0.9507524851651915], [-0.6067831502163467], [-1.7801806471746477], [-1.2836368591174365], [0.9221533809791639], [-0.7617052127043294], [-0.3927845655861771], [0.7059109176254281], [1.4493379585228388], [-0.24483840940792673], [-1.6561314137309446], [-0.4985779674095443], [-0.5444583417787353], [-1.0362801658378802], [-0.09562248166991844], [-0.3948571413234219], [-0.7683226718924822], [-0.0634798208171287], [0.222662947120054], [-0.1957452607363047]], [[0.1555901108739579], [-0.32487048340636565], [1.14143666176386]]], "cost": "QuadraticCost"}