{"sizes": [4, 30, 20, 3], "weights": [[[-0.2991308220052643, 0.8664448415716731, 0.4620489961969163, -0.12415889312724877], [0.14493717836038483, 0.2630858924867938, -0.044479122761078904, -0.21647394498074518], [-0.1395282841081385, -0.23088709059468193, -0.10608807583692818, 0.2380317161582832], [-0.16516620662448014, 0.7262223919684055, -0.15574586299688828, 0.007324224249533845], [0.20670386690187206, 0.6460599576456808, 0.04139387486362071, 0.5134867453001354], [0.2900435279543309, 1.1599488220941168, 0.11162409872946144, 1.3811121559678607], [-0.5551304199743962, 0.9071344077361191, 0.276119431501683, -0.17204125191262112], [0.15472459080124812, -0.5810608653399674, -0.7495472248037347, -0.06402635092025842], [-0.190980296602786, 0.46427468651650655, 0.29994765996043743, -0.0781658981027414], [0.3313604272194161, -0.6059669386410136, -0.2961362926855092, -0.042103173250511335], [-0.6476381186630623, -0.7466325730731525, -1.1860660319967313, -0.44130590117571045], [-0.56744845604476, -0.22402300595679553, 0.07542961938123358, 0.22009161094142132], [0.7595661748818172, -0.31137057829177656, 0.7964944635623279, 0.362336398693383], [-0.08347144163791972, 0.7210821566370044, 0.4483442371233811, 0.6909445947244374], [-0.34362332641130494, -0.3380993531527649, -0.6898969537907909, 0.22791967426403975], [0.4746485644498688, 1.0331457777979167, -0.7050790683461307, 0.13039171153270282], [-0.2954339734829114, 0.41259557140471925, -1.679012573823411, -0.026101888566438285], [0.04224544436039383, -0.014103885173068384, -0.8863649130228676, -0.0476031454844153], [-0.2550447792379276, 0.2502993312909254, 0.6136275586459063, 0.11148877955775069], [0.8331197015180896, 0.5826230757467066, 0.14267363351161838, -0.09240674240173122], [-0.3294508897166968, 0.7176546955760778, 0.4317731709137632, -0.5098295959040154], [0.03249799361992344, 0.04468933003001966, 0.12531009544277774, 0.36153341407336154], [-0.12592909719794243, -0.23399018913733086, -0.6702711494851216, 0.4299666539642222], [-0.009192861788614374, -0.003886166185544691, 0.003227108683885634, 0.07056534009480016], [-0.5468902409051843, 0.4610179111086468, 0.04563124986045071, -0.011437083626559505], [-0.7339170589810498, -0.11792346908684523, -0.16054128722145702, 0.3217142715168075], [0.1536967674734598, -0.6822585242985499, 1.1247695462250535, 0.020817716652145542], [0.09721876525794207, 0.12925592307102396, -0.14218664617424553, -0.545925874934123], [0.09019407282223946, -0.6821893064139805, 0.370499882947411, -0.527646231419898], [0.011452404141780202, 0.025451849335517522, -0.09329679193374832, -0.26915005973194517]], [[-0.0019013657054710665, 0.08551153746532365, -0.025779107639861264, 0.015783311395451083, 0.0087241099893967, -0.08650832345055043, 0.3409296994429928, 0.0008259223534785798, 0.4285667188823293, -0.1854233229856626, -0.14451240277240998, -0.01179248747284348, 0.08688179404959434, -0.2256889484337037, -0.07427731034792844, -0.02165362480791858, -0.22418940452080102, -0.09788883303157932, 0.05615119021761446, -0.1742676472364313, -0.3936571589813417, 0.019454114561287074, 0.12878187035967276, -0.004739192323400631, 0.14215481660565354, 0.022700205737100947, -0.2475567705303244, -0.37544498080769323, 0.29544555847754655, -0.27277193805076777], [0.06169626975485725, -0.10421158258409087, -0.0056461615589426485, 0.3083269109107689, -0.0648479770736787, -0.041397149586745674, -0.10384743391483962, 0.05996811338658404, 0.2720281020726718, 0.1108069451036589, 0.04948425175556354, -0.31219344823978545, -0.17837541395539022, -0.15115025537854515, 0.002327650595350916, -0.05671976611319892, -0.016188192647800068, -0.21567571875079214, -0.07929668229556193, -0.12203297733460704, -0.16525831294248589, -0.3108721055439055, 0.03599809059497194, -0.3191188560533808, 0.13321633304241529, -0.2516156859995989, 0.026684379764320358, -0.18679978306353126, 0.09993442092660641, -0.0386910680069957], [0.009671449240091874, 0.039298362086628846, -0.010821354815914267, 0.01771826065929186, -0.016165894003974633, -0.2602469156925737, 0.07880187032043769, 0.011293018089348121, -0.01595892160750071, 0.04724369459713701, -0.2596792251726285, 0.04331613754770491, 0.2097422309902009, -0.4644844771345442, 0.01615773807474653, 0.3578091449490295, 0.412629775482197, 0.06484988195895218, 0.1698708331256418, 0.021307486043614734, -0.3302710529284314, -0.22930482423923215, -0.040085640157547314, -0.05213740827454639, -0.2825705453480534, -0.2718547733967596, -0.06662834687132863, 0.21959599943376135, -0.15824178510530534, 0.17576170148119416], [-0.35099610065063475, 0.15615262934518714, -0.12418489746816523, 0.3117846299257457, -0.0789042295180537, -0.11092608917061939, 0.11650642508806563, 0.23667214819157262, 0.07023997874080444, -0.1851070693390059, 0.391201698386972, 0.244919691689477, 0.5691918228542688, -0.026650032344809886, 0.24680744947538155, 0.20744038823537433, 0.04490472298063394, 0.051519059396432136, -0.11086793059653162, 0.08832625946329842, -0.0911231991286048, 0.06278783794402426, 0.24356187277721408, 0.022401448341530326, -0.06616718754688017, 0.2251376351809202, 0.07884721202552367, 0.10749864257166726, -0.0338945331838218, 0.18712112070564674], [-0.0890490251501594, -0.08155432621471516, 0.11765052661953498, 0.0002494801749109443, 0.06302818043381248, 0.2059334867379426, 0.036938404763996034, -0.21166721761900958, -0.029524222030757885, -0.20546382275744687, -0.2485020824362047, 0.2698903488632883, 0.11096661379661898, -0.14389893065615875, -0.16576761514589794, 0.15782924158116513, -0.12480712178097855, -0.02672781942625313, 0.1362214668857298, -0.21767304637652277, -0.2748344047345601, 0.030263293654007165, -0.12938809754460828, 0.5443781252091694, -0.03094978080778752, -0.2164608148112787, 0.0050606470000970115, 0.2005940433179543, 0.04602779206376809, 0.3064385246563142], [-0.3517018218575328, -0.07029872743453677, 0.10387329432131298, 0.07418272011454341, 0.10133235290268139, -0.07284513873599176, 0.03810977352589139, 0.022803103126070923, -0.23023154189180398, 0.21387359163542147, 0.11460660844583195, 0.1556681535181282, -0.18903283817887048, -0.017040941180410236, -0.1467001289519567, 0.0783508061620403, 0.030994039754080178, 0.24468139543555134, 0.2736439329506064, 0.07501462088222718, -0.11404743084092159, -0.0645656924702957, 0.2538954574224646, -0.6398879191333231, 0.07523238893465188, 0.07537891346220324, -0.11151703444552279, 0.18758518839194063, 0.08126599885979792, 0.061415629421844906], [-0.01892515324576777, -0.37146915763943733, -0.06908234769743705, 0.33202239041932863, -0.004450758421871773, -0.07806915520485837, 0.30734801272309026, -0.30160945556729146, -0.06453524923879647, 0.16715447192640817, 0.47641887934058536, 0.252025645810463, -0.0656890108780135, 0.1896491780624226, 0.01857556877379063, 0.22979502371966962, 0.055861548088301974, 0.08717189370912341, -0.382948082253901, 0.13243575697746748, 0.1283402833316735, 0.3130142895157046, 0.08067644186294833, -0.03306398851615254, -0.07480537149606338, -0.08755979096382759, 0.04227492378279022, 0.14120623499933535, -0.04723120628548663, 0.2168819157516611], [0.35390951621688804, 0.030974834334347976, 0.1384992257275417, -0.07612817697819682, -0.17790309866649157, 0.14534942527884404, 0.02720333650730617, -0.33026320226121175, -0.03429803374295619, 0.13948696133445426, -0.08370541021430541, 0.0982552808046451, 0.22148560376230567, 0.47462592833185885, -0.020128011751964124, 0.14773827139380405, -0.13966818955898713, -0.14043500030992562, 0.07499975701008296, 0.20110272853931627, 0.07996639984797765, -0.08251507601609542, 0.1484471545536087, 0.05007620134213025, -0.11268492073550966, -0.00913450731150659, -0.13442487683003437, 0.06302601415785095, -0.003745246865398655, 0.1972675106221897], [0.016608041281628193, -0.044255539607907665, -0.18369528016621903, -0.1739614458492939, -0.32904273457717853, 0.21318426313147065, -0.20144718645348336, -0.1893814385144451, -0.09223577924101563, 0.04789896119004691, 0.12200905467213478, 0.007393411335987558, 0.03697004177558695, 0.21746523490124925, 0.029528775261712454, 0.21456038028601618, 0.09039526385549275, -0.20520830736193357, -0.20770086675657884, 0.005251622495245463, -0.010314612378555263, 0.17848419391738748, 0.0003746296086778484, 0.021590109180175333, 0.29411647142513203, -0.1779040555733489, -0.13468575998614313, -0.17990161481554606, -0.063765172283398, 0.4752495013271052], [0.11798199214582455, 0.18376578689917572, 0.38169067668404155, 0.2965095939156121, -0.09304370201926353, -0.05929708042019051, -0.0533466033499337, 0.015866652887252287, 0.12692472876110672, -0.17909045837331017, 0.34895001925289726, -0.2302094586411402, 0.40274864092013307, -0.22525052931264233, -0.08809510145481557, -0.1213812457692886, 0.08430624834726888, -0.051509628460619565, -0.07273333463632445, 0.023561582596307043, 0.03704891998578623, 0.2471780033501908, -0.23022367888481227, 0.29948678287612446, -0.357971334411391, -0.13819673915947536, 0.24999999568039974, -0.018623904385084072, 0.09736317765907394, -0.3222874682753548], [0.17473048604879965, -0.026204018540955644, 0.025089947958624136, -0.10237136818998674, 0.3440079871150842, 0.1388709638730412, -0.4865505073999991, 0.018095328926772698, 0.027836319022293016, -0.06448583576383661, 0.16539919513146956, 0.0984016671654414, 0.13564692030546907, 0.050295657712580134, -0.07394655296929037, 0.31700541288516154, 0.09907681159536916, 0.0674204737049859, -0.0836157727397987, -0.23298430486697147, -0.14770904079343924, 0.059755424741783525, 0.1755310667963425, 0.3256988048382314, -0.02000359210853254, -0.31417172715212777, 0.027225700674075762, 0.016129326504990046, -0.16494653384551095, 0.19846607718895665], [0.07374879981479274, -0.03951364034512221, -0.1181813101226912, 0.17758597121904662, -0.29799096094342836, 0.13261524306540012, 0.02302823798416805, -0.39660816704632834, -0.004846497921090569, -0.24693047343217173, 0.19648070318675975, -0.2152996232243476, -0.045568305905622004, 0.2651540538057622, -0.08122075482531746, -0.21726052242574803, 0.37064675566332306, 0.22852004608375392, 0.0016675202947578998, -0.20293316056379604, 0.20482559272361697, -0.3009760226473325, 0.3926001569047494, -0.08297554371394952, 0.21866073501949884, 0.09008483917243941, 0.10765794457773074, 0.05900955468954786, 0.07115541208561181, 0.2647292325276728], [-0.1444595996478317, 0.21734362985807446, -0.22387897499775147, 0.17620126361847985, 0.06368062921358071, 0.34913738704955677, 0.098384224530778, 0.09478471594530917, -0.07966320186468107, 0.06712843677680033, 0.05094621731115362, 0.3353624151768365, 0.06840259691805954, -0.12898654008554514, 0.03315625387748024, -0.0671385197398309, 0.2769135183091778, 0.3316906219270887, -0.01923699304795423, 0.24604202137033704, -0.12034304552079371, -0.20153888113420432, 0.38306553725089765, 0.049300103775893084, 0.28853087094531665, 0.15841797830564214, 0.08934154397081803, -0.30835860191455955, 0.00966546475423028, -0.1349051035985157], [-0.0677734248388331, -0.23597801639349075, 0.035510428082823835, -0.09353868742998918, 0.357245078809979, -0.1920445380574522, 0.008896818957658583, 0.3615056855674677, -0.08243415984861541, -0.23029053434883978, -0.09316693525212441, 0.28726264042689703, -0.18406389944706006, -0.2404245541882018, 0.13510951360539478, 0.11958658565154161, -0.08246543767327168, 0.048226859595245544, -0.34316634980343524, -0.03168366696423515, -0.059025389948471, -0.037678300064564824, -0.1254197458206539, 0.20079479075322257, 0.041886864959845185, -0.20495447996010327, -0.04889586686950911, 0.29755237835254517, 0.1492571211886611, -0.08941384289535872], [0.13314741720854856, 0.12566072233945116, -0.04778457724500751, 0.3287136145554965, 0.09116536936347144, 0.025679073285944914, 0.1967193872488076, 0.09780530822838994, 0.23371437830187267, -0.06834244180621168, 0.1158012611516832, -0.05957200139527384, 0.2949359070975404, 0.16976133114135958, -0.008493255350454384, -0.33496312527445854, 0.242467474290218, -0.2150757959616527, -0.2418235371890864, -0.052566437389854656, 0.22529604774362116, 0.1018149367373578, -0.12652505934570335, 0.167874147470065, 0.14744564289247727, -0.1345478018781159, -0.1796345269360422, -0.04246697529100059, 0.12211612676257895, 0.013124125352208001], [-0.00907389149264699, -0.1649105594963975, -0.031166887338399056, 0.005578267300825622, 0.007738274412351063, 0.40861474866738373, 0.29134385841066673, -0.08405401954784418, -0.05629157120766748, 0.2074327134475864, 0.15151968294401483, 0.42027584465391377, -0.1720389646769843, 0.40640767427212005, -0.10036851051289443, -0.007878555525868709, -0.10224524747501787, -0.07226033828381086, -0.10766972604035133, 0.11252984642909775, -0.1193020177933239, -0.005723817390462681, -0.15390531652521117, -0.1303733267158509, 0.1308590086942008, -0.1308334093722429, -0.14681162162645756, -0.19461905643578692, 0.14463828910256166, 0.18547589638055564], [0.12548228079189672, 0.1932735647939207, -0.013187513183553766, 0.12619477919785707, -0.049107715006694586, -0.11084856302268031, 0.09359496006816605, 0.09831423489588034, -0.0005146502448783143, -0.4359377972911793, -0.4871658353606182, 0.09364987823779833, 0.2938667191797105, 0.2681994856618903, 0.03805259968406, 0.0650038708361673, 0.22914241222290904, 0.035284414075658285, -0.11802832558703745, -0.2644877504115394, 0.1342996966657907, 0.04040824574043206, 0.03837153045033018, -0.0349191078999976, -0.13337215871728925, 0.03670516306698278, 0.19042501017137792, 0.12435436999327608, 0.18384963957018888, -0.11130847497658052], [0.26718369254523583, 0.10484264178304159, 0.18031914934442203, 0.44160207977819604, -0.0604980143202656, -0.4853091056080769, -0.19559640579471396, 0.23269724606189626, -0.10600956372735879, -0.15361437118299265, -0.017691378046233865, -0.12861388405577828, 0.0555791081515974, 0.05431775717407229, -0.0603180463992293, -0.29833971314359936, 0.14293471336166114, -0.23167067831655144, 0.1107781521895793, 0.10382496523642565, -0.09107644802370847, -0.061311411983965544, 0.2644971055758316, -0.24221911692404857, -0.029904916701232475, -0.17150136262462104, 0.29457310955446825, 0.029171833396736332, -0.12599359631524443, 0.10117325712122578], [0.1443194373428303, -0.08349443401857358, 0.13900432495061657, 0.04829427592594029, -0.005575782228444933, 0.3025315401715313, -0.07203426544725185, 0.03172801765298371, -0.0795613875194381, -0.09714632490281276, 0.13896213349108022, -0.18538058339498595, 0.06727914317704184, -0.009882776035442747, -0.02107123116810477, 0.036906003154975255, 0.20512451354940328, -0.22758463237243856, 0.09817514610456966, 0.2840124111192613, -0.0382055503069355, 0.07008887663165073, -0.08505916242759898, -0.07245660668024122, 0.20891976730099268, 0.24745003978521074, -0.4756848916498799, 0.06151511799961614, 0.19617648261596912, -0.17580800637106558], [0.022037965839576738, -0.12242586082695787, -0.03139233760668035, -0.09916578285187554, 0.015381546258831185, -0.16113307181039838, 0.009735223334603242, -0.25076987822882796, 0.06429254393888897, 0.21981305757937836, -0.04980153356208778, 0.1989803576189286, 0.22571264784497586, 0.15692591026252245, -0.1365765566218821, 0.03321919279340384, -0.09887628924971335, 0.20467654981308936, -0.16203141788489733, 0.2832467645413464, 0.16083618929137206, 0.12876327991686426, -0.13596605248119006, -0.0018686433833582283, 0.007979598309817095, 0.17325674397145444, -0.26757928250352014, 0.200036142905978, 0.06483812850694011, 0.10360110877322096]], [[0.13348518044533966, -0.3686434260276182, -0.15757592348181595, 0.08978131867215604, 0.5749840805945836, 0.062230867465616006, 0.5479400525278156, 0.43020431684178145, 0.017037898345213548, 0.30247585988255526, 0.7617129996677117, 0.24102146594951687, -0.11109220538423425, 0.24162201599297514, 0.1544189048316247, -0.28991176805364344, -0.07168973787911397, 0.16113280319990467, -0.21072174495655235, -0.08628986508199839], [-0.10095246281240923, 0.0014110225339722335, 0.13254632718687795, 0.1631096880138229, -0.30805510857793766, 0.02519551974841957, 0.00542501805970466, 0.10763687986285034, -0.19071998861017553, 0.1905818325350642, -0.0007797820443033463, 0.34425815368548673, 0.330912097338967, -0.3903058230952781, -0.017541114325852925, -0.10558247000807533, 0.30059264221111964, 0.27076939262079924, -0.2200619851764282, 0.25930411416567656], [-0.3640993722597821, -0.07016584849275857, 0.2562052273180079, 0.28699281148627137, -0.2745557027134848, -0.16990644361639531, -0.0001306286139482397, 0.17301973858656342, 0.07116242195496053, 0.03264515667213762, 0.1632420032423025, 0.07783324778188423, -0.02910319177958647, -0.043467743492632646, 0.06995995054168563, -0.44415799274968315, -0.013064138353787908, -0.2230619858044105, 0.01652945454605388, -0.4029230795555668]]], "biases": [[[0.0946327567234525], [-0.2539463905324988], [1.1755419448195437], [-0.21535607391399983], [1.1089906875188928], [1.2501651817705217], [0.9045104569631645], [0.3332337718356512], [-1.1362893850313078], [-0.3566710333141216], [-0.1086403287412573], [0.393844043863209], [-0.3779762216150983], [2.0327978838512855], [-0.046765892563038786], [-1.3258106126665572], [2.3624865457109054], [-1.855506793194269], [0.780412807827085], [-0.8449008417862552], [-0.8532232522916102], [0.8196853539405166], [1.3798812398603741], [-0.6609497146587036], [-1.8757203132709421], [1.1066693744622065], [1.0896087082458514], [1.8883740094855639], [-0.25746006573591357], [0.5827950297847674]], [[0.01712280935828796], [0.7628024759631099], [0.825758633082218], [0.1807876614825102], [-0.7290093747360445], [0.19137316378302816], [-0.8036503441595353], [-0.47110247672979894], [-0.27866023144062785], [-0.7220693168811538], [0.8812872120454208], [-0.28846824592841974], [1.2430172102365789], [-1.565345413194611], [-1.2304183611217434], [-0.9651305768734691], [-1.5380711756486192], [1.7213306538407183], [-0.7191388808769624], [1.584585335710149]], [[-0.5466157250792493], [-0.22295810622174234], [1.2547123817284933]]], "cost": "QuadraticCost"}