{"sizes": [4, 20, 3], "weights": [[[-0.3965394797070336, -0.027717637043218127, -0.3433697457045911, -0.2910441022772184], [-0.14635117756809582, -0.33256790659621466, 0.056739406335360384, 0.4673973799240928], [-0.5728337530606789, -0.20361045856088247, -0.5846348829370214, 0.782549443158144], [0.7294139682474923, 0.44961131568336504, 0.0682728364754747, 0.09185181218635874], [1.2140621649948593, -0.07800048515172976, -0.41785542105964707, 0.42757579212782665], [0.3306482699274209, -0.22506203799108015, 0.9452698258098194, -0.38010016726452756], [-0.4250700818954972, 0.06455956309501533, -0.5568964292575709, 0.2613057345750773], [0.15106204545037588, -0.25652203077418867, 0.16673234699936063, 0.3602931390599919], [-0.9403911097056376, 0.1502075518319676, 0.4906393993601959, -0.28891084951435053], [-0.12210891340882495, -0.8225525253511895, -0.15483086404509033, 0.13619862675734218], [-0.4365621338168222, -0.007985942974115015, 0.21533297806058863, -0.12914890894991232], [-0.9447060596675676, 0.507162399908642, 0.28721356365552847, 0.3269208944249749], [-0.25196438253041875, -0.24544686573991611, -0.6104385270175118, 0.028546776198321466], [0.2474603918962564, 0.630505146986896, 0.1497632802225468, -0.7734581155515292], [1.2336995542904363, 0.47503069862300545, 0.5346943832693875, -0.6657196205955955], [0.24054502533367053, 0.04362189766813369, 0.913822756159836, -0.06830250301811412], [0.2696688664056215, 0.39959339332185634, 0.34582942830496066, -0.1544126939439894], [0.5739580635223105, 0.21683645488696746, -0.24108669839003408, -0.04950642265303434], [-0.5066321549583923, 0.9662431328838723, 0.5175762538469806, -0.6109634699715057], [-0.27556914846744346, -1.074591557390697, -0.651955592613363, -0.04413400738153456]], [[-0.013368264164781719, 0.43600131642283085, -0.36276752063630185, 0.06014291612902905, 0.04940893413576795, -0.10352586707001617, -0.08111789384336306, -0.09425619699160996, -0.35879885323703553, 0.36220848882464646, 0.15321154945225957, 0.08809983631502082, 0.10447801941889477, -0.042932561494874594, -0.00915178868558887, -0.22641364846946863, 0.4212880876648966, 0.31342536537663485, -0.03388584439776078, 0.06066447678066867], [-0.04558901773710752, -0.5420968833899801, -0.059394575836657165, -0.16261452575009505, -0.11177678562075989, -0.0345333033733509, 0.4333383032971768, 0.5027885264771982, 0.5652116613656563, -0.044395311487457095, 0.2997603949644357, -0.01658946977956574, 0.22428481108858367, -0.2458513712280945, -0.3330527380646284, -0.2816171717588848, 0.1113573786986483, 0.009590055763144641, -0.20734863418813118, 0.20547908729098546], [-0.014053338444936798, -0.41864610578222133, 0.05925744782761425, 0.015962409868316846, -0.45882312826558624, -0.36123569958487606, 0.27162061601769966, -0.15073259588906776, 0.0033887518269155783, -0.004779697588918412, -0.20165441587399097, -0.424379930113799, 0.029985693614040645, 0.4782141834432077, 0.011907612402753754, -0.13781746876511541, 0.20837023962566084, 0.1619842634841921, -0.2755350982901952, 0.3533291745102276]]], "biases": [[[-1.0232049503707508], [-1.367185663316741], [1.4761286418322237], [0.36933485405755334], [-0.6098281466009818], [-0.4136874501108273], [0.8893697883347429], [0.08528277204142137], [0.6476481015815999], [-0.4194500262628602], [-0.1862210874787929], [0.37160059141331564], [0.568596660577857], [-1.2615920477888614], [1.9259845865603726], [-0.5490883528133993], [-0.7603200473433236], [0.16108224677568733], [0.6644309122888463], [-0.2550306531736616]], [[0.8551332036286832], [-0.2712364906927539], [-0.11821811742106982]]], "cost": "QuadraticCost"}