{"sizes": [4, 30, 3], "weights": [[[-0.5047517036617714, 0.9530728637838722, -0.3653376840871729, 0.1911578031054994], [0.46625602869009986, -0.17660014924374481, 0.788501881266297, 0.2740741525751826], [0.30018295629090463, 0.11394641745899095, -0.2036214500976251, -0.4115548660811657], [-0.10627071474228413, 0.4466914586852201, 0.3135957188920481, -0.12448295854281112], [0.3175786549017699, -0.03281735212369998, 0.04773008127834405, -0.2517249189435846], [0.38123264390458966, -0.6920617810934422, 0.592035721914749, -1.3367694598714481], [-0.6522658367358992, -1.041667438813335, -0.059770514042582, -1.0440905090057426], [-0.4985741394945939, 0.833817288297503, -0.2011086177671804, 0.33559162326315617], [-0.5407578922778962, 0.7632372610970516, 0.455958384603876, 0.10931879253599057], [-0.4937513561493095, -0.8705918095758799, 1.1057096213082387, 0.9222735282843557], [1.0069565029272467, 1.1449262296648042, -0.0212882254344427, 0.28781414619241724], [-0.2314465040108378, 0.06485143591745199, 0.7134590853034074, -0.2254628725600371], [-0.5297788598464835, 0.48887923099386216, -0.35280946071502683, -0.36455363388682727], [0.41044390562108796, -0.204897036501927, 0.2365919957676698, 0.12432005562645905], [-0.0115158909252662, -0.5019851907303663, -0.502143080342531, 0.46699671852870756], [-0.09605350171636756, 0.16252351703586024, -0.06852904529680945, 0.817087091505867], [0.04733861175246015, 0.29205967002050814, 0.09093826788060344, -0.42446497157916385], [-0.2433707060993473, 0.6659800852247448, -1.3949121354852871, 0.15564083100317094], [-0.24681806691089375, 0.0026347243131885, -0.09126458678001786, 0.34080236247575524], [-0.4617267388474425, 0.26761297244854076, -0.4647864409533026, -0.2222608994035806], [0.7297885984681841, 0.7687107030632082, -0.5506360006321944, 0.4881853885648352], [-0.3840219647981173, -0.04672722080800223, -0.5466816985165301, 0.6204088914359498], [0.012900728986597972, -1.092025005431856, 0.34277338880827585, -0.017920801627806127], [0.3320001232303555, -0.33392290069425973, -0.04061176221432748, -0.07595240148026103], [0.8600376897523339, -0.08175836160415594, -0.23202590410040475, -0.6486262615610034], [-0.9923324604746279, 0.5993765232211418, 0.19044280237695116, 0.03852630746695655], [-0.3260582011829118, -0.3005930842364758, 0.7266215252783205, 0.41064060823363857], [-0.04285074797187572, 0.8124301520948035, -0.3919450457788052, -0.654369646656752], [0.21029080571959344, -0.6385532559285481, 0.4079777103484299, -0.7043087130414872], [0.09981828421197207, -0.42928163537493524, -0.09656266118113907, 0.17093443227644828]], [[-0.1505661709652406, 0.21144525926823252, 0.18638848462695676, 0.18475006530632967, 0.008489980122925733, -0.025253712057711687, -0.07070146378805917, -0.31227246630172645, -0.044855086902434296, -0.25128826035113794, 0.15948034931456795, 0.14588033139999892, -0.0029628070211870144, 0.2366939608921343, -0.2259011402404473, -0.03942081512390025, 0.008103868107890953, -0.02530802497130034, -0.08660549625590848, 0.04353341862144124, -0.12489332842442041, -0.03249070873235163, -0.016193100241436803, -0.1099802895628556, 0.11415044461495061, 0.232850479555977, -0.0864305997963331, 0.006994319753956919, 0.28183839843246355, 0.1138733950496654], [-0.004246661169601955, 0.277777717483032, 0.21288586410721191, -0.14060242284800814, 0.03174231988598258, 0.2890465107129541, 0.0039710631990392585, 0.07450372616025665, 0.14779739715819223, -0.1709006068226265, -0.036489613626141365, -0.32447653735562687, -0.13758713652072768, 0.17054094460671493, 0.03751864679999418, 0.0935967415338123, -0.13146604049957955, 0.09599603474017827, 0.4801495241531461, 0.07886876955867335, 0.2534192828955866, 0.24440138959110794, 0.20623443565124813, 0.1400522464554948, -0.1658103559734079, 0.01622204162258383, 0.1132320825792792, 0.08390751685413735, -0.1816277370867799, 0.02114854402866817], [0.28726015081710143, -0.09713472967825343, -0.014935981647348705, 0.015417573879946352, 0.2066553487823818, 0.12180575268805612, -0.1887611122662241, 0.300947108833376, -0.0021779545636558006, 0.17318049716246214, 0.004995220808289182, 0.15816146640998943, -0.032885908038627495, 0.2167132074240548, 0.2198321915759527, -0.0847501615126382, -0.10474108660189181, -0.19893675432267974, 0.3016439539085193, 0.2963617692851744, -0.1124025808931005, -0.0884314963940116, 0.12537157220786402, 0.11873748138974513, -0.22350705416506036, -0.10645595772798752, 0.17112463397120264, 0.04209728020902139, -0.17230867871556557, 0.05003702964642099]]], "biases": [[[-1.8716112979342736], [-0.5729750329792118], [0.389935863759797], [1.0789472397861586], [-0.6470064865003748], [-1.2383908329345825], [-0.3530262711564373], [1.037225719698108], [-1.5653973057611856], [-0.38944838133910453], [-1.5836566454686576], [-3.820984562014004], [0.28991465262746563], [-0.5012766409485309], [0.4485230276164063], [-1.2783572880867236], [-0.18632898663536585], [-0.31850224663807203], [0.922470326302994], [-0.8997141421736948], [-0.8289665656661565], [-0.7242148625196662], [-0.14390911294377495], [-0.23765563018605107], [-0.4626768357699919], [-0.38101410489635695], [0.3261739225464842], [0.4100483409554785], [0.38780132806321627], [0.36374783621297335]], [[0.9285008704790754], [-0.6826777397698879], [-0.3231717976474088]]], "cost": "QuadraticCost"}