{"sizes": [4, 30, 3], "weights": [[[-0.48304413010648084, 0.35410210072345066, -0.436131457962337, -0.4021497898007099], [-0.7498058470575095, 0.338641344796645, -0.23181531425314486, -0.5554958814775788], [0.9160287847070135, -0.10993181253172014, 0.08730697046821856, 0.5822518372790125], [-0.1262162013169265, 0.36520626534570116, -0.1730287784987019, 0.009337825127990305], [-0.41352334971461574, 1.32061239920683, -0.012609791273393423, -0.31336883985044095], [0.3551105268053651, -0.12869115132516848, -0.06462587927421522, 0.24137540875696584], [1.089629106653943, 0.28223622136738313, -0.8294943234454617, 0.36341012662632094], [0.813998513185537, 0.41128562830960774, 0.2749948623389985, -0.2839608152595391], [-0.1878817015750156, -0.534963074777538, -0.07343481416314802, 0.569707605157449], [0.20332777426095167, -0.2938099602395784, -0.032663860744155865, 0.1527286709224042], [-0.2629824389959586, -0.24141859905918162, 0.3290360831511883, 0.20349650258832733], [0.0238659496738033, -0.15160046502925006, -0.41255791567968336, -0.3645402047330591], [-0.3572867268622539, -0.9929391218057005, -0.15530969050982985, -0.5004840676060017], [-0.6458025973100369, -0.9686057938077199, 0.413238983003846, -1.0012948954282628], [-0.2967887160214175, -0.073180876092248, -0.04598061155543301, 0.19828211603898568], [-0.04695595116010823, -0.07526745635989139, 0.045231326247236636, 0.05545404156189265], [-0.0003906337120769069, -0.5459153346210269, -0.5683257330779643, 0.031049054152548536], [-0.19754461887698072, 0.23754527806372536, 0.3625428032951722, 0.17260357059005185], [0.2794400228957889, 0.18349129848053375, -0.7232594051497159, -0.48978642828481145], [-0.0054327793315315336, -0.23777833711744067, 0.8215388558447531, -0.71501875305729], [-0.5516842800239673, 0.6113957376673281, -0.17390881416244675, -0.6515236007542154], [-0.45504181755290796, 0.7422608209612086, 0.09689952934686497, 0.4294590380142682], [0.2988017557925733, -0.667738286608128, 0.3248720343330242, -0.30254912861946354], [-0.02807876670860773, 0.0559323510267333, -0.658440273564564, 0.3198625575475982], [-0.2684522864179214, 0.6197408814229441, 0.338110944547148, 0.571543674987778], [0.02921772609408547, 0.3735039727016962, -0.8767715894526142, 0.8728238790244722], [-0.22061700025727618, -0.5305265420530011, -0.09157475146927571, 0.35288219861348047], [0.07469622020470704, 0.7004208458826071, -0.3633028333991981, -0.1731168719915237], [-0.05925787675951931, -0.7158038717441111, -0.2046964059074769, -0.5105731951822936], [0.14511235848393395, 0.5702411738120359, 0.5362562501911847, -0.8874284362890635]], [[-0.12011600755322888, 0.17115061223767783, -0.33095463631331457, -0.007416246073072745, 0.19876595329589333, -0.04023117782687671, -0.08967203903968236, 0.051357641271416336, 0.47346070313989114, 0.3042277162175063, 0.11079154964871749, 0.17836518157298997, 0.05924551224189913, -0.18349549654183056, 0.03894897529343671, 0.19715841193940398, -0.2656354824064203, -0.3041658343568595, -0.021127153805081077, 0.2583925949398256, 0.01689003874890468, 0.38697690846715505, 0.18180766418372207, 0.09337150438105873, 0.21934273678527932, 0.047625154194593004, 0.05542164332013824, -0.06408841385994873, 0.14653480473622932, -0.22005286946401073], [0.06123669529666707, -0.10194667350930595, 0.2699996005535195, 0.37019279773599595, 0.08936458125533712, 0.2415163677196173, 0.017925485938513386, -0.1944112675365465, 0.25629507366886645, -0.033007801486335454, 0.017145557062018403, -0.09577247222488298, 0.13521915023661732, -0.09978016460309798, 0.2232216515389401, -0.019395303187761847, 0.1184570875557531, 0.2694930143965144, -0.398303711509535, 0.2546144872556379, -0.14601021924213195, -0.027091707514338422, 0.07830616764732709, 0.1407145208194557, -0.028688260000531228, -0.020481739548340237, 0.1133890277411058, -0.12228466829659777, 0.04426898242544825, 0.10000970362746862], [-0.06768960597903614, 0.24675082184979438, -0.08323718708927658, -0.037035897432987464, -0.07314519037207745, -0.02151677955063161, 0.109548282164658, -0.11466676287031745, 0.3322623624446189, 0.2728705046936331, 0.16930623421777963, 0.15156244349119988, -0.2576810870382697, 0.085931506408785, -0.21032280763281636, -0.18040633690216054, -0.05107529474695872, 0.0608962214697879, 0.32089093321347223, -0.13760662007937727, 0.12941237212721626, 0.5652450446668499, -0.05447577548680024, -0.0011487676418567693, -0.029688402083528596, -0.009682001088535381, 0.16964948168231078, 0.09647358787245947, 0.17361924221248673, 0.12110620182528091]]], "biases": [[[0.3137322246560766], [0.61281336544183], [-1.18957614141826], [0.3530735994614706], [0.1605607504493447], [0.7768796396978884], [-0.31896585436112734], [-1.2883975920845918], [0.4274624915528627], [0.5341134897296769], [-0.7458509456455827], [1.0355438676942936], [-1.110435079420483], [0.23586775298777451], [0.1713650017398726], [1.4548014350845244], [0.2447152318688886], [0.40830671818771497], [-0.9988898849227749], [0.023672408863597498], [-0.773559140345937], [1.328443827987885], [-1.2475722905442537], [-0.2643368104207865], [-1.3077803099137144], [0.5416079773338269], [0.2065745795530582], [-2.525689871832725], [0.860924871056068], [0.8164664913748826]], [[-0.44367831261553026], [-0.6297338461826946], [-0.2603369871203314]]], "cost": "QuadraticCost"}