{"sizes": [4, 30, 20, 3], "weights": [[[-0.5997941762143539, 0.2068031887979997, -0.03320641066051726, -0.16208353368723527], [-0.23260858339602153, 0.9073677998325241, 1.2787573005814479, -0.06817908024752733], [-0.8415673120486447, 1.3868403951763204, 0.30397759894551396, -0.7163888405258533], [0.3076703740052294, -0.04324738535941571, 0.1979750061191937, 0.027938485702238617], [0.48116009058863973, 0.26996564585457844, 0.4431101767762277, -0.40749315352555576], [-0.06416488929204213, 0.3689229767826093, -0.4161471943021558, 0.15713951965890322], [-0.994406734960406, 0.055758147926955305, -0.11017560869537045, 0.4547342716829272], [-0.32717153088054374, -0.2477204292505407, -0.25207655805447293, -0.43551272475777025], [-0.5697629008883356, 0.4550026881171918, 0.7080680543076371, -0.31377409720757277], [-0.3849892803571169, -0.1357148288373463, -0.07363726003391431, -0.023193379643480345], [-1.0094992205442812, 0.8986041011826743, -0.03590544946041495, -0.43865866887270977], [0.4037936454843433, -0.8740882459700193, 0.018564101160327202, 0.0023131883401061844], [-0.768410325010963, 0.1964146313603337, -0.6570530675531507, -0.739823847610453], [0.008293515163018754, -0.1179918353839797, -0.1309795534868153, 0.482633884251118], [-0.38276677945399346, -0.30429378257999024, 1.1997568936585215, -0.5499192476143486], [0.33684036934719763, -0.6965250685119471, -0.9647088786261097, -0.08081469296470768], [0.39099554732462455, -0.3645239101261218, -0.6142139251191617, 0.21076281485274886], [-0.6300357921759111, -0.5280176530614517, -0.3449991496284131, -0.28813096520496956], [-0.6201291207077493, -0.8376369426831629, 0.512972666919246, 0.4264450263305705], [-0.04390398602014234, 0.3960875879706795, -0.6786894933117403, -0.6002341860614236], [-0.2901625219007896, 0.873432906596384, -0.6691031351558387, 0.14311324977044457], [0.4059811023937222, 0.23068204846947876, -0.4204209077660016, -0.04588845897108245], [0.4106910986756898, -0.45894758627600096, 0.30972260468185636, -0.16719034309209363], [0.06308610771472072, 0.31344011893531504, 0.720447657635571, 0.8754536881014271], [-0.5058329817797281, 0.18878339555118379, -0.15918220975210104, 0.4474198385920194], [0.3971787539767044, 0.44730673459195786, 0.2110803752925371, -0.3654662684076876], [-0.030625962527501147, 0.3375589401927068, 0.18278330875695115, 0.5239963462611608], [-0.12281330030045479, -0.2153431870036661, 0.20356507233596327, -0.5788230985751389], [0.8857053591224102, -0.34569411157319013, 0.05238492434034713, 0.18347584218394253], [0.5654999678290792, 0.5406444284122903, 0.1466760077988431, 1.0146116831421021]], [[-0.29027311216809354, 0.19120999736862976, 0.4087497013891249, -0.10955667254261153, -0.0342619775800292, 0.047029313534791894, -0.12683778229864567, 0.07789245008240206, 0.022566756868037732, -0.21196040687733317, -0.03503832935019586, -0.29662260684261127, -0.09441800601855174, -0.10243544981981374, 0.061060260913781875, -0.09332279015951418, -0.15038826210188183, -0.44235851497714124, -0.13042114482157205, 0.23867474955167814, -0.1494743982310372, 0.23746508581364617, 0.10581529965730473, 0.06241151975757095, -0.3647008080289178, -0.13308290160229205, 0.08430529192835166, -0.019861689659509837, 0.027957560176548567, 0.010527207618086154], [-0.213910370666511, -0.16127805560322175, -0.197784563211381, 0.10809091252402062, 0.032438988056854315, 0.24518762446581618, 0.1727764261354943, 0.028424126671597855, -0.042651742369095295, 0.13209557774027228, -0.05019245713441107, 0.254073879411098, 0.07273168328017696, 0.06340486041000644, -0.24235039701488836, -0.01884120597750207, 0.0012344204411537094, 0.14622765373418078, 0.17482528535200734, 0.12217043057845196, -0.1434738974200482, 0.019785994345289472, -0.2121250491940472, -0.17203116506977703, -0.17785260779385284, -0.25291723256194654, 0.260553647343707, 0.17422001625830166, -0.08518444019514253, -0.26180649445094684], [-0.007470128932169314, -0.036444740760397144, -0.03744758355019189, 0.09545205610932313, 0.0831427325844353, 0.13765837765431904, -0.24358074331138208, 0.03487441187494101, 0.11135279036794782, 0.02556711931103095, -0.04072904899827996, -0.11610002161934276, -0.39187484219153595, -0.2088110441981459, 0.2659708527415365, 0.010713394352016663, 0.11555420782568686, 0.13571751573326873, -0.44129702176339874, 0.09798745764555687, -0.09465686809156727, -0.06168835701394463, 0.0400425394495249, -0.1403558620504169, 0.013308506320432296, -0.15606370788547091, -0.42651914489943, -0.18726174143024427, -0.01054490526157379, -0.09089423931044222], [-0.041354751490993644, -0.03057512944269767, 0.15379823527381067, 0.3973264350864478, -0.0644996570140991, -0.0724261206136112, -0.004843836678447585, -0.20941430571510616, 0.10249469020574621, 0.02067926320089478, 0.025982432714279868, -0.06573963463042137, -0.008776150090408795, 0.30922044482078603, 0.25762647078712836, 0.35950792644602925, -0.10850535068197137, 0.18364717933255087, 0.10702700351474241, -0.13473685358258772, -0.11453139232130925, 0.16318000595965065, 0.1603105417717572, -0.018362629051728734, 0.13775601315509567, 0.13814129443930148, 0.0599194094649009, 0.08383113435788404, -0.21172976983599381, -0.03887580593193605], [-0.35993028079084116, 0.229248826194417, -0.12441676436896831, -0.11907825771803958, -0.12063746687593277, -0.07089859161968165, -0.20805030036415023, -0.36498382799832074, 0.16324069228957513, 0.10512379100308486, -0.1697750498322992, -0.04285650494439745, -0.11074923149313544, -0.1939172323346304, 0.4560501604843708, 0.08279177850937067, -0.08408548313711721, 0.07778813962403235, 0.10812328097909754, -0.3390462614437919, 0.07716709009207562, 0.15308894809333326, 0.20487445832323262, 0.05272505480105859, -0.15473843689238814, -0.26314568855033255, 0.056818451191468236, 0.0827782760666337, -0.08984039733170841, 0.1093021316610705], [-0.20375963875004494, -0.023776223048197487, 0.10911390823539989, -0.0908199668272486, -0.07942421125555074, 0.31109489820414815, 0.23250012325477262, 0.043685708390780155, 0.04202441076185717, 0.06818063600920517, 0.5532352785514834, 0.027009211338448434, -0.09192443672183433, 0.10414615360670083, -0.02229802453059597, -0.02032524654563677, -0.008433811563893218, -0.22843343712079237, -0.08539307763295619, 0.16002832714704787, -0.15766918740344496, 0.04257833332506583, 0.12503889119945935, 0.30908393893116765, 0.12011990843209576, -0.2146617016999308, -0.07735012315632876, -0.009884042957922534, -0.21359871419557358, 0.12930416053776017], [0.1423352186893066, -0.01616131303679525, -0.1203692795475305, 0.1668367424194389, 0.023831273544991628, -0.059545188057850966, 0.11318283834870897, 0.03436621978444045, -0.08303423379626951, -0.17512175515399558, -0.046707281488567336, 0.06639867319517836, -0.25174852644172424, -0.22802125607631452, -0.05001864402434145, -0.18046861383807397, 0.09153546168307863, 0.196977963600478, -0.09695232580751792, -0.034751116028959285, 0.009979541355346204, -0.11806327525213622, -0.21980582238247312, -0.29946037094621497, -0.007507601162086136, -0.07276587437450956, 0.00914352592895832, -0.026655398991134793, 0.4427059454799982, -0.137751948908391], [0.004212233206799757, -0.09920141123144706, -0.27157744097480613, 0.11719233726705437, -0.2041766803938512, -0.06829709225914112, 0.1896775252090538, 0.1074847603852159, 0.17362254548312103, -0.028974957507055456, -0.3091944446155708, -0.06016955846806915, 0.08273788105009865, 0.26379026629975283, 0.02371680716638271, 0.032734532502430164, 0.4449492409933038, -0.11189907331074933, -0.18322553782235715, -0.12909764667404422, -0.008320340630477093, -0.09934165556168117, -0.2446467317621158, 0.2022813282222658, 0.35946803613281686, 0.015554684471262391, -0.07871624754584056, -0.02034163403909782, 0.1845412559060137, 0.20203149476444204], [-0.10543398794035995, -0.06864543055761817, 0.0781105428821634, 0.012872882085644764, 0.08443789891209508, -0.18445312379029039, 0.009342742270025592, -0.1419948352179898, -0.19954975612011042, -0.49410048046536087, 0.45548509714890895, -0.22324882123885925, -0.2814583813698545, -0.07934288776905589, -0.08711043362772168, 0.17856291428401772, 0.15014196912094965, 0.04382812852753106, 0.06479459940414048, 0.003367164916735601, 0.061812360827338264, -0.24150158932256982, 0.11984408111280188, 0.25912806162326885, -0.1736919893525997, 0.245643331932974, 0.040677222615750935, 0.08656327638661714, -0.2551340747970082, -0.3732522537189291], [-0.0024174229984463423, 0.05283689577793672, 0.377645522856967, 0.5849893465440292, -0.08858068132075711, 0.08248317540957051, -0.1377561401636499, -0.06351711182911172, -0.047929076217183564, 0.20779027460756977, -0.08320396146429686, -0.2370458387415328, 0.2606078098391488, -0.05312487892643533, -0.056515731849683816, 0.042381060894375204, -0.03815749552405508, -0.03073154026377105, 0.07729420824677204, 0.17785413277131598, -0.17240558695021577, -0.18463685451980746, 0.24218843822950803, 0.2028795832769879, -0.10269015410937199, -0.13327239372141517, -0.13317365026645567, 0.11151257611301191, 0.1487076008773772, -0.13501264761564075], [-0.17464246305454342, -0.023663980503750293, -0.16719638647282586, -0.04530142359023348, -0.0895229629470267, 0.03084562478390374, -0.003202271786392468, -0.2863476107501392, 0.07997009284549353, -0.0020392061475343936, 0.1529354227886871, 0.28675100279968363, -0.21035042570131135, 0.013290031025473598, -0.003491364571620274, -0.1363563049401597, -0.14157201505327993, -0.054927426240395476, -0.10502187081015558, -0.13366011500744907, -0.14553245743260873, 0.1411086034070012, -0.19179728671222165, 0.06269293456544464, -0.11448002488429489, 0.14430882478067383, 0.15563128547490612, 0.2287029489703079, 0.28616433240586014, 0.30173974989351265], [-0.07406977980989789, 0.0757937811775074, -0.09367158181252683, -0.013501276915684911, 0.1255530345588288, 0.18406865556587054, -0.19461688404421654, 0.22117629521797952, -0.18641656663843653, -0.011120408434701448, -0.23796917052440641, -0.11415197232213306, 0.1500272333903066, -0.0635895649183306, 0.3962946758615464, -0.18069048766162144, 0.3911678322579721, -0.1004833332020082, -0.1692784370670965, 0.16772195183113428, -0.06677852023936996, 0.06655848824211102, 0.18909679368125865, -0.12170612491983794, 0.06326489525021098, -0.09653714897195967, 0.12141492539600143, -0.2258567176858885, -0.07972339539389169, 0.2631397110395142], [0.4026670523787328, 0.1971991760192205, -0.07774856484025078, 0.2122020543903946, 0.15330465631592877, 0.23369992932420383, -0.01725845919564404, -0.08058610597166324, 0.08069762301077686, -0.048165739490532766, -0.11636598145398218, 0.09059367697541042, 0.07419921746255684, -0.23284144326842085, 0.20456717390891255, -0.15358513481118055, -0.10231921078668105, 0.004304205801258515, -0.031120981046294134, 0.23319967904454145, -0.09059323519780371, 0.217995237677997, -0.11150068097398698, -0.12870888901225178, 0.3566975876896189, -0.0269803020211401, 0.37800778819097414, -0.2520921659587673, -0.2367557480651822, 0.03812195457921476], [0.25789644466632355, 0.180407958043319, 0.10369598507387737, 0.03603295236246047, -0.051533449611019015, -0.049636564549689115, 0.09057629598827242, 0.0021593828514500095, -0.034280181910784455, 0.009903055106011157, 0.1293064555960196, 0.17908449091035228, 0.31413302438611607, 0.0775570482192427, -0.10876386150903262, 0.07697971592528315, 0.5203200136337638, -0.12129199633691279, -0.1609265952919197, -0.02951504818827977, -0.16862155819464467, 0.06742586149511622, -0.1395180976646129, 0.08547206707672933, -0.3113972505211639, -0.3099451965772059, 0.16174199247015947, -0.02180585652664864, -0.29423184237554323, 0.16158494054542388], [0.059757881873616046, 0.20392292451999605, -0.29422707478269516, 0.09210300190632083, -0.01020630753553486, -0.009623582381881166, -0.26640655539811636, 0.1027111126272993, 0.027250395796057116, 0.24898825890512905, -0.1383293840155494, -0.11669101138509902, 0.03249544964844644, 0.03641556411282361, -0.0301621512398443, 0.036475825476816236, 0.4236933890029152, -0.23023215509392142, -0.25081264447961965, 0.3939251181631021, 0.0694529936404816, -0.2288535665527867, -0.1721591009450034, 0.09947684054631366, 0.1848280046282054, -0.27081383684762306, -0.035960077317504356, -0.044092344657765625, -0.14636040804788367, 0.10820676688637651], [0.14361974982764553, -0.08720584449150706, 0.018532549416685983, 0.06924635203504723, 0.37870600297939133, 0.24336488263033038, -0.07399458084703606, 0.11851115366256067, -0.07300190778379381, -0.09080700144027655, 0.04466111824349873, -0.13519038001347672, -0.07611529353690476, -0.2252787941836802, 0.21348708787470563, -0.14495134603785503, 0.19556371191992916, -0.09203783089079474, 0.08008091512007644, 0.02620059891954556, 0.05816686399770445, -0.0051404386189499995, 0.14673158179720738, 0.11952208997103991, 0.2746520560695939, 0.25867301342378674, 0.0665070260596832, -0.19110983181340044, 0.22387914669929027, -0.1512731759907218], [0.014799607325142076, 0.04660925523006323, 0.0795303081421385, -0.1430434322577774, -0.4145796325361038, -0.025821933153387145, -0.0019852932988310584, -0.15980162552181743, -0.08590063971050997, 0.02966371214698683, 0.22651187684508256, -0.2999056760145275, -0.08146885047213723, 0.04346552691372572, 0.06736102840519884, -0.1463643384489112, -0.21437439277791553, -0.07458591926965906, 0.002757426696678672, -0.02847281506085614, -0.05503065114555736, 0.002922069206937135, 0.13514557618740394, -0.21903354338166442, -0.32132786610575753, -0.24687891559402342, 0.07181147016509343, 0.05678904070227823, 0.5348613962717889, -0.24382580392694764], [0.2089600535742902, -0.005596788383768424, 0.22098797641664641, -0.09878978231755503, -0.21996941826353658, 0.16381993432290554, 0.2542725273760148, -0.08115963133918346, -0.06956187253338722, 0.11166789253576703, 0.010380626887302692, -0.02816756625441606, -0.32648203855047314, 0.21167648627353924, -0.08486387093187706, -0.2537156348557037, 0.05276385786069654, 0.36201274705969005, -0.09407364438612682, 0.046831013770515365, -0.16003903827852695, -0.00022207908207207665, 0.1583568140086887, -0.049361185612450946, 0.054139728312792304, -0.048267920060451185, -0.04580184181208006, 0.29264689283109624, -0.17185536767404286, 0.2649936249441322], [0.13148140962320923, 0.20483190173669044, 0.4280822339864184, 0.19427759710265494, 0.08041253119334614, 0.08388780471229497, -0.17126470326351256, -0.08886708766521931, 0.10495023169397508, -0.06520841202228406, 0.16107668778782025, 0.09762511895902715, 0.23615605958938002, 0.21275437285645438, -0.03255159440474254, -0.13665859807026065, -0.08288190960645825, -0.2872788464541055, 0.05225475320565584, -0.23973403620573078, -0.10973730527502301, -0.019364860174289854, -0.21617871324246812, -0.07582426224648198, -0.06997913016165762, 0.14004465281429698, -0.2035743511228551, -0.41769150466110644, -0.07250030662069885, 0.08613415202506966], [-0.030030266571845942, 0.05073940782648739, 0.03668499381080423, -0.07681225839854582, 0.13073944676311858, 0.08719196101907994, 0.28609455172323434, 0.0770700512164447, 0.15825965947722806, 0.09934285109236804, 0.06821294500565098, 0.13126775309872696, 0.44989398253036145, 0.23840956214155418, 0.17566089603421753, -0.08522480201268194, 0.011569791718154605, -0.484823365320982, 0.030764354267691706, 0.004657643975795663, 0.14502124086906082, 0.026927505792379368, -0.20124511333977801, 0.05028212625064161, 0.22699071060546397, -0.12332464064627846, -0.22519552951741564, -0.23600534432781944, 0.35448124559496963, 0.06879443442688725]], [[-0.017527149289612992, 0.5711296977837752, -0.044588544702408424, 0.1555644497122733, -0.0051077850773151795, 0.1897674152231361, 0.25431800525743514, 0.23361031097280463, 0.17788508470217737, 0.15555039346067742, 0.3586152390681377, -0.08057007101219535, -0.23120048453617054, 0.13512294915335454, 0.12951798343931278, 0.2590443207615657, -0.04428784697182764, 0.6227752312157783, 0.09485505945912195, 0.3705154876120822], [0.08994828010768825, 0.06015848872035957, 0.01902040616187695, -0.03570336865590419, -0.03644631464726686, -0.28562910674319786, 0.4143435335395317, 0.07313791484679703, 0.13897348114216462, 0.12534741950180478, 0.3810527684586499, -0.10799405017836439, 0.1459348975251839, 0.33126625663671655, 0.012346027779194984, -0.17913963477827163, -0.3638504795272952, 0.07039188021291085, 0.12090750192226286, -0.016553299515785942], [-0.23047796268770543, -0.17413109804812407, 0.15015924490624719, -0.366613623067512, -0.027232544553161427, -0.06329878669574059, 0.4472857559511315, -0.1990328138641505, 0.16211531619590522, 0.2832214001556689, -0.4786882497090537, 0.28301793200874187, 0.446000811902032, 0.08740069702080112, -0.30206941948705623, 0.28713707393612864, 0.16010178937849828, 0.10434826658713213, 0.38685837793168043, 0.07529242348791627]]], "biases": [[[1.2151768661315594], [-0.4096515220891346], [-0.46196592203189457], [0.3876753924258521], [0.41967592795312947], [-0.7326589030992697], [0.16383232518836974], [1.0511130726695967], [0.3373023048168634], [-0.9162859783076577], [-1.3782693039916674], [0.2552727958350417], [-0.2503492502189824], [1.0158958933563544], [-0.13877531773288795], [0.26110703576447], [-1.5071352189472766], [-0.9584741794029322], [-0.17440175512084596], [0.1433240071661434], [0.5434036230339092], [-1.271349749528335], [-0.8625725943111713], [0.2662069041653136], [0.06515722333610453], [0.13774882921005083], [0.5599293967852159], [0.2085364430958712], [0.3925947263055344], [-1.353682688128213]], [[-0.33447145844375176], [-0.2437140997705684], [1.2017075013613134], [0.019439677543711863], [-0.6137371474888801], [-0.7301304217871173], [-0.6851563153838925], [1.0799191752535322], [1.4210664516830795], [-1.1033575483519236], [0.572746127770516], [-0.5826990356711848], [0.8234954437053813], [-0.5286065482147942], [1.970729539654761], [0.13797290287019615], [-0.22461718273672335], [1.4434954594850444], [0.018791850879960135], [0.8789085927029764]], [[-1.502330340054787], [0.43372368452107446], [0.43759427710601545]]], "cost": "QuadraticCost"}