{"sizes": [4, 30, 3], "weights": [[[-0.4889270997474686, 0.3202759325624688, -0.3318261184439992, 0.46537598182745377], [-0.6055397547662937, -0.22522429775722683, -0.08733934344115658, 0.5603397372534373], [0.20543736475682375, 0.6739835421613896, 0.9836660344106111, 0.04335791187398999], [-0.018816528401080865, -0.43836142582000376, -0.18472637739927936, 0.597768004692873], [0.01835807420816849, -0.577711858758118, 0.5925555769344779, 0.38685816641460163], [0.28181358996091893, -1.117111194771701, -0.28001204476972696, -0.0037483222478156683], [0.04226963642217987, -0.02799925853049487, 0.0075469289534449676, 0.3816441363984985], [-0.5360558971402508, 0.8105644547280894, -0.5033301147453155, -0.9471821191771821], [-0.2479045634282441, 0.70688016980992, -0.0727554953622958, -0.5148678055830194], [-0.6131985225328705, 0.10604178004185338, -0.19496078516793863, 0.1749505667032344], [-0.32254850018187475, 0.430076504737399, -0.2706225027258123, -0.3427555311203382], [-0.3091905808446813, 0.30662166522756806, -0.15988397176819422, -0.12752402058170015], [-0.5738829948973141, -0.03635851806521824, -0.8519924250008177, 0.4155278826084052], [-0.09763141184828655, -0.37541426702665953, -0.5515387264091897, -0.48835235361408347], [0.6646304379003172, -0.44915000352373535, -0.1557915524907599, -0.05652035306919171], [-0.21627683342845197, 0.2104400171601905, 0.1329264726341194, -1.0236703597151962], [-0.4806877421744783, -0.2144514261578237, 0.3874846761140801, 0.774642643062199], [-0.1879195357020658, 0.12772535182239947, 0.04205197681839171, -0.1935057829042233], [-0.6616058068874848, -0.4868476386167514, -0.3216249933841312, -0.4487159262735941], [-0.26353010073506355, 1.1519790362180955, 0.6092647730934431, -0.7322691597996883], [0.3939235935866669, -0.2663920288569397, 0.8307005455461651, -0.7043414859297681], [-0.464090733520801, -0.14237974408352536, -0.36477283907316854, 0.6197757518575829], [0.6966977680446174, 0.32453800877167416, 0.25982299437127554, 0.14595971596063503], [1.053760731250859, -0.33152680069626944, -0.8709196927551036, 0.6907125264456951], [-0.4552774818382812, 0.47350846039331224, -0.28455349383705153, 1.141759903628209], [0.04848272304395006, -0.697610896403922, -0.005908825107760146, -0.17144343619393956], [0.11046634961104569, -0.12151334812395082, 0.3819166772486524, 0.2039387920262064], [0.11150004280820809, -0.03669124086083301, 0.08106701141989442, -0.061294322549064514], [0.3602267463307464, 0.610151830171798, -0.2673735741527218, 0.5078529500677367], [-0.27570454815851253, -0.2105025776308994, 0.2430319582381114, 0.09435762320057668]], [[0.10622728904819173, -0.36605082384826604, -0.13182105674864195, -0.07183287784692438, -0.009833987193848807, -0.33721228370084244, 0.22292085770227335, -0.21206964422607455, 0.23722775524048845, -0.002811081223744327, -0.14015612021024978, -0.10113505471754491, 0.10287523471406038, -0.14167471422617586, -0.010356375303627426, 6.19066748487389e-05, 0.08296804053782936, 0.18615137427010675, -0.027919837612838085, -0.20706816117984508, 0.3110485765283544, 0.03295394107409169, -0.17190255991664824, 0.12090593901659584, 0.017545627471548135, 0.17613302183069332, 0.2232372603246692, -0.3306637797784814, 0.28018831512083553, 0.2426609061161564], [0.3168479897713768, 0.10717427212675669, -0.24039167027705058, 0.126479952816341, 0.1045278877318429, 0.40010451966905886, 0.22836768482421066, 0.30661975098541067, -0.30723606715675766, -0.07664495513549059, 0.11065576944853303, 0.15767868750026923, 0.21859388682938477, -0.0842172083301063, -0.14228967673043, 0.15906730868446223, -0.2996541284599565, -0.19074991154942395, -0.12173798891997738, 0.0528389999399687, 0.3296751413901514, -0.13727567210604313, 0.3266928058609133, 0.1636356206764381, 0.006468298123510593, 0.02031085375764272, 0.3855258807087826, 0.13962286566309928, 0.2559069163393996, 0.2732382940828098], [0.4206661006093656, 0.05824756282650388, 0.21112320769765644, 0.1879544630858123, -0.012633796328298664, 0.07756176809907543, 0.021953867348536868, -0.17087116756008305, 0.014922048720815144, -0.2770201149345844, 0.1797378219348006, -0.09173937412631668, -0.009660819667712464, 0.03165317157734157, 0.12909019824104656, -0.3194566010289284, 0.08869101277730501, 0.10981330090070476, -0.04255501488172936, -0.10507298596735337, 0.013152427504712955, -0.36288889407645875, -0.12324211703758077, -0.20262732367797348, 0.045739831097524115, 0.1746151833333666, -0.012092959189089642, 0.11698857833290202, 0.11671309985593462, 0.0007910205275362618]]], "biases": [[[-0.5050996409056863], [0.27390221459865893], [-1.016941724852217], [-0.9912181751495002], [-1.776838833421469], [-0.592826588547312], [0.07353062971516759], [0.7919352828409834], [1.4757254624421106], [-2.1049385172308344], [0.6389722954677485], [-0.1487295844782938], [0.47250027814258566], [-0.6223507836696273], [-0.4868547211829005], [-1.267536882716159], [0.6659427193114676], [1.7533481013410264], [0.8012374714538328], [-0.9307610239596945], [0.9202946467207206], [1.44982782455794], [0.08299598012355125], [0.4312532354700279], [1.3481118597105204], [0.8775530476926839], [-0.3774769470896094], [0.5612349109036008], [1.0662435763316462], [0.41497718288569224]], [[0.06709717002890869], [-0.8384583620211935], [0.20561112701094406]]], "cost": "QuadraticCost"}