{"sizes": [4, 30, 20, 3], "weights": [[[0.2176130150399706, 0.6433956145562578, -0.18214873974519563, 0.1604205897238713], [0.5622739398470278, -0.2931507866668269, -0.035159542312993355, 0.7117429924891672], [0.6973032840085637, -0.1439982272306637, 0.2349873542423961, -0.8264603619550103], [0.5931538466433499, -0.16269572523019862, -0.28711740507148376, 0.14551833897035799], [0.415578459708813, -0.27244796673101734, 0.18386897881917533, 0.8035892017527495], [0.6869949197705413, 0.6117407139030135, -0.35330427106147555, -0.2061105759019249], [-0.22072063281797616, -0.27963124161240915, -0.002188498496896427, -0.5405807096929816], [0.277626636785979, 0.12624475635572188, -0.644806712134779, 0.02419365026176042], [-0.35484582138949733, 0.6277623971203131, -0.7745211815632608, 0.03762449289444716], [0.10864109074563218, 0.08289797113200996, -0.3130352198808282, -0.9919189650330461], [-0.14123505031340147, 0.25265965326350437, 0.06569364800786308, 0.04636971194710203], [0.3141935433044747, -0.4438865555858534, 0.27904198002582803, 0.012040729450210789], [0.5333163144147077, -0.6195407734916164, 0.6987404436470039, -0.3649456284086937], [-0.10480996817520505, 0.6607208044315258, 0.22081206068364462, -0.1591469814338089], [0.2429279739021428, -0.5759693994421969, 0.4207646705767346, -0.162982300681086], [0.11483030450420016, -0.5866429478336829, 0.7186224213083733, -0.20091447088841496], [-0.34435903134217, 0.1002509381159138, 0.12156568396844428, -0.30164967798092596], [-0.18064661315190345, 0.3911529730015019, 0.2934725008233792, 0.37313720493266156], [0.8919333217404452, 0.26235658537223694, 0.06420472265262027, 0.7118483311515299], [-0.3195808281769816, -0.5506714604872891, 1.0171593251903581, 0.2732342888354734], [0.3695400556597907, 0.9565808825459153, 0.1697712593853207, -0.2050452882668434], [0.11764435215378322, 0.33520107736335386, 0.2544088389659302, -0.3069151778803401], [0.10490512119675069, -0.2229727300482452, -0.23436616294175538, 0.007941388818790482], [0.21015601939477596, -0.2669124888771164, -0.010485322717001344, 0.10420288346010746], [1.336068201984602, 0.25034295408497026, 0.04757555741029231, 0.324642864877516], [-0.1831039547991365, -0.03266833657965479, -0.2996673554065102, -0.06632119032530108], [-1.040330776535949, -0.8454900066436413, 0.15175035522830774, 0.8171940786830578], [-0.4652258643838587, 0.418364600896796, 0.36109238513923714, 0.4025323617755455], [0.2480076835875562, 0.15400441200306234, -0.4276299570815026, 0.12903392843617636], [0.25833985843468915, 0.3646400117323676, 0.07479188590238824, -0.3128146963758374]], [[-0.4073427913836588, 0.1845043449470582, -0.13971897325580054, -0.2644960109329254, -0.06754936297497514, 0.32339253073868957, 0.007507947190319895, 0.11260296032334609, 0.2469584964777872, 0.07123962491423269, -0.09108913468447802, -0.0065375845387523595, 0.1938004935898756, 0.11335084288263043, -0.07290907748274367, 0.15526133524958152, 0.13850423501464212, 0.37230782211652586, -0.06641286697448245, -0.06387439442935826, -0.03389896859163318, 0.02039803877442894, -0.12953324612239453, 0.17303895997762272, -0.13848434606218568, -0.03800480550507453, 0.36892945372048896, 0.36680852869162905, -0.2074688016327466, -0.10763848050342137], [0.08547903864363414, 0.0024877365995469394, -0.014230568487429896, 0.11139600268638715, -0.07433568161551339, 0.2440758831337049, 0.1086262762646394, -0.020600572157590834, 0.09979659542862537, -0.038947816553743644, 0.03716577772694083, -0.36908416719698345, 0.3383527849314655, -0.027900381522561118, 0.2934867818387959, 0.08928192683927576, 0.23488545057425597, 0.11816506068024829, 0.2487727948372008, -0.22092429367174388, -0.08720850945097973, 0.024031694214549853, -0.18913276525730838, 0.18642222132541478, -0.09867395940687243, 0.057005839643315334, -0.11923127113315658, -0.1785368481207289, -0.2653159522041736, -0.24162809393054477], [0.11852272759312128, 0.17520949822767934, 0.2640447854893527, 0.02945892240701059, 0.5091266738381938, -0.12535840805284235, 0.06746567887123404, 0.3465117265148581, -0.11279213083566914, -0.27431574496337713, -0.004226520304940652, -0.037670943638491154, 0.2749554755950556, -0.1038452697934809, -0.12753565794281294, -0.06466021925832013, 0.09205335909400345, 0.33806569738752595, 0.10877919999827779, -0.1616794924045802, -0.09999045741659764, -0.06722197219789763, 0.17410193220750422, 0.18181514259702117, -0.12768944068945517, -0.2744759266953039, 0.02142717199921725, -0.12424353254890973, -0.021258401296731778, 0.20590221166217115], [-0.38785387801546256, 0.08221120846808293, 0.12469999809292376, -0.1018463281785115, 0.17343700463697218, -0.20532547338741963, -0.1671709681016938, -0.15728153890288463, -0.14686142847979672, 0.16362826218398804, 0.0889099123650015, -0.26075243411481236, 0.13360573730488953, 0.18130660419862302, 0.30632526488646405, 0.029122592870621626, -0.05731098198464441, -0.13641923738540304, -0.3844932065359232, -0.26858783287739624, -0.08955146530732778, 0.04038883331030662, 0.06389083228205757, -0.005015808370358276, -0.17261834499227746, -0.11010068567624318, 0.0005582173051327241, -0.17372860979632238, 0.09518241150329619, 0.24924818180415537], [0.21133921349683812, -0.16952640182827883, -0.3196590669434546, 0.16804223534939214, 0.14658967608099627, 0.06031092554342491, 0.07416813149347165, -0.010330928727692949, 0.05454028824563854, 0.013878771518369214, -0.0873289571914385, 0.06368672707764778, -0.0978434867839683, 0.11812336397925925, -0.07820536555499094, -0.24268376910804548, -0.09130183140426737, -0.019167710122884894, -0.17636509972932096, -0.3703851643622304, -0.27914997302218575, -0.14941637516609382, 0.18083714087676778, -0.019384529718332055, 0.35324046199784326, -0.04703793088123957, 0.4968832689468589, -0.10390755295656467, -0.23717075910172392, 0.1422024144580797], [0.010316422569967112, 0.06588111252336919, -0.09513096318957441, -0.1831332043980378, -0.12037636240397671, -0.05495489670417235, 0.03828780145586857, 0.040592367152748776, 0.07792610723373126, 0.23948731374048945, 0.23817156905967524, 0.15230781773940127, -0.18132223121198485, -0.10751850492323178, 0.1728286947484074, 0.10667164912922945, -0.008491408901198814, -0.2607118627749697, -0.011954414349573384, -0.14113205183170846, 0.06676662169838209, 0.2627298297799953, 0.3217653236053879, -0.2554159817375861, -0.07875971935220807, -0.1781104666854888, -0.15889003047861514, 0.18357379151535994, 0.06752417257450577, -0.037042043520147484], [-0.002879246562564937, 0.24423474243341617, 0.039776398624013, 0.11878345976807464, -0.24674871797518205, 0.09897082925230227, -0.019244174975487374, 0.23159801466621863, -0.0528501083045863, -0.17514717153202888, -0.06384963430119098, 0.2622617956828162, 0.06858990245025487, -0.0021429831045403354, 0.024007411677788082, 0.2400983518269783, -0.0687964916628572, -0.10211406272745922, 0.04822084473887719, 0.09887755071993361, 0.006011188766803613, 0.16703279188482079, -0.022112374929443693, -0.0891012836145686, 0.3426497948683094, 0.2560968537761847, 0.1963937991721774, 0.09347572730186489, 0.017539436051506978, -0.12863900971894282], [-0.16323622358912188, -0.30881607112848614, -0.1780893388809241, 0.14230505157201012, -0.26464623291505535, 0.10383830188205297, -0.09473842461399816, 0.2894199868370798, -0.3593915276327776, -0.010314818726857473, -0.3975071806178046, 0.2975552281540452, -0.07771659685208586, -0.26097813995143554, 0.04706186344437992, 0.17916990594203044, 0.19241698793909898, -0.18209660838010497, 0.1360166596233464, 0.16654978659905917, 0.06649392572841668, 0.05236311632487835, -0.2850853785498744, 0.16339962417887366, 0.07021989489652246, 0.03227492744652916, 0.23388415636883425, -0.025113316168125635, -0.08041222680948505, -0.008017536275435142], [0.10272869386436555, -0.10531217790173654, 0.10292692155570854, 0.17107188905127635, 0.2361777957006415, -0.0728067635813893, -0.21684580720481042, -0.021318470054411332, -0.0014712899426488598, 0.27556957543748933, 0.268845420115383, 0.27010315266612556, 0.2707226237549709, 0.10558988123843176, 0.008793026302847763, 0.3654905409629258, -0.016277466566274944, -0.15334078497457496, -0.1545726035902634, 0.29530069211725274, 0.028211488463612565, 0.02635021119856668, -0.025570142830848443, 0.09455668466326636, -0.19612976545031968, 0.024897227098711693, -0.25861421778950267, -0.15992827459978246, 0.07002657472173018, -0.2264061350928765], [0.06812960545715656, 0.2247433445296649, -0.03571696549103162, -0.18999951778447177, -0.05953042984824085, -0.02596547966538544, -0.17332096940275807, 0.07661621303721859, -0.2795827428484399, 0.0752885901241712, -0.11944789758754505, -0.046817734175755375, -0.1049989178388277, -0.27320216311028267, 0.03987717352081677, -0.22253895025631243, 0.3306890068634586, 0.07789280257332604, 0.2696499091650521, -0.058117978693769744, -0.3450271128590406, -0.0928727833637344, 0.07032488171927923, 0.27975819490190124, -0.14673230648796384, 0.0714243600963457, 0.13174110251605792, 0.07755412178508951, -0.0521889576768481, 0.02984670169613436], [-0.4400828427760134, -0.07916265258844497, -0.17663993895124538, 0.16362690673662916, 0.04370158646527909, -0.1266680933279699, 0.08283811670422254, 0.2062889993482599, 0.1340058990688165, 0.0023152156726032437, -0.1078791852308007, 0.0665838784161778, -0.016773822328226287, 0.1266843073862775, -0.08039703260398297, -0.1146107357044559, -0.12626314057257698, 0.07472494128354025, -0.14484539414958872, -0.07771535843293753, -0.0991860479827482, -0.1481977207016685, -0.16126570777427954, -0.23084613455485772, 0.09071454192512478, 0.24762819420613713, -0.3167334022226636, 0.07755870784637248, 0.02005578239319979, 0.03280477782763432], [-0.09127742887416095, 0.2323684064564273, 0.20057555737943947, -0.013889106900211168, -0.1679847052702157, -0.038936673774393846, -0.13241235014436986, 0.14151302160026374, 0.019063052560026078, 0.1331135600917381, 0.11340429514278981, -0.02579426243418102, -0.06448037311664494, 0.0940693362973027, -0.09929381850975547, -0.16719076314486345, 0.26398259099897314, -0.11883961337205685, 0.0769345607193484, -0.1094293317461477, 0.09973250203808443, 0.23001176339538282, -0.21438481676575513, 0.38939317135107554, -0.0035380430630387637, -0.27576600265198215, -0.32342271116186533, 0.04259100725141564, -0.3204207117832003, -0.37421297879787907], [-0.21109269186198779, -0.21857294117277087, 0.3186933259471844, -0.04551817859929661, 0.10988911768239921, -0.026665906096091086, 0.015660425637364885, -0.05482359702934183, -0.17325742132733318, 0.05737274192027295, 0.13209608673001755, 0.04142755537525797, 0.03798171021285122, -0.3785169851358519, 0.22374455530779871, -0.008681517764086981, -0.1508464633739293, 0.18610368374655484, -0.02211649146827965, -0.014088737843893763, 0.19311045727035564, 0.3171255635870219, -0.18781233027841163, 0.20792556776215437, 0.19226514167454947, 0.0378515754247757, -0.014946873698036219, 0.1433486710854909, 0.11031558358139798, -0.08108386054070922], [0.031200455923778837, -0.18733892357518644, -0.07896832260553174, -0.16696564968354094, 0.19973419206275922, 0.32600884798301516, 0.11712833893016462, -0.20728758158780017, -0.11423706815232892, -0.27936684049446503, 0.06348801074085507, 0.08831417678884537, -0.052467404749265686, -0.0077108004904470175, 0.07286441618196257, -0.1510582403892463, 0.06986537439557194, -0.23856002035497964, -0.07067806446461736, -0.08364223005385933, 0.21648197833630123, -0.11121891525099745, -0.024909705516558515, -0.013111625305202896, -0.21624866734870157, 0.034207534326897784, -0.08201583688854103, 0.019325860198546176, -0.05658807526762121, -0.20243381770450533], [-0.036532854729734165, 0.4944442832028117, -0.06664632759453702, 0.23999714155159513, 0.31399299850821083, 0.07766146245051848, -0.005442252204722827, -0.03564927574846863, 0.09550119971649074, 0.16512181777315915, 0.002665504539507019, -0.053804666964086395, -0.18197732009001522, 0.304750139523537, 0.0848583433207179, 0.09003095732544834, -0.059346426853049236, 0.1057770015647578, 0.13739366704618708, 0.08060289901275056, 0.17882919509716358, 0.1318120346924968, 0.36657606145102783, -0.16363677148548922, 0.2746952421502892, -0.18623022179865342, 0.18737408264999303, -0.11527800401005417, 0.1684709598312777, -0.2419896838246801], [0.1100922819583274, -0.09743211687411224, -0.26639910572834274, -0.028915166671494342, 0.09536743195002619, 0.11986432693518626, -0.1724487876723068, -0.2598745224483277, 0.08580375738309168, -0.06748633562438658, -0.1999019982130915, -0.0676312477843954, 0.2410705882252306, -0.008529857335828925, -0.1013824505670272, -0.1563393464155694, 0.026263672030731447, -0.14530378320151408, 0.0274164260476514, -0.02122402594096198, -0.08563325144575372, -0.11430399352225142, -0.04717110782620293, 0.023578325964039994, 0.08693731673392074, -0.14074956159256477, 0.2050228323384971, -0.2559650814406409, -0.20970664124763774, 0.29106630020161683], [0.29372456560473414, 0.01694740299609474, 0.017317293883678902, -0.022978290467130267, -0.13011837952300281, 0.29018347398989913, 0.3733319608298627, 0.2140931994778281, -0.0033177545007049216, -0.24831949466457684, 0.013334783924112642, 0.15494313040507654, -0.15643478000018354, -0.02812865718369359, -0.20690852199827442, -0.0024536216771883098, -0.004177332961963931, -0.02366573680116124, 0.19274990352713137, -0.2356460637313203, 0.13738671813341854, 0.22431404230083546, 0.0741892596922458, 0.15953367149028802, -0.3358941277659224, 0.14772744254189066, 0.18710978319050375, 0.23202077401778587, 0.06618159166230492, -0.08661580980604787], [0.11346632256451113, 0.0689015497052586, 0.020423707793843154, 0.11986895685861344, 0.07315978048572819, 0.12133318995041116, -0.0658165258391385, -0.07332244681749522, -0.1586568321376682, -0.001194860623464448, -0.25573175291820666, -0.11754844727785613, 0.0011249594372273364, 0.08495831734907057, -0.013725289365590847, 0.02161085452325569, 0.11256414689285019, -0.04050575283944516, -0.33813380019916733, -0.16358912609615356, 0.035335593917756265, 0.3550830009071515, 0.09177007995581916, 0.31611685469849715, -0.028942842491546515, -0.01722741986816337, -0.06365624044041171, -0.0928249194219894, -0.07663390967413282, -0.396040513453729], [0.20891936389612265, -0.09295297747217393, -0.08928054032136006, -0.0961145927279438, 0.0066168221155107525, 0.06494993136099496, -0.021682527164589252, 0.22732606349757256, 0.23450677279428966, -0.03261920521030789, 0.1546089111724525, -0.18342824814318995, -0.038405571374134806, 0.015497757571525946, 0.07772166466330965, -0.17622792614964058, 0.13052424110709704, 0.17971976044169075, -0.2762861739380627, -0.23669864293600285, -0.11956522068956707, 0.08332768453437131, 0.10477072042273651, 0.15021333115973215, 0.37144732391890506, -0.012720428000423993, -0.04865206856711183, -0.057144044369715714, 0.033787985972769614, 0.1022981841008002], [0.1502333488404543, 0.06812799456249394, 0.008083193261865162, -0.2160739261835956, -0.032170174535991615, 0.005587610320784833, -0.38946116873321646, -0.0627283931620637, 0.2595955684487764, 0.20771342258918962, 0.16082309701820155, 0.2400534131625348, 0.05930357809028048, 0.14652522715872615, 0.016766458995937754, -0.0948761737582125, 0.00859902517378624, 0.1935088074455383, -0.15743813162604764, 0.19951923285279125, -0.25338527116960496, -0.1548447689077236, 0.45972281479117616, -0.27203806171588163, 0.03630137894974166, 0.06611500120962127, 0.18173729109499756, -0.05962018595286654, -0.20020877935130868, -0.25354899715519397]], [[0.051613517195000375, 0.3115209828936418, 0.35889700584376094, -0.10272732771797084, 0.14919293429639405, 0.08182632214318361, 0.25722698825464124, 0.01367431491841398, -0.12966301699844462, 0.24610275146625232, -0.10769016151372711, 0.0065483649517049615, -0.06556550776079949, 0.4500950250779669, -0.004788802873409486, 0.17275437201359783, 0.0689123557294531, 0.24171347212410677, 0.22343565880158883, -0.06185742019140158], [0.06329969711832369, -0.3727087494127249, -0.2789860030477768, -0.44976000090418605, 0.2699054544681194, -0.05454840651089955, 0.5175572331913056, 0.13621183653840663, -0.20488284536007376, 0.050265148142909784, -0.3891679111529602, -0.360759852260275, -0.11661519034991161, -0.008936716030776379, -0.013944570106699073, -0.1521016901422541, 0.259051487762776, -0.0800161361099512, 0.06403454110020133, 0.34806734329346595], [-0.02683320482754614, -0.34531138027045183, 0.036946653882743416, -0.04247604113251025, -0.2544579017040987, 0.3011201469345883, 0.3983806166789418, -0.11217109444983317, -0.2295173742449244, -0.16779549419162623, 0.015152635731398396, -0.20489908390883696, 0.29640940448341635, 0.20802467861946902, -0.07065427859536591, 0.09661504197316921, 0.1817651317132193, -0.3011754912691328, -0.017709499898063766, -0.056705784487624485]]], "biases": [[[0.5121009422236639], [-0.6393569012548121], [-0.607247469563182], [1.9686479159751593], [-1.7066122789945677], [2.027630539516611], [0.18957675960755235], [0.0007094279386012997], [2.924756095815218], [-0.14751380321613913], [-0.6916310270259358], [-0.6115115429322187], [0.22339751797595161], [-1.1169042401341456], [-1.131310229752322], [0.014675034182509558], [-0.5724716125957262], [-0.41397150001600513], [-1.0309069697507496], [-0.4518848450287922], [-0.5001121304699168], [0.8643367589689721], [-0.26781940125393905], [0.6841068860637127], [0.6149223275327149], [1.600555639924278], [0.0980962727054448], [0.45781807751830705], [0.004788317246837412], [-0.11405339038353346]], [[1.2974719728839386], [1.4288790654313852], [0.8187940632374141], [0.1684409287850109], [0.5265726858035314], [-0.19408775717217394], [0.3393872220518257], [-0.08778029429254382], [-0.6874397748500881], [-1.29149636092826], [-0.7494076157729271], [-1.3297894204265983], [0.45738583435597235], [1.2879403327996701], [-0.10152517308364083], [-0.020816971678635717], [0.3708406042549924], [-1.185562362038146], [-0.23112881284259734], [0.8410004917164801]], [[-0.5200428419226055], [0.5276980198159145], [0.664050964409208]]], "cost": "QuadraticCost"}