{"sizes": [4, 20, 3], "weights": [[[-0.00753480634432002, -0.8393077764467408, 0.03525268279764228, -0.8763559045708031], [-1.0964927916570504, 1.7662426046231767, -2.4288274371130907, 2.180685124296027], [-0.4568730130402498, 0.5872727981054088, -1.4129133250147106, 1.0643769725082188], [0.1252065822703208, -1.093824120468647, 1.1688710986883508, -1.296122273203645], [0.03756606293657143, -0.32363527977439344, -0.5034962049683506, -0.520198556208288], [-0.0731996767045304, -0.0428829217361657, -0.11543070895233515, -0.13660936440289817], [-0.09665534114575451, 0.13425315435046084, -0.3732669622011055, -0.7289403744993151], [-0.1257342828707592, 0.21669732745716214, -0.5381274361908414, -0.06229047297431044], [0.0675583623020279, -0.6859610254590981, 0.1404625406456447, -0.2394702104802196], [-0.15972213531156293, 0.9801227202426659, -0.6878587530397904, -0.8372484621244146], [-0.5813768212191747, -0.3565446407056965, -0.7353151225611527, 0.2443407735853165], [0.370793557877953, -0.14696361015241405, 0.36448383501136905, -0.3726920363112316], [0.349888351805542, -0.3889464345962196, -0.07946278681821098, 0.9180135756648139], [0.2156951118077858, -0.14419690781019165, -0.895771275663763, -0.30178993786956226], [0.24778029031598064, 0.09600686226791011, -0.6188838079742961, -0.24433481158973716], [0.23196460713378886, 0.13117698703724506, -0.3097260095391631, -0.2768019058613067], [0.2524743367346495, 0.08777121977224606, -0.5168063441552929, -0.7638160302578035], [-0.5186188313662917, 0.11158309055352242, -0.45541712849054206, -0.15736547299295528], [-0.16449224733834114, 0.6340813004047807, -1.0848833111853096, -0.3401830462505903], [0.20870221765772082, 0.13098128208647533, -0.43948282110533005, -0.02555683641644439]], [[-0.11698979734598024, 0.8663773382804912, 0.23889710764345268, -0.3997420611218467, -0.011607196158013706, 0.04357572557358203, 0.18960141922700408, 0.06318250943034014, -0.22470485808703844, 0.5476333989629645, -0.0180656562911673, -0.37536758352923266, 0.48077507301327826, 0.4079216721889547, 0.27463191150482047, 0.22840446660420013, 0.24575139059256443, 0.06620499253906034, 0.7088861411143949, -0.01606444067799032], [-0.0674031144008889, 0.9848660746027704, 0.5107084790430095, -0.4996800084090175, -0.06475091262323163, -0.10347103567269644, 0.32208807776061665, 0.3723764573732192, -0.31389863394111145, 0.6445217625313777, 0.14840813112244208, -0.17592395465818256, 0.4572035541484198, 0.22818196539810165, 0.20044850749049126, 0.22939389285004516, 0.15654398237304004, 0.3186835464665837, 0.6706487072720607, -0.076939805074449], [-0.1104616118413272, 0.8650422793259666, 0.46236480478453146, -0.4409839586650682, 0.20930588732918873, 0.33341326666004817, 0.25430543939906697, 0.33974399786062276, -0.013545350809464703, 0.7013709644150427, -0.1968285292308355, 0.07424454865515796, 0.6242225512172145, 0.33912499130750634, 0.3020035842897152, -6.796340873505202e-05, 0.3744412316548145, 0.32239165907572503, 0.6044392608224218, 0.11049323548877067]]], "biases": [[[0.5522570369913922], [-0.35594872423351637], [0.6136522507872268], [-0.3225545758748782], [-2.4807939211803234], [-2.570150313628011], [1.1635114823035042], [-1.058370984221667], [-1.4286240125333682], [2.707896586364051], [-0.950244246446309], [-1.9433896104775767], [1.48933696002853], [0.19085434213663047], [-0.48429384795136743], [-0.9388683947143325], [1.4049100475604905], [-1.4907086331167516], [1.5561157759665223], [-2.878057525941652]], [[-1.1041458229638943], [-0.4812583984208285], [1.3983817790995494]]], "cost": "QuadraticCost"}