{"sizes": [4, 30, 20, 3], "weights": [[[-0.38310183900668965, 0.7353846758651365, 0.7084878691796291, -0.030763763209824227], [0.3708225615986036, -1.1595716808424263, 0.07815985531590544, 0.902324371164141], [0.012756264785376567, 1.1363260972345002, -0.7524117221882816, -0.6558006601390751], [-0.0012690195576965445, 1.023341167587314, -0.5439782116036929, 0.35977808858109345], [0.04531342011227672, 0.32845821714334805, 0.020569908470896313, -1.1370891474227875], [-0.3605763447704701, -0.45666490387671504, 0.6037539857959202, 0.881543031170451], [0.15162856008326586, 0.22841203672686655, 0.22203131617983865, 0.2255577504293767], [-0.07940175049728132, -0.6726188538643688, -0.006503750625153832, -0.38020063026332007], [0.337301731581392, -0.025855742507956803, -0.5143218716443559, 0.08520304356710152], [0.3428163925215883, -0.24669861671773813, 0.12328966446159312, -0.09169573300149951], [-0.4388199000972574, -0.6284675613150082, -0.4266343892410005, -0.3381776285656513], [-0.5410900726069163, -0.09475513300170466, 0.05095517336933327, 0.36799876964283923], [0.31563163661749777, 0.0420949325148052, 0.11935811551167093, -0.07794355503705688], [0.07459410976935214, -1.066689343055667, -0.30346083267166524, -0.5821470428551726], [0.2581559414859912, -0.36225889054044014, -0.7648138891290113, -0.4172522063931631], [0.42499293280396305, -0.4467689296063766, -0.43396815509718956, -0.6402090192438158], [0.14738732339778604, -0.7144101127845185, 0.6268241073940009, 0.0046032491919342534], [-0.3018748042233385, -0.009937686039041774, 0.7055028262330193, -0.6611636770039252], [0.17179356960874215, -0.18949601059093588, 0.4262240887366564, -0.2917022963269582], [0.4450120662795146, 0.14833482014919042, -0.00675501314070368, 0.26168681456081216], [0.16395486650267263, 0.27007627076588475, 0.124461657578221, 0.08549366430335051], [1.0218972124735162, 0.05370490452509638, -0.29494421131333953, 0.0017481042631238653], [0.08281887806768352, -0.0114092259602044, -0.12039704581870542, -0.3453230765718465], [-0.2750853150685623, 0.340756246037728, -0.5571073137499691, 0.2527944345241683], [0.5854052300771929, 0.30911374630336497, -0.4470718886289872, 0.699071158665175], [-0.11656843225976796, -0.057424835217121974, -0.5305107838487123, -0.3857243927276502], [-0.11162329219540633, 0.2578336471796883, 0.6271072562442493, -0.6805521810579778], [1.0737997717924264, 0.7857441865665367, 0.4875602988987961, -0.203433970414812], [-0.08364795446135723, -0.7968827093465606, -0.5927908024928426, -0.14502441770914373], [0.6672038607409484, -0.18868870394249507, 0.3676987608540397, -0.2476629156861387]], [[-0.12562710078402264, -0.05341254377757451, 0.2834430889228207, 0.10252335507909462, -0.27065709254023645, 0.02909624543130558, 0.07096118463879883, -0.042649856997154297, -0.06450926322625021, 0.003932735087635287, -0.3292966981694069, 0.012017074189676196, 0.3164268789232582, 0.0328331756552963, -0.14769919351250993, -0.08793914501935314, -0.5415792542482949, 0.28553903544669096, -0.1615208802231686, 0.1782621202749836, 0.29471375477947354, 0.16127871501032526, -0.236254193674091, 0.03357789237957179, 0.4265700086299235, -0.1352725528884112, 0.15489780045241242, -0.042592735577783876, -0.2740224759185592, 0.4313936934994765], [0.16602976762129987, 0.38260031232676756, -0.23082892170020725, -0.24319218080967428, 0.17892311068869254, 0.06305189905863992, 0.22740431052058724, 0.08302671845839477, 0.23399850132954045, -0.10200594136240605, -0.1613284440712118, -0.05053757256742055, -0.044790469277537256, 0.11735747575926862, 0.15357100253654288, -0.009344708615774662, 0.16985801829128405, 0.2910283192183281, -0.2089687696159137, 0.053723694894019576, 0.06117481137681033, -0.1724884641386236, -0.22060421373182523, 0.1530966507021765, 0.1434028766330406, 0.28609824187431704, 0.46506111597377364, -0.2197348077441129, -0.008003442010344416, 0.09414852873764304], [-0.019813257243995692, -0.13454387688195477, 0.1726701540418848, -0.23543677986729822, -0.2160301021373084, -0.08549480239613752, 0.0009477255186313299, -0.5239103596860818, 0.427957900786052, -0.16663640486089432, -0.0662600077347288, 0.051119444864106675, 0.4206527561830857, 0.18393194811197033, 0.12739513627326543, -0.09334918993324283, 0.07414593692470786, 0.12215238230246402, 0.08521532430503878, 0.08176311125888981, -0.2205884259006829, 0.018839314852258548, 0.058760511801784696, 0.13178437762955098, 0.02078081527319934, 0.06099167330252289, 0.16969193380986763, -0.11061968111396883, -0.24618849372739512, -0.0803013199143472], [-0.06253562199473049, -0.09081378417549728, 0.15534330599451987, 0.15095657154789485, -0.34795787234369857, 0.24188413908623768, 0.024583827298848338, 0.04776291819823911, 0.30648387968655777, 0.05554558843953213, -0.10232401086138612, 0.2700372343725406, -0.055254016964667266, 0.06159473796095625, 0.0067092704755141565, 0.06580475280909141, -0.009479170938885808, 0.2674021645302598, -0.12821928118478876, -0.12621358041678954, 0.31244096362860835, -0.06431699012169315, 0.13841407307245507, 0.06841888959710177, -0.018059781862648158, -0.19617236914988417, -0.31176797068050455, 0.2667852929969731, -0.007316060065330532, 0.06405721748224213], [-0.06159488013756291, -0.39957731286250064, 0.19376896695870569, -0.029008213647485435, 0.0696463436237488, 0.09874584108848079, -0.029825514356075913, 0.2825071602398548, 0.19136534142821754, -0.19339035576821806, 0.28707867397420567, 0.30751450968029526, -0.17822118209334797, 0.14276528904410354, 0.09261517166246494, 0.2799561422783779, -0.06255559779527423, 0.19999202799217072, -0.04920625051054928, 0.018740033859025236, 0.17491643496535494, -0.12083464379411246, -0.10716455507484958, 0.4335050255549199, -0.3810798186992597, -0.13588045625484055, 0.15936091668046212, -0.30465141103675825, -0.24084660407353303, 0.07089203132740031], [0.328626119104288, -0.2697180295345288, -0.01194056924263302, -0.01794559635937962, -0.1580044694577324, -0.05729816590500975, 0.0334127567588128, -0.10548405681622604, -0.010651031529799918, 0.17797286096392104, -0.36261244751678945, 0.04028472303274375, 0.06525880748109136, -0.28703536438728106, 0.005037345329503078, 0.08588813177686629, 0.14540580733655284, 0.24886909908155677, -0.1517212734607354, -0.006251079176897344, -0.017601974149454608, 0.07844592692768294, -0.04229665059201179, 0.12024636541678901, 0.15757963929052332, 0.10954256719786223, -0.10301763389418306, 0.11384053018999103, -0.06229518279026263, 0.16478141622572384], [-0.21951916538998809, -0.05604397223608227, -0.057199804266576636, 0.18054463316832509, 0.08304575155177364, 0.3211633528990512, 0.046865108710681565, 0.15199187925310018, -0.04812259958585005, -0.028626001608220104, 0.009782468091336045, 0.1672347479569226, -0.22977231996655, 0.07166973528726832, 0.13409442836217864, 0.01597092921302073, -0.08408980713338879, 0.08438209090196659, 0.13053746190217475, 0.4198293933898424, -0.16039608779647901, 0.13600825897783098, -0.2678334005522374, 0.09402574976628383, -0.05281228992760078, 0.5293030595357243, -0.10580205884166347, 0.08491270977216592, -0.0018186269303631772, -0.10773139635513329], [-0.040675430542106567, 0.10487383316891404, 0.011957528837392952, -0.29621055229874266, 0.1101689977581768, -0.2248260741355207, 0.1621825117190413, -0.131355079544579, -0.13843424290197637, 0.23564426552019194, -0.4942102373141535, -0.08300598598010354, 0.08935255893920505, -0.16293064219767903, -0.2914223587161999, 0.2523627846116406, -0.2653323590002065, 0.33390117050458007, -0.0199489202739406, -0.5289127829277716, 0.13569151571190347, 0.181084578993962, 0.10252314041824681, 0.004377784129268352, -0.2624224111832425, 0.19322648630300454, 0.179691986303203, -0.03789472065816766, 0.03451215220181745, 0.006610644005934661], [0.43793996659394524, 0.03181026634906515, -0.16428875647931906, 0.04531734011514897, 0.12089475193964021, -0.0921622236316793, -0.1303568619385061, 0.06527107480412203, 0.08864065485587556, -0.010554416452695524, -0.07864884145639364, 0.24776924909091458, -0.10888187754934804, 0.010960291642066407, -0.04751158676472014, 0.4800285583828771, 0.32508209555891315, 0.18372770499060023, -0.38063187086774875, 0.2133985350996091, -0.6283638731606058, 0.09711189686061802, -0.1558181891589246, -0.02265313911457591, -0.16561124237125038, -0.04680659934701603, -0.2747352704003217, -0.13694959949552898, -0.10704389447713915, -0.04609171337097755], [-0.28294625466278983, -0.2938068168888446, -0.08221577519483493, 0.27408397413077634, -0.17812883474555094, -0.04893587734367291, -0.052879951365576446, -0.007479741753277432, -0.2012753936991992, -0.16925729727293373, -0.36604573403875, -0.1431609268333487, 0.09009274466083715, -0.08960131822342526, 0.12585647031019168, -0.08690681372836882, 0.08559266366840872, 0.1732103797661731, 0.01045601597904531, -0.16963787009430667, 0.12362872145708102, 0.07576947785049985, -0.0457608710907349, -0.3156178482875136, -0.2946950928701716, 0.13320595267942786, -0.28865097066475887, 0.38108305278768195, 0.060070575200653606, 0.12593350177114102], [-0.05737655417689854, -0.12494885464787604, 0.19408467236236515, 0.15085764252346523, 0.13906765019128783, 0.1803691924175729, 0.07765117601944524, -0.21698052071539742, -0.1810949324230986, -0.047383387953548635, -0.248665329894616, 0.06682661417373728, -0.04232969390896099, -0.3978413546693305, 0.13973853823082574, 0.12310704960475366, -0.15775736334301813, -0.025282325143833703, 0.1261041262244015, -0.1560100810337511, -0.0966844891654893, 0.16938395264257564, -0.24298849199720668, -0.005218642837295441, -0.1170896935599877, -0.03639890084322828, -0.22750473086205417, 0.23685866005494546, -0.08624723695548955, -0.2241106777043096], [0.30305321652101586, 0.0008532262950390799, -0.14396585051337069, -0.3161812762714197, 0.17983287072263068, 0.044490181475605094, -0.05965485859099192, 0.41932309839051507, -0.17282944824619872, 0.21191562477999581, -0.08210159380148171, 0.07628412657806131, 0.03573818300068085, 0.19607090993958745, -0.009111269493791591, 0.08803094807134672, 0.003696749321373532, -0.09972947936031747, 0.25253852277413624, -0.13815948036410433, 0.03548363532730172, -0.17662918569572142, 0.18860132131564752, -0.195490533764572, 0.04164371261261829, -0.09770526676539466, -0.4805541078700296, -0.0939349318801763, 0.06771128246618129, -0.017238572103995164], [0.15489681094246002, -0.24463432049308087, 0.17799405991207706, -0.24197455126862408, -0.0661647043054184, 0.0929607946728727, 0.07728989313889037, -0.5311738869585002, 0.21976854964491535, -0.43814432741116305, -0.06556211006461017, -0.3325552310344498, -0.16707945832023327, -0.0848601772572654, 0.03710722012416852, -0.052475127581543754, 0.07341425120835628, 0.008837165677386655, -0.00848583552358475, -0.25540344350497346, -0.1940079259900486, 0.14358422151709277, 0.19722041634407647, 0.21587645293711147, -0.03595695599419292, -0.0888541676690928, -0.24807419532621644, 0.15194886067202323, 0.34125048860937296, 0.050584796557516964], [-0.03058093022634555, 0.2979450186635984, -0.09755535008601914, -0.12174945650249797, 0.18796323967931663, 0.06705018862532523, 0.06077614809126652, 0.0533357728264304, -0.0609401029437288, -0.027979056053799644, 0.06036544920534415, 0.09205604598889597, -0.11969773571862455, -0.056065460991212186, 0.08885786871701981, -0.0009295282824490036, -0.06279982705279133, -0.19659740264799325, -0.1070721491133032, 0.17637195865360136, -0.0075484237170851684, 0.44058149837444904, -0.009453836116799617, -0.2843591324848386, -0.1934404805567613, 0.044903724191463705, -0.2798646952421201, -0.19244122635173896, -0.18877790941426334, 0.15826177096169539], [-0.0447835815573753, -0.2478776023379489, -0.2174453496647156, -0.030789991483130552, 0.2791573249533628, 0.040983640631714856, 0.10478619151407191, -0.16394197253340986, 0.12149855764277166, -0.27501243280696336, 0.054252731853585506, 0.15882475393152107, -0.05559012106871763, -0.1014376783304569, 0.11672679609508442, -0.08413515805909919, 0.0014248933419982448, -0.15286182939787182, -0.3061446083176533, 0.029436007601200357, 0.06347000163730267, 0.25394905012602964, 0.19349852359439548, -0.11278774428470176, -0.22451732316095968, -0.2047682067937483, -0.16852902000523365, -0.031243348451823482, 0.10792350810549473, -0.26716245679970047], [0.11720894599612786, 0.3449285383654396, 0.08421288853882976, -0.4533333940598499, 0.15868806133509997, -0.13872162546333547, -0.25385828235625846, -0.17498417085681683, -0.25009719470091657, -0.13734475460860573, -0.041081262991011384, 0.10918873151926928, 0.07011330884045484, 0.04009638028580226, 0.41422218922089044, 0.05133750115334741, -0.21848930973450897, 0.0075382572948623425, 0.17279933300314743, -0.12263909598662825, -0.0022212072996561022, -0.41632176906374535, -0.13628077874177036, 0.02331432332764949, -0.19716740196853147, -0.03261439286962589, 0.05264237580865425, 0.0821076618933534, 0.1688085577466495, -0.10865202879582979], [0.22476074765694318, -0.3012085625256935, -0.08192095392288247, 0.30020766539637955, -0.1325816845888585, -0.0999155460823946, 0.28106013581146816, -0.000399319259935439, -0.004306620249528878, 0.2668700417232537, 0.21439241700529033, 0.05473146131069534, 0.05099479215196165, 0.3153950133200202, 0.09788970428000635, 0.05237474477051896, -0.008560895379570263, -0.036400704953659935, 0.14600193724353447, 0.056068843076791726, 0.23143739539785058, 0.11435092070379652, 0.40109034127168386, 0.028203695599195538, -0.26017879534454713, -0.1240393885452528, 0.4246522037513394, 0.20114045184993504, -0.10088136742920586, 0.27123011612437137], [-0.04183041468487801, 0.09146181395919842, -0.1011209969650075, -0.36330931201252586, 0.1069875090022518, 0.03292279712285931, 0.1327243537159633, 0.14996495401668086, 0.2866844247321594, 0.04043619908608103, -0.11572457657568726, -0.09758324227861054, -0.4107363109991813, -0.23481858497861216, 0.1291603559771876, 0.011945736119908708, -0.06686018455095513, -0.013957006215103195, 0.2217966510288518, -0.020280584805074806, 0.38693928168885533, 0.1172016085390672, -0.173333670475634, 0.32100731042229697, -0.06267377361070663, -0.06410387936693843, 0.016324402419165607, 0.2986698135064415, -0.142523340551664, 0.25266024437414103], [-0.0727954053869207, 0.24167368262366648, 0.04612461988335156, 0.1735074975394633, 0.19126844645454, -0.11484881960413687, 0.19409982539854062, 0.027766206347071522, 0.07596515508224837, 0.14060129397654758, -0.020665000154674897, 0.11840771064786039, -0.15713033220799805, -0.3167136150874119, -0.03804150598253372, 0.2887591707304969, 0.26480884337229416, -0.018714101911441964, 0.15167093548788324, 0.3069717713699038, 0.13460363895684752, -0.1917242949426289, 0.3771368940353517, 0.1624816283433792, -0.6710698104715003, -0.3000213310567081, 0.06865927238992939, 0.023886663414708617, -0.15774030826036903, 0.11515163618754713], [0.20337781612651498, -0.24030677204997525, 0.044076855710403436, 0.04482815861856003, -0.061007951665158856, 0.12154778246411395, 0.2831789529162347, 0.07772976074069439, -0.11300496280515732, -0.12750469299372705, 0.33258461520715843, -0.2270738610573404, -0.21804019817709255, -0.18837767724071236, -0.1676128510174579, -0.07462916266446092, -0.1926601212435208, -0.06415968728778297, -0.07976626128507157, -0.3852984110526168, 0.09937169950328059, -0.1639933877574671, -0.17292518601019416, 0.12332136332933478, -0.19150714227107068, 0.12597917251210372, -0.008172150275205238, 0.13682300549086815, -0.0708849046414116, 0.23542592496690617]], [[0.267462670013702, 0.09706153913932451, 0.11417050125606891, -0.155453845904046, -0.2730835849492892, 0.10770835650169197, 0.5162669287647672, 0.24434175815337192, 0.13059830150810306, 0.022998424579556743, -0.12687730008604425, 0.2803163546776822, 0.1555109890019051, -0.08305012854135764, 0.026027552760166307, 0.24692157002630133, -0.013886342295389277, 0.1656609456695173, -0.2515722383085293, -0.021382864060141938], [0.3817910900328443, 0.08782419093766973, 0.17909194349844196, -0.2463566609317033, 0.050126858952698576, 0.22106664178726568, 0.24708520502079134, 0.12387247841933897, 0.1310805321813731, -0.22779511009065379, 0.03547643191629162, -0.39953058800297053, 0.06037518775817858, 0.24153909109126523, -0.15416087174432785, -0.00951781734379961, -0.324456926277846, -0.058043857761762234, 0.3318506499309777, 0.036019911840317206], [0.11850495213500066, 0.3275725828047644, 0.10300769041278991, 0.0037533977915810766, -0.04576519351252616, 0.21961440705814178, 0.15919856244714153, 0.13574705611059834, -0.1901402184131464, 0.04223209523993962, 0.10088753739924416, -0.052468887708330074, -0.3237176789708181, 0.2185703412372829, 0.03173481843758527, -0.18609967524468393, 0.5640278151361127, -0.16398629471960935, 0.030728453181082603, -0.15568453259998133]]], "biases": [[[1.1611223733759315], [-0.3213480987180397], [-1.400076604295014], [0.39221835006076805], [0.8680106624678452], [-0.1976701307105314], [-1.5086557142853314], [-1.6109361844527597], [0.5084267480894484], [1.3511527031587678], [-0.06162828389153457], [-1.4311564899951992], [1.1672356016879806], [1.0604968748729424], [0.7135115093624282], [2.04194101972576], [-0.05397693911956695], [-0.20283745204718026], [1.1733593223756857], [-0.2135154984110712], [-2.3387522872464683], [-0.7611235461397529], [-0.4724182716009864], [0.4571285807580205], [-0.24548150828982299], [1.017595043753172], [2.162581970779935], [1.3183792262303142], [0.37695397951012294], [0.4781361319819377]], [[0.360821526051268], [1.202690516802649], [1.209457227411182], [-0.4108476861243936], [-0.3110950084137556], [0.20706762976992077], [-0.07493681612740682], [0.16866318084991355], [-0.434220986301504], [-0.378923745643112], [-0.47645579170448027], [-1.3262902737759006], [-0.48530501298863277], [-0.13223452787292758], [-1.397225940369262], [-0.7910692675709913], [-2.2350955291381807], [-0.2446091333867857], [-0.6888295795626546], [-0.5577155840123607]], [[-0.2341333508681968], [0.28162770795007375], [0.07383304565187342]]], "cost": "QuadraticCost"}