{"sizes": [4, 30, 3], "weights": [[[-0.500671758512603, -0.23404287665175244, 0.09487174434597606, 0.3332412864929317], [0.379677708650455, -0.33634514033550234, 0.8374288818106002, -0.3540432738571836], [0.19796826365095227, 0.3505545780033738, -0.5705056531881963, -0.05980939051334542], [-0.40258749925354465, -0.15346029247192378, 0.6603546289859028, 1.0599956495034333], [-0.31470711320952205, -0.7674611195902376, -0.1738074321623311, -0.23612403662194043], [-0.592212809801352, -0.30047602388806377, -0.20225897009171862, -0.311673035945608], [-0.4497051964718765, 0.47759048804099, 0.17715094886629298, 0.7194223168651428], [0.12265724074073933, 0.025665724815961865, -0.4426551410721134, -0.0035159908935455514], [0.5395141452117574, -0.20842547777523313, 0.06589123434997053, -0.467583789489723], [0.7295116001362324, -1.0697558440300412, 0.7344882589938441, 0.30576624367117444], [0.23577502097674313, -0.32745043925663175, 0.04475173987341779, 0.8720991385660072], [-0.44303865364485523, 0.21100288703085474, -0.4447478060482264, -0.21926901940829358], [0.12641615637422016, 0.28140661125776145, -0.34094488696627007, 0.32559664707318764], [0.42496916858897676, -0.5206332423988276, -1.0349563020303272, 0.31361699253919395], [0.30002409634591426, 0.5549107728627494, 0.12153848206337153, -0.03302405249075779], [-0.9477444787080258, -0.5848318873710314, -0.57014089511489, 0.371741481804837], [0.34851319953685894, -0.04226984223207226, 0.15558840114659306, -0.45416257288218764], [-0.4912852964277185, 0.3561547183467414, 0.26744750332543665, 0.23538780837312437], [-1.0175076416824764, 0.13526463497348643, -0.012579165055612015, 0.686630342056112], [0.34145179931555086, 0.07323562819562834, 0.4218834685682809, -0.05462662416551877], [-0.31551193026013585, 0.1646760815795456, -0.8275957789485056, 0.08627358707446248], [-0.3968223579904763, -0.4740484511908885, -0.532859682793228, 0.306367775777325], [-0.6396259335048028, -0.5962894111976415, 1.1419378632784811, 0.1295356952449268], [0.07701993289919001, 0.30825062731483077, -0.2841161616877683, -0.0699327204781788], [0.03988081996875132, 0.3210624563885048, -0.07930620498480007, 1.1081915712005568], [0.056626255263762554, 0.23333541117229295, 0.26130635078024333, -0.559003566313405], [0.15372048247481987, 0.35845713207247515, 0.05645577975172927, -0.6841673571962615], [-0.3450353273556904, 0.20660241465016665, 0.022322311956677693, 0.5332529095502582], [-0.3039636781896368, 0.33139754145773914, -0.7881968371025182, -0.8184154622436897], [0.10841420640437875, -0.38323435552479246, 0.22119792470487576, 0.5252001326363842]], [[0.2594891153058552, -0.08643172066467233, 0.1633349137659133, 0.21127078327728033, 0.0445407795394751, 0.026150103794711697, 0.0024152397307209586, -0.11895726256043405, -0.12689233062764307, 0.3279171577226352, 0.4319983429160607, 0.14039935448255111, -0.02479222831906281, 0.10561659270253367, 0.2125193411358067, 0.066094077443092, -0.40152236383586015, -0.026395398905782557, -0.4038453139501373, 0.2854805255184611, 0.09125924043172762, -0.07316239148399395, 0.2544623442866364, 0.26301528441578736, 0.37908049541724065, -0.20835331010140182, -0.09325668026024912, 0.27869045141019055, -0.05507682521333281, 0.274196257925583], [-0.1972219134021657, -0.04217307946385033, 0.11395522879151601, -0.03927189900042202, 0.3413431764227517, -0.011568037283159614, -0.11228596651149092, -0.16092749895230413, 0.1616048721364669, -0.0032120293731338657, -0.4291757934061179, -0.0568976461557944, 0.5149402681793309, -0.1383713608068492, 0.0547471948889788, 0.06637851011617471, 0.06222266346676272, 0.21636808936363094, 0.19297581870587935, 0.3268952469973904, -0.13451133578048793, -0.23188816924918945, 0.2836346661338162, -0.09473995054821242, -0.07484041061258924, -0.04898053504120795, -0.2913574337218417, -0.11336372077969062, 0.12486928146168248, 0.20804999846016162], [0.40633621135100595, -0.2019182774579415, -0.0794479221323346, 0.20133102180155435, -0.057532548606112975, -0.020686179163159173, 0.17211767709153877, 0.07046754516973285, 0.1345451840572626, 0.025399647416175123, -0.16805076683867634, 0.10576282281926795, 0.12497804070925214, -0.15750779143798865, 0.2914843948530316, -0.1751639891350644, -0.11394739166095103, 0.1617152424430794, 0.053531071456148396, -0.03491590856291101, -0.13971836720796685, -0.03325839272525955, -0.17230911454741737, 0.09189003329283744, 0.37622981483839657, 0.013426754140250984, 0.2574216491327613, 0.2243178997927991, 0.17355780297770754, 0.07152694325570498]]], "biases": [[[0.7647663740831767], [-1.0530231819273814], [-1.5649001955429818], [0.3975781593889069], [-0.2314799339798095], [1.1687296587747333], [0.41523953960863713], [0.08364320961061122], [-0.10778334437622542], [0.491521667137224], [0.9224474655905752], [0.7624707955266713], [0.7483447128980744], [0.2637671791101867], [-1.4759766075125278], [0.8328681887099832], [0.607354617989871], [1.4459622184915606], [-0.06004410407578163], [0.35668755115103307], [1.3248241553347606], [0.2845959448959679], [-0.8326872291514985], [-0.1418260755782082], [0.2951147853681367], [-0.522720701850928], [-1.3638398458411274], [0.9191573982599403], [0.27086557244727516], [0.24164818803281785]], [[-1.6160739772655113], [0.4998782522078684], [-0.3954442835215098]]], "cost": "QuadraticCost"}