{"sizes": [4, 30, 20, 3], "weights": [[[0.6098256066614908, 0.0735168819536227, 0.7120647514983869, -1.1375280897760827], [0.05226674275074693, 0.3374210037918367, 0.0016485718273456947, -1.0855328489630813], [0.8964088411207123, 0.06600124710656674, -1.1052727681934236, 0.529982625150539], [0.24679088052468093, 0.44821336038402143, -0.611323805030867, -0.015267123006276606], [0.6333509664456485, -0.6225847287541509, 0.08275735530958515, -0.44311784879472027], [-0.20050787118268878, 0.3536474286501266, -0.13892432563331492, 0.35659577171949697], [-1.0391737550955753, 0.47108506897604036, -0.03247190300260911, 0.2831644350039781], [0.008418137939814887, 0.1524874384166769, -0.07456081109915301, -0.17204926755414143], [0.13686425864528143, -0.41142573007407485, -0.04632398702069088, -0.6254867742597974], [-0.29087409786742957, -0.38916653578523575, 0.6354169459330714, 0.21976313398732267], [0.10916933830740959, 0.8009068919779084, -0.24333444812330468, 0.009794625896684716], [-0.6906165979236907, -0.5436300185274849, 0.2533004457918506, -0.2725875033140338], [-0.23013757628266415, 0.9236991042357936, 0.22172611531490127, -0.04152114324794094], [0.4452096827303474, -0.24535566612103243, 0.018617789137279135, 0.40299670828713385], [0.5047117016773675, -0.3180252954086353, -0.7027309212219705, 0.19450726097103413], [0.6600347584524673, 0.08098833157566232, -0.03800323364756307, 0.007230909998557809], [-0.08079529226075297, -0.21747784275386411, 0.0015809562995891086, -0.39425398139626183], [-0.1241860921781852, 0.2672782154336483, 0.31228653774249004, -0.30475272097201145], [0.24622566526993514, -0.7519804483576561, 0.03129246008283715, 1.0624993503250493], [-0.846120545382491, 0.39503620073591145, 0.48561461258220484, -0.3261053372653358], [0.45647712513649746, -0.1002811515258393, 0.020878547600852594, 0.6304294451184037], [-0.481782072648313, -0.2171167627844696, -0.3660975316746767, 0.049647528095097586], [-0.3922954218795584, 0.04620489728863246, 0.7944701927431146, 0.34283483720798563], [0.18623761487490764, 0.718563417946983, -0.3889430213485322, -0.7911593539867285], [-0.24464657034470466, -0.6028418888182488, -0.5145300360694463, 0.36014959365089855], [-0.059399549492298406, 0.2774850668768263, -0.39024582923563544, 0.25833125498109355], [0.2696556989030314, -0.09130274090671771, -0.20933540592082994, -0.39761467663261], [-1.3390172630454928, -0.8956032781166009, -0.3277845043720072, 1.007949254024097], [1.0977750032827474, -0.4123059769209175, 0.4935166007001077, 0.12897058106463205], [0.6457029606828617, 0.24334279317604232, 0.9847013921940821, -0.24894462563456235]], [[0.06176854320995783, -0.14514564308550174, -0.12067076382017274, 0.008708811339539378, -0.12230935182327896, -0.17021937520876226, -0.2377146256395532, -0.008973561412845985, 0.1689959760048776, 0.14634946768108045, -0.059145043503791905, 0.24664595745758547, 0.2183254596427084, 0.050039948431120196, -0.034985484597125416, -0.19883902566794034, 0.10367005269975639, 0.3312750778266629, 0.6813946586807692, -0.19222283643701343, 0.05173038670908694, -0.2448907994111912, -0.16982519815646016, 0.11613043144689941, -0.3017312120548865, -0.3045692562794711, 0.02367510222180376, 0.35732669989943755, -0.202338951757598, -0.0767015587326255], [-0.04385458413704456, -0.31997026558520825, -0.020347607902129434, 0.09042578801760809, 0.09077627542146585, 0.3254194402910896, -0.011335355449537598, 0.1413081841178622, 0.061267240013824366, 0.010252909977070275, -0.288351442524641, -0.52205771921512, -0.3367535859018534, -0.1276386044654869, -0.18929802890317302, 0.03845749097040416, -0.24734881208089216, -0.023376909455483676, 0.11120649780632835, -0.13293546944578083, -0.16815072731489494, -0.09554399202444898, 0.05153191621032547, 0.16949027935042155, -0.17447372524362814, -0.1521695334400098, 0.10081266014349409, -0.1883362549580865, 0.10788392636920195, -0.17677583726815643], [-0.3792482013231554, -0.21829255801304037, -0.20235524907720998, 0.13680571666093927, -0.2931540272577558, 0.04166417859167638, -0.2082806393775319, -0.2940821088363194, 0.08204610838174611, -0.06973746897789687, -0.16015886436783922, -0.029687084390257492, 0.11528175792942168, 0.06667321830693873, 0.3778222033017462, 0.2288448539212333, 0.37561381928918647, 0.2493283558943868, 0.278387319777056, -0.023955280230365476, -0.06138778469701154, 0.43444817458819707, 0.14198234969247184, -0.009921250050270902, 0.1747164413735031, -0.09086513988247197, -0.11313309105723243, 0.3863711554166108, 0.21052042959594428, 0.20044567884752293], [-0.1883274034445183, -0.17462556926676115, -0.02265178166002214, 0.043638173232647896, -0.04802257148523829, -0.00780773040908896, 0.1579066992734691, 0.10471922323743874, -0.11724547199902385, -0.17797883404793277, -0.23534738460655202, 0.03909619161008081, 0.06604026195761398, -0.10069985455589113, -0.23179267676792822, -0.03896777522986223, 0.053201345088959406, -0.059812361607988467, -0.17247018948960846, 0.1213920546179717, -0.12419395145066889, -0.07506199687410886, 0.05546347113629825, 0.018677432980691158, 0.3055186757134332, 0.13456546517834997, -0.1617595489870558, -0.2606372658458585, -0.13991644263407504, -0.155919472246596], [-0.18867071838783586, 0.13674163908902576, -0.18953567298868088, -0.07073795515678936, 0.10812885740595655, 0.3460728387537724, -0.1329072672596229, -0.007674346022183312, -0.10267446133563744, 0.043642583170079546, -0.2691883537165255, -0.11838642331874953, -0.11313677716320598, 0.22784477674409562, -0.26566273433670895, 0.16917906233471958, 0.07828964256094205, 0.002305063343342238, 0.04011654285872519, 0.08200571126769382, 0.19838002845477584, -0.037925849482472275, -0.030375825054708067, -0.1390224772694591, -0.056164137003077805, -0.042761521852079765, 0.17510489287704115, 0.004668777843086927, 0.19119401742313094, 0.09781532798740343], [0.046563495597112654, -0.04746592902654986, 0.23127922817078203, -0.030119109564205583, 0.16371824520944717, 0.04290024196898248, -0.3735684739115922, -0.4441155068188957, 0.11391668652166809, -0.12638506500857097, -0.12218848689433, -0.143994642956292, -0.26271036282815885, 0.025993720914031272, 0.192231778333379, 0.3332841678114197, 0.171310251017745, 0.0020275450997200182, -0.13669127550743648, -0.12341029439649978, -0.02316792693612827, 0.24363281279118595, -0.037947170648171165, -0.05476659298405197, 0.2723071697811812, -0.009124285921078631, 0.1388830468404773, -0.11545393341783591, -0.11899211363689237, -0.08725517124758414], [0.25198083618794676, -0.0800869888112835, -0.17281433433363524, -0.07927782815231334, 0.03059464129083641, -0.41037055091179503, 0.12802665074285594, 0.17983474567280508, -0.07785886690737277, 0.007339480641720113, -0.1088635534481161, 0.41143286364233267, -0.10557533913259876, 0.19357897425438456, -0.18245210672527076, -0.13586663173269523, 0.3755118061712294, -0.009991987379151785, 0.13808210640837035, 0.1905977678398917, 0.050493554964724484, 0.17900435071248239, -0.0353042416819943, 0.11424023553465093, 0.20061861712826057, 0.17548940785409298, -0.16199242963059077, -0.19965070037737784, 0.21125277213484622, 0.22359255915290957], [-0.06488478243004783, 0.08200649624823515, 0.2105256438307497, 0.15497198606369417, -0.07475169545408542, -0.1479198120562875, 0.12428641769968486, 0.03946161635075769, 0.2853999976692277, -0.48132749434770766, -0.2525372531406014, 0.12210719837651472, -0.1688529332444508, 0.16857713805295477, 0.2100556947393093, 0.1471190927347239, -0.008396711974975147, -0.2998089105504746, -0.0836831743063944, 0.03449473637827363, -0.4966065111927075, -0.26217457082783624, 0.09736091743095665, 0.05838856870980082, 0.23268900987199417, -0.0034872783580176575, 0.2153402564247688, -0.11970553940201344, 0.17843647055946554, -0.2776448869387842], [0.11778357023509566, -0.0891852349130698, 0.0390439442643266, -0.12928735093167085, -0.3188629457607585, 0.32151637989461085, 0.18200351578866894, 0.1802627022449077, 0.09558730111039068, -0.04865787430079826, -0.026120310185704678, -0.0979860137141814, 0.20603243199746282, -0.14648167869621714, -0.06185199540905004, 0.3383123749031319, -0.015799928468921524, -0.32648035721136387, 0.0855283391887065, 0.39284896051969603, -0.30825876116938533, -0.07992740644265359, -0.03879460500491522, -0.40679237352998543, 0.22629226894479004, -0.26701113842642, 0.09724411398799201, 0.13919357161092555, -0.29885917266286466, 0.17246828597875036], [-0.15766234000413787, -0.12313256986232209, 0.20201095740879824, -0.19777917395452882, -0.14120350001056167, 0.16149373217679616, 0.09634002042352141, 0.20810553475998889, -0.44054865243563573, 0.19468562523657515, 0.02705995568509762, -0.02824793827352218, -0.07589464961203057, 0.05815869209909682, 0.13189227597506695, 0.062164047196967956, 0.03063085118582362, -0.5857143925346225, -0.07367807644377149, 0.09518939817074906, -0.02629008735780998, -0.024108540644384693, 0.03821394769190098, -0.04257180346765081, -0.2418616461940166, -0.0879932939821999, -0.0034188359574039585, -0.03033452833672876, 0.2200084481508226, -0.34902675320775517], [0.046423198672956516, -0.01988066865996049, 0.5116515113536267, 0.410012055830696, 0.07844321885674227, 0.027191665832513423, -0.09338418115052118, -0.1010509869289063, -0.13562461620044228, -0.17484825861110068, -0.06327376256274991, 0.09739455625411012, -0.10702196391997677, 0.1687637333311221, 0.0646633272117336, -0.2601423311215489, -0.020595077972344344, 0.21379280678167578, 0.25916036490461386, 0.010582501554871938, 0.04464613604639862, -0.03009545401633725, -0.12983300251069183, -0.10087574054022437, -0.166920175446269, -0.1753403240516862, 0.1893368835222925, -0.1788488725006182, -0.13675883843591072, 0.0751473113800813], [-0.03939004026117862, -0.5127808006931712, 0.34702588463916345, 0.47195278531386464, -0.07380045771678938, 0.13347276854685244, -0.006398306209591288, 0.012962104728298883, 0.008903671310812687, 0.23209118821555363, 0.26224697783250467, 0.025717097472785836, -0.24750855658288418, 0.14732162915880007, 0.06315722247174822, -0.13511587821932325, -0.12647589622099634, -0.14397983934479477, -0.14668018757492363, 0.2936651599480103, -0.017745504088238218, 0.07380792509217655, -0.07267821968259854, 0.03251887324414143, 0.11692926425961375, -0.10666833626945119, 0.14091087699334695, 0.06063311343592311, 0.06772290401198627, -0.3707943185862492], [0.14942090380341413, -0.0662047273069301, 0.14718966876147496, 0.0007743621453218368, 0.031597184853300035, 0.2137979671376332, -0.222295968112661, 0.37778421272272383, -0.24588250912357495, -0.11990660776016976, -0.028407367260931172, -0.11129947453379123, 0.3900414587064446, 0.1610205053803078, 0.04202738486648417, 0.11245052637427137, -0.0688634818909988, 0.011397056306129692, 0.3543502128197868, -0.2393843353711995, 0.13653156996606902, 0.12412662171870986, -0.1475508084638584, 0.27108708381511787, -0.2838308611759834, -0.32216316722576605, -0.18269971471316615, -0.06558318822585849, 0.08588793483898438, 0.25804828757710635], [-0.021499417871757194, 0.06073244132834152, 0.1955774844226244, -0.06634096949514441, -0.08939533952227734, 0.2079568221818856, 0.3050729987508214, -0.2022125882413961, 0.24727028344418, 0.12315386931819444, 0.15637966154557617, 0.13775427616073305, 0.217837058417959, -0.12777672035042925, 0.08507164254286759, 0.31935416377545117, 0.15505257293746402, -0.29232022239136707, -0.33904319604394834, -0.054526706944551, 0.033386759762770286, 0.14007683377226102, -0.18324896517922953, 0.24142327368235478, 0.30927477490112487, 0.1230266332627035, 0.09052481788187443, 0.11365151713559382, -0.010515151570694247, 0.13690153337008584], [-0.025323111752808724, 0.2186956042654178, 0.2204792607665763, -0.1886639196547241, 0.08110078020901659, 0.12650333604045538, -0.2927947551592856, -0.16533515301633556, -0.09424935433282032, 0.1330559493936351, -0.026136859863730738, -0.2611072703730733, 0.43503567908269186, -0.019356561783293265, 0.0552457040337706, -0.12931297911012735, 0.24578563055900773, -0.0097195962685385, -0.032070504763902365, 0.043717764855728, 0.180025875379549, 0.07151927601201567, 0.03460542481344, 0.2594117616273694, 0.17143165890935905, -0.11039274489777291, -0.20091550447490558, 0.12481071214234099, 0.008245791151280196, 0.28421247574329056], [0.2391265364186265, -0.1030990794581706, -0.05251213746759857, -0.09375936413823278, 0.05427803104776326, 0.1556778422309252, -0.19189193453008252, -0.272462690224035, 0.04887517732291945, -0.2870546730857761, 0.0917554007727727, -0.2160092401509927, -0.2430834929774511, -0.09949093727702357, 0.27960455151572505, -0.2062210499725351, -0.2213344886608485, -0.31092153067406686, -0.31044378673943535, -0.02240915469483832, 0.22221956378456992, 0.32148452487081636, -0.08018229220946628, -0.1009452094567879, 0.009555352774287932, -0.15549213857246602, -0.1253384742640971, -0.33763083712838193, -0.1470350945318183, 0.02399965059871622], [-0.2826573032568617, -0.4444290465230689, -0.15112552700832735, 0.23646721899470952, -0.3336514555582482, -0.2720368079229411, 0.18355207405243734, -0.2531880846897051, 0.29498964801467975, -0.10050633197315312, 0.12064975649035158, -0.17808498784897106, 0.030425253886266875, -0.0941595468166671, 0.1015187305945426, -0.06159033598741882, 0.13307020168459935, 0.25416176608899904, -0.08145167598153719, -0.09287721331589403, -0.00459771099177342, 0.213858169260939, 0.2552268345006803, 0.3126429975604335, -0.24091414672752273, -0.0064431940642873916, 0.006874160865786319, 0.18822538996135488, 0.18290627951969135, -0.3186104930514485], [-0.14502383645169842, 0.05079053131717471, 0.22823252307006753, 0.18279965453699212, -0.14845569513356668, -0.09826178716860044, -0.1030007388870507, 0.10294238061332248, 0.1009750900616623, -0.318801312167267, 0.03903269475156873, 0.08155245012172743, 0.051158245499540476, -0.06330005863098401, -0.058564856968241125, 0.09349873811288234, -0.06367222531099893, 0.16150072399558593, -0.115649374741311, 0.2989749958005195, 0.0670181966955304, 0.19272271250728204, -0.18748771389061625, -0.007011007353358318, -0.0689290581015583, -0.02568162599403988, -0.1805998412185188, 0.11830841220349379, -0.3565043902570376, 0.002469935428993914], [-0.26384518130075174, -0.3110251834636485, 0.4298826021092261, -0.04928293882779359, 0.18900423151659318, 0.05516375777550772, 0.2452486144335341, 0.04761948674385263, -0.08985140386995101, 0.03477786757986365, -0.02274155587666264, -0.14189427986966527, 0.025803397765562505, 0.2607712911935092, -0.05386439021996923, -0.1827836539290064, -0.045188601047533375, -0.18141121240453778, 0.42611303906585984, 0.3300403775045778, -0.2139477353213714, -0.2571622300206264, -0.07902683551691586, -0.18480910117509908, 0.1946604134673904, -0.28756742198632174, -0.4294348396644681, 0.1344320884309618, 0.04234447368997886, 0.24249833339526702], [0.1436575640997319, -0.032856583603026936, 0.008087443880884837, 0.1654796484240608, 0.08487410916000898, 0.00049452141740186, -0.07658538309532402, 0.18911624030875993, 0.06878534385074375, 0.009616322682525021, -0.2100567651027279, 0.06066748525973018, -0.0759972586184367, 0.20419356652335804, -0.1209222781848717, 0.2268540720589633, -0.031064187127966297, -0.20855414582357917, -0.17763779966221405, 0.14452902765214035, 0.2181874937191217, 0.15939758505525609, 0.15854597266868947, -0.01965007541537636, 0.04599207439142699, 0.25748086734897263, 0.12708377340431048, 0.3699662431798577, -0.16271743546711478, -0.2150317384216808]], [[-0.28734425719474044, 0.1090394967289991, 0.021315156124302657, -0.17068728342383505, -0.015674200048588303, 0.19196548945117595, -0.3806866742370455, 0.2927655226200219, -0.30225064194960477, -0.31661270291037746, 0.2730746209255378, 0.23507330080046573, 0.0257641926819371, -0.29163428753900006, 0.32397960739295123, -0.13508583407769487, 0.19235246079120352, -0.37140419203976244, -0.11230428506973246, 0.23109964561687243], [0.21286081414248387, 0.22037261709879566, 0.1432249079624194, -0.2749971174567435, 0.4943518895816749, -0.3513600556290507, -0.06544808942595172, 0.04505829021123269, -0.17488635319849294, -0.25847983640342564, -0.20458956794633862, 0.22036794484484853, 0.07849139183243128, -0.06073063412633766, -0.04152208951394064, -0.23249929646939874, 0.14722533571054103, 0.34198952998789267, 0.21344272045077967, 0.3941740992579152], [0.12170287932279596, -0.024924046789662896, 0.42286472285081567, -0.06371435939788803, -0.15735258519412837, 0.11477185240457774, 0.1448974769568307, 0.029372543408007344, 0.30655061972868297, -0.22986085100575168, -0.2469014228166819, 0.44027848285634763, 0.12050384107743849, 0.2552453407438685, 0.32333099048755815, -0.1796842376543467, -0.0003529644748958102, 0.1849760826453968, 0.06154647280056442, 0.6705212674473267]]], "biases": [[[-0.12931473888687534], [-1.9227306511085418], [0.9522821409317284], [-1.428948779326223], [1.139223841631849], [0.5944798088497271], [1.4059596724450756], [0.18257224546810405], [0.9537905815187958], [-0.5265505930984562], [-0.02034897779945888], [-1.5476436912550413], [-0.5651086199516538], [0.9020152409629723], [-1.6881218339103257], [0.7793186719379903], [1.0104695145011018], [3.0470405663794113], [1.4049856933627392], [0.17561276130660478], [0.99303039526954], [0.14146511769780404], [0.06411836282094369], [0.733880217530445], [0.7497125311368162], [0.36536262425173327], [1.9245382935879976], [-1.9577530185619136], [0.2501244383455275], [-0.8259866018398156]], [[0.08248986097012583], [0.45357657695564113], [-0.06410870249486181], [1.947618247441125], [-1.84596568546722], [-0.2782589342940979], [-0.374351445569459], [-1.1871101867181215], [-0.46408306457730036], [2.291919938893743], [-1.1553578401803133], [1.9677437656985113], [0.7888613665119794], [0.10775581675643504], [1.2377997555983278], [0.17567577873771603], [-0.9042770170095485], [-1.532992964837592], [-0.6774143743658813], [-0.6645469881454252]], [[0.7847142848050848], [0.5923402172307908], [-0.8544346612913067]]], "cost": "QuadraticCost"}