{"sizes": [4, 30, 3], "weights": [[[0.45093457928632885, -0.7270260921117828, 0.2961551233316755, -0.6648721923558668], [0.38706727196294805, -1.0288219607086508, 0.16826810869833747, 0.031231332034022164], [0.12222530778987223, -0.12109224297566508, 0.29294826323686185, -0.6942885808284917], [-0.24281876738764357, 0.7881661233541453, -0.2700658505770783, 0.33000465441278665], [-0.46610479390805887, 0.5019946945453708, 1.0237962772106628, 0.4066452626224561], [-0.06556533826491705, -0.36677271519809235, 0.05632689882952511, -0.40358359188462345], [0.21851421983737782, 0.22993052658632773, -0.5612720637226061, -0.9697229920077436], [0.12690781667815892, -0.7582204423442315, 0.3514113703806122, -0.45967257387554106], [0.1841645994314365, -0.006333121772387936, -0.0694606180813426, 0.24016371847728876], [0.975091446892705, -0.40315404101123825, 0.5591611657270593, 0.025562033416858868], [0.47290701803349533, 0.4472783280104886, -0.05406987374555952, 1.5706446750460683], [0.4274388438885541, 0.01307278261887381, -0.2222057058821111, -0.28376384551075906], [-0.12026611526517934, -0.4358790794070972, -0.1070532934777, -0.0346445684088157], [0.13709953717979897, -0.33711186932578213, 0.0659426574339969, 0.26845166067683934], [-0.680771340480593, 0.08570604153284536, 0.39681338900928553, -1.1865958586184278], [0.5762620965572787, -0.5793446139632994, -0.6990089510625772, -0.8482197377060848], [-0.47897330143150535, -0.3125513449999118, -0.20499873586538211, 0.36550631453826976], [0.2489743731563408, 0.4903344261339084, 0.505064329530443, -0.42777286140995313], [0.08686805316306072, -1.1016525812667088, -0.08186846105098688, -0.5110461475195145], [0.29667753720486234, 0.7951980722409169, -0.02942753326571389, 0.4224127877689364], [0.1631800043707119, -0.4323111635475071, -0.9535652260765518, -0.37424073487203724], [0.04134508311519755, 0.2742834293197403, -0.5386250480030174, -0.16283916505746424], [0.6784694350061405, -1.3482464891171206, 1.0816327545613935, -0.7923931898334986], [-0.28957391804000876, 0.5545286571992765, -0.4990711422348189, -0.29606236205771497], [-0.9128148371137157, 0.3208469641452185, -0.9742760306348062, -0.23214237988410508], [-0.2899683637374271, 0.4773919470168688, 0.9734494606117403, 0.01673044715195968], [-0.08255920163348816, -0.322844160916207, -0.06767601088920056, -0.48402000620773344], [0.2732440270554471, -0.012641192865012883, 0.5911703042779636, 0.4048622553260712], [-0.19615736441704748, 0.5812764777128805, -0.29499137056282565, 0.34163643173152897], [0.2752184271722678, 0.0405474418583349, -0.4378247499665612, -0.7564398258481388]], [[0.22848603099793804, -0.036041185465245464, -0.15921441918256624, -0.09216502719179447, 0.03847449976379627, -0.21877061182927546, 0.08266027618394589, -0.433154291675698, 0.42723358825435376, -0.1567207884873477, 0.003466888712024686, 0.009409660384212435, -0.057023684666821256, -0.06988238126367097, -0.34559414276409334, 0.1501357654234509, -0.03738667752468398, 0.23536357359067792, 0.047964620522221696, -0.09598246660269066, 2.2782221731529323e-05, -0.3426455811336045, -0.17403187309428628, -0.06656849854559534, 0.05930790398074794, 0.22232373500278105, -0.18514025206057497, 0.10997497648987266, -0.07441535805013522, 0.4344266026433568], [-0.04085550394007244, -0.06053460229888316, -0.15944194081308688, 0.29581212871564955, -0.03692416098460946, -0.11772149778332626, -0.060067741379410906, 0.1678451872595765, 0.14788227736053905, 0.3422347960057176, 0.04465087132276942, -0.08973617756905512, -0.06569497312634325, 0.04224386554747706, -0.17483607424952988, -0.1829402826015561, 0.14023874379094542, 0.04526174306281625, 0.17838972869886333, -0.22594062665226858, -0.23608312575809726, -0.06661245317756134, 0.39201793533797197, 0.2849743564788566, 0.25627269444902284, 0.10006217814637554, -0.4575504829714033, 0.15180563417689172, 0.10079930570405092, -0.14551058451005966], [0.1198020794929193, -0.12819882728846344, -0.2894572223214566, 0.1651002836666798, -0.017723179833475978, -0.04347351106163482, -0.1997589502393212, 0.24537816752200228, 0.3135721834574173, 0.16129588695290975, -0.17132677672530164, 0.10960655503204768, -0.16097079729645952, 0.24014570124235185, -0.04036483725095771, 0.12103207783592011, -0.2300682660135344, 0.26900446349224627, -0.02921717128721932, -0.1470512703773541, 0.11334196543176486, 0.563576436577545, -0.1093317837306646, -0.10873247054682161, 0.14411974068072103, -0.06518075857277127, -0.12588569610018305, 0.3493853225393185, 0.2360210572620702, 0.020562698202774794]]], "biases": [[[-1.1654329774610046], [0.09116182806394398], [-1.2398451750161215], [0.9840585429461606], [-0.8823170853375796], [-0.5392315494016156], [-1.4215513225583982], [-2.3973108835188253], [0.6905025244189354], [-0.9143018031437636], [0.9338442939336777], [-0.06696761735919354], [-0.28409473305400906], [-0.8487378243753793], [-0.09471085822048764], [-0.3397692694786566], [1.2734345581795539], [0.5672752865166026], [-1.50266031667011], [1.231918660272027], [1.3974108838971637], [0.9194258098535809], [0.474375428359603], [0.7909595536410046], [0.23886009659179883], [-1.1675490388857617], [0.06948081292558782], [1.0643084353703132], [-0.9707513099317427], [-0.8592920633686211]], [[0.47995251974514924], [0.12635707161865425], [0.147619839341589]]], "cost": "QuadraticCost"}