{"sizes": [4, 30, 20, 3], "weights": [[[0.7661627059714802, 0.15774940335533075, 0.1105670194786507, -0.4178850323965488], [0.1114708555571587, 0.0957784380157786, -0.20869378157743715, -0.08608804336512389], [-0.7748394788674889, 0.1799485526331775, -0.6656830423555183, 0.7696789174483274], [0.2682903925434591, 0.10538421560182919, -0.03716371423264903, 0.7040439687692532], [-0.692231222636925, -0.4710320178218336, -0.2739775013531853, 0.14994531352120813], [-1.172024264793298, 0.36668000373833853, 0.3415878049760577, 0.38487304445373466], [1.0616103150542313, -0.30137465696092763, 0.5530207183729821, -0.31878905912664024], [0.13256260160490635, -0.36226803085767023, 0.08964629532909915, -0.38389139300856256], [0.11307063352999187, -0.8301799656812178, 0.5632673311499737, 0.8333961667567209], [-0.10081786625354436, -0.17002252835096765, 0.1466318991612516, -0.35734976266138546], [0.5344868183655482, -0.3450055308300313, 0.19130326081754542, 0.1257371073547828], [0.11845633794156804, -0.12418236655830417, -0.411014442268535, -0.00621953779169569], [-0.28604774479961464, -0.25514840578398823, 0.051290819271722604, 0.06965378501932001], [0.6949444704776699, -0.26695596309738107, 0.2369913490655471, -0.42921903566433656], [0.6986398904427973, -0.2980695137717922, 0.5332492839936482, -0.39602322762579467], [-0.7978737562379106, 0.0006247270383591348, 0.05899924944634586, -0.09024328779318584], [0.1980954661631951, 0.23324767555325082, -0.2763676606542496, 0.3888758227800351], [-0.1925791332005886, -0.4037646929226721, 0.8480705596900695, 0.15843076306884385], [-0.1457715810787914, 0.37599612227068674, 0.1337752618963894, 1.3161878005383474], [0.29803210247196327, -0.8762628122422572, 0.049698356688251455, -0.5099434287832528], [0.32373398993686403, 1.053983128278804, -0.05263754228791796, -0.4258288575592027], [0.5546714297906208, 0.447606603398515, -0.23335030855670347, -0.5850876626274647], [0.825590572017885, 0.7883447550047217, -0.6475331577338979, 0.30067519661130904], [-0.12710577905182566, 0.155910579972201, -0.2938444410300817, 0.403808715231294], [-0.6856689535248187, -0.15461075718889172, -0.3838281020999914, -0.5095793831147796], [0.10263993713298196, 0.0977941665262515, 0.06696164540735268, -0.938052766139709], [-0.5095391487814547, -0.164535495110599, -0.10851747536358751, 0.33215487705260344], [0.6996572547701988, -0.5665012062790964, -0.058137923866740875, 0.30484969260940364], [-0.1679094037969759, -0.385737348736375, -0.3512389218495079, -0.22330480471714706], [0.31090103236960537, 0.4377696723643897, 0.13488529510705205, 1.0843539593313156]], [[-0.2746739507479565, -0.017368178718302395, 0.16704793378872265, -0.028969599749867524, -0.14680083068246377, -0.07526247993246535, -0.24400884544105755, 0.023884973673463025, -0.0748389641018326, -0.1152948739891292, 0.163402369109146, -0.03200615286020063, 0.07784446394434864, 0.18589029930593873, -0.06571627731807402, -0.23762441969092113, 0.27128314507099605, -0.19043209973883574, 0.01276766648831721, 0.08022088042709324, -0.3103971038795359, -0.18840871251037222, -0.06755547251277368, -0.03919019900901604, 0.07538993245655061, -0.2863644827695965, 0.3551389569529806, 0.13576903037089105, 0.060535280263039754, 0.12137755816528537], [-0.13357165748551572, 0.1089061792903525, 0.03898019199190934, 0.13494339362530403, 0.14611276521615343, -0.043098213121991205, -0.036439684539240146, 0.12131362643536658, 0.3626169268271589, -0.07683693116093736, -0.22172145836827664, -0.02139728024365892, -0.04465971466660239, -0.23723723663610302, 0.000588379818193889, -0.11741673508726361, 0.11463023793294796, -0.08436388615438326, 0.0723965079379358, -0.08716143766084289, -0.05962397385548195, 0.07189832451655642, -0.04255790731702881, 0.30567603893502576, 0.1907771641718037, -0.16172717225045666, 0.1552862168164553, 0.023882737131401963, -0.04061734809529641, 0.0958393200666248], [0.19785614988746675, -0.0011238771557358198, 0.07740218505068981, -0.17501296634668387, 0.06232624063292597, 0.14589453947549733, 0.1543581747666044, 0.07399540139476472, -0.01470539686047804, -0.13541450262991914, -0.14060692657551063, 0.09073025522346109, 0.14514303058419473, -0.026265014860639372, 0.11476902246552037, 0.10678453591113214, 0.09832321583823157, 0.09464122012596851, -0.1482721666943711, 0.008766629522409992, -0.06183171010795481, -0.11454538287659584, 0.14628046229590938, -0.11311695271432519, 0.205499206717162, -0.1056240267128068, 0.1358648576118115, -0.18270895311133079, 0.05796138851497734, 0.2538020523104331], [0.11691064052385997, -0.12622394255286704, 0.23320576803828008, -0.03988033742688158, 0.05531076712648851, -0.25228416533981357, -0.2489665898641035, 0.2676531216528478, 0.13524628042762704, 0.1830766343324777, -0.07147603216294146, -0.09637158272311362, -0.025870773412953192, 0.08543372508844024, -0.12633297886825065, -0.13205747854248537, -0.0467318995342063, 0.16860199402449663, 0.10846697437987982, -0.005035994792717607, -0.2603554891749725, -0.0562735988968619, 0.03196655685539826, 0.259951650972617, -0.3134914598374688, 0.30893175994203675, -0.10135876340671861, -0.2525284152390935, -0.002189083702542448, 0.05419838894318332], [0.013325661949367625, 0.172978356309094, -0.25746330551689645, 0.008926815912468704, 0.3825875303523563, -0.022897138898031348, -0.03805226817537212, -0.1718441446843614, -0.33495628503178415, -0.07659221092289831, 0.04575086677112129, -0.08238397545889353, 0.27308160146288174, -0.010088289901403123, 0.148520677296864, -0.08514631091506163, -0.17992216245766254, -0.28887463413238995, 0.1886177417622245, -0.058903601889195446, 0.034037763293325675, -0.2666959555463916, 0.10047861161988356, 0.09555278483598428, 0.2007750483002182, 0.1897764813983386, -0.2556467521860207, 0.1375350933727749, -0.1829613080548976, -0.24797868115175214], [-0.3124922341436287, 0.023474742652811173, 0.0668361803714846, 0.18978148639477815, -0.22235599648230753, 0.07262542567983081, 0.13638330317433647, 0.09805624552409677, 0.043285305610719416, 0.05324313667391261, 0.029245451577622476, 0.08639613445863761, -0.09820691139717576, -0.2874850354995734, 0.0018940331102425916, 0.028614947265351274, 0.23664162446462164, 0.1647228750950324, -0.13006292939118286, -0.04522648172048479, 0.1576391263229671, 0.060536203182024906, 0.33553666384370434, -0.34499989863916797, 0.01555046863991001, -0.22468796892268392, 0.1179392081616939, 0.051794110839388105, -0.0943317163273188, 0.36382470266423267], [0.15287598176202505, 0.26641190139190235, -0.18293095397120307, -0.09315192086784783, 0.11451465781635597, 0.02849144721261299, -0.004925475303206106, -0.09229939243319017, -0.04471945197580034, -0.1866745459321284, -0.09834572737007781, -0.09810115034775131, -0.08375249020522442, -0.14152266234648547, -0.17814209590249444, 0.057685837783725796, -0.10423351304788894, 0.13946350392320483, 0.20383499452937437, 0.020730661913756068, 0.12587683817984044, 0.3293297381663874, -0.13312881953694006, 0.2867725014762876, -0.273279145368615, 0.10411808825291315, -0.07428171625140677, 0.22108924291178705, -0.122747970239107, 0.29408935855471513], [-0.12612857330759272, 0.016527051127954207, -0.14727413506896997, 0.035651688321256064, -0.033474916487039395, 0.22439043975364606, 0.0838967500530748, 0.24883433346387404, 0.6943747005901404, -0.12090089164301754, -0.18455711109618897, -0.1256018631932885, -0.07653777351494225, 0.19910332686660942, 0.14540039540329017, -0.37643087897585875, 0.03294105738425864, 0.12423085259827259, -0.08465283252417528, -0.2702278506413913, 0.4676484969078746, -0.17689495811709915, 0.18219538055403023, -0.14068767544896207, -0.2386143550475436, -0.19167801307387836, 0.05880478017856344, 0.24307726151225267, 0.08978922029961942, 0.015006933525562392], [0.06362124921588688, 0.37934223220650043, 0.13774316830184538, -0.22489774384075686, -0.32976513079004505, 0.31925847095317633, -0.11907720269509882, 0.02997922458346834, -0.21524427973445528, -0.067716433693889, 0.12452436643137262, 0.04832974608379176, 0.02791657181099556, 0.05960578625439099, 0.001342228116056736, -0.13257254294351228, 0.09563842110879116, -0.14587264642480477, 0.2890382750532882, 0.00042986402989357944, 0.42429546308129995, 0.27602367787085363, -0.18774705138406156, 0.313085929005189, 0.055023020328439406, -0.06476051880804204, -0.40775973430290907, 0.08253296500001754, -0.21940716313606895, 0.09561418664735896], [0.18216630025696184, 0.33236902750998737, -0.0848541679286683, -0.14166065879382164, -0.5166512540576065, 0.18713556122226316, 0.3275871608875243, 0.1292623550182212, -0.06443403585064261, -0.22683694041122357, -0.24063559767878032, -0.11595086110802431, 0.20717028229074924, 0.1841607914104245, -0.13117719875895423, 0.2291443024626519, 0.27834746582596426, 0.25986123381885645, 0.16217184432714224, 0.30902833539102725, 0.08818372404893282, 0.1970566525266462, -0.12552853886999282, -0.02903367524154508, -0.0751685986502982, 0.2275042063030399, -0.0032977066520687775, 0.13728079925854228, 0.38217516182254235, -0.14407374127474565], [0.365135406110477, 0.015029093339521444, 0.4486696284957691, 0.3772176174062137, 0.0004156642466251828, 0.2612297993287008, -0.10147883428627849, -0.02134060655633558, 0.03209757104750802, 0.2220439922986687, -0.09569435081984373, 0.1894246240970614, -0.09176655953603706, -0.20521341348128372, -0.21653956978126432, -0.1387476137811558, -0.19894928369464598, -0.04084869548654067, 0.035856396226337565, 0.016512218919559077, 0.026848103365813877, 0.2377125279580757, 0.029702859189226473, -0.014273855776833634, -0.11065941728561922, -0.0644256901463885, 0.3730706244569194, 0.13427954118317056, 0.3002192402836527, 0.037537813510685816], [-0.13170756475424034, 0.16947139911910478, 0.03405337538911571, -0.2375606071280615, 0.18731243258120253, 0.20927689710242392, -0.1714498181814742, -0.04379878224946086, 0.127058327777875, 0.14235038622629476, 0.11102173484363177, -0.21406475295433222, -0.08032835657634892, -0.31447089715764664, 0.2273252400281787, -0.11649551478062944, -0.1496954318302788, 0.074658232939109, -0.23629437607750273, 0.10233740004812562, -0.0999549088070449, 0.2360771774005348, -0.24415087897471083, 0.024839548028878368, 0.07978972725015342, -0.11352183839092389, -0.028242133706414208, 0.30104187208172367, 0.13650149044672683, 0.11828394464739048], [-0.18201545955728524, -0.29242629230562167, -0.09661647299796425, -0.1435794513027918, 0.05910165851770578, 0.16096329370733023, -0.16719511907013182, 0.1802158094318842, -0.08580883095704347, 0.23274473936309883, 0.07350361313466774, -0.2321596082241199, 0.1183538166696252, 0.11040102804263144, -0.15585018409974066, 0.18838166777062115, -0.0643014827082979, 0.04793775777777007, -0.21049705038448427, -0.0066432083552161285, -0.28707665723141623, -0.19884833125499166, 0.19346509515489643, 0.09605421918258375, 0.25154281422338404, -0.11382978110956975, -0.024737182233654766, -0.17990751972729385, 0.15244420005413123, 0.11317697227894061], [-0.21234225615512187, -0.16500356633420726, 0.12412640077564181, -0.23873639554859735, 0.08464259873244465, -0.05413868710797636, 0.30627561462159714, 0.21431449159361407, 0.04833010956297368, -0.20196253573210068, 0.17040209187754743, -0.006662948765632086, -0.29877794398133756, 0.07487133897642269, -0.19361093247972236, -0.1301114871987477, -0.15429409526642887, 0.00676107080976895, 0.10483006093707753, 0.07795895743666975, 0.09974796020183385, -0.15340211602626083, 0.10774353097514405, -0.010777475214866399, 0.21219191127861278, -0.01603574932178235, 0.320222243944435, 0.07135711727215763, 0.06486162752183748, 0.05364565033695964], [-0.14689539423082343, -0.10972495612059142, -0.05805529087952252, -0.16031982609084366, -0.12794136460838706, 0.020713379475635285, 0.24325978452383304, -0.3007904303489668, 0.127393319155352, 0.45108463736457455, -0.12647312601409877, -0.020147021313341656, -0.032818348128314155, 0.09316436216825144, 0.09185717705497366, 0.07430152048851094, -0.04483132848944715, 0.012907805453014228, -0.34883434836600274, 0.26832163806436543, -0.21273925938040497, -0.21953765456556038, 0.05608024319034477, -0.13534560716255628, -0.34948479801685994, -0.027916667348998777, -0.25538949007338196, 0.03477396922697571, -0.2632388968048342, 0.17722523488092], [0.14028583437111425, -0.1395284807510097, -0.15159127208291634, -0.04357343815071494, 0.04794473686247658, -0.03821053169971706, 0.25581438601522916, -0.17206057499587826, 0.03893092496837919, 0.18804515010536615, 0.25880968167698454, -0.3292522263806129, 0.277286150378521, -0.11492795537597407, 0.004422371645257155, -0.21437309403394383, -0.05247298967936325, 0.09332970515078445, 0.07914121146194267, 0.09455235360802285, 0.32225158592615233, -0.05222130781247455, 0.12076094154289393, 0.3462786522091898, -0.08922930550841526, -0.16323552024130566, 0.1014439622253649, -0.22258885753393648, 0.004010657717004279, 0.40077525546722076], [-0.16754045309603904, -0.14526247716833354, -0.38090657174287357, -0.22494183196527023, -0.11409276431464449, -0.0788432368345048, -0.056667603897402025, -0.15898174499122428, -0.22990338589497114, 0.3308747878524437, -0.03079952416441412, -0.15219711355049922, 0.33241003392170376, 0.11502672357342182, 0.18134684533365988, 0.15784535459628748, -0.2889292541434786, 0.13741594372222032, -0.009277040243179322, -0.18761784148970848, 0.09948895664204045, -0.1216539155054738, 0.15052520798155994, 0.10187144127035364, -0.06377892335395714, 0.017060349657122234, -0.08909107944582746, -0.04933425437165721, 0.36522791441913466, -0.020194824281764574], [-0.19698692149065455, -0.15461826087897465, -0.24066683529010371, 0.12060736541355699, 0.3347371863320689, 0.0553527536764556, 0.019726370569307112, -0.07837532701845644, -0.17460136397268597, 0.10674999564907992, 0.13022382974744776, -0.23503520585638, -0.00561467210625654, -0.07338987273115556, -0.10804440027230477, 0.11868234879140825, 0.058510951868996325, 0.26562324127359876, -0.1020762763951076, -0.4612617153316144, -0.17606971341976585, 0.27724790134630856, 0.10574752319203891, -0.2962839592788516, 0.011102727914062282, -0.04047001835830648, -0.3693646065123142, 0.23766992044895258, -0.18932587605633494, 0.03243257530187213], [0.020034066015826517, 0.4302142422373636, -0.011289805247966992, 0.05350809523112922, 0.29184540646407947, 0.32666397020702104, -0.16095571172222306, -0.014548020151997148, 0.10367295016126285, -0.008809684327415412, -0.006264588020903307, 0.08930700747440733, -0.19710736970148898, -0.1388637195104979, -0.10330787292600878, -0.04681561290490866, 0.15762002366521913, -0.08278029253949569, -0.3691557301642387, -0.4826347202095207, 0.2523324191070073, -0.13259197751464755, -0.17335349093267566, 0.12542947381993463, 0.2702610292123442, -0.15421346718747966, 0.08212209723564286, -0.0990958050218025, -0.04915517051958463, 0.034587776359089745], [-0.058318657148859046, -0.12633444655678994, -0.21192731542083193, -0.025699845048912578, 0.09151252219178574, -0.044169075176470354, 0.07343378520878283, -0.35326958934530994, 0.03769461581633937, -0.12589326543104895, -0.0019198274421477707, 0.08389871631130871, 0.08849557962616497, -0.3311623676591938, -0.05889708290403225, 0.07722637424330846, -0.5217258060902082, 0.30752124842535694, -0.4632100760957309, 0.15037806874944856, -0.08299270306721801, 0.11230258705457526, 0.6556159459388858, 0.2622900066690534, 0.08235004983213251, 0.24848846288255066, 0.011441770302227329, -0.009023070095667832, -0.03681008806127894, 0.13141705806003304]], [[0.17250931060702124, -0.04394546414856582, -0.052787399856097025, 0.2649182073327657, 0.1059805119690667, 0.15835301173435845, 0.1230687382185306, -0.27944005453802123, 0.0835531914331019, 0.09244553911423288, 0.1394674458794183, -0.08081465099817918, -0.31694866635617264, 0.1884600694829802, 0.06517053937251477, 0.24743186602903838, -0.05453715681689972, 0.26026178536909533, 0.01881449260794095, 0.20429295687233387], [0.07674698787170851, -0.05670056658477925, 0.24741762056318986, -0.02084739744662942, -0.04920287409529393, -0.3883691238658285, -0.3166527670554248, 0.055394428282022054, -0.21684396023900873, -0.3794402604127455, 0.005084232705086668, 0.09914483293005981, -0.016208826026688907, -0.5981758202182152, 0.09039978406787763, 0.06856927060282647, -0.4116590370373178, -0.21178728815431508, -0.17828899072022264, -0.21904969342085773], [0.10093224565838325, -0.2675191698387645, 0.01894236388366815, -0.19760780763342628, -0.21089543916609638, 0.009643091439515465, -0.20114462837440036, 0.04119136262199742, -0.27495437742696693, 0.12685318514735036, -0.27962117377974, -0.02182294984290941, 0.5496232531526497, 0.028516915764036255, -0.09772053332812662, -0.5052488121089977, 0.08504371285453316, 0.003116294263148032, 0.18483887149179937, -0.026961435938744335]]], "biases": [[[-1.8404351408732018], [2.419914684022139], [0.08789872979796008], [-1.72406861358388], [-1.4284520824035576], [0.7260765258585805], [0.3324440650992144], [-0.9338841867586124], [1.2230768443020432], [0.10884210095813927], [-0.2903495522428829], [-0.16567861302058412], [-0.6351389393157252], [-0.6503181398989725], [-0.053855598193912294], [-2.1664811675635356], [-0.4731496231511706], [-0.2941106446122924], [-0.8065935806841226], [-1.2530317383033927], [-1.1813024783734543], [-0.12846693707933488], [1.219710366698136], [0.021238673757634403], [0.9074113793849479], [0.6015500808994984], [1.3704492936539703], [0.19924833242501108], [-0.8494825834885422], [1.7860354773316207]], [[-2.069872446310101], [0.4192015126841099], [-1.0714498721482861], [-0.07460894523288636], [0.5014410853331341], [0.5604151646464257], [0.5003923215294965], [1.433619973984169], [-0.8302942191257516], [0.25879003375415643], [0.2603635605977439], [0.170785195006533], [-0.27379069710234494], [-1.6369110668644031], [-0.1659271146000814], [-0.8684892297095033], [-2.436829522758402], [0.2458703811846686], [0.731011417562427], [0.12990940852594252]], [[0.5233727503448729], [-0.01764914933572225], [-0.4015248485448336]]], "cost": "QuadraticCost"}