{"sizes": [4, 30, 3], "weights": [[[0.5060475510427347, 0.21922107827409734, -0.6120247306010949, 0.2540396146486496], [-0.7153731972974601, 0.35104653076479725, -0.009726918612377554, -0.8103356839677982], [0.1716486600259277, 0.08908787977361106, -0.17261716291282686, -0.4968555722986934], [0.37703587498362406, 0.6803784390197588, 0.6187707433068896, -0.18360957100609035], [-0.3097312244045289, -0.2660575220724685, -0.314427764380208, 0.3339010982235368], [0.8168254468745486, -0.451421220068881, -0.9952900259833095, 0.696685609150976], [-0.06492813651578744, 0.43588623823229494, -0.1173127951125972, 0.6607069117982944], [0.44414580608835214, -0.8997656041594898, 0.5946928254793882, -0.43553001746535763], [0.5490564404317727, 0.03039014105287566, -0.3377277489071048, 0.6212378346977766], [-0.009702929697332647, -0.12701492889521102, 0.06947953608415351, 0.44478982076409757], [-0.14526146888407857, 0.8199991971587967, -0.015143155652101588, 0.1700819120716942], [-0.09697644266950996, 0.18216638778020489, -0.11556782275150904, 0.7401811882215625], [-0.4438430045539758, 0.5580245337674216, 0.631171904556717, -0.00025855081896433593], [-0.11390479905112089, 0.2266575903128193, -1.0763281278231414, 0.7112998192065869], [-0.2874936725230986, 0.025605302154460986, -0.35574319704894336, 0.3137260300034629], [-0.8811148480490133, 0.4341930182425882, 0.01789524270042982, 0.22227199448990573], [-0.02155817628253752, -0.5345847985393734, -0.5980794860033568, -0.06222851231852725], [1.0494598488324063, 0.6119131509033313, -0.5174995047218767, -0.3331218140515643], [0.562048494130744, 1.1131852465015564, 0.26534781967135335, 0.16773556807671972], [-0.11468598710590508, 0.5038752440454621, 0.13182433219009124, 0.3917078580432346], [0.3856973346319574, -0.21380500454706472, 0.10518332188281843, 0.22487706511712047], [0.515919510009648, -0.27691285243714225, 0.17545953113082316, -0.5142755764391201], [0.05578198821618311, 0.08892511251727327, 0.25039836651219244, -0.7466154991449196], [0.2589493251913662, -0.6893782507391257, -0.6594225539590194, 0.1555409833317152], [-0.5297394733321686, 1.6471649554547885, 0.3393401728334095, 0.04931277841184033], [-0.11301312053203244, -0.800732791710965, -0.5022276009619432, 0.6107056387517943], [0.15390990687695164, 0.4452968895659279, 0.027181261375115114, -0.10627583670788164], [0.03364725516082112, -0.037248453754198364, -0.46128971553391296, 0.5100125616823885], [0.8304602608953568, 0.3792436784884654, 0.7262636220274604, 0.30698998688492546], [-0.30838663665566735, 0.2599940394589576, -0.2718696892929272, -0.26075851234122494]], [[-0.0636325961292147, -0.00012613214892193874, 0.3657173085594421, -0.015428021659102823, 0.00648956001853166, 0.062026291147796744, 0.5873942824747034, 0.04689577779930262, -0.03105451879016277, 0.001926963389811138, -0.02759103507558827, 0.04090936069052929, 0.018263447761635965, 0.07259333333613308, 0.11046873381506402, 0.09942925070065475, -0.06690746166647045, 0.12716115329855754, -0.04872151434398781, 0.02161298047613701, 0.04416410537493378, -0.052018023360277325, -0.0206464272912168, 0.08439392900319063, 0.38603758314734044, 0.09187447273338704, 0.17255540413885453, -0.10552232738469572, 0.45246189530976627, -0.017050760774460008], [0.24882582028909425, -0.15172187932467582, 0.040384534600314034, 0.15501492870874517, -0.04861391446178743, 0.06962388728615186, 0.10079619180409242, -0.04070295106962516, 0.2874301071537255, -0.13631816925702667, -0.05860991749441981, 0.0850329178631657, 0.11399815718660898, 0.22443513776442628, -0.020148014429937102, -0.18487216627872596, 0.2960193667167469, -0.1509187624707362, -0.1625942843119213, 0.2827031004761549, 0.29854535156531037, 0.20232578201649032, -0.0304533525630332, 0.2563499339425342, 0.053485721099551756, 0.01970154426400436, -0.20195703570385762, 0.04825546682483815, 0.08253653898511741, -0.15100415412699675], [0.17633060799872377, 0.3250006462168928, -0.13023703898967365, 0.23505912689683459, -0.2955448769528348, -0.3167430359562305, -0.2807447539675546, 0.07702812746529786, 0.013597676711738112, 0.16343745825944864, -0.10389554335673462, -0.09609517450289319, -0.0748811433291725, 0.09626793905862886, 0.016146224119481002, -0.07246175951753997, 0.36726660486161633, -0.1941793823869431, 0.2283431690192702, 0.17925469026447388, -0.1331971478173739, 0.2199244276678596, 0.05365906129776903, -0.3399099460057931, 0.3439498937010946, -0.05035486140289417, 0.0827654512497271, -0.0275251599860049, 0.10002951124668648, 0.052094437953607485]]], "biases": [[[0.4747461301547431], [-0.673475716828505], [1.0433356134767058], [-0.9082505448559131], [1.8760920645690082], [2.2296051485169586], [-0.12935191326159556], [-0.4659821566935724], [0.2537252204506173], [-1.904716525401812], [-1.1465268263076882], [0.36765184276745305], [2.5161762955698777], [1.0260337956484695], [0.2138520641085354], [-0.8230900104117882], [-0.13845947442444578], [-1.684066503284417], [-1.5484466817177522], [-0.6595562509360727], [0.07011217170731052], [-0.24865786278181715], [-0.04080606595185354], [-0.9078246365066596], [1.260704106805859], [-1.5402889364742387], [-1.787141311722711], [0.47070954604129883], [-1.2152195148758127], [1.3236984640216842]], [[-0.9690678840202458], [-0.5112597989340234], [0.9699881324744707]]], "cost": "QuadraticCost"}