{"sizes": [4, 20, 3], "weights": [[[0.4986886220011638, 1.1614981687425512, 1.2862876000958925, 0.4337319790603013], [-0.15680980479970225, -0.42124330497396756, -0.9198662121672798, -0.23806567090982347], [0.48272027257245625, -0.11680955452152295, -0.28649452393474795, -0.03628662086970904], [-0.6970219853934079, 1.181654948664366, -0.1550140143039967, 0.21848414218128623], [0.8311973175104264, -0.2974221694810765, -0.25707292001118554, -0.4134508208521741], [-0.0793337784938306, -0.685785795143942, -0.6123703537178464, 0.4603714780309208], [-0.08999368417085124, 0.35343075458970435, 0.17981092524515174, 0.3816992835670724], [1.3422679494608745, 0.2631355500423577, -0.5632394892217066, 0.10407268141054302], [-0.14265349247900805, 0.10763421020761701, -0.3417921656550975, 0.5298681891483109], [-0.4179024238899956, 0.5642560161670533, -0.13660891218574767, 0.1880309867832162], [-0.8533990730910791, 0.4505785060624602, 0.7396832259234863, -0.08224086853497196], [-0.1920971845325872, 0.14093630756851427, 0.5077722053196603, -0.07840841185964999], [0.5012476439871937, 0.05454301930436078, 0.23208575535587686, 0.0032834015937800143], [-0.30272090424805065, -0.5433830871760525, 0.21374688486563515, -0.5158866362653213], [0.06131858900195424, -0.14738941292837648, 0.06777982349363529, 0.9866089612243856], [0.7760200255230111, -0.6482261055486386, -1.1381909659396061, 0.2724292190720632], [-0.28828848439752597, -0.46009111617647125, -0.5195760386502088, -0.029427877532026983], [-0.3022747481918299, 0.677742178587757, -0.28589616521798544, 0.013275513374882981], [-0.766150728831258, 0.7553893111990104, -0.3451888146572172, -0.2193436515047702], [-0.36630519727744343, -0.9175249205026139, 0.4079040326785286, -0.04351681028640059]], [[-0.4377508455297017, 0.010081375071085684, -0.22618774840539438, 0.0010005752182797394, 0.15574975515342768, -0.061231240390819355, 0.10532693176085248, -0.015790580412811814, -0.13264266354024404, -0.13586235145790895, 0.17573247031095487, -0.11185499593306453, -0.20607370917075132, 0.002214124676072092, 0.2398530089106804, 0.11209303320693821, -0.11677842727969047, -0.4098563969400902, -0.22578824264638173, -0.242796034741118], [0.31918190777381106, -0.11243726388532492, -0.18975912304297868, -0.006317024027047189, 0.11305592279592915, 0.054615580150364766, -0.062337351100305576, -0.12786673652319955, 0.24365759105148552, -0.19781560962265698, 0.12726779000002644, 0.14263665160966385, -0.05992539218484399, 0.04560369555525207, -0.08432024760613151, -0.33420168553992463, -0.1291492659244024, 0.2513768882779907, -0.10415752486232709, 0.035348715190025644], [0.030971742858463595, -0.18677879010236864, 0.20171052169785125, -0.27686379667601607, -0.14424834163367153, -0.20162864090147223, -0.16837897275601196, -0.34484284008508553, -0.480957566841959, -0.15452511618223755, 0.12505579781031814, 0.045028214929839876, 0.2618590932463869, -0.4677736017971021, 0.07386183944551324, 0.028063473164915226, -0.18516777483126598, -0.029054799694477773, 0.029412126159868504, 0.026551245118837837]]], "biases": [[[-0.8338994179470701], [0.3750800050118003], [-1.1333241865579766], [-1.6724562798163676], [2.042969371725403], [1.5336027555506977], [0.5896170362922063], [-1.9466366301006173], [1.3080708490242061], [-0.9484560719801873], [-0.5270553263950971], [1.0004735398675622], [0.6439429827777186], [0.3516478640513596], [0.33049745853768936], [1.4735554977559504], [0.5231323042317251], [-0.20620562805663717], [0.4559956611717269], [0.5816288615145384]], [[1.3344888864018196], [0.5579208263890956], [1.4703960977797699]]], "cost": "QuadraticCost"}