{"sizes": [4, 20, 3], "weights": [[[0.2433076252997188, 0.14896915282230888, -0.27407702662539796, -0.3810366734261745], [0.31003477109372113, -0.08655722471017994, 0.10744697794761894, 0.8173848748026138], [-0.49029147048416244, 0.5874776562453762, -0.4366822193788169, -0.27113515168191366], [0.3304555593639919, -0.4571516156901969, -0.14798081180511863, -0.30966312160163056], [0.3318558296644824, 0.21849687984215344, 0.017782965377727646, -0.17780860128809023], [-0.08897342165593372, 0.0032972940993850315, -0.46529812998917636, 0.3675004028949882], [0.4567251383014775, -0.1405689615870558, -0.5303039177280182, 0.19551393120996602], [-0.1898349313382746, -0.9124064143962847, 0.39716779150478504, -0.05244680499222567], [0.15619098206146842, 0.1621645653697774, 0.023794823674881737, -0.1401829021393847], [-0.08761262629125088, -0.876726322853719, 0.6808086517364375, -0.40431229494913984], [-0.7117984414697909, 0.0416031245492733, -0.32089039931694713, -0.425392063709067], [0.26360598255275486, 0.5098605446879746, 0.40864097368614716, -1.0504959213910128], [0.36327480844574755, -0.23349671474276776, -0.14277593873316996, -0.0889882489130107], [0.6073524157268226, 0.3357394335208853, -1.3968504802809834, -0.8175029965390771], [1.0274046811492539, 0.1880070201503751, 0.10014336983135765, 0.8002157159196664], [-0.23992134411724106, 0.5969106256515107, -0.2880035729788229, -0.21452166577320966], [0.07678597516524793, -1.2560460692037878, 0.2187887361490318, 0.4068082954713726], [0.3069995158321552, 0.24794196790870032, 0.2972699999061174, -0.19058063510134374], [-0.4192335756721326, -0.31807646041665677, -0.4530351684111135, -0.35940159265461286], [0.6785173720804079, 0.09582410268716927, 0.6621862158706754, -0.6582729356263061]], [[-0.0689528306334578, 0.19912168836180097, 0.615531742734508, -0.17116416858584646, 0.07235635074387355, 0.014440265206412482, 0.19228191096165936, -0.4687997727578617, 0.09294797646042517, -0.1891949664141521, 0.4666229719065504, 0.25864600730527615, 0.21179737776328658, 0.1720764055652873, 0.19241901182889729, 0.08443880282544705, 0.2830756508296081, -0.0796552852808179, 0.14184579028598704, -0.1028832753968631], [-0.06556253402325012, -0.007178844725236104, 0.41445141377058853, -0.3214026293762873, -0.04044890247831242, 0.2730961961110685, -0.20300240940498182, -0.36219534624241434, 0.034064450422856045, -0.43914395887621144, 0.14964715205987747, -0.027716314522917458, -0.18750100679475773, 0.10614927834426625, -0.12245696526991623, 0.2045376412697044, -0.16568593503744092, 0.13352207566447424, 0.2407780664093373, -0.14153751454188557], [0.4242619820165369, -0.3017776319954699, 0.1452564251648815, 0.26075494563918356, -0.1363445843653182, 0.042510037455415844, 0.20525675203131816, -0.10081286372714778, 0.09470386018231387, -0.28683901784584226, 0.20303762423623048, 0.1861759293804125, -0.30364463579677725, -0.061768701406667695, -0.043137217825385744, -0.003334807972454044, -0.09537886560356584, -0.05782822636679032, 0.18535744934326193, -0.3680775510581379]]], "biases": [[[0.30468609470472985], [0.5900600480388285], [1.453069917987893], [-0.1749351461799835], [-0.18766070695945528], [-0.13145048766661438], [0.08938111616882906], [-0.7809492031475773], [0.12248269352260523], [-0.9102539413729405], [1.0764396721405567], [0.4055749977982283], [-1.312033088949025], [-0.5963823219274983], [-0.03181973709125402], [0.6597387262785426], [0.1393975832868818], [0.4028504750019087], [0.652004777891159], [-0.8721489756125552]], [[0.46882488984857235], [-0.28959543945255545], [0.6119708877372545]]], "cost": "QuadraticCost"}