{"sizes": [4, 20, 3], "weights": [[[0.05226937247668516, -0.14293414756049522, -0.44848129092810807, -0.42273813928043363], [0.2889630636822895, 0.5381572154992075, -0.15998327258211775, -0.36487397678595956], [-0.5204236976217319, -0.15422722356378063, -0.43165194327251993, 0.0866297993986451], [0.514481587526916, 0.5512694052600666, 0.7860440211100693, -0.6420512101734147], [-0.7051837434099812, -0.2537326845991649, -0.5938549045766699, 0.933100038066179], [0.55394979580661, -0.393654927520285, 0.034603841180625095, -0.8248930416770044], [0.12915568680617767, -1.2158437098696417, 0.674660284792187, -0.9914325954719406], [0.4792994081927595, 0.34671841499055855, 0.6941878898082603, -0.30339876303241536], [1.0245638918525746, 0.8223403701820636, -0.3801506569365472, -0.012053453344826295], [1.5077518497041869, 0.6300171135531236, -0.37380746791042885, -0.8006543104416558], [-1.257115913784442, 1.142261015182091, 0.0030189973149259987, 0.7803293427363336], [0.6195905546597782, -0.2744519655783136, 0.4111764097177466, 0.2948141685207855], [-0.2803769376337661, 0.021408645031793454, -0.5629971163957995, -0.3821742892332828], [0.21203383204010637, 0.6709445376865916, 0.3205175037236274, 0.4402245513514487], [0.992395562932691, -0.7405967051340152, 0.6434505053562614, 0.3560146860231547], [-0.46331924111195283, -0.07890712955446118, -0.7964535455780423, 0.14027121554265407], [0.7637179925623263, 0.24243271207222675, 0.11805747412805431, -0.35436329947103146], [-0.9169645503659256, -0.7178846628793835, 0.37008031046231704, -1.2471608919837087], [-0.3642584136587932, -0.44399694252277, -0.10499240643260957, 0.7596583200524994], [-0.6408318096860489, -0.0010111448782348649, -0.5782157949189595, 0.20447053818423938]], [[0.08174115432879855, -0.3039808730027131, 0.16828086121112393, 0.44054085392940023, 0.16807193924905617, 0.212950416929433, 0.04019544169791732, -0.08173735589889843, 0.046462638625984785, 0.13771763241154375, 0.20761826302477948, 0.590011803673917, -0.09129616532947742, 0.1933051669903388, -0.30068913798927766, 0.2850668372541623, -0.02490528710651976, -0.03958589093985532, -0.13464922802204182, -0.05280139215126818], [-0.14674168616884975, -0.1693958284392681, -0.024171930962892798, -0.14024756258282256, 0.27418728683377114, 0.03444004653257461, -0.026685459817437807, 0.3017360837000063, 0.370734737477844, -0.12126107221620054, 0.12424033376865339, 0.08326140174209262, 0.20614307540783408, -0.07799186118965896, -0.19083160708865576, 0.28656494046045744, 0.06675890285557143, 0.2395490697162348, 0.3609332758361146, 0.05531656448145597], [-0.050737747604653875, -0.08067153992830177, 0.018314636650269455, -0.2493051562835092, 0.4299929882432645, 0.31532427474176333, -0.5901658279373937, 0.4111629632835959, 0.2706022208756326, -0.2276260847632618, 0.23220624669751236, -0.10592085341646577, 0.17294995683341835, 0.3726917943983704, 0.14618874032124596, -0.14383284503533764, -0.2279959445723225, 0.1473806124541838, 0.5710864145311392, -0.4182975900876974]]], "biases": [[[0.7446323483186041], [-1.4498770957070637], [-0.4800158289852664], [-0.3284392950899848], [-0.6789183394844347], [0.3255308676247185], [-0.8018225495753905], [-0.36742479321161414], [1.432278876570699], [0.6875884036901689], [-0.6818843991827584], [-1.6619240933788304], [-1.7191189078479825], [-0.3317416741507599], [-0.10829717484757824], [-0.16560596131114969], [-0.9584524433238124], [1.3060607709050358], [-0.2672755483995686], [-0.16051510951244896]], [[-0.06963454634422461], [-0.23594654061667972], [-0.1979150396437305]]], "cost": "QuadraticCost"}