{"sizes": [4, 30, 3], "weights": [[[-0.26581395626096627, 0.42501765742439723, 0.2871111799821338, 0.6394015296395178], [0.1293367910347219, 1.070669570772685, 0.3807455312850019, 0.2491379509881868], [0.12010831618005391, -0.28545749729784126, 0.6729964583576779, -0.1251863494051994], [0.5931640576552323, -0.15765240520747772, 0.03061780023551342, -0.7451168906223578], [-0.3478956739905725, -0.6074654221697235, 0.2008103243987757, 0.8101833859683472], [-0.0054302552287882515, 1.170120092777125, -0.7862675598129966, -0.6134252031154157], [-0.017626027477747348, 0.5020003212832493, 0.6627793080445418, -0.12754389867234786], [-0.05771656040601924, 0.3586370793765063, -0.08059438645185199, 0.1676544130825934], [-0.3007587253042175, 0.5315987558340615, 0.07079265769312858, -0.3323344294542152], [-0.35993238232295505, -0.7150509223374988, 0.8184087083221996, -0.4817845260783607], [-0.00734827891626546, -1.4539283411244999, 0.4723509886568085, 0.03687654556072996], [0.388357464888477, 0.6230506243595197, -0.19498554970200335, 0.23800026137957822], [-0.15976082007984826, 0.16344441054670858, 0.14329754219603538, -0.38257868848883253], [0.8471483705865452, -0.5217602615251694, 0.060256744156404786, -0.31382543511305133], [0.8736118630945274, 0.4185091413102697, 1.005198856312276, -0.2682805796646747], [-0.3019688795409256, -0.09192051362039447, -0.8614337586558125, -0.12318247230784068], [1.0957778581424393, -0.011378531883008835, -0.5939479505536976, -0.6876192292082807], [0.07921087993330157, 0.13141124610832616, 0.01490216661932986, 0.3303916902626319], [1.0965760663580175, -0.09835895850711593, -1.4536016839700077, 1.0222049394777784], [-1.1187186761686754, 0.32565831468396605, 0.5591634868164312, 0.32831672482437085], [0.471584579919002, -0.1650571791734393, 0.5596187041940599, -0.45864324718583904], [-0.4142265930198163, -0.23566324433472022, 0.4730272778430124, -0.6422146474665056], [-0.5374523951290036, -0.7711336935785239, 0.2687313332828967, 0.8960653196008356], [-0.3470153668107738, -0.20219629420418192, 0.4160037977995193, 0.4502761973374203], [0.7591068600447775, -0.0909284007472668, 0.6337393074518394, 0.9345346479236463], [1.076888497017465, 0.39897480674768016, -0.06488379607531747, -0.25416725752395286], [0.910776722281336, 0.5794658244600126, 0.31090080396384906, -0.07896376135597809], [0.853195376596403, -0.39927400525997664, -0.6834228874136729, 0.2709048453412898], [-0.3742965461468086, 0.8347873746387364, -0.09929836353857478, -0.7212532624283325], [0.23566391880715426, -0.524603449643025, -0.1460058731971968, -0.032805379426644535]], [[0.06481505257128387, 0.1719245391136834, 0.1286684587940167, -0.018648126331803284, 0.006508696087267798, 0.2193080205036006, -0.3721391023876254, 0.08817451574114979, 0.0112192467614188, 0.0758421556189725, 0.20436016739874846, -0.23761994301788453, 0.35248820105922685, -0.01639223812326054, 0.11127576126827705, -0.025103467364494907, -0.2150724848750573, 0.2380946605547937, 0.020725915266190633, 0.24133273208939904, -0.10872506859789466, 0.032840481607293893, 0.36267401552542083, 0.06448267903290585, 0.11659808840047185, -0.08059719608466041, 0.028842061953074635, -0.3950252841200038, -0.20022729170909603, -0.13659915165062175], [0.07212887878191475, 0.0857824384284029, -0.032511267437211534, 0.04624473587065084, -0.05894187880151388, -0.1756010237231675, 0.09755971271044403, 0.26886093230361074, 0.018133930203444504, 0.15323806343799465, 0.02471615715167134, 0.19419877299841537, 0.19255618738249827, -0.11131370222757664, 0.25698746448185894, -0.06297379305739591, -0.09100246306415918, 0.12407125800656224, 0.07874746445329683, 0.01753210314033386, -0.037490998465224835, 0.11190411682837566, 0.3675193823964126, 0.35772261495978397, 0.23462843639010253, 0.19579621629448224, -0.11828383512402954, -0.0166616506320155, 0.20278094721188192, 0.14124999532160246], [-0.07870593869899965, 0.2129881125848533, 0.46195836302015036, 0.08239761631365312, -0.12727703733460718, 0.34594376217979966, -0.25499826624740024, -0.11603025811926855, -0.07711288088160007, 0.06959633127944072, 0.0013735939061929171, 0.00855317687927763, 0.30508715275568293, 0.13830132313152324, 0.4598437148726199, -0.013837821455667495, 0.06448153349504827, 0.3534226896215599, 0.22933925073977657, -0.004067843228586623, 0.2001289912019115, -0.07797601309589615, 0.43989897148576346, -0.1673702135163821, 0.5327585636092335, -0.15747378325406614, 0.08393308742788584, 0.15152944712122884, -0.11327063839811372, 0.09316642691815678]]], "biases": [[[-0.12241521661588996], [1.5095888528529366], [1.798520123223769], [0.4017069188988233], [-1.5799614132736677], [0.8024235041407952], [0.012183766239380193], [0.0918410606910479], [-0.16653014612664951], [1.9208663512842263], [-0.5598235039383755], [0.19128347322674413], [-1.2981275877274951], [-0.08671936703004245], [1.3769670673283012], [-1.005822564977605], [0.5978242204154502], [0.17093202352668502], [1.2232414491824632], [-0.37409227787067373], [0.7911106360381976], [-0.13356478877408906], [1.0575658282305398], [-0.20959257426421754], [3.0980940701063004], [-0.11900385463104382], [-0.7617403405889496], [0.7747436083316555], [0.32760564701041184], [-0.23454294077013862]], [[-0.3072740910042478], [-1.0941389506181927], [-1.5639762056423545]]], "cost": "QuadraticCost"}