{"sizes": [4, 30, 3], "weights": [[[0.19220068492084522, -0.6675146036582612, -1.3207070722708973, -1.168757930848551], [0.6217671978184948, 0.3905402890040173, -0.9021481620956885, -0.08268161645001308], [1.0865587286532106, 0.08627338177989634, 0.7571813750830179, -0.8484539550806209], [-0.09905636554320561, 0.7396376655156673, -0.4200452747119055, -0.535723334765736], [0.2890959273414948, 0.9765541248846407, 0.500754677028567, 0.05455017785606448], [0.05990517288136255, 0.4027591492404717, -0.4133937291926974, -0.4072555315960877], [0.24862945385536164, 0.1873006271444621, -0.3957316899978626, -0.07797391394970428], [0.4938323247331138, 0.17778729625257292, 0.1651908530559099, -0.05859893777995659], [-0.5162234407333758, -0.07972217502346446, 0.2546234471974655, 0.2214262390854158], [0.3335429017832096, -0.26636866943699655, -0.4545010287695624, 0.4728446661876886], [0.11043750716120154, -0.49530152119883003, 0.5366124871605071, 0.34752430373216847], [0.2449409885974958, 0.006001371415832072, -0.07434861282549617, 0.9434527478117419], [1.1190598574185027, -0.10932851948860949, 0.2142262709624189, -0.029192460290531977], [0.01860063217227973, 0.17015569461562252, 0.1000814929588977, 0.35927809156633844], [0.1697967173559765, 1.3443802814788557, 0.015904641713058783, 0.0046863497602283284], [0.47429032255730547, -0.33290507083201293, 0.12155495991971371, 0.26482731231384543], [0.14141517715668764, 0.844496445515221, -0.5683980333390173, 0.17136544032243733], [0.815072594952906, 0.12597604127204903, -0.7643719596756003, 0.31778648079334315], [0.6956663740474308, -0.05205444194719318, 0.4105741633937107, -0.20691570014874228], [0.03436844352556119, 1.2257989331494166, -1.0044470475542906, -0.3215082100737257], [-0.183367921364541, 0.985384435369121, 0.009436672881125232, 0.06400443752877674], [-1.1454244434670282, 0.02128353180886368, -0.0288559186247766, -0.4366869715426767], [0.1731206859679932, -0.21879043049063518, -0.6208536530397754, 0.6574155388708324], [-0.037727534654138375, -0.082428543012546, 0.8324880536561139, -0.4059695105091589], [0.2547518567339832, -0.5930609723908403, -0.519563180790581, 0.09264431135819211], [-0.756624228327998, 0.18936849625946806, -1.0903770095871363, -0.44371419366506887], [-0.3298003051287998, -0.11514313325401199, -0.041082285814295565, -0.32453971686939287], [-0.4096556436744082, 0.49339459531340124, -0.043173500736890275, 0.3576539398791887], [0.21730532840764083, -0.5037967830583401, 0.5571460555339945, -0.036272983354515696], [-0.3437913691616462, 0.1821268714639547, -0.18307210059594037, 0.4428348592147235]], [[0.03218970476762857, -0.17889782459062983, 0.058643579959699654, -0.31649529078365013, -0.3266249931374764, -0.2545803402752162, -0.12216071334446282, 0.20010100676351134, -0.27858663907588505, -0.07810601951121335, 0.035377012214146915, 0.251455772941849, -0.1562247867581792, 0.028116497694932414, 0.26082074668751226, 0.19874563944906193, 0.26891552624215714, 0.13998769002990674, -0.10391852062272486, 0.07768208182405316, -0.18565597969786887, -0.22946371192293907, 0.05698068626340934, 0.31361880749482973, -0.26356736411721315, -0.033977350887593676, -0.08159283260252854, -0.13006021291425532, 0.3331277764726616, 0.18011506244838188], [0.2369416174124948, 0.02571414158290528, -0.10698816201929472, -0.10805410512308479, -0.04599785373539468, -0.0870517266095604, -0.13751278479944584, 0.09917155861151998, 0.13746137197049083, 0.2066139788489049, -0.05941340211498256, 0.2897252936689289, 0.1946046363441259, 0.42507677758344536, -0.08522058533419448, 0.1867604493814085, 0.19912159633757226, -0.1012976510127106, 0.06378257634915428, 0.3241613900680414, -0.05416622380227478, -0.013829535900509962, -0.10230107532182096, 0.18714828152420723, 0.19590465257551742, 0.16511947929417908, 0.29041771408699113, 0.34208539120194514, -0.21073333684540407, 0.3356713554482562], [0.07041572502777863, 0.010730742979721349, 0.11891102375755835, -0.07982664454175387, 0.28983338013987975, -0.1642310236721238, -0.046868909982796185, -0.10489632019595571, -0.07496277118572418, -0.02417347097705364, 0.03411959912949929, 0.006430276518318128, -0.02544086907122135, 0.2901421128585031, 0.1056340876465529, 0.0656831335616649, 0.0007173197736463434, 0.06150613585333123, 0.011819166287548519, -0.007270328006076897, 0.0020856630219420946, -0.2679022656071816, 0.08019219222976857, 0.12872145158756101, 0.22697991165279513, -0.2248722109257454, -0.12875485677772067, -0.08824318676870596, -0.19008169789766055, -0.011235585351237067]]], "biases": [[[0.7899158964223261], [1.2177856250752157], [-0.018684901977914635], [-0.013943009519963214], [-1.3430328741999822], [-0.21282219892396184], [-0.09537579546092666], [0.89393257254493], [0.318809810904454], [1.2935617556579886], [-1.5370013649893524], [-0.22099458271785843], [1.2980740818694028], [0.583853125648623], [-1.609716810673188], [0.9105218387531138], [-0.36865965007284424], [-0.3766491906055285], [-0.4202252985578226], [-1.17283655680922], [2.1929113212992646], [-0.7737915492879922], [0.7046208357916965], [-0.5500002540917593], [1.6884733547622488], [0.5805960726054903], [1.0540658529949625], [0.6581364689053091], [0.23539637499848204], [0.6033396770374543]], [[0.4587635510712744], [-1.1262707283320044], [0.37607248113594904]]], "cost": "QuadraticCost"}