{"sizes": [4, 20, 3], "weights": [[[0.43249822548450023, -0.6500983759185376, 0.6279156689415056, 0.7337359382797841], [-0.3949714757356492, 0.6069170138103714, 0.1143786743349693, -0.17362808679904462], [-0.5110482115209561, 0.36629167896432885, -0.041038963675977085, 1.003349847426293], [-0.8526585981613539, 0.018743195505816608, -0.6916059515754973, 0.09544249326531695], [-0.10323379237360489, 1.0939385718934704, 0.38007591411486413, 0.16500142893846179], [0.3837489079531873, 0.15587031198521853, 0.16984482639380974, 0.7054576496566259], [-0.13606893196841535, -0.7921404954031012, 0.19455816953450752, -0.2847761654562317], [0.2637873823988713, -1.793580438102932, 0.6762483214856644, -0.5783527984232613], [0.06308956219966329, 0.9464205674722924, 0.4076404534936235, -1.2275938515082094], [-0.6318487286145701, -0.5177956788811865, -0.6266680949884542, 1.3227864012515176], [0.32675369692721135, -1.0388150774238816, -0.8538316893620542, 0.5704675598840739], [0.6849611917597278, 0.13320614086108384, -0.14821460456484561, 0.7071086441776883], [-0.5497643905588813, -0.6006247096939411, 0.07125593026076021, -0.2911776802709831], [-0.02917225163062424, 0.04447616961277291, -0.3049009814412606, -0.07257799840136497], [0.18209946659386964, 0.27107663834506796, 0.18563797391092918, -0.4238729396354114], [0.5214239017301117, -0.9567886687397094, -0.16015824844558757, -0.5212523861786176], [0.44447167370696755, -0.4663210639122548, 0.7833909596563733, -0.30000972550012295], [-0.1357953426044976, 0.5129022338546803, -0.48154260020612183, 0.21316814437343692], [-0.2583772401777535, -0.36785470444166013, -0.5620771102420726, -0.08597494576823031], [0.3568406223782752, -0.4594017203982415, 0.13853202698339603, -0.6348231829558484]], [[0.2109659555292587, 0.010556842472475724, 0.006646138338082942, 0.18219516505085542, -0.055462102920591116, -0.07445219734334316, -0.0725373067494817, -0.2067988719156656, -0.1641371183205911, -0.10813806895999963, -0.36789340271568943, -0.17556528075194816, -0.0052081969101869475, -0.1717602793169262, -0.22270853471630475, 0.1216949733903157, -0.10647995753245916, 0.7190792702599692, 0.13035050111824567, -0.12155878011263303], [-0.39089846874662604, -0.053223269221567976, 0.4456782231154034, -0.4233448419520101, 0.16978191014394578, 0.051115109793145465, -0.23209635957465907, -0.17116571270154343, -0.18801957271556072, 0.35580393845465336, 0.026211585696768496, -0.0652857682696804, -0.05247721343625837, 0.022320797568785286, -0.06379514493174857, 0.026518232114157634, -0.1306374654385404, 0.06366500071248392, 0.11342630728299448, -0.4234388465330698], [-0.023752242189155726, -0.1108920936772971, 0.11491592986809257, -0.16421625644185223, 0.18651135115875334, -0.21342069501842573, 0.31191192491995046, 0.22454147699083613, 0.009344325105744091, 0.04635743181195949, -0.06807013240848464, 0.1465682459952371, -0.06255639527637437, 0.21860575954281247, 0.22260720965397557, -0.4000865724533271, -0.0038499936534235144, 0.359688815538818, 0.24971418018845173, -0.01897731088919258]]], "biases": [[[1.3151697253094805], [-1.4225118455582653], [1.4156033107178083], [0.09410329944134725], [-0.48127885701889045], [0.7289793571531631], [0.31274267270483475], [-0.702344823980005], [0.3655075462790358], [0.1784335195314843], [-0.7567475320399013], [0.8079054153405352], [0.6011800593292206], [1.1669454099431729], [-1.0422157660193825], [0.9569170860244813], [-0.06482902056976496], [1.9404730848023741], [1.204662072644463], [0.17549628357084723]], [[0.620425493797212], [0.11149940153176534], [1.7733856739417333]]], "cost": "QuadraticCost"}