{"sizes": [4, 30, 3], "weights": [[[-0.044809432665608946, -0.8112184388822545, -0.1930593775400215, 0.5794689944752437], [0.5408959111649353, 0.007627767600408096, 0.5899533163261228, -0.7992498482188577], [0.16513914272442462, -0.8442546399717085, 0.517695483582532, 0.37954762465482345], [0.3711756624340506, 0.39468404301819204, -0.7118979471966481, 0.8125490744774435], [-0.4482539453053869, -0.5032691175464243, -1.1055418053758455, 0.9807730410226679], [0.011708299441235328, 0.6582619576551066, -0.16976921840779993, 1.2543211168362167], [0.22190124265749792, -0.050399176171752685, -0.22141489692998914, 0.12324586422870051], [-0.3104527031977655, 0.20584858420600755, -0.13012935480526783, 0.007601584635893454], [-0.05278416481794504, -0.3952996079499473, 1.3426412585600243, -0.3069209304722727], [1.072712651522444, -0.21373631047207006, -0.009401562826282994, -0.6332490966089749], [-0.2502758012956098, -0.7148324262960315, 0.0482915061569637, 0.9534472725460994], [-0.8872886020083864, 0.4377380854815278, -1.0544632970288967, 0.001661900199947323], [0.6941092123311163, -0.11689929456025228, -0.28768686132140453, 0.7158313861117432], [-1.50571006036586, -0.8999200586501964, 1.2983785443533153, -0.9929718962591193], [0.7153324645871314, 0.8168354803152865, -0.04416616898981527, -0.1594284198969334], [0.04238318318957909, 0.42172738124365666, 0.3992239397197233, -0.35820341573213776], [-0.41815608730232073, -0.10284333347495578, 0.48844397314676424, -0.12632551911867426], [-0.1645800419270198, 0.8524392168925092, 0.27213257358767323, 0.47131872656887114], [-0.45134025961233454, -0.7707959558434327, 0.05181129544189366, 0.7486762937886783], [-0.09425089161575986, -0.3379710704087714, 0.17794580440159607, -0.4289272592815424], [-0.021395801943553297, 0.21553943941313433, -0.015989923214812043, -0.9278419713015946], [0.7963805250226291, 0.6131900118456429, 0.06437473720128813, -0.372760981410236], [1.0814990594141087, -0.17724093955363382, -0.4592973733998856, -0.05148006910033726], [0.5552313443251087, -0.08147872294762767, -0.07860742241835873, 0.09897851264042094], [-0.45383710412703293, -0.10148769794869161, -0.25871307261980503, 0.4069610937576018], [0.12122941175671212, -0.22974472213468022, -0.22993702431350208, 0.13744311210089832], [0.6884281059462355, 0.273181413621435, 0.08398695809826526, 0.25362519337109385], [-0.4017649024495424, 0.32709494731362165, 0.3896210976490568, -0.691233180627875], [-0.3106840341271463, -0.2321908591007484, -0.41925855315774707, 0.34783976573732656], [-0.11261648806300734, -0.274333218502312, -0.1457577429832063, 0.4495848038901272]], [[0.04063321053343289, -0.1055501767191754, 0.015989921110940216, 0.04926780607728025, 0.04535291204442252, -0.013163230371360267, 0.3711417406788533, -0.004372875431676571, -0.04084019579768844, 0.20227116258852104, -0.09465321038690415, -0.25602454903169497, 0.07612186071700386, 0.11077933562724918, -0.07774260324432171, 0.2696910084578955, -0.06026736100902887, 0.19222902230342542, -0.22374737307973724, 0.04119050558611267, 0.17912112964783777, 0.12075880065704532, 0.08710022835628507, -0.005034711560429778, -0.005443888959050959, 0.15985670280326236, 0.057313083583430735, 0.012889391444924604, -0.05418796816911033, 0.090790067751287], [-0.1519915106523936, -0.06562471663568142, 0.1540832828086307, -0.05047468051806136, -0.28817654412790467, -0.23343134923972048, 0.1255858548878806, 0.24459599299645657, -0.1975631153505807, 0.062186887666987045, -0.12030544433788318, -0.07346363672095932, -0.020169533803048117, -0.10816701836895998, 0.449029364483049, -0.03099571458471139, -0.2627461764763736, -0.024010797159700906, -0.19826393745783405, -0.19407243393414803, -0.14504701767926167, -0.09925228300248384, -0.15007557580039452, -0.18471846696751196, -0.15164780162317823, -0.2817805347779879, 0.11412342980801062, -0.11017032837921285, -0.2709261953498999, 0.04883247347004162], [0.026773898434930048, -0.049205504198745635, -0.1133317515229402, 0.26851433708313066, -0.13854635586517203, 0.16676293648754012, 0.003831507191239468, 0.1203680197247586, 0.3559306068429386, -0.12270474626184233, 0.2410659176635463, -0.211419455949686, 0.09769987280745106, 0.05969414627040504, -0.07416525341381498, -0.11865711707576228, 0.025670989091806137, -0.013747809897726355, 0.010453028046461388, 0.5092424742256937, -0.002450872266217675, 0.021171616858065283, -0.32746826794857864, -0.16433202348815673, -0.05784960991060235, -0.09311136861231384, 0.3129459792114991, -0.09692274243591031, 0.028660793991863658, -0.06218177974037123]]], "biases": [[[-1.795676642466199], [-0.9247996438121512], [-0.8247226351541793], [-1.4157707605497492], [-0.14623596363095398], [-0.4593916704774558], [0.04887951898936651], [1.3150969246663273], [0.5563463019076135], [-1.778545931239652], [-1.8051404122613748], [-1.0993593449902799], [-1.1658232981464949], [0.4497388128916445], [-0.709942411573199], [-0.16752160773482055], [0.2331778997830691], [-1.0257220743924593], [-0.8347714302926417], [1.8377541350470201], [-0.7973554003746116], [-1.4629026012044444], [0.9574684311760215], [-0.2304712143505774], [0.670507304214711], [-1.2179194785038667], [-0.2870375442384991], [1.1119343486966873], [0.06153932726189554], [-0.5685311245097293]], [[0.16336738379468876], [2.324426937137681], [-0.20446364299430783]]], "cost": "QuadraticCost"}