{"sizes": [4, 30, 3], "weights": [[[0.9161134878241347, -0.8756502858813808, -0.19938861322459714, 0.7100769696478382], [-0.35436586775501017, 0.09087685620348403, -0.20246349441875602, -0.4861290299216944], [-0.0037874226447201396, 0.15722302517248332, -0.8356851787546867, 0.14450823036056115], [0.30234738491530994, 0.22000659307876577, -0.13116530263607473, -0.06278048630744092], [0.2354588088596369, 0.14641067735283655, 0.2437702800832453, -0.30383990855614035], [-0.5678517509352101, 0.6603297151896587, 0.39097561118653107, 0.2910072862794083], [0.29028358650058655, -0.24502447014750917, -0.5052000612626907, -0.39386753340765956], [-0.6761959528936059, 0.6306212219981496, 0.7780604213864322, 0.049177094122970014], [0.4587613696344241, -0.5271015138282126, 0.6434919144259874, -0.25038625063274855], [-0.5537092284812337, 1.2228862754266028, -0.24095788061174497, -0.10651961166666231], [-0.17652159303422793, 0.6669482621332351, -0.6657801910210267, 0.5972457377533754], [-0.03600457329797129, 0.42828609992627137, 0.42705393819766174, 1.1920073837395069], [0.09684093644532465, -0.8137087775737443, -0.6845887091045285, 0.08938020160430733], [-0.5001797700413934, -0.04194053652435121, 1.026571879403322, -0.7278128435606506], [-0.04565011587926115, -0.07165563973640868, 0.5240061346598868, -0.5622287891385507], [-1.1752949256860272, -0.08757251049768236, 1.1320138462446923, -0.02030531995939836], [-0.2909702213692192, -0.6773033782373455, -0.4054056024448642, 0.3032010558787322], [0.32357845757585424, 0.30481965745013917, 0.6963441594624721, 0.2675992868755181], [0.6846487222542507, 0.5359754884658467, 0.14317835977699817, 0.2513217109011016], [-0.6109532234315841, -1.0373357911179284, -0.21584628462197747, 0.2430447873089925], [-0.07319233098347763, 0.16548712768531126, 0.6044790601036046, -0.5820482072132613], [0.11012366365273286, 0.43728729320059945, -0.1791993201343633, 0.298425290590464], [-0.17563242810968233, 0.17127452087987774, 1.127160562178444, -0.11311246241358659], [-0.32979621860469455, 0.38099766254215456, -0.40236310803539543, 0.1903574900693019], [0.12841195666590244, 0.1462913552102603, -0.599408177301008, -0.1144311334283951], [-0.6628982351109413, -0.566961116255404, 0.7550570674579686, -0.9292415495099033], [-0.1564450081048364, 0.0945036561261627, -0.3549382146559825, -0.7847026678164446], [-0.26255708120736193, 0.4179592897045167, -0.20581912602354466, 0.7576862975549019], [-0.7915387923078424, -0.11861181560410952, 0.11310165530525255, 0.11307394735439859], [0.7863805188149531, 0.5277075576908993, -0.07295994776675223, -0.35754337519749185]], [[0.17966674605174668, -0.04799565443926926, 0.21953316482517213, 0.18682429485536015, -0.19900401939943466, -0.058826870588971264, -0.09571885624921454, -0.25960540060176623, 0.21829003159262192, -0.17821947816329897, -0.2042290877959171, -0.2750950448786697, 0.16170042558224945, -0.07912653602068989, -0.33077809595462837, -0.07330768073433391, 0.3292038538552453, 0.015902719732725397, 0.1171026107588486, 0.10793308389567867, 0.027583589657054083, 0.005614190175278439, 0.21338233771385992, 0.026275054156243118, -0.03630645314463464, 0.42309989944276977, -0.13121441679276452, 0.17535282792071302, -0.07526916172174593, -0.08796777898812205], [0.04627647121578937, 0.1082923230821425, -0.18157724288242413, 0.126096116611446, -0.24770630337555583, -0.058574365188979106, -0.1730769780329897, -0.01563083891800644, -0.1417181201088695, -0.0428502870733249, -0.09471536413780136, 0.05576104096456126, 0.0905346229779776, 0.21554515259769952, -0.09863415698034927, -0.0032222374243392224, 0.42661093676339623, 0.14767287306453353, -0.07870299448245094, -0.054511174877268, -0.233559796944386, -0.3250100767573516, -0.2957259785008816, 0.09613886039329195, -0.07357750241727927, 0.20282546603981313, -0.2337238186423827, 0.09344806320214358, -0.04503880705762978, -0.05546927556544615], [0.15255642613575102, 0.15481946101760857, 0.09861237082544373, -0.21764874740373405, 0.06930459793859847, 0.2036061918698595, -0.27523723613300666, 0.07914038930180294, 0.22635565240892183, 0.1346346905398135, 0.4187365323095011, 0.3687290347665181, -0.26304278109353346, 0.14565587651486758, 0.32096203014756075, 0.06074439516062662, 0.118910720320187, 0.24586166205110319, -0.06959274215869884, 0.2423969873659342, 0.001297954714562542, -0.010974636887488934, -0.0014617988332474765, 0.19686865226806077, 0.09657822278809772, 0.16986911610289576, 0.38863300824408464, 0.13046574495496596, 0.05480258852822212, 0.004363573791919625]]], "biases": [[[0.8404862775314222], [0.077066050619064], [-0.6047318738734686], [-0.3553642921708837], [0.10093031085308021], [1.8432783479523664], [-1.010470119027047], [0.7883920657642903], [-0.01305473419168318], [0.3291236036516046], [-1.156169433734728], [0.429545706082103], [0.08083472622737785], [0.9863597834191868], [-0.5927982301080489], [-0.05744932227037881], [1.2839550706807228], [1.1901235173482927], [-0.7444918073969162], [-0.4707569080377196], [-0.3565517126089344], [1.2062029767192537], [-0.34090372421713633], [0.9548087079291555], [-1.000822938107854], [-0.3056558061353594], [0.5228495734741498], [0.5671726074583804], [0.28888801154501903], [-0.28286351512368013]], [[0.2787885753244194], [0.9281725190268422], [-1.2445387893577664]]], "cost": "QuadraticCost"}