{"sizes": [4, 20, 3], "weights": [[[0.08872838273836431, 0.3123218628662977, -0.01960764367602421, -0.4315816370858212], [0.4028720522744007, -0.2799418265409586, 0.5501892540881946, -0.4077117167161993], [-0.364469762613773, -0.49940711625099143, -0.07028251200299612, 0.1792316460341194], [0.5781383840828516, 0.030454784535205927, 0.05206481965985214, 0.1117985619912986], [0.6530075257646445, -0.8845558392611395, 0.1950883806641975, -0.14692583727241326], [0.4365072409723671, -0.16708282549232123, -0.981816143543838, -0.1463296051860662], [-0.10693928783533804, -0.1996081046252561, -0.1631804389534058, -0.254212383501225], [0.5735907007691882, 0.09147525272621006, -0.10238461595167155, 0.1494252136798283], [-0.31836876657368063, -0.872958738962181, 1.0035277666853646, 0.8037007847955817], [-0.6195339714157446, -0.2809320693185217, 0.2237843040680616, -0.5704816515908997], [0.04994097202151013, 0.6551241915063839, 0.31320145193216076, 0.32134128749263624], [0.2746645895883288, 0.7657048259154353, -0.1373350597589109, 0.744717924849369], [0.411290718775141, -0.7957977095834906, 0.05565821809353931, -0.908318229330088], [-0.22190232241983077, -0.7445344084916261, -0.3968334862042976, -0.3716464079331466], [-0.924092063171591, -0.8267041401731431, 0.5188515362782832, 1.1585684247551682], [-0.2390720332408257, -0.41329924041197647, -0.394727682625862, -0.12359089884547783], [-0.098283139649125, 0.20067684865047145, -0.14885467673775613, -0.21910341512694664], [-1.170476587610463, -0.10013545279519334, -0.00925661238991491, -0.03519907588838519], [0.24557037639572343, -0.6417149500286431, -0.9378107306158202, -0.2660383086066857], [-0.4684579769044683, 0.08138767811601369, -0.10347027856392654, -0.14938323405463513]], [[-0.4487176176969684, -0.0168417221399701, -0.04263626814023603, -0.04155385656889912, -0.02675206691010062, -0.14529778077398495, 0.36203561917677163, -0.05533778985115359, -0.015810939389197393, 0.4416088638514639, -0.1290179807642623, -0.06931650320535426, 0.16839936674229028, 0.1421625807518368, 0.1495692931452289, 0.011217802096136265, 0.24732729416752183, 0.1442883703988236, 0.5512594669865455, -0.07769805185832947], [0.2569853792853672, 0.5448335343134173, -0.2912265156996428, 0.34142500673442006, -0.016000798307089312, 0.009754421348021403, -0.2693484186082655, -0.09576386669723297, -0.3340023511939248, 0.41601692527287915, 0.1234368820750564, 0.09907597479194627, 0.2266976048602675, 0.18746779523900692, 0.17177055516087536, -0.018959500467882105, -0.3895442544758177, -0.19689712044438412, 0.06489285591363034, 0.11985783542576517], [0.11219254565897949, 0.1243262093883053, 0.3243390153743422, -0.17256632780462325, 0.12272899558300712, -0.09371016552101209, 0.19855734783733778, 0.24823776957739116, -0.24310610274416908, 0.1926088408097498, 0.22340357381484005, -0.09606267088923377, 0.14942574017142815, 0.19314303146319198, 0.5170093146889359, 0.18373812320568098, 0.5629609112230165, -0.0858172861386433, 0.05824410601393752, -0.2563653155017588]]], "biases": [[[1.745773911851686], [-0.4237253456943403], [0.3365943980877809], [0.4667013856506538], [-0.8849729850651346], [0.4660965547861595], [-0.23108751306643283], [-0.42991681005279475], [1.0618677175257192], [2.412480947731488], [0.1323488777600237], [-0.6686304876552374], [-0.04265987978720641], [-1.2194941212970924], [-2.0451011479268537], [0.1031864892402788], [-0.9659790433016758], [-0.9960677728869289], [0.5353108857226883], [-0.15211175071829675]], [[1.323166032062054], [-1.4534502196327872], [-0.4461415889757777]]], "cost": "QuadraticCost"}