{"sizes": [4, 30, 20, 3], "weights": [[[-0.23320614679716184, 0.1826386246329661, 0.08069881554998655, -0.4626815099271196], [0.481678325709869, 0.5413176058725764, 0.8781410019144065, -0.5741967718794928], [0.07625600700051628, 0.4212791477002854, -0.16110650676971128, 0.4494940806127853], [0.3850984640203353, -0.7707935335935006, -0.897804918834406, -0.2736405182243035], [-0.13577575235740064, 0.07382807175427915, 0.0816866260539948, -0.05200205150058358], [0.35294454227771943, -0.2096575208198176, -0.8275080014680698, -0.053608596859987395], [0.054596716433864545, -0.760235792640222, -1.1708526916755868, -0.35025833431927245], [-0.07635932195447083, 0.827366168717744, -0.08297561726101972, -0.5356923965042358], [-0.5027291514508129, -0.6849934235569329, -0.354869669790839, -0.7868607813359997], [0.2555873932826147, -0.07222983891754975, 0.3006130315503904, 0.2470053457699588], [-0.2197512158347549, -0.16198653699931242, -0.6682212427694111, -0.30318622309580706], [-0.15461297068534952, -0.1665821170720688, -0.7503894644647898, 1.032148463052857], [-0.8357340193481225, 0.5656105242166563, -0.5635646633600816, 0.5675324216074986], [0.7376568657843108, 0.5521668604904597, -0.6062485100635426, -1.0661847176581933], [0.3205678688497602, 0.15797110159650482, 0.8613597697309888, 0.3585933152989897], [-0.5870437340098948, -0.11193560512659106, 0.031138108794929464, 0.9860630567661016], [1.0264323577364234, 0.3320363482953275, 0.7211533429635357, -0.2873115488419892], [1.476318040087871, 0.7646717003594414, 0.7089864580443983, -0.20404283673494156], [0.13166376655613693, -0.39886738001790767, -0.7537047632923155, 0.3802588077781235], [-0.43383090817550113, 1.0210152734718405, 0.49000357737520356, -0.34276587591819174], [0.12339029023727881, -1.1472252966146272, 0.1311670709818222, 0.6717852568956123], [0.8781986212126824, 0.45331257529930297, 1.105006893025672, 0.1829964102141689], [0.6042959188152975, -0.1047127162069546, 0.43979412004242663, 1.0873621430732425], [-0.2658340659010659, -0.12598114375573444, -0.6200281465831001, 0.3751392020575856], [-0.26032460805960367, 0.16352759063997266, 0.6614611496576245, -0.3397387511677175], [-0.6695118088412522, 0.09520280917940056, 0.3229016521893746, -0.017961670040299856], [0.9213825405810881, 0.7133502998778861, 0.47168773611137366, 0.2958880036430022], [-0.5607838744551749, -0.09830545117167036, 0.5365223346140063, -0.602535060466864], [0.26070869461362406, 0.7465133975369612, 0.8194119710462846, 0.14362732721973448], [-0.6142545682893146, -0.66748268205848, 0.31712023820253415, -0.0009426310572589352]], [[-0.0708399859529412, 0.1157299699660861, -0.13266983505390198, -0.11762705324108275, -0.0583174856407512, -0.034785865936942134, -0.023373535621887306, 0.015062583088460632, -0.24980442112560514, -0.39749388470907654, -0.13272756308469755, -0.08615562639892227, -0.2998275838547383, 0.13793637194143862, 0.1298038494941424, 0.0609026072919623, -0.0890469864337486, -0.19867878042771106, -0.22040199034889418, 0.19010753358418636, -0.21482602321756564, -0.24475219988141475, -0.06191148752736022, -0.14529450277157172, 0.1278310035879359, 0.3248797242573893, 0.15967065260922333, -0.028712402836419657, 0.03941114398795031, 0.2663363408863394], [0.05675690958387875, -0.07379089990028377, -0.22293201494397724, -0.24924050604235626, 0.11049214666886539, -0.2491304690825176, -0.09900985796393816, 0.048057845372175285, 0.11180727327664133, 0.22828277455347287, 0.31503100718603066, 0.09929707200677854, -0.006410495173442, 0.0896291359837895, 0.20885594966905982, -0.18921767449176438, -0.3821119292361806, 0.4602474477807466, -0.07751168462717649, 0.00594176177031846, -0.02819610985591502, 0.21026357080311825, -0.028513508543991345, -0.03782394868081151, -0.18998562389999402, 0.33527459071307175, -0.09617785570874532, -0.20637252224673774, 0.09114913060613536, 0.16812646132617737], [-0.08973971105147643, -0.20770219117010952, 0.22192833609679088, -0.051013387476413645, 0.2413060702695884, -0.17800730936915948, 0.06912548845535636, -0.20181832318296325, -0.5772418108992674, -0.3116183024089186, -0.15730968480653715, 0.11459536762091867, 0.03885772299646834, -0.1034225542835325, -0.3699715782154633, 0.23258199690060577, -0.2360748906983321, -0.04235792001099753, -0.18310085494713194, 0.046414135911730325, 0.2482953388405711, -0.3908750123268724, -0.016666745034174233, 0.09177588187185273, 0.08540207015393554, -0.0849908611525266, -0.006137263893713202, 0.3342639278799978, -0.29320238138628885, 0.06771647493679528], [-0.19939926731608126, 0.18819091422601275, -0.11495460204517344, -0.1727486208828962, 0.028541532645670595, -0.2010259856770974, -0.1643246867698547, -0.2795787664562423, -0.31832017508367066, -0.0358581662598384, 0.24575287582677105, 0.07631003752149461, -0.04454861172427533, -0.21783501009004175, 0.25722678225053336, -0.034431054147140594, 0.22689967751475118, -0.13535442321639135, -0.2632149865783463, 0.061836833085414294, -0.024179396377110744, -0.149550084747347, -0.08972971019936958, -0.3451345767808669, 0.18179526535916632, -0.032247797760500796, -0.2926025476538248, 0.09589859515210856, 0.0468750534644462, -0.39037377057285927], [0.21983624556160158, 0.015869119890596965, -0.3262888276054722, -0.39979165248717285, 0.10991670696218825, -0.04851115916378187, 0.19979116731236232, -0.09782293818624872, -0.2377924861943929, -0.028965128241367943, -0.15495879780103952, -0.22222807299749645, 0.0033900490883787136, -0.019548048145510512, 0.04218993264548009, 0.027399138405547387, -0.1282113433919806, -0.11424051900001829, 0.009273504935934297, 0.04182414340456505, -0.09464781685249771, 0.008579556045379797, -0.12931019730200677, 0.0837170681807133, -0.06356159741255114, 0.029544981521035248, 0.197962405391997, 0.185168456945723, -0.17011574838526378, 0.2237086573492694], [0.4153770081102755, -0.2580493144241164, 0.12320703626357868, 0.1107788246079299, -0.18152869707298394, -0.23351333201014557, -0.14473269569157035, 0.06618719640776535, -0.09174879589997502, -0.33761999241563634, 0.09236338409583267, 0.03216614973858584, 0.21800068499038305, -0.20244241492518059, 0.16361669438799362, 0.20525923547561584, -0.26380975023494563, -0.2921911381159046, -0.17548082045065652, 0.1855536133195135, 0.44279232426840437, -0.0189453761656947, 0.11237532113441985, -0.1173657038017284, -0.16700243450999075, -0.18312555515008602, 0.16439087564138088, -0.1402236493946852, -0.10174909917681567, -0.07758006656693642], [-0.005191784710069122, 0.09940900781944552, 0.06255364016369755, -0.06199696027069868, 0.09584279062726475, 0.006708486253213794, -0.07502451103130871, 0.08662577025906483, -0.16972131991914272, 0.21753775901819028, 0.24155959134723373, 0.19825905284458079, 0.1379809769646545, -0.128371877463028, -0.13091790092221697, 0.041565517945774434, -0.05941521637444855, 0.039812586792553076, -0.10543824110603325, 0.08775247414672685, 0.09025033444020578, -0.2610054174252729, -0.16555528912170775, -0.380394576739424, -0.1571101850838053, 0.07729868738835878, -0.1984978876310683, -0.3361146940791911, 0.0632694532837233, -0.05708649820475664], [-0.117293971969489, 0.1573080909401253, 0.08236452741524858, 0.3661486385882173, 0.08949904340487588, -0.39454411503703374, 0.2839544574356519, 0.23633927033563903, 0.17324868345197167, 0.11493798916616506, -0.1984588239438813, 0.005389901540185159, -0.05303127883307778, 0.08530224710363772, -0.21037662378073596, -0.22887845502852938, -0.041501698738527576, -0.2937146788391198, -0.02963021302339813, 0.20739665031478458, -0.00046776617719710827, 0.07478878448074161, 0.2658144173125482, 0.033315608648954394, 0.0028452260739072308, 0.11614734179553737, -0.13763506889024016, 0.023172787154865097, -0.09144106380338957, -0.0418507006661412], [-0.0071823417798288726, -0.03150460182772351, 0.031618452540901495, -0.05795073571802913, -0.14055059097006062, 0.07586393092276086, -0.1413846965232775, 0.3442952508118853, -0.19136851130201402, -0.3231074563181837, -0.016796729163794506, -0.24858844912573666, -0.22826204085982885, 0.15837934310145954, 0.0058902680506722925, -0.2716549653936991, 0.039111213376376956, -0.1850333099031445, 0.10954496606558589, -0.06990901469297277, 0.005156516700285908, 0.007837433833197658, 0.2651629130499677, -0.03651204826369678, -0.04967510565354543, 0.00224177923649253, -0.10599477460918372, -0.20697910460576355, -0.43087892672605976, 0.14702425229246452], [-0.08428849389093666, 0.16075835896646093, -0.11094356389525244, 0.006666052601377189, -0.29970888176330374, 0.03298423553683922, -0.011305724820507249, -0.009436007242701074, 0.2425988695975114, 0.2333629956475624, -0.060792606826022576, -0.036885767291711384, -0.16264674153376688, 0.1383595109932545, -0.05689484113417336, -0.21986621354480576, 0.10266426220406531, 0.11559703199075586, 0.18920362158844478, 0.24339471376895835, -0.04679473434537881, -0.16616431206887833, -0.27619298833662126, -0.05423050201924516, -0.18026810948986285, -0.03325059997493359, -0.07052082095524853, -0.046123138968921604, -0.29895271397545, 0.0860748700772391], [0.2529931875617012, 0.1544114673246139, 0.14707127377203216, -0.15729756197323586, 0.12236964073586132, 0.05513457908255285, 0.009358548443342107, -0.192320848373171, -0.14910234623321217, -0.23516341742545824, 0.0921261920220881, 0.3532803001620267, 0.0528574046829898, -0.13866823459786065, -0.07302161776664667, 0.03630591234770033, 0.27835580446884073, 0.041014976574363614, 0.03692671350114139, 0.017475924136313364, 0.11893455732993527, -0.27914351220794725, 0.2625280981009558, 0.25320215386904965, 0.0021293454326306313, -0.012158460197825504, -0.055891996190340326, 0.23858256492150462, -0.3518778692252526, 0.1432262751511865], [0.47969705593929624, -0.006024513915443436, 0.125308082545657, 0.019830006473401603, -0.28000734726469323, 0.4264121253147035, 0.12957756875530452, 0.18353021829131905, -0.2658667132179495, 0.3233171369679217, -0.14592083007030668, -0.011977574157893208, -0.09434655912619802, 0.029041269400857016, -0.2238174836192256, -0.17992035877844442, 0.01900740897459016, 0.0019639498589105893, 0.2214429896640475, -0.004539444166584696, 0.021333625138104766, 0.18554005270922855, -0.027568112263218637, 0.011492377668149315, -0.2640421811380097, 0.33274491816055435, -0.17125482785633944, -0.07164264448332024, 0.30414334314585856, 0.13068158500498694], [0.08353033623215689, -0.17508538251666797, 0.002431058196175918, -0.08492681928528892, -0.06543075696993647, -0.23906579748201595, -0.09959934701408742, 0.06841356587726752, -0.06369498629628742, -0.06314622028921095, 0.029465131327230835, 0.048217660954162, 0.1301048435764359, -0.17609897166084468, -0.17494275597638248, 0.01694017560833215, -0.304197970962364, 0.26956929495019677, -0.05013549254643545, 0.06838694726302379, -0.09078429102434167, -0.06368625706896071, -0.05033102420783899, 0.0686748958100447, -0.027886401089864475, 0.030050917964152844, 0.32913083771037493, 0.025358711859407104, 0.007069456056240811, 0.2159245753745832], [0.059421585270330854, 0.14469178224402532, 0.33805926302986283, -0.1348952129915321, 0.09161109372931713, -0.32828373938160665, 0.0736304778017445, -0.028830299954382035, 0.007386464989205915, 0.08867379445614006, 0.07092715334410978, -0.036179104209737925, -0.0780988583301718, -0.12887067684067832, -0.10993905821870832, -0.011732046375052336, -0.08440653630960725, 0.28612803442147544, -0.34873635972756434, 0.06943810701792633, -0.39755334452576896, -0.24406307750181497, 0.06603391071711914, 0.0017641401289839656, 0.0664401208891084, -0.18128834732746235, 0.1318907240480076, -0.06094116528425323, 0.20278929622950354, 0.08413977152242692], [0.11186227336948759, 0.0748867153925395, 0.14669696592959494, 0.08124264188349707, -0.007111887582959616, 0.22691348186249932, 0.3356596955619924, 0.07959110065981333, 0.31728484944087626, -0.12963695821172763, -0.16875188264533933, 0.08636714918328146, 0.01748626119527392, 0.027409054460415715, -0.28308175843276256, -0.06104672416663855, 0.21525007918051395, 0.39520291950715997, 0.25732043573066044, -0.07681641466894275, 0.06308620071495116, 0.05165693604915216, -0.2893961098170267, -0.018341293711363078, -0.18743920445517814, 0.38122641008887026, 0.32154625684459825, 0.03256851424748459, -0.26583798333820696, -0.08349924740829069], [0.03012599651551776, -0.20810676362396097, 0.2203213352337105, -0.2588530941893224, -0.008945798408402992, 0.15834142205487958, 0.1605303031888924, 0.38922741619938334, 0.17095094940134997, -0.014421576627074077, 0.25642281080457946, -0.061315615776967446, -0.2685424157343414, 0.2212250723156017, -0.06084231922864268, 0.01622258363658775, -0.1917790366865928, -0.11481675457599982, 0.21828739556693555, 0.1679610915037808, 0.028274903197367408, -0.12200531629068895, -0.0031928392123488033, 0.150994120424917, 0.06679474233331598, 0.1878253638782129, 0.2900986401967252, 0.3882162887736409, 0.061704088616974496, 0.07374640516884157], [-0.18321384167731264, -0.348921160427917, -0.2185120760280001, 0.010551285874729734, -0.18312604511195654, -0.04270987035155904, -0.014031320920940536, -0.22713382946986718, -0.0077007479403156266, -0.12467701601691242, 0.42070536855966123, -0.1697322581772923, -0.29966149825567584, 0.3302176154439003, 0.17299642468253487, -0.23413813568737712, 0.03731959132853974, 0.02082773703995752, 0.14621318006598985, -0.15745644229065414, 0.2863228462153431, -0.21821658417363193, -0.4598446413800556, 0.028031708575444906, 0.4241522011875737, 0.1511272833026688, 0.05339827131988951, 0.07573531024887102, -0.10129326647417333, -0.21179964296320608], [-0.15451009624390855, -0.036814089848208886, 0.13451464296136725, -0.41626633923837403, 0.30666271603427125, 0.009150148376758944, 0.015753655824603106, 0.1434223986357742, 0.07147040821688219, -0.0692061036007997, 0.25411517133524325, 0.24338556761452596, -0.13297049185254625, 0.06581602903980359, 0.04316461413409334, -0.13896904262790763, 0.10097017995659112, 0.1422887686171939, -0.25798045110661033, -0.1930556801511781, 0.0756004128654946, -0.005516761451148388, -0.030813136586463816, -0.06228831585625835, 0.03254623348554178, 0.3429333919028399, 0.10213861275450507, -0.23001493493880634, 0.023828788897219268, -0.015223007699366428], [0.002977377484148071, -0.1539748016254788, 0.26793536674737867, 0.22228834554456234, 0.07646012081973694, -0.10552397575039117, -0.06361066756879534, -0.342619547124102, 0.08694038996818079, 0.013954125608204627, 0.2384240849983566, -0.013249854254801725, 0.17228268907226998, 0.19077408225010287, 0.023037783420682533, 0.20574575697002367, -0.3576081159027039, -0.009997895959468867, -0.155918743422689, -0.1436598108800869, 0.06770175120167099, -0.11472067027531682, -0.14838625718408244, 0.18817582795956866, -0.036422598913888174, 0.19374766425597112, -0.07588111346439065, 0.31039835519447184, -0.20990426732408599, -0.14728870184520768], [0.22526496213689565, 0.08698628061200415, 0.17803594827021813, -0.02956340958961746, 0.19265923038625837, -0.04567279834562385, -0.12926245791411586, 0.26832016154287, -0.04963319889056793, 0.23469380218472588, -0.15319290594374116, -0.25766394318681374, 0.02934179013894627, -0.08058678569248928, -0.019127392865044387, 0.14265113722417228, 0.0852363998363095, -0.08117446112156884, 0.0919374800340835, -0.15413682817383098, 0.06278853799747727, -0.08018997798999691, -0.2763631035560376, -0.16568028671098858, 0.01953861871107224, 0.09180396788298827, 0.03944551363883696, 0.26923217240850567, -0.09360024008219951, 0.1640813297103449]], [[0.03079935154335993, -0.02380969394125582, -0.34912472402430705, 0.25360942451421925, -0.4188747419954275, -0.17187886385949386, 0.1952405209808202, 0.2066643356791154, 0.1344611004496605, 0.041256447881813936, -0.0030657066348906033, 0.33302975076428337, -0.12258292044194138, -0.16244652695259656, 0.044844101461390694, -0.08347908433424046, 0.12486348207722942, 0.11774177189768602, 0.1873994047823124, 0.016403316205959837], [-0.058050311935357035, -0.643065668690496, -0.07309213148062191, -0.21349084289114842, -0.043675452615834595, 0.5188490072291378, 0.24654244219447485, -0.32498380495062285, 0.09482665118083819, -0.028368913759855445, -0.2512496422359287, 0.01069970637156311, 0.1413976088193105, 0.18224249692099756, -0.17826478283188324, -0.034974519878230616, -0.2255753210943519, 0.280030875651222, -0.0840538142231437, -0.0300657455198711], [-0.2747959102177948, 0.17199352439296287, 0.09013702435598203, 0.1623935296914473, 0.16063031429869806, -0.2443434046601155, -0.2156189636556957, 0.0991057433281833, -0.1678164098322269, -0.016880067401261356, 0.08752596863674522, 0.3527034126897909, -0.03569194933213643, -0.012444610395114084, 0.19295295728473372, 0.18781071765715424, -0.0809727321872532, -0.39077949841544923, 0.4253505551842326, 0.30027442867372284]]], "biases": [[[-0.9661815490791233], [-1.9920644974932373], [0.043028916774576036], [-0.953270636686179], [-0.9325606964453221], [-1.112593496868671], [-0.34285874920472365], [1.3118775622301233], [-0.1352479089568406], [1.2285000140893692], [0.27971040403266917], [-0.032735941956105775], [0.8688589651453161], [0.4805236487853769], [-0.33816090942026167], [1.2193776463525345], [0.3628479233593466], [-2.0635939277816195], [-0.14241961731302175], [-0.40688477852847194], [0.8428878475983583], [0.11621948501361563], [0.13830802841165699], [0.21568526271491725], [-0.5511505554118453], [1.4823476650234413], [-1.3476918140066538], [-0.03586006505898587], [-0.06295463949294962], [-0.2369830366699752]], [[-1.6353420893276391], [-1.7481034221995497], [0.32087392338516924], [0.7871822344414737], [1.4890728924413117], [0.06487554212276059], [0.35644457275309427], [0.5677795064599495], [0.5306020937773842], [-0.29455964242132343], [-0.2565712469368919], [-0.10276954573954154], [0.4343951716829099], [-0.6061078535475144], [1.1832433506934492], [0.2178691941509655], [1.4596095003167364], [0.027879439080975465], [0.12406032857548001], [1.7471114875032883]], [[0.29287738454509493], [1.1462216942481933], [0.062491288929594865]]], "cost": "QuadraticCost"}