{"sizes": [4, 30, 20, 3], "weights": [[[-0.05100539513079989, 0.4157919963085625, 0.07462165216962444, 0.9165951238676389], [-0.5075193864726705, 0.5797845339049412, 0.3746054137039466, -0.8140686239480904], [1.1389420142747115, -0.933134676764438, 0.43949273119912835, 0.23935110877118954], [-0.2826426665980027, 0.0023869584999830565, -0.02362936010096433, -0.4838611299083094], [0.09559371413594289, 0.15505295289115426, 0.2578323152066628, -0.633838453976651], [0.5864191975119726, -0.3832080310762598, -0.5729255289213987, -0.6303474156704056], [-0.08079799660255071, 0.044300752833160005, -0.41711504009599304, 1.1469427474400213], [-0.3684620026457391, -0.4744455248662189, 0.603923980473641, 0.5073292146136492], [0.0668542994699528, 0.10162199218721527, -0.16224132752675388, -0.21954635094217595], [0.6228462324806108, -0.02190346208444305, -0.23504146532915143, 0.1509521699990774], [-0.8759372203995447, -0.13529739652950715, -0.14135257515211214, -0.1974613857857406], [-0.4723691612012291, -0.5056912469894393, -0.7901740262432314, 0.09781662894344746], [0.3205019365157803, 0.27168145761403134, -0.1255931805451855, 0.6305205802607952], [1.743143881380725, -0.5089101605207249, -0.18154890884125752, 0.8195057656229592], [-0.9177447273879129, 0.01703029623500115, -0.4500231842196987, -0.7979654491876562], [0.13144805952846036, -0.145913929777628, -0.2438869661814943, 0.9960340705561425], [-0.10343717911577407, -0.15862701385876876, -0.6036786991886023, 0.05844911346260524], [-0.1866951675925539, 0.5375370942426777, 0.3464310296588654, 0.2357974242647747], [-0.24902467164843506, -0.1625111388048902, -0.028334679638303203, 0.2651649982741526], [0.10354641911424532, 0.043019332437587675, -0.47239145308626623, 0.42121672738149146], [0.0758327115067453, -0.6378065471863671, -0.3331084721501048, -0.101846790851102], [0.08510017444626625, -0.47542582288686736, -0.24570471314956288, -0.39547563816729886], [0.4034585025486051, -0.5108752827974641, -0.6471707127281507, -0.5630836436649693], [-0.3069275432835935, -0.5242108626212026, -0.3625757385942763, -0.532284172913685], [1.3994591734845947, -0.1859955406660641, 0.18280323335820448, 0.10663044547385825], [-0.06188822811254111, 0.2881672704904301, -0.5704874824089087, -0.24889265708678676], [0.6445171176852477, -0.31513586758142215, 0.11326572064087054, -0.7421067302211101], [-0.2568769554215446, 0.2405931650636558, 0.6892199868994333, -0.8513456082518424], [-0.41045872651557186, -0.3632323582032082, -0.10018284625939623, 0.7360667260634336], [-0.7640412382970629, 1.0065565854966196, -0.6716079080975011, 0.44653850441364]], [[0.19603440065130143, -0.4575177069083713, -0.07466307867794496, 0.2312264542632628, -0.09560926088993624, 0.1285964885056342, 0.06675986503134704, -0.013969837831189746, -0.5231538215945943, 0.03668791397304942, -0.18417927228009107, 0.22641585772895684, -0.0907140605988406, -0.13619284857581673, 0.15398050708382383, 0.13736538317980698, 0.34711076250652817, 0.06376104675330611, -0.17609978850780536, 0.10936814325543205, -0.10338821830593442, 0.3134115556344089, 0.022375645606994187, 0.024586540495467074, -0.01464829620418508, -0.07248936602245937, -0.03314881336023332, 0.12582518356811345, -0.20214860219384323, -0.2706528527893268], [-0.3001640540221884, -0.2895435485096644, 0.3112163510721897, -0.06641077582517223, 0.10338599424397639, 0.19558679718546518, -0.11065667762682391, -0.3456831168339241, 0.1696335849064181, -0.08670868711961743, 0.0782015537170541, 0.03926361333139399, 0.15781952496290716, -0.1270694895882304, -0.12647320866781786, 0.34161119343957774, -0.1402970031203786, -0.1801139564757131, 0.02975921675884326, 0.12430244159959826, -0.2602726563082063, -0.0006633739398183565, 0.014698425195384762, 0.21210954039654656, 0.065489733997619, -0.3277127963035069, 0.060283432345058056, 0.155699384125837, 0.004761038914791989, -0.08678748139964089], [-0.35927287412371917, 0.15394449332302584, 0.11722845112397592, 0.1322993828376438, 0.09817568639819643, 0.08995336986680062, 0.1118006612834712, 0.22081713366070754, 0.13162827643682262, -0.06236628740006871, 0.15879454966318227, 0.1944527404179418, 0.1895641396713578, -0.16717890119255974, -0.16269332393951053, -0.09066529080961655, -0.0010596127338588994, -0.11929267764933563, -0.159480430545599, 0.10299284364922028, -0.2896940896190217, -0.09187074297171204, -0.08025436118166229, -0.12368749033037046, -0.18472197983147615, 0.1873227355216114, 0.34544982625612264, -0.16409541365944935, -0.1497676312252761, 0.17372848446432446], [-0.04882843229912387, 0.03338884829880997, -0.30482617904392045, -0.22371630438766363, 0.29133068536270834, -0.07022708498538215, -0.002506689280507965, 0.05882835552953995, -0.27743762043167236, -0.0816024630775251, -0.15351393281400263, -0.03931745700655578, 0.24945660957281018, 0.08979074342657344, 0.13068475430607032, -0.13889935674004336, 0.2678302964921508, 0.012266518486309405, -0.20247353853490493, -0.4209916050994548, -0.011505388240261889, -0.13813492020375023, -0.06703612253092418, -0.1649174564881267, 0.16766523472758055, -0.02979684382142654, -0.22939608877415835, 0.24128630137515023, -0.29377718339175185, -0.125264991233678], [0.19589370772865744, -0.22698308790547417, 0.2713939750368177, -0.15742949210018314, -0.1995394440027074, -0.33884875437646783, -0.0015244143439069528, -0.3109242383654467, 0.2616676951268676, -0.0030909115623605683, 0.17233083853948689, 0.2735688871493832, -0.09413666106238255, -0.17784424135462476, 0.06666447686868732, 0.18733647576812773, 0.0843539027793308, -0.46075600432651115, 0.2927233607381979, 0.46117957237645657, -0.16451922431670565, 0.048383274514978564, 0.042853023410157426, -0.20014265874596623, 0.03518612948698164, 0.2962415764101385, 0.2543027460682835, 0.14957953193863197, -0.03439858175236957, 0.19671289991256916], [-0.18360960918035463, 0.033439423278099664, 0.08319305267586154, -0.00806892274603777, -0.02980024787336282, -0.10562218435074473, 0.17370597022739004, 0.4262412260601912, 0.012824605193796041, -0.07192929506695395, -0.17195987773706337, -0.05704108977426283, 0.13767166642642484, 0.3597680458745252, 0.21377297644946436, 0.1535919496570155, 0.08811188702099712, -0.11849167154355997, 0.02715053245750501, -0.06292539791972483, -0.06821318135092114, 0.2971697852606743, -0.3359520778818189, -0.17955763662987423, 0.01748127334530374, -0.0757477278483439, 0.23941633100610138, -0.0387568325020488, 0.0403005598365606, 0.0712228826490779], [-0.052692145758250035, 0.08327403295505299, -0.2993023268655089, 0.13053841128506452, 0.06435367053546107, 0.3776087560407796, -0.06371466251692545, -0.00941097564029965, 0.050097223015363145, -0.1410557155482673, -0.05269745929377465, 0.12374401390587421, 0.07684274233313557, 0.016753008245578297, -0.0735933609994655, -0.0805112894765236, 0.017729198808176038, 0.05714190313550262, -0.046247113461305736, 0.12544922063381161, 0.11402615272277906, 0.006853611440279597, 0.08773373116283682, -0.005245167059723594, -0.25508733321746113, 0.4195674341189549, -0.20420828771306457, -0.007192730500679117, -0.1009672559850706, -0.014117341000899161], [-0.18545893047767734, 0.34538558696358956, -0.23173723954845063, -0.014802546869083798, -0.06228724389125724, 0.11709028532679804, 0.1319197329335045, -0.03238162076623724, -0.08062741127177836, -0.06404835069385512, 0.20693293742125962, 0.25330492831370655, -0.055764880257190716, -0.0474693948176229, 0.19764346847965064, 0.1080132094704473, 0.028762738448936127, -0.10667888063445614, 0.14019205267826335, -0.1355491578241695, 0.006549472006329375, 0.21468045396574617, -0.15167136057777822, -0.3944417911522005, -0.1369160008984974, 0.1450433997075378, 0.40392479877744636, -0.30660600549412115, 0.1842393529192146, -0.08112020266395681], [-0.19053129697659546, -0.060341359315940125, 0.022646778853405578, -0.10525172858039476, -0.0030094767699794128, -0.12251155673286401, -0.08392764864978416, 0.26705055336090044, 0.1463202654648284, 0.06380273826195056, -0.12881806324577488, -0.0032338869801773287, -0.11955203141761739, -0.06748013972368223, 0.0743002435882647, 0.22974841543983454, -0.20209922394814245, -0.1824110137165763, 0.15840727866929177, -0.22849829392687965, -0.014104586095541273, -0.2511405719466376, -0.32097543544452184, -0.12028868163217041, 0.05242275263649827, -0.37767428745782394, 0.013656257163331104, 0.04386369386633906, 0.3087318175333551, -0.014135584249466862], [-0.16836364711952423, 0.002007939755186836, 0.060624305282161596, -0.2363500130288529, 0.09406209019157938, 0.1603934969113443, 0.22954192220861125, 0.17960907309484733, 0.013867506580387117, 0.33760101467039566, 0.1894159651208067, 0.194680472631759, -0.011036978542512807, 0.16525939924620048, 0.08767262411599965, 0.03747320171644443, 0.12740355560464614, 0.12421919183678158, -0.0770286509678962, -0.28398964356267925, -0.20822013200744055, 0.13087429112789115, -0.13645676685301017, 0.29810635959457754, -0.15562500966497184, -0.2730363921737658, 0.251177592748695, -0.4478847447723158, 0.16423332354906978, 0.12591473044646145], [0.32058487522611734, -0.04396892095638174, 0.11881685291858832, 0.055080051535077765, 0.1284661680611349, 0.011057697282520977, -0.21476388211896444, 0.05164076589571834, -0.14929833903647607, 0.10401152493137927, 0.09811605339614536, 0.1855604676659358, 0.13590314339296072, -0.26791853180934566, -0.01652919510973676, 0.08227198338989852, 0.04948442461149872, -0.15178578514414853, 0.05912288903870744, 0.1614058794381672, 0.1659946294423972, -0.22215610589790477, -0.22340064507511653, 0.2528440187930707, -0.13708137260269168, 0.04118048337084631, 0.0833044251251205, -0.03338760251068645, -0.19502727995195815, 0.09262834301875453], [0.10104835196859309, -0.20837522969374334, -0.2918438557924184, -0.002553043640950297, 0.08192149709869918, -0.20842045289425584, -0.17891176152437369, 0.3347300384429529, -0.055601400586673906, 0.288401551617037, 0.09730175562689812, 0.01846264170042849, -0.04376295823030332, -0.1659851739580362, -0.0694262602560681, 0.1495683796390626, 0.07489639367627389, 0.007206098664618395, -0.29812709445222685, -0.03976068673227936, 0.1954363133274442, 4.920621025085925e-05, 0.3492119155647118, 0.11507301619846733, 0.15620058047856342, -0.023204673390852682, -0.26865127155327223, -0.04189579100482254, 0.19152371382870356, -0.24576405530500947], [0.028682075778802576, 0.04377339046575285, 0.10769886518282572, -0.14820045817327143, -0.21062262431388803, -0.1342903818138578, 0.05470797550859875, 0.004385967433308821, -0.27840691755654534, -0.18227742559195093, -0.03935055872808602, 0.1600864491877562, -0.058730426719216286, -0.23909727211932036, 0.16641678472772536, 0.100308664980155, -0.3783434984806328, -0.4098886984790416, 0.047300651612538304, 0.32134816230634167, -0.024524694404852804, 0.12062920427209667, 0.10798147433692518, 0.21825383010335753, -0.3553031399037358, 0.13220534271063117, 0.049395864035207224, -0.008995932054033753, -0.14718299532452445, 0.2516091472344609], [0.20745021227999322, 0.3902530984316812, 0.06367509088127388, 0.02925116068153952, 0.36436382374341064, -0.43234776682058323, -0.1718064809408223, 0.2500612297345666, 0.1308993431693585, 0.33441567138133804, -0.07698590779615741, -0.14218556749342845, -0.10314690619259967, 0.059249922205430676, -0.21112073394124306, 0.12049310518481615, -0.24228758236469614, -0.07433202578551727, 0.068604721069055, 0.22409057183434278, -0.1855437472645305, -0.052275516855178936, -0.037975962460563874, -0.06485865152097035, 0.002864804045025716, -0.13074276470604695, -0.194505428886166, -0.030715147503002877, 0.14017497258514003, 0.19956410773668623], [0.07200502090023804, -0.08727253379559954, -0.16265572930411623, -0.00959948190844889, 0.016698491093037466, 0.08662030273468428, -0.06502179159959207, 0.06847157604970906, 0.2320796972948323, 0.06742200874354096, 0.15352454289559936, -0.1376639159981718, -0.08173698539142103, 0.42545385323235807, -0.01721795843522785, 0.049125785584971826, -0.18356026853615637, 0.06537559027239147, 0.041127662828216845, 0.20424577178779266, 0.14491904455780216, -0.026157666022467066, 0.08023278929674318, -0.24942707991193017, 0.09811458309480335, -0.19621714480662802, 0.17187554111441128, 0.04367081002053794, 0.11621970644852252, 0.0949384187474402], [-0.18459266156269583, 0.2221518613875575, -0.01976561009788496, -0.3534752223337852, -0.061957990071826, 0.2056710694785792, -0.13583580653639735, 0.2509000703220999, -0.17453769761681198, -0.22266765853758105, 0.3442742192110211, -0.30473725533609813, 0.3262936380052887, 0.06998040338415602, 0.08605138486015253, -0.13099078548737686, 0.015294188739768231, 0.23005558578689658, -0.059781784470154545, 0.437613974719958, 0.25127319219162214, 0.09381817785094991, 0.031992437215591946, -0.026688212511792, 0.14531278154274027, 0.09050859645572755, 0.28695149501045397, 0.15597040943788815, -0.01724962526380305, -0.06361321199866278], [0.08290134558087728, 0.2186102495958862, 0.03753814696974376, -0.062421695148145086, 0.07388477175167396, -0.08616197382827592, 0.23710552623482561, -0.023859769835227883, 0.2603845531783283, 0.2792885688513584, -0.10622017990161287, 0.0054404798178848916, -0.022219670949014565, 0.15286273922106858, -0.2482381580503125, 0.14314704730122918, -0.1389174952913198, 0.2678391331895386, -0.1138607781584455, -0.15285437246908395, 0.047297090109554726, 0.11065359283524831, -0.2008682906042382, 0.03355773041776389, 0.3744942265312476, 0.01755546197963151, -0.18046745268940878, -0.2382152565023145, -0.2156766100239913, 0.11922940229001962], [0.04875518334079175, -0.12118428934585597, 0.03782910305710167, 0.292611817215058, 0.19746003406820306, 0.0464368071030925, -0.04722072919815198, 0.020505699105025046, 0.25017440966083343, 0.2679840917188773, -0.11480779236968522, 0.3479323788238079, -0.40809188708481464, 0.2298814461666268, -0.15082816299663154, -0.09924075748747736, -0.07689461994968252, 0.023233735145319147, 0.1261650001652668, 0.05362337449650554, -0.3373640864248963, 0.5281858577897773, -0.29891882944213205, 0.17831514939799503, -0.2894117340691718, -0.34359428850791546, 0.4835015843828761, 0.08438498638545577, 0.00351042478472391, 0.013020562666358905], [0.15852460908715604, -0.1458881229118557, -0.11240570990711396, -0.048302168019984874, 0.2343424549123472, 0.16223635527341837, 0.05135105048511796, -0.0024953296575358185, 0.23357419371986274, -0.19037895856627737, 0.03793655246240771, 0.10542079237507511, -0.3158132179253364, 0.0014472412127668507, 0.2609665352667267, -0.23598496798482763, -0.006039080671045653, 0.1874490260859488, -0.2826661797748061, 0.3585407441562212, -0.05843608148136523, -0.2885197778278762, -0.25291559944187214, -0.12130817207629292, 0.1934821922620646, -0.05973005544752893, 0.4011926347368613, -0.10818454274076092, -0.3115025081926804, 0.15029509596052493], [-0.12463790612303718, -0.1143036012630559, -0.29386647480443223, -0.18207762349382217, 0.3941656421395639, -0.29259833200754354, 0.1734195396466292, -0.21842405376619436, 0.1446212498095373, 0.13649077984463753, -0.07005336714963914, -0.11425826932210338, -0.0073653668373626375, 0.15102942798085284, -0.3035265958091323, -0.29503693788782126, -0.013380301204304747, 0.3263012645255897, 0.28373816179357425, -0.32114571780623247, 0.04095197009892395, 0.07291371748416371, 0.2501142575338089, 0.5288802550294001, -0.4051805338692097, -0.22962686516032402, 0.21345420852530023, 0.1498881818322031, -0.28152337680132034, -0.14621124720910125]], [[0.16822494349248807, -0.20284568148904278, -0.18423253521353464, -0.11900156824550101, -0.0450560330154585, 0.30053387421341216, 0.024394538829601548, -0.11277075875206934, -0.13581470453774533, 0.1835332246874783, -0.03862748070483776, 0.2705558204830073, 0.14543013943760574, 0.3236049587350799, 0.10888932500502398, 0.1360889557740589, 0.2975232078437865, 0.10458749703383964, 0.018181654523389875, -0.11604522840491442], [-0.4268915201256383, 0.3382997227232053, -0.14850372579410376, 0.27815424846378434, -0.31879026017977613, 0.12423213593765269, 0.35187938666451635, 0.24720146661911718, 0.25050462862088324, 0.4585040525376586, -0.009616215117850697, 0.09035474614232068, -0.1842776538508192, 0.19679457726575064, 0.237478088056062, 0.6456462071636162, 0.0506959256399299, 0.015611148297730417, -0.46071735455183943, 0.24541674444659664], [0.06891290451844569, 0.5761799183157263, 0.22823985043862344, -0.15910249674395613, 0.28978523499254, -0.010366869649796853, -0.12945047043998478, -0.09597111811241826, -0.2633484960681844, 0.317216984189349, -0.11219960707320271, -0.18241492980733615, -0.12132875516264686, 0.06122259284413702, -0.03191526899806377, 0.15965652148855813, 0.023340884838575417, -0.05904325835810546, 0.03170498837937051, -0.18630164464399684]]], "biases": [[[-0.12746185776254063], [-0.7607349994875514], [0.784158198015339], [1.2358541583750298], [-1.77204737141939], [0.7630309292834269], [-1.5647869274715047], [-1.5411603777340939], [1.130290734628774], [-0.7373521511747205], [-0.4436872187338265], [-0.1749215965192293], [0.4088437632758867], [-2.1926355149415278], [-0.24733631844771606], [0.2421611458640399], [0.4147884586430161], [-0.37516884412268886], [-1.6565366720248165], [-1.1882858496979962], [0.9111199777989974], [1.632821955343422], [0.8408174090520599], [2.0367587351621723], [-0.434388429172544], [-0.2179224069348206], [-1.0611626289247935], [-0.0173902232116047], [1.9634771814273153], [2.7807243083937814]], [[0.07271699797311858], [-0.7579553718606244], [0.10683172357974577], [1.6686936953133413], [-0.883119559262082], [-1.2733415058162039], [-0.253156664092599], [-0.3584496932982044], [0.37358456377932897], [-0.009854916851623806], [0.6791680739620655], [0.022411144015753573], [-0.020656996751810715], [0.26561147039444916], [0.6521335959279158], [-0.646410956566423], [0.23129777258174225], [1.0225543596851214], [-0.5854548018616432], [-1.0386253832054118]], [[0.03702961694453332], [-0.48813935661560093], [0.6706970751696913]]], "cost": "QuadraticCost"}