{"sizes": [4, 20, 3], "weights": [[[0.38831113135928075, 0.7836207871720219, -0.1673812847778634, -0.3087706303574688], [-0.056313352842412755, -0.6102234439703997, -0.3134016344293277, 0.24924351916062581], [0.18947216175599785, 0.002558236747552293, -0.1370757581835941, -0.2534001273176499], [-0.014258544354707208, -0.08529228828890999, 0.7277003870837192, 1.1497305374715279], [-0.4657595744128176, 0.4558633847794847, -0.13083392174628172, -0.46453239710626365], [-0.3676556861476936, 0.2202454247375875, 0.12923502677870125, -0.08723599061333429], [0.1088773287937302, 0.4004759955611351, -0.2181909079883586, 0.38116807851463086], [-0.13397108921158069, 0.8671849358459621, -0.5136265084835152, -0.09767716161941145], [-0.5955767185355243, 0.0018122266234198016, -0.3231318110605899, 0.26392428641136917], [0.5999214656125617, -0.11325998309360429, 0.4690435719174581, 0.1969446862614697], [0.12697376615471678, 0.22369142698748737, -0.506557116696064, 0.10526488332915547], [1.0102589149994, 0.40095250287369166, 0.300418793466027, 0.8303386615115953], [-1.1871445135458338, -0.5193496687491602, -1.5318324696997514, 0.7088629606369713], [0.6333426231635938, -0.8433318636570887, -0.3141503220238067, 0.39807184514118915], [-0.33006279514372067, -0.37163359134199775, -0.3986466554854648, -0.28406206322531125], [1.0275355434788682, -1.0239151801733077, -0.180381456981134, 0.63146407277355], [0.06377989280046685, 0.028997265119915686, 0.4996769173822138, 0.37027594230607586], [0.169680785991082, -1.6942481994649043, -0.44797503226350227, 0.6258096910897472], [-0.21006653641828898, 0.571649367133733, 0.31706283233583443, -1.019915966949147], [-0.33462008907111085, 0.8066542964752966, 0.005047717992033539, 0.22732241040605047]], [[-0.2545162785079569, -0.02479832732042688, -0.2913570184102041, 0.18159006188416774, -0.07326147462761237, -0.46410243391080575, -0.039395355042016675, -0.16406917278578373, -0.1781459441429907, -0.3164671222411297, -0.356586861435557, -0.2606675760094304, -0.06264695910200219, -0.14135177841343954, -0.23682935139156985, 0.25851614499982956, -0.13053698934746485, -0.6454765533157363, 0.15741012477599803, -0.24756194854071728], [-0.04877593088184741, 0.2188722118314152, 0.1971608593732459, -0.16222069513662551, 0.25455841752295244, -0.04296194694006372, 0.45272502797368813, 0.19757598223024905, -0.19350988059675267, 0.20971183965709395, 0.30887490743037166, -0.046550288155087244, 0.28515203007895246, 0.10451892078931678, -0.21959472790739973, 0.19538850765788318, -0.11409427497828944, -0.0018778496405018406, -0.3304038822465848, 0.03735489107165144], [0.21785864337065525, -0.12877174775839162, -0.44676761197373055, 0.4247406587611283, 0.15060277853952023, 0.1873104299562621, 0.01137391542551772, 0.030707704025060584, -0.21169752262762914, -0.12912476872447626, -0.12360746178341878, -0.3448077074550463, 0.16974724830282817, -0.1874082323595292, -0.29257904561243187, 0.028682707375165793, 0.11366357430600417, -0.4796735391229067, -0.0575925813786187, 0.2882496639656209]]], "biases": [[[-0.32253991749919886], [-0.8970000797390449], [1.2978102885538676], [-0.798044856083947], [-1.5427944754448273], [-1.2209615719554623], [0.9952082640222633], [-0.6598772248565492], [0.10064024028221186], [0.013326369456773709], [-0.4299311187677954], [0.6725933154113051], [-1.4599747555198246], [-0.5064577712591444], [1.346925244474503], [-0.6627957543600872], [-0.6126586875471979], [0.4080241125841764], [-0.5687312970180294], [-0.5471727212175235]], [[1.0417985736451112], [-1.1131531778868062], [-0.25649252843252773]]], "cost": "QuadraticCost"}