{"sizes": [4, 20, 3], "weights": [[[-0.3076223262819166, -0.1585430807708887, -0.955710998369368, -0.7514582477990746], [0.010754302961578891, 0.5115135856644593, 0.2923289487692302, -0.8881631884428688], [0.3919693693046248, -0.3243051511045912, 0.7527512416687824, -0.1310658297766057], [0.01567315143220967, -0.0768399855336271, -0.08762217595173727, 0.4466408236526248], [0.023718137749981986, -0.47432630563281547, 0.16336195003790172, 0.5620008413290544], [0.22514503689626425, 0.5668224683697259, 0.9849329507551932, -0.15516258330607965], [0.08880717682690105, -0.17118118304963179, -0.20096777301449342, -0.3131612562878268], [-0.5556716943170289, -0.9660609355905303, -0.8212525686936528, 0.30333273992729953], [0.17149767294366258, 0.3044754126650838, 0.12785864167690061, 0.1384218124121239], [0.565562845676641, 0.2658444094267716, 0.12294492772530746, -0.7742485625178167], [-0.940632025177326, -0.1886587251832683, 0.0567707290882672, 0.4356978081809038], [-0.3369804844203282, 0.26246642984579827, -0.6639693531497651, -0.8898600464989804], [0.4108430339460898, 0.10388839286629407, -1.9602078124947613, -0.5839064199567546], [-0.46904085621135416, -0.09566584994219308, -0.4914532272576129, 0.32935812514798674], [0.2244142913033974, -0.47898843269893243, -0.9951574245694993, -0.8658936488069697], [0.6819719894841614, -0.4054838261007385, 0.22568616813214462, 0.19007685611868783], [-0.7150693358512967, 0.6886604815562768, -0.08214394721890773, 0.5668514883685807], [0.28798365505997253, 0.21905389657760174, 0.4393070594527629, 0.07222491538223828], [-0.4903954766076482, -0.1141599639128594, -0.004779159243537664, 0.17056621222214388], [-0.4375580234860745, 1.018775061520504, 0.1805243038802702, 0.3501114859498355]], [[-0.05780249448650055, 0.38600940344293544, 0.3114324787529464, -0.12152407167139863, -0.33229022706441147, 0.6103829739823023, 0.09959454656897383, 0.0445371084639141, 0.2804716405544794, 0.02702291550610588, 0.14050326860110582, -0.05240698799365277, 0.3165272321775097, 0.2224222238046353, -0.2737301031161502, -0.20600601674516153, 0.3328420053235473, 0.3793270460280303, 0.42384120117204405, -0.0008159718387537452], [-0.07160492058085889, -0.12467919060488031, 0.15684674399712623, 0.17840238031388156, -0.6198362528613857, 0.3061762109802374, -0.09332947672210548, 0.08548916336093094, -0.48479850330576885, -0.10816577871461108, -0.07578308984936319, -0.2550624840335615, -0.09751468979821633, -0.17254864036293743, -0.30387301767637276, 0.03319429543081803, -0.0038918813094836508, -0.3133782141591395, -0.17423205183719276, 0.1017705041649749], [0.13488196890089355, -0.20900553226904325, 0.05741376703640063, -0.14944458373887232, 0.05406356018491888, 0.3093511554874538, -0.04239742499818242, 0.05950149484902677, 0.2828014497658114, -0.18228618719088466, 0.11584006902418843, 0.05961352577416259, 0.37273223542212663, 0.16024843996042168, -0.28705947283273625, -0.005581167953398438, -0.467415454121114, -0.1599526347619302, -0.21999329639260135, -0.08429897399893156]]], "biases": [[[-0.38980917300129136], [-0.29211987138700884], [0.5805510935012507], [-1.1894398016263525], [-0.02008909986466286], [-0.4225247593938677], [2.0524738576272705], [-0.10600883676730173], [1.6458653205091598], [-0.3750424960842018], [0.03285056302978514], [0.2522859870581932], [-0.8824321515409571], [-0.18824046829639757], [-1.0145778602084423], [-0.7512283531620584], [-0.8321742392001751], [0.30953275411088427], [1.0608617946954608], [0.8655903246681894]], [[-1.0789608184170754], [1.936901903996015], [0.9374146824755861]]], "cost": "QuadraticCost"}