{"sizes": [4, 30, 3], "weights": [[[1.2389886755198813, 0.4274534256762851, 1.0558882028283523, 0.4375560260401633], [-0.3182816923044881, -0.477149609615163, 1.1595500489364945, -0.5770420584803408], [-1.1969804723079172, -0.20687701037985623, 0.17370062467487768, 0.4006486970092202], [-0.19239448363075817, 0.20214263499490157, 0.5524594504790243, 0.25258303045773955], [0.0821893254022258, -0.20986161272028878, 0.08652471814089802, -0.991427073275022], [-0.9579776488728503, -0.4569284503154575, -0.7366351631396377, -0.19501901129760854], [-0.3646666599821251, 0.03142100444506438, -0.5961436609288939, 0.8390216571436012], [-0.011353424292016233, -0.14816410567727611, 0.7062036086608021, 0.16777754536905162], [-0.4628581101805702, -0.4930187221704288, -0.10130000117707456, 0.007813556396661371], [0.4986114340753594, 0.2729148136642547, 0.6994892581750273, -0.18487519720851098], [-0.208774972828886, -0.043069666763466616, -0.30299028601862293, 0.004880588621308395], [-0.2935639482153482, 0.05831881880712753, 0.2534975046877449, -0.19793267703593517], [-0.6725716362943731, -0.6522489453543389, -0.7935797713935081, 0.16984795766124372], [-0.7870492557152272, -0.45048985471658964, -0.07076483910772348, 0.23257618846066114], [-0.08293262216509308, 0.21269592933531728, 0.3953659100132726, -0.3891530299875262], [-0.3151611617561233, 0.03937282729900495, 0.32387045766797035, -0.0826086210336116], [-0.4863052203054786, 0.21038660136048526, -0.4170385736159539, -1.1288731018963476], [1.1750626757504374, -0.23617848174593326, -1.0558103243418129, -0.09622366470428073], [0.0821942399708709, -0.034939805945104555, 0.22193128542766244, -0.12768472057261268], [-0.23078524293725275, -0.3099862574200953, -0.2730345185205622, 0.005247043609594714], [0.9068949269531066, -0.3874507296388977, -0.0953648442321408, -0.07354966572729507], [0.7149733003709658, 0.1207542683402083, -0.7894645622106984, -0.47240534469641626], [-0.12509007135784767, 0.2790911563113962, 0.2693524977639407, -0.09082989413380868], [-0.26827341982265684, -0.2204672738739005, 0.3050370064643266, -0.1967425349433839], [-0.11330842368859789, 0.3021676512860432, -0.3326735568595722, -0.25497187449863007], [-0.22276540697536826, 0.13755104321333186, -0.48922773259042673, -0.7460883496165006], [-1.1689955054865626, -0.129523023346812, 1.049685994905097, -0.36723701321335683], [0.7981509974162052, 0.2779411952586479, -0.38862664446639544, 0.22015143053713795], [-0.5198944977230167, 0.2602082018685904, 0.058278485734827044, -0.1275585677832304], [0.769195289811415, -0.8137041325071003, -0.6563840777021928, -0.21217623262462246]], [[0.026260721115952672, 0.004421686661900037, 0.19889781852501442, -0.23877526936048624, 0.07701856403002123, -0.10739873481692787, -0.12446646356833115, 0.325084236418329, -0.007273363072335818, -0.4738230539694567, -0.04070955430757182, -0.06818618438952158, -0.25193715439660974, 0.15610076513408278, -0.3269551544091201, -0.055348778726056584, 0.013803772042540697, 0.19997356409220823, 0.09853694552720782, -0.1395386875918417, -0.2131276900203499, 0.23167791761758816, -0.3426335650469065, 0.046313098982220045, -0.08461659752765797, -0.40861817810521617, 0.15431413750039868, 0.010047529078443144, 0.018915812966757012, -0.017054327084115018], [0.017608511519740376, 0.2934986742896114, 0.2803586493895201, 0.3074731186043354, -0.06191795525487877, -0.07240510712234914, 0.30401051103309473, 0.026053981875252288, 0.16133801570057812, -0.21163272626049257, 0.05719626278972948, 0.015597934020835725, 0.08196700209068288, -0.08890850159762395, -0.2190336565036327, -0.05201779435566665, -0.07310233698196358, 0.2527664500776792, 0.11683420267184676, -0.1864328224960578, 0.07784141742993343, -0.03768592865525747, -0.34406423614165654, 0.17336115684289044, 0.0976442135543776, 0.04462832938053783, -0.0286725985630223, 0.1808778209779137, -0.13168738443819034, -0.11111068155415546], [0.0850460431385709, 0.36221481824288815, 0.0022424326770377075, 0.049198953958725936, 0.033379713856586786, -0.11885299217595524, 0.08611018825452006, -0.27206455234153076, -0.06220124694025494, 0.10357328438370465, 0.3281627100319925, -0.018653799365014972, 0.21594959531341346, 0.255012086520751, 0.0243687992636896, 0.39284583791865446, 0.09291004071137497, -0.06376295275634744, 0.07052959141770432, 0.030507814459358865, -0.2199858054523537, 0.13449465053883053, 0.10215880905233694, -0.13277031734146544, -0.21933510522342173, 0.004690128994723159, -0.0451018603766491, -0.2322047112620855, -0.01931121502737499, 0.04448235374573919]]], "biases": [[[-1.1777852278470176], [1.1203921380876973], [2.0128066767587134], [0.8039969007719533], [-0.24395465718585319], [-0.21712608252286356], [-1.546510155367147], [0.4345507842631764], [1.4416210369911862], [1.8515228340738277], [0.15922311246692056], [0.9560117934384681], [0.015984282172981833], [0.6610216194984574], [-1.4968557594863212], [-0.5196371403456653], [0.001981942300266022], [-1.7891794480272205], [0.7354959907685815], [0.11203818337437195], [0.8512921120129957], [-0.18437087598093443], [-0.03927775232395336], [0.795391268480186], [1.262504280260273], [-0.6372647188110163], [0.15135478843939607], [0.9214089275383043], [0.9347211525198614], [0.9390783227725826]], [[1.1038328563980786], [-0.16150916575329372], [0.4000014769524697]]], "cost": "QuadraticCost"}