{"sizes": [4, 30, 3], "weights": [[[0.3867260449816244, -1.2861537972631785, -0.2546557371880373, 0.3511352714183358], [0.08573484449800899, 0.14366852402574612, 0.06692973104731166, 0.33743965489574174], [0.5948973544450229, -0.15773530158303098, -0.7043286776472061, 0.5692740096816582], [-0.5154489073910239, -0.4955213621480584, 0.1633679463820733, 0.26856835177746896], [0.26530149615261645, 0.42668517963393254, -0.002769037751733675, 0.2062285278190702], [0.4903343367254129, -0.2697439266318558, 0.21578882522332793, 0.8629974126508023], [-0.28170164214030324, 1.1116608482121235, -0.34353138606983946, 0.7496466764298013], [0.04440441531201034, -0.3433920770989371, -0.25261833931588956, -0.8058683483683363], [0.057138475702010735, -0.5676029498314269, 0.10859282047697037, -0.4194127630797179], [-0.032970922136375085, 0.20942739204747468, 1.2137142856205128, -0.9164565353543228], [-0.3989389526414044, -0.5716849801594198, -0.06739415033906483, -0.3159829630923664], [-0.37609300920939237, -0.2735204598650645, -0.007690855707897215, 0.36954636291461185], [-0.28650482001822136, 0.6884059321928159, 0.22905483030841267, -1.2004886838997468], [-0.1469383680477131, -0.08658116030007382, 0.3385237654293775, 1.035624424661857], [-0.005780417418285502, -0.3559600320937104, -0.503828733811895, -0.1615724143532176], [1.345720849576061, -0.6013347104146833, 0.39201573827253094, -0.16733383787586967], [-0.7057486590266037, 0.881854737324103, 0.3615030349835272, 1.262651649238382], [-0.126508593312281, 0.395123547885967, -0.3852643145399243, 0.23121031985304366], [0.5122225483957752, 0.1525603512368936, -0.2863102005058337, 0.038592565898302796], [-0.22846250416739125, -0.5846385463688515, 0.45871729058118804, 0.43754103446543463], [-0.40668825442428885, -0.4072569479367289, -0.11602874176390618, -0.5122249004082398], [-0.048478966452895636, -0.6508187975156616, 0.8650407080459563, 0.44918806408381734], [-0.45608264680386745, -0.330246004642343, -0.6310515827426046, 0.20875917913171407], [0.24398397006328404, -0.01473983130607905, 0.1599037032682383, 0.1904302295511768], [-0.5509213441579354, 0.8428141782617041, -0.6427375444951173, 0.10043825223761832], [-0.7318375694091508, -0.0044436981671606215, 0.3530664229969109, 0.2812768051711628], [0.07037601777695607, -0.022071555072368715, 0.22287708967221773, -0.06506515333575495], [-0.1628784872460737, -0.7773043636807533, 0.5417517947867071, -0.18803032332996486], [0.7092835423136865, -0.7356925385516767, 0.29899062497804674, -0.5169832952399697], [-0.6273953822015252, 0.17686136958016888, -0.7973673734679915, 0.20822306048234657]], [[-0.27725184524087604, 0.05896110979704267, -0.31295340236243774, -0.2649550727011247, 0.12726269363681061, 0.006536104307574701, 0.039249537008090286, -0.09560042154058088, -0.14552500334468454, 0.08355501503236355, -0.009721825591005836, -0.001896590041468937, -0.06978585427388141, -0.2576580986760304, 0.11396024449525911, -0.11967973091612186, -0.26167195607447874, -0.10674339470624829, -0.18256499374568452, -0.057148244869751876, -0.13031980095018317, -0.20044063070386453, -0.021274597136691928, -0.16608151151842745, -0.009796702243023293, 0.06813500332113365, -0.04610656079767813, -0.046375998774208824, -0.10105357045815637, 0.29231311116679964], [0.007553046778731442, 0.24821218406593099, -0.1590860983971389, -0.09361078891719056, -0.04607361605727709, 0.06842649479616317, -0.1950785815921364, 0.21872066054289072, -0.006523223892381003, 0.03304202092914475, -0.07937701311548034, 0.12255122924133871, -0.160954075917562, 0.09462368786200268, 0.11283911605242927, -0.109161712518792, -0.0644955013688264, 0.1038669100298772, 0.33194825558187724, -0.05237965155533391, 0.016720315686858674, -0.00579052049763148, -0.2119637215729011, -0.030207031853407916, -0.2839377150896157, -0.3402586129107468, 0.034182883027474506, -0.23338749345461443, 0.03921077486076531, -0.12805319125175857], [0.05655746033965746, 0.16271654225179855, 0.2403575347380861, -0.1988459478850382, 0.022217055887874572, 0.09012828290179048, -0.3809579881299963, -0.4282911100711969, 0.13194778284690137, -0.024294244693521188, -0.19583884027634177, -0.06690875336404035, 0.1688132940829105, -0.08298691888174628, 0.03802994991385723, 0.2751845047805322, 0.14268219539964108, -0.26462490551646856, 0.0364666726445736, 0.167514612788093, 0.005093831413303407, 0.010620107937949194, -0.04207143364177134, 0.0916123107191965, 0.32895853913454126, 0.1034441584088984, -0.09885073623532309, 0.06913931138884165, -0.013479244122033917, 0.0431956376631237]]], "biases": [[[0.038935698066953364], [-0.24264255279576444], [-1.0707118828893962], [-0.10166996167767726], [-1.1869632357537798], [0.7704976548833435], [-0.0028771244114950177], [0.7265741408011691], [-1.205670063234932], [-1.5022101114893984], [-0.2283905496417655], [1.3682776575272177], [-0.5949135453862016], [0.09803048976990836], [0.03245348873639608], [-0.7968201696283802], [-0.5931607284527328], [-0.3476953898749571], [1.4849406053294332], [0.7941576414273566], [1.077488019918464], [0.3064498423640826], [-0.7957623778389606], [-0.664173972571702], [1.0297884573807383], [0.3731742009303018], [0.4122818186207418], [-0.555155059548328], [1.6909677470881066], [0.057059080479736075]], [[2.2339194663245188], [1.143893787876485], [0.3952390026401552]]], "cost": "QuadraticCost"}