{"sizes": [4, 30, 3], "weights": [[[-0.8909777673992522, 0.9078412992090128, -0.2602369380811691, 0.28075956084543024], [-0.08755213726717088, -0.43503006949916223, 0.15564454278396186, -1.0968509863246174], [-0.29465853820264787, 0.5644640459757853, -0.45036881177694266, -0.30949884407487643], [-0.8867381191421404, -0.01922266525115791, -0.4517493124194532, -0.1270905517655483], [-0.05306212215356866, -0.7008172778681506, 0.537795801382959, 0.10465057145793775], [-0.7176023570037189, 0.37566282686828756, 0.09308266078805207, 0.578215988973615], [0.14953987062911284, -0.6254673518100887, 0.6829291988819517, -0.714668093489104], [0.14340005196584607, 0.2611172644481967, -0.970027944718917, -0.3418316175781605], [-0.33534210055088176, -0.3053802660376353, 0.8074180350019237, 0.09780605129009085], [-1.0467480904468884, -0.058331356940064916, 0.37371718460419345, -0.5278788348122107], [-0.7174366599108436, -1.1642598720928787, 0.07331728511261167, 0.28986277419513273], [-0.023295598173087243, 0.5486235728794718, -0.2140753485206311, -0.057922863533086205], [0.3554424338186641, 0.6195796859953288, 0.0757579347118431, 0.6386738403883069], [-0.9779594856141957, 0.2193723391169581, -0.33998278606238547, 0.025206809522321173], [0.06263138722921548, -0.13597650651539595, 0.8786045116465748, 0.3367348147491695], [0.647183775272597, -0.13063306804808866, -0.7727351949556931, 0.2672931375823586], [-0.16010553581797846, 0.7319113235018248, -0.023387677363196503, 0.8282021869047128], [-0.10751801944889294, 0.17288125878964333, -0.21098264516944656, 0.3131280011753265], [0.8632048302421076, -0.5643310986433061, 0.061996413698206826, -0.3828798018433225], [0.5745237483344408, -0.19925169956077918, -0.8284823567139034, -0.9506894869192888], [-0.24156346961221906, -0.06679477608680577, -1.0342062958772755, 0.12640883551189006], [-0.8702969209881141, -0.16747956647717036, 0.3089079394848429, 0.4365697837294724], [-0.054092438197880864, -0.5885052629019049, 0.0026117994093811337, -0.5878376003890005], [-0.5457491637883951, -0.6056914513110937, 0.03335124071004146, -0.3615987471737356], [-0.05032889336943676, 0.4466721457221037, 0.3240675469108098, -0.12141358400574896], [0.7088682290992088, -0.7618922554266898, 0.15311765047718878, -0.08156402304357331], [0.21472339258044526, 0.9144941383299505, 0.1611715551791897, 0.41962487474250254], [0.14559588369103826, -0.15117123721560377, 0.8264391018116887, -0.5636474002299751], [0.05560228307077254, -0.030245101326700507, -0.26109863678131817, 0.014010437248287193], [-0.0681227035417882, -0.1107596820016374, 0.011457209330944866, -0.6393568817065548]], [[-0.07533697010847386, 0.0802716756618516, 0.25547656861319973, 0.06413716047675978, 0.020388097031891917, -0.0044892640495603495, 0.1347163165700602, -0.1595976474239084, 0.03834036351201746, -0.05589152639126994, 0.14981364092799024, -0.17671145672390914, 0.20765384717432775, -0.14386297803336562, 0.16519105480059093, -0.07593401668363108, 0.056807785998506985, -0.41355493721729586, -0.07305180698857738, -0.09520743024478925, 0.0001279104675944558, -0.060313181880067485, -0.10407474113961768, -0.11955444993732783, 0.07040787841206803, 0.06072066410016845, 0.33287427671778314, -0.11881470872134403, -0.1834199734748724, -0.3658488424385765], [0.3698222420857894, 0.24335496435959106, -0.36780651901901684, 0.40243904880183395, -0.25133287082414674, 0.07143948255921272, 0.20818503466753246, -0.08908355487272587, -0.2778594265314179, -0.1545809415821906, 0.1692953267416799, 0.08170458176402258, -0.11073908292384332, 0.019789337490231585, -0.49519698551483826, -0.09549883949673123, 0.16612060536309603, 0.10733168201983356, 0.005762690600552249, 0.10925402321215563, -0.0651673831968171, 0.13347191153731006, 0.11753037892150586, -0.22017057622016015, 0.288114791505967, 0.3394603519108386, 0.26158214846449057, 0.03466522771692228, -0.11667816086798237, -0.18899560765893944], [0.13078540017841103, -0.06558659973877184, 0.04602013715114801, -0.046259792875302234, -0.06720725843952016, -0.1451403881049096, -0.014320803001033056, -0.021192546214675284, 0.09890340447933514, 0.0603570558555882, 0.07960855463008312, 0.039440524328126905, 0.10644448978079862, -0.10737570588501685, -0.04157122584242047, 0.23756581376848857, 0.06906009729517165, -0.05231504121521812, 0.03758421491046584, 0.061306932224193304, 0.2193443518218357, -0.006972508222234105, -0.020660692770458806, -0.16690779640248207, 0.11095508276545887, 0.031464216443066885, 0.3187488350322069, 0.11428090860182281, 0.0659702042452172, 0.05684376636183387]]], "biases": [[[0.5161302130787725], [-1.2123900238668217], [0.5272970705924963], [-0.6879533405025052], [0.6229055259401799], [-0.7012711860310584], [0.13505942257829176], [0.37191572649018184], [-0.9560979204122487], [-0.12102365121126532], [-0.5418138424237433], [-0.601231609606727], [1.3354075943183998], [0.976270266802845], [-2.331505154658658], [-1.0367627387443468], [0.9764946894733333], [0.8678327722891113], [-0.7381088350897393], [0.9387230007907951], [2.064139305702747], [-0.7442442810379373], [0.3697587881251843], [-0.5187737930084229], [-0.7306839294904548], [-1.1106863063630905], [0.3943522718407735], [-0.9046875726399405], [-0.27579971175459883], [0.9610039482310432]], [[0.388644081674164], [0.6071724539947313], [0.05993459265120186]]], "cost": "QuadraticCost"}