{"sizes": [4, 30, 20, 3], "weights": [[[0.26525095339671306, -0.28926963173562076, -0.22917361254813226, 0.5664716116939571], [-0.17430521878244412, -0.7139567038943136, -0.12400546881770558, -0.518255866155973], [0.8158141954881728, -0.7252432005408782, 0.020418831784811596, 0.09649371584303731], [-0.10391018045004187, -0.33318181777516204, -0.06921259527858971, -0.691166131363162], [-0.20224390985247195, 0.43667664640865356, 0.5494940779762729, 0.7877840622260065], [0.018027348148968586, -0.5237070088765233, 0.955908033618754, -0.4139786099281331], [0.8111997157750549, 0.053873001612562005, -0.8419184602381659, -0.1250915956993787], [-0.22093366481992008, -0.26622678273812345, 0.09405547246219736, 0.901832711845088], [0.0994538595893798, 0.4604306146507253, -0.3653358266554204, 0.3947396136970425], [-0.3161024791686411, -0.269691055540084, -0.9828959805905795, -0.3700127306872136], [0.1177146618886867, -0.15638270777377128, 0.3384241075510856, 1.4240338128803738], [0.591611028190185, -0.06105871853202631, -0.27490451675233907, -0.027134640728323663], [0.6147009643919888, 0.6125816215539056, 0.26726894673474866, 0.10351216207543672], [0.5125954228442408, -0.563845921757914, 0.09133327332060959, 0.02118155045804948], [0.7015504777724798, -0.36744692022342007, -0.37844240134699614, 0.2574985148237078], [0.25021872408603124, 0.39522919471502466, -0.04442352755247499, -0.02555776586214228], [0.025352113404958326, 1.0124333775968226, 0.404714022267441, -0.18256410812944154], [-0.5731402181296119, -0.17506241998330122, -0.1705188171343888, 0.14841962900115646], [-0.5166231434617989, 0.2121296876864218, -0.09922089129893079, 0.5003465222982022], [0.403452768819545, -0.46402488165420247, 0.015308639135666794, 0.44310625609060295], [0.391039976981808, 0.24257234413832263, 0.7079503833407598, -0.6574065692281194], [0.47398999324146224, -0.5787835388841488, -0.4602121787618323, 0.4128590885177813], [-0.22248524412991671, -0.29029270534419643, 0.22207786048832445, -0.03789881012636069], [0.44377303450588385, 0.2277293086709988, 1.0813283536670288, 0.9938121227684369], [0.18737443261776035, 0.5960655003475059, -0.8255650455463289, -0.24454868590217768], [-0.16472023128748636, 0.3546190820956565, -0.12368049076027167, 0.40546938813860367], [1.0208932908419723, -0.3211833975182171, 0.2351323668645664, -0.7313359246894818], [-0.4143555945708873, 0.12546536390114563, 0.9951044883022737, 0.5147209191584602], [-0.40984375562988173, 0.7074682533001247, -0.042949995180490065, -0.23578806475456898], [-0.6416623272112576, 0.04659456334901052, -0.23577922708371268, -1.1089670547664636]], [[0.2906416365885668, 0.4191558591261414, 0.17478100611692515, 0.043678743709431846, -0.030845063102051422, 0.029832801242830703, 0.039135913020580254, 0.0680172229169982, 0.36131389137680714, -0.027134751657477082, 0.13447836727800558, 0.2497436146222515, 0.03958919865911748, -0.08386853730930759, 0.24236249839072874, -0.15538145289410923, 0.1714568517233543, 0.16154929053599457, 0.12089881461058402, -0.20003473420096876, -0.04741630278488911, 0.0824769070615077, 0.01897381077346951, 0.2237387918087848, 0.03797828309834365, -0.08738971616918581, 0.3372021090881684, -0.13399649092521448, -0.31314930672236463, -0.1781749601196687], [-0.11142463213687578, 0.09146262154126404, 0.05942396576385712, -0.06671583142361096, -0.28671888192986755, -0.2257455613297693, 0.03274437976462178, -0.15163950388195696, 0.05450137205942148, -0.0385062585574072, -0.11085889095656266, -0.12746567398187186, 0.16491224887769573, -0.0016868791334013142, 0.14515589777720186, -0.25628210773800936, 0.009663398140564725, 0.021589396443984513, -0.040358526728313686, 0.030508423354361186, -0.4604261133131083, -0.04174566659745707, 0.32160164373918065, 0.18779559912895863, -0.018393766109513068, -0.27957963276828884, -0.006395576384868488, -0.01064896672315508, -0.17140513708752805, 0.27495079514853576], [-0.27688357577164024, 0.2217647423957199, -0.07100982951685812, 0.07597473205968189, -0.2596492201673733, -0.0818700678628485, 0.22271095574284328, -0.0032920484736086394, 0.006480932493337507, -0.1559243882990795, -0.07813398844314483, -0.03215150957044339, -0.09691931342397545, -0.37949577416460556, -0.011554491498920728, 0.4226421162909885, -0.4246522562619555, 0.09953022755333706, -0.011155483630354674, -0.3224329926304562, 0.18428846401849835, -0.039921000737145766, 0.06161835735998668, 0.07470205326383436, -0.25502210866816183, -0.060590031030373095, 0.030383183092179303, -0.26527422387170824, -0.10666091477506384, -0.39787207099428273], [0.0235581957796373, 0.11294267335711539, -0.35546321597342084, -0.05302887309380362, 0.18794610907313752, -0.2845696826180645, 0.08446477448252598, -0.2653778252300401, 0.06147729966791703, 0.08877829456959146, 0.11513089099977623, 0.08727588208319692, 0.07157494925482148, -0.0499363709451362, 0.14587354687092316, 0.26030354315739024, -0.22317814129408, 0.12056952905642947, -0.20918446845726038, 0.02481875617702067, -0.18412273920835298, 0.1624895254110973, -0.10474172658137217, -0.11180470237546779, 0.4325361167698705, -0.24088696203587145, -0.2151573146269483, -0.0552496790816865, 0.02716020795101149, -0.010242685934675366], [-0.23453831118870871, -0.32496669019802304, -0.027574451140104917, 0.5043113971622938, 0.27470855222980106, 0.07530405264621569, 0.361569200727405, -0.1132731154152113, 0.08097117442713014, 0.0964763361484422, -0.2787965556425803, 0.10845690694131914, 0.11046522200332182, 0.13697699673347372, 0.2506657241667648, 0.33294585284270906, -0.21737572299997665, 0.10044349237316487, 0.29452720789084214, 0.012820508655641216, 0.09043555392086326, -0.21566609096691733, 0.16054155526459063, 0.0897031377522202, -0.12315052036737616, 0.03445999099173797, -0.3225821566687751, 0.02852312593325696, 0.0931281858089698, 0.0456832538482557], [0.04209149069756641, 0.0717431976875043, -0.19639826734056026, -0.029461067067200416, -0.14772485090378604, -0.13571409523308126, 0.04499837869087246, -0.06127944245264221, 0.020211397889491202, 0.1254786491955662, -0.18535620783608583, 0.48430902166089185, 0.23581038137989077, 0.14368479498516123, 0.006558052720108053, 0.011343772035168492, 0.422533451933845, -0.12836431303609047, 0.44486299002235746, -0.14464747456414256, 0.23247941416306134, 0.02763456321899938, 0.1725989426879689, 0.060144065854852914, 0.039437641545233354, -0.13689525188180268, -0.12809543317026337, -0.21897068276928439, 0.2103306895825868, 0.3542892860695398], [-0.06006541137828185, -0.12974074279599448, -0.010997831287200265, -0.0658634042172512, -0.10875179266324932, -0.27849582060482597, 0.35127276400301277, 0.35109658103839947, -0.11964637912183457, -0.28160536386275203, -0.050322400762897776, -0.42802560627914443, -0.239241177072697, 0.017691575652751552, 0.19907791351855914, 0.27448118187557013, -0.055188942632985315, -0.004515631682214083, 0.013771758388452703, -0.051101498804173875, 0.3376192990315685, 0.08697647741022083, -0.19868025337957249, 0.11160447233185415, -0.0709487270163251, 0.15531194964209707, -0.056629419928925576, 0.15541367345738305, -0.17251029702627285, -0.26699339110637704], [-0.12668986530958165, -0.03073577415819154, -0.22463801853159482, -0.09394079018957066, 0.19384192950607956, 0.09237426767899908, -0.1530718157529673, -0.07326290025072925, 0.13068194111164105, 0.08934486458756734, 0.12167368673549399, -0.2758844953657981, 0.4124507866334597, 0.14395849895030446, 0.3098695862234413, -0.015530927627502055, 0.1449985230103878, 0.26464675085976863, -0.2263984629691964, -0.2153610481976286, -0.07812827682533982, 0.391400866738424, -0.1472108466113657, 0.07443307929911243, -0.035306443956318115, 0.03421054080497101, -0.08130826749376306, 0.1961204557227549, 0.19947281574816772, -0.1178500768377298], [0.12003284136695033, 0.09814253254668501, -0.15929440039249487, -0.19616063255675248, -0.08539068494517689, 0.12469136665792237, 0.18570438608122747, 0.03493303010142859, 0.07790145813353005, 0.19735001516621378, 0.12747405435634668, -0.0024198845363993643, -0.004805867947549224, -0.12279688535639255, 0.20920721774492843, 0.11320113036881908, 0.2591450877010912, 0.3194068063176114, 0.06498313474915939, -0.13201457278434273, 0.050502577661207686, 0.04202669568179008, 0.23940468480594443, 0.06784051683277514, 0.13450270896034383, -0.007703227149580152, -0.3398764529104056, 0.18568679743114927, 0.21039392098636606, 0.20275321122347628], [-0.21246199213257325, -0.05768824334997909, 0.3193179061790868, 0.19738266234152152, 0.00023555444450192018, -0.24006084307751369, -0.04427666782283875, 0.18670908910675366, -0.03434191967513718, 0.009509119105093401, 0.010116465266783238, 0.12879201477655583, 0.3125106039316853, -0.06664288436209612, -0.0018096678118931892, -0.4642878908127863, 0.29909748349224197, -0.2239083665910624, 0.1348078819009616, -0.11440890560048882, 0.20613257010341293, 0.11113916793334262, 0.02771787649078805, 0.0025355554542526794, 0.035202977704772216, -0.08461956125472678, 0.1716030424708924, 0.2481295396950891, -0.0022961143506098854, -0.07899234612726715], [-0.11884034016358772, 0.07186051476821068, 0.024538546352735814, -0.018934586674968768, 0.21482736136157002, -0.14125661031017034, -0.11334286867079213, -0.06231326119777491, -0.4200940965504319, -0.22610684981993326, -0.29089253626702727, -0.20276378491457503, 0.3057670928085646, 0.069239259822803, 0.20059958324646512, 0.051657195600839, 0.3038412481874337, -0.18250101956555317, -0.06797383890055965, -0.1280884496179243, -0.06452551491973932, -0.05586139384920474, 0.019228129872620105, 0.23037974069737258, -0.1803832990100767, 0.19239307315812643, 0.27536439376820215, -0.0514426136141275, -0.2680431943543137, -0.20379622288430896], [-0.1533702424453728, -0.03674781453989194, 0.4562259646019693, 0.34750709534904056, 0.03127021088475491, -0.1826763448355031, 0.3308505993839805, -0.008347063967303074, -0.155236262831687, 0.10535556988474973, 0.31567558724953015, -0.03727129911117522, -0.13195358892367362, 0.02752474171477562, 0.49139021370415814, 0.12927460009743902, 0.21810300007643296, -0.05816121981265519, 0.28365694780564893, -0.3180431261926536, 0.02891063706405847, 0.1824474952028364, 0.3380566491484901, -0.21386033634999682, 0.028945324884918435, 0.01597247940923969, -0.19098209162805257, -0.004453700240157151, -0.1442178367329845, 0.08761803334414944], [0.12124508975927907, 0.1348063809500564, -0.011965511600213042, -0.11958750222270274, -0.20995449747836892, -0.2997334188936568, -0.2438000329241127, 0.0304022184092699, 0.12544224580928465, -0.0702931892539501, 0.22636604028338417, 0.37787388310507575, -0.12024155965714792, -0.06503483505330777, -0.1382070554611045, -0.03339523161725944, -0.06180951319010806, -0.27592007971750143, -0.1682051073950373, -0.18306363852513138, -0.15796103400515757, -0.27085619971345487, -0.22956529470365633, -0.15743606343654867, 0.16760616397678788, 0.1919553294400795, -0.24464958390162928, 0.19647212768448266, 0.1239248983168341, 0.2543840020893456], [0.10286520921710178, 0.055873076172980964, -0.04687466302785808, 0.15603219236096894, 0.08109010802936743, 0.2667523608235514, -0.18250738076798606, -0.04804794402210302, -0.07780508509519633, -0.03891506865997096, -0.22275183671498738, -0.07750742666817413, -0.32069272577525254, -0.049108423704326686, -0.12225662482752933, 0.1163347924992908, 0.04438945666938642, 0.029176084055334315, -0.07300801510526637, 0.1053783648033296, 0.180683090480842, 0.08798340491896178, 0.24080551033021613, -0.08395786633252889, 0.16321765956674225, 0.028829756868824687, -0.1695341455559133, 0.3156840639146656, -0.008186605522891053, 0.23913388552844625], [-0.11064663419759847, -0.04106209002616467, -0.1334293813354115, -0.10572426359924592, 0.43551506805628043, -0.038756996500538266, -0.02751233527655027, 0.28229245602693176, 0.22723314072484901, 0.26626358595004634, -0.10733239315443442, 0.09951487690347444, 0.14822411501447325, 0.17778469669460306, -0.2897939674992007, -0.3637998258792747, 0.20223502785395128, 0.03130886007060066, -0.1834917449875573, 0.035952405998735025, 0.1284324972852619, -0.08363669614051018, 0.10755301439911386, -0.02134549729610992, 0.6693720703583914, -0.20652056899183724, 0.01887048418914501, -0.014164216096699253, -0.11815755482579911, 0.1095804074356288], [0.10768316356182651, 0.42918109607372495, 0.1189803502487553, 0.1254487087037831, -0.11107364291404757, -0.12357075553951809, -0.12403391892837237, -0.0438260340671745, 0.028876646034215653, -0.19735438204136363, -0.25851323298873535, -0.014802759448120763, -0.19373609329192298, 0.055925666286623474, -0.1669220798756203, 0.1539633422555722, -0.25165359805479076, -0.09697746818173633, 0.11498032950263579, -0.0454370474794008, 0.006452053696897731, 0.020334940541706623, 0.09842900816797961, -0.195174461215712, -0.1685040540171351, 0.2195852763060679, 0.1844371789129435, -0.01883256867064161, -0.04445548189376875, -0.046634565850049915], [0.12886276766405658, -0.033915600471410505, 0.034004484189299564, 0.07282386115732498, 0.09858296608628672, -0.013541662215503588, -0.22023773761717846, 0.3426667432406458, -0.12361080327779497, -0.257466017918563, 0.2671785581071736, -0.1789511821634417, 0.03351632756590348, -0.15467657901092724, 0.1639666409856421, -0.1849293931410113, 0.04893401733665451, 0.022658248625081395, 0.2339903036263606, 0.24735723823900418, 0.16684395088613288, -0.1844911499546217, -0.09855492167597837, -0.07404628615960157, -0.19639146546852984, -0.182372178701523, 0.041171795234976764, 0.03038064017767016, 0.1303352530216102, -0.10511124865544448], [0.31896007935028037, -0.11055999877164416, 0.0670897027037851, -0.06425690387319628, 0.033488605276134564, -0.0026081741681048044, -0.07077861850535323, 0.0006281195398411521, -0.24111158841554362, 0.19353575462151001, 0.023275326109446267, -0.10075703268072764, -0.2205892049437599, 0.06602681440436951, 0.007110691813566836, -0.16708119315567008, -0.003387201475146202, 0.0025223753320068225, -0.11777411845654728, 0.022608107869686454, 0.03060829937636419, 0.318321500425457, -0.37233280226871085, -0.0061554327475669525, -0.1512882916675441, -0.263906160176861, 0.2856212998138553, 0.0070957208822829965, 0.03268981550940185, -0.3450764479092486], [-0.066645841054899, -0.15610977494056946, 0.2019294419499558, 0.23343016084023535, -0.16175384439453774, -0.35469969379256916, 0.2942968546332923, 0.196482175754076, -0.15561329544886138, -0.09490857624480717, -0.12391887730972515, 0.09989599772245585, 0.15550196786540127, -0.4763555979163967, 0.20876954005812245, 0.1416701689755621, -0.11170936126135275, -0.023012167808386306, -0.22973357718271145, -0.12875872658720575, -0.16674284224473607, 0.2955906481728848, 0.18714226412311455, -0.0057308134223658285, -0.2093910612595566, -0.23214496204939677, -0.2522758098581926, 0.23995759261037378, 0.23216558975938495, -0.13371216398346192], [0.09542548091197284, 0.09796109554081195, 0.21260705186008091, -0.17516969730949114, 0.005980286298296921, 0.20145965830762516, -0.08017045897878594, 0.29294950321137253, 0.129111405077253, -0.09397602311746614, -0.13933597667831712, -0.2554337890611075, 0.05204839224446842, 0.16159091724646488, 0.004124856688431249, -0.029543902244041725, 0.1625110742818548, 0.3189354460145189, -0.09038980871730883, 0.09646430644836641, 0.20224707659469493, 0.2707074099806903, -0.18349575385969336, 0.2520778305057977, 0.17295724953236882, 0.0014135309072790829, -0.15274253811837565, 0.07679126471298278, -0.09730449604677861, -0.13582742671633025]], [[0.0950366848069641, -0.034418298801277704, 0.17543225862238473, -0.0765540542103774, -0.17088427720426855, 0.18675278388424685, -0.08185815536945966, 0.029277111695032026, 0.17928859208416478, -0.40739798266979993, 0.12157386099549299, 0.06220707503200538, -0.10612052454530285, 0.14384126772849315, 0.056713341689960894, -0.04118088872504801, -0.13639763746650177, 0.17389961645495924, 0.15391705636658554, 0.30564188251616864], [0.21646021513610902, -0.1639955242009739, 0.12835617798078935, -0.00259350878921096, 0.28027854483451264, 0.5574131337086314, 0.28814783690686185, 0.3823479470753111, 0.7980178405937459, 0.3262501761840965, 0.5683457618449428, 0.33586866340222515, 0.10981890465807591, 0.4371961854728041, 0.5873457873536476, -0.11095131040391941, 0.5371358520804566, 0.20483000241031377, 0.16535133898193144, 0.7080009893885404], [0.16261409904537208, 0.11038505048409088, 0.27294807513472624, 0.2189283770925412, -0.3416016641721685, -0.019459882341234663, -0.14198544606581934, 0.17470003936957518, 0.2481701489284589, 0.16285045701560025, 0.310790599378065, -0.12088186848385132, 0.1149625821411166, -0.05972428204505616, 0.13027342150540336, 0.032372030959220546, -0.15305131713051237, 0.007895864283930918, -0.30714366316226394, 0.0989011004041314]]], "biases": [[[-1.903123065665553], [-0.5342140585077242], [0.4673308397952125], [0.0391012242521686], [1.3192796001981582], [-0.5863348411070424], [-0.755924959417497], [-0.9260074379459977], [-0.6337740695644988], [0.481944793052113], [-0.6548079519956339], [0.8283834161788469], [-0.10692106254321901], [0.07967184972115873], [-0.06978704030216175], [0.5555328531459391], [-0.3525519444744178], [-0.9335710934045943], [0.39613332783844973], [1.794470502338121], [0.7749530642518574], [-1.0019887456074257], [0.021391331614784473], [-0.08188275345273531], [0.3834195284687377], [1.1923073491542153], [-0.1543421645108425], [0.4473313993859735], [0.025436097781742703], [-0.560880875865508]], [[-0.7590584978039807], [-2.3043312796939994], [-0.8134746851609618], [-0.9012195476831059], [-0.2487977410541189], [-0.555066060593803], [0.5168371634122713], [0.8178157050795459], [0.6484149430292805], [-1.1925919716727316], [1.2978584797417914], [-0.5261991829708359], [-0.03924096411361369], [-1.5658587655491116], [1.0114610168948117], [-1.1074401871614623], [0.3843257894695331], [1.169816928852771], [-1.3533387482697457], [0.7922149735419303]], [[0.10829979028198394], [-3.137769044708305], [0.29420523120898784]]], "cost": "QuadraticCost"}