{"sizes": [4, 30, 20, 3], "weights": [[[0.43504084549701977, 0.9327654087950671, -0.8477159351306003, 0.9025180992364454], [0.4950518780410861, -0.616943479936996, 1.1762007043961598, -0.21159142682137771], [0.01939246100547456, -0.07033740095464366, -0.7048307409330491, 0.1720502253899086], [0.21362140582159742, -0.5467223943199088, 0.11931756386544563, -0.4966239694531485], [-0.18835602619262748, -0.014025837471345438, 0.4056299408004304, -0.156911160427456], [-0.5617170800834027, 0.5210741840635048, -0.20641500746764443, 0.026492891110939998], [-0.2483676947203802, 0.6180630786818256, -0.05420230102885743, -0.195350608159768], [0.05917615071298509, -0.579057657958103, -0.5190759945695084, 0.04762138658051602], [0.42759150597355794, 0.19476122312674385, -0.23058321106934182, -0.3789090017894255], [-0.17021136523463123, 1.0279235799836721, 0.8248262912227657, 0.5471050227558184], [-0.3847682798248553, 0.1118415081271986, 0.30872941077875493, -0.1531463812766082], [0.13854540075924002, -0.531589901705651, -0.33058361594100943, 0.370403387359597], [-0.34330486105200353, -0.42051724648897865, 0.1970069779799678, -0.07457400532321254], [-0.570181797863688, -0.28210624153571934, 0.3235215822353015, -0.18134814831974616], [0.38918922680551155, 0.5090907296489795, 0.43206156833729426, -0.44744395487591687], [0.2720658290872833, -0.30700439796329165, -0.1959417095950458, 0.04216253417673201], [-0.11672271897681716, 0.14415307016714443, -0.06028502958409291, 0.574972557130332], [-0.3196091665054982, 0.05154059623913528, -0.3115479693469297, -0.17022630719583437], [0.5545201806526119, 0.18479407698154207, -1.5316320452375705, 0.8750313972941083], [1.1364482674608714, 0.5984703330736677, 0.6593725200997188, -0.06949634644682222], [-0.08697807240726983, -0.1448929367290117, 0.9744750506356589, -0.2608978722519901], [-0.44206156083779313, 0.7086025737562863, -0.0007482612870809188, 1.091585745181526], [-1.5084248625163603, -0.4783701532245444, -0.0641965790328021, -0.02439915239810907], [0.15117851408398358, 0.3486740566390552, 0.3274169365017331, 0.015641336502855065], [0.9134250594093931, 0.3699001784669051, 0.6839935379507036, 0.7320192672892691], [-0.9540759648059188, 0.03320083102458921, 0.7526317578692878, -0.45626787457614787], [-0.29491024396277077, 0.22524919550675807, 0.4143295637085849, -0.11801993072450533], [-0.05279644576865619, 0.07325942661734185, 0.3880322903144596, 0.4214023866274547], [-0.34059201271153405, 0.33898949120814376, 0.8636286247038765, -0.3241169586435901], [0.20622269534672918, 0.1130762037462603, -0.11215918305830033, 0.7592013453987855]], [[-0.27730150332059567, -0.00040464161806799676, 0.023546617271378925, -0.20286193946859346, -0.11806196205006421, -0.09555199230360059, 0.16530464436323225, -0.24301719478160674, 0.09842903544745088, -0.09465506262622891, -0.011508785148792656, 0.08505648947862053, -0.0816408226556979, -0.21572115134757358, -0.06052586223254166, 0.3359613162079408, 0.27380689450272816, -0.14679026632761744, 0.00255169461926009, 0.02680725195427658, -0.0465062889958779, -0.1821230635737423, 0.05164504735545628, -0.10548001533651546, 0.0831755777563774, 0.16818053664785085, 0.3097251704964217, 0.045752339257959504, 0.39570734781114913, -0.3684971068729148], [-0.23416303036898384, 0.0195752080579859, -0.11547095943861035, 0.14967926474915932, -0.07949220658203335, 0.21399405144901862, 0.023389813462141452, 0.10435364218329016, 0.356783055324469, -0.017098224797323945, 0.12463350047064492, -0.157597890551512, 0.19139081974652172, -0.4393357417406431, 0.18790355210715598, 0.05369807384571522, -0.33026290021861665, 0.06436529038497593, -0.02893313056770447, -0.014380660456964194, 0.15066641008629403, -0.02201901248908534, -0.029947930785847225, -0.21152171577851342, 0.2609926451349938, -0.20672956932098221, -0.05909363675861274, 0.3165052209363278, 0.24038172510858818, -0.002148931001528233], [-0.33665776151567456, -0.3116879712558255, 0.10161138467123654, 0.017764089819806754, 0.4657485827913034, 0.03986035992278291, 0.20764704578756465, 0.3459119942429106, -0.030056912113986756, 0.19621745153124798, -0.009474768051533886, -0.02442788092661512, -0.02679317791901296, -0.0960318839659939, -0.23509490897451638, 0.37028356218503755, -0.15866296099100435, -0.18685864607691083, 0.07811465227448924, 0.25259811481051747, -0.1432480510426104, 0.03424085710874992, -0.2153990121407556, 0.056103890844913774, -0.01478399841655292, -0.03376887419168313, -0.020938944826767864, -0.12282737088832457, 0.13826389524707722, -0.11092411027731493], [-0.03024155802796112, 0.21480532506125916, 0.13849867409096508, 0.14657255492633844, 0.03733696497592414, 0.355614532457616, -0.036000150560137015, -0.1939929350686961, -0.11842819854923348, 0.008576542080662965, 0.07433911159354965, -0.24316264542956886, -0.07461348900234045, -0.1576039527673833, 0.0015192956082999782, 0.22503368000190632, -0.022561868245756914, -0.3869767454984537, -0.10007826507243012, 0.1796416958638546, 0.0500905626675098, 0.12366839475402298, -0.019527462143167532, -0.05713141221605154, 0.10963616978294749, -0.2523062382602773, 0.2633934162890783, 0.2761871744469969, 0.03780301875501425, 0.1530250148530063], [-0.36482495361115175, 0.28219521529482305, -0.04735869354617113, -0.16983586904644357, 0.008571832799039095, 0.24538035066425837, -0.014992869375562169, 0.09110045348745284, -0.19956716271483346, 0.1007177518575951, 0.00927400700085693, -0.08946176347942188, 0.06011438653464514, 0.1524321776003123, -0.020085400184642613, -0.09392925262669237, -0.07573309881008243, -0.08721894402119464, -0.2548708120570651, -0.09241672839614544, 0.009395313359556559, -0.16782497830019144, -0.0030012112810175726, 0.34189273548896887, 0.13639682399226538, 0.14961988991948433, 0.20287300525185886, -0.05340640667049325, 0.14714501333557153, -0.09442159765620649], [-0.07454691871521571, 0.12487941174394712, -0.4217406506249226, 0.04338738952395006, -0.16297380314914764, 1.6543286168135355e-05, 0.08176604092767886, 0.32452265681550185, 0.27348200997086614, 0.2000135054098094, 0.18734354492620917, 0.2090978529020645, 0.13409373263248636, -0.285352854748045, 0.001360897429156061, 0.19509683257111263, 0.014015831718672617, -0.1789842120890633, 0.020769902017692684, 0.10799804127051932, 0.04430328590227231, 0.08249708274014012, -0.020457209184459247, 0.007486351796141729, -0.1016179835891294, 0.11778846791428235, -0.09505832799816377, -0.16721276111985983, -0.12312036054366873, -0.008266740032497444], [-0.004450084897537597, -0.13547075779860857, -0.25039335081737235, 0.13797328009098173, 0.22668346942745998, -0.14858639185195768, 0.09562983034784014, -0.046827517778996165, -0.020079794552247645, -0.28374528746075023, 0.09838162282608134, 0.18517147849203452, 0.14580650117008156, -0.09793852499057007, 0.12494268647473004, -0.05485313851508773, -0.005104729309206242, -0.29856920893579747, -0.1094305148358166, 0.11204754575278754, -0.22395464152407757, 0.20992906297428224, -0.14080509865685037, -0.5380956861098741, 0.0693862351348395, 0.2615963572768065, -0.5055960394895603, 0.11026341217420724, -0.25754145626211644, -0.17360545817484496], [0.15758739494894952, -0.12949190092933097, -0.04235100970153677, 0.2516634001755829, 0.1764487881923086, 0.14207387777970581, -0.11685199849111053, -0.3264254736778659, 0.3567687340429794, -0.17725748464828053, -0.1782928165670985, 0.050734125064097926, -0.02809479373447272, -0.0854354777297921, -0.3385266778566451, 0.004322214997459857, -0.14050734924005548, 0.0765470675193112, 0.22460496436256588, -0.2576616246149789, -0.27692692725222934, -0.26564836350212234, 0.48463707609323026, -0.3070273784273394, -0.04481287753407748, 0.11487087457904877, -0.17510946965604118, -0.23582092931766996, 0.3765934789384021, -0.48496075019645113], [-0.2934210029230425, -0.020462928970682664, -0.02685133880649196, -0.2425923847677722, 0.04147982460645131, -0.17636008582492968, -0.03720572775318259, -0.04860562651852892, -0.2576431889367391, 0.028359704345691586, 0.16798605514792267, 0.1449960423306921, 0.09718877028263921, 0.18066165444316595, 0.16415974861479082, -0.23195843066603133, -0.007092395985976084, 0.11150682022672001, -0.1337276909424436, 0.07417692652428261, -0.14622831788726345, -0.09299030693175889, 0.2413187009109124, -0.39153498208491033, -0.11431141866654108, 0.02870409330597941, 0.1487216679260379, -0.1601341417043921, 0.005992208028604327, 0.11866932064634719], [0.07275906337262755, -0.024246546678770974, -0.4479864801017526, 0.2900538921377176, -0.4080538217461569, -0.161635566804719, 0.0676407930681098, -0.029772496584181393, -0.04858426002450515, 0.04798232681503418, 0.18762159469782835, -0.2205184542486256, 0.4409419442983333, -0.0031757606293784466, -0.08845809007319796, 0.13477564869698042, -0.3850936570415881, 0.2651972142253205, -0.10522947721285458, -0.03678300877800015, 0.2785761652958601, -0.12626482060554017, -0.1449674101367253, -0.026628751242839265, 0.2022745896121096, 0.20186522121472603, 0.17878817990598375, 0.09003243021640803, -0.397131808802906, 0.05865969148880581], [-0.02941068057412607, -0.007135940737628354, 0.0069699609108027985, -0.19946890438018358, -0.010448394921416432, -0.17471380491264207, -0.1522652067942771, 0.34345819352691115, 0.12498144348185436, 0.1080150630522971, -0.06570808374166226, -0.11899878070411107, 0.04418448113519924, -0.044531637836265424, 0.04445858650919498, 0.04577241077073667, 0.00555975988102425, -0.05516126608498272, -0.023472503304418312, -0.08041474136706485, -0.17348316336904643, 0.056868983617366975, 0.05152927065613854, 0.2825273089570831, 0.0973067911487155, 0.0836996090753661, -0.05162998477016612, -0.1107521234880796, 0.12175180347841413, 0.08951929733090819], [-0.06804717003424891, -0.049989467967653, 0.22326244012547924, 0.11652178996961671, 0.06968092852053631, -0.07365422809603238, -0.039228888882934944, -0.08597340622418476, 0.2576189224485102, -0.19049277507010123, -0.2588707128272656, -0.3157319435219399, -0.16856791688913275, 0.34993179224491994, 0.4454558357249889, -0.0443665003281862, -0.3052801053867565, 0.07010292499793648, 0.1566862408693578, 0.1474332258781932, 0.02619383406053572, 0.2606740459578394, 0.05725821624115592, -0.3372276548633578, 0.15171119963668186, -0.006590620253114772, 0.17885762709714842, -0.03287328944230056, -0.1921852482436448, 0.2831683444918513], [-0.09317823970780852, 0.06025372012827696, -0.2854372477944773, -0.08239984927080028, -0.38586217536154843, 0.07111710303630019, -0.21616250098679685, -0.22711572077577485, -0.1867663798513963, 0.10566402430334493, 0.081464871731297, 0.08089991076269046, -0.07953426380494129, -0.1439808942276593, -0.361380489167384, -0.004109827352288932, -0.13778588389358554, 0.3428038227333582, 0.16642474681003708, 0.07931920696646179, 0.1627445476365794, 0.09155331242258398, 0.06836660090841429, 0.10321791444986818, -0.16248220049820228, 0.1679609182126418, 0.16861462349726564, -0.21199002710021958, 0.18103049788031308, 0.13958739306599344], [-0.11256420644263504, 0.01169186573382472, -0.046439890532702026, -0.005967045378228454, 0.09460131422357045, 0.12606036621739755, -0.04551665206258391, 0.2303592555031656, -0.004750533958289463, 0.03635639404586246, -0.028134607607152834, 0.21109103076892552, -0.035060874419453575, 0.09500687231248121, 0.405736348723489, -0.24012351906594043, 0.22640378254389223, 0.4265702144014744, -0.03294026511892164, -0.0784296405346807, 0.21992887556861648, 0.19766326031458703, -0.06482686927126279, 0.008293916320055715, -0.03466725500083382, -0.005629536484670789, -0.07322843706167174, -0.1310583864020907, -0.2277964183309714, -0.049313324202714684], [-0.2530437326919251, 0.017448364346696325, -0.3042937227425014, -0.21690350194544103, -0.34600473027716555, -0.05840804989275341, 0.14806718630379073, -0.2903898964845942, -0.11791202859875874, -0.03563815803501872, -0.2018431284645933, 0.03100986479260909, -0.2795352085288548, -0.280065918415062, 0.22758414031102014, 0.11529317279204769, -0.13988366787495274, -0.11057212609772825, -0.04658043280548664, 0.0597454833319774, -0.03931505137909928, 0.08539768814717948, 0.08605363033179658, 0.06142468305024636, -0.0783592057414717, -0.04084967007416163, -0.16770424847114873, 0.2102775250974477, -0.10873232275083324, 0.39143776237205874], [0.0333603446196685, 0.10462945053107517, -0.08578895154543882, 0.08417743246279114, -0.10395196849487626, 0.03390108190192098, 0.0010848257871839836, 0.0707140240572965, -0.11064912680394136, 0.12956027895335764, 0.05894427825631494, 0.008424549543465821, -0.02836690111606036, 0.12280594082191011, 0.03223831892126162, -0.33182186803727165, 0.05439122458122762, 0.41961701353532593, 0.0044004433278275875, -0.22873502492914255, 0.2572406332261778, 0.1573166383858681, -0.15533955030394625, 0.22180710235890194, 0.10741676462136188, -0.2321449854122499, -0.1000522406827366, -0.11489687827433508, -0.13362175501100532, 0.10604996744322645], [-0.05136808014632495, -0.20328864130067945, 0.3665465241079735, 0.34528201884650456, -0.07183843692216507, 0.15761481138197347, 0.19967546027910626, -0.09861761729621461, -0.05749380566166905, -0.3032495856334902, 0.2627300512826761, 0.15025442631510252, -0.10219939692948796, -0.15065725952731868, 0.034114420212974575, -0.0792651816027745, -0.054158008284342946, 0.2505886122568326, 0.10100444882640168, -0.15401430647000316, -0.1711771906964079, 0.2341617815025164, 0.3702529818368404, -0.19835917456760824, 0.07196619394206495, 0.28510018709966184, 0.1866193610727896, 0.09934697299315069, 0.14735091332791606, 0.0009504115566230796], [-0.15250059578890446, -0.2462429710629783, 0.2618227534134079, -0.12110184623689882, -0.001085646061058541, -0.27123372498129716, -0.10840932940023953, -0.12408707578155787, 0.3909087722970649, -0.07811782320054353, 0.027497049655421404, 0.139886965791129, 0.09342632273984132, 0.3672668291918659, -0.11956046401698035, 0.23350644301436146, 0.011713621185724691, 0.3437421559882686, -0.10220214779760463, 0.2024370979541791, 0.4177632458764284, 0.13949508618504836, 0.024248261027699388, -0.2581944442619283, 0.2597188431310407, -0.030355177182847175, -0.031238369595336345, 0.14330524520113344, -0.06910273882403169, 0.4221225653396714], [-0.001097468465482353, -0.11388681979442121, -0.12634882643374848, -0.1295332644535417, 0.2996961590916572, -0.045420339864294994, -0.040786691050504684, -0.21266304470672898, -0.24525961706272992, -0.171856617192146, -0.07968074632063298, -0.14019611763734757, -0.3271711788362212, 0.03685587525533502, 0.039009063371319014, -0.4054585966713838, -0.09816800802745815, -0.39272145571242906, -0.1298419570784893, 0.20357961632661312, -0.004859766856239933, 0.1950945667905564, -0.02249682822402473, 0.04637530348934817, -0.008049912678921443, 0.0890364746960481, -0.07332940567918267, -0.4276168790387949, 0.12700961895550986, 0.1334081490009678], [-0.007925831010795416, -0.03898137328819468, 0.22828089072949487, 0.11799983126616148, -0.04538356521930985, -0.05277189047953507, 0.014036890239666514, 0.1749168608866235, 0.10630643778452839, 0.062041316304136424, -0.15934828538082174, -0.1281230813806295, 0.1378214919887571, 0.19713325776563392, 0.1282003276689542, 0.2180555703117438, -0.06372207970308721, 0.19340611775920583, -0.04473354075445774, 0.04207398548172876, 0.006737995052507603, -0.1701447591270464, -0.10876374381033457, 0.07796053700083008, 0.24579645506343004, 0.08398163311733219, 0.025788318458633854, -0.09684258740014925, 0.14321093634649634, 0.20445363350506798]], [[0.1841289580115343, 0.024535808531230156, -0.06330567311833811, -0.16024929411589905, -0.032309289909458236, -0.00836377698334677, -0.23220347540923264, -0.23184990386432686, 0.11558812039810469, 0.10810427539828171, 0.4239961469154569, 0.19591739167153777, 0.27230302048961935, 0.1075228788426486, -0.6581198741918304, -0.3387823826938945, 0.22983496210562043, -0.20365112516549033, -0.07348653740968514, 0.15450781320126986], [0.31771334128046236, -0.3745531813180158, 0.14141651837171626, 0.10679271285907135, -0.434590777599546, -0.4977026288474581, -0.12800599654646863, -0.07188033009375144, -0.2378142153845573, 0.31824816323919214, -0.0013036005765866767, -0.06616875513241297, -0.21144303092668446, -0.3007713712932444, 0.12421568650592293, 0.19695164349863975, -0.0443546823733443, -0.11978627630929192, -0.08331283285414523, 0.04501148398640484], [-0.038559330718378394, 0.14170935619845465, 0.3522602205285017, -0.10108274469172962, 0.21815846703183808, 0.4168079320977584, -0.04068232962303769, 0.1405721796871421, -0.1432659248221159, 0.13993458605718906, -0.12569257974864265, 0.15330283558422741, -0.06413123774193881, 0.13466733086847357, -0.024960379120747382, -0.4010312650072374, 0.440008154513611, 0.4181791363942158, 0.2483795826308043, -0.05990717067821337]]], "biases": [[[1.2678321611508383], [0.40425417900673244], [-0.16359164212577465], [-0.11493527608686752], [0.47627405974866116], [-0.4112262956611256], [-2.1256187508753843], [-0.9042158738387609], [-1.652703053602082], [0.2814026379206294], [0.14811226968365393], [0.484906234985516], [0.587937726673594], [0.7495946517811841], [1.3156482619773857], [-1.3890100601494682], [1.6599250414238347], [0.1868672753313417], [-0.5028720155207507], [-0.576724507409322], [1.3746736002994506], [-0.7240793134911521], [0.16190806576332983], [0.17828478638243925], [-1.311840570050529], [-0.10957349613794516], [1.9243742564341988], [-1.08660322762721], [0.9827921753380959], [-0.1942904098192485]], [[0.9668229042454193], [-0.7014116772668596], [1.4431319601611732], [0.052305898037832636], [0.04522608187706729], [-0.6246892789010748], [-3.0455678924042187], [0.047236390511693024], [0.40885592410022975], [0.37218159111169646], [0.7268908583129441], [-0.12266156539494558], [1.0202550080468222], [-1.1552800963237], [0.6718830685334083], [-0.4141859090745831], [-0.11041487097035212], [0.004085188086662024], [-0.8573455668161438], [-1.8473504787307853]], [[0.35327791572319367], [1.2476682926444478], [-0.07296125843080105]]], "cost": "QuadraticCost"}