{"sizes": [4, 30, 3], "weights": [[[0.07588520748260037, -0.9675636785588121, -0.626899644651702, -0.5562996952747316], [0.0735552329700508, -0.11405311192229418, 0.6498120700755415, -0.7722389234337054], [0.018087516601523645, 0.35418303315716015, -0.3771744061589913, -0.30600071373451304], [0.20581305366336572, -0.3888377788108027, 0.002481193313853366, 0.10192552253465464], [0.3289596880520961, -0.16161963407539703, -0.598162288816668, -0.01061214668642381], [1.3402891467034042, -0.6863674620207154, -0.3870668301441993, -0.36256518718244807], [0.04672718877351085, 0.14421803471427241, -0.06388310827718162, 0.005682169970754683], [0.5816253275176833, 0.6565006696388768, -0.34870776895682765, -0.6960831711465055], [-0.011397845785350129, 0.4274408765886891, -0.807787680026739, -0.6761659236144572], [0.4546985109529651, -0.40646655640450335, -0.24851380975384793, 0.8532111207718797], [-0.0017559512141293164, 0.08459713408591024, -0.487684331580904, 0.09423109565520417], [-0.7406148707759925, -0.12330457542113601, -0.05198198094762709, 1.4286607858553606], [-0.5870824012112499, -0.2636396099176452, -0.6225530623415475, 0.13273743679542435], [0.21278559119354615, -0.11431795285995391, 0.17044870392888511, -0.4053759715145381], [-0.24941293866860761, 0.9722478333171237, 0.2999684898014258, 0.1971841795643644], [0.10111216082405951, 0.8925614609457387, -0.8093138104368566, 1.3485917790046518], [-1.2840836821472839, 0.05658149671359144, -0.9454896166987364, -0.5490366247070984], [-0.30695794306021623, 0.15971722417814443, 0.5409517274485847, -0.055172728547345694], [0.4281073119863614, -0.3895445776629711, 0.45318397440874175, 0.20300662541621384], [0.18848998698502048, -0.9829069596939132, 0.6686786577542901, -0.9102886494962189], [-0.30918431533685126, 0.22265999777046577, -0.01543503923643694, -0.4519191026591587], [0.3741836735380516, 0.9894511478041614, -0.5416269938359766, -0.5631918993855111], [0.4573545733272046, -0.1462123877041522, -0.7047479382275534, -0.16161866846308665], [0.019186638399076493, 0.324518729494693, -0.8122090153920863, -0.33402417053523104], [-0.6641754703216725, -1.1907730636500247, -0.582067386494948, 1.5183457773414388], [0.9100443260128281, 0.05103704211057505, -0.21617784219396988, -0.3333026767338071], [-0.11285937004391276, 0.6760525402192595, 0.19284724811717208, -0.5370992017366217], [0.4280204939635582, -0.7359778964541597, -0.8601224164857394, 0.045976226320469486], [0.3667608814674821, 0.28978373640207916, -1.0551642152939966, -0.5239739568771945], [0.21140762211239306, 0.4517717343607228, -0.06873319665929245, 0.02954252248695191]], [[0.08987545294976543, 0.18543227178663402, -0.15534671762692626, 0.42704430296824364, 0.17777336039491862, -0.13658321424026099, 0.0703030663335779, -0.18625253885223503, 0.04616889852363985, 0.022799382088771494, 0.0023873233079375507, 0.35230928135132533, -0.0905974449131994, -0.01084737320979151, -0.039045566941543784, 0.1606828289076123, 0.11884327213136396, 0.10232442010795145, 0.1674773685794548, -0.027367614711143, 0.13554850854399342, -0.03051026516588305, 0.08640406187043172, 0.018655360118617584, 0.3097215343333329, 0.05117998085906933, 0.02143604969266335, 0.1810208274478854, -0.18449140332141462, -0.15382857941080355], [0.10057619429084681, 0.22066916602450495, 0.15927091371713972, 0.23619234705547734, -0.018995307385532796, 0.02318655249533949, -0.08355962641001366, -0.1471901464127861, -0.25300581675979794, -0.01411428465475127, 0.015705814305449362, 0.10451521973230843, -0.07979436635567354, -0.1492024277864797, 0.051369585719874045, 0.017402675041268353, -0.010918471716491199, 0.24036827850833614, 0.02818074602357587, 0.08337152889191204, -0.17628933454161697, 0.14374312222912142, 0.44326987458223754, 0.3238795056639594, 0.21359159657578491, -0.19681304800446928, -0.14625696134142563, -0.1291758825570863, -0.00948367200207094, 0.20101522381181047], [0.12801304705339547, -0.08603927418112932, -0.018818559986028504, 0.3152353985183792, 0.30977722344755687, -0.11861060014279462, 0.486744380500064, -0.28627247201419787, -0.2180964801700016, 0.05012274745369681, -0.10896809662445496, -0.3496257519426792, -0.03141906679505483, -0.004680824055698571, 0.2654753189472418, 0.4269275597944154, 0.031298044213516465, 0.23987370478208012, 0.1809161693841248, -0.12230635047111141, -0.004573777398359465, 0.2445949934658371, 0.09070512418944457, 0.30653906099669676, -0.14886644539365848, 0.21315690730575604, 0.0684361724999006, -0.3945688441959856, 0.002357683483902021, -0.014427791651670345]]], "biases": [[[0.7285463848441461], [-0.3258634316625774], [-0.9510680205524343], [1.158675586880194], [-0.3702641726244513], [-0.131862445508572], [-0.08306402226902304], [-0.22686737797482975], [0.6281310249146737], [0.5568282080988441], [0.6838367402887081], [-1.0952304612677604], [1.787681788045143], [1.9897560978012654], [0.8089794932835106], [0.6150252096355215], [-0.5911040388461916], [0.4563110778729598], [-0.6197290416154848], [1.530288433891209], [-0.5609679732325923], [0.3982813252603551], [0.9861715425388544], [-0.609304944507883], [-0.5295865427328141], [2.165639800223789], [-1.2013998623843922], [-0.22510903049409947], [0.27297701867797824], [-1.0602439192818842]], [[-0.8094311125822974], [0.16253536867147977], [-0.2848867687262766]]], "cost": "QuadraticCost"}