{"sizes": [4, 30, 3], "weights": [[[0.003168347478311688, 0.36678079732186775, -0.10137929038779728, -0.20596138282710888], [0.0748958998019492, -0.10204629943003304, -0.23272820801933192, 0.42027273046689584], [0.5205387605417131, -0.9305858543811195, 0.1828102120927796, 0.11058946525717586], [-0.03744872857033172, 0.4422929407948467, 0.456140618207577, 0.34807665540094823], [-0.6003440374605208, -0.3336058201319765, 0.8288588381569946, -0.21847278034551115], [0.3104878550532525, 0.22481149841846, 0.1032724425203416, -0.37094288656242463], [-1.5108797422196303, -0.01071240854897671, 0.11417843964678472, -0.859390988497946], [0.18670115694632244, 0.24182559043640206, -0.2589268167708905, 0.06379677452333743], [0.3421884083842152, 0.14337450898769344, -0.9987138499925111, 0.20459326904930655], [-0.28627282269286575, -0.8158317287570661, -0.7618475002590815, -0.2597349217824947], [-0.13781960551441313, 0.6156054153324024, 0.19487237783784658, 0.01725424784997726], [0.5690972159591193, 0.3177821547632725, -0.09748591251321738, 0.32918684259917974], [0.16304398550912433, -0.12032389428890604, -0.1554263939112071, -0.291329721655407], [0.009051775800260882, -0.19544867979261857, -0.28075279341962994, 1.2370524018188551], [0.2075309440520449, 0.021458952303158845, 0.43449693545723406, -0.55466624875053], [0.41532460233268487, 0.21933639903054525, 0.34303252257794176, -0.40155541463499345], [-0.08351407026356503, 0.12489253862590695, -0.8752829459781176, -0.12999640513809538], [-0.06409940763769809, -0.09634515013431748, 0.48647320232581964, 0.1471366577403205], [0.2802193210371906, 0.3849293654073375, 0.03083251358115658, 0.2690178064665606], [-0.3753451091640546, 0.5852606371228788, -1.0415254017362534, -0.2940127008436458], [0.23064095355847067, 0.5809169569494396, 0.5336491399108829, 0.20371579441272247], [-0.2551377919609889, -0.2810374313273096, -0.6111219789437057, -0.2865374979119841], [0.470598154645949, 0.17726934029819494, 0.23919473547493475, -0.0881557085556126], [-1.1038933184810023, -0.13556638788105885, 0.31267518737447914, -0.608868192193157], [-0.4957672200011679, 0.42514131283741713, -0.2605573614318091, 0.38617885951705005], [-0.3541912768486298, -0.3412315662582642, -0.05319870512133908, -0.2573132997011427], [-0.6799331592251682, 0.22535415647264195, -0.03877709091214757, 0.20079910156437944], [-0.28861443403075115, 0.22364117559495406, -1.0724289872520474, -1.096429778590762], [-0.06074290716191259, -0.3454961188005447, 0.33996834949849486, -0.5157909661358099], [-0.06958380178519095, 0.044618255263162244, -1.1634634406064215, -0.6822392654980094]], [[-0.18135347621224931, 0.037009006779093086, 0.3495117396812467, -0.14900508380695238, 0.04778488772164628, 0.027727599305643554, -0.09384695529597349, 0.27993289293470297, 0.11598751373668918, 0.08045523001301408, -0.11727192185991901, -0.0401942711842479, -0.04546984087685665, 0.0596498194920106, -0.1687151717179974, -0.032322939245030526, 0.09547360463547032, 0.007203000610414656, 0.21384205505623566, -0.5215441421358242, -6.215544939783983e-05, -0.004447274445164207, -0.017547744998374835, -0.012712801528371785, 0.4993567451230064, 0.10821200782963022, 0.1160582693130045, 0.049021081262966976, 0.27879649007107693, -0.20536496071870208], [-0.025357456376213637, 0.46632027378196533, -0.20516731849199077, 0.19115822008638297, -0.021873877856970515, -0.31307185732831705, 0.13389636331564725, -0.07902452162708695, -0.016343369603979873, 0.08373811566054214, -0.26425536802091765, -0.17684701525268423, 0.024922901100793583, -0.03845645902446938, -0.27443915453575535, 0.10724610064461669, 0.12632662048902285, 0.13650634025280148, -0.1042777440993941, -0.1752178745417788, -0.18163290405463048, 0.2659499491065592, 0.10731191783544247, 0.18448763138707222, -0.04548138267347127, 0.12095124485600055, -0.19031185971169134, -0.19490038674833443, 0.11899716882918158, -0.06290564564789358], [0.2544363541400343, 0.08735244936817434, 0.3633569415206801, 0.11979784680497278, -0.20965884271304383, 0.11369977030224687, 0.1311198668542621, 0.21231429520814327, -0.10024038364783633, 0.15310769632297835, 0.035311659529512304, 0.30514792606330393, -0.15058891597636526, 0.3307534383929971, 0.021325066834643643, 0.2284196233435174, -0.21331778649563415, 0.16801147376299871, -0.0013449180445650544, 0.03071601759186746, 0.10532066347673831, -0.3054881346783874, 0.12179704623560661, 0.009642576273844383, -0.14668245546381886, 0.1199860652820356, 0.04302804054161363, -0.25385413157323, 0.10279553089783912, -0.1433534267146694]]], "biases": [[[0.3784626446571588], [-0.6046596995820294], [-2.010734982001095], [-1.3365168383273935], [-0.39837384220305283], [-0.5986723652662664], [2.1853813545751635], [1.2947858261381242], [0.981824314335501], [1.389042150119653], [0.24232765298281778], [-0.3901666200987734], [2.8893954817209555], [1.4378629945509291], [-0.6774128274854115], [0.7134045141743324], [-0.7034085243400444], [-1.7363866033608701], [0.6086641055966616], [-0.8261710053132955], [1.078881392661291], [0.39531367012852114], [1.463886285330547], [-0.005163715477614134], [0.539437288654396], [1.0463953952633438], [0.9499968781031762], [-0.12645132078088656], [1.8257008453262518], [1.386046070501711]], [[-0.450308309492257], [0.9824494938494295], [-0.4994822522645365]]], "cost": "QuadraticCost"}