{"sizes": [4, 20, 3], "weights": [[[0.10525555758008645, -0.619242410317569, 0.47006057114869093, 0.5717936116820508], [-0.397768115701348, 0.6567218094347269, -0.36110893256131066, -1.312032613261559], [0.12056804706558608, -1.0239525436489096, -0.14065413559927337, -1.047056608681193], [-0.010987982954599932, 0.07483187236059993, 1.10857250109457, -0.07697784951344187], [-0.43648515236452007, 0.3444198389704643, -0.052902667547534525, 0.31352096186540096], [0.05699742202382601, 0.07372714818999258, 0.13597026641414348, 0.607745533127347], [0.5443806387788861, -0.09621832485975625, -0.7898799447244754, -0.19049000823118564], [0.9093807193638259, 0.5925368975394845, -0.07836427630662349, -0.302992827276522], [0.8373058008656065, -0.16711507231216716, -0.5440744199032671, 0.2181342191731001], [-0.291257400140222, -0.03734764544985335, -0.43528847633700396, 0.16490158370742966], [0.21136345771838427, 0.21074136996733212, 0.7103382394186986, -0.15074113752240095], [0.3828899865984855, 0.13524336764541425, 0.3990490382890611, -0.8608418118886998], [0.31972352984547586, -0.08325856727044109, 0.3284948572977437, -0.11899027352856356], [0.8337705858034425, -0.49668235218401074, -0.04417991347861586, 0.2732449866819094], [-0.17872702010495703, 0.5870418225831902, 0.3514092191898082, -0.8637132249535395], [0.04242085306308263, 0.7070627877945267, -0.2346497504913287, 0.2059210658517307], [-0.11336967987582999, 1.0498817432496246, -0.24105375019239556, 0.37999158921881976], [-0.41449063598635333, 0.5080546438428201, -0.13274624330520934, 0.28173714908042646], [0.02668709364049335, 0.20419759434378365, 0.13906554119223, 0.06069214121532649], [0.4863894018455968, -0.3454557783894919, -0.4533799656610842, -0.010490006207067982]], [[-0.11487923752870927, 0.020136190067431062, -0.1278635126306993, 0.011714594918079049, 0.41714788188782365, 0.3222645598780625, -0.19083650014123418, -0.001696135348868065, 0.29911873821005486, 0.2970737250803315, -0.2420668601152122, 0.023670481810535018, 0.15930481916168085, 0.20438984007812586, -0.07960156760410106, 0.1852277542217074, 0.04004820536037462, -0.5839557232042244, 0.02743157265462202, -0.1665220469182163], [0.15479166610745324, -0.5139486378473227, -0.21572693252622402, -0.14370411287869084, 0.1926880808667382, 0.09238324362897828, -0.15532375632824091, 0.1268658750912428, 0.46058968440201015, -0.24287955358485616, -0.08063623553866286, 0.08145078315524613, 0.07175475573556248, 0.3552491906204164, 0.15912539399802783, -0.4141080097188966, 0.011327236121797146, -0.12607945274789803, -0.25502232297940863, -0.4292363851240943], [-0.21689756922235007, 0.20710481584616497, -0.2837370244519046, 0.3997974025876372, 0.1939660641369733, 0.24334569393287417, 0.14822536138691, -0.2405585345182757, 0.3377882369981857, 0.019083621246641678, -0.08147723640857026, -0.1112169244292616, 0.32416456680765143, 0.5327419745077245, -0.013435744276686605, -0.03823563810154786, -0.20723502978380973, 0.09647488954433962, -0.05371175910555684, -0.04295572582661906]]], "biases": [[[2.2782346596738257], [-1.219203563173732], [1.2401356270983919], [-0.06604824841151852], [1.8586834621194568], [0.1009839831896171], [-0.9206121845629496], [0.32711723126877396], [0.668217811317768], [-2.5238405206402956], [-1.1718203039335757], [-1.1493490791072443], [0.27605000858400386], [0.870901661595983], [-2.6272520241167303], [-1.6493776620311562], [-1.2273819276023923], [-1.7576561830585884], [2.1530488917217454], [0.3842476044471647]], [[-0.28449548496888377], [0.4207612334513684], [-0.4674997981563595]]], "cost": "QuadraticCost"}