{"sizes": [4, 30, 20, 3], "weights": [[[-0.26550913226827005, 0.047844391874381983, 0.7243386910675017, 0.05331855912489688], [-0.1897883636989872, -0.22475592954987142, 0.24432890442319002, 1.135327063128954], [-0.8486306903822756, 0.019608925466664703, -0.1912842982190817, -0.19288094311992995], [-0.6934287143904837, 0.8787749634252412, 0.8611692369584946, -0.7293228542347274], [-0.46991438161404453, -0.15551756060163713, 0.2662544901730996, -0.7260916112145747], [0.21147243306876107, 0.2714263267934946, 0.25679663192635477, -0.3422959336783135], [-0.8716688543594693, 0.4163945442810274, 0.32667022889276287, 0.29628604435897754], [0.35881960818552616, 0.4397441332917111, 0.5188547388927336, -0.013362066226365685], [0.04507608851787424, 0.3338550734648421, 0.06422080580825396, -0.01210079693799425], [-0.0411525163545102, 0.18036044372572094, -0.1335971097304768, 0.44170238883641505], [-0.028974381916537145, 0.10375710435522176, 0.5347458289737292, -0.3234725309750268], [-0.2573390862091796, 0.4278579967528366, 0.2024430704432349, 0.21630095880159977], [-0.17777883818376763, 0.34025690993314356, 0.28360332286938145, -0.7510608355972981], [-0.1155016731707015, 0.45890803416898196, -0.18802826568940348, 0.23896856646927506], [0.35882028665101956, 0.17817327121643667, 0.22125140068609983, 0.9743971519692031], [-0.3741206078234962, -0.10809715295236669, -0.08875672183095323, 0.07112658305104444], [0.10095229883092828, 0.31236384025422975, 0.19235025954356302, 0.12178657693821615], [0.0346856529589333, -0.3690979821614758, 1.0854433785558306, 0.32763569247770313], [-0.6299385739314606, 0.2880874163341006, 0.34210834480621405, -0.2680333504281711], [-0.0956875804645946, 0.18438261619571958, -0.2937105808502815, -0.2550845066455389], [-0.5768057255598963, -0.272157557042199, 0.47829604198052605, -0.052909462279712646], [-0.438924130283656, -0.16925539480100257, 0.3268878919375576, 0.6128090927016395], [0.15899376018124198, -0.46168201785512003, -0.21743134098989936, 0.8478931119028305], [-0.017970835302110775, 0.01397609274438347, 0.22297113098125448, 0.22347251351805822], [0.25802223649351924, 0.30486639302259644, -0.00299632993369083, -0.8126402195111132], [0.31045127350446466, -0.6326996373183151, -0.785267381759762, -0.34724482695536796], [0.2137878712002751, -0.2901440459687799, 1.1352040415055173, -0.11841712571761794], [0.7783453335374464, -0.9288076227052131, -0.04462195218387178, -0.13960990306751558], [-0.4575474787168311, 0.41830711745145294, -0.06880575144086372, -0.2194882003048737], [-0.699244666082062, -0.6556562527000362, -0.04014436322128718, 0.3444346545575205]], [[0.1736477382056069, 0.306737436871031, -0.022331244158029444, 0.33101451623278855, -0.045444016162840564, 0.05200173585256871, -0.1438019316086335, -0.22705782588311232, 0.31859955024101494, -0.11132831743559107, 0.018794675081959644, -0.22523744725304476, -0.12090403033704074, -0.026763627390955873, 0.01197334489540294, 0.032743630540391616, -0.3398769290741106, -0.11057434486093248, -0.16303660619839797, 0.27955716151721466, 0.18343602171407136, 0.13230396874412884, 0.10802186399381361, -0.2605723983467252, -0.20984956575505725, -0.15494008221495964, 0.32130226448718735, -0.13349713906094648, -0.1481328543779259, 0.0016517877287959147], [0.233625309437005, 0.06991203824399621, 0.28474520155078964, -0.22540644618236036, -0.007670561236906859, 0.10761272837770032, 0.17874050505747952, 0.1291127089418649, -0.10716952291482958, 0.1151326154000063, 0.17455525586860782, 0.013266144701454563, 0.06693367230131228, -0.08042068781177504, -0.10744986696218375, 0.03377802000960107, -0.04941492816986917, -0.2451484459348763, -0.04735047648159727, 0.17702717788688827, 0.06520156887872748, -0.23421661613238423, 0.004502939417277389, -0.11244241836953925, -0.27085992848595636, -0.02727819515787601, 0.08808064458342633, -0.20449191463732078, 0.10960354565852995, 0.02656904931761969], [-0.4042936137084481, 0.08261982926006955, 0.08199738561317846, -0.11846506754012552, 0.15238900480889794, -0.19257319709308862, 0.14213637870598506, 0.17802693070088163, -0.2663764860759509, 0.39459838661916447, -0.03868956014214604, -0.2662141881728327, -0.03613896546985606, -0.007689248036641532, 0.09682285261193765, 0.17509721331610598, 0.17215656347446207, -0.14161914700872705, 0.17455380228754785, 0.01058162876946093, 0.009667206118532303, 0.018305047746457494, -0.10128513575125035, 0.2615601622396707, 0.1294527063245385, -0.24099194549764638, 0.2229482346076597, -0.3271927407693029, -0.09974722095631401, -0.40051863376997116], [0.07839907699017544, 0.35301764418780107, 0.0675882224952869, 0.05658831888618204, 0.026890960741764343, 0.3167779502106112, 0.11050629945696716, -0.06367522225053292, -0.13663899426782908, 0.49164673517178686, -0.2663672038605094, 0.07204326704915903, 0.08081016178211249, -0.049661664293388405, -0.3091380467428839, -0.19340795643704536, 0.07002768207352945, 0.18849875342062522, 0.09155313551156859, -0.034747726934694995, 0.11785816197313856, 0.13149932992451072, 0.19021017653320954, -0.31223413670697364, -0.011844970878325894, -0.16018864125721394, -0.13974715441620006, 0.09084021153630181, 0.03088348109274333, -0.32533668848320435], [-0.28763321128543207, -0.29678184077985664, 0.040498063476928754, 0.23063823625377008, 0.27741966223781367, -0.28843225207074025, -0.35887075705696553, 0.13852708828884314, 0.02700381513839885, -0.11804276494473483, -0.1402552969671426, -0.345936714394593, 0.06377848501578, 0.21286440044801616, 0.23857362706738366, 0.21977028568365595, 0.14416336708188107, 0.0027947776361756274, -0.21765338112197608, -0.2619299962681954, 0.0653140889584289, 0.2962033110775606, 0.3153451600538532, -0.025873602627915968, 0.1007114994618262, -0.12908540550073475, -0.02028070852257121, -0.060107206312578355, -0.13656782578870352, -0.27142052881511514], [-0.09163591313267161, -0.40781301962552935, -0.11918396312830623, -0.19847358454468336, 0.03816472718479658, 0.09431509835740715, 0.13757300107906523, 0.12578770222868543, -0.1583617896518434, 0.0999433034218048, -0.020808919590480666, -0.08298319563765476, 0.17362340047875274, 0.15967226264026668, 0.15972723381858872, -0.20866999159883126, -0.18785907813320835, 0.21197871485073438, 0.13942530684617518, -0.00018932795125303778, -0.005441511615456778, -0.26948688002103666, -0.0023101666606627973, -0.039543413896737614, 0.19326629123701775, 0.267176053348007, 0.15438542990781326, 0.2261182630406656, -0.2362048319366375, 0.1682370181470284], [0.0007724167351018655, 0.09379030610863205, 0.10759931862697181, 0.04072693636628537, 0.021901340892247313, -0.30712915390848416, -0.21306964522673605, 0.3011489894015477, 0.08503952954850269, -0.10957608322966489, -0.10408984834254241, -0.42017342906096466, -0.026444918759024147, 0.34727187982443686, -0.07656045152891006, 0.19643693468775364, 0.3818479495117268, 0.042033724484917795, -0.08203733063678814, 0.20279941041074057, -0.05413315059290868, -0.07204516478079286, -0.15390323843843684, -0.0012792319847497098, 0.04570662752886429, -0.08147007777629821, 0.0717235334999792, -0.005242363144945757, -0.1151613477352561, -0.08813095231431116], [0.2587611789685797, 0.09000625126318447, -0.03626801546190656, -0.06283028675435261, 0.09581843273420401, -0.15952117714711989, 0.33979705968599994, -0.4085993725157177, -0.2959174145828431, -0.07568594567450068, -0.2475115707391375, -0.2877248929893285, 0.04508719740863743, 0.12305019770425499, -0.41623254798571396, 0.06466845145657564, 0.026573826991372826, 0.10520055176843811, -0.3448208609181656, 0.005929799265547865, 0.07507772596292576, 0.33739967415932914, -0.28999066360224474, -0.10031581303101637, 0.17475179529184456, -0.08629323447013754, 0.5876078246716473, -0.0608137881287838, -0.1605433960288983, -0.5214416532331462], [-0.22554330562197766, -0.10926571696452797, 0.14480294336736896, 0.182907936425878, -0.08749082127348269, 0.135934969051216, 0.13757134522056097, -0.2856679475296165, -0.09281330862203971, -0.2273972295291357, -0.02071787085725813, -0.04565514835699691, 0.07224917545776852, 0.32545662505508904, 0.04062762899377589, -0.1806616209573575, 0.23105117980771953, -0.1466570934373265, -0.0441612330192333, 0.09493454035013171, 0.12533454756531784, 0.04634337765697515, 0.05373735008632587, 0.03704704556414491, 0.12191789116967001, -0.02128250209989264, 0.01134167465342903, -0.09774839698005482, 0.08316443635606664, 0.07063868428532359], [-0.3388024887091259, 0.20684874415611115, -0.14778568476912074, 0.1899646126312495, 0.03174650095317866, 0.020747137496422444, -0.026711231489542988, 0.061599459651541205, -0.22349621451763213, 0.2765083268302475, 0.11362893407850017, -0.028348419867297685, -0.25308242402262554, 0.056280043661166, 0.10544101363461049, -0.11550718337166943, -0.07489070641718207, -0.0893830536526745, 0.1958909165862081, 0.0188718894256098, 0.3119955002505832, -0.048182480462087375, 0.2974934379513103, -0.05127130937517221, -0.13318932003792072, -0.04625239056495161, -0.0903666180572204, 0.055073242010691636, -0.21847977366055332, 0.050951188692592096], [-0.1481073830948325, -0.2628688479760975, 0.04689566705481472, 0.10154912532179841, 0.2617567333841708, 0.10475525404219174, -0.003286977240169626, 0.0603901361692429, 0.16124406714903158, -0.2227791325667938, -0.11361404598439447, -0.3424399809217851, 0.21358765001634367, -0.007823336206790984, 0.0607031318065866, 0.14312864034462164, 0.031602809923547796, -0.10940559757141118, 0.17043166853373776, -0.16191523721267317, 0.4876013629250034, -0.05096742972025607, 0.07380871751175476, 0.002191883163834728, 0.09185785942091122, 0.17622731855563067, 0.0223104439053383, -0.1871355994120103, -0.11154182797387047, 0.23298628749565353], [-0.09470382904411163, -0.48109296694689013, 0.11624773106960663, 0.20392637791335605, 0.1717407126877253, 0.21640991479101496, 0.17325105209404887, -0.18860358268753688, 0.11539233952104348, 0.004120971841033272, 0.07397359145443347, -0.30380484259479285, 0.45728568770614697, -0.1568401690424087, 0.3631783918562484, -0.2912648345274689, 0.14580123764077257, -0.08655816271623329, 0.002017790846643844, 0.1141322093002505, 0.14174550213584636, 0.1284173167341765, -0.16898733919751227, -0.01251143481719528, 0.27985893057128314, 0.3844022925965762, -0.35656684898515045, -0.3367134032643277, 0.1234541203786744, 0.04016665604717789], [0.16952283415501587, -0.06395765123770979, 0.13652548713296134, 0.3269177727745932, 0.024218057682151087, -0.10689607232111219, -0.3329328674471257, -0.09617904458910044, -0.21046334782688078, 0.005838505842784291, -0.41892533021883976, 0.11710314127611988, -0.19611106638492726, -0.08730549406689497, -0.03745709642904961, -0.08069229617763629, 0.12458222284226896, 0.3696701549192596, -0.09640739741094094, 0.08075305186078827, 0.17719111192144474, -0.09225939563290927, -0.04103442492943329, 0.022691468100735072, 0.0449429224033361, 0.13174888282207153, -0.06829190278154088, 0.3162208469807335, -0.030875662722108874, -0.0728132318317289], [-0.11944059586453436, 0.18725358784570106, -0.21959841027029967, -0.2609321216857923, -0.22062318128441546, -0.08549255861061296, -0.05364263653404544, -0.1208593206247528, 0.22273684209517886, 0.001880949631242132, 0.22930004336162352, 0.013046340354852132, 0.06298586914255808, 0.14084354641173355, 0.12671163264556895, 0.20300949996363687, 0.30115483060113624, 0.040350997820241645, -0.022905551737556085, -0.09778434657131475, -0.1091387968226488, -0.013499618553760672, -0.2971913339762074, 0.12059827103634158, 0.35158957000906726, -0.016004198158074284, -0.1861202994953486, -0.056335226962479196, -0.23358362891544246, -0.14179202296469656], [-0.3125094387368821, -0.11829075023842882, 0.28246371783830926, 0.02690446747186902, -0.03339437583387241, 0.22275326515704674, -0.14957171335421635, -0.13797035592491785, 0.005663153634142403, -0.1348159692561689, -0.1512036582786484, 0.26027789375069843, -0.09706178148305615, 0.033648634822402164, 0.05469994292492371, -0.20863030570801652, -0.3021421212776397, 0.03966123447906082, -0.07204601187267877, 0.10603990684480039, -0.11074028143643941, 0.20623320161716996, -0.05087234711494867, 0.12036736290043452, -0.2467384519985404, -0.07926620090481029, 0.043345839321640746, -0.1842548282109799, 0.18521287327792502, 0.017073668261108402], [-0.28035584800302615, 0.12003820139795289, -0.32647235440280076, 0.35542021718537764, -0.22384564810649385, 0.2118838504563598, 0.23848268576277085, -0.011474762526070204, -0.0162889234928838, 0.12140285575264129, 0.07565978135182556, -0.1129195628508372, -0.048305303303787905, -0.3955908616647473, -0.17877168829413576, 0.18913541354888952, 0.10647744046202084, 0.06990357014665137, 0.21846148431484616, 0.17159231284125953, -0.12367703272816559, 0.12646018025494504, -0.07326599737547097, 0.3150303206759996, -0.16930315915548813, -0.24061412978487037, 0.421205596485679, -0.2832236345772134, -0.36852541062473654, 0.19304744842620644], [0.18964285532219288, -0.16612163685822817, 0.019656765680480675, 0.06902573938452994, -0.14622109159629412, 0.20047662272371292, -0.097564100800536, 0.13801510468757378, 0.02362873594003005, -0.021308238570578588, -0.0457659472188531, 0.022861022681788523, -0.14905670732445067, 0.021635731396142322, -0.07897755868020154, -0.21053262643344411, -0.0996098552601672, 0.007761994015248323, -0.22807864240578937, 0.2105800073070965, -0.03910540301874342, 0.07858326211337908, 0.13637945384011582, 0.14123518338599697, 0.21549637718504935, -0.21581272084450417, -0.09492870754251849, -0.17593048490383228, 0.023342116314892022, -0.18921259255583592], [-0.058801564298395545, 0.004901456915188758, -0.024739153175935107, -0.002620638242901325, 0.034997171072612875, -0.2466049600064746, -0.3213731788640895, 0.04364418279791672, -0.339956506925682, -0.0016150445125484338, -0.15012536970936588, 0.027470710183187537, -0.06551126816012613, -0.07321251749106265, -0.1742613229112378, 0.2405513152213299, 0.1657353834679668, -0.15724606146598918, -0.12041229239178536, -0.3372295397180922, 0.07039288571404352, -0.014763103615607752, 0.011952290665916639, -0.09590307749160848, -0.036493503397841034, 0.20209336334842257, 0.060641489466624315, 0.10258139983723268, 0.38224428783072134, 0.385358144217695], [0.28290395568122334, -0.007792956906100765, 0.1629238799890729, -0.09096337512239172, 0.06272980329449296, 0.08657279884270716, -0.1553392544879512, -0.03759854282861175, -0.013226632159135434, -0.019371221124590922, 0.19941201645337253, 0.05286515256506104, -0.23563702756714835, 0.3473791167768351, 0.017586616244805328, 0.04782143661657614, -0.06213633937195282, -0.0043795531733993, -0.25596306445265543, 0.1936071586976127, -0.07406305290280793, 0.41960801384402835, -0.14397110424405093, 0.156312861256651, -0.023033718127854652, -0.2472202020666202, -0.2451599554853973, -0.09203688113590305, -0.29533335850018494, 0.20067599470505498], [0.06588489755239957, 0.09925377196252812, 0.05426978624407493, -0.14122398146428938, -0.06839201524214537, -0.22711240786485992, -0.07679050198046576, 0.028967975162270888, -0.0866922129956858, -0.02177991553530909, 0.036777736033352874, -0.13966134040440814, 0.26243828715399564, 0.019716372585811427, 0.12536701376537052, 0.04900095873253761, -0.06746478944070808, -0.15028539005369398, 0.11176896734422448, 0.44842109842885275, 0.06922595476794191, -0.07922369119929404, -0.22415985837415986, -0.13224325932569847, -0.12445567839592704, 0.11039193956528898, -0.20195098469351472, 0.07382248337961586, 0.09322425018931078, 0.0884418111597746]], [[-0.043625507605830394, 0.5337376389908839, -0.26358819425962104, -0.12115370156702239, -0.16006106267156575, 0.19120203209576633, -0.00010980525165399309, 0.3352633571783132, -0.23621361933852475, 0.42667098292124706, 0.20336198024056482, -0.2139611385474704, 0.16144678615030278, 0.5310067116475307, 0.01714090127827996, 0.3062457398113846, -0.1049025283702516, 0.06951300143820212, -0.10406822423818606, -0.31121854472325444], [0.12482650395985771, -0.11352350313447032, 0.3426013099805715, -0.23682245164467408, -0.18985971072307878, -0.47746233826194023, 0.22232734699086065, -0.3133614213530664, -0.30989886166086894, 0.4809414744113869, 0.38557187398427123, 0.22640819078447602, 0.20578688756422442, 0.4295532655326356, 0.3495439073193667, 0.06665182119111335, -0.3228516020824374, 0.12931990892853673, 0.01768973744698424, -0.24840217693140365], [0.1536008742648308, -0.15784345341346392, 0.3380028872500352, 0.05392796923714672, 0.16567949342800942, 0.07449992056706968, 0.04217581772880473, 0.09301881209692862, -0.33332031235027315, -0.09672186383792623, -0.17618233443018724, 0.017795667388134526, -0.2464138255300556, 0.19786839218443328, 0.08708876628602176, 0.08793127171057227, -0.18467193127388892, -0.2773844875944971, 0.0896859012654727, 0.15104965113276278]]], "biases": [[[1.230849607436867], [-0.10937278614060997], [-1.5254997444152467], [1.9796250743655077], [-1.0748696450061797], [-0.12998883190611135], [-0.16568749581857267], [-0.8748349661960225], [0.9402320974150388], [-0.3995134451670051], [1.0620152221472035], [-1.0498857808747817], [-0.7776993965359772], [-0.3541373105754462], [1.3633563625300904], [-0.49616919704046897], [-0.5656055095362303], [-0.9596425746174658], [-1.243446498995843], [0.0006916046254157942], [-0.15062587195174523], [-2.040318749206264], [0.9895414402389191], [-2.0904814663797056], [-0.2814457300500722], [-0.3364449073987105], [-0.21260635424896657], [1.3063850975053664], [-1.4016839626157234], [-0.1831829436566742]], [[0.8403413229192083], [-0.8044227616120918], [0.14687828768912584], [0.1805056638845414], [-0.08957607840908986], [-0.6773536059528059], [-0.0801994959916163], [0.5967522405425968], [-1.0956927742425557], [1.407303506172972], [-1.384490262591954], [0.4927660240151912], [0.99200558103091], [1.6375415939336802], [0.6042306154365293], [0.4878867731083982], [-0.0788866354088398], [0.5063499132576675], [0.5904749864333876], [-0.6194950351506963]], [[-0.42388241011660865], [0.17841413427280498], [0.5301996757242197]]], "cost": "QuadraticCost"}