{"sizes": [4, 20, 3], "weights": [[[-0.16676564511367084, 0.3910534664118622, -0.7233215508807763, -0.5522397216584055], [0.361976622963038, -0.3212138235338838, -0.15832646546081358, -0.8428018874441321], [0.05223680309015424, 0.12174527792852019, -0.5798612042028615, -0.4370046911204053], [0.1057262956644531, 0.6976899614719841, -0.001507929465119581, -0.5312535864364573], [0.020545527284060932, 0.4256308137061126, -0.3117077166324397, -0.17283143719170987], [-0.306692768843872, 1.0464267881886964, -0.9575081218509923, -0.31513371333519913], [0.07440991028028526, 0.5669377964510358, -0.23360458384501573, -0.5890358523819456], [-0.07068242200377692, 0.16054008597156844, 0.46704832807206437, 0.5734509700887024], [-0.10560308248050865, -0.13282039909476936, -0.32025834698931765, -0.506368613150615], [-0.5342726131791533, 1.0689960763076234, -0.38369977643428504, 0.09120501937388412], [-0.7039508177546712, 0.6622271983178595, -0.28694748610308196, -0.32891841235670594], [-1.114446624576184, 0.7292377535170732, -3.188521682580072, 2.556306843035244], [-1.178739338122625, 0.906716274296234, -0.8567615517128444, -0.12620829565732603], [0.186118408806056, -0.3472307892123429, -0.2382676544982317, -1.0991794106614818], [-0.062618137952522, 0.3762641611171813, -0.7765536644557857, -0.2705057309536591], [-0.590898351352984, 2.543544685345136, -2.3155666386486793, 1.7641006866357545], [-0.1204812659171572, -0.36129363361740924, -0.5914876809701684, -0.22544219606180763], [0.20421634755586068, 0.1877480810692899, -0.868274785742674, -0.5145498857421369], [-0.13252664643657835, -0.32710105620650526, -0.5176774434551147, -0.8404416098174269], [0.07827151630061165, 0.5540995856395944, -0.3844659995606584, -0.33710679217283845]], [[0.36425773297445485, -0.014777519195068629, 0.2614229095074811, -0.03629630177944898, 0.4007750399597613, 0.4330522949137803, 0.301263578299947, -0.07666055474876077, 0.2640775092981485, 0.6984212112981366, 0.3055897371234385, 0.7909834961707123, 0.4958305668842762, 0.08696288414317446, 0.5360692661550742, 0.8076331851658752, 0.2851651599476931, 0.41282213446713706, 0.2455097690993199, 0.23367381837314027], [0.47588055953599473, 0.14927187847609233, 0.2834521611816286, 0.43933421406788276, -0.020665159461336208, 0.878010196299258, 0.1258820645862987, 0.1913372143871894, 0.2031398175197383, 0.6825724412784758, 0.49247718774079047, 0.7809930083436541, 0.687770960582023, 0.1438806855583584, 0.27218024473466096, 0.6118450530259828, -0.1871540140022987, 0.30615772955826204, 0.2606215145232359, 0.42353999178505414], [0.45568543411851475, -0.05628866293272322, 0.2946511423047184, 0.1672074852170081, 0.29735965706977713, 0.742305285425759, 0.33643689818967204, 0.13911137531105583, -0.0773991287558559, 0.13858754532695808, 0.3119180151326786, 0.7483347034718411, 0.7283829643012384, 0.0924126923880864, 0.4671343609869018, 1.0109963870905576, 0.303859746928244, 0.5032450920316061, 0.17768875446302582, 0.21065304993727146]]], "biases": [[[1.1878214747541804], [-1.6177368379434325], [0.14925734966742812], [-0.3411316464261304], [-1.1413948560733158], [1.2533807060741935], [0.2642127452101819], [-0.3964830344686208], [-0.21838314459792563], [-0.7146298067500713], [0.059203195257845655], [-0.28675786597868025], [0.9375870508821496], [1.5661137547910127], [0.14548468516677657], [0.22632679467202557], [-0.9249321513993116], [1.0279778089105107], [1.4059144268972208], [-0.3059616079396733]], [[-1.2420569804706914], [-0.2322625206763445], [-0.25861106017876984]]], "cost": "QuadraticCost"}