{"sizes": [4, 30, 3], "weights": [[[-0.005806104669338765, 0.5050522819458814, 0.3892224135113234, 0.499027260436932], [-0.2774446266619602, 0.479233149623087, -0.039099038345382406, -0.036188467876633414], [0.09184701526734079, -0.7102605200529011, 0.3667603323983964, -0.9122504644762175], [-0.26325895569861674, 0.5140175561647596, -0.4622111031972933, 0.0544941730336301], [0.3398554603389996, -0.658064105015533, -0.729536247978732, -0.21362115208842947], [-0.2540795643847152, 0.6698928047646129, 0.008653882345172653, 1.2583539969695527], [0.047621237272071175, -0.01442556379004097, 1.331094038418234, 0.3430648559296978], [1.2842308749380194, 0.08092490920020821, 0.2569355060697796, 0.4220570629388955], [-0.6082415653769068, -0.018694093696138593, -0.05526573920874569, 0.7010486474771904], [-0.1959385201449119, -0.20228567289659355, -0.09465013809989456, 0.6000605225259799], [-0.5196472835223356, -0.46775880351360144, -0.17563927673661817, -0.04057677293977508], [0.8606894961267264, -1.4222582313035046, -0.1970745544512464, 0.5093737962405759], [-0.5804690369156081, 0.138918741292087, 0.2389713185371181, -0.2125480561639737], [0.18741782425112158, 0.33810905022430504, 0.09235823099795991, 0.6193507275762515], [0.4785811383064405, -0.28149376316164654, -1.2166347722208355, -0.0037791339535605253], [-0.44935921202917656, -0.276033116216087, -0.0849804832971657, 0.6122558141630027], [-0.6034444868509751, 0.8702608695723587, 0.2596986706327361, 0.6209243625353829], [-0.8059779754990133, 0.270612530695009, -0.27846405630058196, -1.23511335308922], [0.07802807689522274, -0.7281063226698822, 0.0024173445763057398, 0.07641075180795985], [-0.9504902781204139, 0.07003491012481114, 0.5033368505366318, -0.3118479378484154], [-0.19592386773732076, 0.19992934840996554, 1.027304901236794, 0.2254291474928682], [-0.4681749549433295, -0.9827475121691467, -0.4970219314037928, 0.23998179212279008], [0.24535315257768966, -0.3105334007885183, -0.18357748978177563, -0.367744090240313], [0.6153319439986561, -0.41016359431195004, -0.06934046837067805, -0.07777090648850965], [-0.15944839565112134, -0.2718662576230193, -0.620223115270791, 0.15291542804000935], [-0.5489798851513243, 0.43667081544873715, -0.11724478925579494, -0.11280867482090638], [-0.21079648476525126, 0.16315169096722545, 0.34211626247492494, -0.6021766503794299], [-0.13566459102699696, 0.740514537678303, 0.027817434646443966, 0.25869208608370625], [0.4884890294133582, 0.03461904559550106, 0.7242626222971997, -0.38477060691556314], [0.27975152052634933, -1.0727243488122298, 0.7316670931876805, -0.6154305262446084]], [[0.2693754666994143, 0.07826428275766178, 0.27732456760934154, 0.25288263110431797, 0.09809056967573675, 0.12096165364627641, 0.10687810474318177, 0.04699004519644877, 0.14310647233855336, 0.13226474270156194, -0.37486689232494924, 0.283044139432551, -0.12169402523300955, 0.18364689206359433, 0.17831986274290154, 0.23645001781052927, 0.5744318087396435, 0.2504530010646792, -0.062158193085157555, 0.06411684159843606, 0.07331260709367728, 0.4072157379813161, -0.07268514051938287, 0.07738288833829428, -0.06537287573546732, -0.42339665331867654, 0.0257860064964117, 0.08344835623615221, 0.37475308995256845, 0.1854694671340739], [0.1815843891814496, 0.24519597404517005, -0.05820196842312071, 0.21584043649701762, -0.14716328219774003, -0.1467962692424052, 0.09613783839852963, 0.23874389960309642, -0.22555136196852685, 0.08963047290721851, 0.02851818835430829, -0.23153728441526952, 0.13856876162844042, 0.36170400569051536, 0.04093205056659414, 0.0888118060855196, 0.20457311866943126, 0.10048751288598058, 0.20512456144487995, -0.10335234702575256, -0.044127080088113564, -0.20887835472022023, -0.1183171012953436, -0.29745653455021537, 0.18351087768202243, 0.08982709629828729, -0.0657317075969164, 0.1610336936486392, 0.27893714521883484, 0.0857530025290671], [0.19193199728267454, 0.06681893756559384, 0.32866809225959254, 0.044564389784899336, 0.40882300321815496, 0.011798664806732393, -0.41045203417323206, -0.3065267841971808, 0.34784320143995756, -0.03583193773916288, 0.04496353415145598, 0.1218805564400089, 0.02559217333000307, 0.19935538437849065, -0.14070381790448996, 0.18827614445324883, 0.2775634709794611, 0.30489351614913557, -0.10313308653462645, 0.22471548894095789, 0.38920140991143115, -0.07018862430809042, -0.12253386247924493, -0.11911510718136437, 0.3440726462343015, 0.1796543694915239, 0.38205879291994704, -0.08764372781529553, -0.0423057387216272, 0.049904483750227276]]], "biases": [[[0.1298839334945417], [2.03616797158079], [-0.5728408461704847], [-1.4230506504114575], [1.6362859343256988], [1.3070594947945013], [-0.5832811800112617], [-1.7114139370022698], [-1.5821220939345053], [-0.45958667752882637], [-1.8899676872377993], [-0.33533285339990276], [-0.036816510439460645], [-0.20829235509802513], [0.8469750475710421], [0.43168116214920477], [0.880347337701756], [1.8484839324356108], [-0.6337999070801862], [-0.5454232417186218], [0.44488448189293645], [-1.3075383521461519], [0.1775242761773057], [-0.08237597854717593], [-0.9902632630854864], [-0.43065393698883386], [-1.125498199003794], [-0.5140710749191927], [0.306189389377424], [0.9717593219576147]], [[-1.901832115397278], [-0.1781045665895672], [-0.3171423180949406]]], "cost": "QuadraticCost"}