{"sizes": [4, 30, 3], "weights": [[[-0.0549379727221694, -0.3800773653548771, -0.330117241516761, 0.2812547820752802], [-0.09770274789813554, -0.027665924466471866, -0.16857033831768886, 0.1359499464103083], [-0.38328899387383547, 0.745946806861757, -0.45343331645263324, 0.3263110177369113], [-0.12152159153630822, 0.77065742635999, 0.33631050819484504, -0.18831865717162952], [0.9229638075543766, -0.16373404671073266, -1.1726273461130043, 0.0768282281295011], [-0.09037983014348767, 0.25208125264696873, -0.3551155610650312, 0.3385477148996219], [-0.63541136241044, -0.2038417500891982, 0.020707923010548114, 0.268983483513502], [0.5412766406603652, -0.2842466018701685, -0.695060430979024, 0.2922926607332558], [-0.46522161840368625, 0.09992436691669901, -0.039334833780399266, 0.5436407937455118], [-0.1743090406508021, 0.46598363349459143, -0.4142002615829241, 0.4326683840439555], [-0.2467069528723351, 0.21883886234949532, -0.1871767337866101, 0.35285351338613313], [0.1615253142808335, 0.9227188064924906, -0.4821457594222081, -1.025455055837845], [-0.2647957562101772, 0.45983667201690365, 0.2877576053261414, -0.48817900540156883], [-0.12086390537815318, 0.8395258432507768, 0.15127571153767033, -0.46749259288517525], [-0.1376173785130767, -0.5311221216785343, -0.08191809766546368, -0.41526198979504114], [-0.136706996852413, 0.06144679310927016, 0.04475009025376448, -0.4404492903864966], [-0.13575313384352253, 0.5816772694528288, 0.10877944616731845, 0.10981036746971826], [-0.08634973772718904, 0.06220227061737387, -0.6158762714911487, 0.025197200978546837], [-0.4079165041795704, 0.20715149485320591, 0.23080927732110817, 0.4138175315122828], [-0.2133931345882566, 0.5209340202556478, 0.2983940944349787, 0.178460707923214], [-0.8435290944396551, -0.20485733884826515, 0.21895023068773176, -0.19014894314780265], [0.56499612346569, 0.1240289487888518, 0.08214426229496642, 0.4937154948068443], [0.5139425591407129, -0.2457975783412921, -0.2991589739994117, -0.008608890969860524], [0.04111076108612382, -0.1875022686783609, 0.8402270185060463, 0.24908059683389622], [0.3701152439001992, 0.4797417693341783, -0.141272863207365, 0.38698689296973754], [1.2378315106802054, -0.4176155911502743, -0.22757897704528948, 0.24362467451559272], [-0.8042375723096945, -1.0010802390572664, 0.10219341951985844, -0.7316633919087892], [-0.04075750760860237, -0.5255165199161269, -0.34281321520269964, -0.029700018754793066], [0.08350612084886194, -0.10106832937003922, -0.6036968688809118, -0.7676045076425965], [-0.5863838165517959, -0.9493921677757063, 0.08668195076062196, -0.1540331425740055]], [[-0.31690241163678634, 0.2260893630731756, -0.11913388456958625, -0.09147894825262512, 0.018636540013151442, -0.1331641560845919, 0.03737992484741049, -0.10934357982637873, -0.018547776248404105, 0.00025968902397803425, 0.3006550358533759, -0.023506423762934752, 0.022729847671204964, -0.05660358830764418, 0.030282541108857326, 0.13627508661380183, 0.0990122627935482, -0.10126158695068449, 0.08783963284723673, 0.05935588136761784, -0.0317936601445459, -0.12582767319587332, 0.10398855667420093, 0.03799607945026435, 0.174155839717004, 0.044848035839879195, 0.19847905329509213, -0.034065019747020135, 0.03611107312086562, -0.14255624918383336], [-0.02204413988121588, -0.2053894648749666, 0.08152054008403348, 0.10089539585355707, -0.19508016204689876, 0.27318483340536087, -0.12829408674764323, -0.3952544046484613, 0.09617722774114146, 0.1828830663048264, 0.20655461129558955, -0.15382605258698065, -0.13614819627969554, 0.11134676082884426, -0.1621316105691713, 0.5271819274161788, 0.08594346698495135, 0.19637478756427784, -0.16355235221903527, 0.11243781983495642, -0.09125708268934786, -0.039400592285414766, 0.2388589002246912, 0.17878448771707692, 0.01531251116430062, 0.04724609581083578, -0.07055556894939112, 0.06898760891349989, -0.03490575841713951, -0.13503427506130217], [0.20529249106244415, 0.17291492236707698, -0.3056192582539055, -0.23966420034034935, 0.0011003976753355623, 0.004874113152615937, -0.29694279742953106, 0.12001034538307552, 0.04540037425046166, 0.09255765953585987, -0.20937554505826889, -0.2366370344574165, -0.1356830737675617, 0.16769327395979927, -0.3399570428413786, 0.08083765112240722, -0.04557099910862399, 0.1518478553336997, 0.027816560728217914, -0.15542168154224867, 0.14506142015753545, 0.11402465284109113, -0.18992013044869463, -0.021949025569812628, -0.4969462335798506, -0.11244101930485015, -0.013514278268269233, 0.4304958546948084, 0.10341107553383688, -0.07985634711461694]]], "biases": [[[-0.5084636211782776], [-0.017941918144783593], [0.803020503055953], [0.26591929933772873], [-0.5483364780799588], [1.690616545237408], [0.5354498450991697], [0.28508490297587297], [0.15409978271349492], [0.3213662929959412], [0.14486331160948301], [0.7516664425506009], [-0.6375594126254817], [0.5433416258009944], [1.1116308293288482], [0.18403415379542085], [-0.7047803236553143], [1.2536590112927373], [2.3476469876266655], [-0.007626887819930123], [0.8399718749339459], [-0.30747890733212613], [1.9563551576736657], [2.244783191522614], [-0.5183109827753575], [0.7954746559885849], [-0.7065089605332711], [2.0735669905617997], [0.9829762280286107], [0.3957616309611308]], [[0.5117772867450705], [0.1405527044927519], [1.3848791610966387]]], "cost": "QuadraticCost"}