{"sizes": [4, 30, 3], "weights": [[[0.3664620650985849, -0.40948977693571303, 1.205091344584616, -1.1551720719640024], [-0.11189493113022513, 0.14061777584542584, -0.7461282627067318, -0.9136605433361877], [-0.3064818281750114, 0.8043629841176534, 0.886606894688556, 0.5437004126759276], [-0.6378605878920872, -1.5249442110139342, -0.3351098582101858, -0.15646705376405992], [0.05213457484427262, 0.5153973663365566, 0.5080530072278958, -0.5990736357420022], [1.0500131304610278, -0.8812279219537773, 0.5553718608867658, -0.27509653349710556], [-0.6739763267333551, -0.20402688657884413, -0.13140044331195969, -0.3304397378361253], [0.7510199763699591, -1.0814610577107628, 0.08811929079087741, 0.6739113606801975], [0.5898090999612652, -0.6778051687386704, -0.5042856730020167, -0.2447488833017978], [-0.6028200941688976, -0.24803150028419252, -0.18523315511442318, 0.5512109962283758], [-0.5400156019146001, -0.1964109375436681, 0.32913936469109123, -0.540364294279857], [-0.5192593857589507, -0.8206221813643957, -0.21883185856776025, 0.2815188576883849], [0.21932083435561084, -0.48241316881543267, 0.12639872956533835, -0.6173612769137814], [-0.15687621002025984, 0.1935650858259535, 0.07172058430280571, -0.22338333347665212], [-0.09672345977067848, 0.043157720910130475, 0.03709268280013367, -0.3309579547886875], [0.5749078420307155, -0.76093492486225, 0.047563492217396065, 0.303417174710838], [-0.3968176359365073, -0.2971939784736041, -0.0811569430106946, -0.04522835175512294], [0.5423397442454947, 0.6845980362544831, 0.0402246817004539, -1.0061430326962701], [-0.2593592399130273, -0.5017884526263743, 0.13307371903371992, 0.014516933406292969], [-0.2065713965620079, -0.7471238684777493, -0.17380741541881067, 0.7221819552679997], [-0.11961922022603368, -0.5735883953743346, -0.8584670610925651, -0.4383557572116927], [-0.11126532429482612, 0.6708770451178526, 0.5976862426768376, -0.04343764222907171], [-0.26935437593744804, 1.259660026225548, -0.36173126701376235, -0.30644265839215673], [1.1734028937572922, -0.30838667251192275, -0.4525640421205811, -0.5931771192040017], [-0.6214252463020735, -0.3905766778656698, -0.22984384319557422, -0.297067873181424], [0.6504384017746294, -0.3787900244831314, 0.6017368507825895, 0.03056638667354767], [-0.49273969933812006, 0.005466328042076966, 0.33407400357007805, 0.9535058172830863], [0.13907261027097928, -0.7637284040051493, -1.0856770063252346, -0.21487967692116317], [-0.74346830646405, -0.20713952169006566, -0.30402244956683017, 0.9087618681672797], [-0.5549041363797729, -0.6881190003217439, -0.650335185907833, 0.22143950129366782]], [[0.06898213962146912, 0.10537101452091267, 0.1588215967125306, -0.4718900108697776, -0.06259981891008877, -0.24135307668763054, 0.0183295653615345, -0.002031503507208408, 0.025864477895379274, 0.04974710918106351, -0.009170262860953009, 0.38580637045810323, -0.1665727739018418, -0.20051460356363343, 0.12690132439385804, -0.04164229285052931, 0.15720964481204303, 0.4147420947982808, -0.0320449855465261, 0.12733426924783234, -0.030681853091523367, 0.14441179518532454, 0.06294838523504032, -0.23258288162121604, 0.09380956657759468, 0.06553925943010097, -0.03825567219653069, 0.20372587951968887, -0.0018177567131872725, 0.27854853307831423], [0.12029332561352261, 0.06106074973387015, -0.06824404904752805, 0.15637124231406727, 0.08196020995329198, 0.0756540817722797, -0.12743972926026714, -0.08137324307990114, 0.0006303595453564459, 0.032527253640767674, 0.026780142582928476, -0.10850140960721993, 0.1674261179104464, 0.06401013887921055, 0.347336291084369, -0.07502638269517682, -0.3362631573881803, 0.06530997086024187, -0.05134392707596939, -0.0924505893220735, 0.15629275241906992, 0.2403490154864896, 0.0652212026666672, 0.15502338825785272, 0.10586652662261087, -0.14010738986324012, -0.07643955211039086, -0.2704158445670887, 0.06580334872774059, -0.009527047095496871], [-0.001412790143599557, -0.13252891539544095, 0.09549412597536663, -0.08971687675299204, 0.06002674742888473, -0.22373633719610467, -0.05366170876703575, 0.17964918025820262, 0.08104792726270348, 0.0633253448496221, 0.18461046747806492, 0.08697926665779353, -0.17700873963077143, 0.10599681932815515, -0.06916510059976252, -0.25059698099431355, -0.03355630623392618, 0.2255665233093687, 0.007267548133880829, -0.5061880772504062, -0.31841284475431025, -0.01920323896142195, 0.059820168676699106, 0.07912958046289921, -0.0464219454945672, -0.28467831399753535, 0.057140970844957714, 0.10467529561940883, 0.04690388691928215, 0.2800226943255833]]], "biases": [[[-0.98324548862401], [0.1790176426450068], [-1.355313915739797], [0.2386941050786959], [-0.17104356427040582], [0.6211454733226827], [-4.298020684473691], [0.1866593993026836], [2.2091335242808787], [-0.5370599602929027], [-0.3385307183663318], [0.32847260021763014], [-0.12847460182433632], [-0.8124736898802706], [1.3818450936995217], [0.639340832908877], [1.61712540555417], [1.4747314280767359], [-1.0047359031652436], [1.6601803854567487], [0.2521733104213415], [-0.5618240937187194], [-0.38522753164940055], [1.176725616228155], [1.1771701050673855], [-1.1085504996311344], [1.2319709288527216], [0.41683540732677266], [-0.5352436115137413], [2.4130645921556484]], [[-0.2253425082514027], [1.1876746772898679], [1.0825206270862306]]], "cost": "QuadraticCost"}