{"sizes": [4, 30, 3], "weights": [[[-0.4093173842700803, 0.1018449478417018, 0.10829730731783946, -0.11106995766014864], [-0.13090612784897251, 0.8999087970319185, -0.14226224540310478, -0.03094902075907852], [-0.19664230635010851, -0.05869517005078876, 0.3756273646909239, -0.16878135575413428], [-0.11070194621846283, -0.38095082648426004, -0.48569202977192377, -1.1257886698163726], [-0.3922728931479778, -0.6468850286796668, -0.191156348201406, -0.40231609817781655], [-0.23064034270207864, 0.1957719092834468, 0.5334617669957604, -0.9308056382275385], [0.08609264161251232, -1.1223365317500142, 0.6226739239252989, 0.3233931307246449], [0.039899294775939315, -0.3582599672109221, -0.08144619940430446, -0.13515454557729042], [0.24247538507591926, -0.507064226098289, -0.07992983021823441, -0.6404256822632333], [-0.5757926630859271, 0.6139876120279634, -0.43008168748977377, -0.29526809966828327], [-0.24842610435733714, 0.15044587902825568, 0.14184834286430842, 0.5593665491443799], [-0.8090146291266523, 0.23949399233280325, -0.13381037033562065, 0.16241769854995167], [0.31952563127578704, -0.7069468918118704, -0.011870504935281917, -0.1311612184581326], [-0.4415260739956386, 0.3593283163359199, 0.22654767852835225, 0.7332374904173362], [0.846661268472758, -0.66627911828508, -0.4220265091167107, -0.3507526710969856], [-0.16350695741199106, -0.30403706317072, -0.07002530394844979, 0.23045011803857124], [0.07024536310687715, -0.0909817891494849, -1.238611122185513, 0.4088566305200359], [-0.41799979994251135, -0.5152900575212765, 0.2908260179446073, 0.10519830831148261], [0.007936694267089378, 0.2895930686585735, -0.9315066228179893, 0.2776256312925928], [-0.15830751749501007, 0.522266772331272, 0.12033676155748757, 0.34225194887764254], [0.24559782106975736, -0.32510895507036564, 0.2662030037258749, 0.17706568808822243], [0.7570000448370114, 0.029792312459649976, -0.0186810699101933, -0.4128855563769389], [-0.00010564677261912723, -0.148451955753417, 0.18200122913213662, -0.6259228647991595], [0.09524601814278853, 0.7349661142207408, 0.5028357972546017, 0.07865879698613383], [0.07928721197403574, -0.5050033745099307, -0.4736244205832505, -0.5681432510611408], [0.2506157025573926, -0.8061101206827568, 0.17710961476591752, 0.09194417561132441], [-0.15237203089935572, -0.019528669281137893, -0.30183881876753127, -0.3054177544109336], [0.061029538182567344, 0.49701827619104605, 0.1557591109772262, -0.41014784760030865], [-0.06477825902620968, 0.9628081439225301, -0.5620687149664525, -1.3355799804575703], [-0.07983537791594361, 0.40920193743501465, 0.430078410155637, 0.5678991486425429]], [[0.0922189268287697, 0.0915413618690031, 0.16611679922354955, 0.09799213250078863, -0.1833595754736901, -0.2688742936798229, -0.1292820723827657, 0.29745993163831164, -0.13694252981234262, 0.12183984725572103, -0.21282680948095298, 0.19470237252605552, 0.14324170318111107, 0.10672244100861161, 0.13687586043481006, 0.16253702224289984, -0.27568577685350215, 0.03450895896742732, 0.042107175342665476, 0.5419300477384654, 0.03014253811014035, 0.015094427959390158, 0.46978907037333306, 0.0846244635993712, -0.162552547761268, -0.09648680277227506, -0.3869159674848735, -0.12052234044946267, 0.051024094613402654, 0.30307696042392457], [-0.11982298663866733, 0.007144043568566327, 0.09482012548460862, -0.2390461696668664, 0.16994484325856402, -0.19193961246533445, -0.028039303235917988, 0.002339160221947133, -0.08023067014125765, 0.2764036369777408, 0.14131578597275612, 0.1366317443510301, -0.40398862054305684, 0.34376812880830226, 0.11254805314131956, -0.09411875472842024, 0.1962102302851674, 0.017142655712990822, 0.024553487204907284, 0.5577220008195316, 0.13499366970783028, -0.07731163479610964, -0.045332049127820497, -0.25117013459553916, 0.014947417757754572, 0.34903833797177014, -0.12345406206323367, 0.21845293773395433, 0.16080631311777854, -0.02593522301202583], [0.10515083956348803, -0.29552898030437097, 0.01690071227638, -0.24076428531654315, -0.27566579316986095, -0.18523466572646757, -0.2989566606084867, 0.060481618059747104, -0.09388218462634221, 0.045034653914839774, 0.07355137314817713, -0.017922675268238514, 0.023608938245699002, 0.2892226682506405, -0.034548072637666946, 0.2753003919171649, -0.15976433299090798, 0.01599487660910411, -0.36433411826040735, 0.0253474286503292, 0.2270961210120052, -0.06174376296623592, -0.06906277286500201, -0.0838107889706359, 0.07220275975897433, 0.12193887577603772, -0.3326969374832159, 0.04358033541823963, 0.25579281955567185, 0.006121344859763844]]], "biases": [[[0.4351747944777795], [-0.13887206772987393], [1.461505730494318], [-0.5916349817082294], [-0.7511610269738276], [-0.2520704737209033], [-1.6128160077758937], [-1.0644073051981742], [0.2627353181903816], [0.8962535138056364], [0.3185201096069286], [1.4412640250908813], [-1.7573780523838103], [-0.10383463725932017], [-0.23041485961265745], [1.0282505000837523], [0.7135168340738023], [-0.7885391875717199], [0.6542693439293701], [0.6870093411406589], [0.451681278536025], [0.47907964109385176], [-1.1675835663064806], [-0.18769789819865154], [-0.914654526627103], [0.2962120724436842], [0.7839114758886448], [-0.5239905061645903], [0.4815523389826309], [-0.4639445453482392]], [[-0.4052524603333829], [-0.42329878319140657], [0.5166953220846052]]], "cost": "QuadraticCost"}