{"sizes": [4, 30, 3], "weights": [[[-0.15407287660978672, 0.1775812440853562, -0.02645438680775728, -0.9917688844016107], [0.1146899880295109, -0.26512945507304314, -0.35351926454276267, -0.9183487045907147], [0.31499077266991987, -0.06944965095260627, 1.0784822901016347, 0.26808662133305977], [0.6447729121523791, -0.10146116522297076, -0.48602202116658566, -0.3283950428880534], [0.8458202199253033, -0.913336939777333, 0.008044772622613501, -0.3407968974781946], [-0.4021004235605528, 0.7219832459406519, 0.7212777833198659, 0.06489401564901756], [-0.1323260012873752, -0.5426615558209897, -0.6660616112562453, 0.6029712226283432], [-1.2827785915783712, 0.35333846695840176, -0.09081967891416935, -0.03344663563735193], [-0.0941816466875912, 0.19671795371709927, 0.07712226673293679, -0.37049578926138615], [-0.4019080964079332, 0.4542277221243364, 1.2520284423186656, 0.6308987392693208], [-0.67102728860618, 0.2071957449339364, 0.5904633157633435, -0.246060694727962], [0.4602510052740853, -0.07435099675872159, 0.00803176980767654, -0.16371992609132646], [0.12201390265924655, -0.45590041522909686, 1.1151915422191545, 0.07259663367835671], [0.9125272040559638, -0.04114055488945677, -0.10471193958961388, 1.0589221616704307], [-0.05617947014235034, 0.850559015130184, -0.14932548572172058, 0.4544126581044494], [0.4852868712536853, -0.028892771021323923, 1.2715754113190285, -0.007702664231241501], [-0.3848084172479365, 0.050100182509686994, 0.32377572129669036, 0.018739377716262343], [-0.7016074430053225, 0.023048085402101622, 0.06608568772666587, -0.7038030396192078], [-0.1841373005070451, -0.012219432737778455, -0.887678540496571, 0.5612839116738445], [-0.3407007563701822, 0.3204114243370227, -0.43744190554466517, -0.6030775874674159], [0.034673642230866664, -0.19424249574368754, 0.2700827839872806, 0.06479827469117921], [1.349464589672193, -0.2064967973685526, -0.6501151928068777, -0.5502470734613375], [-0.06293340717185505, -0.2348075678147595, 0.021362943269653392, 0.6403119985732326], [-0.7344697093479405, 0.07873674454917234, 0.15719545590327313, -0.5910431919176679], [-0.6969577732277699, 0.029584847232932747, -0.021972387531308073, 0.42115103612456767], [1.2076679483801303, 0.021564030212112128, 0.29945727526093036, 0.0615520203423307], [0.32927948535132495, -0.08519029925709162, 0.932923607006839, 0.24698662305029503], [-0.6498806271629467, 1.2616339243542245, -0.018451762788074703, 0.2586982262155816], [-0.12348237991041836, -0.390324366388054, -0.1102296155134815, 0.7359314220828568], [0.1406949485900958, -1.1535479976209972, 0.22996159609118474, 0.0934562518831958]], [[-0.16533873921388886, -0.21880692183485612, 0.033462485225551675, 0.0014739445640122911, 0.08054425283066928, 0.23574306736945275, -0.024676993610475942, -0.13823949352864387, 0.5051728359139225, 0.2539177647957802, 0.052240587121109246, -0.1437434438934163, 0.1562383685567871, -0.11220033997854235, -0.1509209816338638, -0.13513999792894557, 0.18378731946844148, -0.07164459552314686, -0.0025844163580570614, 0.03176213009732004, -0.1629807524571734, 0.019817825705088, -0.35508811517704575, 0.02670858012494536, 0.355540676697077, 0.2043026992653363, -0.05541334788365326, 0.14321567382491107, 0.22980626816560457, 0.03173881839779044], [0.2760570312101563, -0.07352992388869511, -0.29453603804954376, 0.1687207635942024, -0.09669287507089205, 0.05251725481755782, -0.007465945509233016, -0.046638720307635675, -0.07529967043615748, -0.0820424123716139, -0.0892136835054385, 0.07764670214353908, -0.16502926141063673, -0.006438721067864421, 0.07302269601844776, -0.13301657302410191, -0.40468610687051393, -0.03646284316013387, -0.07644080385552934, 0.2447230625492801, 0.08026370374541858, 0.2618440237185641, -0.05388779936266139, -0.012883884816818373, 0.014739223495224331, 0.07543401369566417, -0.13445708619138502, 0.3201872560193281, 0.19645996002764984, -0.029459134318591196], [-0.2702709448721597, 0.13234513487777588, 0.3031444262895359, -0.2729215551974078, -0.13565108560814648, -0.0888269953244986, 0.2342771196437741, -0.2537935590336149, -0.00565879934262342, 0.4174727500368556, -0.09722225086412167, -0.001912067460011128, -0.02411515028489435, 0.03186234219907846, -0.07881491546634761, 0.05001578479118076, 0.07107040679158554, -0.11573737971461091, 0.1036517489938245, 0.3618197297400992, -0.08492359773790027, 0.0851635029334767, -0.07393992999043869, 0.20880315151268017, -0.009117813428217611, 0.11880329106438206, 0.2892663286589237, -0.021515086943284394, 0.2611834154216404, 0.09279687498450549]]], "biases": [[[-0.9363136132646181], [-0.40251918078510424], [0.7554084099685235], [-0.8346346654298881], [0.2831250898609523], [-1.049913297358954], [2.185152202100016], [-0.6252823455462613], [-0.8456897221304226], [-0.05083101715577947], [-0.025987440500531787], [-1.3549786866385296], [0.10629560368651997], [-0.1580816867132614], [0.08063868308573123], [-2.2489474342001072], [-1.227062074697702], [1.9358916711947813], [1.0187281041546294], [0.0002736740740354053], [0.440879783021746], [0.0848690489445321], [0.986015813151471], [-0.9049665300723149], [-0.5200748402926351], [-0.6716636227193635], [0.41331846601248384], [0.19011292523389434], [-0.2635347239406885], [0.05806888585510118]], [[0.005267822176293013], [1.401195116120629], [-0.6213141477518825]]], "cost": "QuadraticCost"}