{"sizes": [4, 30, 3], "weights": [[[0.7043455617962682, 0.03453104079816936, -0.17243727443380666, 0.12598133965986383], [-0.0629627259777785, -0.7777873340365548, 1.0343184721861416, 0.16417068688247147], [0.15928038642752107, 0.523095943434404, -0.13896528983381978, 0.5115408068840136], [-0.8122206724482434, -0.9402178396270424, 0.314836679198152, 0.08022318770523616], [-0.20037160675292714, -0.6517742387876828, 0.4061922341063281, -0.04916463294309884], [0.02800730206062238, -0.07604836625650126, 0.4120142892021688, -0.07916133759157708], [-0.005698336701180386, 1.2478064020957913, 0.3729036581116668, 0.29472316311267976], [-0.1431504481068835, 0.010415176426778208, 0.5192193045893894, -0.5178683524486631], [-0.13867191584800342, -0.5120997614551414, 0.45859170374725, -0.13016647417863852], [0.1316657340867653, 0.19253232851060212, -0.224606825004253, 0.2524334843567794], [-0.630675464092522, 0.014350063487383923, -0.5791051390739982, 0.3051605530987209], [-0.38452113664977755, -0.08787402164598443, 0.8428333359438759, -0.5812996014947532], [0.328429348222458, -0.08809441279859262, -0.21942152421518998, -0.3846720159717023], [0.8356751403089895, 0.30557907596074807, -0.3955617284778935, -0.6467765609693018], [-0.17130818808092207, -0.09824780308765478, -0.5447929172607191, 0.06447314330826677], [-0.11550941148239913, -0.15409497847432863, 0.45428824902003084, 0.7703265505152337], [-0.46664078584304863, -0.39242911904735667, -0.6454449035123574, 0.3304503123815388], [-0.10017207957348738, -0.9522341184463012, 0.22604898020656655, 0.16075094019207584], [-0.7696555876552855, -0.7859285871097701, -0.16518333294295867, 0.1461002161033969], [-0.774897403105483, 0.20915075748158707, 0.24030173132986876, 1.245361795059242], [0.14817120400866707, -0.043632126286865996, -0.512260715919798, -0.2586963139959333], [0.15135625683768697, -0.4226639397266026, -0.3764603594874115, -0.270362888719678], [-0.4086505721607875, -0.36356487206018967, -0.20282417056954732, -0.6811561200536043], [-0.2904589533310626, 0.37485603723903377, 0.09906010038996918, -0.01991847095836919], [-0.0656693435940899, 0.26285826688029257, -0.5984434873662122, -0.39402129834237504], [-0.13686866293764374, -0.17201283171737225, 0.32201303075049864, 0.893782585315444], [1.291397168830212, -1.576228695372522, -0.13617396439566476, -0.2057108612878674], [-0.18488801133820157, 0.49229121256830405, 0.5355066228019966, 0.14181025178260892], [0.2689674825285998, 0.6998477396313817, -0.46109363487775346, -0.5766379764351803], [-0.08757052768306872, -0.5909718107467266, 0.19726885056405774, 0.5476329568436971]], [[0.2232377370194635, 0.15307811320054673, 0.1529813722148739, -0.009050985336029238, 0.16366617729668023, 0.041152759553784106, 0.2965084144157424, 0.2508138235275756, 0.27649508938044287, -0.03581489430397713, -0.24712402719680118, 0.20555714679042766, 0.019684900929494122, 0.0990215534394033, -0.03732563219787351, -0.09996621698255433, 0.25411189751244284, 0.3426940629167625, 0.19243198353335095, 0.35658339832170893, -0.009636031462740712, -0.20127920231474203, -0.2879815330183783, 0.03601280899920595, -0.19154515047082007, 0.025402854678366334, -0.008859291402014793, 0.322446269243122, 0.0047475735592719765, 0.14364729100013998], [0.14503098422922012, 0.15663646144892807, -0.21208144417934155, 0.08101630765301542, 0.0701471537466994, -0.027544788804886613, 0.01942047778754337, 0.34434929660063285, -0.20971710919708397, -0.29810508127713825, -0.11587392111917973, 0.03026531132739222, 0.07135480921844285, -0.10205370464585439, 0.23014985707179714, -0.08431778680781622, 0.1259297595307326, 0.04734221102011044, -0.17157154440040187, 0.12698756759644245, 0.2394929941251857, -0.511165568715926, 0.18693658648757427, 0.15634681959475805, -0.30037452834734846, -0.17341062237210655, -0.23139991123350576, 0.18673651661951748, -0.19598121639213328, 0.0016786604469079766], [-0.3181521246094268, -0.015002408333556117, -0.10071207851213007, -0.08148255115564677, 0.3343443635657998, 0.2978224445673844, 0.5081699295873732, -0.3067315792148856, -0.020057122215090338, 0.3457280593812588, -0.023559160557955892, -0.24395189692465494, -0.025393263174896156, 0.20195211897168938, 0.08169887295633338, 0.11635395806561101, -0.1511790648313132, -0.011981830531556367, 0.1696849314625917, 0.09313134523374586, 0.0562908214687298, -0.18378505277023743, -0.22755602503004613, 0.32430249802725875, 0.16445185293087405, 0.020887365302006883, -0.26713927935277015, -0.08208156219661165, 0.34726424205205914, 0.3551977278224783]]], "biases": [[[-0.03934753137396018], [-1.4673383998808127], [0.4905151164369048], [-0.500216615752091], [0.9699449945718134], [-0.701000714261189], [1.1333892978633775], [1.0586392777059208], [-0.5930412516696443], [0.4407438240953249], [0.7097447504765043], [-1.0954947656683371], [0.16849025445010637], [1.6533376594540277], [-1.1760978987218613], [0.6972178047295539], [-0.6221840642268756], [0.6874728315365876], [1.9901738838510261], [0.5493394016992146], [-0.6269889727887109], [-0.578150596535996], [-2.1935576435936373], [-0.3204024434517378], [2.1188043996480803], [-0.19570293078605114], [-0.41193033455424566], [-0.4101852968410659], [-0.1489595844712127], [0.18816486299074356]], [[-1.501236669212049], [1.0896003137849883], [-0.617653274217032]]], "cost": "QuadraticCost"}