{"sizes": [4, 30, 3], "weights": [[[-0.045414625455428306, -0.13677873885494968, -0.5457662348403081, 0.2632472960861852], [-0.4928576990117153, -0.7718160306691609, 0.4577097599537172, -1.1750837112482717], [0.35258743007264143, -0.2398611953881482, 0.399668469140956, -0.24839614095731094], [0.8589381809002569, 0.19575925826683005, -0.20501039679872948, 0.41511367315912207], [0.25075298258685397, 0.1390510188610189, 0.057242734610785204, 0.2552893463642366], [-0.08733694623846246, 0.24626135892678552, -0.01785916818143828, -0.6203809056633968], [0.509755479360634, -0.8631139232020959, 0.12274125681888427, -0.7243518627109209], [-0.5081738881154771, -0.5881444929687433, -1.0740662324757133, 0.527275189042489], [-0.025828397900393808, 0.6028187652628353, 0.20259617118494608, 0.13295885082575185], [0.2773413612651125, -0.06077425149027417, -0.25848847847428563, -0.4181996681296997], [0.7475429855261325, -0.09940654647068395, 0.17843872158108337, 0.3312131311805083], [-0.09825867361491732, -0.27903520529736586, 0.5565114231988538, 0.5956320651324378], [-0.055839581892628, -0.9419006836391278, 0.15011037794677923, -0.8035736423298077], [0.6467672095705715, 0.05549276927508414, 0.6354439807348184, 0.5253605953026953], [0.027697350244029844, -0.16254662652416366, 0.29377998324055266, 0.21768898168349013], [-0.30428160134584925, 0.39537403095078955, -0.3241118330472578, 0.37621235470937614], [0.38746934669389826, 0.3670034478536839, 0.8169683457759909, -0.30601568063696094], [1.9375709028117927, -0.35665741863351674, -0.14911068781978018, -0.12525654072448789], [1.3319730983590625, 0.1928591850641049, -0.9202663995790981, -0.05964908488570078], [0.06741413299176395, -0.6468490816825925, 0.18746258326390852, 0.15314477512942548], [-0.27945331669848805, 0.12709190588566918, 0.22767742872626526, -0.17724763286620718], [-0.5158304528288369, -0.7577330043728909, -0.7258783941057331, -1.113362304344213], [-0.11748705686899023, 0.07472954031165409, -0.4992338189195067, -0.18086099432423638], [1.0812007211950607, -0.08591457177377859, 0.5956746136451284, 0.05423639219762404], [0.5392285592255521, 0.46799756584737534, -0.9543230340173267, -0.5052906872485355], [-0.552444173748525, 0.1306277140726609, -0.7286672826776452, 0.15051904933550872], [0.612254686462444, 0.5131734944580896, 0.1803649408579123, 0.19780173108052762], [-0.34977625131510154, -0.660220490749266, -0.2830887491071306, -0.6022901519078243], [-0.024219589640923616, 0.6110138486411969, 0.020934597708452483, -0.3992941864025214], [0.16497831940983634, 0.2777488236278015, 0.44306411052997813, -0.3319399734176329]], [[0.11896955682562159, -0.2488395299187782, 0.18637180728439168, 0.17746121931422248, -0.17761219368336303, 0.22593346017324975, -0.11810639539183868, 0.2021599013368129, 0.23198482154368816, 0.0602489473343028, -0.1240673060129215, -0.27999449839976637, -0.12626038500167375, 0.0735842406001292, -0.008875572887447844, 0.2353513573127977, 0.0379172897939587, 0.0030683225319932503, 0.16751010205049618, -0.23330921239667596, 0.32973920143637014, 0.0978886312881091, -0.01747474523857523, -0.03764847328534246, 0.2660418004468618, -0.06878444184062495, 0.003635883182454098, -0.26490221711389106, 0.1618578448537017, 0.0035786388057326285], [-0.02984788665143527, -0.14386644421830452, -0.0494831238069132, -0.13828683503672015, 0.3580754563680579, -0.25781174807306856, -0.15881892060406613, -0.03625891110525178, 0.09876874642239865, 0.10578804663589025, 0.3936081106438614, 0.19675906940264085, -0.16023846735895808, 0.2590035726362879, 0.09121662273347797, -0.10349107609531667, 0.08428258236347426, 0.2048695653858243, -0.19082996293796153, -0.1825832638506547, -0.13268159486330058, 0.3006508054610205, 0.00426494304422013, 0.1837976880948247, 0.14039470548614977, 0.2845650985888668, 0.26403755534836915, 0.045156018639655904, 0.01926259129844663, 0.2835578429205734], [-0.07219643261237461, 0.007794069993269257, -0.15591404116273386, -0.017928207637935203, -0.009589849269491052, -0.18894239549710728, 0.15308690542502693, -0.06623869890715617, 0.012439087416261489, -0.01939419130501047, 0.07492784864136909, 0.1507043920638864, 0.1607706873346476, 0.02211583379065163, 0.2648596679027616, -0.11348042727388002, 0.07375599276147868, -0.18676655491116786, 0.0331049570163547, 0.10818560640144863, -0.0064133378744315, -0.16077832197630834, 0.03596955349376822, -0.1353904799915353, 0.107341695282222, -0.2643403421505976, -0.1743279802525918, -0.13398568422815163, 0.011237505069149934, -0.11639100415837947]]], "biases": [[[-1.8792692089809433], [0.6620937083585166], [0.2440764125963616], [-2.3146556752234746], [-0.4636937169465616], [0.8215075872644871], [0.879785797343708], [-0.6141995369120117], [0.09163824540764709], [-0.33781790713948207], [1.4289458446207608], [-1.4377337954714522], [0.4182942930883815], [1.0328973258016716], [1.755169163307328], [-1.419825927041417], [-0.002656247605282214], [-0.6410564633746179], [0.26781867698460643], [0.018086772082019902], [-0.6549874094009004], [-1.4590208301925809], [-0.08003379593121969], [-1.1895461848127102], [1.0585150334945943], [-0.19862011781461616], [-0.05348304057266684], [-0.7455501861384795], [-0.2355291288577365], [-0.8377579339838349]], [[0.5944530377884171], [-0.6213206747626945], [0.6610878923931709]]], "cost": "QuadraticCost"}