{"sizes": [4, 30, 3], "weights": [[[0.7085667397403109, 0.3145496381064897, 0.4367950941730785, 0.2981306126120625], [0.526586402240186, -0.20393879865512615, 0.2934963083235672, -0.4554186667212669], [0.8103384976824337, -0.5131131826874638, 0.8948792102900982, 0.1511784489726405], [-0.3869838228650203, 0.19361464474948847, 0.14565494739740115, -0.8370537700986801], [0.6358049838233586, 0.07368260829679137, -0.09534266375259712, 0.14127976287258692], [0.44307181719128613, 0.6991095177152056, 0.3227300461070511, -0.23151287262658687], [-0.19009590221815978, 0.6973670618446614, -0.17622183825176946, -1.5348893002895005], [0.33506246969352604, 0.5349791270231141, 0.32042361140669345, 0.21923746892918303], [-0.31101984482104905, 0.055275089724641936, -0.31300065873933247, 0.34612563053891343], [0.09963255356120804, 0.2508795922044191, 0.5239657339101779, 0.02264548228964113], [0.8678746044217047, 1.0954019860641522, -0.08072575401467898, 0.1702682681636086], [-0.2944773996119672, -0.16631308589953528, -0.30517200927462845, -0.0832840167634749], [-0.6821367958144888, 0.012469869070047273, 0.07868516042824879, -0.08607620164823636], [0.8912118691374432, 0.11716791194900364, -0.1392053790277278, 0.29667413697026374], [0.8361685512509606, -0.6626413862606871, -0.09823494561414785, 0.8843002514110913], [0.11263493460568899, 0.7899113514476509, 0.05542752525567231, 1.1565093466145346], [0.046523290602983956, 0.32844204389801945, -0.1867162678256521, 0.1492102345474615], [-0.5629982337821967, 0.4261499159429131, 0.5504107162490525, -0.44492993361892114], [1.1696211066182058, -0.014431060620195469, -0.343563354225004, -0.19953658122272616], [-0.13854155063128673, 0.8229796285744654, 0.5629566811123488, 0.32966774616011446], [0.7983491002312185, 0.052213870069213714, 0.2693118374490065, -0.07836932280123886], [-1.154058340787913, 0.6666405592778901, 0.7707115747728183, 0.2677077965220803], [0.3509982107531182, -0.22055261283408722, -0.058311575090868345, 0.0920514723992571], [-0.21765583232300845, 0.16356439263220374, -0.46176091816267584, -0.3878094948585074], [0.3628965869842065, -0.017195249017333103, 0.0931141584489772, 0.4313745939887748], [0.7899704313710847, 0.26720449731289664, -0.14758156885409693, 0.033391956546208384], [0.4671794437353199, 0.24676899854194478, -0.8071537062539855, 0.22784378982980516], [-0.14401949794288854, -1.0085815524007402, -0.6280488502734721, 0.29928867875394116], [-0.4627832613384451, 0.5326232489955248, -0.3942571814027973, -0.9740491891888076], [-0.6128514887013934, -0.1246217562466512, 0.07573043983123733, 0.22464647480034833]], [[0.18923997925392455, -0.3357323619843428, 0.0428574610861968, 0.09030178470204578, 0.10415066053852139, 0.006961242226376888, -0.10427580611471574, 0.03200329727013622, 0.21790715736478547, 0.3407798379183469, 0.22783000025502767, -0.20329806091260463, 0.25281188438603447, -0.1905285179031262, 0.038583885389921815, -0.3705404892818727, 0.015134858911534559, -0.33375461670423423, -0.02670128405093803, -0.1724187305216494, 0.30483463345466305, -0.33490783882672037, -0.07417974171031527, -0.22125089836884274, 0.20562687226500445, 0.006901826137566373, -0.09153965774764104, 0.030469086402030582, 0.025832017185741074, 0.10635437176620059], [-0.24623395599033923, -0.06332843385050768, -0.11893869226537201, -0.09751336709733392, -0.12612297088125055, 0.32523560046306565, -0.06342506490927481, 0.1636172182624035, -0.27973730895224236, -0.06345924047823343, 0.4384756904820602, -0.022444265308922157, -0.1553798219138314, 0.24203968726013084, 0.26870267313034346, 0.5128949071860256, 0.3265748905925055, -0.08144923921634067, -0.012755877468973963, 0.3748627989368464, 0.2962979110218285, -0.10944507541091195, -0.20061951644368725, -0.008411875100296907, 0.08539063857434141, -0.03905933921365114, 0.08817775357512841, 0.4053880213736801, -0.20076682157854264, -0.3153251792110182], [-0.12199952186360846, 0.06955651557824175, -0.10078227566141418, -0.20323103823527408, -0.2015360370062673, 0.040378852556161436, -0.28783651000605925, -0.17282224425758572, 0.06620393069354624, 0.26656695060349356, 0.11063385342531747, -0.014704883030072747, -0.22954321526274604, -0.009371173384702084, 0.16153810539771832, -0.15355509188411837, -0.07135427443658751, 0.2025183631799042, -0.12928517110823148, -0.19377471887383999, 0.14030059641404513, 0.28880426455701225, -0.14346697224896363, 0.07124333123176685, -0.06608019164446471, 0.2808086334220675, -0.18403125955058972, -0.0992638049637771, 0.16106203024616586, -0.14369066982892983]]], "biases": [[[-1.2104749145851366], [0.7763736731347587], [-2.153106721502665], [0.5956112223768767], [-1.2553218018613566], [0.05838183291908719], [0.3124591510202024], [1.1598035853080897], [0.13719023554942905], [0.6329483166617462], [0.27834209682730726], [-0.3852062113060936], [-1.1879513050700585], [-1.6364907934378021], [-0.03941681774750031], [-0.38993085826498713], [-1.2618361097552824], [-0.4197525684394147], [0.47635545635264276], [0.05162688960172699], [0.489540332532838], [-0.8192574653268121], [-1.3291510439935599], [0.021061795348307818], [1.4011411889603607], [-0.1373523291606623], [-0.8267716214872014], [1.0047195987381616], [2.353284704364782], [0.7155379821790018]], [[0.2542795238607845], [-0.5048260528074482], [0.8682086221517816]]], "cost": "QuadraticCost"}