{"sizes": [4, 30, 3], "weights": [[[0.019958709001407598, -0.16272241312932056, -0.19262041877153396, -0.5255992743895656], [-0.5452046726007173, 0.99794564303185, -0.5646486985085386, -0.15210191259194725], [-0.3898459017128594, -0.3654835037085834, 0.7500401045743752, -0.006046658700982928], [0.789887456471462, 0.5628168239558082, 0.11764220906671717, 0.7391944363871894], [-0.2264032676076889, -0.2897832180678437, -0.744760929078833, 0.5759522729214577], [0.013846725674834031, -0.6898657381984731, 0.13460633859173185, -0.0024103570398138446], [-0.5052848365189545, 0.034817003571443295, -0.21984908016319663, -0.6755375087678069], [0.32155076669776533, -0.15707600095487737, 0.19940853064916095, 0.34769905367690157], [-0.1836504468061708, 0.04725047598943261, 0.6553979515362098, 0.585975314749142], [-0.1395834779691538, -0.573167337826712, -0.05130545653285042, -0.15495713262887814], [-0.563059042192077, 0.8627447103983189, -1.1015913496886947, -0.7270262925588071], [-0.250826751420505, 0.3048517341397097, 0.12253765443027025, -0.12951608758128857], [0.5869069117753312, -0.10733062772856534, 0.4608939547537901, -0.25132964746791064], [1.1854314457155406, -0.5290334360571277, 0.2401782767936037, 0.08967644533450086], [-0.10716673966761889, 0.2851780858698561, -0.8943424203848345, 0.2503750461212722], [-0.24784174167840303, -0.38970427528742685, 0.17184601966653962, -0.1461059273864225], [0.7457903767213542, -0.39437319187929515, -0.06941617814829737, 0.7456473771798681], [-0.8795303908814225, -0.4089870153437966, 0.25226703765915987, 0.07024151006515308], [-0.07475314666968427, -0.08311785181910257, -0.4108299507932046, 0.8827406805231075], [0.40844475220836285, -0.1726517184754582, -0.2469399656629303, -0.45704298284966494], [-0.4249209090478276, 0.4457109227710379, -0.02673332736996482, -0.03874338757188916], [0.027954006382763026, -0.490389643607806, -0.8801088649804192, 0.12714645922544618], [0.48712097577680047, 0.41441435530250964, -0.13733469381858673, -0.19877016863170954], [0.9468056626060712, -0.23354029902877926, -0.2587887330964696, 1.0086617623313172], [0.22941477928926388, -0.5501998683061994, 0.11945726550484474, -0.3689851505745764], [1.1823845134381161, 0.5520523911151743, -0.21169564010902667, -0.552449641658083], [0.06324069525299911, -0.37923373708465546, 0.5583650774772078, 0.09759702633173632], [-0.31762457964014984, 0.2913869411678482, 0.2699583562705176, 0.9149276081123401], [-0.04771293022084152, 0.7283789935252888, -0.10142878437499006, 0.6039852256419359], [0.30782712185460287, 0.19688886347398227, 0.2831971886450752, 0.037919176098664055]], [[-0.08204465622493863, -0.15867754256844407, 0.10417412959482278, 0.1461020860727359, 0.06093376791542935, 0.04935585890360185, -0.10396163150681542, -0.04913686323152986, 0.2590111137172003, 0.14472508142309526, 0.3980537700777977, 0.08610795118415264, 0.19345696491597597, -0.011586478504187, -0.12454267235105973, -0.06725825236611226, 0.09627058397827284, -0.11589071930357837, 0.1681002654394064, 0.40721731667250016, -0.3696193981678529, -0.07090488230694825, 0.05073399471808461, 0.17422929075388538, -0.20160593418451564, -0.38675066588531665, 0.20710895238985624, -0.05729013514374175, 0.049326774030843096, 0.002002941759089788], [-0.1620040008130397, 0.0940865886824265, -0.1554415147728822, -0.19994066034812735, -0.11036445106755138, 0.22240250600722006, 0.3776404673853225, -0.029104714147129333, 0.24330681686806296, -0.06301475986202627, 0.044577317477924656, 0.28753276814469614, 0.028524222664905848, 0.11813084521589054, 0.06720132306861253, -0.09086733265910392, 0.2667111575603334, 0.10063683050802458, 0.25821724374579524, 0.09378053669663712, 0.2739873098346733, -0.02192011917052881, 0.007295100184055474, 0.18528256847064725, -0.03117178854929323, 0.2478306786380654, -0.12209184265515793, -0.5421109352927327, 0.33843758207185076, 0.06480705419170041], [0.21037034120268253, 0.1936319657156435, -0.015639284383343312, 0.22492476511307413, 0.06464653508668933, -0.0062044231557652355, 0.22180097773243518, 0.26283560532963457, -0.17623687429445203, 0.2974799182925011, 0.212310242045877, 0.4061758171983251, 0.2344936930986294, -0.3756329620872847, -0.0036737127625626385, 0.0017859867345605025, 0.173644511997519, 0.07591320564184441, -0.08106050196957505, 0.1628284586003518, -0.3159480582409558, 0.26633345869694824, 0.036058706701711726, -0.11867103646936962, -0.16942214530452496, 0.047953602056485536, 0.23763952557128634, 0.07095117303080144, -0.13692478072304862, 0.19894768130091398]]], "biases": [[[0.2273406385732586], [0.7882635188905823], [0.40185277650859813], [1.3660849714597418], [1.0174892286899322], [2.523209864109455], [0.4270365156695858], [-1.0838573669362437], [1.7661846868462368], [0.7462406793832094], [-0.44117443789548305], [1.412362036988719], [1.3268506091430354], [-0.844167159810781], [-0.5208342525816863], [-0.5740764415042483], [1.4537450832112337], [-0.11501694613570294], [-0.5507950074824569], [1.7094124895441287], [-0.04880637639403824], [0.10725120792301274], [-0.7119038364210919], [-0.6568732588405379], [2.028058072463082], [1.3955990258184308], [-0.21727893451793417], [0.3427229633942203], [1.2569028304308068], [-1.2599364107719953]], [[-0.4308964121826414], [-0.05519319023513436], [-0.07723465149742724]]], "cost": "QuadraticCost"}