{"sizes": [4, 20, 3], "weights": [[[-0.3233083859905688, 0.9588218057950859, 0.13826459966157598, -0.8290774494387474], [1.7986787416693686, -0.49041091724504116, 0.4545025759516101, 0.3969707277917951], [-0.31274667926764654, -0.04054135159519469, -1.0048832643444774, -0.1016619188511208], [0.8308688691980056, 1.4621496408591166, -0.8222215423814999, 0.3918312263440874], [-0.27144257624285406, -0.6905033442276507, -0.22450188970002025, 0.0410125873583964], [-0.1874743119461246, 0.11354238334471739, 0.37964928091927874, 0.06170792680817403], [0.0038939021618141097, -0.48935405814730704, 0.45133655784992005, -0.01677875145099889], [0.13964708751157595, 0.6863160151166263, 0.8245185125398123, 0.6116978498089217], [0.28708105484318824, -0.3544021362314469, -0.6969808637941431, 1.3839785016468191], [0.3496779301070553, 0.995117593988173, 0.967508826393513, 0.04916349349115327], [0.11305717989790645, 0.07407193628388778, -0.2834215636451351, 0.20579492662372725], [-0.524532538334347, 0.031694686689130155, 0.4274489105374024, -0.014185249472611128], [0.4798991325639778, 0.25321818344522745, -0.973161464053844, -0.14720343799581762], [0.1507477586636205, -0.13423856074631116, 0.6280793240488826, -1.6857166805849904], [0.49703781125683555, 0.5725839760255756, -0.2895683021581945, -0.3072837576869284], [0.38659153799292195, 0.157623757832977, -0.38313445984833633, -0.6069987752187057], [0.5123879059471175, 0.34943750016390096, -0.30859037786436444, 0.4130500378510212], [0.27263284647769126, 0.3562438141335976, 0.18120791782054152, 0.1400283406174691], [0.3924495185779293, -0.1888932909264531, 0.18040023625343807, 0.47633077578526484], [0.5432797477504535, 0.18745710339606594, 0.29614620911450196, 0.30797876203661556]], [[-0.204647444788917, 0.16452845772199837, -0.14909625227407533, 0.16278999063855562, 0.4146023141359159, 0.3116146103735698, 0.467596779425827, 0.06770548243869833, 0.3122709991813974, -0.3168057698757432, -0.08233931657119051, 0.055204331779703915, -0.039682778927709536, -0.06225112177132713, 0.0323957515815921, 0.12053041501436934, -0.11875744340280285, -0.05945537701175891, 0.0023558691029331265, 0.4104844154604681], [0.15917288602878366, -0.2888046539525485, -0.0797013860297723, -0.12704615328265642, 0.16655668036650306, 0.2218756510642256, 0.10320445114726463, -0.24829044557129523, -0.16089493124298196, 0.10624533207206524, -0.07420478429650378, 0.014523913348130586, 0.05859891447507834, -0.07679944697756487, 0.31093936639655895, 0.169295040772794, 0.34118769199264987, -0.1143141778142581, 0.10448812180510406, -0.3614381981116021], [-0.007663796591113534, 0.05784846242376353, -0.0010985997590885078, -0.2508533843241852, -0.23817680851125095, -0.4274934548925168, 0.13643450064458817, -0.15612193604575203, -0.20505243775465037, -0.00022837633399322186, 0.10270606998695136, -0.24557360187887073, -0.21233798965613018, 0.07510501212415034, -0.08566376203005371, -0.4365380928402143, 0.11172925910217835, -0.0969122670044075, 0.33076657239736723, 0.00833281238827106]]], "biases": [[[0.021298949209652317], [0.3185223239829713], [0.7058094647379689], [0.1604320006079414], [0.08175754013207034], [0.9024651805006921], [-0.05342657946787648], [-1.6666221311699274], [0.6197357013197198], [0.5518719567790619], [-0.3715191725515882], [1.0931263779911997], [-0.7002548320152079], [1.6136802546025373], [-0.8137797943290223], [0.9455806068559452], [-0.7117151434667929], [0.2651287068197255], [-1.750883950588838], [-0.49740974369757274]], [[-2.1999327452840864], [0.2436660353660487], [-0.5531462712757759]]], "cost": "QuadraticCost"}