{"sizes": [4, 30, 20, 3], "weights": [[[-0.3214786751187593, 0.5648229019249127, 0.39958502392167716, -0.1395068786013552], [-0.5999312556239903, -0.5567049590404164, -0.053170117442830615, -0.1141368342769705], [0.5465536301386346, 0.018546422992745455, -0.15499811014750453, -0.19000150641209299], [-0.836700721770617, -0.1675906067086116, -0.13180232080506885, 0.3014234087672792], [-0.4075723504415094, 0.15765725639677514, -0.3485016805779487, 1.1710109542526805], [0.3130902241345181, 0.7353566376485794, -0.016384545543477205, 0.13784186821973068], [-1.358350222363005, 0.2004229860051942, -0.6051675844260994, 0.2544294613943667], [0.08088216470545559, 0.11475906292224601, -0.6513148985535406, 0.25453475801142966], [0.3270605519900629, -0.1752989923520202, -0.5652944185839965, -0.7094494767333067], [-0.4303160845177718, 0.11681684286597632, -0.32882643404925266, 0.641005182000443], [-0.2582083236028188, -0.021782327567648127, -0.5200858976113611, 0.08816017338888463], [0.3445863727238893, 0.5448988785874536, 0.870400541947026, -1.0104411041669634], [-0.1630817493949472, -0.6380204577472169, 0.8241080758401927, -0.2565446230650443], [-0.13671191432306215, -0.3864503649193386, 0.2510503560280957, 0.12198445242500926], [-0.35458436022558626, -0.8900547074282269, 0.3062918472833574, 0.8745411230693039], [-0.4249198112983321, -0.11734619790931751, -0.37146532312215164, -0.18960301713203867], [-0.32373411046218403, 0.7993049725703402, -0.2966460641948525, 0.06520860812717724], [0.8882307820946325, -0.416298915532598, 0.09586816706834377, 0.322018014566186], [0.0936495420940904, 0.71961148021821, 0.6915445270034407, 0.09134266469812671], [-0.4591439049221406, -0.1286283919703532, -0.2903611932698225, 0.371560636647425], [-0.3379002574384445, 1.063069162473908, -0.6648530340654741, -0.2050595180453245], [-0.12038093432576771, 0.4797490612512168, -0.6438535118724468, 0.9337454669642163], [-0.30360010665106185, -0.28459130309800684, -1.0020710757967068, 0.6749533677947055], [0.18214372947200685, -0.11556388594155355, -0.2902452216777686, -0.5523603345982051], [0.003057327933355186, -0.566703796432712, 0.6452467932228563, 0.32718688100094223], [-0.4604011367215154, 0.5265648143872068, 0.6807218528918956, 0.22322757399476012], [0.1670308531284296, -0.525351926129387, -0.4544626980470305, -0.3673951170296133], [0.05975957497064365, 0.5076648116091731, 0.5782199321250806, -0.06049741182206611], [0.2157633734670265, -0.37803956686915197, -1.3635628278108758, 0.3034840012372239], [-0.05880775098443477, 0.004397806757215755, 0.3042305026230629, 0.39265311670915337]], [[0.11200612901016846, -0.11267188963033004, 0.1328309867643203, -0.1969720090686416, 0.09668964879619153, 0.008962171700874029, 0.3882821539071781, -0.1364512970825229, 0.14516099188416184, -0.0744525221633852, 0.055195819867698, 0.16091145090830772, -0.15047026724597698, 0.1268386043624866, -0.012785482179477102, 0.02681348284358836, -0.10404406648034727, 0.15893208090774066, -0.05624937078223416, 0.1695239170580504, 0.21310724958778343, -0.05232161030480072, 0.030796096692526996, -0.026818089183728175, 0.23739411092535515, 0.40005494882080717, -0.15366752386935903, -0.18847630856756414, 0.20717100638457359, -0.11219277759931595], [0.10447164948198517, -0.022674089089978297, 0.05441652490440161, 0.1292064024815658, 0.12200567353432037, -0.04842765035499067, 0.14084507373901253, -0.030266781361638302, 0.11109218678186668, -0.03642687565690728, 0.1485978648105942, -0.0075263536022734815, -0.17851508681717562, 0.02696209112645376, 0.002704995230345233, -0.24015861723951754, -0.23147357895145615, -0.06168027075750681, -0.08303154752894898, -0.08248403108887047, -0.12071311192653472, 0.16107956129228063, 0.0585275302756616, -0.19868547301162462, -0.23963728442465312, 0.09952900340346563, 0.09740983274119533, 0.03272216287086957, 0.2962693704588344, 0.06817531433688444], [-0.05283839495268521, -0.052206420962522204, -0.0823725978815704, -0.20606873582619573, -0.01774358912996896, -0.1151078729891276, 0.08048239366797037, 0.2905923652918609, -0.3045196899075855, 0.19145542641423005, -0.12189768220341228, 0.2497578914064414, 0.16398297778236925, 0.21338224999388902, -0.1115788056404008, -0.19064896931352335, 0.14558737794084856, -0.07182808002049455, -0.15694429400593787, 0.1789169703028198, -0.003745158983917937, -0.22703149057860542, 0.3597004673678361, 0.13193270432700957, -0.1876095221062183, 0.1423729159777034, 0.04621499118472993, -0.09726353843536974, 0.11797469820502964, 0.10898271039042541], [0.0833914429997613, -0.10326692419561771, -0.07866128063757041, 0.144892731802102, -0.07361980826578184, -0.14688933601236145, 0.3052223583699831, 0.004135894837377191, -0.07176804072763868, -0.0359151372320123, 0.24687399780753427, -0.033852826616871924, -0.037741903091629114, 0.048928135844228816, -0.11569804620007727, 0.08557172186823518, -0.1890832590428339, 0.2268310797377796, 0.03816888664754478, 0.1496193060802901, 0.07986087122704008, 0.1904453745430204, -0.07519266278516323, 0.22297260685760167, -0.08555256226583567, -0.18886582854911968, -0.1939616824078287, 0.39272283075357084, -0.17552149233799216, 0.28185307628867984], [0.15406379823767813, 0.08529518398029444, -0.04102540252732212, 0.07387153685547397, -0.08510715486374512, -0.30959189781146945, -0.32733465155506813, -0.13384539267893142, 0.0779367144148828, 0.22280926076115853, -0.11834031962854093, 0.018497412616569522, 0.59101573513171, 0.003300562811995662, -0.0931867352153182, 0.12141358482777852, 0.11366861841725717, 0.09962780919453049, -0.2343846990436783, 0.015798119368200532, -0.0013902551556577772, -0.10127369108105173, -0.3389590818936901, -0.1794807264449244, -0.056451725593858235, -0.1030377533122571, -0.019054912328289323, -0.28607839047589034, -0.21215092927587348, -0.45733056375213754], [0.2169923860273689, -0.14903118986227762, 0.10574520903650156, -0.16937552351722332, 0.12272560560382896, -0.32543098670704423, 0.23837805487029062, -0.3622024951242345, -0.20667974144789808, -0.11690221837731664, 0.216113874213803, -0.11362870647024481, 0.01928529713830482, -0.16340360843217952, -0.024978262849642607, -0.2079208005474867, -0.15124908814564778, -0.1517864393655973, 0.01481079360591162, -0.08458431249508154, -0.14455416082635367, -0.3484798371991264, -0.5870025640302745, -0.026560703362200174, -0.06359574212991172, -0.05180033135017004, 0.03273743455624706, 0.03035608513923706, 0.34198619160318455, -0.27671394782056574], [0.041195411616825814, -0.23013164441279094, -0.11453480541246777, -0.2733953355651387, -0.2410786957862912, -0.1418945389796501, 0.06031650851995123, -0.10391000971687925, 0.01814018104490213, -0.08640564689042173, 0.004492590019600047, -0.16971955343345846, 0.2152387833308895, 0.28762908857097064, 0.13858335021509924, 0.38013149832878734, 0.06582610887533302, 0.22752667705926566, 0.3084087585258187, 0.03000268469704557, 0.14850081143867538, -0.23793126359953293, 0.09497919186566982, -0.15301289308662097, 0.10300449863081508, -0.3659824499047218, 0.05606523027432246, 0.040393449678109754, 0.041102964774901836, 0.16478227303119444], [-0.23767190554892903, -0.16817542534330088, -0.2106640738410928, 0.06742506955663437, -0.04574531448359245, 0.2757948646815343, 0.28350123114099524, 0.17623005256044727, -0.3267490001614205, 0.1192379159080334, -0.0013475046098588136, 0.22819662047193012, 0.027894447520461618, -0.26772599811809333, 0.1278034763438507, -0.2028075173536821, -0.07525222581740056, -0.057634035355379344, -0.051845537033207593, -0.08766007674752549, 0.06405702047123409, 0.13050531088051892, -0.0658181494868572, -0.13900924576695442, -0.036884504577569754, -0.0208935679787148, -0.04563218741756453, 0.012800307776820622, -0.09612663770593649, -0.2809564656342606], [0.23731510278984236, 0.1493628747389637, 0.005807644381565889, -0.12900318502647054, 0.07526624996098545, -0.21748872138081285, -0.009174208648595557, 0.1816737892538977, 0.2763003170256432, -0.048118947085612346, 0.18815681913013915, 0.16633735365678273, -0.09436462001933123, 0.019551149818093586, 0.1293303249743427, -0.05797270348547935, 0.11785704787845239, 0.06511937915338618, 0.16089281781299708, -0.07600314956831816, -0.08790498230204516, 0.24510408549996654, 0.07984698778305124, -0.205218146243807, -0.1923806527906882, -0.17121132671007308, 0.22460941813355545, 0.5119336072477302, 0.18714141883979643, 0.14631860897895982], [0.006704577709924007, 0.09254576129227465, 0.3520890538046169, -0.07703841460593726, 0.2505858886282004, 0.16196500674082845, -0.14439538403596203, 0.03140150067540086, 0.0529378508224853, 0.4269058558030105, 0.15512366571567976, 0.06104086808754271, 0.20538906151898337, -0.06286655869564134, -0.08741292550544265, -0.14292734538570212, 0.07946184382283154, -0.2366409858191399, -0.06280098968097717, 0.22225905040138025, 0.02343745091638281, 0.24118417402573905, 0.5477091728388411, -0.13403199672666138, -0.0006624776575300895, -0.017820282989413842, -0.2513079550779458, -0.29168849646499256, -0.04192590004576129, -0.22574434663312018], [0.13636600831569323, -0.12332799872790746, 0.022537144452822552, -0.06327681063391376, -0.1261279553726701, -0.014051459034840856, 0.1560901454338493, -0.054260083671424736, 0.12730504148138547, 0.19309955546932459, -0.04481603012119843, -0.14432508372192887, 0.13320873866949123, 0.12699983198271772, 0.08346255369146174, -0.11655458811847337, -0.05331611680244671, -0.03985960878602141, 0.09345882412975488, 0.04124651537448339, 0.4422614137349578, -0.03823994900380276, -0.08173166627923933, -0.25265642355254425, 0.2847672811127781, 0.12689914725122717, 0.10724777759815372, -0.0042690017910746, 0.26547916234988345, 0.3940775070127082], [0.09269513887663712, 0.11509606197179767, 0.0473528287850255, -0.16110932580801113, -0.16302771676566455, 0.35458184144653926, -0.0031559710416466714, 0.2101728944847645, 0.12198231921429205, -0.06574951029768727, 0.3135768240933288, 0.1316192072510955, -0.08836593740804187, -0.12045789742772865, -0.13654689485243668, 0.2232434654080339, 0.13440000594129328, 0.019221826190788955, -0.04851695487637659, -0.21664791913098355, 0.06454000948249136, 0.20730742369538332, 0.09030240514815056, 0.03357500387192983, -0.13624535273569108, -0.09830733426379418, 0.248219922154599, -0.1522662394894136, -0.22837197485992738, -0.08013376348144997], [0.25771684895160507, 0.28137423396784816, -0.13459041765939742, 0.08747373338182496, -0.14534116845432038, 0.3026279249663058, -0.4465648225419176, 0.06504529834364824, -0.005473540128365193, -0.04818185141269272, 0.0026194622385270604, -0.058646941699330456, 0.1893648355740819, 0.16702172090932707, -0.012630443778206516, -0.1892165737746965, 0.30820888039970956, -0.23643951228003374, -0.04822700555784241, -0.2891861381738729, -0.09371783161738872, 0.10049452916061273, -0.21605665547377126, 0.006341013774790804, -0.21419646303823175, 0.10466837778547698, -0.08676656638770776, -0.29523224194326697, 0.11271871975457573, -0.19877817005157292], [0.016085411048525056, -0.0959002857722417, -0.10036287549615308, 0.038396493491111815, -0.010464793903920204, 0.20613243635226294, 0.13541370611182554, 0.16596064814330325, 0.3705288825573478, 0.1480063444040747, -0.05909670838283448, 0.04521683850804903, 0.1789709422839244, 0.12797943566561995, -0.2771695880216298, 0.08359930157459396, 0.10188533223214989, 0.6467681040304241, 0.041396946309545296, 0.14614749549952713, 0.370256725477939, 0.15658702237604752, -0.016530447312789853, 0.13151527121588222, -0.07623743448558143, 0.11422792664908062, 0.04893952295723932, 0.1351575783611445, 0.06941114674570657, 0.018203913110379548], [0.054064513229748264, 0.08178839216611065, 0.13132586875084232, 0.0717155122707984, 0.014394861848566858, -0.17816586576503557, 0.05554141231896985, 0.17066383010367198, 0.1424901951617615, -0.37448598428452345, 0.07145273241407737, -0.15823283602863528, 0.08494302137464725, -0.1334914571674131, -0.2084530223939703, -0.06418902477688046, -0.02566005287025434, -0.21259317514350362, -0.3099620262071668, -0.07831828141166206, -0.04401302702397844, 0.34841018734257606, 0.07490876200005067, 0.045889713359835826, -0.25644392780814007, -0.020704375643545315, 0.0096134112749304, 0.037738828969112216, -0.19644921637578217, -0.25207284929902196], [-0.027059904917355476, -0.24249208287900803, 0.21071562336195285, 0.0508734314997127, 0.06145087741399035, 0.1531330384358752, 0.044828822381176484, -0.2109785466322551, 0.06688739031772054, -0.057491528543325864, 0.019707114051432592, 0.2510069311402424, 0.3295906529903518, -0.18704979888680592, -0.12270141580513375, -0.01211655595243917, 0.03258552944169393, 0.1088836559020131, 0.0440066720224727, -0.11368218836432366, -0.10632488884103898, -0.28179884485753065, 0.08566879861824138, -0.5236862386058407, -0.010113446865400312, 0.10530340022338389, 0.08292367465385546, -0.16515329818092875, 0.2676041501561488, -0.04862562350630284], [0.11816938737402584, 0.25727547318939786, -0.17735599148064587, -0.024479704613365696, -0.25051495565609205, 0.1929368733291338, -0.290390143457056, -0.2320098504313877, -0.027557318494220655, -0.04926141254800355, 0.10905555312856056, -0.05948958766675344, -0.001652337340389172, -0.06124931785350921, -0.04600046414368287, -0.02330071777979054, 0.34418640107548704, 0.2262072891609639, -0.05474878930448244, -0.05437824304034838, 0.13289668478475045, -0.07975301340584176, -0.03547569145997189, -0.048904023501339836, -0.10346342276099879, -0.09268535802830362, -0.14196068653190874, 0.2580687335727162, 0.09110256851075313, 0.053168958176493364], [0.08115798351243282, 0.08865820192438671, 0.12556972344977319, 0.009843688322266531, -0.1458429407756313, -0.044115974517678735, -0.06949964581776509, 0.18525140900810216, 0.06795533501809839, 0.06480473129745319, 0.18410542470536362, 0.29011360447344287, -0.11521800719649997, 0.07381825641725806, 0.016687731662781563, 0.07315525306521115, 0.3153420098263827, 0.28688125029057543, 0.023139754632426495, 0.19407008879749582, 0.05440539872505569, 0.11579274125241652, 0.0670448642187995, -0.30317563247126494, -0.12193569354465254, -0.2075641498017324, 0.0316857721235341, -0.05919512017164339, -0.19340993561626638, 0.04460896927641154], [0.04773443577166139, 0.19259712991503644, 0.09630683196769875, -0.030892164792045717, 0.04025795238650982, 0.4041117346705872, 0.09391382739952311, -0.11839229908918335, 0.2632123046270619, -0.3139135191367503, -0.09916956557909913, 0.2339550857343159, 0.2353526487094517, 0.42810501527952816, -0.28152878365126455, -0.14834970155097568, 0.03890184020348581, -0.08218393285507325, -0.11981674149732872, 0.17203629025760192, 0.26785574843607035, 0.049690357911076836, -0.07020041428526524, -0.1969921533198922, 0.10892822668578296, -0.09536057920932582, 0.04069914039114274, 0.2702168320859014, 0.0399933002990417, 0.02500396197880966], [0.019206404185984804, 0.05862668947946011, -0.046854749956380594, -0.13605074387176144, -0.0777099335848676, 0.10961655895897406, 0.20634622853718868, -0.3897053804393117, 0.021127290444523314, -0.06091221371951847, 0.11777424521356264, -0.04157746555911741, 0.2802631733614889, -0.045028729791404896, 0.07806213926691226, -0.19049362636391992, -0.4383455191205885, -0.1770805171095729, -0.139881668674639, 0.3382150539232703, 0.13755595044009358, 0.03689906947349585, -0.20361048133730664, 0.10914468699041535, 0.23777747313106512, -0.03791832258117607, 0.005171807558143581, 0.15444512199762891, 0.1233492834704621, -0.2815544688411178]], [[0.025477988818142835, -0.046369464757727304, 0.24761410546460053, -0.19839329334590336, -0.023048039116070014, 0.40387805254405107, -0.10796739976662238, 0.07572463916944744, 0.16856626719616166, 0.19130224947766344, 0.40516833170902233, 0.16326802723668538, -0.04060578939277989, 0.2227454463186682, 0.027428833951637623, 0.18989735501729382, -0.20725216652505873, 0.18580529006990312, -0.3166734816519412, 0.07131456767474548], [0.004410972331611419, -0.4306833330041068, 0.26422767759450494, -0.4443140837550851, 0.23116989178262287, 0.06445493779356676, 0.10568584917646022, 0.16142924824679192, 0.24653902884069964, 0.11125264419737738, 0.25328974566323065, -0.30991053610700664, -0.1793790554210499, -0.16013138414387562, -0.2405440194794511, 0.09162900464490388, 0.16464824191367425, -0.08960951880699661, -0.008519200928195327, 0.380076943422899], [0.26014252532311766, 0.23330863700441926, -0.007983358605031268, 0.2830239392182076, 0.16603395109410907, -0.13827677453520082, 0.25998865398343657, 0.024303755791673206, 0.11606255566638086, -0.24745363375997614, 0.1393640436546866, 0.09816267316135276, -0.16585965055278623, 0.2391047743546269, -0.012963098505208225, 0.08155525788276492, 0.22756877123060437, -0.15190077701588883, -0.03446149286451746, 0.029967331880320327]]], "biases": [[[0.1709532819158761], [0.2608390985479905], [1.5715609147315046], [-0.0778872983289635], [-0.20083473961266216], [-0.8488920784896701], [-2.008518582922642], [-1.2621506374598064], [0.8861571785602546], [1.1869917086002322], [0.9198269986981138], [0.8204662310514382], [-0.6614323792283819], [-0.4442324133571948], [-1.159786935248851], [-0.1457604413162727], [-1.5163437382462575], [-1.0072886427510825], [-0.932149960615425], [0.21903839677618486], [0.8826483533028499], [1.4607413309104442], [1.3710626108828632], [-0.2972787683209164], [1.8055544434258861], [0.815716053676195], [-0.5891821392259166], [1.1554382186400214], [0.7074643581409937], [1.6394735169457741]], [[1.9474168104824816], [1.5495161660862087], [0.12433204209594784], [1.4983727475314528], [1.4311710383812746], [1.0994083721994568], [0.5435237760121934], [0.5548660164233332], [0.13066409507200305], [0.5771165132563773], [-0.6814379282479425], [-0.36216758861435827], [-0.22101009463230123], [0.6161711903969748], [-0.382345031712678], [0.15337360491351235], [-1.4067070725557118], [1.4806491435431675], [-0.5226314196350148], [0.9855584332324395]], [[-0.4768607133129077], [0.8686337975009417], [-0.24807377854433335]]], "cost": "QuadraticCost"}