{"sizes": [4, 30, 3], "weights": [[[-0.27204108805478794, -0.3237598872794193, -0.29546099466459924, -0.43389770942746353], [0.8027449444968554, -0.771509616777573, -0.11777384256748492, 0.23705775720815342], [-0.3468148446772066, 0.20371499713205943, -0.1489930859932783, -0.4971411730697912], [0.45033888966313557, -0.017121907884089807, -0.3642423527323709, 0.1667277965978807], [0.648291451977077, -0.400371940568064, -0.21411046291784144, 0.22457475944949998], [-0.6003508375293223, 0.08014395361861758, 0.5802723438874893, 1.0831859785852984], [0.3011475846185688, 0.8534652830442597, -0.0993934587866547, 0.1790420675132319], [-0.2269145752992579, 0.6024653134693199, 0.42344040590155657, -0.1528449310651425], [-0.05311185958853129, -0.4067472370226869, 0.8285577702702657, -0.7073144549018386], [0.6854368883150183, 0.2488260904826751, -0.3933438327849117, 0.8065220081736072], [0.10636156108931306, -0.1060365747524374, 0.3519265896445098, 0.10564202831221754], [-0.41205038618018314, 0.1841454666674696, 0.24886001770104804, 0.11422061559397022], [-0.5012552176677525, 0.6962593967584003, 0.2300911523791783, 0.15608789497460962], [0.2147239193772263, 0.5925736376878689, 0.03422800237380172, 0.09976088793999537], [0.8364856881897772, 0.32179301636499735, -0.2136257735440102, -0.3699006790622508], [0.43146515949996106, -0.28657982927954273, -0.3210100856617722, -0.46035406145405694], [0.28470673852439066, -0.048482218422086436, -0.07099822316157825, -0.3873295565242373], [0.6352841761757553, -0.3268504686167033, -1.2461566402974629, -0.40760486145105984], [0.15776113398708932, 0.7632163309509984, -0.7567508408630804, -0.06079558651800782], [0.31790692169742457, 0.586669977773699, 0.3778755925057931, 0.8687366297512426], [-0.06957377258125547, -0.1719329129382114, -0.36231235180495036, 0.34844692159336227], [-0.5001451418182458, -0.0060553672125228586, -1.3833219716216143, 0.6627973181854516], [-1.153812608651627, -0.3115677154227146, -0.019442430460846052, -0.5316005341864011], [-0.18150859734197392, 0.0912895889956636, 0.565998842024175, -0.5204621792188663], [0.29094493699345436, 0.10132278335656165, -0.5840303406185243, -0.12891848715473034], [0.9749544411977139, -0.9412232983035149, 0.49758527735542435, -0.19157699442460616], [0.7016138677649475, -0.5202035671590871, 0.6934136462492453, -0.48513658914892205], [-0.010038412031870133, 0.9810128182110035, 1.082247005748705, 0.1294165972987545], [-0.25455165455926954, -0.08868564024549207, -0.13526014518511825, -0.5475148072751763], [0.33255149455525074, -0.28291161911236173, 0.2182731127103658, -0.28860025680457885]], [[0.08833527657489289, -0.18774186898465287, 0.16570338280873226, -0.09048863620777589, 0.15574580848589645, -0.148612813769514, -0.09885173051865874, 0.3207931308736526, 0.004560595255643182, 0.3029441620551814, 0.01284812811792359, 0.2923931421249442, 0.06426200549295233, 0.015351252624225405, 0.09460393300910123, 0.19534138162153844, 0.1722298407638924, -0.15064639992990772, 0.18902153676946087, -0.33634354289132923, -0.02233190834648234, -0.07337536643261693, 0.14286288528723054, -0.18102930153271535, -0.19024770629079232, -0.21623703611094042, -0.2145472959987793, 0.19042896047886837, 0.003996208429198234, 0.2284246506704828], [-0.18655548212128317, 0.2906528096521885, 0.00019400521419822716, -0.06862086498388595, 0.04810027122798178, 0.06686851037623884, 0.22236945673130554, 0.11439568160402053, 0.038350808987976735, 0.13518885637256942, -0.1895303958804603, -0.12860520751942095, 0.16849052740549983, 0.030975903671272377, -0.09772367382098929, -0.339647570951821, 0.17508525476787976, 0.241459323396992, 0.10823632515045993, 0.3455633522806809, 0.014941284156544738, 0.021635014352770814, 0.3542184178504348, -0.2893207515342221, -0.06394279804328888, -0.02825433778870611, 0.1623408253563131, 0.2966190334208839, 0.04319634840244563, 0.493389063044306], [-0.2649002850875639, -0.06415645070366907, 0.027398882335881437, -0.039228190002264816, 0.29270615079624074, -0.20517540537240647, 0.06941170358845386, -0.24933010792240004, 0.17757476747362444, 0.15093255004188424, -0.00389577182070808, -0.10308290730579811, 0.12520480368656411, 0.08650512363422537, 0.021816056568005292, 0.20636187507277481, -0.05466361083128471, -0.058465248005419475, 0.12137812200964376, 0.10647182674380333, 0.025437164626892304, -0.041794263045596164, 0.08045256780156014, -0.26329739738114694, 0.055208747937120856, 0.42585065351977036, -0.20693468333289414, -0.4067127631080962, -0.024871057777198672, 0.05927154618009696]]], "biases": [[[-0.34840701022681414], [2.1141047995050077], [1.2646330215171517], [-2.573405669407512], [0.16858781434900144], [-1.0317280657624055], [1.3897087403853208], [1.766262819328988], [0.19065184091605344], [-0.4225899615858493], [-0.4247333073213094], [0.8565994826445327], [-0.7605453488425811], [-0.7761746817259736], [-0.8732482715574816], [-0.5333292858560112], [-1.2225808518187546], [-0.2269052131068602], [-0.595169408748412], [-0.4310199535527973], [0.047778491416783565], [0.7112106491416866], [-1.0040627072442327], [-0.5409129745825367], [0.41223492116564925], [-0.7916335315980506], [0.4003814222518372], [-0.030409272235753668], [0.18168228996315916], [-0.10476929481452754]], [[0.4142195184551029], [-0.6504808806875937], [0.9101251829519261]]], "cost": "QuadraticCost"}