{"sizes": [4, 30, 3], "weights": [[[0.8124455926359094, -0.295403025965741, 0.2159910624553757, -0.08990958678230411], [-0.3660235943433636, 0.6786617379592129, -0.8229679023550039, 0.07344316627747517], [0.05312729647199073, -0.2394566054723707, 0.525669389193579, 0.162172108543114], [0.13052249237035063, -0.35899979600265575, -0.04846186474278467, 0.6659423028559294], [0.47981375059222636, -0.41410076007014507, 0.1162915110736702, 0.1778155877777724], [0.22349716486721402, 0.11911982862048712, 0.4110455253587048, -0.145431099006716], [-0.13832946683273378, -0.36970133645738257, -2.1338444530212777, -0.6704376373349419], [0.39096476902270055, -0.009471209904077422, -0.544033245766768, 0.5620297415543772], [-0.6616008029479061, -0.9661555206479434, 0.2978444924646839, 0.017325353618280987], [-0.7767072998619735, -0.38238779767548803, -0.2588534627629926, 0.20529922559246302], [0.3520547601200609, 0.7964131335344072, 0.723739714871139, -0.49687992612463194], [-0.7267691974393704, -0.8596164956762956, 0.23081583767786812, 0.6366120613558359], [-1.040099563566714, -0.5882003222601735, -0.03005964168284357, -0.001198451846384839], [-0.4586634498130554, -0.10526814049483292, 0.06604705403929867, 0.22095009564394613], [0.32254833012697953, -0.4179597279057901, -0.6052851302514978, 0.33937107859232124], [-0.6882588442790589, 0.3208125959202114, 0.41347351484430933, 0.2032992153495056], [0.09456617714593518, 0.33710226278369754, -0.14065075452026155, 0.2711860527243948], [-0.2407913891775586, -0.5479398460301876, 0.4359724118392905, -0.20659536037595147], [-0.1631505333224273, 0.02892110575408162, 0.43769017541152383, -0.11639185648280966], [-0.39437653125715405, 0.060967372183767965, -0.7987847236906308, -0.2797070978743187], [-0.4158053728052883, -0.3855299041496487, 0.651653897474781, 0.1516979729056501], [-1.3295562389592044, 0.3946971491966583, 0.23671108080014364, -0.12311236787297798], [0.08504223778092233, -0.08890546274306096, -0.4626724718403828, -0.24971435637655068], [-0.1852631086280373, -0.09376795922186397, -0.06512315750729435, -0.2552583528210825], [-0.7749980670674427, 0.12565657375174238, -0.38264084661983666, 0.022679241672119287], [-0.44629112468042587, -0.09826006004947474, 0.3631626039525709, -0.0800581174281815], [0.14935009083613363, -1.1431151437748386, -0.19221301529190324, -0.2803819247031795], [0.37491265977715743, -0.7473952447881956, -0.0180790075390684, -0.6206455985913149], [-0.220203528922049, 1.1203454824409096, -0.3856166720576955, -0.7346898270105264], [-0.2163149409897036, 0.2934673917979995, 0.0168030434509152, -1.0359148202815276]], [[0.18671415903947008, -0.0736982496302287, -0.25973262395071495, -0.1141177122201873, 0.33895545465792326, 0.2487744447356064, 0.1317142498408368, -0.2168549461405904, -0.10740171887110364, 0.071874452229264, -0.08845889846966107, -0.13530923201225395, 0.06056393385678786, -0.0069871525344269315, 0.33526328796934335, -0.17841004557815945, 0.22549686678612837, -0.030660176613729027, -0.03811067138861869, 0.2024363244465157, 0.22141822752059082, -0.0708120474304495, 0.11380142129019857, 0.21904528933187875, 0.13210658429788125, -0.06884219029698778, -0.13564771599686756, 0.08011809393952829, -0.16615021225550206, 0.16266078303071363], [0.10483476499039769, 0.1583931871979218, 0.1802113165624579, 0.4268454956231112, 0.4006870341463832, 0.1376236271791592, 0.1499640712132017, -0.06513486021617461, 0.43886771126027463, 0.024194877243933953, 0.12505891575132036, 0.12359684551901964, -0.038053605232431634, -0.22028179270286788, 0.22794581081156856, 0.416379039270114, 0.05068107053641503, 0.30712613405062894, 0.3156258451310053, -0.12151366044302568, -0.021572782111360246, 0.2454282356842343, 0.1791368905379167, -0.062308450196510386, 0.4171051906863274, -0.006910842647329304, -0.09092124851491165, -0.1795965617955164, 0.039695696078061324, -0.27290709807705144], [-0.05506607980910358, 0.22069179013050097, -0.12297771556712071, 0.31003716567364936, 0.10721646712754876, 0.07373789396856309, -0.005246382511764013, -0.3795967078503006, -0.019478234535010696, -0.05242901765514775, 0.008565871077849622, 0.017972451559682506, 0.2584671028328585, -0.07629578945933112, 0.13633885848159413, 0.13271603381257002, 0.06655381692511711, -0.01232729870630398, 0.17777985945891617, -0.07779775857044426, 0.08009500908013682, -0.22832381786659053, 0.45906884645574475, -0.18285488003609682, 0.14767644633899743, -0.003846638324441059, 0.219120989238666, -0.1846427738188118, -0.1576363991619375, 0.25476940668748405]]], "biases": [[[1.3534386549656063], [-0.31194491848913847], [-1.1131660570358477], [-2.530108264281555], [1.0509831306514836], [0.8064831167094776], [0.9344170509742908], [-0.48223154600252444], [-0.39072947286747806], [0.2687552321896598], [0.9576978789921333], [0.7585446066955972], [-0.1328541365233517], [2.121076700666007], [1.5803429257846653], [-0.5815760337769247], [-0.4462984974851052], [1.206844106356703], [1.414514098083414], [-0.587137095682205], [-0.798051461674363], [0.4825768996694689], [-0.20802565666577932], [0.7905222443495208], [-0.4825903382903347], [-1.4616035111077723], [2.0631582647102737], [1.11752522513899], [-2.8534880868103087], [0.33943327902958037]], [[0.17431168335323355], [-1.5236033922300083], [0.29967789417369306]]], "cost": "QuadraticCost"}