{"sizes": [4, 30, 3], "weights": [[[-0.038444845233391, -0.2102825482043505, -0.10202482197406693, -0.6812947272384764], [0.538726733294964, 0.22449363292833457, 0.016580419086878084, -1.3116672572078716], [-0.6182080367964752, -0.6777718752586106, 0.5072747788608861, -0.19122099874185458], [-0.26135565971393243, 0.4403780731140621, -0.827503893268603, 0.5304447704755826], [-0.717790043982692, -0.6324594670409106, 0.7309647685247166, 1.4681726546508442], [-1.0012577064846775, 0.5947446247865669, 0.4729136864608321, -0.0009649828648362311], [0.584187139701637, -0.6130384775394364, -0.10614092126053294, 0.8511235879254258], [-0.556479026769, 0.19697931337057428, -0.48128116238398816, -0.2581584979880434], [-0.01813268133840864, -0.45320043041626007, -0.5003901889717941, -0.47914488016463774], [0.6020832887747088, 1.285682164499056, 0.23826669626942382, 0.18161957906225837], [0.002067170399827129, 0.1205230531845546, 0.4920270363356312, -0.6399172129985822], [-1.3176896665265234, -1.0218680274647416, 0.6352494844880885, -0.5626099289637557], [0.7977357288825266, -0.7673290076950138, 0.883409452001757, 0.1292149722810141], [-0.4376328194812152, 0.05989192552955758, 0.4247192639679828, -0.1722341560375476], [-0.5046810195771905, 0.7432072768972011, -0.4751426397865137, -0.588343692033282], [-0.39603417072299496, -0.5819425562225999, 0.34699109539235884, -0.17561005681410513], [-0.30054055364907895, 0.3471676180154681, -0.5482191590314507, -0.8206250928777075], [-0.07423894092388615, -0.16054053877599286, -0.442959008041168, 0.42489701540379604], [0.29932700230683884, -0.8608489305977303, 0.571282138540672, 0.5975781631211354], [-0.1415329645705648, -0.24439478978170254, 0.8017845266214413, 0.0015354125299932376], [0.27688484222946963, 0.990075804836269, 0.6720984297077532, -0.015561020314317714], [0.8866096643659412, -0.375089828016613, -0.16551706359297702, -0.6289318473125146], [0.9353353636429379, 0.17442419956729754, 0.629213965129766, -0.5496033176023715], [0.27419379734930927, -0.10740710647632708, 0.2723847661306025, -0.49468848170841606], [-1.091560912247907, 0.5488905823854768, -0.11468279314348072, -0.2082351827269334], [0.08083838793987186, 0.12248519565350824, -0.04332641537517061, -0.7938059396846759], [-0.38502617375086134, 0.11101572964535464, 0.7676557081294176, 0.22036028457693876], [-0.6423671003916822, -0.2983925528274372, -0.32488833427549474, -0.5748471823788639], [0.29379820488038844, 0.36662107959451223, 0.40244236440466186, 0.8236591496853333], [-0.2490467095462326, 0.1250589120005776, -0.49853966198778416, 0.18126569236394313]], [[0.2439169136759795, 0.0467389410854652, -0.336876141485943, -0.18684417432568484, -0.07334388828222811, -0.10246955156726627, 0.04699701714109104, -0.0037682130928890123, 0.04200356098546891, -0.025103765222761767, 0.2556595270611124, -0.1549199342608655, -0.032298520580605374, -0.02452640740918785, 0.3807538867364078, -0.11457218570244745, 0.15319847290083174, 0.00849120858205061, 0.3137766317124468, -0.02359123936288173, -0.09357079348964291, 0.05663803534097266, 0.13963029775153796, -0.20683546791522273, -0.051818144064129844, 0.012632779915611486, 0.036377425967760696, 0.2628300242400635, -0.01550768707768519, 0.3228035091333289], [-0.0940397661394747, 0.04373981298464509, 0.22820943196243387, -0.0003089714231711359, 0.24524188853303389, -0.3212576385186467, 0.01379450545548953, -0.22816611415610094, -0.13853151790592388, 0.08925760889456458, -0.08339764967349832, 0.4447137603924049, 0.10656764930830771, 0.2767336171820755, -0.018974556484989014, -0.15360274190590856, 0.17915506104020046, -0.05348259114446964, 0.1937146154926849, 0.20345156524316, 0.32726033960725603, 0.18944740107067545, -0.14747148045754735, 0.14055920612782397, 0.2574832776152975, 0.009484344694322576, -0.2579140816173465, -0.07058525436343512, -0.07820245657149855, 0.22152563830530103], [0.18076429167529, -0.04607088753661259, 0.10856446692587055, 0.11978504867127915, -0.48522359277967775, -0.004475738702065141, -0.006571221497310566, 0.0850650619620097, 0.13329938174451184, 0.18705296803525778, 0.28762645422270705, 0.08025882332881873, 0.002578368587027493, 0.042162507398719885, -0.1624671201426852, 0.1925139980374726, 0.02100069298038925, 0.15100963984230772, -0.09419044215198819, 0.10681731795068924, 0.23709453647929107, 0.008508403456550769, -0.11791056667578714, 0.3626447640926449, 0.10455043664265683, 0.21607899860323643, 0.020527714302679505, -0.26239825717176934, 0.015561349915053535, 0.2589451576541114]]], "biases": [[[0.026631483964361293], [-1.9994267196514535], [1.2789131701218754], [0.3172269293527401], [0.5219809677391722], [0.2795582753203029], [0.30261153890577486], [-0.3776255156456909], [0.22289919587082252], [0.3305110216455182], [-0.13020983528755112], [0.17995509932575468], [0.3804784382471071], [0.47336569414060037], [-1.377211568761174], [-1.3381919149690942], [0.3478035293871365], [0.8569942399300394], [-0.946857278940127], [-0.7857019542317208], [0.5322560248387618], [-0.259257113808215], [1.143941086008208], [1.5089022108739545], [-0.9505470952057135], [0.35906190257529946], [0.6481502296700881], [-0.4510368478833443], [0.07077313548663157], [0.19006744347682278]], [[0.7852917927575295], [-0.09848172495256965], [0.19599373226511033]]], "cost": "QuadraticCost"}