{"sizes": [4, 30, 20, 3], "weights": [[[-0.44774779603357084, -0.16032324974906728, -0.49260357429616886, -0.20489520610997078], [0.21258423303984617, -0.010967317123039512, 1.0244214301673051, -0.09659669976297232], [0.03991739925830559, 0.040692659635045994, -0.2973129850998476, 0.44582212819443146], [-1.0292837272322508, -0.07356953409563878, 0.06143122894471783, -0.2961219227577645], [-0.012666483913156307, 0.19160473759332503, -0.1726438031390631, -0.24935869940767622], [-0.48247111120154473, 0.5111256237158531, -0.1933640331117, -0.17009878317771107], [-0.33576079742688486, -0.1511023393468089, -0.2946966593628149, 0.27207920700543164], [-0.23612118132683632, -0.4703813177249981, 0.7825222808458119, 0.446131576728774], [0.7240078453229419, 1.535361498411436, -0.4812834856419304, -0.21923369885653485], [0.5915501369350676, 1.0504811118147697, -0.34456908661575336, 0.22792128323511626], [-0.4463212185252108, 0.1630007763619315, -0.04912523540102853, 0.20451085229505955], [0.12463264111933142, -0.1295774662105853, -1.1835813541097004, 0.1514695348941849], [0.16241487477153743, -0.15049836627666618, -0.2747193314814152, -0.5217348741554041], [0.2669110891146189, -0.11077424207864808, -0.6393407873310073, 0.34105456440025356], [0.10575530041436128, -0.6905800408090118, -0.5459927658828682, 0.039551459211764284], [0.5210182809811108, 0.3892457928079449, 0.6118074471505598, 0.6650288381465854], [0.39705195454275294, -0.5939758557405105, 0.23048708612008634, 0.1950535901245865], [0.2750911282785507, 0.811458356262985, 0.36346601947220775, 0.1015615882349904], [-0.2068029699581407, -0.03336179269044869, 1.0536798411894983, -0.09464788664492112], [-0.7075359020101104, -0.6112654414936148, -0.6612371368681523, -0.4306081147530594], [0.31998374829048604, 0.13472707740513773, 0.05720847408301739, -0.7269414690905952], [-0.3795170634861294, 0.19495745940602544, -0.4384593494430201, -0.805975715364588], [0.16418156195541203, -0.008916393642738343, 0.12061151194820567, -0.45814817428411103], [-0.4688308811955707, 0.17850360822431366, -0.9254897084839752, 0.6181829606279806], [-0.6207025247733808, 0.4399395441129962, -0.6509744096423653, 0.19546903910906074], [0.23484646259038675, 0.8196395631504935, -0.059361582887470024, 0.9276018313579464], [0.1421258289406673, 1.1071745257544585, -0.4950462097044671, -0.2355622249536266], [-0.5137911444191837, 0.07647498199035827, 0.033728168928736556, 0.4628877513807334], [-0.7997505973758571, -0.5974478855520206, -0.027479063683775583, -0.20278340285853289], [-0.4382055850704965, -0.33908007937700124, -0.35621741213733643, 0.19617989213538076]], [[-0.2608376589619473, -0.10896820892859525, -0.20657312131032746, 0.027176658022944694, -0.07214313843735558, -0.20592429746743451, -0.1359950233575118, 0.0006338374514949366, 0.04694605427427488, 0.264423411455113, -0.07462258358634631, -0.057609175621284626, -0.12946913443069005, -0.03163550902807979, -0.025356296834186068, 0.18926178708103109, 0.05511622709821288, -0.1280972909761252, -0.39154858981267954, 0.3162718316085338, -0.012949556810303657, -0.014712670745821976, 0.3193832840877252, 0.10391948308982353, -0.22025270017041623, -0.19533228858377008, -0.15716501723585954, -0.11056980155488372, 0.04142795046851539, 0.1501842902342676], [0.07025757967497831, -0.030780531630626058, -0.1911066237250888, -0.014087054334230796, 0.09259057562478595, -0.08160050047493585, -0.009413467248351457, -0.13201198421752466, 0.011056976898404876, -0.05246948144415626, 0.11504579793509857, 0.16886973788918067, -0.00936149306977925, -0.18294973977838497, 0.004955743387641185, -0.1674117103370377, -0.1523825558232903, 0.004465685478727958, -0.3085045065170391, -0.2678867108532063, 0.37999522002627584, -0.23125794885810802, -0.03003784145811441, -0.31392424906365, 0.2846594645771308, -0.05918619864251783, -0.0973699185531036, 0.2570677380848103, 0.02709868448029093, -0.11542558997429025], [-0.09191450249229685, -0.05180178992008614, -0.11194827138324018, -0.2830083363681887, 0.16003043987214466, -0.22500581902309538, 0.2583171762837276, 0.0009898890307682554, -0.18738963674894718, -0.1156259954180511, -0.08670819035025572, 0.0686491856778903, -0.3219625488138974, -0.15346758944765887, -0.08588834807783031, 0.23814423123398382, -0.09291361123737235, -0.11008023763914077, -0.19815258956836562, 0.33863727779234765, 0.09600934243671254, -0.21672351247087604, 0.31912608281827215, -0.13048512740477344, -0.2006729221630295, 0.26944027735109577, -0.041756753625355025, 0.17706124956839064, 0.059807339228966354, -0.12435203905431587], [-0.1068763917796476, -0.28456824592566005, 0.24597579292143498, 0.11490993104588958, -0.08967282512008008, 0.1642479696331941, -0.09048915443568095, 0.2611766972453678, -0.13285034224077974, 0.13365346322497446, 0.1420893880491598, -0.28219136798159405, 0.12474606973653558, -0.12288848690134566, -0.01690219061131337, -0.27345511129034866, -0.11915907572336781, 0.17463754066912904, 0.08632936623810747, 0.2181493946921561, 0.045373896905144866, 0.023680775637887255, 0.2034258806976983, -0.07765973908146487, -0.21504179249558567, -0.4298186387883574, -0.13467414690406254, 0.002989757625757955, 0.1463070567193976, -0.0629493630325303], [-0.023799653219886186, -0.1401460718625084, 0.1434576833148673, -0.2247250798204759, -0.2568000023385757, 0.13964600824696888, -0.4567950371948532, 0.07359346811445315, -0.08182741028728673, -0.1997371393567536, 0.01178300205134586, 0.027823769378791233, 0.3572159609014819, -0.1221404528006658, -0.11169878021560165, 0.0702477345095883, -0.05093508887532155, -0.041610150204934956, -0.15060240402358374, 0.16694766928474117, 0.04114050719862455, -0.20327146643472319, 0.1886173311626604, -0.21751482426130045, -0.10872840195590557, 0.18456690220248664, -0.17554387590016948, -0.18764026307667026, 0.07166050052531961, -0.2890938910011929], [0.018056465168555455, -0.1583777249929881, -0.10012180868617013, -0.23657976304155204, -0.16295978711783876, 0.37549009593852545, -0.18857120722080237, -0.031156417199552942, -0.15634290549244673, 0.00808668239959547, -0.09772628424427068, 0.11699916678490961, 0.19946922945434475, -0.38184403297729397, -0.2109827204456773, -0.2248264680042887, -0.04902466352763258, 0.29927363051489686, -0.004594898041698173, -0.19192350385239726, 0.09921877702632667, 0.23585476444116682, 0.4406425920634716, 0.07501835799441597, -0.2710309418352549, 0.1864328854391851, -0.27733310685623874, -0.21557071140103187, 0.19148695892302164, -0.2668901410430843], [0.1442193715688515, -0.15605974255741661, 0.025286010654238793, 0.06826723084726521, -0.019771847988779394, -0.12447726361381416, 0.1728262170091315, 0.13695836816525211, 0.1122128752434484, 0.1169252072751019, 0.10622071022095998, -0.0530776886764817, -0.09536782951488804, -0.25741980327972747, 0.12026606291749839, 0.12912172663184004, -0.04155316074442255, 0.17947958304725387, 0.17138169764478278, -0.11706006006075047, -0.228836447826432, -0.11114204066471313, 0.13448822142981884, -0.12876691335572202, -0.10317071582828705, -0.09284833712444461, -0.17217973570891665, 0.26335968556894396, 0.08667966144838675, 0.1263623342677475], [-0.1893395396101808, 0.13382014240366555, 0.0060530252361161415, -0.007796234329053853, 0.0028954662147007626, 0.14063652587651196, -0.004640184676185702, 0.12296922446785932, 0.03745592923289864, -0.3280494232732731, -0.18899705451207618, -0.0081864476586656, 0.08537430930833087, 0.23081403605446982, -0.29569988060555513, -0.3900085378221584, -0.2922960957239891, -0.12335073532140042, 0.24118758193551218, -0.01190377204146748, 0.21236925323713204, 0.1658922584171903, -0.07880636306596817, 0.17273437004685216, -0.18491419347824697, -0.02735808802489498, -0.00946703119928963, -0.35495177690848617, 0.11895228858141507, -0.18664010920966356], [0.15291407586925398, -0.02060342623563642, 0.3296965127386519, 0.5353642614828706, 0.1510335403381365, 0.07161217921241537, 0.1425682873901791, 0.14628964522658186, 0.22631879377802652, -0.2567266676218703, -0.16341871316915368, 0.007331421691665136, 0.1134129518182793, -0.2712504233536404, -0.04087538554757543, 0.3683416051425429, 0.03765112945028705, -0.19184857554153117, -0.05573825027863264, 0.009663086796370082, -0.30105137602049237, 0.051713035020381125, -0.2806030070039368, -0.1767264792616116, -0.17128865241439983, -0.029377190879302396, 0.5128561637499366, -0.12176487078395436, -0.04886232837155, 0.04562893424018864], [-0.00205923317599565, 0.11454207436921908, 0.258142593374044, 0.1679569611205894, -0.1810299835711733, -0.10995017353043295, -0.061392995733041585, 0.19757329241410726, -0.14719637483396086, 0.2746511884524664, 0.3302530738849991, 0.2569799239594225, -0.32012904120944013, -0.05155174139329146, -0.049775224003405394, 0.2079073619620218, -0.15688336436792144, 0.032197196843024696, 0.2298905258214463, 0.3037655508478652, 0.05786665274994232, 0.13122182917525804, 0.08136592939454415, 0.40102424181441765, 0.2919690000685583, 0.07795656836626516, 0.3040596961338693, 0.1990325626992391, -0.09730083427301313, 0.24395914496468057], [0.048567647711922866, -0.045549063755908156, 0.4082748735012733, -0.11568916164612779, 0.16884732319339898, 0.05371460519600789, 0.03612641931284052, -0.25083956621167747, 0.1127306825023718, -0.04034414150185995, 0.07022562803166296, 0.024746940315266357, -0.07244875894822413, 0.19275343403735937, -0.06316635493939397, 0.09796059272828886, 0.1487174208670323, -0.14849081363091549, 0.27987787882285675, 0.2334148394564696, -0.18411396478212616, 0.15835797193895126, -0.07327099626716212, -0.10682807786468124, -0.06422346000326636, -0.16459675085408518, 0.2559205994457971, -0.20152135591734577, -0.06020101485460082, -0.4234447397060479], [-0.3230758043212052, 0.034396200762756186, 0.044370233450773726, 0.04342779165071101, -0.09830051623322465, 0.17308382918961393, -0.1052579258661719, -0.11068138519718775, -0.16707918408004835, 0.18647885546507822, -0.09608346968597672, 0.26191279951664637, -0.15827772346377328, 0.23573150661251682, 0.1443965843317993, -0.1371755684472282, -0.20754599610136468, -0.089556966564033, -0.36964773034743015, -0.03390570836261568, -0.04602072553272131, 0.4156171619064039, -0.22832646941916615, 0.031279007504007354, -0.2653453557783427, -0.13130510838912288, 0.254990290761364, -0.07015915590454747, -0.391974572071094, -0.12078367167202397], [0.062058728003427384, -0.22088440288108568, 0.013812120106352304, -0.13197022362966065, 0.37913286636983684, 0.03643272175313307, -0.456672910467276, -0.05877529074955654, 0.022191412512919555, 0.4643214725256171, 0.006488896203089849, -0.0845136696015202, -0.05180107519338353, -0.10196558719496586, 0.19505635395539783, 0.015748603275754045, -0.17884644089964252, 0.13565114532910402, -0.22787269737838037, 0.09877387109041824, -0.18173789034464294, -0.031426040929254245, -0.059061773156440345, -0.1781014986454197, -0.5596483330017914, 0.07955610678532254, -0.026038603788778973, 0.1881875475366958, 0.09598720798546462, -0.10942651011235828], [0.4843457554066535, 0.12083231058717722, -0.2603830285520736, -0.037088170518284364, -0.07046050539642278, 0.008029922032214214, 0.14750422377391287, -0.12202494008338885, 0.07474301452602333, 0.14770166203807578, 0.05894515104367098, 0.056917240868559135, 0.1806658001875468, 0.045792760653007594, -0.26543635894043655, 0.029041718444528394, 0.0005262789618314297, 0.24061297880205, 0.2158877294072396, 0.17010915700736207, 0.12406200853825419, -0.03769340947907732, -0.20072739773008727, 0.020702593979909614, 0.077705148944525, -0.12566370451467793, 0.3500984342951683, -0.10695464738050828, 0.025811059780641892, 0.26810682280873793], [0.020959017402366092, 0.06271259573717736, 0.07749386829169518, -0.07923477761830262, -0.0013039791671058992, -0.03048466882749821, 0.15131792538788158, -0.2933771930094476, 0.01920066473772538, 0.032491075574167756, -0.27543140133903043, -0.3204259849767575, -0.0806569390639274, 0.15263848325312027, 0.047183947853830344, 0.00788769547492794, 0.07395355435373457, 0.08035307405850617, 0.03042694458597802, 0.2648862723256223, -0.010381413747940455, 0.29836058646370667, 0.0659751614648277, -0.18372914464605875, -0.007331370703582455, -0.14742601496822794, -0.15620024839807023, 0.09551357956912689, -0.1435773982476383, 0.0361387863245923], [-0.055640534955292295, -0.15846530789946314, -0.17492048271750227, 0.06651435998111531, -0.31176815283282977, -0.11911460534116243, -0.18092726438597653, 0.09057966492995809, 0.3176526865517608, 0.05545671836362096, 0.016112394782060245, 0.043935231185748005, 0.0782867177707118, 0.052106921873521686, -0.1338409047974044, -0.03474187913073241, -0.26558294674584565, -0.02056681662169982, -0.038474262208979496, -0.3413394955437177, -0.08108109064573549, 0.07133370110887148, -0.06979109446468, -0.19147244922355003, -0.01836724721854637, 0.03362056369032707, 0.01056924674752677, 0.1277901448900621, 0.1591846574609935, 0.07933218662421299], [0.2228036201074796, -0.07731172347046643, 0.15356537498486908, -0.19476167926652146, -0.01752427534073459, 0.05614597202242138, 0.07129333986276368, 0.4530182517212955, -0.029882088508440922, 0.13393778676446566, 0.3956890239215044, -0.1549116464215721, -0.018087367928488127, -0.16389891213770688, 0.07508717508719863, -0.0851846289679824, -0.5062920331154368, -0.03045835360655589, -0.02794628564790277, -0.08094373037512508, 0.04934555089465482, -0.32997146158791724, 0.04477041525399134, 0.24292300458467553, -0.11142614003805895, -0.6249281151232026, -0.0912940994888763, -0.07529687157965967, -0.041580152832520555, 0.09208778403478804], [0.22220597965808972, -0.22843674315376006, -0.1848267513061062, 0.13997844222008646, 0.27599620395188107, 0.08585457451274531, 0.1193528314109606, 0.18175589559294492, 0.33733277927080263, 0.021827976171950852, 0.36327951735354413, -0.015279747182598995, 0.03206163733832584, 0.11604339672966607, 0.19994749005266027, 0.13457366395641213, -0.14961105194784874, -0.07340424831437896, -0.10379919231465781, 0.15805038623079917, -0.2040891757580024, 0.06183332386537056, -0.2416942936659261, 0.012509188860235998, 0.1359051209869859, -0.14705568201954097, 0.11052482150611652, 0.035689243221388514, 0.09713442729439781, 0.25091471040993923], [0.1083678902327183, 0.08630455284498958, 0.057827333776907644, 0.048684223339601006, -0.04992556747384398, -0.28248219152556525, 0.1898098559293559, -0.08708914690749625, 0.24342643670618694, -0.16722159720111907, -0.13201309270916736, 0.1211138437457769, -0.2666053457495271, -0.3461678408964123, -0.05921965826197165, 0.15066465927885261, 0.16572964979321814, -0.18745664108293547, 0.08292501443380981, 0.10554977750814237, -0.02569870127361613, -0.150733330871043, -0.024522916912895293, -0.0859335061693296, -0.051096267558479166, -0.3577420165009414, -0.05070283095321244, 0.03324565940873615, 0.12220708644131287, -0.025853599209251583], [0.20462999122151002, -0.18433264078908246, -0.060194119672382695, 0.10764133955277526, 0.011707019103986496, 0.0631941101811777, 0.18694958620259042, -0.300202001020095, -0.022990109217905907, 0.03812126774533801, 0.11132481572070554, -0.1312855999980148, -0.04657644425333152, 0.32267273356815684, 0.06602508724265778, -0.2786062401067691, -0.12450471292855034, -0.026751735764996034, -0.5132895888851119, -0.06736499656344387, 0.07710212882407572, -0.24364946895389444, -0.15948816227052848, -0.017242541299825814, -0.1797333322230021, 0.002729442708849059, -0.28300505761801104, -0.07740019992013368, -0.04651434376594768, -0.26668895950230376]], [[-0.10518604642998518, 0.36845752552279193, 0.30449061270836425, 0.02379014063122346, -0.3712598767105332, -0.3317532682092483, 0.5722051567740387, 0.07397107459746662, 0.10028974628288277, 0.036945437860895915, -0.2559669928870713, 0.14446082653457684, -0.14182369624527771, 0.2657851836705624, -0.3669361346431632, 0.0502637026768373, 0.23089843036059846, 0.15295989725346976, 0.2656972960338419, 0.023035850852943945], [-0.28371615076962714, -0.5600819661039893, 0.2295371791497825, 0.194369250068005, -0.10141062321864903, -0.29003982367471975, 0.6178673989434939, 0.1398242587864236, 0.1630981291074341, 0.566572890146773, -0.08464255226983244, 0.6666191610804327, 0.5371338076647808, 0.34566661266098214, -0.19695788238659637, 0.08896260868675185, 0.4564268688647688, 0.11870034636120388, 0.12917214217316988, 0.2123823574092483], [0.26587612906253294, -0.2749475852261474, -0.028796660402624404, 0.30480523957748307, 0.1365206904680697, -0.13411883193417004, -0.3772238651847093, 0.06173613008694362, -0.09823213982017502, 0.1710185404257912, -0.08956295592454257, 0.25524139154206493, 0.053145694953857625, -0.13323936872062633, 0.2898256219840044, 0.41971526596012426, -0.07181738021943186, 0.2651594365406395, -0.4286702300406201, 0.21691176280472085]]], "biases": [[[1.9321561804621101], [0.086360712899116], [-2.106645748465274], [-0.4492136160151588], [1.8813130451464073], [-1.762306029704614], [0.16470307666456746], [0.8753599503416115], [1.4875153281327012], [-2.4337825106551594], [-0.41029335809417805], [1.5225787022564372], [2.0584243829489015], [0.048354228258716964], [-1.3505797130935104], [0.9065587854686011], [-0.8903851685099596], [0.8193299747515801], [0.36203288523824445], [1.841317476857649], [-0.6473614299569239], [-1.7193821021691686], [-1.0702316922937738], [-0.21050616783123952], [0.11793173062110492], [-0.7647016664931559], [0.1228043416429158], [0.9828859072514123], [-0.07357040598639969], [-0.035748872735020025]], [[-1.0441745333379697], [-0.5255323994529839], [-0.22196627478188646], [0.6428626624624135], [0.8517930133634977], [-1.5987546521305318], [-0.6300830483041848], [1.047445660669742], [0.7693295767162442], [-1.2453164752844368], [-1.6866282520052966], [-0.47853886355944386], [1.230123375052706], [1.0564864641688478], [-0.039105530913116755], [0.1557172675631617], [0.560447905863356], [0.08776650271634061], [-0.1353166599388692], [-0.133461477907022]], [[-0.27700568469243836], [-1.0231270609167047], [0.5014849512178974]]], "cost": "QuadraticCost"}