{"sizes": [4, 30, 3], "weights": [[[-0.28073519112514417, -0.2789659304047826, -0.26472522763148587, 0.6347855019927977], [0.10779950057003324, -0.7025828227244388, 0.788222961423295, 0.03358917441577211], [0.4612502445618284, -0.6384457234797879, -0.34759637751193967, 0.4432939133512202], [0.47496714874436674, -0.4320314980006942, -0.21893289084750492, -0.13454154348251463], [-0.09974488208127326, 0.8129289792636817, 0.2708300150398945, -0.2734460452419279], [-0.30241461207099085, -0.5845715750231835, -0.22003280950740467, 0.23320425396889322], [0.021887855113787855, 0.22065019973440728, 0.2820202157529466, 0.14994583464075995], [0.05836132572131212, -0.1547858395562551, 0.025249219032882454, -0.7563695370259937], [0.4741706950660551, 0.9221556542561182, 0.5487797311814459, 0.6558162180842374], [0.11754318141568579, 1.12832022933278, 0.09265261163443053, -0.3603899236635531], [-0.33817550562295096, 0.09295794728230103, 0.6328559085319342, -0.5861966547660906], [0.287499785898259, 0.32810389034529697, -0.054640520296055345, -0.3130135912469925], [-0.0685613654735254, -1.6540307573076292, -0.34393525677735415, 0.4999510041728949], [0.33797335228606284, -0.4854666283950353, -0.03924755697969609, 1.0119344418102583], [0.5107927943913625, -0.5217051245986758, 0.7659795982144361, -0.13552870040527587], [-0.2260045333935686, 0.05811700272487297, 0.07766884329046195, -0.32323676225307885], [0.6591106688578194, -0.036669807681711866, -0.7138844621458388, -0.3430416367794695], [-0.43095091749850956, -0.5728589313701147, -0.21438852998269853, 0.08698080667753055], [0.6472667479478427, 0.9219191413014454, 0.36585105524707584, 0.33599402271944934], [0.035008280596542866, 0.46223683823491046, -0.5376114988722638, -0.34877292985291525], [0.19097773813925126, 0.9343998534148275, 0.3085155360222961, -0.14300452444358924], [0.2622306888855584, -0.12620357104492844, 0.630418466733355, 0.36908411529922674], [0.6265157240897464, 0.7151180328220017, 0.6359283759711322, 0.5645123294980138], [0.209117391661374, 0.057822949665757475, -0.48962218040268224, -0.6834579864874368], [0.8027101208446659, -0.48094852105817454, -0.8689124884821078, -0.7449128161366364], [0.5466224139192739, -0.2289140468267449, 0.44675270307375103, 0.49442428801995575], [0.6471964511057915, 0.5726944336009416, -0.27151419747140276, -0.7190228241703744], [0.0691851202233933, 0.4234897128707299, -0.15820944376374896, 0.27563740234776785], [-0.6822044898743589, 0.31529414259517735, 0.13380530741693944, 0.4667711405048925], [0.4671509590279264, 0.4907091301790202, 0.29514058827159667, -0.9826998707426171]], [[-0.12146961753522577, -0.02747517008105685, 0.030962041927384915, -0.08620362892024172, 0.01477603452456425, -0.16573875549162992, -0.05000652759030548, -0.4360624437408498, -0.09287299599012021, 0.016245493861160344, -0.0954445910311578, 0.07852048816373276, -0.019242053308825002, 0.2172246412409437, 0.35252167100749515, -0.05068135775316101, 0.19890027500009105, -0.018687348210050813, 0.14869110370643915, 0.4456421693958948, -0.24431505770823442, -0.13256572388429272, -0.06888469728470366, 0.23152587307167247, 0.15517240603946347, 0.11911949281647122, 0.11340508742717292, 0.06620997014512932, -0.04403940623222107, -0.1292965254424357], [0.1061328369156101, 0.008897554450073994, 0.375957167379349, -0.331625086102797, 0.1820444480306328, -0.0318687500996894, 0.10538406751696519, -0.04744278101153979, -0.31701008211478116, -0.14370550261910614, -0.15577078501416994, -0.06393125731953073, 0.2379382833049648, -0.12530970698734958, -0.0020251484500473926, 0.3553313986738823, 0.0777012432271568, 0.1543650029734272, 0.22968466339712934, 0.12908008375072919, -0.11970023997442208, -0.05808522256937036, 0.0233137034365131, 0.27774332456356043, 0.06822836231241788, 0.20313434973658567, 0.1767446982639738, 0.02578276156507404, 0.033319573586863806, -0.18249677977684134], [0.23479313966088639, 0.04476684551952256, -0.15598731553843784, -0.29302539689788437, 0.12412614374298465, 0.1253855915773745, 0.19928500542709093, 0.22779643441057948, 0.2002401907609822, 0.014032489449361488, -0.4292726448713033, 0.276432547518181, 0.10006232062719314, 0.06175541563843846, -0.12417620169240957, 0.05747981547241724, 0.27875169676797407, 0.15640747013694492, 0.08094141621293108, 0.29033995568084503, -0.19545487278436952, -0.39047738993031755, 0.17016879796989648, 0.008970754874475136, 0.013705512653100646, 0.1645034351758616, 0.30775574867602146, -0.31637247108490774, 0.0012397274971060789, -0.25683711833934264]]], "biases": [[[1.365789758915885], [1.9982719012359156], [-1.1941483588109663], [-1.202763661844923], [1.8428301042235147], [-0.002874064212843124], [-0.5929637446317819], [-0.5165354452279625], [1.0179268734254219], [-0.14615082436752205], [-1.3176211415483474], [-0.7007286341806261], [1.6386401410149787], [0.23299352867936166], [1.3828839851048798], [0.6913095301357496], [0.09589657733035646], [1.7729976333192807], [1.9172020801240854], [-0.99240046723728], [-2.214197206076673], [0.668933541706654], [0.636728141363514], [-0.9142044366025582], [-0.08797227088034457], [0.9032160032090074], [-0.05500530268335677], [0.14177057828748174], [-0.7002243759731295], [0.44113697627131965]], [[0.4125347172269406], [-0.11547599329774696], [0.11908727797885899]]], "cost": "QuadraticCost"}