{"sizes": [4, 20, 3], "weights": [[[-0.5698255187168982, 0.826822516681568, 0.3562688979119741, -1.4517771043288006], [-0.2788100891148048, -0.43633078208360393, 0.022303782355226724, 0.1256854722933565], [-0.07098272746621612, -0.041770295011828495, -0.18827842873883316, 0.17861270371404145], [-0.20685118209762585, -0.17141949806302456, 0.05630061416307046, 0.031031724494782184], [-0.0922995178853169, 0.05482827624000522, 0.5688171846343798, -0.8866738316864841], [0.22176503628203367, -0.6677302736496885, -0.3252683349282997, -0.23897892934353568], [0.014345658138448571, -0.2549472833282846, -0.5113978292936566, -0.5553660771655969], [-0.17044887544092568, 0.162552601435273, 0.18844055508394578, -0.10523882468404021], [0.04657467685248758, 0.442025596682115, 0.3407563633431787, -0.06471587493075774], [-0.061940354779445865, -1.0864777120704145, 0.0598463030830053, -0.2776215914475008], [0.040313215241510686, 0.6725376036445357, 0.5247230297735362, 0.43725989227837625], [0.9346824820572455, -0.2886576521978542, -0.5549772492090037, 0.6798475792632688], [0.33735489015832726, 0.11148973157085948, 0.339058404524546, 0.4473041562496519], [0.31476606318129424, 0.5441897792994425, -0.11203113868025233, -0.10356432124643866], [-0.4179095251025962, -0.035907049615120964, -0.4944500698229584, 0.07068941818496309], [-1.0200249286926164, -0.1675351652915134, 1.008538094207291, 0.25920383271501013], [-0.45295904133700415, 0.03276029758876351, -0.5643716642898442, -0.6185499673486518], [1.043903152449952, 0.09966140023057646, 0.3577082912266156, 0.14240667604478355], [0.6094466642493258, -0.06404485878742623, -0.455728150857893, 0.42775605163012803], [-0.6424746941260696, -0.3176671305139534, -0.1206322754741933, -0.19555550141056452]], [[0.35131121998058085, 0.0171700472560699, -0.13051980178658645, 0.16689836381777304, -0.06054122434231111, -0.3328892467747914, 0.003236882739216563, 0.11458986081389706, 0.1630031576907499, -0.06797035168438306, 0.08108258886803248, 0.2957902205228099, -0.14227321029201895, -0.21281788193647547, 0.17964974347712498, -0.1294576377083728, 0.09302242144318273, -0.008824522528127602, 0.003522041400050995, 0.29052913903779637], [-0.14248781317547862, -0.14215626054954658, 0.21606055641700875, 0.07295591870124774, -0.0006470507346240946, -0.11126864767985549, -0.27672862136194365, 0.001788214121710734, -0.11505676141653538, 0.06204429366311653, -0.2685713792804732, -0.34210140736342465, 0.0015243661280402415, -0.39642174808522873, 0.07612004031487414, 0.10295447310410044, -0.42121231744858467, -0.057540782278347524, 0.1821614535379222, -0.1321755705061542], [0.354068060393512, -0.10867791227618805, 0.3597136679638635, -0.1731631525584834, -0.047207214497569636, 0.21166681603674448, 0.06559755368478519, -0.09904179710354774, -0.08266503575085944, -0.21833065769611104, 0.06075277447027717, -0.029908099531555477, -0.37764471835259145, 0.012151484953072264, -0.3532901361353687, -0.37059612579349804, 0.03548626758204761, 0.14729195978063406, 0.20080145059609567, -0.1084860706509536]]], "biases": [[[-0.22879297357747583], [-0.7374903161534444], [2.3542745539968086], [0.38393614144590404], [1.5845506078496001], [0.11945238972463904], [-2.466082231824361], [1.0815048243007523], [1.5824212754745348], [0.7095729464859575], [-1.1839019279524179], [-0.44731456636210537], [-1.2150206405491624], [0.922952286542585], [-1.8278318531089894], [0.5417303248191077], [-0.4482277345035639], [-0.06952137442110605], [-0.24501982827208088], [-1.1277936365520167]], [[0.8529345694673249], [0.14364020042157571], [1.8236700652775282]]], "cost": "QuadraticCost"}