{"sizes": [4, 30, 3], "weights": [[[0.2282621549080876, 0.28136413568753416, -0.20816319278230516, 0.379217694769304], [0.0183109919099934, 0.9995299882768934, -0.14808802137972482, 0.17243090762482785], [0.21705160193656356, -0.0036357680996578355, -1.0716848938356542, 0.2609004613002863], [-0.39535243440302903, -0.14128623928924042, -0.44833422586952215, -0.21984250691533733], [0.5760794931689963, -0.236456340350884, -0.6536542909044794, -0.9434585115040245], [0.5013438281123933, -0.507459087084316, -0.00637831345260771, -0.07570237548876516], [0.6335671277497705, -0.7528863630026578, -0.009357461121847356, 0.401746740440816], [-0.13240477725956806, -0.12887491798866121, -0.17155364909098975, -0.16742161694993846], [-0.4369236813830641, -0.474099028073932, -0.6858743927088518, -0.040475441210109535], [-0.35840546172927573, 0.4620852843095742, 0.7661135752787755, 0.9978184909311084], [-0.03035937750621468, -0.23830659701591542, -0.33202232612311605, 0.05579477439320044], [0.3872078487549334, -0.8597066174342098, 0.9213018471983483, 0.08578362790402062], [1.3446670545455661, -0.012584816493622414, -0.37917781384484256, 0.3302126754031263], [-0.1330647706286018, 0.07464086007728697, -0.2488620489092417, -1.6723755659088875], [-0.11987692185144663, 0.1063517317827284, 0.09413969899284658, 1.3407032204587972], [-0.727390448894316, 0.4532375958847484, 0.48988103007027006, 0.16771903612005054], [-0.8701889945622001, -0.41404538826112064, 0.35592522624597134, 0.17099078564381076], [-0.3219806061310352, -0.4950251635455844, 0.21441715668489433, -0.151034150310495], [-0.242252974081234, 0.10982786772219585, 0.05404419318506052, 0.643317053680752], [-0.6115317019931574, 0.4882199615727041, 1.668189312033622, -0.0734605273845909], [-0.16463393076517036, 0.0638765835461807, -0.24177714567998163, -0.5003080245246024], [-0.6065850119260979, -0.33522113652786173, -0.12131083210288189, -0.04823059725072619], [-0.5268653980161441, -0.10544457901062752, -0.20003223472898263, 0.4840213311964416], [0.03304971464328245, -0.032439356702226016, -0.4077123549984649, 0.02014198212302953], [0.4064843202022966, 0.41136150201853905, -0.505892343821346, 1.058502241678674], [-0.9795247045023013, 0.2038281264928354, -0.3731062174561091, 0.16507364054038184], [1.0484869379956474, -0.535266360931249, 0.04565238550439968, 0.4461569065899551], [0.6132275425519476, -0.5345715491989778, 0.025712613912418424, -0.9675799955189548], [-0.53224540783951, -0.22435901297617553, -1.2879502213589729, 0.30350747208739154], [-0.34051362539474817, 0.19784213146638963, -0.277133322121561, -0.4723076262337096]], [[-0.15849343436243918, 0.12142371982000844, 0.3696335220713763, -0.19046354927072032, -0.030286476898334958, -0.23172933063809398, -0.17472663314474207, -0.09982359560304356, -0.03229195930838468, 0.16840072431694666, -0.5786082463155123, 0.20579794294779397, -0.22146028441147853, -0.1671493569289695, 0.021143156114432078, -0.06327603348639436, 0.15635433213695718, 0.13824610369337706, -0.4496642807243907, 0.15351878637066033, 0.20737130083720917, -0.09022461531813414, 0.19571610065325196, 0.19407036480736037, -0.36966174127341855, -0.06067244734485886, 0.3223924330860341, -0.1104673436812242, 0.055707392018379744, -0.2112774200109949], [0.02611886161428944, 0.26739907808173363, -0.31889351075555916, -0.05762831536832973, 0.06126703724864273, -0.2775877942094098, -0.15899164724468856, -0.22010727399949087, 0.07730723825793291, -0.2625098436766375, 0.0015286712545972757, -0.0055252345451237425, -0.03233235976928183, 0.25326228114219285, 0.1333560687185408, 0.18546882771036904, -0.20270832081219375, 0.15006315674334447, 0.033552790045825356, -0.26042861362330405, 0.16375609892461554, -0.09333876302513618, 0.16157217988616457, -0.4884189173152529, 0.041373277295344686, 0.14298373376659368, 0.025069801732333325, -0.11613004784254105, 0.10037947100285878, -0.30785120585287834], [0.22419025715587385, -0.23000386412653118, -0.3248401141562826, -0.2876178748292711, -0.3285520784145164, -0.14896622340145743, 0.15674955917942526, 0.10690664235059344, 0.17866660367634798, -0.061155447493681514, 0.25515879147673287, 0.09090625735255178, -0.1962665171879787, -0.25399677636034323, 0.20804412683565826, -0.11771393900040412, -0.2114928006754374, -0.10808707316343062, -0.243026502773831, -0.1244693771561624, -0.08672331246967939, 0.33660682669552694, 0.1123851740619811, -0.05340139953012047, 0.011773545794902696, 0.4074561354489065, -0.07871586347302337, -0.2885046042182957, 0.22776450404333273, 0.08632062988705384]]], "biases": [[[0.6419670114504045], [-0.0903072569190349], [0.01603872695147357], [-0.3986573219365793], [-1.512037397641361], [-0.8440601431749812], [-1.1761350253292868], [0.8915915104670293], [0.6991856884633445], [-0.30373333402400327], [0.41885285897002167], [1.9302079418797125], [-0.17425718487766714], [-1.3988683525468144], [-0.9644298053691153], [1.1666703458254168], [-0.7422863407553629], [-0.589066472058883], [0.4935679141878094], [-0.2648664902274121], [0.6214574607226656], [-0.9257252141115206], [2.454320378789901], [-0.24687465093310226], [-0.20896715704854477], [0.7561864445433742], [-0.6799510064647772], [-1.7065157265229867], [0.026326064671660713], [-0.9536977881794334]], [[0.953439609577186], [1.1456862748846999], [0.6557910921734652]]], "cost": "QuadraticCost"}