{"sizes": [4, 20, 3], "weights": [[[-0.14176954399026012, 0.32011413628507474, 0.03824255313316033, -0.40776589637452576], [0.9729587675415675, 0.23483889881477038, -0.3175042602883856, -0.14913945867073944], [-0.6448177273638498, -0.3611032155516025, -0.4905239079663656, 0.4059761852417525], [-0.3575309307550572, -0.07811258291112795, -0.7558103588493287, 0.6166139995208942], [1.0834677189072814, 0.3273702879298777, -0.1473282928771889, -1.0833540399116457], [-0.4429855635245021, -0.043659069846646775, -0.8160708314425908, -0.6705895716623803], [-0.4068474149950345, -0.46259805091933837, -0.6291715433081898, 0.06815364909425276], [0.3125145829522109, 0.29494219526586773, -0.22835281983974448, 0.6509668062925518], [-0.5865359066864073, 0.4398265751074216, -0.257409771991853, 0.389607832201329], [1.2948769777503568, 0.10332541535564026, -0.0963973420914407, -0.21037117636885524], [-0.13623484657293994, -0.13388705647823707, -0.8478872419909215, 0.21646779557133827], [0.37470771578605705, -0.2727549824127763, -0.5798866225522178, -0.07423876373736808], [-0.0906788952221657, -0.43727636650487, -0.5302584870048923, -0.0859508103525433], [0.13730571849563508, 1.27966560930088, 0.21632162650420786, -0.1426702657691684], [0.6462928653721528, -0.2953237300707575, 0.11163988781981705, -0.6175646929532502], [-0.025734592931225903, -0.06074263481006968, 0.4394980649123397, -0.7640150405849754], [0.08958634435303642, 0.05610518107357512, -0.29601053589746157, -0.015382119019512695], [0.14389024361914535, -0.31119558208760734, -0.33317411632857524, 0.43750219588395045], [-0.6643033491999971, 0.5132731469841814, -0.3065740540337842, 0.4744026743692348], [0.32737480290560556, 0.42304463609481896, 0.7061745441106922, -1.022740462262557]], [[0.1508519660627442, -0.376035886251328, 0.01581787242583249, -0.3736403040329923, 0.06447352179775878, -0.09592955278365603, -0.42767540057046033, 0.017009687203839528, 0.17088686448275464, -0.19049313191049894, -0.3401314900890767, 0.06270710950095307, 0.06279027093867143, -0.2559869675427041, -0.05839401305338584, -0.1520715467134647, -0.25214343827636, -0.07356094212451626, 0.17305642110933586, 0.1049787219198692], [-0.07604303502969317, -0.09346402298138659, -0.16963505320240965, 0.35684458941704883, 0.3370187853205407, 0.27459955620041365, -0.14957268821325392, -0.264714440236623, 0.08157679414133308, -0.30635049634908645, 0.5773177903741503, -0.18214596770364944, 0.09612152767750914, -0.23871015885771618, 0.23745954254107807, 0.014926462474015068, -0.047644684905749475, 0.1387279528168934, -0.1382235090145601, 0.11453766974183971], [-0.48674848133739873, -0.13651678644314807, -0.07632689831284183, 0.38902269195970207, -0.2820987184053615, -0.30211670648335837, -0.14550890342627676, 0.08367610644531909, -0.1434755943743553, -0.02522954007435748, -0.036774701617220615, 0.16182775619100867, 0.16192245896364016, 0.2638380213904758, 0.1619074344720181, 0.0024000755936297493, -0.4126548980271323, 0.24689767521818462, 0.24880320724741417, 0.1639634495294791]]], "biases": [[[-0.28550479669592854], [-0.06825028970207879], [-0.5693822367113737], [0.5088430778156643], [-1.0945991412054923], [1.3488361097371395], [0.3376091412256349], [0.3566451631086205], [-0.8038525858626684], [-1.1279359113193048], [-1.2814242042170387], [-1.585353217565874], [-0.6190490715019329], [-1.6333596004110598], [0.460260523282538], [-0.8551307906113597], [-0.9065002589305508], [-0.610631185709093], [1.0341441063005894], [-0.538435512486378]], [[1.0348109781699035], [0.9039364817137566], [0.21245930015694572]]], "cost": "QuadraticCost"}