{"sizes": [4, 30, 3], "weights": [[[0.5761103211259289, -0.21652435943630083, 0.5380814945573299, 0.516206391816932], [-0.17089426480547493, -0.12456485680893484, -0.7652676670063181, 0.04155012380582026], [0.22949329003796576, -0.36361979525312865, -0.3044843658117801, 0.0923424872842447], [1.5840798732093062, 0.501025299058085, -0.18248644882688952, 0.17642742809943893], [0.42298684637325473, 0.2061600661655894, -0.28514127092666686, -0.27453156538226414], [-0.8685135640545155, 0.589155372426308, -0.21922302474769897, -0.36099901015149766], [0.7118334982242391, -0.04296069012725812, -0.1807468883526745, 0.4516183802695517], [-0.5374892590442252, -0.3116388904063022, -0.5798196916407194, 0.22418452256464855], [0.2494144616996161, -1.0048904988945542, 0.05197389829806142, -0.29447491437163387], [0.6202223127438224, -0.2730346643173034, 0.12789135073350955, -1.179282048737901], [0.06363015990180443, -0.5075838765051811, 0.376457155892448, -0.07981558961600434], [0.6649513167641219, -0.24147675836731278, 0.7122216709037307, 0.3062758572852928], [-1.0250029292264191, 0.12966687742786265, 0.695848048667689, -0.7754607313262667], [0.13026734253182137, 0.6581641702372797, 0.5627120560642489, -0.5549074756257917], [-0.3560316453402014, 0.12839609132841912, -0.42659800670012016, -0.11330968888879994], [0.7635428044006096, -0.8568160082561345, 0.47526397713162877, -0.24699678499366284], [0.9364978830036148, -0.37345551995298126, 0.042850475370009806, -0.3886388633275921], [0.27806520539827106, -0.8253252704241517, -0.740666267982291, 0.08790166479884147], [0.6823478089000129, 1.540559365237602, 0.024287927070879144, -0.4539005835001498], [-1.2536053718568314, 0.09511842858745495, -0.3255507378710368, -0.322983962632481], [-0.07693979177088357, -0.05734046846546314, -0.22631821947435227, 0.38090112279095295], [-0.6690425869446716, 0.008851854926724917, 0.12512274471622428, 0.8305945946673224], [-0.1859087288958173, 0.015180341685712345, -0.12752558061635866, 0.3287404745417555], [0.3745184893595299, 1.439704645033519, 0.1401077962854244, 0.5809254039229258], [0.4519060818104902, -0.49347648906152164, -0.2048260251345308, 0.9377788437124012], [-1.1872773400884635, -0.2078924620518884, -0.15509457532586096, -0.049895144210698655], [0.13020556420651008, 0.5526558249398656, 0.04570121174991521, 0.07775045275354832], [-0.005783541679884598, 0.0623942512493376, 0.7790078719226299, 0.11004937559595214], [-0.8088937519564866, 0.17178319683163654, 0.7395049571900422, 0.15545058119960223], [-0.2969479472655659, -0.3591838386863282, -0.2683723369621102, -0.057821983340379]], [[-0.01252720480847682, 0.1288400196888696, -0.120860983238318, 0.1115181614158443, 0.04725774020284708, -0.08537571557734908, -0.001691763610594643, -0.034163143628616936, -0.1785950848914797, -0.094865171329287, 0.20993623547880388, -0.26424725807926114, 0.379916540417812, -0.25926830320072236, 0.33686642866348937, 0.25923181156117475, -0.1722317592500939, 0.1672464077246686, 0.11061509730222258, 0.11652983607630715, 0.21069253077024944, 0.00048706625821289337, 0.01445071369477171, 0.14497355857917257, 0.11968249337858108, 0.04113954374799011, 0.19713381040566877, 0.12585325143565632, 0.028690305316618245, 0.09312381109632835], [0.08319330448634142, 0.00010970605391154195, -0.3263819115825202, -0.19689410663154908, 0.1832206334544836, -0.3245598051163497, -0.21886004224150932, 0.2541079832802744, -0.09230322861619991, 0.06504800696911445, -0.33942238052549784, -0.14570396736327226, -0.24060658283723207, 0.07692216400497505, -0.057073078699061516, -0.004197783798527813, -0.08143104695359119, 0.1782495817440355, 0.009199968456379734, 0.03513698462686881, 0.01747720670923614, 0.2235420027317625, 0.04907161635389856, 0.3073211234146417, -0.1882223941175819, -0.06588600068876264, -0.038835213653057726, -0.19518443563690027, -0.0902147921667801, 0.015515895321244436], [-0.23720992965832494, -0.03946149714764395, -0.07412717040861211, -0.018620536284860212, -0.05760029616841639, -0.2346523416839152, -0.20926227000871625, 0.22359698842245102, -0.03823876599182796, -0.061687113355634496, -0.02319734927764694, 0.01980090358187407, -0.032096024387129385, 0.192730717264707, -0.22562164841744928, -0.1051817533687603, -0.15846165430908474, 0.15542553698237102, 0.11998281780159029, 0.13538454324458937, 0.08873047039374514, -0.29473208085686375, -0.05478263468973405, -0.33019227610132806, -0.10961258706908701, 0.031096916848719024, 0.23332944173000666, -0.009880855932634477, -0.10197186048726799, 0.060890087570238]]], "biases": [[[-1.6945163270213817], [-0.19306655619096472], [1.421522394805217], [-1.9189616246333583], [0.24065577945317515], [0.2403027861661191], [-0.889804771011149], [-0.7795578443795085], [-0.6681223039808949], [0.10591795398496613], [0.11399029431771915], [0.11542161094561244], [0.9206947393442261], [-0.9971963980309855], [-1.4306398889316803], [0.8118609167906493], [0.18086736091227967], [-1.8800511082821119], [-0.12448668465027754], [-0.5324609594420033], [-0.6203950340359575], [-0.9430990125854196], [-0.6664172043193712], [0.24133000408475494], [0.8168592562062772], [-0.8034993795296462], [0.8831119836886059], [0.6203550000707508], [-0.3274162693061416], [-1.0810965849490284]], [[-0.13339008511455122], [1.5126104449597866], [1.849408509539771]]], "cost": "QuadraticCost"}