{"sizes": [4, 30, 3], "weights": [[[0.4018856027918233, -0.29281808393860265, 0.0923696845301404, 0.0725875926517284], [0.13832711245828846, 0.5281782312566677, 0.24688691358002027, -1.102671872176276], [-0.21211684666401992, -0.004922265392216497, 0.04568789655812617, 0.11854534332606104], [0.22480704628278544, -0.23809183382372678, -0.7538118752496757, 0.5822887199199351], [0.28985398496060616, 0.49543968543848105, -0.23315143667317842, 1.0358706961187285], [-0.009220930484239553, 0.6523470767104113, 0.6547188936750371, 0.5523069490512468], [-0.03313601910146069, 1.0826912652498515, 0.8204370599339199, -0.3758314750822799], [-0.234254583391318, 0.33902880906172256, 1.3325567931378912, 0.7331459566196578], [-0.27148889713429547, -1.1173470085965795, -0.8118452373528757, -0.4356702338524873], [0.7556844424234037, -0.1493872446541362, -0.16474378747119342, 0.11563791089445358], [0.2982643135205425, -0.17891292718056004, -0.7742840588688306, -1.6448455346960955], [-0.3592422209752198, -0.9764436076127929, 0.5664478374357115, -0.10622139647473022], [0.3173388376287348, 0.3271104634293187, 0.15752641031599876, -0.7311436560120521], [-0.38179894428397293, -0.7195761199130729, 0.3021516785823152, -0.3889843397550399], [0.0760227766463924, -0.5949957413651655, -0.5567902408342296, -0.10883593377636709], [-0.1741321174626791, 0.10668178593323413, -0.16852139770832714, 0.23200056941406724], [-0.007793988519791721, 0.6190681894454816, -0.5298365908256212, -0.9052702330055683], [-0.16413676249090595, 0.5273807247191619, -0.8277756468302875, 0.14640905120138284], [0.4501122361929261, -0.2961635422985216, 0.4027454253777527, 0.22268180730630774], [-0.13851568422692467, 0.1480544915939336, -0.6088695297062655, 0.019182426914817693], [0.18146164832795603, 0.0320835308892043, -0.21819763160820543, 1.2984000490846308], [-0.3081743937997451, 0.20346804952459172, 0.17779441622777967, 0.8599705461697815], [-0.11069284991956369, 0.5482135480969149, -0.24349597758806668, 0.1635183824228613], [-0.780298970120292, 0.5706800527766923, 0.8477164321197737, 0.42372309726479296], [-0.38030004319697425, -0.33903854556968455, 0.08827389476086388, -0.05267079269760501], [0.1935209320121726, -0.027823188999248905, -0.4751058884112696, 0.26169434767313626], [0.10263668250358837, -0.11892111111514836, 0.09991497384926215, 0.5638980591513975], [0.7006096213814575, -0.7409347299143775, 0.16347403403450145, -0.3800314749112115], [-0.5192128216811724, -0.48873161640870244, 0.12537955586652785, -0.2649972168580514], [-0.3860934502123699, -0.5463608222446281, 0.09656709013504558, -0.46658256165632217]], [[-0.016936186588188837, -0.09649769726280617, 0.04566394904660771, 0.12238508338401981, 0.37983773752197186, -0.11629065049752026, -0.09755298303528366, 0.3374515261354901, 0.14375460768295584, -0.2733157326177709, 0.2123567593895032, 0.32093643173306785, 0.06618274712819039, 0.0693287666999828, -0.44677605857689273, -0.06399865114728841, 0.20558242012773956, 0.39551703703708485, 0.28668896368971863, -0.05055953900013044, 0.25764947184120035, 0.0979056723678975, -0.09419173749986028, -0.248119739154937, -0.24095084091425506, -0.3952647655687617, -0.09496649341841541, 0.14433670183004263, -0.15530074999538782, 0.15016705581823578], [0.16031473589752315, -0.21016454441479707, 0.17637936310495125, -0.0713701333150591, 0.12908685773659753, 0.08319976792061191, -0.3316624506248167, -0.0592718038143388, 0.01870861322047536, -0.13235750273340138, 0.07284922989186163, 0.010565224814121796, -0.1647619054323833, -0.09470337582948089, -0.3246494842699116, -0.10594580891520208, 0.047687621321727894, -0.07652756197977548, 0.2469967539143248, -0.2427708884832017, 0.3498190322997865, 0.20236769545901798, 0.08562555209574385, 0.010812145444308668, 0.14910616957733833, -0.3877271376889199, -0.326584309679204, -0.001434523407660867, -0.0031202110595214, 0.19437648308778951], [0.1280662879485522, 0.09678254919221155, 0.1297712831756567, -0.11705098578964428, -0.13697131815904734, 0.20628305581345013, 0.2686487922333656, -0.1872134133032108, -0.09559364778353235, -0.05876117607820276, 0.06921548834247232, -0.1878045767283489, -0.003310201085115027, -0.08845950391684601, -0.24556271333646035, 0.043229624852349054, -0.20357258128454248, -0.10062192215750602, -0.13887578174812515, 0.24431379490080188, -0.1889273348565274, 0.09064067394197522, -0.22750053326884395, 0.16545110577714878, 0.10316036672494984, 0.025503429431350588, -0.029611768371004606, 0.08465939985743051, -0.009085311234575877, -0.30386154695018147]]], "biases": [[[-0.3798755718378782], [-1.8683182222871904], [0.4526687446236612], [-1.5207870253060096], [0.6727922926038199], [1.466280597552439], [-1.328763474006089], [0.5482068585768661], [-0.7825310622124594], [-0.07288249560698801], [-0.5515908805599826], [0.03996875091690953], [-0.41518232964922275], [-0.9316208739395961], [-1.1088696141788283], [0.6886043724661123], [0.16243149172143354], [0.7214040722541126], [-1.1823589107054768], [1.1051653436118343], [0.31676742674941083], [1.2812560559387562], [2.4960046323060237], [0.24632506766095813], [0.5862287651971446], [-0.917821030443745], [0.7514676120049267], [-1.5597958913558838], [1.394612837010205], [0.04785844631404195]], [[0.035874095740778565], [0.40237511558480377], [1.065109627047749]]], "cost": "QuadraticCost"}