{"sizes": [4, 30, 3], "weights": [[[0.02800327881988488, -0.21476609243796138, 0.6439786976480975, 0.021967719840540655], [-0.39880750962105227, -0.1180863288661416, 0.20748833843576522, -0.6848699714593246], [0.39542000504627556, 0.704321265068657, -0.740596497063511, 0.07725235686656588], [0.21810780183495423, 0.22317625479692832, -0.2035955598854866, 0.4381347250681194], [-0.2778329743826516, 0.5673972801536211, 0.2516824604603096, -0.8632377847018368], [-0.7172809732278821, -0.20756548796795588, -0.2826220908861262, 0.3205079476918739], [-0.47178352067011664, 0.699560508929614, -0.2942961444607208, 0.15619087793982303], [-0.564604415209951, 0.6338632022162428, 1.0593963036665446, 0.7085081320989244], [0.1626570272096319, 0.6325817007382772, -0.30176366861233894, 0.13910466969983765], [0.2780956079504735, 0.24419869053363336, 0.4302261124996698, -0.4651112994140993], [0.9573539352565709, -0.5247057354438963, -0.13176594742699058, -0.7999499626582104], [-0.4143038726224682, -0.11243965517201532, 0.2711211257717902, 0.5296340250594901], [-1.5119381105222316, -0.15814493547435832, -0.7520163347668049, -0.14890158618469382], [0.6048663701281723, -0.680302536024182, 0.35028356818833395, 0.09550568510992045], [0.2561922195709033, 0.1692699774780992, 0.40615522601729115, -0.15962320388440962], [0.4973930494049113, 0.4286045780344438, -0.7910291374444922, -0.6218643163896308], [-0.3403519840048481, 1.0174661335466018, -0.6447022575192591, 0.4107256916791362], [0.021556613858956266, 0.2679399992666523, 0.20093440636940854, -0.42927890936602175], [0.1080655765473503, 0.2535359214455797, 0.6847728013167557, -0.5663329343035036], [-0.13578996954377368, -0.06161728020203377, 0.4637907985937047, -0.462109234152782], [-0.9612636759525692, 0.40433311747651113, 0.3003854474106218, -0.5063420120361466], [-0.3510523489461446, -0.5028812866518773, -0.22417341513473976, 0.5238989650327707], [-0.3752189319063709, 0.4475275214663475, 0.17732932458974562, 0.11570971663046212], [-0.15814062468622972, -0.09155099570765057, -0.23136242192847992, 0.27517114824319383], [-0.6700163004215113, 0.5960938534517543, -0.11553468544742257, 0.040472777290824685], [0.3607195537725094, 0.031084539376743926, -0.6248267678692286, -0.06606319325581878], [0.2661329333080379, 0.054180058878363024, -0.9019262303202235, 0.29578270908192184], [-0.08605984233626773, -0.27078073744058345, -0.2304585081790655, 0.11552125647295738], [0.6976573940819281, 0.01550882925298295, -0.8275473440888039, 0.39720331752052584], [-0.07491763502589939, 0.5507293518684232, 0.3173697740071116, 1.0486527624155126]], [[-0.2780615643458014, 0.014121034079320971, 0.0009107025500048671, -0.2871562283905904, -0.21305514427900699, 0.2662301803342965, -0.025069161812202312, 0.28452725165499837, 0.19261499526020834, 0.03383044366741823, 0.4630323948505071, 0.24184544335204333, -0.0539105215759287, -0.23379945395709548, 0.014015249315725087, 0.12673334094901717, -0.038727435993981416, -0.07483864280403209, 0.003446928215742403, 0.3048476888195141, -0.1385971645815956, 0.39213234123732216, 0.08521079708129964, -0.1500899408860721, 0.19241038808931704, -0.11889378173338172, -0.06486694916797542, 0.035130320038676124, -0.15978104239932014, 0.18492370120091042], [-0.16102366447245825, 0.19242805435297322, 0.11151687211095754, 0.27741402574692486, -0.009030607321330665, -0.11295984193388361, 0.25838497837333135, 0.18705630283395128, 0.23059360546497268, 0.06224483841676046, 0.06909788403780026, 0.12999541244025528, -0.2501152681379944, 0.11752744143964328, 0.09314960091064262, -0.2284689633388919, 0.04968625715441395, -0.12345068619634676, -0.17458433036710655, 0.38057025832077535, -0.1606257689462396, 0.3126877962091158, 0.7474736441576146, 0.007946451867880825, 0.0007438925258332282, -0.13386338453999974, 0.03259991210940463, 0.1337550048971394, 0.1935895719901245, 0.4873747314597706], [0.176965270782354, -0.011840223327519233, -0.2238975269296966, -0.2782553549240166, -0.08546837671452472, 0.2135585259131318, -0.05537834331330984, 0.08063710523538589, 0.17027099415715866, -0.35452055659425935, -0.18238537042844064, 0.21033541376338513, 0.32006227435890955, 0.3125211305503991, 0.20207077972603288, 0.07712704152223915, -0.12004965028076997, 0.3448138335410617, 0.009443543937951169, -0.13575610767933186, -0.04092118937508257, -0.16355270280564788, 0.00594520222629741, 0.07184631747365067, -0.039647402881339826, -0.19721696524111476, 0.3383389990757451, 0.0858338689680693, 0.009650100809829311, -0.0008578749927945134]]], "biases": [[[-0.33199694384090594], [-0.2739396446821376], [-0.09397718723018225], [0.6472284291390068], [-0.8709002050843306], [-0.1819865970356596], [1.4579459689553202], [0.744340577828564], [0.23056827503566213], [0.17505858260446103], [-0.42874340917928144], [0.6722809845575847], [1.2906929233785724], [0.7891680114190817], [1.0530397574858503], [0.17304120727941283], [-0.4988862874019587], [-0.6311868149472395], [-0.9578818647270371], [0.735374808505401], [1.0904570908909703], [0.10058229422204595], [0.14440516653637805], [0.9812108112184187], [-1.3651008988510365], [-0.5985627503967629], [1.3635772083028], [0.19135608315295544], [-0.7991525895159189], [0.808563841167262]], [[0.04194752391465589], [-1.5842110700619034], [-0.08339516910525673]]], "cost": "QuadraticCost"}