{"sizes": [4, 30, 3], "weights": [[[-0.12761807269954217, -0.41366204394306477, -0.5344526987398076, -0.7337205507399343], [0.6361355262481689, 0.5871002049435826, 0.2931240409063892, -0.8667122754825941], [-0.20656244007998834, -0.09678942363745083, 0.49468467848151076, 0.5395816253536291], [0.25167373031670903, 0.9731597224480474, 0.7861875477129672, -0.24874965913626806], [0.49909966633242664, 0.4064637185674008, 0.7929578996548421, -1.265469377737432], [0.014120654694023908, 0.20207236588539157, 0.32555911076557076, 0.8735711248879474], [0.03213271920623062, -0.4243099592562824, -0.4526318650699694, -0.5332165369795353], [-0.03385428369700045, 0.9129182737594894, -0.3610837753057101, -0.15495759201223927], [-0.4395349010265083, -0.03202236851650738, 0.3612779806688937, -0.1446216009317362], [0.07418484214823348, 0.7127466589294429, 0.17547234783416246, 1.0314150891452767], [0.04133115633498471, -0.1056319173965976, -0.17237588207865495, -0.1542877701023218], [-0.32563289427819964, -0.23329373706837367, 0.7530797208988135, 0.9587779818898754], [0.2968844349058651, 0.34534891838530574, 0.5358606105542524, -0.4271946166268095], [-0.04941205298956863, -0.6639803412261482, 0.42228956552687225, 0.8785703561553088], [-0.5162508005275896, -0.06606846471152461, 0.16939196943310708, 0.15351176743631267], [0.19154303519031624, -0.8141541617860214, 0.08628874329599791, -0.17700878774360398], [-0.019913153532904806, 0.005970520067962153, -0.06412573254749825, -0.8355937972366185], [0.19590275720717296, 0.41868789058984096, -0.008269556325788789, -0.6860612087674939], [-1.082121106024937, 1.0826062245942625, -0.16818617077214085, 0.34208738101984865], [-0.18893612039515903, -1.073347804628452, 0.6054352972686494, -0.522461078262827], [0.14805547271213962, -0.18913736154877328, -0.5363056380364405, 0.013221488903139785], [0.4960850795640081, 0.2026266512994666, 1.0736222048660589, 0.6900557511278291], [-0.09012473996272677, -0.18128485241453732, 0.4929177924267055, -0.38147246543405183], [0.0651009359302322, -0.56368270045463, 0.6725360710592775, -0.2680159453530438], [-0.25615280499584014, -0.8283310442615353, 0.6031058032515123, -0.273565805773769], [0.3385515137594729, -0.42756287258444314, 0.38780121179219396, -0.05210985961214975], [-0.1919073682462343, -0.35626011816798775, -0.15672775427574898, -0.31781559656503655], [0.5811117193031198, -1.108162750879023, -0.6220967959855896, 0.8132726205818361], [-0.7051296877731819, 0.3898302969897379, 0.14975886899087384, -0.06315865258342378], [0.29343800954811944, 1.1745897466985198, 0.2470132108294868, 0.5121165678688449]], [[-0.22353085881257398, -0.3875347913689767, 0.1656921504380373, 0.2822459398974686, -0.1406926175727364, -0.10227041354627954, 0.03439791043475222, 0.021985909187901588, -0.18303451402310497, -0.24277382788678536, 0.021406774205395995, 0.07539747862937525, -0.027063080561351028, -0.10360451575440903, -0.11619780000077277, 0.08056268874377644, 0.08374175371574508, 0.027262801740640913, 0.03759580874939161, 0.11880771661651691, -0.021809489911000898, -0.00945546535554977, 0.1891826077523653, 0.035540456064477526, -0.05545569420965122, 0.06603885739233632, 0.27169268705459565, 0.08993313918819593, -0.06726003525111468, 0.05599439690221277], [-0.1563061118482611, -0.0722225456219524, 0.22052131337424558, 0.025124216375358097, -0.12989388033916055, 0.45449396627828054, 0.34974849062412106, 0.14976239139982256, -0.10314157980786262, 0.01797929980109997, 0.07341816362620476, 0.18967894735731944, 0.08730205819372833, 0.5465798388890303, -0.0747081541452517, 0.0729461327273043, -0.15286537963338673, 0.06623042780290253, -0.1240614896688107, -0.24980061524160246, 0.14343345264524116, 0.11980058393983938, 0.0017742449737137426, 0.24299010546075453, 0.08788603851785402, -0.00917795688867152, 0.10216732044129219, -0.024498764168115843, 0.013294214649797947, 0.35485321984326823], [0.005890014649028228, 0.06447393848688994, -0.08734138887517791, 0.39781733944068703, 0.11936933787030844, 0.11262951226141789, 0.2381035734450802, 0.14977467769789396, 0.04190249130826073, 0.1374617868617823, 0.2829933569300464, 0.15975544749328638, -0.11376395056881457, 0.024252370907639566, -0.18610419687233476, 0.26763196842546044, 0.07506551832611728, -0.4561676796356121, 0.16105228713588765, 0.31268468474959327, 0.013309417715308051, -0.24870396772534306, -0.14044681915532822, 0.15437926896490975, 0.09317625016579878, 0.05874645603357555, -0.3249695827422997, 0.04955559727303707, 0.06637510769578185, 0.08524947066691586]]], "biases": [[[-0.940581905135927], [-1.2484165710333417], [0.4630099712004604], [0.1530771581308655], [0.5433431785952292], [-0.9487599853202029], [1.1816695839953497], [-0.9163047239221538], [-0.09380630674816136], [-0.18710985116934542], [0.8558965196867878], [-1.7602598427477176], [-0.06679017119088604], [-2.154681746457477], [-0.38003154337994055], [1.076718194244983], [0.4578375264578027], [-1.0405414174649001], [-0.623719264029023], [0.39100161728614247], [1.3969507457368269], [-0.6318369109873578], [0.24357212863048616], [0.650792016010647], [-1.2072170710111154], [0.22562087261030908], [0.9102041335365165], [0.3813139003172538], [-0.9110977378542587], [-0.5168963813676218]], [[0.3659689400699601], [-1.1828370316893637], [-0.15438371146290297]]], "cost": "QuadraticCost"}