{"sizes": [4, 30, 20, 3], "weights": [[[0.07911278060113698, -0.12726552078715694, -0.4310928437437704, -0.23733474428448026], [0.10599858653738611, 0.18140646791540035, -0.42042916114900386, 0.7024116012583869], [-0.15646367591038066, 1.0268996869132512, 0.0237131777468281, 0.06547972138793397], [-0.7697580841755596, 0.6758733864036292, 0.09345707689750564, -0.6454544878628055], [-0.23215773274904805, 0.37310356926679944, 0.06652074071519178, -0.44013896526412927], [0.25852696395209973, -0.2418133262445011, -0.27353293701650055, -0.37933687731100774], [-0.09080714658427182, 0.4190871326826785, 0.6074040538321229, -0.047695629738456924], [-0.3132533129993054, -0.5539462041906709, 0.7348351041949123, 0.44078052802156853], [0.031228201317217326, -0.034872397950956424, -0.030952219118216835, 0.4837485480636846], [0.1437384574316491, -0.17788502866079203, -0.13251145814959678, -0.36831068176135456], [-1.0008263350088344, 0.06513828383303313, 0.7994718619334404, -0.2973586574205675], [-0.24347741552496166, 0.17198414083264318, 0.5055249394638435, -0.06708224116504571], [-0.09249562441425109, -0.8135688634343332, 0.38695034061783656, 0.5200004935765918], [0.14661866571343335, -0.23955391767954629, -0.6390752059020094, 0.048240048255809485], [0.5723251572951751, -0.5145437949273662, 0.6113175984074123, 0.5683829396964118], [-0.20105193020036707, -0.4658936530970594, 0.2794245746936689, 0.3683657248388284], [0.31857227577255565, 0.16390705417637264, -0.44378133465588065, -0.7390001664908524], [-0.020432632038935805, 0.14968189471118587, 0.0398802287170758, 0.015319994708873063], [-0.14725672369152787, 0.9317350911888239, 1.406107796622515, -0.41022823852918194], [0.7378256861713065, 0.1257046095223489, -1.038716405870622, -0.950376262777254], [-0.8727435069353449, 0.39628530075894863, 0.017125012762227807, -0.6883189779822245], [-0.25954865737590915, 0.33304716729099454, 0.2937165020426921, -0.46375015916272544], [0.05692653017863515, 0.08225649372479531, -0.19030832074790482, -0.806460456700831], [-0.12647296166213004, 0.24354640062414332, 0.22512915898325822, -0.18750759541099773], [0.15010791459496314, 0.3332749848246781, -0.6518208786017958, -0.3002878826977505], [-0.4907082083503458, 1.0699781838604165, 0.8429665645458038, -0.08447629538947429], [-0.2505804406533516, -0.10149131329938363, -0.6164701097888338, 0.7739611993033259], [-0.0073308492274352915, 0.3375435470861346, -1.2320236474657298, -0.12712280263112044], [-0.3638917290583342, 0.24031613032183433, 0.7665487910333038, -0.07667246806592656], [0.18454679774319793, -0.03799062597403494, -0.20641459119669525, 0.1181856339505491]], [[0.0588935744271371, -0.07487527026843088, 0.2884231011713437, 0.36444029916642134, 0.3622201257538585, 0.1564675974645226, 0.09743933547390868, 0.3330926366566478, 0.0462642141751957, 0.3037519361031599, 0.2229885734152152, -0.0056027345516744854, -0.1054059852586328, -0.12870988411790138, -0.1368666872709436, -0.35723749280191847, -0.0019000117958852226, 0.18811505717082563, -0.2173580405416937, -0.5124852319785644, 0.018929113103763454, 0.2416695111198563, -0.10208231404546762, 0.05698546022861505, 0.01165054391329852, 0.21158539811120658, -0.3456530853457863, -0.12775240254472747, 0.02350567229486322, 0.0485470572107388], [-0.19847335901057475, 0.034535555989000835, 0.2564193140759076, -0.01935900452283644, 0.1096436720405549, 0.42061666170672246, 0.18142523365154095, 0.18474045738451786, 0.1034376063582064, 0.10561079404949193, 0.01505410280309089, -0.07156520505448465, 0.18171198063820254, 0.1493579975078651, 0.13243828684358352, -0.19582891191119411, -0.15991688858400754, 0.09416316743937812, 0.056498835226335274, -0.05000668834007324, 0.07719181736847121, 0.22843491811364092, 0.0802485064940922, -0.27908177673835105, 0.15117741671298815, 0.044170323634286864, -0.19030297675682145, -0.12463086716957089, 0.012341492258363859, 0.022474809424341182], [0.3720827700364004, 0.16461819836696875, 0.0030030752494096926, -0.350555068845668, 0.28466803010367936, 0.28212479396944523, -0.08847056211219761, -0.12618250573356277, -0.03958951593678277, -0.11436274285941193, -0.06498704041113595, -0.10609902561062524, 0.019483562468618855, -0.12275484670657541, 0.19815136920916765, -0.06762122447030285, -0.2918571548901478, -0.17521710964519668, 0.0820176029677875, 0.051094749283489845, 0.013821578598031832, 0.08095350349867028, 0.1325867057564698, -0.10073619951074513, 0.044677287593390944, 0.10241621853114101, 0.0386547382987924, 0.07705904426786025, -0.17433944550742692, -0.19262018455477545], [-0.06300389732808044, 0.053959214428809084, 0.3171321474673374, 0.039320099378806116, 0.1252108038026788, -0.18391060262192527, -0.03731562534640514, -0.1841917831004669, -0.40381232096337033, 0.2176257362628778, -0.009803750788293856, 0.18297917833492824, 0.3291801360291345, -0.008754173940572815, 0.1977473558141516, 0.0567532842190339, 0.1469855654428472, 0.035608281920766614, -0.2072694833317567, 0.014178669896930573, -0.12662237716219013, 0.22745274281338312, 0.1703845277981854, -0.24079749700312947, 0.06702959584710087, -0.1528998521649433, 0.04884094751278916, -0.10850386726270149, 0.19341838468432204, -0.046744426847236065], [-0.06744696129557774, -0.285351694695024, 0.23093210782258192, 0.07927407601969137, 0.054252010346189095, -0.1686066336627284, 0.036441777865437924, -0.19288870387996634, -0.11459873963050089, -0.06884297231340768, 0.3110511327449881, 0.08699892847423897, 0.281537260850508, 0.027650358622968853, -0.21262548487054178, -0.22119500413329632, -0.17578328086257022, -0.19303252222358755, -0.19691274690105012, -0.1311554419234378, -0.13853749111644456, 0.1049155975716115, 0.07491596257971017, -0.025210519837506898, 0.07820024764916486, 0.13872128317616622, 0.03516422203771008, 0.03361658761184779, 0.07232180159038143, 0.1550731901631506], [-0.05571791738714616, -0.5696194873778349, 0.0650810350615975, -0.17735364059100145, 0.030771284132155612, 0.05261692471585726, 0.17837915029111678, 0.07703506873511565, -0.1085540634762696, -0.07833855167321419, 0.1411942305106026, 0.08341398967289647, -0.26809005090606164, 0.24072082967347921, 0.2657500511322472, -0.08374211974617395, -0.13121896055659743, -0.3414117395619186, -0.11047152230122186, -0.23432477510789165, -0.11563860563865853, -0.1839646655505953, -0.04335390481527255, -0.660897770693183, 0.1494267395972081, -0.035675403373968656, 0.19604567770052736, 0.1842850942346116, -0.21832520869369024, 0.14595394717192123], [-0.1628162224860582, 0.2339041893146, 0.010847954749160787, -0.15460243625347983, -0.1512287803466746, -0.31204064412672844, -0.21515855804584136, 0.12136825507250186, 0.028250024645668798, -0.028964876093835905, 0.036408920397073906, 0.01741578915529846, -0.12224079874940351, 0.012626653833246518, 0.15872869107272805, 0.07957802204615544, -0.02620334434523052, -0.10126349358958728, -0.15164536980662563, 0.09894168669184011, -0.41884857146177684, 0.011497083410515288, -0.10490326274320351, 0.1512771270579543, 0.22061976815753284, 0.023817442541372896, 0.22974069965029273, 0.08319438816207486, -0.12177223670873641, 0.03666068803121667], [0.24838208122613034, -0.06065538688474404, -0.15869954673133407, 0.0891133862231549, 0.14200973285876195, 0.26131383247879164, -0.31555397197102325, 0.21443417724379224, 0.06343533877134462, -0.2193376826842395, 0.15056432440379178, 0.34906559592923314, -0.02491240663290041, -0.08465670409889495, -0.050293178089218335, 0.12961415443525331, 0.23407145323852324, 0.09009666969780632, 0.1451016261812646, -0.1283217719004404, -0.1400820129749987, -0.0008595684007685734, -0.2459374525712293, -0.03671615361276141, 0.2871412083024032, -0.10474359629912096, 0.12001742103009472, -0.10513854190064953, 0.3710970750826116, -0.2415941291074798], [0.23918521625569986, -0.01837207166752909, 0.17184227359851786, 0.19860000082864177, 0.037442057497165115, 0.17454784092582265, -0.21032563737904578, 0.223531706061226, -0.15683351562764664, -0.3368380855492506, 0.19137047428079937, -0.09228194497244668, -0.4245348024334163, -0.303666407861076, 0.04925713622379948, -0.25748108688029275, -0.089076469939661, -0.256712031921031, -0.10152843868024931, -0.03883447863591112, -0.19032821463783275, -0.006420859116764112, 0.23987790063538397, -0.10160598433947626, 0.22958515650300343, -0.29809595356878715, 0.09088497871411795, -0.13802247870660478, 0.21925548348460613, 0.1291575108697675], [-0.03962433537432436, -0.6639077551889186, 0.05753362318220205, -0.13021886062013888, -0.22098071793120916, -0.4329416549020335, -0.12863536121825528, -0.20849147867892212, 0.10283284964561666, 0.08344512951348469, 0.37925756030626545, 0.031856930958040965, -0.30787599420782236, -0.3211605707990683, -0.34436947380815813, -0.1073139909061038, -0.1617193343073501, 0.11266618044168997, 0.13963757918576394, 0.28797330630293083, 0.1532240283847417, -0.23506848353039095, 0.18309135882999794, 0.1315869899835173, -0.16757970968220032, -0.08027044918348245, 0.007275452335116015, 0.06953363041848287, 0.07993991389259286, -0.1218755525835348], [0.059721793625884756, 0.10710306162081429, 0.1720013105156564, 0.06202467230595363, -0.04808330564299432, 0.25019555978766334, -0.17103051603356811, 0.21835427292763987, -0.01904013774352799, 0.3469841952183412, 0.06997922333251623, 0.08678164686123124, 0.08713565477537726, -0.17827573108689135, -0.06872008971626767, 0.23128455649019117, 0.08314225068313727, -0.026149540678213987, -0.036987262522828974, 0.24989523739257305, -0.029276515461211797, -0.0477496388681583, 0.09041918201840973, -0.07676684783499166, -0.1667674171249868, -0.15703440515912612, 0.16447800531485202, 0.026323608570644738, 0.6020607245487235, 0.17255499372229813], [0.3742123703654668, 0.10853490623000524, -0.04799492129623196, 0.25169592918835604, -0.07517737438139109, 0.1708282686660214, 0.04420863705397771, -0.12803161877193153, 0.23531937788277163, 0.09395665094950979, -0.1321920856608698, -0.04220491953547809, -0.17365178040649643, 0.10681373993735144, 0.08727237463789429, 0.132879591769859, 0.20703149166827645, 0.08728241963215641, 0.14364311111457634, -0.05205806377006977, 0.030504688446717585, -0.006169231917785776, 0.23921747692481968, 0.03363500528625856, 0.007196518840366149, -0.055254022895672536, 0.041176097724462776, -0.22232623932446327, -0.0304768626292755, -0.2094284738515523], [0.35098991275362545, 0.12205318244839106, -0.1139017066327462, -0.017651606440066255, -0.21492816415871502, -0.2479351458596045, 0.02088986663633117, 0.026177063344974345, 0.22178911370364313, -0.006153722894678994, 0.39609514574979643, -0.03020515309982419, 0.15864334073674277, 0.1285868600152898, 0.08566808376990122, 0.09630915252008353, 0.06275717275223046, -0.1435498197959806, 0.22735332707307515, -0.01931349621078283, -0.12720737372955657, 0.05977298734440542, 0.18977615091884792, -0.16771253572622535, -0.13898375368533256, 0.31332513648875715, 0.0629763293415305, 0.24946586117833688, 0.3607520487542217, 0.08616364340305796], [-0.0152029176936534, -0.09850199568185178, -0.16526580490284212, 0.16578323826449431, -0.04044446042841107, 0.25656211451982486, 0.07468404117268772, 0.4150523326505648, 0.07951986440579119, -0.2703719499110542, -0.058238988838231205, -0.10664062550352939, 0.03320655878311045, -0.34506576581746823, -0.10895751347005732, 0.31475032102331263, -0.2033209240820104, 0.1306903390463164, -0.13824469567962716, -0.5044010907155831, -0.14436266117997626, -0.11356226865303672, 0.19830138011130544, 0.07625578557998972, -0.03893223653552164, 0.016511472966987482, -0.11391733134637506, 0.11264207925170605, 0.22021019535225295, 0.32329374109071546], [-0.12767428961467156, -0.1388079554662083, -0.1643002582356658, -0.029681457347775927, 0.15207249518369628, -0.026449208272821094, 0.007681580781569873, -0.5378493759205405, -0.3332625351694832, 0.1566580531614193, 0.20976347645782054, 0.0009102400835223152, -0.03193139874175893, -0.14177021142992802, 0.10904322035560433, 0.47101714378872256, 0.11972943149218457, -0.14889166846308427, 0.1227683875527002, -0.43290730877938394, -0.0675320749920292, -0.16713389015729055, 0.3212996125347139, 0.19626199045618098, -0.2112525380671733, -0.10447789624798333, 0.29292346776091516, 0.10355984532778899, 0.015671058423801076, -0.24537366587782125], [-0.21106328709779779, 0.06058342404644965, 0.16980728673894507, -0.07262004813339308, 0.23700589645313283, -0.017000457781887884, -0.009891204953305763, -0.1261863809455141, -0.19062032622190525, -0.2771953935455579, -0.21240056516607975, 0.07616291947404093, 0.14297372203842892, 0.03348952234699114, 0.26676817788865903, 0.4772723750098748, 0.2145433365956871, 0.22533038851870912, 0.019291815165948405, 0.19687029193459746, -0.03419367288484629, -0.0733852721225783, 0.10030082902449612, 0.0688162303134946, -0.05966936661340443, -0.4149991318762468, 0.20234038043515823, 0.11737725355254604, 0.007451339261751599, -0.18499042741039934], [-0.1753918601169851, -0.1223990420818217, 0.059658873055896386, 0.20957954510304097, 0.00044962802665704727, -0.000820407014635887, 0.329642982594672, 0.275459484162901, -0.14364803065370418, 0.4544901644518461, 0.05157119431447443, 0.2598402088838029, -0.06814184320003171, -0.30361722178760275, 0.3782755307051931, -0.04313503908788857, 0.11092912691936217, -0.08362473391938306, 0.21058668749100187, -0.031757763953817165, -0.18906301580612964, -0.24077186766673248, -0.27790465367884676, 0.20016255721128026, -0.11455416022221246, -0.03200221723886095, 0.034133754051540906, -0.2798805190640896, 0.011870125276529348, -0.07799917282605726], [0.1925476712806133, 0.20026989343572335, 0.03539591401798912, -0.2752216304921062, 0.10194278650681593, 0.12788514602598336, -0.16590696101251295, -0.05798272835726766, 0.10339744133429979, -0.5669110381776186, 0.1114054171399245, -0.13190583088167823, 0.044732230990971636, -0.08201691347322432, -0.14936804927048816, -0.314581351828769, 0.14195834537453206, 0.13709588753056137, -0.007343318148772954, -0.1999407217956582, -0.07350591350978392, 0.0453865776414705, 0.10604034816170288, 0.23259110551983683, 0.2943145902075716, 0.09748306971361437, -0.28352326209692313, -0.11682445805172961, -0.07886900652663922, 0.06875265752704168], [-0.06468931910877139, -0.11432988573681865, -0.1150372122292756, -0.07877913367599829, 0.19639994660158563, 0.5020240805383995, -0.02790530292816611, 0.25039713901891175, 0.13833320992418602, 0.047270797131208624, -0.08124586702837834, -0.02553125788153083, -0.040789353697594066, 0.19819572965770976, 0.04141097080330917, -0.0722398195354522, -0.0811939040110087, 0.16001123563715394, 0.16652036529692163, -0.2309470458198002, 0.15335373220168294, -0.004475368275479989, -0.06505882710304989, -0.16802825463001397, 0.2427975208829828, -0.4083615212495808, -0.002796678441687309, 0.1706285784976739, 0.0074524766910841825, 0.0034309006625686434], [-0.05796882712285023, 0.3313891622816106, 0.14511243243952204, -0.2380601289647473, 0.18845634165144806, 0.09776018239010963, 0.20742015943054704, 0.16509256708883932, -0.08321980509224668, 0.053288271277874166, 0.01956531388050267, -0.20028655100879278, 0.08481639892453048, -0.21567973485772454, -0.25263906286700305, 0.014218211357335125, 0.012647799930000298, 0.12417913404542198, 0.07708384582947433, 0.10492708137903678, -0.23609608406325777, -0.024552779276406787, 0.10442978664198371, 0.10223630886022923, 0.012640440579625255, -0.11721974773226629, -0.041818776562590504, 0.025711953853432872, -0.10720725350851813, -0.16960836540903232]], [[0.2531777037674322, 0.12422114722639568, -0.14252113971084635, 0.07862615984342315, -0.3296820837992625, 0.14844910559400304, -0.11509128343700001, 0.39487917154014374, -0.09550850855015881, 0.08202935844751952, 0.10380989594240138, 0.005172224929308653, 0.1644800277085574, 0.3784271023623886, 0.21749430394205616, 0.3162033620480214, 0.19495569612243902, -0.20995485419825055, 0.11510731213862743, 0.11908473908590325], [-0.09279577704604208, 0.09164025701157366, 0.00629206572944687, -0.15696436580311543, 0.3358972181484788, 0.056359801212667426, 0.027719360741736324, 0.010502947519844328, -0.05886861077809173, -0.23359547433046748, 0.294958406243598, 0.10026891632215382, 0.23631845455663641, 0.16091055883733282, -0.04016058162286246, 0.23910544933409877, 0.12524626699101218, 0.3296326493194302, 0.08332865020837218, 0.3533012962033014], [0.03348837110711454, -0.054917363887706315, -0.4936027762013357, 0.27808561093018014, 0.1811122462308493, 0.11264324395211596, -0.248676559489731, -0.14953973944086232, 0.33094341766466295, -0.02596979025348063, 0.2991399995609565, -0.27106120952813567, 0.1301357885145891, -0.006465040084137084, 0.08238460837263614, -0.17900513444890143, 0.2833812180401719, 0.11807881418111885, 0.08363311947838857, -0.18352999423893923]]], "biases": [[[-0.04523937652576735], [1.6005810314328155], [-0.1595641174312688], [0.1844319768948496], [0.3471783651742503], [1.4805780338975336], [-0.434491685579054], [-2.2476486136976432], [-1.641852482442477], [0.4228818709949399], [1.4801728855231775], [0.5638766834241267], [0.09627864102646477], [-0.4357896809776466], [-0.9726372514252407], [0.9169233111425641], [-0.4094984307328266], [0.49160106964320455], [0.3531135795297894], [-0.34279081962437624], [-0.500928733964836], [-2.1009797508984787], [-0.3771837182647063], [-1.2152244358992423], [2.0692702833293373], [-0.41907812451649684], [-0.6856640521535045], [1.3828600276374348], [0.7469367640633588], [-0.6569079074686611]], [[-0.5738559939810279], [-0.5603643901361585], [-1.165575124553236], [-0.550630894719731], [-1.2026872801273578], [0.6514321735011706], [-1.1585542372407216], [-0.03397836746185267], [0.30465833015037835], [0.0843959523940775], [0.15351563065700788], [-1.5691097941943561], [0.7884576048553654], [0.6222730567648668], [-0.4463894355959609], [0.2170060518079389], [0.32177762174759766], [-0.8425507110027564], [-0.3166706552965395], [0.24701289647299124]], [[-0.9054342320637959], [-0.0640531776266918], [0.3358129175445436]]], "cost": "QuadraticCost"}