{"sizes": [4, 30, 3], "weights": [[[0.2884924589645337, -0.39607774031470844, -0.20765955307816014, 0.11345656227157892], [-0.976159105237903, -0.028364865999169517, -0.6331367363388677, -0.042004002338177165], [0.052040200100964815, 0.911677097210322, 0.4109815965360299, -0.6611861672533434], [-0.40045589403177495, -0.0758206705230545, -0.22751599467663972, 0.6798122611737534], [0.5691042749419583, -0.6307795373303646, -0.0392244946528333, 0.5607485124155117], [0.9983814955069715, 0.36152977193253044, 0.3114887132026967, -0.7673605264700646], [-0.03258383432311399, 1.3201223465935519, 0.8170447076442341, -0.25235937801664676], [0.7354869493733774, 0.35373258046439565, -0.7528242653292432, 1.105485943773618], [0.6718192705811102, -0.3969078002508692, 0.1856297994450297, 0.024885811502466843], [-0.12408985376378769, 0.10925781360041019, -0.2928074395993493, -0.5309532308420257], [-0.35654424919494077, 0.21527747073573655, -0.3401497529338547, -0.6821662714774617], [-0.5669402953441517, 0.06769588869179802, 0.42458558763713855, -0.008249382462734848], [-0.006902392835676665, 0.6053878699249683, 0.14579565826244162, 0.10544628133936473], [-0.004633521172115223, 0.5656127511303979, -0.0007241627240337054, -1.4748235919211152], [0.43684600034812837, -0.5342197180701012, 0.36780361619963997, -0.3735675804857184], [0.04579958948532748, -0.6115128671290769, 0.5406924717790953, -0.7528764914426416], [-0.09226450656156925, 0.469103082235278, 0.7937505878068603, 0.48835599657309414], [-0.741216689380217, 0.48031894504845496, -0.2176068371490784, -0.36362558088204633], [-0.09735378331948838, -0.07486167605585627, 0.299464325393622, 0.23013925234974975], [-0.4371973957766882, -0.28807743249145923, -0.06836036872377438, -0.8423716442140752], [-0.6110114739601588, -0.3105584567487007, -0.11420209433725356, 0.19269011273440692], [0.35388141505833615, -0.32488069842199796, 0.31545919933174726, 0.5730353929683322], [0.3274424920941145, 0.2721838332294105, 0.1190746270411191, 0.33306297834571463], [-0.19087415412672873, -0.6007869263154556, -0.36480083491061277, 0.15993958389049603], [-0.6279549005262867, -0.6829603445225064, -0.4359013603223179, 0.971470862426456], [0.16767709405944556, -0.5514732496569725, 1.6115718180099639, -0.8921971908969933], [0.2904867779586294, 0.3315791641553372, 0.1409390017977938, 0.4939831807145129], [-0.06905667015703108, 0.17199594748254915, 0.11871545555595256, 0.4291807967996797], [0.9367688556734493, 0.20246017760452206, -1.640873103417069, -0.5040553948825445], [0.8999446197207893, 0.29682458497657827, -0.17080638177013835, -1.0731901137148854]], [[0.003005833382297777, 0.005720672516983256, -0.1568805527629487, 0.21718854264268672, 0.003825136299297394, 0.13734679008505482, 0.0974861089562498, -0.16890664097173894, 0.12369692137596523, 0.09478519316138447, 0.16299377665148626, 0.17011619734194008, 0.23578612170084018, 0.09385760784502371, 0.4391697962523905, -0.35909578422535177, 0.1340323067900629, 0.06783240212162078, 0.3273147537015011, 0.061906350521579216, 0.20144230476293276, 0.11409725991652961, 0.109974320703848, 0.3483265354783086, 0.25935171899693993, -0.15299243687492983, -0.01477133994210702, -0.06637091713475464, -0.03260007424203776, -0.02552976664978475], [-0.0309790507088742, 0.06001101250084598, -0.17112053852255094, 0.243058027857291, 0.11093185163657472, 0.5684365171442546, -0.08053629712401558, -0.23242691800238915, -0.07613021853929744, -0.10117614984041051, 0.288454702474983, -0.0008196662364345277, 0.1440281813571707, 0.054100295451451424, 0.22788305827365493, 0.05169791152800087, -0.308575722126202, -0.14468760530342753, -0.02289176661955862, 0.3561639906683611, 0.22286718675013625, -0.19509537091662066, 0.36114385460657855, -0.09430290982355409, -0.2893223093154087, -0.14128519678799858, -0.1921745954611329, -0.007131687020158452, 0.018372001599778674, 0.08260432299296411], [0.05707100971472563, -0.15080456609935003, 0.024548587708603225, 0.010494454607489457, 0.12352471591266506, -0.13381454740202972, -0.04020965274722471, 0.2051074224579313, -0.10420949710512961, -0.08136694005303646, -0.0873527926470733, 0.3486445977366735, -0.11796820066409389, 0.3430786745470757, 0.17087192668561504, 0.055872796628523035, 0.1177613730298913, -0.12521112047278932, -0.481813912899864, 0.1677991357976698, -0.18645787690498378, 0.24133454568805335, 0.10771470668028629, -0.25937937993086624, 0.1681037671470258, -0.09351871586538951, 0.03410605651927953, 0.10134946778762048, 0.11742329826961004, -0.04833377517627391]]], "biases": [[[0.6905028840701731], [0.47997424231444036], [-0.8769458426177299], [-0.2038448071395507], [-2.065551876866828], [1.123626958197376], [0.6605131056766088], [-0.7356995379429757], [0.5853298699824565], [-2.3487581882648576], [2.2547206046372823], [0.4104980109453381], [1.4365404231436578], [0.38873651897114503], [2.3605016796888862], [-0.45596281118963294], [-0.6284934745128555], [-1.4274407179435307], [-2.538168324171268], [0.19328141517163952], [-0.7068198122326717], [-0.6155180690283883], [0.48018011240266684], [-1.0803201357080958], [1.0074420153149717], [0.345987408099486], [-0.679903866637837], [0.3424631768361765], [-1.1074957358656297], [1.8505299344848498]], [[-1.18703068842119], [1.174476968396869], [-0.07869718730510855]]], "cost": "QuadraticCost"}