{"sizes": [4, 30, 3], "weights": [[[-0.5379485478550738, -0.5251385824967788, 0.34562294965734625, -0.8081479553150729], [-0.019495856632403247, 0.13469987977621525, -0.5079545422442282, 0.22867235285868798], [-0.7562612128417746, -0.24156203170077217, 0.28687743457360754, -0.3397519387443242], [0.1970379866265574, -0.1622365797578156, -0.7445743537056935, -0.06509817054022296], [0.6639183931666014, 0.13716254986532972, 0.6801515888212848, -0.3593525653804035], [0.06930126050265487, -0.01690370105555893, -0.1021987081397808, -0.1917910578031318], [-0.6406485685381459, 0.13316225202546336, -0.12324767733113683, -0.22918259762700638], [-0.5722151294851812, -0.05428605468824313, 0.28696459316095346, 0.5409477614317589], [-0.07132698961437987, 1.2850047601501924, 1.14111833125617, 0.28414940755472645], [-0.04671101060245775, 0.40217928076163645, 0.09084186725711199, -0.27053954366300004], [0.045093543497626565, 0.05911935972925224, 0.27182310205741206, -0.09335224807248009], [0.13639134172753492, 0.20835187455258058, 0.5189167827705474, 0.0930186668367769], [-0.6001965916307112, -0.4120719812269526, -0.02235266043702973, 0.1124981441989643], [0.2856212716168724, 0.465672108413788, 0.3210327384826498, 0.5792434142752853], [0.06315761834860666, 0.3041848815924543, -0.7933536230708667, 0.6615025678757481], [0.012952056368999465, 0.6062398069641008, 0.3552037787233947, -0.534290774956365], [0.8837572508630528, 0.6090007488714012, -0.36007418997397467, -0.662913380302358], [-0.5493033546955007, -0.3358210555093616, 0.5975410450369684, 0.32839955416076083], [-0.5595357668664989, -0.16090518424325442, -1.3279226398984252, 0.4167256148890945], [0.6492174226175371, 0.0946055762664041, 0.011340796643910451, -0.5496351283788639], [-0.6834490073536302, 0.05885239462263397, 0.17108539459379643, 0.31390827686874007], [-0.25126635402720565, 0.08096607011003815, -0.00858431354830073, 0.11535349673937229], [-1.0916457569190192, 0.6748771846296899, -0.18710543981530073, -0.31914022973448464], [0.19204534238037343, 0.2788696293400051, 0.06980041317971845, 0.368142651091231], [-0.12258865710660158, 0.2686654360555273, -0.056416183166220664, -0.6228310533297583], [0.7782562061677812, 0.16160504937126452, 0.2583801495151011, 0.08177357043032076], [-0.1969731647522066, 0.04193318790241065, 0.215982563350795, -0.2680052372470215], [-0.5508985727919073, -0.2533741056920117, -0.1322722640917916, -0.8208813618477635], [0.29454176337565324, 0.39138278317752057, 0.20921364024471462, -0.13387199615177317], [0.785674371181752, -0.06674490268993574, -0.09047037389638701, 0.650803882650132]], [[0.24072265447449379, 0.1712397129325075, -0.042403467457591416, 0.20381121378781442, 0.22059458104572108, -0.024279562221728855, 0.14726297110380432, 0.08720573852940187, -0.06430416625288292, -0.026578081940622948, 0.1888068793221298, 0.005789854665251711, 0.17812104894974876, 0.11424372768131236, -0.12861490547237475, 0.09370188728897275, 0.011680723458566045, 0.459816974508857, 0.18671071637697997, -0.20419943786690978, 0.054293740075516225, 0.2475135461285031, 0.17284144501956283, -0.017663874829229636, 0.10541631652924861, 0.21955399073820328, 0.1320385946472625, -0.3476545613603448, -0.0790455465951287, 0.27394410955286624], [0.06099033065184669, 0.14073203152392932, 0.20847734500906334, 0.06607977697689789, 0.2506549682337905, -0.23752310888773445, -0.0694463481013978, -0.2732135731176774, 0.3613444455724654, -0.04499046802897038, -0.007241112305876954, 0.2175393915534744, -0.051564929407409525, 0.033604822389371944, 0.20169802126650524, 0.08300491336179043, 0.16445617307132177, 0.21795751532562735, -0.0023449438661900125, 0.007378450976584427, -0.0462403356579683, -0.26689489585849774, 0.002385988910153538, -0.21769840268370705, 0.06870013277429331, 0.22958127204608786, 0.15368772102103215, -0.056625646461906584, 0.08152154223705724, 0.2748173496466659], [-0.09816433165280398, 0.17367711226888988, -0.2909604474731304, 0.07683380684512951, -0.19134702809260676, 0.15200110572628545, -0.05254917395241732, 0.02186036978930879, 0.0022852790828612572, 0.20204505196448896, 0.351312152474152, -0.014869203994816957, -0.22145478729818185, 0.1565746244206659, 0.0675727596712794, -0.23128339776336407, -0.18592287501857124, 0.0032058265275627888, -0.3790801301926359, -0.21194951119209365, -0.0919203496229395, 0.19923476244117488, 0.17518336522923436, 0.3897815901283483, -0.2988072847746858, -0.24583354843943994, -0.10539688510322825, -0.03164550973994486, 0.02863194460077228, 0.39870387119591194]]], "biases": [[[-0.30970266829644455], [0.1905793945289864], [1.9077353040071898], [-0.3432468286875393], [2.1250867570746097], [0.9096897826655868], [-0.8065565706133725], [-0.1906437440999128], [-0.10433338424281004], [-0.6201443147562379], [-0.015166279167712316], [-0.1846954662456263], [-1.9102335680678495], [1.1501178886755388], [-1.534433640850658], [-0.679948653587033], [-0.2509048389390613], [0.6422489969999612], [-0.2373307384506056], [-1.1343667536187716], [0.007593457984508076], [0.11490890464017584], [-0.8502258821024574], [1.5470868116368786], [0.15216835065629353], [-0.748567315197259], [0.11045708749200046], [1.1712983090864955], [-1.086046235089003], [0.12583464313035334]], [[-0.9651155332194267], [-0.04792822624634427], [0.12181277434240081]]], "cost": "QuadraticCost"}