{"sizes": [4, 20, 3], "weights": [[[-0.4045153816231941, -0.2874948621585403, 0.21050250566629852, -0.15933145200852927], [-0.049231926391284306, 1.327317254227873, -0.09471055538658192, 0.5924394148727081], [-0.922445242027397, -0.7031690009085481, 0.5332089180056235, 0.39166393014640305], [-0.7790238116750741, 0.2346374905089055, -0.11249195242460171, -0.4761838725151009], [-0.8559081977939902, 0.10037809503419308, -0.05786319873369374, -0.40408745142469177], [-0.6661129634836798, 0.16021178063326136, -0.4900754679081489, 1.0992420733271806], [-0.06754919620961088, -0.12844470291744553, -0.48183641942883026, 0.33833378247982177], [0.05481963634644446, 0.4847842462298408, 0.02636021179157257, -0.5388441348003836], [-0.04548595875615971, -0.5862088765283704, -0.53152947355332, -1.250082665167019], [-0.7403686488986242, 0.5137274710857278, 1.2688204985327531, 0.3256658768438363], [-0.3715665499094782, 0.3077220819174386, 0.3151061602073435, 0.3750785765432928], [-0.16576504758214008, 0.08242879207838454, 0.3249405654482999, 0.6075608665682856], [-0.016554913174070852, 0.023701866817895604, -0.4830650486937118, 0.152374557315637], [0.6331165992508148, -0.3545732501961817, -0.571806591740593, -0.9964658498853568], [0.27243857984591585, -1.1391208126209766, -0.1585455420131608, -0.4959673514925172], [0.15009052070307935, 0.4770659383496513, 0.06665029766783795, 0.5719847257561864], [0.15301418596559432, -0.04281389213991015, 0.5112655400193779, 2.013586507483884], [0.4005920843890744, 0.6806299655664023, -0.2271988840783609, 0.36253788654706476], [0.17186873359054566, -1.3110953520142212, 0.4465361865617314, 0.08084017378836647], [-0.41487543991501463, 0.42309350472794444, 0.8229205923727989, -1.1232312271146474]], [[0.3597551659975492, 0.1598394464271858, 0.2062706070101867, 0.15633838025923533, 0.4301364203162278, 0.23044654438661322, 0.196039859776782, 0.061244013088149356, -0.10856037216470894, -0.3888683869808213, -0.12098053136817707, 0.22037056154498155, -0.06049450337658562, -0.018407812786066274, 0.31523181277068607, -0.10413164781310372, 0.17167307791882278, 0.2614923031428335, 0.07552783548924874, 0.08499913725353672], [0.1983856894779714, -0.1486749213237737, 0.3622150605416883, -0.2098209906078405, 0.16606205958092085, 0.1926343876027225, 0.05085291366136083, 0.055183116362007234, 0.08890018198887509, 0.10047864601580354, 0.09957910010860382, 0.04494161734861691, -0.2690431301855719, -0.2739408717722186, -0.13145169151596287, -0.18351046894094744, -0.3648872075261524, -0.10018443347259855, -0.24883461403716714, 0.24331704568247406], [-0.06754245283678803, 0.01394630849949737, -0.43682910845683937, 0.3592509093287951, 0.000615236823287181, 0.08775634732238231, -0.14592524788700587, -0.03549556336540638, 0.11771690241838861, -0.5042653002448027, 0.06332573350171533, 0.365372144037475, 0.4459634676087716, -0.050785329551568656, 0.14247738731412776, -0.1726155445402344, 0.23501825902053136, -0.077426251856503, 0.00457721653632584, 0.46797541888992106]]], "biases": [[[-0.971969841626149], [-0.20872460201608403], [-1.046352263589451], [-0.7143153293496745], [0.19922770019813157], [0.561862698275846], [1.8150728285580582], [-1.5730683096038327], [-0.28600738538767867], [-0.9198883158543116], [-1.0552303768943612], [0.9210518482133856], [0.30823230853656214], [-2.2289951281209186], [-0.0583104765091131], [1.1250381067417803], [1.9639066913174947], [0.26291821913001606], [0.11424869097893914], [0.7692818555139158]], [[0.17575383528957628], [-0.20259900078540555], [-0.5405960449657085]]], "cost": "QuadraticCost"}