{"sizes": [4, 30, 3], "weights": [[[0.4996236213822746, 1.0743054716582836, -0.6023008384901258, -0.3104268772932503], [-0.004563603610291093, 0.5321764191967833, 0.25472535660755735, 0.7420935446769905], [0.5138168859761506, 1.0205713093952213, -0.19881604953275733, -0.8074077716360452], [-1.0232305631454193, -0.5544193434820784, -0.17754622050248664, -0.23320466376737273], [0.07275542859694827, -0.48965103128417775, 0.7274329352392601, -0.15139264487969364], [0.5848566303564581, -0.3022062160361733, 0.3396758533300564, -0.1155870104534976], [0.5133428123772722, 0.3617455597615525, 0.6465870451855458, -0.3011034562373701], [-0.06642886929868162, 0.8015340587421815, -0.06992469414798848, -0.4467022416462695], [0.19312740907714468, 0.3128872740524052, -0.24874837509753595, 0.46084597403674055], [-0.4565212584621573, -0.4483219072827695, -0.6602139904254178, 0.8614682958494153], [-1.1740248383163534, -0.14043298256931894, -0.5712313599321294, -0.9636693470183877], [-0.23701191998694954, -0.5638991618516963, -0.5147711938830136, 0.38348283991850596], [-0.6707905084947805, -0.04360869183992053, -0.04791386201042621, -0.15736620236188467], [-0.7401264107007386, -0.25778234660493216, -1.226232761244335, -0.46002172458839957], [-0.4328003640546794, -0.19077862437243437, -0.6448356662864442, -0.11920370892454245], [-0.3540152980214543, -0.9692725952220932, 0.6785511509500111, 0.3917809169739996], [-0.8023431508243871, 0.5257776658840463, 0.17573221792410051, 0.9903422798700795], [-0.2771220530550818, -0.1813662402644478, -0.7868641333016437, 0.5619685911630693], [-0.8860719336051364, 0.15956146331093912, 0.18582606326632628, 0.5466130917603391], [0.4039074735317806, -1.1696804055009973, -0.27905435093309594, 0.3249621894636298], [-0.21001898159620533, 0.21748062193135392, 0.7667764680441173, 0.03985250347046182], [0.15771069510489072, 0.21279704705975866, 0.5710933854600948, 0.08498393633375839], [0.12436099706642785, 0.40244425410035745, 0.5741757271847561, -0.7217453443177836], [-0.39260223182698856, 0.12399779676726373, 0.15643718179755556, -0.29985259165040046], [0.8845325496456338, -0.3294525819101097, 0.004129988631490442, 0.8649599472212016], [-0.16235508775692326, 0.1631862833463598, -0.03067451636459161, -0.5061511413781689], [-0.05568028632712171, 0.9431243903317716, -0.8757368591357669, 0.642927236177855], [-0.35219498891934825, -0.3896955625199075, -0.5895522750720864, 0.3760419064943929], [0.870776118938049, 0.42917531697445427, -0.7708518620679019, 0.9151693374449557], [-0.629345016823006, -0.5703180272714667, -0.09168267264734128, -0.13781947328705427]], [[0.027781657691356904, 0.6963276718923062, -0.08285839369387363, 0.26706993152663744, -0.20215497436793053, 0.032200269938201194, 0.14928453392180754, -0.15260918919786942, 0.25904745718493327, 0.2809219765254616, 0.15135034728016272, 0.2292125027108255, -0.07916605743249136, 0.38882984380926033, -0.046336838255487095, 0.1473906625782549, 0.21028523373267358, -0.010917248850804723, 0.36882305571972673, 0.027053891433426264, -0.006667048968367997, -0.0020367302317649827, -0.1206685230486027, 0.17477239713119544, 0.13681097321200839, -0.018224221068451507, 0.02902860480246494, 0.4978014437491226, 0.23087678812625478, -0.3470984896106584], [-0.21240194594766607, 0.14615518565113458, 0.08163848279206454, -0.05096538130077089, 0.0036809853216342656, 0.07886409692310004, 0.0900336804524096, 0.06024405600334064, -0.0337686689540808, 0.054506475753072374, -0.13115162647295342, 0.11411895217587693, -0.02954379715056376, 0.07524794198147021, 0.3032910601505727, 0.34873579155340784, -0.3200272421468255, -0.08794066272740604, -0.3438445377125025, -0.007688095919766302, -0.15299196833180884, -0.04513086422371492, -0.2049306122086889, -0.08015459339557626, 0.3430448381908712, -0.11521601406565825, 0.2711720847450277, 0.16246049764722562, -0.018880922987807747, 0.10210309870383295], [0.3156547723418341, 0.016130710755772246, 0.09173729082685421, 0.0066864654939050834, -0.16608211468268502, -0.1860556492966463, 0.05215152025304909, -0.5077742928951624, 0.017113620353939485, -0.12447895171546103, -0.12227778785306852, 0.2001054690786256, 0.14692573037647622, 0.5190193244084633, 0.30337477321211664, 0.06311266204925581, 0.27281017312115924, 0.004296123434128418, 0.31077970287653267, -0.028042886541802484, 0.2335311565557435, 0.21656260722493575, 0.0689846478464746, -0.3187806373333409, -0.3087845892171653, -0.03108741531517794, 0.03365113370618201, 0.12722379034128162, -0.10501401919718506, -0.03168437662030696]]], "biases": [[[-0.830409132246321], [0.5286524494412903], [0.14092316982950784], [1.1428038536842808], [0.07298940995690562], [-2.16753592265084], [-1.448581302670597], [-0.17749158704352624], [-1.1461407036180125], [-1.0520861050541217], [-0.7478014528230943], [-2.1543119834810134], [-2.2132340669332016], [0.09168933599979681], [0.18127717088584178], [-0.4245907696521579], [0.48761974390500823], [0.21857248230687715], [-0.3172815126676515], [-2.210040694075687], [-1.3729322329675018], [-0.3823610320191527], [-0.42997943692655893], [-1.8173350009864002], [-0.11569206771245272], [-0.9338258535905609], [2.780118972780426], [1.286970624845355], [-0.6962922481612165], [-1.344310205959959]], [[-1.9690271477945556], [0.38373693404304277], [0.21791256810414023]]], "cost": "QuadraticCost"}