{"sizes": [4, 30, 3], "weights": [[[0.2067684082659442, -0.46520119600019216, 0.27485434669196795, -0.08439993622351256], [0.2558346247245713, -0.24720770987276636, 0.12450487432251146, 0.31165457439872485], [0.4265129043351309, 0.4356588194605116, 0.1671368820162953, 0.25002943724504584], [0.016577112569499026, -0.6900443685652204, 0.20887239051704046, -0.3303448048158529], [0.17499222424171307, -0.5591935988953217, 0.22294112973432514, -1.6587276042058683], [0.24644302651512645, -0.3529084220298015, 0.8461241425565208, -0.1116046905026458], [-0.6508484317787535, 0.5229155398787706, 0.19600580597666928, -0.3654424399451672], [0.6862860408554461, -0.9572750266155063, -0.1365924999896519, -0.8499755913570614], [0.08804018803256702, 0.08683316479490738, -0.33024839021190905, -0.5547349266867109], [0.14953169207763597, 0.6463060153248796, -0.6066004185855995, 0.10859696372345978], [-0.12651936216051837, -1.04463943959367, -0.9983300193644356, 0.19440525478792517], [-0.7924217594301626, 0.07657711542724334, -0.8903895286314328, -0.19196690915101805], [0.19474539581648548, 0.06470125311475536, -0.38551468619295726, -1.091093441008728], [0.9289316933879753, -0.14059569499126473, 0.6820799021654372, 0.9934701638120893], [-0.18727823663952287, 0.5066849805179319, 0.26411468615428785, 0.056856913860706536], [0.20250442697357274, 0.5384412784617455, -0.6438324741769778, -0.03728713717649196], [0.21553782589370177, -0.46423701175164234, 0.12371999489747006, -0.024735429776282673], [0.41582501713560877, 0.8409549853496868, 0.41626804352072005, 0.4305408571738516], [0.4775133638741196, 0.2026853496231824, 0.7104449233717804, -0.7054387526702974], [0.1285482954378551, -0.3801340554160867, 0.4497317094133556, 0.16159476915385013], [0.44139645822297874, 0.8695575004777908, 0.29988389915755664, -0.029304335399258582], [0.7811694155945409, 0.8401360773827716, 0.1852677916013182, 0.1407416735150723], [0.5923447842934322, 0.7894504042019606, -0.44810546518847555, 0.7160426620266697], [-0.4592530369067823, -0.5707392906975304, 0.12459443797126814, 0.7918077874853904], [0.4642152898391598, 0.49538680990504447, -0.5801603681044634, 0.4399196311661896], [0.05392498920065229, 0.4281209276583569, 0.3879124528656065, 0.6631777176253668], [-0.08688076408738035, -0.02250886057688615, -0.44346878552836516, -0.8385378657050467], [-0.9237940238119294, 0.3418011919095978, 0.5587569699801324, 0.2684662755149228], [-0.3385019059011513, 0.4362702783317138, -0.20231381937322282, -0.0009584777375173371], [-0.2593840259188733, -0.12476737092960599, -0.37976598484079804, -0.5686123830525477]], [[-0.25048614788265194, -0.1502381884860565, 0.07240109602238888, -0.436057522931367, 0.2262949462577222, 0.03968679073205312, 0.3995239544423347, -0.006839320806380908, -0.07141086230962598, 0.0199071615189972, 0.32032280975140615, -0.12219772698784213, -0.006261182036592315, -0.1750496776233327, 0.07948846533818735, -0.016178220824011998, -0.009217695398087124, -0.05905237305348768, 0.13947155297881494, -0.16851999294145714, 0.0771467264147061, -0.10291774407453647, -0.04691772138021567, -0.057248767398437116, 0.3684336775162625, -0.14501468477910867, -0.025823719018350774, -0.19556491930514514, -0.3997042569100299, -0.0779188400015307], [0.1915884000210845, -0.07068135967986987, 0.09776953898336366, 0.12265085849904023, -0.03209211436422655, 0.16671754476864808, 0.12872289628720446, -0.01099781730854453, 0.04563365369237902, -0.1911137287680126, -0.1704699112103957, 0.08537910447412214, 0.2129672239859313, -0.15325997083932735, -0.2387625682750732, -0.09917940739156304, -0.08459041460147686, 0.15286171622466854, -0.06387813049113064, -0.03356562072291002, -0.17503500133089173, -0.10842778995269545, 0.3466665240462696, -0.09731130573028979, 0.10611758371842064, -0.2921778004282059, -0.35068641288528607, 0.30369839774303753, 0.0200712046064295, 0.17942068241806733], [-0.45329188244292534, -0.10406529477800953, -0.019757569380606303, 0.17847098004254477, -0.05668486979096219, -0.09053986714197973, -0.13547414565349372, 0.1275309548138321, -0.22593186827379336, 0.029832816523495398, -0.13689179350866995, 0.08157787745859509, -0.05415501827063889, -0.037342879159321614, 0.36460799384389225, 0.1441944203298691, 0.3448622849479027, -0.10363067218984158, 0.20523255569743543, 0.1170289244793809, 0.22905942240307053, 0.19509722106033786, 0.06359203966766575, 0.36714076199373286, -0.15504242316661307, 0.3152730677924127, -0.10482792719721205, 0.06927610664591255, -0.08196817644876203, -0.17252429970688282]]], "biases": [[[-0.9890318036746977], [0.5773117909514717], [1.6062512440334562], [1.5599959719172964], [0.15810435857718655], [-0.5145930582571271], [-0.9786877304230962], [0.6335517023491459], [0.12138250749792788], [1.5922112291920252], [-0.5194985022088955], [0.24755286964987247], [0.5381696349803348], [-0.19621654539589567], [0.4910131295576622], [-1.1598902306959706], [-0.5391292541543781], [0.23540929241673822], [-0.018164512591881385], [0.6570058106783024], [-0.2771338719319292], [-0.4484627524923498], [1.230412076502108], [-0.3794825411599914], [0.8432275317511765], [0.643174112150458], [0.052299499495520756], [-2.053581091270456], [-0.8799503246687279], [0.9503677741813411]], [[1.3510204801141943], [1.042503146658645], [-0.2673804653436809]]], "cost": "QuadraticCost"}