{"sizes": [4, 20, 3], "weights": [[[0.16534935567029566, 0.0002082480229349516, 0.08692568838579322, -0.6950430550961039], [0.3962924945298216, -0.6323167789491371, 0.17631903917121336, -0.3777978475262314], [0.9163172997950166, -0.34640201833529755, -0.5258428633660631, -0.2604563597226154], [0.7533130765594295, 0.4229758325217248, -0.4099441946818815, -0.030051031835992503], [0.3468751073702475, -0.5893305968541594, 0.582575759506238, 0.516233529522777], [-0.5326784012163485, 0.1811170285948354, -0.2505996166525766, -0.19988737042176], [0.10222440098245762, 0.3673115707774411, 0.2223611745844775, -0.4111476221041786], [-0.3886991637660373, -0.13542302486228355, 0.011198881859915136, 0.004567718599523216], [-0.3366624672256333, 0.6929114373488408, -0.6443314050295981, -0.7757671370921311], [0.2594033370899284, 1.1766581894268733, -0.1878023200462776, 0.3448722610090642], [-0.49832597172988136, -0.382043388708462, -1.0067928795677972, -0.5248027555156538], [0.09642701663672139, 0.3003584675963902, -0.12725988957207685, 0.22631876601120818], [0.13303575634349246, 0.3084254366764304, 0.633389040015116, 0.03577457508056909], [-0.6642450040350135, 0.301662331647586, -0.41560451957745803, -0.3717264402726968], [0.17688345668305872, -0.42008361819259454, -0.4079508457071037, 0.3478214012965087], [0.39120524091512276, 0.47866847977397536, 0.9336735548794669, -0.47082208714400964], [0.12865976935589502, 0.33014211147370753, -0.6101057361387477, 0.15679764787765876], [0.8286600230281056, -0.2653977273179353, -0.07510850850611592, -0.027225837558997646], [-0.30315505204524584, -0.7964208621237027, -0.5120409107018293, -0.9160575840518999], [0.16573504127472635, 0.513673047589381, 0.4299411409192236, -0.3274070979956976]], [[0.07841844360113623, -0.07324138378740783, 0.1035629754082242, -0.12835399370927336, 0.1815467904983709, 0.1624180455509167, -0.15623064881094953, 0.10645588312551464, -0.05293375978386682, -0.09576915539165975, 0.22900034695106222, -0.5209175830957733, 0.250161379995792, -0.18508844199615784, 0.10667265267451201, 0.08149952226478403, 0.26283011130906014, 0.2559362141443428, -0.036209668572257096, 0.052971093907398785], [-0.11910975202745701, -0.21542925768724602, -0.11021691042261543, -0.012438444824333586, 0.03780679183571291, 0.1388935592396226, -0.3883677533072574, -0.22151816875808522, 0.08168527913412384, 0.422154391510343, -0.1708617930069759, -0.3357651452502694, 0.3944983073101436, -0.047992723514610515, -0.017940072045901152, -0.009934541827291336, 0.3519850372331733, 0.1291434571860137, -0.18672751186304082, 0.536195409998917], [0.1054653615430067, 0.2666714645834422, 0.29424902565680067, 0.05725297827783296, -0.142612103156927, 0.08847973098116567, -0.05987336286469666, 0.11833196072603554, -0.34600678626587406, 0.04189204663572252, 0.029375177633057734, 0.21511812079252657, 0.1501122432388588, -0.22299752666179284, 0.06403157840476859, -0.09971646712736873, 0.4291863938248673, 0.11512217550510007, -0.16564763870950686, -0.2859208536285867]]], "biases": [[[-0.9410279937578306], [-0.2974650499615592], [-0.9861879050050708], [1.2986913418433994], [1.0717790247680983], [-0.23000664582455202], [-1.0463904750668003], [1.095981518608356], [0.20133790060714013], [0.060479564014835875], [1.7510704930746734], [-2.0835644818685943], [0.4656178387466476], [1.882273172252685], [0.5318288880698617], [0.3255909271148826], [1.7655251773166885], [-0.6993293510538781], [-1.5363267812317585], [0.21387282578098965]], [[-0.013288631276613264], [-0.0026737745979763766], [0.2752101009143865]]], "cost": "QuadraticCost"}