{"sizes": [4, 20, 3], "weights": [[[0.08761411841233789, 1.0941883973144209, -0.3880628815570368, -0.004071746463881449], [-0.5643329312431447, 0.3786267593564013, -0.9650300376719576, -0.2639661126884672], [-0.6391469371576088, 0.6789139348997076, -1.0229869441056654, -0.22327008413156724], [-0.1853147245217363, -0.6896999158521545, 0.02858577657842969, -1.0437011241892078], [-0.521682865966047, -0.36372034263383224, -0.01035707392549322, -1.221193527327702], [-0.8209768109813355, 0.38063016064604144, 0.33880136379223214, -1.008297934128675], [-1.2686402456848078, 1.6026967237875809, -2.4234980166349, 2.104270842081913], [-0.4776883294908161, 0.2615805889711073, -0.36757541669021, -0.5076867367418462], [-0.410318202597682, 0.2401409825608474, -0.46361580166843847, -0.4535547440158525], [0.47796104604544365, -0.27057187496431073, -0.40506219535344107, -0.39988231473562946], [0.22976424270475468, -0.2906592902249802, 0.05107412824800264, -0.6436669632978449], [-0.7188898020435849, 1.156721627805534, -0.7360305318405158, -0.07976005030939058], [-0.39107889715011557, 0.47907568476290896, -0.35396721564369454, -0.4857919168831331], [-0.13237769753688972, -0.14344226485605527, -0.4691586389458436, -0.6157896335886022], [-0.06751507205436477, -0.3382057005437898, 0.9417730816089454, -1.5580361817054382], [-0.5269987239571081, -0.15542388718226532, -0.23014699161870975, -0.5930730477129019], [-0.6150320021287317, 0.8570263064409542, -0.36968001520880683, -0.15634104240600982], [-0.6363829882259905, 0.11224282160911683, -0.1472351971328735, -0.49162441237893006], [-0.09134324841394241, -0.06280799415275033, -0.2624465979448851, -0.6689435710787205], [0.7822045993038365, -0.5863810408570694, 1.672597893993342, -1.5217149899682187]], [[0.25241464026630916, 0.42015448661866045, 0.41322021340083703, -0.023551232423688468, -0.041121758422683716, 0.09963268388079172, 0.9054037229616422, 0.06342672378514971, 0.48751712731402136, 0.15731208527316864, -0.13794241570577473, 0.4857136738282187, 0.43841903393683573, 0.08804976705634762, -0.3035046065104548, -0.030992739186580444, 0.3571499466039656, 0.08919649427522809, 0.15255317448208836, -0.6070822721074413], [0.36900688778488894, 0.5027907627910018, 0.7289954378863297, -0.1647081816258574, 0.11542442636284775, -0.20739900677262932, 0.7516145639794903, 0.2715624546033752, 0.18840889288528068, -0.158690549151268, -0.1825876801437639, 0.4448212998276932, 0.22010536006259804, 0.12896485847741912, -0.5522992494761338, 0.33540919020857846, 0.41531114329257485, -0.023088104784605098, 0.04062477355313403, -0.6724063192787656], [0.4173409070426266, 0.43653436181522354, 0.5110343104236967, -0.2186070123081523, -0.20139732721473225, 0.05220189857810978, 0.8202421445007761, 0.30781151429869347, -0.046537383362131396, -0.014394577991302476, -0.1193093971901728, 0.787819665680893, -0.004969337261599241, 0.07200874311511567, -0.13787782812579896, -0.15356367835035742, 0.3127257698146481, 0.2129698649916002, -0.021606905473924538, -0.4115262110071684]]], "biases": [[[-0.7631318572317121], [0.9245413476065114], [1.1320508189980947], [1.1683317012379084], [1.8374905339693433], [0.47867052023616447], [-0.11992312433088666], [0.377976664920293], [0.4506620394942971], [-0.6679351437098772], [-0.35947695704394256], [0.46409362135204185], [0.5704912127852907], [0.6673091195522792], [0.9269870303472222], [0.20074892222333382], [-0.11156264538330071], [-0.28113353201496244], [0.7732865187898897], [-1.0081078032811637]], [[-0.6199287412837403], [1.0619162694507462], [1.556360501117168]]], "cost": "QuadraticCost"}