{"sizes": [4, 20, 3], "weights": [[[0.08456280018029391, -0.9826851373022255, -0.7663035475109334, -0.046721937690891356], [-0.1581503878242092, -0.007489858303310629, -0.17812632618076957, -0.3794202560250933], [0.01396336690416542, 0.8454075412612299, 0.6889673711308753, 0.30724751789330346], [-0.4542178546662306, 0.33422349320561706, 0.04563585748797181, 1.2451001039467409], [-0.2361801843308528, -0.2530179078542451, -0.8440158928507762, -0.17223265665727347], [0.10606656035337513, 0.6480149799388231, 0.45454796635509503, 0.5042102047149225], [-0.13488308689460463, -0.061724006766875894, -0.29454101980497327, 0.29919645672505907], [1.7635239748898768, -0.2504269308273749, -0.08267529459342922, 0.38179825085160435], [-0.22069756605743818, -0.750460766952848, 0.43079424774849173, -0.8399822598922105], [-0.042316588151247655, -0.20185612119482463, 0.6804875524485349, -0.3400680169975887], [0.9439327811778497, -0.05449484714110498, 0.16432881941774713, 0.8113302336499788], [-0.021428698492671063, 0.04126524807518322, 0.02210644101066555, 0.6966180706548356], [-0.18150815862355107, -1.3091044338064686, 0.36231962083153446, -0.10664538817343872], [0.12539036623722605, 0.5864559427696369, 0.40527359955801256, -0.03030558253242129], [0.1799484020084915, 0.7315388051929729, 0.454160490748354, 1.0656335681279003], [0.06662566554266187, -0.20159634106317093, -0.7511400749881082, -0.2390041658696943], [-0.042604904731794596, -0.12433959370876788, 1.008613178023967, -0.2740868616335476], [0.37206998452800083, -0.319454400909027, 0.37155404760319005, -0.08885516959003142], [0.03131193322351868, 0.3318374302906473, 0.36206435584716806, -0.17344155726979657], [-0.10950556416211138, -0.19078051577259272, -0.18838250647022406, 0.760928811721786]], [[-0.14856933524572932, -0.29937079226833707, 0.6802636323260258, 0.0763600554976428, -0.01906527779031331, 0.20611326391145762, -0.09535495177018213, 0.2794300335890224, 0.3799442840919096, 0.10423814627626221, 0.309398917578427, -0.04307698912608741, 0.03016023179763549, -0.25253707500041567, 0.4393824857236736, 0.22553071631040245, 0.09322817587221044, 0.1950149459961809, 0.40364124546470614, 0.00723838986790921], [0.06589797622127468, 0.04883718615946283, 0.35355200769168693, -0.22363578968833356, -0.45619214467352975, -0.301904225901916, 0.25505189064107964, 0.0007905565638076062, -0.07071580867434844, -0.10324705630062646, 0.33753021467073163, -0.295319094562484, -0.24029771850893222, -0.20839342572858677, 0.5236668959859665, 0.10996821991069165, -0.2718418441663932, 0.13427620128179918, 0.19842979242201056, 0.18513804098873093], [-0.15184156525344633, 0.22810506416721907, 0.30340630944603353, 0.40092940984279285, -0.2440400328861317, 0.258156963958258, 0.16054552251141394, -0.08652817055247572, 0.22357456282351976, 0.1508567976114421, 0.11710354690715301, -0.1559616521102535, 0.3171318851741344, -0.03831307083033164, -0.1782825106167626, 0.048739721456716505, 0.20784561511626246, -0.20610267394520512, -0.041733496188525024, -0.05038830382534037]]], "biases": [[[1.0128916547309865], [0.32672914989523844], [0.5854381907909911], [1.494294773847203], [1.058799899654184], [0.07167675983984949], [1.041923054112405], [-1.0126526377853386], [-1.6613871931380362], [-0.43908392104912], [-0.7053986684233283], [-2.0435519904851285], [2.6484035761229596], [-3.0584226087292348], [-0.054881425135509886], [-0.37875344470992534], [1.9949397904625714], [-0.12070932010129727], [-1.4200155488254578], [-0.5228011344488777]], [[-1.4410670123598903], [0.48786966516080194], [-0.3182450592152576]]], "cost": "QuadraticCost"}