{"sizes": [4, 30, 20, 3], "weights": [[[0.24446571988615878, 0.5835773585332268, -0.13414657122735985, 0.22930724634963587], [0.7462181220509437, -0.2704390982445245, -0.12329758039962165, -0.7923379854870147], [-0.003465183761925362, 0.3183367517021542, 0.4558716748328063, -0.31858008869446724], [0.18380139239610666, -0.11998088011164312, 0.36160624965772487, 0.18383410014225038], [-0.8246475190048691, -1.1730358512956447, -0.5429158872583033, -0.3605778663735104], [-0.35187365822445116, -0.22160487596141407, 0.10309532859528378, -0.35763183117834574], [-0.4454960530981705, -0.10695100626330917, 0.1411087022066863, -0.31121954200971436], [0.11897108636644073, 0.3410062596924168, 0.0003299147652901162, -0.09510239391430018], [1.0966143433901085, -0.576429143598728, -1.388692392003308, 0.32230297494068216], [-0.031952748120866306, 0.060972859779776505, -0.617231707661949, -0.11000284406414064], [0.38039392747691114, -0.4089691582275385, -0.44911930123883265, -0.2472530939463391], [0.10630925550518616, -0.4611938088352587, -0.25875816384283834, -0.08599858700678115], [0.07107888489375955, 0.233535184651701, 0.10154572597874237, 0.18696808460363212], [0.0013291114758170344, -0.33711679130163874, 0.5913890276882695, -0.8133430561604454], [-0.3724174585019228, 0.04391609515608041, -0.14425930208854118, -0.17012847910555096], [-0.5095109837902203, 0.6312388602755926, -1.0910248975100199, 0.7309602867282505], [-0.3398047590718149, -1.1854223339170236, -0.15721618587974953, 1.248405648186848], [-0.6157245697518784, 0.30635316739379187, 0.5291169418822871, -0.5133364183117529], [0.8556777047394234, 0.2432289006790881, -0.3338739464316625, 0.0176298632308264], [-0.45439603246448673, -0.1573078620408815, 0.490167985726509, -0.13058459867543987], [-0.0496315699464575, 0.5221266233290877, 0.4982330808530715, 0.3048612776108437], [-0.43165719052906426, 0.5287565364213332, -0.24573038940932038, 0.005418203910401609], [0.04415750091473286, 0.05100059785148247, -0.2095287249871657, 0.19993195236391484], [-0.5785015332308854, 0.017350133506280112, -0.3457102027411255, -0.3080793484731115], [0.46919892421891535, 0.2635772500003983, 0.9614839572503896, 0.6695486821532962], [-0.10951166360180169, 0.4130695194147217, 0.48931228887837486, 0.26706023651935984], [-0.03201583981834467, 0.39576461861895623, 0.6848597446694072, 0.2251174150922794], [0.36050581700758394, -0.0734896306451438, 0.36739987185651407, 0.5682448540890178], [0.6721186094240699, 0.26377427027807, 0.3354262189658944, -0.17276627363653183], [0.3176794907603801, 0.2627461406650579, 0.6376881434620053, 0.10080189682456052]], [[-0.15731603091664706, 0.34605157829343325, 0.04468775901489903, 0.1066273840133706, 0.15604235526477828, 0.28463624208136756, 0.06418432937848345, -0.2350038299540025, 0.021736649536133044, -0.2592028033319455, -0.04866458109066644, 0.0554823768717567, 0.24400697844217323, -0.36096526268700013, -0.006941995137069349, 0.1365446285685271, 0.08297332635878754, 0.2934937261485842, -0.03907255747659298, 0.20892089978771006, -0.19534615111520323, -0.09128150166569342, 0.2915949761796955, 0.16147955631353322, -0.00029524508542822805, 0.15200964458835894, -0.45026107660546416, -0.36485391897768227, 0.2472816367571922, 0.02540709646998932], [-0.11815417837762487, 0.05486602319342002, -0.16520835436902978, 0.02986900024033202, 0.0323911271807975, -0.015896264313077852, 0.23783378499990596, -0.24966732116367554, 0.15584171810344802, -0.07216354374499255, 0.1356473305881516, -0.012492735500634967, 0.15253927521402305, -0.11628819473357291, 0.33345618982904174, 0.23460829508016798, -0.02405083390667636, 0.025132592993049402, 0.017737547711216366, -0.2342396957938427, 0.013962376688839288, -0.005732368031051727, 0.29831238416215416, 0.1355743937273995, -0.0845854670481873, 0.31322320215961535, -0.10517102110791382, -0.284907691350353, -0.03851221890426646, -0.01609663127174505], [0.44540265890469605, -0.0916442746396104, 0.1920831599810081, 0.04123184789964843, -0.09898974298744505, 0.09683631094997738, -0.23955605771344768, -0.07266813773412627, 0.07101079833931044, 0.11647948169642922, -0.15984837473594796, -0.1120000765888803, -0.17802153823836012, 0.16811894482940684, 0.003643792032894994, 0.14335373601543883, -0.07178889223183306, -0.15612914078188553, -0.1779225481080413, 0.09954709815418815, -0.1009009817996084, 0.13643532022108787, 0.2534303232945116, -0.27657337345387084, 0.12485629750077022, -0.19800920417307094, 0.007155290487544998, 0.09162727914333464, 0.1023123132554835, 0.08207100475150222], [-0.20686271549697238, -0.2524895475514152, 0.3307791388099825, -0.1141869281935441, -0.2397508263775581, 0.19849298489205372, 0.01837221325591035, -0.07692677062038487, -0.34000967731846815, -0.008681918489722546, 0.08760275952179557, 0.09005464449089368, 0.0191208629999694, -0.1465475623551767, -0.2446429721110964, 0.1043063685666664, 0.14999425428701674, 0.006409934485798343, 0.18728325411660587, -0.04832222076074637, 0.22839781856609265, -0.009986064379171933, 0.14979730257134125, -0.006940204287479917, 0.19132897882888744, 0.1975000012071377, -0.2662581687628585, -0.27575503736259294, 0.31974873441674884, 0.048961645296679734], [0.19150754850175972, -0.2823934182187398, -0.2072706790936334, 0.14997292412805496, 0.22472075674892675, 0.11427782851949228, 0.06472390796569844, 0.19972179925708278, -0.1989576471526267, 0.1159628708808885, -0.10614979166012399, 0.0915685174582119, -0.17742513792641615, 0.13637983170934767, 0.009402885318633994, -0.10504788278857881, 0.2983462454086947, 0.002052887040956151, 0.11640580308099976, -0.08691576518727055, -0.09305383769362721, 0.1356973822604384, 0.3183729276984839, 0.36598459072610373, 0.15567451713653052, 0.18528998333257993, 0.15723392526505842, 0.09561533632778936, -0.3046512134918017, -0.07045076066244162], [-0.06580466513353368, -0.21409826385273334, 0.06498055652101077, -0.1906006733021204, 0.08849335617172907, -0.33067007022531897, 0.17209401520057305, -0.08176794211761347, 0.058588204846931315, 0.2220465487028679, -0.07718467784293956, 0.04595237255364779, 0.39966068949483197, -0.0008360469421656441, -0.09336032400193159, 0.22743943595652813, -0.08171649141151685, -0.05055537027843817, -0.01757450947372172, 0.27435556576110876, 0.07398800205312295, 0.2535509909409568, -0.15359232522850935, 0.0768944055554651, 0.0025448191093771703, 0.06954774084690915, 0.12810145243415685, 0.004904004273213347, 0.08506300031064963, 0.093411242556961], [0.03784001413294451, -0.09026443143466804, 0.10732691811510979, 0.2610776349434496, 0.01712353300573841, -0.1422955047585894, 0.048764199431029255, 0.07920876707470441, 0.22777973058661333, 0.19231994226575225, -0.09721808693495688, 0.1258619267528341, -0.24761180467139135, 0.12895915391396048, -0.055464114540162195, 0.266387121361729, 0.009740947298771122, 0.3877205487960027, 0.023706196523032835, 0.10184899442929973, 0.045417770531318506, 0.06391152797006014, 0.40906782147684667, -0.4414796437258418, 0.3108897459647386, 0.31460678264247693, -0.03694014747160257, 0.09580544729279684, -0.3135215388888246, 0.3554609264839795], [-0.03724831515421274, 0.18524366106403825, 0.23265701687675083, 0.26036276797395486, -0.17806558640229567, -0.16560391550667716, -0.27369835756062993, 0.2507225830277174, 0.10285708385133746, -0.29545639826280706, 0.24909838709898652, 0.07814018353506472, 0.027856285392690132, -0.06275532031380335, 0.07271215956379014, -0.0614246556741441, -0.0018546473750189107, 0.2767610791709893, -0.12226612414847597, -0.41346950242871283, -0.03958215287008748, -0.04801895416986438, -0.036196111366161084, -0.1797498516305136, 0.1343843970375869, -0.2960811551715035, -0.17259793661025385, 0.15972389464931003, -0.37058364794465715, 0.08086351319737517], [-0.2507598576247276, 0.0658149270980129, 0.10984133472886451, 0.054753276631866805, -0.1941563343402854, 0.022666429017617038, 0.2811625093908471, -0.0358372783346569, -0.14985230331869187, 0.020532819145502573, 0.6016793706402701, -0.38753351739619224, 0.0010675595603559954, 0.0863392591630339, -0.06639430357662923, -0.1452041930937129, 0.021673717791751666, -0.33690734697131836, 0.011597448962176403, 0.10832596330335398, 0.004413912620680305, 0.11580108230763575, -0.24154911061182976, -0.2992510368649456, -0.3404222885221474, -0.12495018783633458, -0.2236221687190314, 0.14771209824611922, -0.017791367356917148, -0.10294772210119411], [-0.15902808756957948, 0.28349185150225437, 0.08565332209647429, 0.2107333154535811, 0.027209345602928432, 0.16558753092362566, 0.18640665371424017, -0.06631881720232422, -0.07496530629177876, -0.011775014480330602, 0.022221220654091572, 0.3106442919668239, -0.07507936124539633, 0.11638818296735941, 0.10639215934215876, -0.017315140991692957, 0.07902337732143787, 0.13140305996446525, 0.09068386360862545, 0.07261012848388253, 0.052177836850031564, -0.015408093149703296, -0.1270450264279955, -0.13605523391269028, -0.1010615677335615, -0.29954175295975244, -0.021185892204143117, -0.3329808350832837, 0.31434170896452707, 0.03606646322719971], [0.1891430466854901, -0.19148434432245998, 0.018954289072555985, 0.0942819021300574, -0.14852287947793585, 0.4956000173723914, -0.39312213125963125, 0.022367551962479717, -0.33519051647223824, 0.2510106772893001, 0.22409151871832947, -0.07632861003381511, -0.08066592460001044, 0.11256846915504594, 0.4117748054789499, 0.04013503385396029, -0.20708772208520795, -0.3412091813068823, 0.13891165989155324, 0.11071791187269157, -0.13116763565751535, 0.2960572322682012, 0.21218620421569348, 0.23060324141577837, -0.10866884557573754, -0.3966184478399113, 0.11183426878531993, -0.3148019082993281, -0.10424223557775647, 0.08979639264785082], [-0.00915565706490448, 0.06991601662313113, 0.09415425384150675, 0.3116795437652228, 0.12487097739105005, 0.207439773524364, -0.4268461785609595, 0.15805438834887328, -0.02766746465086389, 0.004412754915802151, -0.18160487520262217, 0.022668430637094835, -0.18565136617961034, -0.14971944944693913, 0.1398428829969954, -0.134545374420535, -0.015444994099029868, -0.17053583870294284, -0.041925259415871705, -0.06321903806188205, -0.06914973974395845, 0.02497581096243362, 0.07125531701446458, -0.04893056831051682, -0.2406913391453344, -0.16820509384771984, 0.009468566305554028, -0.14921785119123016, -0.004457869749069839, 0.0664065024810821], [-0.29127765240988235, 0.0842844478550929, -0.09155940135346252, -0.08276106893509864, -0.3561574191795604, 0.024861868827412256, 0.39060658690214684, -0.0649711155155151, 0.13019180998911778, -0.1172452946507241, -0.056242034601873735, 0.18442182421089062, -0.1184303153916423, 0.07778757138516902, -0.24453980579736145, 0.29859199947573994, -0.0027807024073091607, 0.357378049188585, 0.24104778244852662, -0.060601161298093016, 0.30769526373834527, -0.05867304741716302, -0.15053205125903935, 0.14015293522888714, -0.03963219250527275, 0.10690386546864535, -0.07699764311086424, 0.31791711024895325, 0.32786781942128584, -0.1617940707813487], [-0.033637998373472526, 0.1732447336033294, -0.05637132057170375, 0.056107997927671384, -0.049238114434213824, -0.0006806652176740167, 0.12013827907219234, -0.2569908869284532, 0.2250857991895909, -0.09099818348285502, 0.016406820757182156, -0.07107496458126442, 0.006413602700980468, -0.14998858958339117, -0.20894587351355975, 0.18517395026177588, 0.09728639786097204, -0.2368942075430521, -0.16904375986687065, 0.15458513865242876, -0.007160362844937887, -0.08721615081250986, -0.03030119461519694, 0.03110570873766359, -0.0410769539302386, 0.1432830421050329, -0.25302728297582927, 0.08222710681638225, -0.08932425436180864, 0.08617599228002333], [0.09432953636361135, 0.2122170296832849, -0.25822375131995323, 0.043290325613071154, 0.13094650705060443, 0.24848556507069242, -0.036103122866224295, 0.09963876263673746, -0.020057946554254524, -0.07423271682420028, -0.06708492381310054, -0.13834444494682394, -0.09061754203611824, 0.17370963191709865, 0.050074957521231415, 0.05089370754261298, 0.09062288749817506, -0.04220830730482466, 0.21628754757068008, -0.12952520159436978, -0.058429065994868974, 0.23524132914232848, -0.05436835526852247, -0.22505219205192786, -0.1571697918406864, 0.14494367458978027, -0.022509366133259837, 0.03227167129654644, -0.007957903574114883, 0.14603495448690676], [-0.22431899069623007, -0.10483285275585284, 0.3365331385555555, -0.05092815965888128, -0.315245469414105, 0.11516725858789663, -0.05357522080671175, 0.35405022713003065, -0.0052615642236930665, 0.34259932785880104, 0.04325498170549133, -0.11125862461537317, 0.11512025786144679, -0.028679227054204746, 0.14596527458525255, -0.46970308163346, 0.13479228336796456, -0.05545453746825673, 0.21999806197304855, 0.17642653569647374, 0.34184969471007526, 0.22817669742272836, 0.04492816629809579, 0.03333087305622573, 0.08869300502408073, 0.2339922510078276, -0.031455047489631245, 0.1077713841630092, 0.08981170519931281, -0.2906062343160299], [-0.052208425121555116, 0.27832940101989734, 0.08363803380435585, -0.03362941689559183, -0.23031045238223255, -0.022861881346347833, 0.28559098409678835, -0.13698379698905988, -0.19428576761247676, 0.07615014102634095, 0.0798721442701795, 0.11309881269862128, -0.3353694096361074, -0.011018917704052675, 0.2915939595501048, -0.05638839861229588, -0.34676055360548, 0.25115133223334896, -0.3216065310321577, -0.14560857646699293, 0.12096389896512841, -0.3180725582714758, 0.00593893864876911, 0.13469225091338935, -0.3216886527000639, -0.18469574423114493, -0.008776925349489512, -0.16315681397221304, 0.23256169255794087, 0.021889616599859173], [0.5101628009288607, -0.0028548270830463553, -0.18134401372651354, -0.15264631971072623, 0.08596802902626284, 0.06151799954897195, -0.10237676180229474, -0.12595867456880133, -0.047760327042647543, 0.07507802992315335, -0.2520915830432309, -0.1264280562029639, -0.28728826089297227, 0.10362889866350627, 0.07017521319502448, -0.10821498632779504, 0.1569823430526026, 0.09483448499358545, -0.15479372966547728, -0.05626673955690178, 0.13032987155459902, 0.20022952757361273, 0.01095806599737446, -0.08562823962577737, -0.12475711669619056, 0.3756860770928539, 0.2899531048478356, -0.15911568524855874, -0.16099777456167647, 0.009389648860152484], [-0.3578558933209933, 0.12662522766255319, -0.04609841112688679, 0.0061161890855695065, -0.14542790759377874, -0.03383265764356023, 0.011166224713739355, 0.06474901358487851, -0.2015703800312009, -0.08365058462337979, -0.2128398101636217, 0.09661232461479718, -0.08154525516357149, -0.09777861681560066, -0.11049701254550517, -0.26502135187207215, -0.07865255383475989, -0.0881862358777605, 0.05735405164757016, -0.5176135756723809, 0.28273086003780057, -0.035064344954069966, 0.07720280466616515, -0.05177450290772512, 0.1455603409564731, -0.24569847131917222, 0.14368079478852544, 0.26257221484509363, -0.14417821374160913, -0.133192287532938], [-0.19286329270578564, -0.04884758097990525, 0.27329215707083765, 0.01937010827907982, 0.12441916797183082, -0.08493292584938973, -0.04992987370873796, 0.0475077683885177, 0.08100718960591886, -0.1423696463163537, 0.16002970731937166, 0.26911177176250783, 0.08276567901943128, 0.06522456280504475, 0.13262285153571432, -0.07851454208826826, 0.13007639963258882, -0.14913915425547108, -0.04178019963662872, -0.05307903032629593, -0.1349178622648312, 0.15448621413773414, 0.041907575573524904, -0.24851898996518879, 0.21713568875995726, -0.15542047108457263, 0.14281653807103262, 0.027201882440657733, 0.09941233495321655, 0.10387599734403916]], [[-0.3811833469013, -0.26023495399429375, 0.18943747242209932, -0.01758974997306194, 0.19471097074831625, -0.31174774652988296, -0.2621512935832899, -0.15340891232490625, -0.2771378673118607, -0.10368475046951214, -0.18023300595582567, -0.28010260185153213, -0.2345444223585444, -0.6209140844889478, -0.26405332986932495, 0.21171674128274334, -0.1182491579989417, 0.3357566098935284, -0.10168481758222217, 0.465886423890797], [-0.14561410644035858, -0.6408356126134779, 0.15277002981583337, -0.1547219753635244, -0.4054640215458071, -0.4832236692141052, -0.28040876171922574, 0.18556822698912834, -0.5326486061751166, 0.2917139622886776, 0.006034001796913137, 0.15521115942764702, -0.24455804056785527, -0.32463802981172984, -0.01741644374658102, -0.26183241423606746, -0.30538415139851854, -0.07564220502085853, -0.26336795156633847, -0.08423266746663748], [0.12741355062830526, 0.43844524289661835, -0.3936781343069059, 0.25976077513600926, 0.1108409105393341, -0.08116041093432398, -0.0834507176504508, -0.08972393044168761, -0.05803970236785325, -0.06961475364322432, 0.14970611314504925, -0.03210030215856834, -0.14556918727830664, 0.17947215145348744, 0.13517579830939613, 0.19670456231701003, 0.12159446070042114, 0.006469362662840424, -0.1540740855265798, -0.5287662492028179]]], "biases": [[[-0.8814603930952383], [-0.7502700585670941], [1.4494038881025122], [0.7790637944368499], [0.1653227932995086], [0.1442336297759931], [-1.6222325756518683], [-0.7626769136482623], [-0.8932662999235055], [0.5060414917453512], [0.40806146714032515], [-3.5966486015476513], [1.1633342290759583], [0.6622038935583665], [0.5045541487986811], [-1.3645981979599613], [0.18785680486932882], [0.5900927908376858], [-1.1910495943971409], [0.7017884680139509], [-0.6323177139348475], [0.6838810703335587], [-2.0955994340479758], [-0.9618218870810641], [0.5792278979668841], [-0.326185606941793], [-1.162247812132622], [0.08002396527571583], [-0.935482516186819], [0.14343864401428805]], [[-0.21057063546441376], [0.02180087379800968], [0.4905403076059141], [0.5647643938193356], [-0.09394749827299956], [-0.2018781220148847], [-1.2493875366986147], [0.4244396655366822], [0.5193755642072947], [0.1295318102789913], [-0.9038212797252928], [-0.587161573915764], [-0.39696818159162683], [0.6139194582511246], [0.277820464586065], [0.11606327705321355], [1.562469942248442], [0.09111404996351628], [-1.2789121266606205], [0.6204910347291501]], [[1.320927579688191], [2.8219717085570717], [0.7977756735358532]]], "cost": "QuadraticCost"}