{"sizes": [4, 30, 20, 3], "weights": [[[0.6902130327892742, -0.13082424454457658, 0.3570376375402153, 0.3326936184705096], [0.1107551462975423, 0.5674685962765779, -0.4877728894160049, -0.17937701116694627], [-0.07622452568016413, -0.3267738967899954, -0.3157409630215309, -0.031797527735221036], [-0.1437385779987077, 0.7559980552723435, 0.6630565212109052, -0.41411853202371945], [-0.1718850133539825, 0.3472905897913925, -0.40578026581043136, 0.0943055973985295], [0.39551767691715317, 0.5620637205666799, 0.22104510873706887, -0.17955873696945754], [0.30399941326677976, 0.1093270200253359, -0.16574362417335825, -0.29263399121995176], [0.8177539703851046, 0.008164376315887971, -0.255423374348844, 0.2748183429565498], [-0.24980181900498857, 0.5836607453579397, -0.12364434717328711, 0.18147896102781272], [0.48210508677915714, -0.27404640573864014, -0.8029226805238595, 0.2611826216520511], [-0.16445447071846794, 0.14275842872674774, 0.19913367052913977, -0.19302056976461862], [-0.6682057657817574, 0.02594316508413631, 0.20092508224246902, -0.47612993152941535], [-0.09186768338588351, -0.006518979537682966, -0.09356622219099815, -0.3102249873134739], [-0.34171869932678256, 0.03853218822309218, -0.33338844479752244, -0.39771137441539656], [0.13837427725365764, 0.027894179289926893, -0.3505363984979722, 0.6197067467202262], [-0.29511055416229587, 0.31501990587052286, 0.2790614658643463, -0.027227428816253226], [0.4463880566043374, 0.358562864776962, 0.1809535887128118, 0.24845346314453515], [0.08721128687782324, 0.18937802460986483, -0.2681134512765973, -0.07704081882763066], [0.5614353495196538, 0.11919346493880743, -0.7252435954832182, -0.4470144998012846], [-0.6311004706282737, -0.40543480750969496, 0.6119920649565251, -0.5375570338929015], [-0.10434609388545477, -0.4435666280094772, -0.6141332062955496, -0.21023243930818675], [0.05775493741558435, -0.039754895303026984, 0.10868069037511616, 0.436910262988656], [0.4038672513724633, -0.996440939144528, 0.5986674847665547, -0.26433978472751213], [1.0848654296396556, 0.2282784597529406, 0.3760414849400116, 0.42336214185037285], [-0.13568543294461657, 0.6024465159044257, -0.45139669940446225, -0.29761739324786], [-0.13551278729948646, 0.20832710641272606, -0.23955826206302935, -0.19642071563261623], [0.0944358128266809, 0.42158098053851245, 0.6281989033349825, 0.38055564714084456], [-0.259763828352211, 0.06926470427397402, -0.08511716941288486, 0.07510790040297113], [0.14371456540679683, -0.20484638792521254, -0.7549706298312555, 0.599302804364642], [-0.1264982865751345, -0.28543962325346967, 0.04322494757464715, 0.14723929858818302]], [[-0.3132019887419795, -0.3491842676432671, 0.014013021227659309, 0.01963161139464031, -0.27807518896306616, 0.0881210501458688, 0.08010840925456578, 0.08220619294616038, 0.11727698440268741, 0.02601056219070663, -0.02668806570984189, 0.03293651060317872, 0.09960520657836067, -0.14268830112126996, 0.20174176388197146, -0.00637399653004337, 0.3767167895350635, -0.2350144098177229, 0.2829295583905362, -0.14693907758924032, 0.1992039522919915, -0.06915993941939343, -0.06261823846392464, -0.0035675275766344047, -0.0005375100692273684, 0.05673327611613766, 0.11182772816721415, 0.21109638092025151, -0.11640301018928237, 0.03938151279539507], [-0.16137290642204705, 0.087056858150541, -0.3976059801768897, -0.04948028032833982, -0.013363134962586936, -0.09422767169699996, -0.11698333546043142, 0.043399212226209856, 0.33655560771731996, -0.065866774728304, -0.26637816495864636, -0.09723006730078022, 0.23100735401067496, 0.07971736542869201, -0.2552938593749326, 0.24544747908176512, -0.14376998042575403, -0.06563654550678594, -0.3844497224013285, 0.23156950211709754, 0.20341997604770237, -0.0009465346882552539, -0.12314130662756616, -0.20535109402784207, 0.0651279200215969, 0.10841675063467217, -0.404777746977177, 0.4070761523943607, -0.22627251254732667, 0.026922183175138937], [-0.1234650722008766, 0.23233613312002196, -0.06272151891701987, 0.14086358204142482, -0.12013428954409286, 0.16635824037558422, -0.05473973290525342, -0.10479256251661168, -0.07744839219798466, 0.19665412565731777, 0.10230149038331533, -0.11389679001900535, 0.1296697071522233, -0.10630327264033268, -0.04191956666585301, -0.31141269914103875, -0.08343333610719107, -0.06452845169933771, 0.4042974721480959, 0.001572408060673623, -0.3885587994592399, -0.20033342178133792, 0.11485902739308403, 0.10503426029346519, -0.02410479967597427, 0.13130235416461794, -0.054978297186134145, -0.07035560468446873, 0.15601084767971996, 0.09755336170452741], [0.06754473609497078, 0.09636820253387962, 0.10739566141979202, -0.24324417408267573, -0.09263242528317421, 0.3491425133372873, 0.0725797525139304, 0.011951498227069118, 0.158152911358276, 0.09333877315487583, 0.12721300749048742, 0.19892686574363497, -0.2737078483285983, -0.032108419900396624, 0.28503083081057595, -0.16745308063203862, 0.005307798233992589, -0.05378607380291708, -0.1926469996081295, 0.10466127093673962, -0.23185886877081968, -0.13549980401749942, 0.3697621509518498, -0.10260046067969575, -0.08017194954886665, 0.12982936217691066, 0.22360542649919743, -0.3229939059964869, -0.0638900592138255, -0.09997388483445764], [-0.13706025758729348, -0.17664886338833855, 0.0962494725440392, -0.31349949339665184, -0.3046654334933562, 0.2464210455977128, 0.2212291209323501, 0.0986410661617996, -0.14048674037037512, 0.5381639507632615, -0.02512625047192592, 0.14662749980904244, -0.004413042920369037, -0.029035001229990032, 0.08583719749402995, -0.08103047830182382, -0.20002234577295744, 0.0017132304214567005, -0.09755539720020379, -0.09829314131660992, 0.24909336341566357, 0.10009187834315664, -0.027446237452242953, -0.12562751157056523, -0.04626581875427089, 0.14111121356673917, -0.0866874677809846, 0.08364757843453993, 0.015455067352704945, -0.3409381743393795], [0.05876225103520414, -0.03092868223306097, -0.44590880344871814, 0.03559147591582593, 0.10216906705964746, -0.012105132631303084, 0.2789392768275431, 0.3065107887618773, -0.008028252870759712, 0.08903811541296648, -0.2560743078921803, -0.19144313177648517, 0.0011348539984150717, -0.09193821559249626, 0.04456438189853765, 0.35830573459965315, 0.032100816444187455, -0.036493705812807836, -0.14803427981030487, 0.028263618829233374, -0.13579035125778094, -0.34319239532701656, 0.05378829005093726, -0.1005251001862206, -0.17783227998088225, -0.09523937778040997, 0.1282363707682111, 0.1436345695327516, 0.024311691919381647, 0.21453748165921047], [0.11487507346601518, -0.0531519798791571, 0.06984515184870622, 0.33083390907340926, 0.20677853578843902, 0.17152499610848995, 0.25997721239147487, 0.20216401950789323, -0.17398922669411346, -0.033640331137217455, -0.35252450556705844, -0.05526504709546546, 0.3082121722314112, 0.13246391377414166, 0.03422482173432123, 0.12953143793496846, -0.039667187425054075, -0.10719498721916934, -0.00965716776643685, -0.002101983516559731, -0.300245361725085, -0.07324307815545603, 0.06241983371266606, 0.181741277095156, -0.1781512497410226, 0.14466749286200145, 0.06729446197803289, -0.05889167750325815, -0.14314607040023197, 0.006810479453092106], [0.19805625909923968, -0.037944568717945396, -0.03159741939975602, 0.17181578410212214, -0.01900635223680078, -0.13070996506036917, -0.401752293187913, 0.010015891968242166, 0.07868293087410384, -0.10703827504982745, -0.186322081152704, 0.17896774137959168, -0.15724207913775695, 0.037148972073169396, 0.041244161827646675, 0.1677492154220729, -0.0948397316945819, -0.029573425924206604, 0.1311411106270251, 0.26618588320806125, -0.1330669267254709, -0.0016881030313486605, -0.15619995309856846, 0.14130350954626372, 0.011406827881447583, 0.2478202334087293, -0.032709132818124334, 0.0853555003960912, -0.0625970335797973, -0.1580337505839045], [0.14275252838972044, -0.27344041834142063, -0.0008457745205105372, -0.07419790342071818, -0.18922924101200073, -0.02354894016457051, 0.08506443363920321, -0.23083990680314131, -0.1339464104740432, 0.28842616573532204, -0.10761708450951327, 0.03393932329172845, -0.167128658335922, -0.03659614222550947, 0.06314497476222156, 0.05117750278678046, -0.17109271403594548, 0.3180764706997745, 0.14882140185343315, -0.10279451003433948, -0.06855917417789022, -0.2380238576275195, 0.12359220409557593, -0.3540303984232804, -0.08868098807190276, 0.23671096187781382, 0.09115677514228654, -0.1640214894477915, 0.28890164680798586, -0.13488695701573195], [0.06187325076226137, -0.0555248890561486, -0.13607916189464195, 0.09049531229880739, -0.16991171049942558, 0.22067878531967558, -0.08015868439027803, -0.18241979254187182, -0.09118903207789247, -0.11564399648260762, 0.2521129069075749, -0.11919467165171439, 0.006168115620245877, 0.12464395064059555, 0.18273367670122237, -0.1718598604641407, -0.10720672795378547, 0.0750937979568097, -0.05250606511526853, -0.02123821521300157, 0.10947316006607168, -0.1427078293158421, -0.24530639893854145, 0.27840178205310834, 0.11480246174251833, 0.08155721422264114, -0.18457880832951953, -0.19741624115197895, -0.02948277728786566, -0.0687383859816309], [0.12054678182228243, 0.1768735675138373, 0.07650028217096055, 0.2391564029311712, 0.17792638935114163, -0.19420223514012946, -0.06414907674246459, 0.39270049058423406, -0.004702569961183501, 0.09867615794803986, -0.1565095274713526, -0.11967189382029393, 0.15265100556022135, -0.2041582298798405, 0.055211137556483575, -0.11443233468420463, 0.12771103006560455, -0.15464658864538408, -0.4168152943374446, -0.016487676300001506, 0.05716039991898244, -0.20445386412453842, 0.007365113946014816, -0.2777455664334854, 0.13635067726655567, 0.016382211340294644, -0.07026765523888573, -0.19146736796807703, -0.16553832439950109, -0.18751560385736327], [0.2292682811839274, 0.15293269677687335, -0.07115645412818078, 0.3626870693330497, -0.518129170056558, -0.12378700958709417, -0.2309054934023205, -0.05633116405532293, -0.062058702979699995, -0.15146462153502027, 0.01692335182259728, 0.10274382154281939, 0.16533646861598847, 0.17784744180237094, 0.07872505360765243, -0.27446397667508465, -0.20780134403411452, 0.11592802821422747, -0.19343577168647125, -0.19862723394465193, 0.19466844212379916, -0.4509341320907998, 0.1538240102805252, 0.06708972311498862, -0.21673764642728763, -0.06693454103786663, -0.026478315237286387, 0.13104891003531427, 0.18334764124145628, -0.007936985717474898], [0.4291360442298053, 0.10470228919026038, -0.3307511949651948, -0.1466807691622627, -0.11178302394248098, 0.17963004360182694, 0.20024484676070173, -0.03806412170355329, 0.09716219664078676, 0.08579821747437721, 0.1523648227701924, 0.1315509650586754, -0.2486114130665787, -0.19098660830533934, 0.11073061310888414, -0.194094911579211, -0.18883606532408054, -0.0007998240135540064, 0.03179025573046457, 0.2117877988182596, 0.06282865302441624, -0.36054225025931325, 0.06078577939789355, -0.16507049172659913, -0.13814619790297059, 0.10092559857486161, 0.32615473001467926, -0.08869171444404077, -0.17138980170996612, -0.21702370181339276], [-0.0511691675180288, -0.014771217630312005, 0.09246755150864014, 0.22311820896044185, -0.22985524999531243, -0.3203181335019738, 0.33873359675729864, 0.29002473040997967, 0.09712283964553406, -0.13814285510279026, 0.09307862083410948, -0.0020711127848656616, -0.22215950530034453, 0.06284441359270539, -0.1467476579825311, -0.018059126196107635, -0.06102244921880307, 0.1282239176111054, 0.046706942042308096, 0.14248893904899826, -0.12113867382851999, 0.018246131144830494, 0.25132904461978295, 0.2065865204985836, -0.16875289937785062, -0.3398893618187983, 0.06228038748222138, -0.12472997479050853, 0.3128001961075053, -0.01386946438348722], [0.11636758713945611, -0.3939188208936006, -0.2650305837418617, 0.10217925573175698, -0.022927580479673967, 0.37112991321531796, 0.15062653191957934, -0.08753295854365623, -0.38740541641492005, -0.375122663809559, 0.029106774022492135, -0.08707052357199452, -0.34489163499042674, -0.1706798521200788, 0.028678142469344563, 0.5339329419510006, 0.14661468519161353, 0.1977692273942539, -0.08085687876874774, 0.027109042062601556, -0.09067449008640975, -0.4219667276907657, 0.19886599205046052, 0.0953876199574425, 0.17560573469385435, -0.03117825713138859, 0.26689186402258236, 0.24129740752051343, 0.3399422811848343, -0.16804298636381154], [0.06174850009731122, 0.022253958648603377, -0.19597672719537132, -0.06552019274429992, 0.12320434967781813, 0.04831192958458017, 0.4298519052953194, 0.036484028261345364, -0.10745424311354025, -0.13966045699752008, 0.3269342474617152, -0.10731343656774874, -0.37529489978795205, -0.24227986829229303, 0.09802677923525968, 0.24213001632771533, 0.019366874476548813, 0.34603324603927016, -0.28048409713706146, 0.06298379489404561, -0.11585048207120446, -0.060758204172184284, -0.6119979203855683, 0.1706506410528786, -0.0027874439446367904, -0.15475271185900402, 0.39977724953089117, 0.13558868785315267, 0.34937019045535117, 0.07117931261319475], [-0.033616924692319985, 0.010110682743272089, 0.10582021710547594, -0.2743195721228212, 0.25745026647320585, -0.1367349065307608, 0.30777749148670974, 0.13042644544003892, 0.14858858672169856, -0.08253820001082635, -0.033734576877114994, 0.22246611165196753, -0.004933776827532643, 0.14361000313902966, 0.3116746398485454, 0.12447067791386726, 0.009225797250137028, -0.05723893922676338, -0.2684232830540473, -0.16110746696398143, 0.04756339789839441, -0.37444073604569483, -0.1973012150437441, -0.01735921448999076, 0.016215142100088537, 0.004471739517171677, -0.2498140453926882, -0.3105434821588053, 0.41850718195196474, 0.048369301620723844], [-0.2545918691321977, 0.10864016488083209, 0.02161824138925186, 0.055924762302143965, 0.2657849290465648, 0.21584076718668832, 0.2733614047163576, -0.1879421366397634, -0.012320411792497534, 0.23331663504812378, -0.23057546335741871, -0.28732797021554424, 0.035042738372011877, -0.06856932926521409, 0.29182280089971185, -0.04056298500317816, 0.014406218310298875, 0.07972964355214943, -0.17835963328293447, 0.15340599846426406, -0.10203478944609123, -0.1935731504683876, -0.14890964483901567, -0.1241649443810041, 0.14613722274960242, 0.27136216169100175, -0.033117005745696704, 0.09682231084751061, -0.14403427238338376, 0.10713125904626535], [0.34580850032165833, -0.042601848709102934, 0.2796521895603967, -0.003243688737298885, -0.1322871589783584, 0.040243776704454594, 0.1751748480461943, -0.36769911529004784, -0.013138899177903887, -0.1387357410910086, -0.2055595949906411, 0.23949004784106928, -0.1814145174606214, -0.06970903165992966, 0.16538184300919456, 0.016065643887813813, -0.07002794924870531, 0.056936020358338925, -0.1291351342752262, 0.19276988927031197, -0.2613907308738963, -0.21929755851179467, -0.07038244343605987, 0.15300151405900078, 0.2162976270111758, 0.3779218213257677, -0.02304015838869749, 0.01200567783826656, -0.08284937091018205, -0.07462238034998236], [0.13219610446856903, 0.01923395428367729, 0.05242851323107242, 0.0844674492897212, -0.09736228292586789, 0.09590432597878108, 0.18978218872265207, -0.2405256667693267, -0.10461977524892047, -0.06972596176131818, 0.07851648916694669, 0.27068444814643255, -0.13485608867130428, 0.02633527306899092, -0.2423983970614005, 0.05849773788654276, 0.08050830848265281, -0.0886486044491503, -0.3450543730606896, -0.0650164188160782, 0.10497883999203916, 0.06006921223038631, 0.18441285208300703, 0.22556256380368916, 0.00546888669985976, -0.16552309145086685, 0.022783630284301925, 0.08415275033121686, -0.14319327926614922, 0.007515293136782754]], [[-0.2717241739022124, -0.302137408180893, 0.1151387237126847, 0.210714322938977, 0.18169667046581353, 0.17100935722177513, 0.3759257729845177, 0.19945111679748162, -0.2924894922772709, 0.03384978531790739, -0.43875355236611707, 0.15599474411408507, -0.053537972429830064, 0.1653798867168087, 0.3098514944881923, -0.47905663285532046, -0.04689673308642001, 0.06503585352133992, -0.00856773047645792, -0.04519198545974718], [0.1472478597971407, 0.15259098713688526, 0.4220645011713899, -0.31563775797698107, 0.4978753359799456, 0.3599950090504922, 0.09488350922356291, 0.4986026948979808, 0.1180308590349829, 0.3510338401168889, -0.5541318678841202, 0.0979310439667043, 0.4999600868502524, 0.14572901372406172, -0.2533867865982443, -0.13736849683913355, 0.12378319502954593, 0.16909115046617382, 0.7529776010512814, 0.058799159317889024], [0.026500589976440222, 0.019310102706925895, 0.016501311946029246, 0.1693669124659508, -0.17598103976298837, -0.12365341811869554, 0.37160307833599676, -0.10435043730194715, -0.3194284437750657, -0.007472466370243676, -0.08390722840458917, 0.1406908322487972, -0.3647606234746233, 0.07545723948404486, 0.25695809234812583, 0.4059028293873695, 0.21358639979893806, -0.1145609125084921, -0.02254125304905274, 0.25855219794787515]]], "biases": [[[-0.32000870720656216], [1.0704194357490564], [-0.13955345594220822], [-0.36380937279070086], [-0.4178915844119216], [0.8923490879052169], [-0.601233217725856], [-0.49819577471722243], [-1.2923535291504828], [-0.15446101419116], [-0.9121039692930241], [-0.4949453963760538], [1.5878093659387529], [0.8193848574754112], [-0.24427187877120113], [0.41925544140679893], [-0.4767831460953134], [-0.47329919712996316], [1.5569762516837655], [0.21043527544174423], [1.8924086334297725], [2.0370681668795108], [-1.8070550174635664], [-0.3024466519708584], [-0.8780938514330882], [0.8267377978540118], [-1.4497237747327212], [0.2842914034596554], [1.0984717975549427], [0.0433247178721926]], [[0.2012809436126501], [1.2518559105603106], [0.6921374346084999], [-0.30331877511133626], [0.15593204915001596], [0.32177727183574767], [0.44224078149974816], [0.4729388723584648], [-0.2691317543540133], [0.3931484735466841], [0.08236005153412766], [-1.2399747164898858], [-1.315146849265392], [-0.10133505558642747], [-0.13587187974179107], [-0.6216682529794594], [0.8921845533061752], [-0.4440813031854613], [2.1092459355458892], [0.41180824911970465]], [[0.39869920767095174], [-1.088835770229458], [0.16374322268470656]]], "cost": "QuadraticCost"}