{"sizes": [4, 30, 20, 3], "weights": [[[-0.23397077250342577, 0.3167544388844729, -0.29047431983319527, 0.41173098090469024], [0.2621855763956594, 0.9325391234906731, -0.24733760601611526, -0.21382642580307704], [-0.6915215338368023, -0.4348975210157263, 0.03947862352864417, 0.5264213572697126], [0.7164798151136256, 0.012713333290759986, -0.9621386791215298, 0.5527034407784684], [0.7575732132574283, 0.30622441434813374, -1.0042236056240874, -0.5699143756707946], [-0.7327103494601489, 0.07969760116691381, 1.0147625978716657, 0.6179993568171652], [0.3093025463841973, -0.37180401824443104, -0.04841680872706054, 0.4507469544728975], [0.10309332757417834, 0.26244837292692913, -0.40932262189168733, -0.61636547378147], [-0.3493039317433826, 0.19550973415217635, -1.0036625017253036, -0.13816062885659425], [0.7111280014934016, 0.3793721651198143, 0.61136537456325, -0.49788447435497973], [-0.29893326713732277, -0.37352326520124823, 0.07501294991708896, -0.2787468101231226], [-0.025986453883258903, 0.4009266531628296, -0.24513492536918915, 0.17123077728509756], [0.2007868903906421, 1.4105686595770865, 0.1760304291062516, 0.43449940282448807], [0.0834351864968547, -0.15323391552380547, 0.24518287757730897, -0.51836557320941], [0.6369810818449947, -0.4793394791649419, 0.22795916463163432, -0.19191006215937031], [-0.36829738896287606, -1.1245081048761323, -0.09637535305493522, -0.9934658568651221], [0.5893081413152624, -0.3269402850370074, -0.23500514362304153, 0.02699364603289764], [-0.285708648167903, -0.5791047922826587, 0.09314843001488264, 0.31615676829537576], [0.08961509279911001, 0.529910627418772, 0.16385493335254295, -0.5823186719653906], [-0.30871092402871053, 1.1723371953604667, 0.8594793543262046, -0.26736102538720463], [0.5419924237385921, -0.5948207759313975, 0.36007435987074937, -0.09098406138047903], [-0.09038570775039825, 0.15284006756158686, -0.24956493963953488, 0.18027674242925182], [0.05588925627586393, -0.1276802992037677, 0.2992376468272009, 0.0745155805697996], [0.30858695669388, -0.43845385636383966, 0.8308230926271352, 0.030973557470638517], [-0.3032116238445017, 0.14668681956543078, 0.010798176073446684, 0.013790098059886229], [-0.07433431271357532, -1.0839132245668417, -0.11105492470831624, 0.07826352167448866], [-0.7882111283532626, 0.22208534370901034, -0.7091490302573584, 0.054385244424265275], [-0.688538558255723, -0.8480402967650827, 0.4852575515938722, 0.28960711040370635], [0.4118804459135372, -0.36909259190903965, 2.1905402840817243, -0.6182760260183108], [-0.18810821524177213, -0.4526980369621162, 0.4555636445658107, 0.7256108974835096]], [[-0.11344532560321866, 0.05564388953067866, 0.039090484878278875, 0.137727834532591, 0.16633786581529783, -0.2801171301384986, 0.23772968440240905, 0.211084910030435, -0.23329696330025734, -0.10251524378163214, -0.26591772206478387, -0.2493933481747048, -0.06891195244353916, 0.06530088543570169, -0.08207104599860414, 0.030090122094352, 0.21454254130849848, -0.007483908063180554, -0.03779624309888083, -0.16040241885492237, 0.025685935256695828, 0.024715776510881072, -0.09369648312038326, 0.252811894088698, 0.27765108064643035, 0.1486186714700227, -0.23661388109246112, 0.05964470699700734, -0.06390045662175639, 0.2239521798388947], [-0.00513099065142743, 0.008714347966229944, 0.0039051521842910918, 0.1509261828138916, 0.26405228179654866, 0.07534497323410533, -0.054997588576472266, -0.08314097685440106, -0.00025584342500113396, -0.1415881822050866, -0.04030673081760734, -0.22383773335197935, -0.2621037722104412, -0.011394446835662786, -0.045055345713677294, 0.2149133784324069, 0.06763571957322546, -0.0612055618750775, -0.29354523630547746, 0.04420681610396261, 0.1330048300978183, 0.07950197363991282, 0.0946520229722183, 0.24407822634291482, -0.33369183071679803, -0.07940256106302403, 0.0783984283970688, 0.1749467103237007, 0.06257729077316068, 0.21738741774524636], [-0.07544681585791961, -0.5664253988741325, 0.46411905522822244, -0.09949535251369575, 0.059237694785054786, -0.00031976538387763846, 0.10728420275846999, -0.11273485544050232, -0.2908865443525638, -0.16578462303233704, -0.10122997437554385, 0.15425055063713722, 0.2573761628674759, -0.16496258973786962, -0.11795539464534638, 0.030888129776102287, 0.22694206723130064, 0.2847803010852419, -0.12702684198294495, -0.027506193002971416, -0.18995611276137472, -0.018493736154809, -0.20007400087754967, 0.13585028616632042, -0.0471951468493994, 0.15671280336345955, -0.170877734322544, -0.07681365621961112, -0.11137804384426428, 0.06649587451027476], [0.09395929057873, 0.24305430453743054, 0.055275260753375424, 0.08064630201238225, -0.062269893999695604, -0.07349377465427204, -0.13242896820118608, -0.06685310662388595, -0.04394337646291932, -0.39540813593532814, -0.08293641334421753, -0.48407396791188606, -0.3751176447386995, 0.08891885163296886, 0.05885105130145139, 0.09629492183345649, 0.02905214126442477, -0.04353610226916088, -0.017674021421559404, -0.025720716142190965, 0.18327336972627775, 0.039756732660919274, 0.10593687058684827, 0.03654224268294617, -0.17050474239922556, 0.18454741625963356, 0.24459478445641628, -0.2386071736445362, 0.2991022736577735, 0.12108328314208978], [0.3023034638039691, 0.0009197835261415106, -0.07342917808055602, -0.4092740703135953, -0.3619165862892142, 0.008354851317453052, 0.026851673642342862, 0.031439105828516604, 0.002518364899456241, 0.029497805265707226, -0.28616572642458543, -0.12148293080932099, 0.18256025986738858, 0.009574613442647126, -0.10199036643169472, 0.13779234544121888, 0.018517631905593367, -0.06377529047892343, -0.20819853924355058, 0.3084410752361955, -0.12430420402263775, -0.2705223804446781, -0.0034802833384739496, 0.13668250107779684, 0.04790128166648858, -0.15811563011914928, -0.101111116815119, -0.2735696616961279, 0.14957555107170112, -0.019018931703542023], [-0.43458336413779847, 0.031143389720725455, 0.14625176712774549, 0.05728021196576722, -0.016162214376826335, -0.20482754938167644, 0.0957744232305677, -0.2892860560145105, -0.27828985987365323, -0.02524902987264981, -0.008994409535899183, -0.1594100888095617, 0.01901907373982285, 0.3039030272651109, 0.19949518244458386, 0.4119658605942365, -0.3988671346804897, -0.03680452398673749, 0.24963274167429159, 0.11272263698464281, -0.12644815326313075, -0.34473269370136017, -0.1526885295522867, -0.31439017375342215, 0.12564251775300503, 0.1077945649600334, -0.0724818932504734, 0.39236995744415315, 0.21565175884202284, -0.20998514657375045], [0.29010425635603243, 0.07872496466396393, 0.17825724736077048, 0.14581737857395144, -0.2408097982453756, 0.04717885047781215, -0.11276816411980081, 0.14165220795978528, -0.11755420226017077, -0.3081776580095426, 0.08141095085179366, 0.13980655703040182, -0.13580505136337762, 0.2365612991182679, 0.10868662036786261, 0.052621813593883, 0.016022870779007103, 0.16931996851368813, -0.09760640399529391, 0.10731222491526883, 0.12812987665702338, -0.2576885367602684, 0.08760664928367512, -0.08677175106520248, 0.07611995842001892, 0.08806210091187569, 0.08801554246593513, 0.17638016361552664, 0.19015551568329084, -0.02082418262852474], [-0.024334551557803865, 0.029009544153676126, 0.07202711361395268, -0.08339677893625241, 0.1452716001329174, 0.0829700373064945, 0.28588794147639085, 0.1934432027224613, 0.001264312321128886, -0.2793536054876572, 0.4035177171391002, 0.1580343605470337, 0.02199911229699026, -0.21447897941271976, -0.44162228551326466, -0.18010301691845537, 0.0932628623717157, -0.5185636532614946, 0.21300100565369692, -0.12310368204322644, 0.3078184858924264, -0.2257703576748205, -0.07944020033154563, 0.10458283766262677, -0.0815561598764981, 0.02825568863215846, 0.0729034239483959, 0.033418095577369404, 0.1503963872633116, 0.03485443275762706], [-0.20446249447795822, 0.2864270562701531, 0.1375838876829708, -0.038440491412111484, 0.03917793606913719, 0.09067908518331359, 0.11910746053489618, 0.06822655784289004, 0.02494471526203695, -0.2681757103071235, -0.18794044569716273, -0.10877938285491429, -0.02104001415485048, -0.2284614133903834, 0.1710843611640139, 0.07411170241079204, 0.003308798276148247, -0.002607107729885132, -0.05687468075267044, -0.1948693023504955, 0.1317989308902331, -0.20807608220175566, 0.22650269074368667, -0.09534013240420201, -0.025210037507600012, 0.3218866077278593, 0.1962485202743428, -0.09976711150517578, 0.08291519889268856, -0.08868225026330699], [0.1580459812392895, -0.1392538636661519, 0.010272909135558944, -0.0863239376231966, -0.2184888960294402, 0.09135688324228217, -0.21462166008344835, -0.2933865075560056, -0.09472807915043749, -0.18338348524711232, -0.19810015448654883, -0.2016880370167432, 0.2007579873961286, -0.19416630441637106, 0.1649154086678945, 0.01213323802943613, -0.19823644946647181, -0.2831905387288359, -0.0016627657087179928, 0.007267074130239157, -0.21972419203776777, -0.04536396561323834, -0.15212325169977456, 0.07575709593084322, -0.07700907513740848, 0.0631365367507933, -0.2560315234644438, 0.4020240612319192, -0.3027919365594839, -0.0920328168609188], [-0.10526091356814557, 0.2935021772800596, 0.04620976373870828, 0.2918801461856517, 0.409270656428127, -0.172782128172968, -0.2900229503811199, 0.32084678935463995, 0.03955658062306039, -0.00919857498818301, -0.15293914680110982, 0.07133513056726631, 0.21868590022745005, -0.0669916697882448, 0.0673806299712068, -0.016942971767036047, -0.0488361512523454, -0.14760310625125841, 0.40135816737577096, -0.2150414385608161, 0.439566058097112, -0.029015516834232896, 0.0761055859875844, 0.004203995417039528, 0.09865400932389991, 0.04296917874989267, 0.03985692591413882, 0.07666415778104514, -0.07291735581845413, -0.2610934336551474], [-0.10602629468476651, -0.13003332403625878, -0.11203046987131371, -0.10531085242928012, 0.07664619971795823, 0.29051775715232486, -0.21632074321050995, 0.26872530849931453, -0.12313326007373207, -0.1589404508448584, 0.22411861052922866, 0.074252653669548, 0.14403096013427857, 0.11540614674886446, -0.05606254933943806, 0.1774455926031962, -0.387089895498315, -0.022156297354700955, 0.027635175044564676, -0.3551194249248588, 0.0827036227979407, -0.22543385329510504, -0.18175831166327233, -0.10831415917125194, 0.30391053685224123, 0.21112698094857296, 0.0513787409846582, -0.17392555333365575, 0.14557842426323778, -0.3387985718185603], [-0.20199232512792922, -0.49979259998095943, 0.19637514132209524, -0.058507794259001746, 0.11257807297036364, -0.04238076083269249, 0.10732621936859085, 0.002535069457547483, -0.07466238775399364, 0.24964935482708814, -0.05293862105947668, -0.08805879351016847, -0.25328722104916285, -0.12634930197612754, 0.382945546051688, 0.21664761567291557, 0.034745288139442866, 0.2651884414947477, -0.1070669599210187, -0.02664173129441325, -0.06708146395365809, -0.05036318716044523, -0.05858775415495371, -0.20010725455757541, 0.028781789069242305, -0.013652009763722783, -0.1902043638698776, -0.16900142792392675, 0.14489451462370756, 0.08139842533870821], [-0.1166306298655649, -0.21862756516433382, 0.14366051799288254, -0.20634582333653478, 0.32386434601665876, 0.014550924551841269, 0.08440500223507101, 0.2239047502132159, -0.27036952453225926, -0.14220620956123184, 0.1849939165439987, 0.2894266438919388, 0.05353208304259466, -0.2080830068212227, 0.23953992807545268, -0.13991803567775166, -0.3701157059007825, -0.2795004547175659, 0.09136380190397951, -0.16863382397321394, 0.1539717581205166, 0.12895980365995496, -0.09815238420594884, 0.0914448237868187, -0.19193689266494635, 0.1288208768785357, 0.017651388724600994, -0.30761517395900684, -0.18179096145278317, 0.0884539615946223], [-0.03418732391644311, -0.2505561676449286, 0.20403919739166124, -0.05121847622733494, -0.02490264230069253, -0.07551905913294471, 0.04480378013962424, -0.07223666407476746, 0.07568432549068618, -0.27746581572470363, 0.1839030553863807, 0.09439631132906931, -0.14267678418208304, 0.2607807432273898, -0.054593518184827196, 0.13163245159908202, 0.19358348099756037, -0.09890513522739934, -0.009485557251553575, 0.04948828581197045, -0.056936369766619886, 0.2641990862669682, 0.10293494982806198, -0.05853007827033242, -0.03713772457032537, 0.10803628493438815, -0.3223673196153133, 0.20950052268760538, 0.1838352287719074, -0.3514439189942574], [-0.36352911707191066, -0.23585380121411223, 0.2366021855880732, -0.39849044138023054, -0.04881955168061772, -0.11216351079359373, -0.01515881361320329, -0.08567425278794076, 0.03782509059188398, 0.03499551678196952, -0.00803400582530316, -0.20462603187802453, -0.041413743461128125, -0.07834591962423758, -0.007711201766668628, -0.28108769994487875, -0.12569510083762436, 0.030625543976016956, 0.08785824734861561, -0.05476691910374085, -0.036825490418790484, 0.05242364122397089, 0.023720278057720732, -0.35376416391643634, 0.34403565635905214, 0.2945855459937688, 0.06637757138655707, 0.215380327295394, 0.04505590759421639, 0.058787453244667005], [0.09154446049960202, -0.011197497275066515, -0.018392323571238527, 0.0608161372209571, -0.00651430914914603, 0.13666551605041125, 0.07961763028248495, 0.04807205663472362, -0.0259659878161036, -0.2040694234181296, -0.011431902274695566, -0.08116681367661961, -0.20905740539268788, -0.04113509028618428, 0.1428536038857265, -0.004770662058074323, 0.5193985540023837, -0.10903616303034254, 0.19059081556528737, -0.15131544491473636, 0.06081119536449324, -0.2031711043537292, -0.29892175194356274, -0.23748696184711943, 0.04671105360478437, 0.12649728122748863, -0.08033357045082706, -0.194492306134415, -0.2674641777638678, 0.1217698335386317], [-0.14219484376287925, -0.22689293861869372, -0.013031676218388778, 0.21488868513393491, -0.17162906599075983, -0.2764868769379181, 0.13986999186649374, 0.18186265888480282, -0.04258751129789742, 0.29743030587242925, 0.3093128219457366, 0.2714617753063709, 0.07434196146993495, 0.11990561119066295, -0.05572083532409096, 0.04680611190067659, 0.0015493812851633461, -0.010076374465152946, 0.20789382636353468, 0.0003866604774213216, 0.38621089467224584, -0.09537634728491144, 0.24407609809516828, 0.0474518740866598, 0.23855740513848794, 0.2025820259832597, -0.3674648294107162, 0.01004370824209677, -0.46295322272538064, -0.10835504681070357], [0.020249184523453208, 0.22392633592954433, 0.2852857264723375, 0.013225753577718125, 0.09086600987318628, -0.07102862505747728, 0.1827339998330576, -0.21134989557934752, -0.05080771001664567, 0.022377520404094183, 0.2787424273691878, -0.0634134370555519, -0.021728731760714222, 0.20516295399098955, -0.020681286431392845, 0.04091108570587149, 0.2061511502923324, 0.10244512722089065, -0.15061539388534154, -0.01056699354484004, 0.10528968760638217, 0.10227803196362084, -0.31089383098977086, 0.4194298458502092, -0.12580745347453967, -0.10380061094220373, -0.4477621266672606, 0.10778602275602275, 0.34210226981418124, 0.10074608786520986], [0.04909925828208595, -0.2323481314292711, -0.49320998544161365, 0.026535218324045765, -0.040950131756789215, 0.1174135340369655, -0.04018098003002676, 0.0006120184398247707, 0.16727106006116577, 0.29785690994413827, 0.15830170708633312, -0.10614694692640193, 0.2841433211933382, -0.14216850339487763, -0.19080809054909711, 0.49897025726817673, 0.20625529193066064, 0.07701520708825818, -0.06874492791921158, 0.037159944447102, 0.2840815635045511, 0.17053065629234612, -0.10958036211451369, 0.1153610631698116, 0.12867803374934453, 0.2469068296641767, 0.099531719364339, 0.08823770719370846, 0.37816263056626787, -0.061342072396838906]], [[-0.13406519123480667, 0.30662932127304754, 0.1605724043145018, -0.2852091607245761, 0.34859544325904657, -0.2597864515815105, 0.281839361522442, 0.18974638955109396, -0.09110211234801642, 0.259406201853875, 0.0890427099325166, -0.14534301945946884, 0.02079406949202526, 0.09892018453006744, 0.10156048577397624, 0.1638367512894223, 0.22466891212471024, -0.18131821585515917, -0.350325502381088, -0.008446656898312196], [-0.07316834979763687, -0.21951099685765754, -0.17882381810225134, -0.18408261687675675, 0.09620393080153865, 0.4512860363101565, 0.04605344560528976, 0.3286597828814684, 0.09600207300258895, 0.35451335022202807, -0.011736553080295593, -0.20304253641417228, 0.066002358408398, -0.047459903351019496, -0.3113874738915134, 0.007145772101336282, -0.09517792076930734, 0.026864221885486064, -0.020447670209020576, -0.3123079520991017], [-0.14622255066664733, 0.12601959669574664, 0.2946435342517789, -0.4031447215955068, -0.38023942006037226, 0.13303802984028712, 0.31851903748163796, 0.03218820479725929, 0.129781694480169, -0.6665577440410582, 0.1892345726480027, 0.21607074150396144, 0.08064198876259811, 0.0470067580487835, 0.5170509093028904, -0.11216116687091457, -0.039877724407272074, 0.4480175293445004, 0.2755587123370298, 0.17867908745721903]]], "biases": [[[-1.1521564880234672], [0.8270326515036692], [-0.7998961786810224], [-0.3034342614846572], [-0.7975809157689592], [0.7527908143218875], [-1.5183633140619557], [-1.334241529973538], [1.1716916045452643], [0.40914128141880823], [1.2201255801361486], [-0.2779332940229411], [-1.1928817253450699], [0.6641459549334382], [-0.003377234284147176], [0.9860391225905659], [0.7594266015333777], [-0.9189868304753515], [-0.5265471117114202], [1.418570749847589], [0.19053079841490575], [-1.0945816024986252], [0.26456258146424794], [-0.00695886833684277], [2.495009759445594], [-0.22142911029485368], [-1.5373430532383685], [0.6065419353392275], [1.8001856738203221], [1.2038866859893214]], [[-2.69199834526971], [0.608004271191282], [-0.21255341653198956], [-0.7329021501045697], [-1.0565825091380772], [2.5348231644119497], [0.6359038411135111], [-1.9096650802188688], [-1.5996984744172356], [-1.0778207895359706], [0.07687082393629774], [0.7383075593427525], [0.6779287105398245], [1.1116424474388327], [1.223589784139511], [-0.5791071250325576], [-0.11835824255184041], [-0.8133282452826133], [-0.7423088006618409], [0.7922151368767804]], [[0.24927173929983268], [1.3244273042449208], [-0.7526201947128905]]], "cost": "QuadraticCost"}