{"sizes": [4, 30, 20, 3], "weights": [[[-0.5765470739110182, 0.8930998245582367, -0.0177243680212161, -0.05469151390963948], [0.4117150430242351, 0.309111965456501, 0.5765877917007323, -0.32454562204647497], [0.5517174821654169, -0.90569289417753, -0.29580466611724615, -0.9850264528977457], [0.0987109182081818, 0.4036198333274285, -0.13350390212342467, -0.11088971354630382], [0.4235871676828965, -0.22306766364274838, -0.41575262931422924, 0.6462396279271045], [1.0525001819880802, 0.46400298066645523, 0.28865724463124937, -0.7019476023981054], [1.174145337822818, -0.6703653624059611, -0.3046779366150115, 0.20944366467814052], [0.641772282847379, -0.41662839021217596, 0.5327533985889833, -0.20643733222253077], [-0.14862380408129608, -0.495130790390277, -0.001368152453685242, -0.02918269681387917], [0.19255815746595611, -0.3122367794187753, -1.066348461884347, 1.6453221335655865], [0.33882908470650736, -0.32062690589056947, 0.5183396860557266, 0.24032007612352818], [0.7630484104924591, 0.24054290961356745, 0.04050662414102506, 0.3936437384644395], [0.4984325493717379, 0.6267830696132949, 0.7784691034221662, 0.8261077571922376], [-0.4314194559843727, -0.35963966470308095, -0.5984881130660942, -0.8491952158629313], [-0.3412752723704837, 0.3099959577745978, -0.6242928292858284, -0.06491433233239043], [0.9571037451498882, -1.0020918408151258, -0.35312233757630895, -0.846601542770666], [0.860902176837533, 0.2760086700203577, -0.40847451186082184, -0.1560247075723173], [0.2349249059152017, 0.23262312226891452, -0.37238102698404263, 0.3432526166304935], [-0.4036932590078443, -0.5540042177450605, 0.1840952391777582, 0.4204618372579579], [-0.15448267978320868, 0.08516663878443133, 0.17953624424866613, 0.2496675878705422], [0.30571311535445095, -0.15497705580217824, 0.10566137613971315, 0.08963143347081728], [0.9202301807011766, 0.3594216807415842, -0.047603531724137046, 0.9871201540596387], [0.2465966689770007, 0.6491064544778655, -0.5521235104850373, -0.43295604682526934], [-0.6433300602568378, -0.6993146808797966, -0.45934785914869597, -0.09995914789443294], [-0.572243035624244, 0.5212061465142384, 0.6205971940786296, -0.26128319599513394], [0.16709572577433443, 0.0676991274330211, 0.6178464468655831, 0.2835766833546818], [1.2084114419667071, -0.2569394288670239, -0.05115850144490698, -0.3007717465158414], [0.11093624963568395, 0.2708706744807318, 0.439402177807131, -0.4692268455370388], [0.4197249147760038, -0.5856434656805286, -0.3223579259223375, 0.18641245900362247], [-0.1554521657319633, -1.0190666786931235, 0.007828045244921655, 0.15991596866954383]], [[0.16835655615680847, 0.032325529916729066, -0.15691846245715865, -0.23241534299706051, 0.3144217039369967, 0.1319426408673608, 0.22482087055036884, -0.16279980334358188, -0.19578240247806444, 0.3277330391782781, -0.10621983039723182, -0.0845274863236616, 0.29234344591868244, -0.10095629134336535, 0.18715623311513696, 0.02457335718587523, -0.024050218932198213, -0.18987281404775042, -0.009182587674987051, 0.13101730930730046, 0.09967107303305348, 0.09131939218234002, -0.29291375865232855, -0.011940393231265745, 0.23172254802447032, 0.3329882825708251, 0.05912333086839156, 0.036061910194079894, -0.013233186255162985, -0.04489753204913011], [-0.028129764231912026, 0.10911867700833308, -0.1931616937205261, -0.20742794553057062, -0.1744418696459224, -0.19698578299246533, 0.03056406196592254, 0.3482798356710118, 0.0165005120315549, 0.06504048847570604, 0.06266710758622455, 0.1866932187930442, 0.23259227781636513, 0.06623592047400012, -0.3949478106087695, 0.05623536732749205, -0.2279514796477676, -0.15563471618957023, -0.18216444166152215, -0.20926332704585232, 0.23188691709873996, 0.07098186485517963, 0.11551685295641825, -0.25803476307538414, -0.055934994395003185, 0.04661477429011163, -0.1643381703436773, 0.05888492674556085, -0.01264924699327389, -0.20422677861968433], [0.10372477639611254, -0.13363390780310896, 0.14426059132677782, -0.22147550395415236, 0.07314703606180444, 0.14954713642911946, -0.23202355885949333, 0.03790273399613115, 0.17216380164236011, 0.005259622611817302, 0.015131281906305825, -0.36018519742256616, -0.06487221224350576, 0.1320595371044426, 0.3175580319991959, -0.1019596003551875, 0.02116292533320399, 0.052971719106798744, 0.31302526228048794, -0.11456819873208529, -0.11000517721317064, 0.11966020776106477, -0.18337984143928404, 0.06083363171588512, 0.12903201906476183, -0.09520032157041518, -0.14451362022803768, 0.033510436883287975, -0.13294022188725005, -0.35907636678310384], [-0.14713153064217788, -0.16738990148347627, 0.06006740490137407, -0.2139811801884443, -0.29448790982233003, 0.10052973667115173, -0.2831872616594252, 0.1316620522826112, 0.28845545074496887, -0.405919140298105, -0.020897011301244602, 0.2434737215568797, -0.07302769249747341, 0.1285427005735457, -0.15001609393635884, -0.27976678449988224, -0.1048493597567882, -0.0028260071661855893, 0.2168442297796404, -0.17803935556577843, -0.31559199661789583, 0.3007609348312495, -0.21653256148436228, 0.0551178840143256, -0.27097138836221846, 0.09788432779259419, 0.1653580722514371, -0.2777252669800033, -0.09805377009058087, 0.13225279078038465], [-0.034826385541527616, 0.0972803462896495, 0.29975495285162207, -0.09689572986019879, -0.0727976680640462, -0.005855188997414175, -0.2010986062518295, 0.1708944221388988, 0.017853207349510767, -0.08498410949273662, 0.07312662650403577, -0.29762419171935195, -0.000742391500016266, -0.13347149979781633, 0.2662166889194291, 0.1614547890700789, -0.005508120493969217, -0.3409726769091339, 0.12693159480711044, 0.26104543717456785, 0.27819164985666195, -0.11269853382485959, -0.16779039564717224, 0.3504927257830111, 0.21673568318457606, 0.1841172500161332, 0.003117314939495274, 0.07250960880350499, 0.22049493242958554, -0.19890945772719698], [0.019887366695499786, -0.20640587368442948, -0.05968151797630082, 0.0704094821294019, 0.1648915867317105, 0.0350796033031368, -0.3555919867769115, -0.09701632209516768, 0.12803720771535404, -0.1681382226679332, -0.10605412193064481, 0.13538996665562672, 0.10741667232087046, -0.21564453222014424, 0.08271917853386869, 0.12992121125601652, 0.1054262031613716, 0.0863194367940781, 0.2741788185880271, -0.07146288859387417, -0.12793350513131396, -0.01781424021268956, -0.17284717056436105, 0.2243351905165886, 0.4636901297193057, 0.3366071007553675, -0.13505440283071582, -0.12594933801132657, 0.1320136341403865, -0.05854543473582252], [0.03658041415369548, -0.26258155808648614, -0.15321469802265822, -0.08907348172703589, -0.20379231060171354, -0.18115589049499417, 0.09153292131628783, -0.07112003340326943, 0.0023885804272568137, 0.3790068008924499, 0.41974743266087516, -0.14314965702827223, 0.01945406692334666, -0.0042399513098101485, 0.08879230071930334, 0.07233149406587376, -0.06206112277636374, 0.0659749786454492, -0.020479736988524646, 0.09709764519344426, 0.17951487913666614, -0.20493525268375323, -0.27207343524978767, 0.15925853297889545, 0.032019041755478185, -0.1269061116343257, -0.08428726834844313, -0.2029646523859453, -0.10167299653063767, -0.1277160835942919], [0.22144886055115323, 0.049290373778523494, 0.2318535298191072, -0.15303191324220838, -0.21192025142174037, 0.1474923728188953, -0.14190580454297302, 0.1974731739823179, -0.1313785616060303, 0.09714432725518364, 0.36791323146967164, 0.01651788298450719, 0.09472128381189014, 0.2769962431138594, -0.03882607790548468, 0.07672580109348394, -0.21167644149948753, -0.028067580081865034, -0.11295869917276985, -0.5763468883735394, -0.3918603607429744, -0.1693822117348414, 0.2643078279690329, 0.228542146599833, 0.4365726762375945, 0.062044204609952615, -0.1891488755201823, -0.1268330657746926, -0.12103754284071856, 0.16241804952751862], [0.11646807427605287, -0.06836861839063192, -0.24166572516134385, 0.18271099983290823, -0.024433380143774643, 0.012571368223391088, -0.348592048707989, 0.09448453866205138, -0.04548444588084715, 0.07781328131573295, -0.05864800067675762, 0.042740155008067195, 0.6100098684633122, -0.1525443878198192, 0.19340713375889168, -0.24905148388161819, -0.1760606256523161, 0.407178302485526, 0.0008071582077340998, 0.12487437565001598, 0.13972378011835315, -0.023013651152126315, 0.23950837251583484, 0.01850841047018572, -0.15833467145811458, -0.1854502328596121, 0.08622359316412574, -0.3739262520255844, -0.07011100484853826, 0.27487329280872524], [0.2036857001121532, 0.08819482872150373, 0.11352989363606719, -0.03046956413447855, -0.059634877881782136, 0.07656772226281422, -0.08393481431219642, -0.13653871442841437, -0.15110333583894944, 0.11406808914615944, 0.2541119142807678, -0.00428793022410487, -0.014819643602407792, -0.02070812217579813, -0.05090840358205058, -0.07330190676782694, -0.25994143314064044, -0.36481116698434424, -0.03412804766958875, 0.13769948235575763, 0.04003703618404416, 0.0029622248466692432, -0.24922986070676692, 0.04344165761010933, 0.20497353793753167, 0.09220202126022545, 0.17785636808872038, 0.21876985259216308, 0.2902968895197578, 0.29363441215289393], [0.31154710758159543, -0.3530698007701352, -0.24125874601515435, 0.0429133731924635, 0.1026501965960016, -0.09616967352684871, -0.15362512732752384, -0.1690419652154027, 0.381065945826644, 0.05098690170674951, -0.12848083678208305, 0.09910709988505337, 0.23244876392680872, -0.045250868409480935, -0.03734128483518055, -0.07298374603153027, -0.052965631276557935, 0.06646840414922918, 0.09154995723280855, 0.02078846713995109, -0.3162880393549486, 0.13506907363376067, 0.016067613864871075, -0.46290075668075753, -0.5115358179693142, 0.4304495295057477, -0.11571053960467993, 0.04186164460811334, -0.08891280972931134, -0.07607701980164185], [-0.10293124812157695, -0.14764770167472666, -0.07904036611949311, -0.120595717057809, -0.12702387161307596, -0.23412078839093062, -0.14660230277463016, -0.060986301597512144, -0.16466765653958976, -0.013135056042370231, 0.1202391309675713, -0.010593264835677966, -0.20651838205221668, 0.10859845350044928, -0.1701333491373481, -0.45112693570569534, -0.04232803262927879, 0.1454657105102109, -0.04245145837367599, 0.0376653340939068, -0.15571939207806879, 0.015414811175745485, -0.0029434400043560427, 0.36519532102783814, -0.09522693657418527, 0.017765495487807165, 0.24799386904875023, -0.21496975291175852, 0.020995927685781898, -0.3775680317388237], [-0.059582268055608775, -0.07902748241854754, -0.08974561302385682, -0.14503387789272712, 0.26526572149846933, 0.1362309226988336, -0.1998196071269475, 0.0017965772447614485, 0.004858898313820646, -0.23546015801264134, -0.014469752505964278, -0.08780304743828482, 0.15482107629686215, 0.2304137880526038, 0.10809632133804231, 0.21563570708814375, 0.00729088630945166, -0.15697839386819434, -0.03531299020703825, -0.21394582658999478, -0.1329059830261789, 0.3189421550293414, -0.008378667492628694, -0.214973531559873, -0.05499143263128388, 0.06803803235793425, 0.18670545407554967, 0.13085979383747612, 0.09501977680991726, 0.3963233013272614], [-0.17376466207020574, 0.018939888323871862, 0.12845146051554718, 0.07011328402822552, -0.2053308622069424, 0.5059627161508738, 0.32017339953502544, 0.07184800659910581, 0.08891106172111685, 0.25171084883846795, -0.15086677256708592, 0.13509096554242286, 0.13586934257587538, -0.13851397363401136, 0.04010238945069383, 0.17243216352535903, -0.05095359733762791, -0.2477202333671803, 0.1409292762163211, -0.1959689237555005, -0.0960604286774658, -0.3040696765689871, 0.09793168906862154, 0.00044944678069958917, -0.2516562556454701, -0.10977272194773191, 0.526578586991542, 0.03810251972268855, 0.02038144057215234, 0.17981555086080636], [0.25578046979343233, -0.08268068387848772, -0.032877519051034775, -0.25867849411908, 0.12666776114321354, 0.01118273501001742, 0.047700073416727135, 0.11745238795767696, -0.21763534830708264, 0.4979318904940068, 0.12296497873110288, -0.12968120358626098, -0.005583648406516044, 0.04621208535504348, 0.11112938007935695, 0.01202066397685375, -0.1633779477981343, 0.04941626074868305, -0.1411034822692842, 0.02980036275216839, -0.06423051058011361, 0.4019365623713659, 0.25396313842365253, -0.06939619134567748, -0.09559050471589207, 0.15362547749984207, 0.20022846086422327, -0.09001243426633662, -0.176171179023415, -0.1185134455944194], [0.07411968784620218, 0.21029989499286877, 0.0931261719801634, 0.2296288221649341, 0.32038137362510066, 0.024053553247369713, -0.03615699291447433, -0.1021741788308293, 0.08655439346026819, -0.13098131275690614, -0.021447191796038562, 0.1354192260757508, -0.1030400702958365, 0.32541167548906824, -0.24592252716411356, -0.136920573986406, -0.0016328828191504205, 0.08071012656536017, 0.024015226435253598, 0.15460033248845528, 0.15144692860861816, 0.17141804594907364, -0.40283956407656885, -0.17169136233841106, 0.3775398635148906, -0.12962437183264858, 0.05128666906421623, 0.2527070561594657, -0.1606298807454549, 0.39565229974768207], [0.14671425122551596, 0.12461285222356397, 0.42125980523913376, 0.3058925384655913, -0.4046697480962932, -0.037316812278361075, 0.17695099525988656, -0.2216743609118972, 0.3875372909912178, 0.15104524045882478, -0.4340878116979184, 0.006640360107994497, -0.045867656251584926, 0.12291236393215055, 0.0369474846194238, -0.32076966513017535, -0.07664700397673409, 0.2331668500498257, 0.07579112383496087, 0.1267419591748251, -0.06512290841790318, 0.035252331356826865, -0.10358233629744563, -9.02786741226935e-05, -0.08716861378939808, 0.10198120191000298, 0.3674261366976964, -0.22268620329784394, 0.054626563128414005, -0.039518670922763594], [0.3134571589570291, 0.34192146522152667, -0.13665204326556596, 0.08493525996068606, 0.2025566339024896, 0.11690934129283302, -0.09671228564881892, -0.33179790978299095, 0.2021392925528044, -0.23191977916896697, -0.11213775678649547, 0.16943332435076966, 0.23819166444150422, -0.01908958350084287, 0.16274793663221424, 0.1010814973951985, -0.3955783008751002, 0.36016728818811555, 0.03947091233843584, -0.15906255404784422, -0.09403187747958486, -0.415265271381825, 0.20229944075879708, 0.26718055253596196, 0.0430940214732953, 0.0023924671148086813, -0.07063966167727903, 0.010548769332593385, 0.07452120862126116, 0.019434054281652353], [-0.2704910057416444, -0.004685119592305191, -0.018291222198221373, 0.049150173973673474, -0.18572290548285025, 0.14608896448965564, -0.19414448533219963, 0.18634451875752414, -0.04064488942875307, -0.2782687359921418, -0.2930090456719824, 0.1273009669064371, 0.2334877755841135, 0.0015609367859300335, 0.07063331065439134, 0.09559924242659058, 0.03127253059144603, 0.14228900826843605, -0.047016103738230106, -0.06018340917655775, 0.07194700201783956, -0.17311970844231145, -0.09385947152599516, 0.10229914458236868, 0.2003337599787461, 0.3314087811277736, -0.10469318256007969, -0.18033778476228432, 0.10800171217765535, -0.32976876684809153], [-0.0567233985829718, 0.31197810542559323, -0.2299846141767015, -0.043776093900726475, -0.1398086526920734, 0.4038780741237922, -0.11560377787468235, -0.1686820323033577, -0.11237287510877039, 0.23591169346781055, -0.07958587432646551, 0.33448162891403904, -0.19920407701662451, 0.2444808836738258, -0.16895822385858666, -0.1044733983162254, -0.07090212653285657, 0.0942094344341793, -0.08583803785726805, 0.05171563171167058, -0.21194453937040164, -0.09861765144008576, -0.04055833262229984, 0.26604380608049577, 0.1452670985286214, -0.06993112527869026, -0.04639602138212672, 0.04074905880451236, 0.20360450019257356, -0.02420877163974917]], [[0.13161403993741516, 0.06553197727202224, -0.3829311764635829, 0.4665668964587707, 0.05269800624092419, 0.42162364587932477, -0.16815020253218915, 0.07484346474377494, 0.12887157083863632, 0.29782623245491385, -0.029686918844042468, -0.18225218194044465, 0.08638470617691994, 0.17494337258478043, 0.09854945786421836, 0.19802817413825075, 0.307407760776162, 0.32679655740040753, -0.0024133236434507534, -0.11820430649720165], [-0.15669666423739148, 0.31244469659877594, -0.0006262022293207756, 0.05259981984438705, 0.1965989896006758, 0.33896634503007084, 0.4108005671147974, -0.13724438941302955, -0.34115801136624924, -0.009225190932413056, 0.1254540046778444, -0.0506159700927553, -0.43800459275322007, 0.07560843545415848, 0.6291012059586484, -0.011459660289994403, 0.04597424955359332, -0.07734624855129196, -0.0847881004207284, -0.3355356294944776], [0.278975882606615, 0.03858079490959816, -0.039992494090285075, -0.1089438878227863, 0.3102896034062319, 0.26499330625747874, 0.16728821216306247, -0.015756184063579377, 0.21316195832696705, 0.01481098716745938, 0.1072595946125066, 0.1515834261985899, 0.11190785714274731, 0.3227456491823354, -0.0959517700524597, 0.29941790459642226, -0.09135981842015112, 0.3518009183154267, 0.02141916147527573, -0.003727420563929696]]], "biases": [[[0.8974817985800001], [2.86092194098901], [0.10506211216979486], [-0.47654075938689994], [-1.2102548205069152], [1.2328943485180641], [0.2041974055975401], [-0.7112756449823214], [-0.33808128379087193], [0.23666389496894713], [-0.7112604504664212], [0.2882190367574183], [0.5343798071641853], [-0.758859368659676], [2.003772197903973], [1.725663134313479], [1.020227684394817], [1.6258209764416496], [0.10176265370966997], [-0.10803018131262913], [-1.190155542058266], [0.5796662138554155], [-0.6774147824957436], [0.7227431682631483], [0.1845348845934805], [0.8808525498021617], [0.9474398310695976], [-0.6780015045154562], [-1.0240725695344284], [-0.9163007336382343]], [[-0.1312084240277562], [-0.6636392362316871], [0.5767904211400203], [0.5085793340395053], [0.28073531899320414], [-0.7522017250646238], [-0.4382375279487944], [-1.2607566980970748], [0.8772822029297336], [0.3192496600842126], [-1.1238788109743614], [2.739211134694784], [0.7731396184026069], [-0.5481173848819362], [2.035101818274585], [-1.9044842010870637], [-0.28946997260526214], [0.2756958540909059], [-0.8516724325504441], [0.05101656497023429]], [[-0.5014343116009083], [0.9334545114285264], [-0.5075973076922352]]], "cost": "QuadraticCost"}