{"sizes": [4, 30, 3], "weights": [[[-0.7425464507210425, -0.09663490130649814, -0.3706908423946809, 0.08581941469796903], [-0.1854205575294657, -0.5261276133461512, 0.9343702861775292, 0.032535895300973616], [-0.07421988270322666, 0.3975859291042321, -0.8127469034965517, 0.46290170950761655], [0.7913382096177001, 0.5058424524494836, -0.6563105663334169, -0.5383493406854004], [-0.07325031337486444, 0.5191478829453595, -0.9386887125965842, 1.2781977447697712], [0.27739457032089826, 0.37228366345023084, 0.3469519258794687, -0.5799401370864078], [-0.026385152296142907, 0.21906441884486522, -0.5373755465546959, -0.4810453854677789], [0.23686323822592592, 0.17618435182198044, -0.14708330358820906, -0.5118548404924907], [0.15776746474213763, 0.06205266162393886, -0.2810821911156377, -0.040427805942198546], [0.9278884007842199, -0.7357871475952806, 0.06706228819385138, -0.08635342255219644], [-0.8295891469866409, 0.07118925216731253, 0.6823295376164432, -0.10246060954782019], [0.24676159989761207, -0.11378736664993042, 0.4309349811757281, 0.5144755673532724], [-0.026111733940775737, -0.23398002224444428, 0.11762730385208328, 0.08377642955210772], [1.1769264982971235, -0.16486594268699284, 0.30562501879219905, -0.25345838151680283], [-0.15642249807162203, 0.8940678148837363, -0.33128403598458145, 0.42854040114247527], [-0.033774290943308985, -0.43400954178616574, -1.074665283720387, -0.06692404802885013], [0.7359787366803494, 0.8445108299631069, -0.5304108573799151, -0.1767633320463503], [-0.26531860679948777, -0.2215252270410226, 0.8053824690801212, 1.2825113945376825], [-0.2308437754617529, 0.18400405340277587, -0.27994901684214246, 0.06385645340170873], [-0.7081645826108282, 0.03018623935418206, -0.1289325428161378, -0.5105192349079082], [-0.5795225492708288, 0.2514281638017918, 0.09135864082234327, -0.14259140791971966], [0.35772822605313725, -0.09653189330326324, -0.12187647333336883, -0.04566521744079085], [-0.24865779626352827, 0.22597893844253006, -0.0003801666978865233, 0.4841545315539541], [-0.3150758897257986, 0.374584462867583, -0.5469608594371848, -0.7685315164878097], [0.0921671593682276, -0.8627302814711114, -0.48940482254103607, -0.17240695423671584], [-0.4838427773025207, -0.12875292433409458, 0.14046274818471421, 0.5368698226222801], [-0.06905199665716386, -0.3751088502091739, 0.23188965750702872, 0.0972355265365831], [0.6138426730816694, 0.5045828783085765, -0.4422550622945281, 0.7980767351565977], [-0.5637735988112957, -0.17819626595947446, -0.044816226724515074, -0.234777957476798], [-0.1466964267386388, -0.6007548686487277, -0.4933890912836079, -0.7169510776930089]], [[0.025265434002387722, 0.07222268059936655, 0.25261164587539386, -0.25607387752013355, -0.10700632114204345, 0.016484502261616876, -0.0033660554848977623, -0.1331414142209389, 0.13045378325381493, 0.17979167075407207, 0.28557665768730967, -0.011517565177617432, -0.16077357167779843, -0.12985519806104787, -0.1445311100835758, -0.09602167357158582, -0.035301717339353916, -0.17925254026198803, -0.17099903707579542, 0.18706542615823643, -0.2537916508276083, -0.19687642715195663, -0.20747693085466307, 0.014110180213470222, -0.1882977618856871, 0.2283956522156596, -0.20729886806980807, 0.048276021276716825, 0.07974976179435261, 0.21864775421990784], [0.2246051540711198, -0.07516838631863229, 0.23307895217274885, -0.06089889045707306, -0.18560914763771483, 0.16399657107405238, 0.36981358478204307, 0.24792386197989388, 0.2221498092201727, -0.04654897713952325, 0.2318492225974272, 0.03704329312428883, 0.061375117003969165, -0.03804342760456883, 0.4889332857338139, -0.004881104717659645, -0.034132288810255006, 0.16196511542544267, -0.11109536551619278, 0.011239674379716028, -0.07975335352439628, -0.1991348186413504, -0.07783235091196768, 0.3648401814033722, 0.0041579322731661265, -0.010243579545413793, -0.025885355724783024, 0.18295935119811266, 0.23164669862330403, 0.1446177792689849], [0.016568475211777765, 0.13673566086166503, 0.032977476365500136, 0.13455969289015104, -0.16108117053288248, -0.12304060301410888, -0.14461582132482598, -0.008092914982522088, 0.2288030544111974, 0.021728237347895894, -0.10072252469287174, -0.11552758689661559, 0.024726792316761326, -0.1897994933211835, 0.1630392833899781, 0.02552359042908662, -0.008242031327105112, 0.19308627148888444, -0.04592374731464953, 0.14901688319328701, 0.05548912107687518, 0.021815821602725223, -0.05050929954219818, -0.10640303175345871, 0.24355791646565758, 0.08893093614914005, -0.1838408517132913, -0.12145745517534604, 0.17119044743448097, -0.43300885014975193]]], "biases": [[[0.6335233343872599], [0.8096295425344688], [0.629207857052769], [0.8628723976519198], [0.22625662945895808], [0.779766462859876], [3.0324912301496196], [0.621816126385453], [1.9408628592745], [0.8125006209555918], [0.3227313621356646], [-0.31806544990280505], [-0.8852092853225075], [-0.7073579722177712], [0.5932868377370343], [0.33901881971987263], [0.5239169126923962], [0.906601856012547], [-1.1907506619134924], [-1.6250455479362182], [1.3459333416602652], [0.05680153757640779], [-0.49137055661079554], [0.7565340474230808], [-1.6163596251744676], [0.7752415680797294], [-2.4199503115387055], [-1.7989749160039072], [0.3283406761148966], [-0.07341773164262813]], [[0.6893245026082057], [-0.31602092916199515], [0.519052430133414]]], "cost": "QuadraticCost"}