{"sizes": [2, 20, 3], "weights": [[[0.655995761648213, 0.8729640091953941], [-0.06289662022040954, 0.9437107813033921], [0.4092334323492079, 0.31831792161989253], [-0.8445721977622449, 0.20937079194688185], [1.1147512128907509, -0.473624776348853], [0.26966185737138465, 0.1391698028909003], [-0.83589591927732, -0.46298967633179416], [2.447940923994369, 0.8545029886718798], [-0.3120783589443823, 0.6959021397069196], [0.20334026994678958, 0.862752168080761], [0.37909325447674397, 0.5353416529180947], [0.27028537531562563, 0.881775460903244], [-1.1722935248964603, 1.794410472998076], [1.4662619399979213, 0.32739475135220764], [-0.835967168124959, -0.20060035449521807], [1.2175409998925224, -0.8804635323714729], [0.15990971891046, -0.2728069064261446], [0.034421980627827774, -1.1547274497887963], [-0.9321714317173712, 0.6922822274656794], [-0.9412221694178423, 0.6377586006439039]], [[-0.05904012698852863, 0.1789728794107879, -0.2174783294276125, -0.28004944660752135, 0.15338804540428794, -0.1503137507358088, -0.22041757926362293, -0.1501385584044838, -0.1140986555869952, 0.2441811296302618, -0.10311916878395261, -0.16444099883371002, -0.1648967976068396, 0.08840726067670955, -0.10640579609604764, 0.08754474665635865, -0.3363633469696049, -0.12200727856467213, -0.2504228973273595, 0.02314999535596991], [0.036721633246020985, 0.2513376768738088, 0.4897857543875465, 0.26083344719840745, 0.019181673307678906, 0.178946359938793, 0.08604014549979586, 0.08171739876410555, -0.004497706816824205, 0.4913096580371537, 0.28502480333436764, -0.2788074207546469, -0.04493460616280928, 0.261263421923895, 0.009230055869118658, -0.2519654731973665, -0.2947319770797258, 0.30901936367597727, 0.19241684484632457, 0.11951455303128938], [-0.11553431354488264, -0.09989060348751844, 0.07537499014323065, -0.1406253243389776, -0.32579920143489155, -0.01339664629394227, -0.07683545326021794, 0.08312712114460132, 0.16094713409725367, 0.022803398444236483, 0.1329980401007066, -0.22152846023114228, -0.1361049066538281, -0.03424485514595238, -0.04563504309489367, -0.31903676309581236, 0.49965778527438653, 0.3286736304585185, -0.4797217018093501, 0.3002239973532197]]], "biases": [[[-2.0780450455840684], [-0.1816136751667982], [0.15038095527403886], [0.2201479539960041], [-1.057902260718055], [-0.9213128348619475], [1.4863416569436494], [0.8768375336158977], [0.6288103312074609], [1.5402119213632373], [0.5942909773316156], [-1.8081372891947696], [0.38895525806227826], [-0.3530695168488887], [0.10811060259389152], [-0.41165683952190174], [0.14190236506492648], [-0.3980168727145324], [-0.42833833645550146], [1.7708929046418094]], [[1.605746296867162], [-0.6957770247560683], [-0.03657803252764757]]], "cost": "QuadraticCost"}