{"sizes": [2, 20, 3], "weights": [[[-0.41219369355076846, 0.26401977498866264], [0.560485082881848, 0.29112583368833367], [-0.7122947083899931, -0.19141373929785335], [0.12442219811251368, -0.6780033431099828], [-0.6273626786908424, -0.18206113615551386], [0.7196816241649415, -1.0321239837608611], [0.9454793463768284, -0.7560109092781484], [0.3869377624463167, 0.7287746882684059], [-0.33722897422729087, -0.1331435302322943], [-0.6126638993207907, 1.1206743478638057], [0.4646547523342849, 0.48169206952635696], [-0.9188991556082107, 0.9879752873038732], [0.8901164161366094, -0.4079311839425638], [0.4079429908934526, -0.5906933856897187], [0.625383543842087, -0.7494582831891524], [-0.6603406338270605, 0.10836075920180359], [1.0513927353206223, 1.141604460208791], [-0.8867634827263425, -0.23037976355002612], [0.2604886930897122, 0.5901940683380085], [-0.1166619425497245, 0.11375363711098192]], [[0.6659706692740289, 0.13674160646014913, 0.15378947570719562, 0.011096680869863278, 0.07555812890933761, 0.25446292322853237, 0.14142976884390926, -0.031580524815085505, -0.08590350283408335, 0.417026270564662, 0.31331217712371967, 0.1963657196434492, 0.01970591536837751, 0.29143824569252663, 0.38155927339900225, 0.18181706798799976, -0.17146793796362264, 0.3216564152051641, 0.4463719516169936, 0.23590408338272847], [-0.327999366987297, 0.004952804984140038, 0.06634133419158561, 0.014767169935885945, -0.06626887560014659, -0.16355466925782128, 0.017679793432597058, 0.09617082516047426, -0.2552471785363773, 0.17046295825337401, -0.09526748388427231, 0.023865836292788045, 0.13303655192212205, -0.06658119229597356, 0.3732670787412079, -0.11414173751657582, 0.4242291699206552, 0.17289114681402676, -0.4631482279051246, 0.4101517857989486], [0.20333621712430505, -0.07898037991993935, 0.08898075886527293, -0.07866516983059266, 0.05002407451465502, 0.13822266118842105, -0.012541742266551336, -0.012185041241476045, -0.09606404169492119, -0.057172919949427796, 0.057762796731151235, 0.22042152488029254, 0.5585025948041399, 0.035816183579393944, 0.5845807153388485, 0.08811986736412182, 0.2605993536655702, 0.14805080612182026, -0.13694553641559773, 0.33408539494452355]]], "biases": [[[1.110858356848957], [-0.7134267437169515], [-1.2168292107147909], [0.692213687048574], [0.583492957864591], [-0.5294415452092857], [0.8946666257777767], [0.3925880310588478], [-1.245832645798745], [0.6198654400375189], [-0.37829428200582804], [0.9836141688217378], [0.40573145497474267], [-0.7462352040944688], [-0.32285351691525666], [0.8159922705474215], [-0.1613581812128016], [-0.6681087434489476], [-0.35689912211853064], [-0.4095404632016604]], [[-1.3204120039471645], [0.531800859700834], [-0.226203455291913]]], "cost": "QuadraticCost"}