{"sizes": [2, 20, 3], "weights": [[[0.32366704014089426, -0.922075008532296], [-0.1628675266821536, 0.4148962598145148], [-1.302148759325291, 0.6777702609871994], [0.3808401407366433, 0.8912845513351779], [0.1781171017575123, -0.7957369809313231], [0.3203627616611002, 0.20492120015488746], [-0.36147331819280093, 0.3204638480199135], [1.0715701422936064, -0.1004552949433031], [0.2632168359882567, -0.32580963274220587], [-0.5578651469364188, 0.0455056273160421], [0.4119210567134877, 0.10943579494805859], [0.699489854675695, -0.3620974787112673], [-0.6593312683865447, -1.0140928184622564], [0.6276726737860653, 0.3343257044367012], [-0.6253841684631782, -0.20243543027881697], [0.8330383234911393, -0.680469570004277], [0.9605685165824225, -0.20455225484421305], [-0.03172378495123247, 0.9976980492943398], [-0.26391291425674807, 1.003301484566556], [-0.9421402832504646, -0.5760047960075348]], [[0.0834856121322569, -0.12606776632283734, 0.38675093985417275, 0.32314908432299494, 0.1549933155160011, 0.2761897650020548, -0.010693890287513943, -0.17828270679642724, 0.6762201827735534, 0.07229157478269647, 0.14556962057335507, 0.30189562976888656, 0.14797808168294235, 0.09949236757864449, 0.024811914692237955, -0.07845578407689463, 0.0482625526884305, 0.283447691798024, -0.2801596944785726, 0.38727331384653707], [-0.43445391860802063, -0.07432466759627966, 0.22965226670622904, 0.37693019378564235, 0.17425083913500805, 0.475809818231759, 0.444291522131786, 0.026546285017179833, -0.13380520450058234, -0.08519336814045478, -0.023431845621040653, 0.49939278069638043, -0.1624575357319904, 0.1775882129707392, 0.46812217864862377, -0.31762004278451467, 0.14046549746257042, -0.038218279645489364, 0.1991242665184981, 0.1528137595643965], [-0.14517506194391383, -0.2631600587001678, -0.10763068276590566, -0.19316780110183263, 0.05024329072027862, -0.06436166865461401, 0.0023569723882336012, 0.3163637667896535, 0.06743882740544514, -0.02963306554645124, 0.05211579695302202, -0.07447753033916352, 0.22775302479265647, 0.1145251495113464, 0.043058111113334775, 0.345676231595355, -0.22624130355262778, 0.30400297776327206, -0.08257940722110009, 0.09226195326672318]]], "biases": [[[0.6818550026955102], [-0.9302846738913898], [0.9137443643512201], [0.4781764115283914], [-0.4076427471326212], [-0.39346457697869025], [-0.43069785673962724], [-1.1636176852894693], [2.273827448289634], [-0.8225987842903085], [-2.115495773955923], [-0.8646715477114091], [1.8097429050524858], [-3.105442183599959], [-0.8328372221759079], [1.1386943842485402], [-1.089053706866631], [0.21711738393981642], [0.6975300284907987], [0.8396169248526163]], [[-0.5106291397472693], [0.6557489675337336], [0.6088429095810914]]], "cost": "QuadraticCost"}