{"sizes": [2, 20, 3], "weights": [[[-0.3873121596736242, -1.8786213211120104], [0.6822477142318184, -0.028668162306040832], [-0.29688084308190293, -0.49770807017752244], [0.75143539375872, -0.6208478046778007], [0.28213765638886595, 1.3305472527050188], [-0.35292395785850406, 0.3231152322450727], [-0.3621458451239929, 0.9115113585318209], [0.09228242364031225, 0.1286532045224825], [-0.4006641921166189, 0.17825676587714762], [-0.5610795003050787, -0.3605934072926512], [-0.5055076275134944, -0.763359690767387], [-0.6635714495239579, -0.9924026806664744], [0.46779948511067754, -0.07760306135306252], [0.17536256424085106, 0.3739742128600523], [0.9534168387244778, 0.6928636948807322], [-0.025864699712385652, 0.2370038751452291], [-0.709449057933781, -0.457672556245859], [0.6010562068580516, 0.028377333756715264], [-1.4985899325846401, -0.5414972807720327], [-0.43755774344103854, -0.4070824838535096]], [[0.011892156583490703, 0.4188201067975991, -0.1322211750706303, 0.12055236657990487, -0.11126385334562759, 0.2485092185019863, -0.037735874016898534, -0.00843433169166751, 0.013075730211301465, 0.08129743188636027, -0.08651611721363985, 0.10598979913799729, -0.11063766980345269, 0.20377164632584782, -0.22898581015270575, 0.05481764303710371, 0.8269603994187946, 0.26872112079241944, -0.2920797564842989, -0.2864101059550523], [0.43240593725345056, 0.27095573909591675, 0.1435665029779277, -0.17454595197226228, -0.0626433513014349, -0.23480939712644808, 0.1880863256030248, -0.3014981045858007, 0.05242735315041457, -0.2319251714418326, -0.23168127033653224, -0.20935572118956505, -0.3158383318993787, 0.048078433604276445, 0.08028335338510158, 0.07136770943727483, 0.15823060531701844, -0.04119484759884679, 0.17118469421537605, -0.11506150451220275], [0.14138975307920099, -0.3575865726737996, -0.48641908568258385, 0.2948799911418648, -0.1631177929057367, -0.053958896102126265, 0.20619244313345889, -0.05482136249290845, -0.23803640366941636, 0.2014998438323982, -0.2866648050966244, -0.24863370746403926, -0.415279147306667, -0.0962090501393004, -0.0837682435851377, 0.19592781094409806, -0.14468287114478431, -0.1459990382959929, -0.3917230185595237, -0.15379908263102782]]], "biases": [[[1.099868113916752], [1.687934426418595], [-1.1025081508716674], [-0.2710181371387597], [-0.3424074022881201], [1.2074368384801935], [-0.1417499751535359], [0.8580993092197848], [0.23934219696660536], [0.13686284883501343], [0.21675550817486644], [-0.06931803030858386], [0.5515667506114138], [0.1843307527679306], [-0.3543773323474336], [-1.2952847566342975], [0.9402295813875443], [-1.6264431513631787], [-1.1337149793177048], [0.17060402122196341]], [[-0.16225652286374073], [0.9683767409539651], [1.3388794716323749]]], "cost": "QuadraticCost"}