{"sizes": [2, 20, 3], "weights": [[[0.5768120692232543, -0.6952171277931708], [-0.21766773487819324, 1.3324641682020915], [0.27571434930527705, -0.35137166717972124], [-0.9365937140024515, 0.2974286547125354], [-0.49612597683513926, -0.15257166918377496], [0.803892339182729, -0.6626437698643667], [-0.4470576508920861, 0.35712810105575354], [-0.3094968687630589, 0.4211890906854845], [-0.7593142043744927, -0.18590317512261306], [-0.012298351757579795, -0.4168019075356856], [0.7801300321426805, 0.5456466620247068], [0.9350828507388427, -0.5206635802251944], [0.3507841866543085, -0.20709123696518617], [1.4314775962744875, 1.0828629141956223], [-0.9054244357050735, 1.4472059621238211], [1.0160991692882015, 0.23698794920910876], [0.9024009131764418, 0.013274396196365133], [0.899079154101646, 1.8186868102948703], [-1.002735446131288, -1.1516743840927275], [0.24761107986765607, 0.10595104742844146]], [[-0.01029264518647639, 0.5897842709775359, 0.09315198748942055, -0.10807117630696914, 0.04528479434923302, 0.4490725278354985, -0.2716846420595465, -0.22513424925558917, 0.3628608865553998, -0.5229807439102861, 0.1718377343268686, 0.04680183856429355, 0.3130653196342705, -0.3301974382778073, -0.0935248340626147, 0.08140807811968101, 0.02454600668094493, 0.1768683666377742, -0.10274371005744204, 0.07704566785333301], [0.12758285467813246, 0.08975021269579607, 0.18158098473077616, -0.03192812694349461, -0.1288962395518166, -0.011769920371204714, -0.200778032515382, 0.026300931765304604, 0.6617872588217578, 0.06490518994557103, 0.7444071431220007, 0.27849360706633147, 0.13125547068546903, -0.18569690726045168, -0.2159382399086426, -0.07138933149079238, -0.07342400228166517, 0.5023214842609518, 0.19145124014679948, 0.047755655512498225], [-0.16005023436655388, -0.2863644120808311, -0.29086898697204644, 0.5613451721757672, -0.06893797665093167, -0.18810281194285855, 0.30944750589657966, 0.21380698359298594, -0.028232442187979764, 0.009025620123063332, -0.1394127089829623, 0.2834436515250732, 0.11933000413874506, -0.30272745291604186, -0.04551364062005396, 0.13946028011507358, 0.11299602292630984, 0.19631069935598755, 0.018108029718677737, 0.13465936695035954]]], "biases": [[[-1.1461764250922055], [1.1909787063334698], [-0.20243209701975823], [-0.33753758784335264], [-1.1163135074528057], [-0.20424724148019868], [0.47390193607402303], [0.8040753651078496], [-0.19872556782129172], [0.5418234837557571], [1.4880717649722726], [0.8301369630103423], [-0.7066597069814146], [-0.2355664699891252], [0.3261447965356234], [0.3821802842966242], [0.3543663280414885], [0.21434225571679447], [1.55211277811945], [-1.1150856176204247]], [[0.3573860524781218], [-0.7860541809842433], [0.6842481229970039]]], "cost": "QuadraticCost"}