{"sizes": [2, 20, 3], "weights": [[[0.5696636364309411, -1.3046218679454185], [-0.444952464817511, -0.7775424401189867], [-0.6459107587517589, 0.8039911938253744], [0.17760883899185917, -0.26109482967864606], [0.39261255419613494, 0.7916185231585048], [0.17146556525648612, -0.5764010709970586], [0.3126718359315192, -0.47722317393514535], [1.5630779902002447, 0.2596893907121446], [0.6070676334199914, -0.1303960364605168], [-1.0507045438884317, -0.5727582340523844], [0.1640277076506146, -0.7653429493362887], [0.09344215725807058, -0.6267272491662883], [-0.542691934812729, -0.019063095681722264], [-0.8744103402637916, 1.1735875219705085], [0.9406437745894195, 1.3034599957226214], [-0.6064679186975228, 0.8398956035391144], [-0.4612868009139605, -0.26646269297160313], [-0.5645416627273935, -0.5762028503087776], [-0.10700282320570581, 0.7499815244949655], [-0.020363769771263897, 0.6657763031105297]], [[-0.11880725872273522, -0.22630454809774755, 0.36595471852682077, 0.18264792828318827, 0.043975397702888136, -0.05036302399457495, 0.25713220728409997, 0.21897554713639095, -0.06454206430519938, 0.4055435504791115, 0.03401866626264763, -0.10482564401497035, -0.03646699247619713, -0.03803630704816712, -0.060734227457658434, 0.02324978754261069, -0.24103618267743615, -0.10195553144096502, -0.18810481098509793, 0.22226847558951432], [0.15607909801410716, -0.028794387550449076, -0.20864150270476367, -0.08911510324038568, 0.04796540372481601, 0.25937219185555355, -0.07872158985329497, 0.16393853563561914, 0.17843585840408807, 0.23341846272117672, -0.15168184068960722, 0.17962516583739474, -0.017486229729235258, 0.16266640355904144, 0.40642897491396907, 0.04124464194885772, 0.3678367523554792, 0.36128971971174756, 0.3261839430060252, -0.15994136246565366], [0.34513010414120765, 0.1885627473403899, 0.4128938111981807, 0.20158099858212394, 0.1385087605067162, 0.5267417668382518, 0.058760041539151694, 0.18733795733826236, 0.17338849616225663, 0.2143292082737121, -0.0734569666902159, 0.15084312780837358, 0.07196064004976521, 0.017966183940420963, -0.102296098435694, -0.012402945322219965, -0.2338773754685465, -0.0042033809804178195, 0.08324686249571706, 0.12242552598251451]]], "biases": [[[-0.5483943467927027], [-0.5353571038077061], [-0.17558312056888917], [0.7877088295011225], [0.12142835971324596], [0.6156114926354892], [0.05839929450484433], [0.04515530204318926], [0.09645744802415471], [-0.08294065948317268], [0.8845367538271941], [-0.8016262683948656], [1.4457525652387637], [-0.8070812539079586], [0.48879969618704044], [-1.2121916735984861], [0.4014884142705312], [0.280626413013715], [-1.3619461265922772], [0.4329540955888755]], [[0.2673247367042293], [-0.31614659933108835], [-0.19584384713314748]]], "cost": "QuadraticCost"}