{"sizes": [2, 20, 3], "weights": [[[0.34705154605204347, -0.8476513060035032], [0.4983947159244968, 0.5259157704499693], [1.4279328625278442, 0.5363566983526008], [0.06392585710782943, 0.5042144129022041], [-0.014835662422008282, 0.448407664575082], [-0.7696350854129357, -0.7547552772869065], [-0.003395042552957513, 1.7777315135663672], [0.6418013017610695, -0.5006421965890125], [0.8635033766943101, 0.8350164101070433], [-0.3385895941976633, 0.5953189589817702], [0.21745872649223696, -0.27992840743586517], [1.1949787770628735, -0.45499052657257283], [-0.23643299040141005, 0.6340665846308775], [-1.0210370932997277, -0.4233386122122831], [0.8505272250968228, -0.31084417075175097], [0.4658178766815861, -0.09042413873210348], [0.7272533628150089, 0.5500152803138229], [1.4000449522937124, -0.5460486226414702], [0.33798191212524364, 0.313232005014894], [-0.5004441745650354, -0.027394641635295314]], [[0.31090028572267864, -0.11301917138428777, 0.1873851961888149, -0.10837449837827201, -0.06766857972092856, 0.06562818393494303, 0.1330841942839051, -0.0700280077461727, -0.06787839808908312, 0.3594372553071781, 0.22286299179486202, -0.21955305468672426, -0.17510357865875834, 0.03511215145983326, -0.13232297418524178, 0.1638874429252983, -0.2692707979861218, -0.33622132378081193, -0.030475526610277665, -0.13111581788966126], [0.11637604437063828, 0.5563252502129733, 0.4748908733957024, -0.1533320782291805, -0.1415251787486059, 0.297129919819344, -0.07898775739764866, -0.3101462485622434, 0.32537447038574013, 0.17138535723486487, 0.23114722442127567, -0.1570368569283494, -0.14772655616880243, -0.16157720721623453, 0.04439967906060652, 0.19624635786805897, -0.012425627904188578, 0.23152029212640565, -0.2952330388227555, 0.3391224260143002], [0.07971850377632919, 0.3200126122672726, 0.044665815714665935, 0.1264722665077419, -0.0891901011251086, 0.022104021366246878, 0.05548737167912278, 0.12423532918493563, 0.033026273975439634, -0.07610090478501023, 0.10132317984812951, 0.19119578572031168, 0.13246418193717605, 0.10604575178300014, 0.15740926248260745, 0.022139297911615254, -0.07672117282712917, 0.20800480286657858, 0.040620001927604836, 0.2131756584464535]]], "biases": [[[0.10502761271799928], [2.364666840564324], [-1.0789252191129215], [0.32757037475771783], [0.25653055680011405], [-0.38649092082751124], [-0.7236765649694847], [-0.05059846172409217], [-0.21403076377576666], [-1.6533666167237522], [-0.2206736244482794], [-1.4125373991354222], [-0.5893263752322985], [-0.9066572423611179], [1.18628937021622], [-0.29124410866082023], [-1.5558395100970648], [-0.17404175620860435], [-0.038384698231294395], [0.4449661380346863]], [[1.432319294414519], [0.1280824074656721], [-0.2990163674354935]]], "cost": "QuadraticCost"}