{"sizes": [2, 20, 10, 3], "weights": [[[-1.1269041925519137, 0.11841942753509486], [-0.035482927309496724, -0.42792271430156176], [0.381257852644994, 1.383820989392825], [-0.10528646172903519, -0.7057194026558126], [-0.40903873815362246, -0.9787315514993489], [-0.23124258999600805, -0.2722227393755182], [0.5814364588489381, 0.05650573218713212], [0.37582909987775814, -0.758256954518787], [0.49850293999460193, -0.05143000861421956], [0.4419260570562322, -0.8272547660418759], [0.11127008832748443, 1.8138425651300392], [-0.567680691022601, -0.4320191832869527], [-0.533280408287136, 0.7614651896299333], [-0.18051564771316284, -0.34494908435464033], [-0.71576879329312, 0.08156581720427845], [0.2380458290217328, -0.9138825594035], [-0.6867381171158725, -0.4670484105556329], [-0.17397620780424317, 0.28785489144110293], [0.653180797417891, -0.20298440901745143], [0.523161233989186, 0.6520725687211065]], [[0.013625462240487383, 0.02555338764535618, -0.1240012668596346, -0.13490621797619548, -0.39281824845426905, 0.12385266524791774, 0.1844855032067865, -0.05284951271229454, 0.09133190756728905, 0.15211377754813676, -0.055588583881003614, -0.036145660122277525, -0.29958574920030856, -0.27885907674879495, -0.1936677932844727, 0.2792439121136716, -0.14573442786374244, -0.056104048747428976, -0.18640406128390033, -0.3639319164608584], [0.1061042415676179, -0.14220146333877812, -0.3311847140264081, -0.10185496117421018, 0.36083277668121366, 0.12010887454510595, 0.16263804633163906, -0.6982528677302386, 0.02207600649390588, -0.32669977680542994, -0.2364578962871902, 0.1779359070555618, -0.14173052815816942, -0.18543768557440435, 0.4381365332906127, 0.05624044904629551, 0.029937690649845368, -0.020231499712675908, 0.15849133498269632, 0.14662748341323834], [-0.24225238391450488, 0.3847967727656682, 0.19538647213203986, 0.1254229641537408, 0.42094814594372326, 0.4824801452411451, 0.12269435627534896, -0.17410878130965995, 0.22778740865508287, -0.23846733991149277, -0.33260042571420867, 0.44007034105700615, 0.15375864425145067, 0.186004177650345, -0.00690244277970668, 0.09290488149078478, 0.2047612426338047, -0.34946430415782664, 0.2659475750559812, 0.32337883801772843], [-0.2271510520669214, -0.18425706826404237, 0.09737817832729907, -0.10777039031727068, 0.2643316346683107, 0.056602281876425964, 0.02723807060024395, 0.46898494843696703, 0.3192898414938727, -0.26695665034723254, -0.16378663732946763, 0.21680039816372332, -0.3752273873696939, -0.03447758625289295, -0.0626026511518403, 0.18908451002489476, -0.09397173612979047, 0.0815966995392901, -0.01787389690368741, 0.05664135103367056], [0.2462205881635733, -0.010283327282153922, -0.2099630855020473, -0.09762091355852512, -0.015162707168562833, 0.10491218491313606, -0.2035819011650209, -0.1198997703525761, 0.18822239703845614, -0.05563450900625852, -0.17996346946638397, -0.24697511236505426, 0.0568051801831092, -0.08932336577703683, 0.05678188904098475, -0.041750002830943496, -0.13190282581407428, -0.00223651782549194, 0.023184328594636087, -0.17212912119362367], [-0.13603825395456556, -0.15584072434585505, -0.052046303130310244, -0.11841268317690526, -0.052501655671842375, 0.04558655672320259, 0.06237475683634592, -0.09343427924744245, 0.09536904069226881, 0.12382673854663502, -0.017636481873703123, 0.21060396442822793, -0.09343978571897985, 0.04931339937931485, 0.07855140333245203, 0.06200468679116276, -0.006137198315336379, 0.2311003696278476, 0.12953920867692245, -0.027945898151754942], [-0.14100810759616497, 0.14585843026669834, 0.3890315703814239, -0.2498899837717862, -0.17276404554080285, 0.2840714720511665, -0.10956182411337287, -0.10349449732911031, 0.3712881492875019, -0.246202353155087, 0.07494706896762589, 0.2844634555568193, 0.5613538934891509, -0.46945922877052026, -0.24678215963986677, 0.2894044554117535, 0.4586310425136334, -0.006955389624174695, -0.07414053755185254, -0.33977278747118395], [0.017244001294959913, -0.015523502068024806, -0.05834959995541064, -0.15412640552291576, -0.18529903691873792, 0.025068066268497273, 0.04230899202282348, -0.3659711522736187, -0.254443329628041, -0.23421950733775002, -0.13613000180065182, -0.1963606133263994, 0.10538122259691708, -0.5010121705779655, -0.467504107857184, -0.16275146093643733, -0.35669852946912145, 0.460663672692537, -0.3331806527875356, -0.04019080096979548], [0.08802366340304647, 0.04407102156218309, 0.14415699545419758, 0.15121110957105, 0.1323970420800794, -0.3658923179148904, 0.1495064851989353, -0.3235183026344287, 0.2965595028801108, -0.09027687030402767, -0.47683626201892865, 0.1487540009933785, 0.0324421221053957, -0.0002632946026166321, 0.15104312020395666, -0.14416040199203986, 0.20674286088003255, 0.05490099999717748, 0.13890263802615718, 0.3176246823569029], [-0.2977545841245906, 0.07985292034897849, -0.0204143888490782, 0.39829733752314633, -0.0748080158286724, -0.22505615912917876, 0.08123757873762777, -0.2451934513613262, 0.04690194421790128, 0.05895844751634829, -0.08834823031352972, -0.3166817826269379, -0.07883191052011718, 0.19003120383652178, 0.2916476873523168, 0.3596827619694708, 0.06126432123362468, 0.31116755669247753, -0.05173475174745129, 0.10758502142984892]], [[0.1923167982986096, 0.4055304490402251, -0.009080110078617658, 0.03158575321559325, 0.08576940841080223, 0.09029152817017963, 0.3134960536670067, -0.32416405134674, 0.14193686638388814, 0.68774815636153], [0.0870260001016172, -0.012175317768543767, -0.16868596752126458, 0.12249918299858246, -0.02760182877889399, 0.32012638055336134, -0.3214066740896385, -0.027128821518202815, -0.30499250870858685, 0.42682856282712883], [0.5901398363053861, -0.025996794962724175, -0.013324465117589694, 0.4231622157123051, -0.12617469498284026, 0.26929592658956103, 0.27506314177732827, -0.16819868073883257, 0.5743070227661558, 0.27334619069688865]]], "biases": [[[-0.16517492208474197], [0.34759118945990325], [-1.4863205235581354], [0.19542395653248634], [-0.03039170753195846], [-0.6806426736600876], [1.3625310646745366], [-2.1070541607028948], [2.0046780225567304], [-1.1918325519914457], [-0.9375932481717182], [0.19459514017495558], [-0.15273391278793713], [-0.28345132328577843], [-0.7470494755905068], [0.20244228775911724], [-0.08920144529696562], [-1.6657928564077562], [0.9025714111359193], [-0.48572920574062917]], [[-0.778110360986769], [1.0026629963440623], [1.6248985545028671], [-1.1960531195051807], [0.45881008959133573], [-0.7096132674650389], [0.09242006401600501], [0.75936271180999], [0.29464174219115746], [-0.14663927633624158]], [[-0.17607924074001122], [1.0435098084428651], [-0.09115018150572635]]], "cost": "QuadraticCost"}