{"sizes": [4, 12, 3], "weights": [[[-3.6735921721615582e-06, 2.577607031550889e-06, -1.908664359611989e-05, 6.035394200196586e-06], [-8.952610632063165e-07, 6.281800335798483e-07, -4.651304201681223e-06, 1.4704074005750942e-06], [-3.4861671974987056e-06, 2.446077060541369e-06, -1.8113042518338325e-05, 5.727029976792243e-06], [-3.7132384480669986e-06, 2.6054199376880545e-06, -1.929268103653002e-05, 6.100495747656001e-06], [-1.6697554135029282e-06, 1.1716208411512102e-06, -8.675189120138477e-06, 2.7427653420086144e-06], [-3.5254140171612074e-06, 2.4736153114984773e-06, -1.8316952707887484e-05, 5.7915455053358805e-06], [-3.4067894827130153e-06, 2.390417579294307e-06, -1.7700286303055607e-05, 5.597039907194261e-06], [-1.626707332879273e-06, 1.141415313328707e-06, -8.451531593648071e-06, 2.6720386398414193e-06], [-3.7240897587375463e-06, 2.613030362136226e-06, -1.9349093000347638e-05, 6.118287305790609e-06], [-3.2867551893118174e-06, 2.3061578065973057e-06, -1.7076964173615717e-05, 5.3992639274261315e-06], [-3.707212538821909e-06, 2.601192892522054e-06, -1.9261362380881434e-05, 6.090604600324789e-06], [-3.2332437814886462e-06, 2.2686529094931753e-06, -1.6798552753118316e-05, 5.311864141838819e-06]], [[0.0026276564321620743, 0.0009004984709145678, 0.0032173142682148928, 0.002732038157125154, 0.001313972896130923, 0.003184664787429618, 0.0023154152588353155, 0.0012920934086348955, 0.0028045362243608127, 0.0033499128752826086, 0.0027101324738822282, 0.002180109998942155], [0.0006311572222691653, 0.00021629083430960852, 0.0007727718135015822, 0.0006562271553224684, 0.00031560983180513606, 0.00076493097840968, 0.0005561614541104557, 0.0003103541806733681, 0.0006736390991909829, 0.0008046152700732232, 0.000650965991333488, 0.0005236618064416289], [0.004328204309753724, 0.001483278923919858, 0.005299479319209737, 0.00450013982686136, 0.0021643416479859754, 0.0052456994818533996, 0.003813887841807023, 0.00212830243269635, 0.004619557317591884, 0.005517894288898857, 0.004464057202963008, 0.0035910165683133346]]], "biases": [[[0.49188947433195584], [-1.3089645348526429], [1.1515692662247132], [0.5980122118070619], [-0.7986780484850863], [1.1097769336055516], [0.1878049835231222], [-0.8229341871785066], [0.6736583075039285], [1.331625405211531], [0.5754871826223608], [0.05945745966520124]], [[-2.968445436400424], [-3.023375682841072], [-4.277531622182416]]], "cost": "QuadraticCost"}