{"sizes": [6, 12, 3], "weights": [[[0.0004028456174400118, -0.0007522362238501638, 0.006324797559876286, 0.003291638132332788, 0.0012317479866293128, 0.0006840243636015726], [0.00040284561743995787, -0.0007522362238500668, 0.006324797559875445, 0.003291638132332378, 0.00123174798662915, 0.0006840243636014701], [0.0004028456174399994, -0.0007522362238501404, 0.00632479755987606, 0.0032916381323326816, 0.0012317479866292746, 0.0006840243636015453], [0.000402845617439965, -0.000752236223850079, 0.00632479755987553, 0.0032916381323324297, 0.0012317479866291716, 0.0006840243636014859], [0.00040284561743998736, -0.0007522362238501203, 0.006324797559875901, 0.003291638132332612, 0.0012317479866292402, 0.0006840243636015261], [0.0004028456174399727, -0.0007522362238500908, 0.006324797559875651, 0.0032916381323324787, 0.0012317479866291964, 0.0006840243636014984], [0.0004028456174399865, -0.0007522362238501179, 0.006324797559875888, 0.003291638132332599, 0.0012317479866292378, 0.000684024363601526], [0.0004028456174400033, -0.0007522362238501479, 0.00632479755987614, 0.003291638132332713, 0.0012317479866292887, 0.0006840243636015556], [0.00040284561743999576, -0.0007522362238501363, 0.006324797559876026, 0.0032916381323326686, 0.0012317479866292658, 0.0006840243636015432], [0.0004028456174399778, -0.0007522362238501002, 0.006324797559875717, 0.0032916381323325186, 0.0012317479866292063, 0.0006840243636015068], [0.00040284561743999923, -0.000752236223850141, 0.006324797559876065, 0.003291638132332685, 0.0012317479866292755, 0.0006840243636015459], [0.00040284561743996513, -0.0007522362238500789, 0.00632479755987554, 0.003291638132332433, 0.001231747986629172, 0.0006840243636014872]], [[0.002067545952632132, 0.002067545952631792, 0.0020675459526320623, 0.002067545952631835, 0.0020675459526319716, 0.0020675459526318762, 0.002067545952631966, 0.002067545952632088, 0.002067545952632027, 0.0020675459526319213, 0.0020675459526320675, 0.0020675459526318485], [-0.0007124656801551036, -0.0007124656801549349, -0.0007124656801550675, -0.0007124656801549564, -0.0007124656801550316, -0.0007124656801549809, -0.0007124656801550314, -0.0007124656801550827, -0.0007124656801550667, -0.0007124656801550033, -0.0007124656801550694, -0.0007124656801549554], [-0.06116633541613626, -0.06116633541612438, -0.061166335416133456, -0.06116633541612576, -0.06116633541613106, -0.06116633541612729, -0.06116633541613088, -0.06116633541613434, -0.06116633541613289, -0.06116633541612856, -0.06116633541613352, -0.06116633541612584]]], "biases": [[[0.23988631689194054], [0.239886316891511], [0.23988631689184317], [0.23988631689155943], [0.23988631689174306], [0.2398863168916152], [0.23988631689173365], [0.23988631689187184], [0.2398863168918226], [0.23988631689166243], [0.2398863168918455], [0.2398863168915615]], [[-6.589208862816756], [-7.122147222557421], [-9.534809289872513]]], "cost": "QuadraticCost"}