{"sizes": [6, 12, 3], "weights": [[[0.00045636235951172636, -0.0008468409979372249, 0.006903719784867673, 0.004080877845401395, 0.0008574440473547036, 0.0005889257451711279], [0.0004563623595117479, -0.0008468409979372651, 0.006903719784867988, 0.004080877845401593, 0.0008574440473547426, 0.0005889257451711606], [0.00045636235951175894, -0.000846840997937283, 0.006903719784868155, 0.004080877845401687, 0.0008574440473547604, 0.0005889257451711776], [0.00045636235951176425, -0.0008468409979372903, 0.006903719784868231, 0.004080877845401722, 0.000857444047354771, 0.0005889257451711856], [0.0004563623595117619, -0.0008468409979372867, 0.006903719784868192, 0.004080877845401705, 0.0008574440473547647, 0.0005889257451711811], [0.00045636235951175596, -0.0008468409979372778, 0.006903719784868104, 0.0040808778454016524, 0.0008574440473547542, 0.000588925745171171], [0.0004563623595117447, -0.0008468409979372609, 0.006903719784867939, 0.004080877845401555, 0.0008574440473547361, 0.0005889257451711575], [0.00045636235951173926, -0.0008468409979372487, 0.006903719784867849, 0.004080877845401501, 0.0008574440473547248, 0.0005889257451711467], [0.0004563623595117697, -0.0008468409979372988, 0.006903719784868293, 0.004080877845401756, 0.0008574440473547812, 0.0005889257451711913], [0.0004563623595117486, -0.0008468409979372656, 0.006903719784867998, 0.004080877845401602, 0.0008574440473547435, 0.000588925745171161], [0.0004563623595117483, -0.0008468409979372654, 0.006903719784867999, 0.0040808778454015995, 0.0008574440473547435, 0.0005889257451711612], [0.0004563623595117596, -0.0008468409979372839, 0.006903719784868162, 0.004080877845401692, 0.0008574440473547611, 0.000588925745171178]], [[0.002104625949075685, 0.0021046259490758146, 0.002104625949075869, 0.0021046259490759174, 0.0021046259490758875, 0.0021046259490758576, 0.0021046259490757864, 0.0021046259490757582, 0.0021046259490759382, 0.0021046259490758194, 0.0021046259490758203, 0.002104625949075871], [-0.0011323528714045608, -0.0011323528714046697, -0.0011323528714047276, -0.0011323528714047336, -0.0011323528714047167, -0.0011323528714047013, -0.0011323528714046601, -0.0011323528714046347, -0.0011323528714047685, -0.0011323528714046712, -0.001132352871404668, -0.0011323528714047237], [-0.0647114132937008, -0.06471141329370547, -0.06471141329370787, -0.06471141329370911, -0.06471141329370839, -0.06471141329370719, -0.06471141329370467, -0.06471141329370356, -0.0647114132937101, -0.06471141329370554, -0.06471141329370554, -0.06471141329370801]]], "biases": [[[0.2645172994063619], [0.26451729940653324], [0.2645172994066225], [0.2645172994066657], [0.26451729940663743], [0.26451729940659724], [0.26451729940650665], [0.2645172994064712], [0.2645172994066991], [0.26451729940653745], [0.26451729940653673], [0.26451729940662605]], [[-6.589447391431508], [-7.1317421901527505], [-8.612307351306427]]], "cost": "QuadraticCost"}