{"sizes": [5, 20, 3], "weights": [[[-0.13781068401815796, -0.8020777949986834, 0.2688129712443716, -0.1614148103091344, 0.21523690614807975], [-0.8024503168352295, -0.02673800019808362, -0.32037658283095055, 0.4586742897352492, -0.6879654229149872], [0.28117889040601185, -0.3053627434751818, 0.5246864206568993, 0.34992989934188184, -0.026111985233142402], [0.7656769303493087, -0.4449537683915442, 0.7580281404187366, 0.28745111227777737, 1.0197653248520517], [0.05648727543796752, 1.3486836066258412, 0.2673666468964843, -0.034702944642941186, -0.16581752956658882], [0.7050289451458804, -0.33812940648272827, 0.06265857458634004, 0.16475811913640628, -0.46117472217083316], [-0.0328544132934702, -0.2825031445741858, 0.6299603509788674, -0.5188519668133097, 0.45622733233127694], [0.09664289249921995, 1.4875197789322552, -0.2511926776535779, 0.00028486717314696493, -0.043054875333112724], [-0.8735315714515008, -0.22922701781540672, -0.17708229576491227, -0.11635299378700775, -0.4281381330411143], [0.6383125213003339, -0.21859540904754907, 0.12235136311764702, 0.03691290573759454, -0.08556582858382218], [-0.7113540391549908, 0.907990244780121, 0.08870712458341186, -0.12861427142239323, -0.003000298154970529], [0.07022842014183289, 0.014456029539738706, -0.4653323213659585, -0.19260759446671338, -0.976405847507306], [0.30718104592707024, -0.3836180044207953, 0.4433326038300277, -0.23331317373538998, 0.19435167309813425], [0.0271562438330195, -0.8021627327693297, 0.09140996619389477, -0.2517180846019832, -0.24258842595051944], [-0.18145031538993495, 0.36416366906756664, -0.11601233357205562, 0.1385410970507737, -0.6348503548463587], [0.08936258775611093, 0.3132379109625126, -0.2834134343101232, -0.3888296174959157, 0.06659093922368439], [0.4099620487950868, -0.46158433516835645, -0.8389630420030681, 0.06242208283552526, 0.1827578557835855], [0.14377562191919432, -0.04339188447468879, 0.668269795393123, 1.2472079810376318, 0.05604518418963465], [-0.39306827508746184, 0.17451573132378256, -0.24127543759523928, -0.7542896953476874, -0.3534617525751126], [-0.6023669910781846, 0.3278741610646103, -0.19371455179778602, 0.289209990663304, 0.2569095283070693]], [[-0.08064963337774897, -0.09169144187946825, -0.044234403616568996, 0.26158663848208924, 0.6543800710383407, -0.3233412412762456, -0.13117409612743466, 0.9536714639774801, 0.30820514308511987, -0.17442298756482275, 0.5061551168098394, -0.09222423794736294, -0.08601337817074058, -0.4712743382265364, 0.11248806083064813, 0.06468743921560866, -0.315554168416685, 0.02070611968735617, -0.007294823108502378, 0.13306260931550337], [-0.20547939942474105, -0.2684412173241504, -0.12947257653488337, -0.15049283926153578, 0.6497002248253201, -0.2088755902271567, -0.14559386726579743, 0.8415387980457496, -0.08390321528696396, -0.3431630018210572, 0.5456000871552656, 0.2955436459410827, -0.17074605059617878, -0.32826360667251847, 0.16211852764951099, 0.18093009777815572, -0.35454298175630583, -0.01841763705630793, -0.09104537363747361, 0.3198561460636669], [-0.14800311617984596, 0.14317532477968048, -0.30427048573740184, -0.09973892507731927, 0.8132599086120054, -0.3936408786973496, 0.29447520804408883, 0.622439435227179, -0.07998997479870354, -0.24715010333374288, 0.5722657176354873, 0.06163395189055317, -0.3995802623453475, -0.4508451230777197, 0.07809104319510615, 0.13167200775495622, -0.2616969879126822, 0.07162039467070237, -0.1153451185563601, 0.05851181783614042]]], "biases": [[[1.066497432951922], [0.12105327125339366], [1.2194139896375722], [-1.7446170029515207], [0.693930725997011], [0.6763050157347748], [1.1908911472342034], [1.040901758653867], [0.3631178272377192], [-0.8962203511877092], [0.627321969399131], [-1.93453691424697], [-0.6273987346480043], [1.6881509769673142], [1.2187652316064166], [-0.7642993662925589], [1.0597823682458767], [-0.550479287172079], [-0.6796777069178254], [-0.34583691703746344]], [[0.07156730986398586], [0.6758314994396265], [0.6186481287253495]]], "cost": "CrossEntropyCost"}