{"sizes": [6, 12, 3], "weights": [[[0.00047104061891680896, -0.0008937892611995995, 0.008353272003100277, 0.004230633378570301, 0.0018090823502490624, 0.0007666581458525936], [0.00047104061891677, -0.0008937892611995303, 0.008353272003099618, 0.004230633378570009, 0.0018090823502489096, 0.0007666581458525244], [0.0004710406189167968, -0.0008937892611995792, 0.008353272003100118, 0.00423063337857023, 0.0018090823502490212, 0.0007666581458525745], [0.0004710406189167907, -0.0008937892611995653, 0.008353272003100006, 0.004230633378570161, 0.0018090823502489918, 0.0007666581458525607], [0.0004710406189167903, -0.0008937892611995644, 0.008353272003099998, 0.004230633378570157, 0.0018090823502489894, 0.0007666581458525594], [0.0004710406189167765, -0.0008937892611995445, 0.008353272003099746, 0.0042306333785700504, 0.001809082350248938, 0.000766658145852538], [0.0004710406189167749, -0.0008937892611995417, 0.008353272003099717, 0.00423063337857004, 0.0018090823502489295, 0.0007666581458525335], [0.00047104061891677866, -0.0008937892611995475, 0.008353272003099783, 0.004230633378570063, 0.0018090823502489443, 0.0007666581458525406], [0.00047104061891677047, -0.0008937892611995319, 0.008353272003099634, 0.004230633378570013, 0.0018090823502489126, 0.000766658145852526], [0.0004710406189167846, -0.0008937892611995548, 0.00835327200309989, 0.004230633378570106, 0.001809082350248964, 0.0007666581458525497], [0.0004710406189167613, -0.0008937892611995133, 0.008353272003099469, 0.00423063337856993, 0.0018090823502488749, 0.0007666581458525076], [0.0004710406189167731, -0.0008937892611995377, 0.00835327200309968, 0.004230633378570029, 0.0018090823502489217, 0.0007666581458525309]], [[0.001967441953975947, 0.001967441953975787, 0.0019674419539759125, 0.00196744195397588, 0.001967441953975869, 0.0019674419539758145, 0.0019674419539758062, 0.0019674419539758062, 0.001967441953975788, 0.0019674419539758427, 0.0019674419539757464, 0.0019674419539758067], [0.0007655362429003182, 0.0007655362429002684, 0.0007655362429003057, 0.0007655362429002971, 0.0007655362429002939, 0.0007655362429002765, 0.000765536242900275, 0.0007655362429002749, 0.0007655362429002724, 0.0007655362429002882, 0.0007655362429002564, 0.0007655362429002742], [-0.07045854211625756, -0.07045854211624926, -0.0704585421162552, -0.07045854211625367, -0.07045854211625356, -0.0704585421162508, -0.07045854211625033, -0.07045854211625124, -0.07045854211624938, -0.0704585421162524, -0.07045854211624716, -0.07045854211624988]]], "biases": [[[0.24651651527654259], [0.24651651527626642], [0.24651651527645904], [0.24651651527641263], [0.24651651527641072], [0.2465165152763173], [0.2465165152763022], [0.24651651527632898], [0.24651651527627447], [0.2465165152763664], [0.246516515276196], [0.24651651527628882]], [[-6.58384675116775], [-7.166483590628472], [-9.611876271994282]]], "cost": "QuadraticCost"}