{"sizes": [4, 12, 3], "weights": [[[-9.231143851155888e-06, 5.686167463413971e-06, -4.832512609042084e-05, -5.088315250712263e-05], [-3.5490420720196583e-06, 2.186139657783279e-06, -1.857907995331165e-05, -1.9560002168900268e-05], [-9.65973609148883e-06, 5.950079834640571e-06, -5.056881693163053e-05, -5.3252235746974755e-05], [-1.945241593565207e-06, 1.1982237128103923e-06, -1.018322216198508e-05, -1.072107688380797e-05], [-2.9090435638966853e-06, 1.7919098635985366e-06, -1.522869660097948e-05, -1.603281465630114e-05], [-9.614424994947881e-06, 5.922233008684393e-06, -5.0331632138902106e-05, -5.299801989876053e-05], [-9.191510130009345e-06, 5.661755941510288e-06, -4.8117640386624866e-05, -5.0664521040681115e-05], [-9.450553978949473e-06, 5.821306064200068e-06, -4.94737553890421e-05, -5.20936460002382e-05], [-9.72318628967708e-06, 5.989171256687584e-06, -5.0900988336099055e-05, -5.360151305107843e-05], [-2.1886635826244917e-06, 1.3481673679166118e-06, -1.145752718952927e-05, -1.2062636152472041e-05], [-6.551345799351779e-06, 4.035512197634249e-06, -3.429620260770545e-05, -3.610762230149579e-05], [-9.194319977123225e-06, 5.663371257619219e-06, -4.813230743638534e-05, -5.068800954172125e-05]], [[-0.0015695928032929156, -0.000747797926500581, -0.0019536893827540097, -0.0005253351632003145, -0.0006632186877599578, -0.001690782998914864, -0.001559735004179887, -0.0016311088739240816, -0.0019195816389123025, -0.0005618443927962184, -0.0011286446853476116, -0.0020852707335311726], [-0.00437717080049099, -0.002085275705111505, -0.0054480246158746925, -0.0014648587447441811, -0.0018493901766860167, -0.004715082157344494, -0.004349683199316976, -0.004548698355430497, -0.005352946094154857, -0.0015666740208479767, -0.003147470949436108, -0.005814798479520692], [0.002168641063496361, 0.0010330878617496428, 0.002699082032281685, 0.0007256957869875152, 0.0009162136562466286, 0.0023360365549606452, 0.0021550236711064745, 0.0022536143379648464, 0.0026519903588994092, 0.0007761398359022216, 0.001559388772630114, 0.0028807343994056156]]], "biases": [[[0.28263842613949325], [-0.9865074665811777], [0.8934815002255108], [-1.4449764783336458], [-1.1479149617705102], [0.46498331778293556], [0.2680460169864159], [0.374435544116435], [0.8341582039859298], [-1.3612382723561465], [-0.36395794849871654], [1.138143018613671]], [[-2.970843192201313], [-3.018749783657395], [-4.336779803025915]]], "cost": "QuadraticCost"}