{"sizes": [4, 20, 10, 3], "weights": [[[-0.33391881540455287, -0.8257538135931682, -1.2778210713844789, 1.0918949190389802], [-0.89109525499045, 2.8579478463102883, -0.037482824181038654, -0.07175662704673824], [0.6699436512849113, -0.367162295687813, -0.0536048741779517, 0.2875337471083564], [0.7441520403669939, -2.604325207798849, -0.2103880411131764, -0.2180835985005989], [0.019528062950282105, -0.20662705209573998, -0.19878118522429408, -0.35587944401312505], [-0.1428784509353172, -0.50948644013619, 0.9441934906278859, -0.10070548155602048], [0.13694324323702717, -0.15527697599817528, 0.24072629092654146, 0.3245614204337689], [0.34508697823282997, -0.5860622543092803, -0.037142785507127095, 0.4905298495150738], [0.5295918594224087, 0.13656979474263403, -0.024990667667920283, 0.6799434505445406], [0.7234682855359562, -0.5589232691106272, -0.04056624310666038, 0.42726526544971927], [-0.21334071896171658, -0.10566144544746221, 0.0643384707305588, -0.6495083888566763], [0.34544542030297, 0.03655685154142419, 1.106494160530056, 0.7780395976260758], [0.32483461853060136, -1.2510216211240335, 0.3749692377312829, -0.15278323080574463], [0.44583706014658997, 0.29016135265693843, 0.8256059293417358, 0.20611106519595102], [-0.5783102818449599, -0.024367593365028715, -0.14128506062643234, -0.3892194885852634], [0.6250492506955396, 0.347500166059235, 0.4099644824844954, 1.2101580620132746], [0.07978686629314785, 0.0021953008310710573, 0.25021412802217036, -0.8617356680268403], [0.08329678112359591, -1.5049023833139539, -0.5703416199809843, 0.16116761366363233], [-0.192839897652439, -0.7092619196959387, 0.8772121920581315, -0.504322865648038], [-0.5498889970018854, -2.574995225708349, -0.4077429216079587, 0.07556443602530262]], [[0.19262715520004722, 0.41247329072743694, -0.01081005393568571, -0.2517428352053392, -0.27629858528249757, -0.09285839516472737, -0.2568648000945629, -0.15170443894430885, 0.07121976810964184, -0.021944636692811628, -0.39837272494564585, -0.21787659947054877, 0.3077726223708467, -0.4317479604407091, 0.16607108814358673, 0.132928212054393, -0.1438461357350151, 0.04484212224884668, 0.24468453014635194, -0.38310076999614684], [0.10150474103037092, -0.16756594260360083, 0.032672926478352744, -0.09113407893012723, 0.06909467307552765, 0.029770750848948806, -0.16438285484013124, 0.11887216455496556, 0.021763892980695407, 0.23239725473799838, 0.16511814393698954, 0.0992132227362081, 0.03549965666940477, 0.2833846739888467, 0.24844015703097605, -0.13772220922261313, -0.4994114162892267, 0.08076837041214141, -0.16065394789201073, 0.051888576798192566], [0.23223216614632866, 2.1541849228436094, -0.31411906996105105, -1.7246249350892278, -0.0887908520765794, -0.6197581789689863, 0.0601253671709485, 0.1215946047471598, 0.03390626574242857, -0.29308489805576127, -0.007756341653964336, 0.25740527756970133, -0.4960630544026503, 0.23117020182120884, 0.09429924373479148, 0.48581018099947393, -0.38684640454074526, -1.1282334439770392, -0.3305400419933666, -1.6712790779700182], [-0.03148157602924102, 0.24700158733609434, 0.32168365705063773, 0.0005390040650841995, 0.30411186069947854, -0.3047806808071835, 0.07654390978487227, -0.2703865837886989, -0.023067812339659967, -0.026791320377278337, 0.04277505406418432, -0.05374689952666659, -0.2613292317344977, 0.15584807687543706, 0.30962177300492877, -0.02740578439246588, 0.46286918739177046, 0.0403990135031041, -0.11797657046354848, -0.44919365518409693], [0.22421694049505503, 0.5866047703205759, 0.21281793766613338, -0.47245709376145484, 0.5061737445347766, -0.5902048710333001, -0.1438889803247311, 0.07020162194887487, -0.004921342941032175, -0.22791218605810654, -0.2121474647795179, -0.00712875971551496, -0.6854989167709179, 0.333907718201986, 0.3332662453067566, 0.10994874952659683, -0.22541802444434392, -0.15846372504800213, 0.07945646194499777, -0.6180675302285478], [0.19270027683010235, 0.10476423214597903, -0.1506339342797238, -0.5179164002297411, -0.0336371061531189, -0.6371147853045372, -0.2918459530674848, -0.2902631272209101, 0.22674567530517742, -0.0210499669914301, -0.054110507253185336, -0.07932043605043793, -0.3948349517531541, -0.32579174592346344, -0.36253191141933694, 0.045207946357703616, -0.579705318207633, -0.2576101934554583, -0.2975224623101956, -0.24493083975353738], [0.2558287826538043, 0.9717570636805152, -0.3840237144035188, -0.5581740371613673, 0.32000425548467626, 0.11240108205239818, -0.16623984446679024, -0.06773178595715858, -0.20046442775092646, -0.34845868002767144, -0.0885735142482196, 0.22955502040121167, -0.19713269700437658, 0.12830165373009725, 0.6253168217636109, -0.30289688604533876, -0.10085326099103367, -0.3371020176185884, -0.17272084036804036, -0.6588186268555143], [-0.10178510517150345, -0.16573328811790777, 0.022266266874338546, 0.08593973485930156, 0.11930930664137002, 0.4040932061954725, -0.1391900112693572, 0.1858410026814039, 0.030757433018662784, -0.02591415420271219, 0.1684893916494334, 0.08672507567113415, 0.4606735192716624, 0.31657056255533966, -0.033860959482052866, -0.1174959438967932, -0.003668660408711083, -0.08452557760920325, 0.20967730462863338, -0.003346305705117862], [-0.11285676509568184, -0.3848093109971158, -0.054092220429523864, -0.10194097777312217, -0.1595660618356853, -0.28612729834324196, -0.020002462398761106, 0.10231752352493763, 0.07611831191446072, 0.2821352662620884, -0.3725113826902053, -0.22640524697353998, 0.5155418821233944, -0.11583810141653797, -0.3328245982393192, -0.2659526092520862, -0.37534847057710063, 0.013075115778205738, -0.15113913527312695, 0.10605160177301229], [0.026737555900780162, 0.10462370919455825, -0.33255099788941783, -0.3113706799381939, -0.3147198579635379, 0.11784827411288672, -0.13689864797409013, -0.2830573216026387, 0.0689843942832919, -0.0796879713256449, -0.11883123296797655, -0.24563038680474092, -0.16176651811029114, 0.19069826266573028, 0.06813169162267035, -0.10360605892871481, -0.3491602522037194, -0.022309987118932444, -0.3269486151489116, 0.017065859303777558]], [[-0.406420719070932, -0.1782548000292544, 1.3908730608641302, 0.010536912712431864, 0.005873665293940426, 0.2979719892224196, 0.6939529591495341, -0.4034071928790365, -0.12331551514569547, -0.18873284259434175], [0.5514171803245962, -0.14307025982782481, 2.270988347956639, 0.4320243695035447, 0.9986740662580839, 0.870435452836728, 0.755314791159612, -0.16626743395938612, -0.41467655576105217, 0.33699567985680834], [0.2773690192143636, 0.5838533476189062, 1.1855902310008324, 0.527722705345016, 1.1450532445554567, 0.0606613872651252, 0.7239425214981587, 0.11366343557250612, 0.004108317035757417, 0.08565952658503756]]], "biases": [[[0.38397654428450195], [0.7367533043152117], [-1.6459647077570836], [1.537557983750775], [-0.3817232331116728], [-0.06607947529201742], [-0.5254926594842454], [-0.20506277566691936], [-0.7818933691598959], [-1.2292710821816504], [-0.19213631857012983], [-0.13483401171080045], [0.5194133874088682], [1.0282337961302321], [0.0530601236733463], [-0.3541284285107946], [-0.032237964111909476], [0.5040511433208001], [-0.6100432904291938], [0.6465245063027637]], [[-9.57793048315095e-05], [-0.3953700804800156], [0.6077239811472258], [0.0015197242726398361], [0.27351254055573027], [1.3370942519403652], [-0.05352924832210859], [-1.3940959512492959], [-0.2859914018588806], [-1.3463973395442226]], [[0.5694115502321242], [-0.3137997534933871], [-0.55642850145276]]], "cost": "CrossEntropyCost"}