{"sizes": [5, 20, 10, 3], "weights": [[[-0.4377308288666939, 0.45203865355450584, -0.4145008728739795, 0.22837695388106957, 0.35660147380487156], [-0.44108375752648976, 0.18278176824873232, -0.8061863479383519, 0.10157157467389666, -0.05726905918610127], [0.6249696240524755, 0.9686180007340076, -0.6037552401793016, 0.011288165280399578, -0.021980614570251147], [-0.434474678660423, -0.005545215181632389, -0.38359014707427036, -0.18909356385586915, -0.6051674849086075], [-0.5402327199633725, 0.05731259120097708, 0.37472286221209117, 0.2909384931349158, -0.7928209590350668], [0.5393569907400063, -3.2463967579760262, -0.1233216531013177, -0.035354470429208265, -0.08228292071447195], [-0.24748906982181432, 1.6414955107512061, -0.14055657129487836, -0.05732852347463709, 0.011543793120658154], [-0.0004338470483449031, 0.8352441991865204, -0.7525542385689002, -0.3347359931856263, -0.52705273367403], [-0.8058984403138946, 0.033312395383292635, -0.4394692193404492, -0.01125201230966887, -0.12896851129579134], [0.34039090793628196, -0.4998411017458792, -0.325498362167736, -0.3180559241970269, -0.850743841873046], [-0.2740729518029905, -0.04212128610583069, 0.09003607087851234, 0.0862242376634158, -0.5003788255540432], [-0.6059113254886752, 1.6320350412562772, -0.5227996723467828, 0.03374169789230158, 0.01572161993618723], [-0.17299314231029855, -1.3082598746783296, 0.5543289314420351, 0.04659672904099627, -0.08462264328789589], [0.1410097732403858, 0.6478401928207742, -0.32347654427921135, 0.02731706472751677, -0.24929858234534064], [0.1810482968777938, 0.010960230616139254, -0.5000790713248234, -0.8393998937739535, -0.2921537995850575], [0.6695163491392805, -3.950219524718605, -0.912639710593649, 0.02884069127381994, 0.07138453934325134], [-1.671252275791832, -0.4258138930353112, 0.5227120822258126, 0.13813514387068812, -0.09993321298500969], [0.46285615244587447, -0.623536305826151, -0.6948767796850535, 0.00893962165183823, 0.24817111636757722], [-0.23551407889759837, 0.6396492948521315, 1.1320759448483344, -0.1295282902101376, 0.5896804460390392], [0.21073555565120358, 0.340909806878179, 0.13363483460124057, -0.6309196143463472, -0.5455067640879815]], [[-0.10018487979510488, 0.4506223337839462, 0.29288859163204306, -0.2822208066915043, -0.5248200724527454, -0.11346626517827008, -0.06615576211010946, -0.20532459523584104, 0.3199826789903894, -0.2894086648366401, -0.23146763592347594, 0.2749873724441153, -0.2846396470927231, 0.27747490084742404, 0.016748762405399076, -0.8486665180605243, -0.5051033563218441, 0.04130280813136982, 0.04207665924827112, -0.42386563732283633], [-0.01765307160462909, -0.07708252210971205, 0.05760578683324284, -0.6112521130921559, 0.12996818439187763, 0.23308617300070986, -0.1949483436962376, -0.07711307804363011, 0.3891281713421657, 0.019804578259947383, -0.08722993330291497, -0.170317550411855, -0.2548801448510843, -0.04615533237540636, 0.004726124492586352, -0.15458911779569787, 0.23126904279632085, -0.13428224845097397, -0.23545661434294285, 0.0066794932052174506], [0.2258338494436848, 0.31249979364533903, 0.31510222437070357, 0.24083589398472394, -0.16199398381063776, -1.5573061636219698, 0.5797695073851653, -0.09178856963349656, 0.09052259298406062, 0.0248988306699306, -0.17400702454705283, 0.9129357739713502, -0.7521894200871156, 0.32164220658949993, 0.19398919594013098, -1.8900150941825966, 0.07601038730022663, -0.099466146800829, 0.019167347963976133, -0.044299669805249284], [0.36300931985839546, -0.18079886243509052, 0.515858662001422, -0.06416636065515631, -0.30408249994143954, -0.9547758347171472, 0.7714586450219716, -0.1440334454824639, 0.09696611114891376, -0.20191990244336186, 0.015232087436408633, 0.4368601823885098, -0.5086994822357197, 0.1213986325821419, 0.12461248302573769, -1.2744266846667158, -0.1666386605279512, -0.274963746199597, 0.16262163297166027, 0.12461679376620892], [0.13462201123917616, 0.2125316100829569, 0.011740274822948968, 0.028159652054751416, -0.0754972640244542, -0.3012681308404862, 0.08965712984494328, -0.21616941978815718, 0.354122043140445, 0.12694373480278978, 0.1452776668807334, 0.12093534459277379, -0.20168758902973624, -0.22178777062203822, 0.07930267121336977, -0.4093886125388274, 0.047360071602492844, -0.4761765889859517, 0.24230714055684507, 0.18552058327088367], [-0.3411572102428741, -0.00036556937901361156, 0.22114619882409967, -0.11993327513118493, 0.4252175237318674, 0.2541680733736593, -0.3985981491503883, -0.17419424134447067, -0.3976356135396476, -0.3042012329856866, -0.09123793103181518, -0.18047772585905733, -0.26420727493351714, -0.45869679621602294, 0.1898984611937967, 0.2457573669636137, 0.25372937798201833, -0.2792113824538066, 0.11778680484076712, 0.2229364170869783], [0.05021840107266282, 0.5016056895126871, 0.46525108263633175, 0.28516950513987893, 0.1777924346085745, -1.0167860092756218, 0.7458936227328107, -0.07597529208912582, -0.04453148911592189, -0.16426019471766534, 0.24687278028483717, 0.6032582869351311, -0.356669723179439, 0.521042610757324, -0.050855443945248935, -0.91164364435581, -0.12994652149858188, -0.11693497247868982, -0.03197640347136581, -0.03569207030259961], [0.40541917413647793, 0.23048806805507382, 0.3637346604979402, 0.10150514299689188, -0.09945848124035764, -0.7254482439535646, 0.313062097273849, 0.41811949405639953, 0.13250799471902702, 0.5162941936061909, 0.12287309598590171, 0.5733746273809486, 0.37533881700832694, -0.061532347515865615, 0.13694509345360442, -0.840193657355337, 0.03390648612594862, 0.20917717002480035, -0.01162197831866327, -0.12497364344205676], [0.2150661476432622, 0.4576643186449193, 0.1801669582835572, 0.3513335428740297, -0.08038460151838428, -0.5647286326628363, 0.5209198941790593, 0.24909444996085592, -0.012860048941962542, -0.23960404105158264, -0.2500923371476082, 0.3696432853898306, -0.08327622453199364, 0.28349540502058823, 0.2481379954146597, -0.43744699695669936, 0.0744549695817929, 0.09702712833598125, 0.31798853402774235, -0.2247111560910127], [-0.4268816855512478, -0.42091810829828613, -0.2549752975268646, -0.17668132624419222, -0.07028077487689247, -0.011670216122813777, 0.16804843060310262, -0.04959981709946937, -0.4578179426926732, 0.2317363380499156, -0.15064866977087996, -0.16365344554366357, 0.16432965171451772, -0.07973774372178696, 0.07190466736652573, 0.3275773624192802, -0.109533113223309, -0.008577495753193725, -0.33727887013676466, -0.16868244531393037]], [[0.32458531481437003, -0.09242843157985509, 0.8819538125871291, 0.6685642424970447, -0.103938626686646, -0.3490166090941651, 0.7006050494038213, 0.806721556414528, -0.10701699263702147, 0.003068402935662044], [0.7851618218084158, 0.2824357823230191, 1.764104566746896, 1.1995122600192407, 0.2436415199639776, 0.007006400280187525, 1.3306719917997536, 0.9597452597814989, 0.9780622144035085, -0.17794468107793943], [0.47312334090266284, -0.3677333387458529, 1.2329555964241188, 0.7840951426997503, 0.2562509479798749, -0.5300846351667846, 0.4693350086403248, 0.333234553132058, 0.22074967093060363, -0.4489903128191771]]], "biases": [[[0.812269875488437], [0.050568728742346254], [0.035950067027714805], [0.7500188006783609], [-1.0129226649997471], [0.7400247767090959], [0.027974960369215675], [0.7458938879913323], [-0.5515314591157731], [0.4082211125133467], [0.7228695280584824], [0.11837121605946284], [-0.27799675881159763], [0.9811765928346219], [-0.7379083468882164], [1.280188304151073], [0.8854882667072503], [0.06743713300387517], [0.3658657376919352], [-1.2108138437557203]], [[0.4045742568016516], [-1.5703001285241858], [0.6412524245118948], [-0.4260302302316703], [0.27565583868312893], [0.8482795678443527], [-0.4817895586509196], [-1.5549480757602385], [-1.6640673626774856], [1.2971988642333359]], [[0.2975478028314917], [-0.43875308514627165], [0.7297838872483616]]], "cost": "CrossEntropyCost"}