{"sizes": [5, 20, 3], "weights": [[[0.09369584940767028, -0.10219649572992841, 0.3850739490976093, -0.6169570489933965, -0.31986104276725424], [0.1552241092639507, -0.3950329906432565, -0.0759616385511216, 0.19981368849651468, -0.17263114423252773], [-0.5361243352696918, 0.4880399839023122, -0.1564551553923105, -0.5141156445166546, 0.7834173641715974], [-0.6839969664980685, -0.5777732026811648, -0.201733965455284, 0.2771740134039556, -0.4220326699845548], [0.21804454089713174, -0.09177925230325155, -0.03992396397949651, 0.6501620693218022, 0.39215331953831256], [-0.5441258294498174, -0.6864834767797549, 0.4255691511520953, 0.12556356248512685, 0.2365683206859591], [0.14385489363218024, -0.47572650770473707, 0.8053703800614115, -1.0146303704240134, -0.22602697513003647], [-0.8793061511911797, -0.7735849918985933, 0.3988579827698732, -0.46981386730973634, -0.1915467398517028], [0.554199992756181, 1.2098547378303632, -0.05655547131610509, 0.4868549745257858, 0.3669196802469205], [0.481501237033342, 0.32669619496919017, 0.7902655121752695, -0.43773985194503984, 0.3409105073115573], [-0.715082309010295, -0.06055230058719198, -0.14526774422947134, -0.18969391162779356, -0.07754945188793853], [-0.3019920963609321, 0.22206397880144568, 0.7108335528474273, 0.4143884345499728, -0.3947328886769699], [0.4760215486341195, 0.07898860268460213, 0.3850921809459388, -0.12835137135545074, 0.050769027906013654], [0.2935536638622116, 0.0833800023907228, 0.19458591467695105, 0.6514382695190994, 0.05110092423186816], [0.22953539884704116, 0.09482509561819523, -0.23245131626335416, -0.17235696570156653, -0.7653146665248062], [-0.08994767635989619, 0.8046466350478588, 0.08184061639765144, 0.09974616787605912, -0.03171904384891164], [-0.09876533143971904, 0.29106023438879874, 0.28581841202673436, -0.1467553696423563, -0.7895805446374159], [0.1848417581981986, -0.2647649493575107, -0.5430957954782063, 0.3254718877496761, 0.26494329727330673], [-0.06224897388431923, 0.2716299208755466, -0.5445527918869568, -0.5552652863962358, 0.09078532542693266], [0.006732453353435372, -0.3276243918984852, -0.15286917358854674, 0.06061871716747168, -0.26033285589067123]], [[0.12337826207472316, -0.04684894840675264, -0.11785663652521289, -0.0676830075627319, 0.3570749045109349, -0.14635013953366968, 0.17120622524993476, 0.0944313788489464, 0.27271119052666903, 0.06509907281705357, -0.1739633162079169, 0.019950233348195442, -0.11892687156554745, 0.45186335440949404, 0.15377706824046758, -0.011585432158566106, -0.0031464051409504663, -0.03241855664347561, -0.11075097208623474, -0.11206161984380372], [-0.29002411498019837, -0.26759032571068125, -0.2982096806122091, 0.06660452314679197, -0.12937284627824644, -0.16777884487557257, -0.07896694367340155, 0.14818429967761237, -0.2109108484239122, 0.23676577289385992, -0.0984024863169407, -0.008811197585032137, -0.05159491963978083, -0.10237844150217332, 0.01475145464462577, 0.4290839406105373, -0.13047974043276606, -0.13183589368277013, -0.24880941063969994, -0.3718279066156167], [0.2275041101838838, 0.15500462981431243, -0.017141049640933007, -0.028198501807789416, -0.3932879408777318, 0.22428275556571572, -0.01790010242980485, 0.03284751876780224, 0.6025639062959292, 0.1430829430537722, 0.30556321332344333, -0.00484023706476395, 0.2309289971875575, 0.2921936300617996, -0.1056978362445354, 0.36644334392138794, -0.1604435255809148, -0.00844169858399147, -0.06802619213980698, -0.03678426123113705]]], "biases": [[[1.120401907842021], [-1.2403464567185183], [1.3969016371423038], [-0.29240899172997004], [-0.7213118216817557], [-0.9208259862787767], [0.5617892746515534], [-0.4140130874192572], [-0.8325181077775493], [1.1637089156839562], [-0.01196687354378199], [-0.5793233274733394], [1.592392133840936], [0.24937462227572355], [-1.3406785657356486], [-0.900180568752729], [0.3562567855351266], [-1.2223827610397826], [1.0455057013977946], [1.0860106283130373]], [[-0.08278929040308358], [1.7896668021420343], [-0.35751725859779526]]], "cost": "CrossEntropyCost"}