{"sizes": [4, 20, 10, 3], "weights": [[[4.015814166225697e-11, -2.3776353704896033e-11, 1.8187182463368317e-10, 1.6399445046246866e-11], [8.512379544276679e-11, -5.03990818595766e-11, 3.855163450638295e-10, 3.4762142272570565e-11], [8.072861572697457e-11, -4.7796836233570054e-11, 3.656110577578252e-10, 3.296727827983321e-11], [7.896813021564827e-11, -4.675450898984106e-11, 3.576380115240123e-10, 3.2248342951333254e-11], [6.72868152449074e-11, -3.983837527551985e-11, 3.0473461577814475e-10, 2.7478028130171297e-11], [3.632863837031921e-11, -2.150902705507098e-11, 1.6452842371412268e-10, 1.483558464800773e-11], [4.967058083175038e-11, -2.940836527125456e-11, 2.2495261962560955e-10, 2.0284055092028123e-11], [8.523994134928294e-11, -5.046784811910106e-11, 3.8604235732556224e-10, 3.480957560713617e-11], [8.873744965826134e-11, -5.253861113850913e-11, 4.0188218932922264e-10, 3.623785862137093e-11], [9.225789807042913e-11, -5.462295626262024e-11, 4.178259145333872e-10, 3.7675509511903674e-11], [2.432049880530337e-11, -1.4399390954997023e-11, 1.1014487501233303e-10, 9.931801428945826e-12], [4.955033735060164e-11, -2.9337172944604466e-11, 2.244080500711252e-10, 2.0234951068472537e-11], [9.209115007729404e-11, -5.45242301112451e-11, 4.170707310494533e-10, 3.760741301484183e-11], [9.305165725702818e-11, -5.509291573918831e-11, 4.214207629298746e-10, 3.799965807602769e-11], [7.865252028995182e-11, -4.656764640096475e-11, 3.562086489393359e-10, 3.211945980429505e-11], [2.6560566822956304e-12, -1.57256637147109e-12, 1.2028989771164614e-11, 1.0846581978337563e-12], [9.383366207174514e-11, -5.555591583018608e-11, 4.249623770435053e-10, 3.83190061814709e-11], [8.002871868790044e-12, -4.738244955678529e-12, 3.624413006138184e-11, 3.2681458007584466e-12], [6.431961634778154e-11, -3.808159155771764e-11, 2.9129649680733217e-10, 2.626630535224143e-11], [9.153257644733444e-11, -5.4193516497370464e-11, 4.1454101225868997e-10, 3.7379307285813286e-11]], [[-1.9577416747661706e-06, -3.517896626601357e-06, -5.210526104654615e-06, -3.24129809765126e-06, -5.553848537545553e-06, -1.837982640664899e-06, -2.2512620412797646e-06, -5.05141573608918e-06, -4.892456527251213e-06, -4.649682979916311e-06, -1.4440667450707203e-06, -2.2475550291516406e-06, -3.982285395218573e-06, -4.5577244708995605e-06, -5.2734716491063e-06, -4.3573990290215766e-07, -4.322104916500894e-06, -7.78708096406985e-07, -2.713820600161794e-06, -3.928249482130598e-06], [-2.7053401325341983e-06, -4.861267984800087e-06, -7.20025811588524e-06, -4.479045390975016e-06, -7.674684322402867e-06, -2.5398489825201196e-06, -3.1109464683853235e-06, -6.98038862486339e-06, -6.760728016597864e-06, -6.4252470748632225e-06, -1.9955093002579216e-06, -3.1058238677831813e-06, -5.502991859319284e-06, -6.298172574596966e-06, -7.28724053535587e-06, -6.021349301914572e-07, -5.972577505165077e-06, -1.0760716247159825e-06, -3.7501412350490835e-06, -5.428321372319229e-06], [-3.218716989116185e-06, -5.783762885544101e-06, -8.566609737870331e-06, -5.329008105701898e-06, -9.131065080337073e-06, -3.021821534199809e-06, -3.701292909384908e-06, -8.305016876540654e-06, -8.043672536448048e-06, -7.644529303514315e-06, -2.3741856373018465e-06, -3.6951982222924046e-06, -6.54726301345637e-06, -7.493340605290619e-06, -8.670098311427997e-06, -7.163986170314076e-07, -7.105959229858717e-06, -1.2802715556265527e-06, -4.4617839951724126e-06, -6.458422737070325e-06], [-2.690159342897445e-06, -4.833989386536353e-06, -7.159854470340671e-06, -4.453911602793156e-06, -7.631618473922831e-06, -2.525596832615064e-06, -3.093489652756468e-06, -6.941218758558602e-06, -6.722790757404718e-06, -6.389192338885555e-06, -1.9843116669022836e-06, -3.0883957971986854e-06, -5.472112281264709e-06, -6.262830906537856e-06, -7.246348795247252e-06, -5.987561004468699e-07, -5.939062886576595e-06, -1.0700333388924366e-06, -3.7290976315070377e-06, -5.397860801450376e-06], [-3.273034130011893e-06, -5.8813662053220015e-06, -8.711174715064944e-06, -5.418937256072151e-06, -9.285155467957015e-06, -3.072815985277571e-06, -3.763753712597993e-06, -8.445167369220654e-06, -8.179412738509044e-06, -7.773533803339557e-06, -2.4142509727163408e-06, -3.7575561752149437e-06, -6.657750704293155e-06, -7.6197937351598615e-06, -8.816409699832328e-06, -7.284881311918146e-07, -7.225875143557627e-06, -1.3018766519137104e-06, -4.537078390651318e-06, -6.5674112125906e-06], [-3.260655338465336e-06, -5.859122561236964e-06, -8.678228582627108e-06, -5.398442543205221e-06, -9.250038509365818e-06, -3.061194429549281e-06, -3.7495189931326496e-06, -8.41322729090648e-06, -8.148477758536285e-06, -7.744133879382467e-06, -2.4051201453724486e-06, -3.743344895170126e-06, -6.632570732174048e-06, -7.590975264429491e-06, -8.7830655630084e-06, -7.257329498030737e-07, -7.198546494178769e-06, -1.296952884225208e-06, -4.519918915559299e-06, -6.542572909299781e-06], [-1.9321542444370922e-06, -3.471918172958423e-06, -5.142425202784307e-06, -3.198934750985847e-06, -5.4812604559082655e-06, -1.8139604454129733e-06, -2.221838337746136e-06, -4.985394386144834e-06, -4.828512753594752e-06, -4.588912225105104e-06, -1.4251929795957928e-06, -2.2181797757867846e-06, -3.9302374404684435e-06, -4.498155601900434e-06, -5.204548057116074e-06, -4.3004483876228114e-07, -4.2656155645851765e-06, -7.685304823630515e-07, -2.678351316125348e-06, -3.876907769771499e-06], [-2.8561481581642736e-06, -5.132257284086452e-06, -7.601633417062582e-06, -4.728727855666803e-06, -8.102506309027017e-06, -2.681431774955756e-06, -3.2843648452822273e-06, -7.3695073955444755e-06, -7.1376019008623725e-06, -6.7834197178860435e-06, -2.106748110520328e-06, -3.2789566875061026e-06, -5.809753780817554e-06, -6.649261504092397e-06, -7.693464634208257e-06, -6.357006836776641e-07, -6.305516277131223e-06, -1.1360567760129527e-06, -3.959191250125054e-06, -5.7309208195386146e-06], [-1.5713819148029135e-06, -2.8236407328089117e-06, -4.182230267147519e-06, -2.601628844491124e-06, -4.457798116034252e-06, -1.475257291852619e-06, -1.8069761208775261e-06, -4.054520284342295e-06, -3.926931629935528e-06, -3.732069372778787e-06, -1.1590805856669303e-06, -1.8040006865333686e-06, -3.196382510668803e-06, -3.6582588492333456e-06, -4.2327535263924665e-06, -3.497467576054354e-07, -3.469138746551614e-06, -6.250302761475415e-07, -2.178248880370288e-06, -3.1530105695844636e-06], [-2.9120565434996648e-06, -5.232719935879202e-06, -7.750433488599353e-06, -4.821291519896925e-06, -8.261110842060253e-06, -2.733920130819214e-06, -3.348655465090571e-06, -7.513763658308952e-06, -7.277318671612143e-06, -6.916203461052338e-06, -2.1479871774888333e-06, -3.3431414439795736e-06, -5.923478256964088e-06, -6.779419133802126e-06, -7.844062278836175e-06, -6.481443654518512e-07, -6.4289451800590665e-06, -1.1582948030611436e-06, -4.036691427907428e-06, -5.843102160199133e-06]], [[-0.0035217811037928344, -0.0077402356127339285, -0.006899101214321842, -0.004535737178222339, -0.005848191712581542, -0.006757596348975692, -0.003489040614524868, -0.007559746508930482, -0.003032093875724039, -0.004911229463583034], [-0.002120693794618694, -0.004660948964462805, -0.00415441954143367, -0.002731256231627962, -0.003521576321650334, -0.004069206340880596, -0.002100978890790334, -0.0045522583127568725, -0.0018258253667796911, -0.0029573640838782963], [-0.0002562243243960131, -0.0005632346339083098, -0.0005019821138166381, -0.0003299804617586389, -0.00042547873738799346, -0.0004916790585938314, -0.00025384288375803024, -0.0005500901953013073, -0.0002206060099401803, -0.0003572980539555076]]], "biases": [[[-0.8415056761687428], [0.16542788803207067], [1.3968941020199301], [-0.005177948204025132], [1.77045376308705], [-0.9306559100819269], [-0.6349952063664749], [1.249480240998798], [1.1133463146199163], [0.921753944103594], [-1.2529850629352213], [-0.6375154361337958], [0.4587334914293234], [0.8532603615080633], [1.4589717515435412], [-2.633027152886442], [0.6856486524802682], [-1.9942127988236615], [-0.3328475699412235], [0.4238314876265446]], [[-0.517427447937598], [1.5213826278027196], [1.0026068439290656], [-0.07611367901103655], [0.490185470922339], [0.9275049183034932], [-0.5322944681508305], [1.3963761643666108], [-0.7467797576489283], [0.08324348419773492]], [[-2.9571262046479005], [-2.9853230418673107], [-5.241680756074671]]], "cost": "QuadraticCost"}