{"sizes": [4, 40, 3], "weights": [[[0.5851306099578396, 0.47338035997262934, 0.12502697770529775, -0.23559466178332295], [-0.8163924107230279, 0.399101595871106, -1.632067216367964, 0.2354468123894799], [-0.08462670790413666, -0.06686109160294088, 0.3202983770608943, -0.17287928673795863], [0.6778679296173263, -0.7745395390296413, -0.13025472141101174, -0.15236055698536743], [-0.5636634845545601, -0.6215684308325865, -0.39255049443205964, -0.7493570802975776], [0.12103186393897479, 1.4460630395730807, 0.567327546605022, 0.1265854480884509], [0.013800979629665812, -0.34997827510656715, 0.5766480653683872, 1.0245712338780757], [0.1400543340731352, -0.4609878180364844, -0.37920765460176836, 0.09013982666145066], [0.5254050863378559, 0.6516877212682609, 0.07305782053682323, -0.1330145670063986], [0.17139187109568094, 0.7316938529509953, 0.2748504927169457, -0.6243007681890308], [-0.30778050669528934, 1.069544933590328, -0.38028127100333337, 0.05269325534246694], [0.02201652969936779, -0.2636249559200383, -0.10501757037862351, 1.2579548433699057], [-0.7043495153696051, 0.7661453072360684, 0.41904867442425875, -0.003307662896872403], [1.508333172638084, -2.0835449406248676, -0.7543140110773696, 0.07140039844753086], [0.9722674199674632, 0.3038734060911916, -0.5779300621939454, -0.441762116348366], [-0.04615769579368045, 0.8678914196260317, -0.38316876282689816, 0.24949814072674573], [0.6276058838672286, 1.3594385318525555, -1.2550735956067909, -0.013568193190624708], [0.6812193130777648, 0.24370987727852758, -0.6746958378992369, -0.7404418958056906], [0.6987468566252335, 1.2162584649676533, 0.47012550952348736, -0.20755404370609531], [-0.24906108038088187, -1.3014505371738367, -0.17841283511788925, -0.2658456451867025], [-0.17251981545809536, 1.2489011954749003, -0.7267178890803166, 0.4428008425466678], [0.6805579150319363, -0.14312431023537328, -0.12571052622734885, 0.12378333731140946], [0.2302209560376213, 0.4309676943682025, 0.5375866881943863, -0.2761378408164222], [-0.015296213149830155, 0.06862344176345767, -0.5444605162154951, 0.00695612671905839], [-0.6111293350527338, -0.642551583105499, 1.0823586440578654, 0.16692351889528179], [0.15483710527523875, 1.204358993004559, -0.13370744733459594, -0.0788415080641553], [-0.12454264614848042, 0.6692609878810897, 0.35672268647913374, -0.06484701167306527], [0.37698779933421134, -1.233893075000321, -0.7978045696141116, 0.5093544824545742], [-0.07611477898707802, 0.23806599357031005, 0.030272019937970122, -0.5214442833505802], [-0.4679806860501211, 0.7793111915805295, 0.7438597078468968, -0.22685575621009996], [0.5001535760871845, -0.3645335017022188, 0.6161915090012713, -0.9238964543652596], [-0.6510179211163976, 0.23131084085300282, -0.30396473899693227, -0.3639735406477116], [0.7333808196540677, 0.0825303682554213, -1.0907806361009562, -0.4220062559751227], [-0.4965273177048458, -0.8305693221020207, -0.10025609102069083, -1.0958368183772695], [-0.035960964712303936, -0.3395137072089947, -0.480612873546286, -0.014185188925386177], [-0.48679970631920694, -0.4667502451837061, -0.3105497783669378, -0.7121247276201966], [-0.5884759544089727, -1.0684822532451062, -0.4999099970037604, -0.44520017855624844], [1.0619191013931661, 0.10658677255448358, -0.3378834874050644, -0.43167490364954886], [0.22184171668969144, 0.7123539987798075, -0.560100631234097, -0.14821601081521735], [-0.056525323263812384, 1.005283255771737, 0.20038813011586643, 0.5055111934403836]], [[0.1161604036657185, 0.3297932421648732, -0.1622715167370143, -0.08744743576043344, -0.08308955458658913, 0.2946896524138878, 0.0962737617392035, -0.41406860249993205, -0.12649611549918582, -0.1830157146083259, -0.0037363033257019522, -0.005198483042210647, 0.1012730725320365, -0.7089915168635241, 0.09387585563665417, 0.0967281011973594, 0.4537404606055627, 0.01034334559497685, 0.19832376740985916, -0.29259945702398665, 0.21739696163052288, 0.03805281290178849, 0.28912492014455304, 0.2620226234962025, -0.32557232135532416, 0.4227011080981895, -0.027542544082629527, -0.10361934647133401, 0.06527651810163579, -0.153367787648471, -0.16637347637909192, 0.1035331669668708, 0.0547912718506506, 0.028978775746839686, -0.10195868506304524, -0.23577961766770572, 0.13387447119359352, 0.08569776992000308, 0.393890591012542, -0.13745459431747672], [0.36917493433837667, 0.5258488621833577, -0.04256768921679864, -0.18431288290896547, -0.005258997713606326, 0.7699146627990718, 0.539333164593537, 0.2105360847447606, 0.42589517778245845, -0.06025025179968142, 0.4739180034735464, 0.08506193319842231, 0.573418607701719, -0.8682494281859578, 0.22363765550463052, 0.4887475516094203, 1.116845553645868, 0.09281708228846676, 0.4936454529615326, -0.45688792336952144, 0.5139051697843781, 0.21984121226142242, 0.18806482047309853, 0.08146280267697785, 0.01482821026686408, 0.38039832409989155, 0.28716489485445823, -0.41615704283637966, 0.06329150623224854, 0.2810288015998751, -0.45297740139403136, -0.025424913955185622, 0.14131864006027334, 0.023885302558347647, -0.02017651271050158, 0.1969715468925288, 0.06599077627420925, 0.1417230484958861, 0.25560331725189905, 0.07560317866988701], [-0.10658976339154068, 0.4476550087921782, 0.12967818862771366, -0.03492844641784585, -0.18356121703098402, 0.44616033450632964, -0.0092956589972251, -0.14832533310521062, 0.12685386749963057, -0.06832439012983149, 0.22291929788441364, 0.40009753734765485, -1.692242247907543e-05, -0.34285922639587224, 0.3470616190308399, 0.04679307457028832, 0.4738797915646284, -0.41285426476953413, 0.38320427570876126, -0.42316678951884673, 0.5175919202142675, 0.19390850380869046, 0.07371979733352385, 0.1035273887930224, 0.1747854765895005, 0.36938768056419913, 0.2485873209788207, -0.22148466798127447, 0.16220972861175303, 0.49453611279927306, -0.31713337198346453, -0.09527810682764386, 0.08548565469652185, -0.08895073750063276, -0.013310898801429931, 0.20527566197514988, 0.08937017426416266, -0.2778932483080731, 0.5016271430334546, 0.14025853468788219]]], "biases": [[[0.6463428265797372], [0.07600410506976625], [-0.9873929485545481], [0.42981171575867766], [0.05388887912687281], [-2.7391324936145747], [-0.022700591127485893], [0.02578622050610658], [0.5798839606147904], [-0.30684414343813615], [1.1210600636755057], [0.5161202520616408], [-1.6182548733618611], [1.3081660553988381], [1.0044041379980977], [-1.0770238498933837], [1.013279029434151], [-0.36091388788573764], [-0.2814931679120813], [2.39731261990801], [-0.21890048791999497], [0.782756656593731], [-0.6190407833556929], [-1.074282390749513], [0.0997045957935667], [0.3264464202428535], [-0.9968948166442586], [-1.8334383806055097], [1.31298533123343], [-0.7583153905981999], [0.2846304673361653], [-1.782072391567164], [0.6092016784450225], [-0.983273580473644], [0.30556077327145137], [0.5330587763132633], [0.1261146119474524], [-0.7298981771394649], [0.5497587863260203], [1.1799427859047058]], [[1.3233145758979958], [-1.1144171286632454], [-0.6843430639415564]]], "cost": "CrossEntropyCost"}