{"sizes": [5, 20, 3], "weights": [[[-9.767302170886482e-06, 6.497005296001476e-06, -4.6400135498155654e-05, -4.7108379112230294e-05, -6.188850269067424e-05], [-6.497864199189609e-05, 4.3222291080817375e-05, -0.0003086866954781015, -0.00030509533912647177, -0.0004117334183320972], [-6.785799982632774e-05, 4.513752281045929e-05, -0.00032236615501009155, -0.0003159817823155916, -0.000429982381665288], [-5.1491864949223314e-05, 3.425131122267553e-05, -0.00024461499392184173, -0.00024745542707167826, -0.00032626713607242957], [-4.489777291146189e-05, 2.9865086157977304e-05, -0.00021328905523112268, -0.00021712773666262303, -0.00028448335243222444], [-6.953619175059185e-06, 4.62540006302115e-06, -3.3033600072107225e-05, -3.344675746118144e-05, -4.406032752933349e-05], [-3.4755684125198727e-05, 2.3118790688799036e-05, -0.00016510838995560296, -0.00016894211176311333, -0.00022021963931467], [-4.0118185947770424e-05, 2.668581338567834e-05, -0.00019058326264496437, -0.00019460650190857747, -0.00025419802005008943], [-4.9335207996825866e-05, 3.2816439668187504e-05, -0.0002343753810507434, -0.0002212610562456115, -0.0003126298818135098], [-3.791391876118069e-05, 2.5219582419275474e-05, -0.00018011175390019666, -0.0001841010674025611, -0.00024023108083794136], [-5.4911886764792506e-05, 3.6526215270798626e-05, -0.0002608622982543994, -0.0002627457645873474, -0.00034793890846109585], [-6.479982512291421e-05, 4.3103078437209734e-05, -0.0003078426454180034, -0.00028969111177020373, -0.0004106266245843138], [-7.074380388165762e-05, 4.70570150984837e-05, -0.0003360768045798136, -0.00032536536885900257, -0.00044827492031111456], [-6.728046084969436e-05, 4.475336874404561e-05, -0.00031962231394447777, -0.0003138744281539529, -0.00042632188816182004], [-5.7540054457092706e-05, 3.8274394727656316e-05, -0.00027334786284670404, -0.0002742393995303466, -0.00036459329824235434], [-1.8905539549295713e-05, 1.2575583442116017e-05, -8.981167874562802e-05, -9.174449067559734e-05, -0.00011979011399226985], [-4.467062969462566e-05, 2.9713995832245e-05, -0.00021220999166111289, -0.00021606648842461404, -0.0002830440718085842], [-6.541575857843899e-05, 4.3513044226503036e-05, -0.0003107633611543279, -0.00030680157306410414, -0.00041450370885479386], [-6.81884118204272e-05, 4.535729824548154e-05, -0.00032393592395135696, -0.00031716498163673407, -0.00043207660198329035], [-6.322907084192072e-05, 4.205854094615168e-05, -0.00030037483471552045, -0.0002981202972467594, -0.00040064550124679655]], [[0.006649806079478185, 0.02328348831067028, 0.024684477777154632, 0.018657372935807697, 0.01679049415721876, 0.005526027299452531, 0.014058631037464485, 0.01549300371727911, 0.03716770158747197, 0.014902248679352734, 0.019687526741856174, 0.03357715201388825, 0.02676370948394413, 0.0243742823601881, 0.020524251933453558, 0.009660479090215973, 0.016728074492580274, 0.023476663916708596, 0.024871259283433898, 0.022557214827576756], [0.003632549871993723, 0.012719221034793537, 0.013484526144949134, 0.010192096224604425, 0.00917224878200564, 0.0030186621129080753, 0.007679863661770981, 0.008463445572000333, 0.020303313590460337, 0.008140722724761898, 0.010754849319795009, 0.018342060039448497, 0.014620311557606161, 0.01331507944987247, 0.01121193333833845, 0.005277212852752669, 0.009138149736855733, 0.012824745767300383, 0.013586556802008721, 0.012322482988812803], [-0.00017398197043625926, -0.000609187031597436, -0.0006458414104951638, -0.00048815061289003405, -0.0004393052349653792, -0.0001445797280190472, -0.00036782777812336987, -0.00040535726457382337, -0.0009724329588125442, -0.00038990052515597306, -0.000515103572911835, -0.0008784962899535705, -0.0007002401815661074, -0.0006377257325963936, -0.0005369955474035971, -0.00025275315091063537, -0.00043767206882229466, -0.000614241145594007, -0.0006507281883731808, -0.0005901852513089049]]], "biases": [[[-1.7001368930793745], [0.16348486363835035], [0.29539703608225654], [-0.2682360181016456], [-0.4473945044650391], [-1.9156593260413728], [-0.7239260270028705], [-0.5760388580863797], [1.8424839515546803], [-0.6361232882212868], [-0.17135463745934945], [1.264768061700206], [0.4963644682784798], [0.26600944682463207], [-0.09327240892737641], [-1.2403535972136144], [-0.4534927367926953], [0.18156410857857572], [0.3131529836024247], [0.09572647692272522]], [[0.7393424645825464], [-1.5542393806101389], [0.40137278578629587]]], "cost": "QuadraticCost"}