{"sizes": [6, 12, 3], "weights": [[[0.00021371717250478467, -0.00044868942980323586, 0.0034451541510222695, 0.00314711347938118, 0.0002083245501456585, -0.00010777070506295516], [0.00021371717250477532, -0.00044868942980321727, 0.003445154151022104, 0.003147113479381048, 0.00020832455014564992, -0.00010777070506295113], [0.00021371717250477846, -0.0004486894298032242, 0.003445154151022172, 0.003147113479381094, 0.0002083245501456528, -0.00010777070506295296], [0.00021371717250478757, -0.0004486894298032412, 0.0034451541510223073, 0.003147113479381218, 0.00020832455014566212, -0.00010777070506295638], [0.00021371717250478388, -0.0004486894298032335, 0.003445154151022259, 0.003147113479381166, 0.00020832455014565865, -0.000107770705062955], [0.00021371717250479204, -0.00044868942980324887, 0.0034451541510223714, 0.0031471134793812677, 0.00020832455014566684, -0.00010777070506295844], [0.00021371717250478163, -0.0004486894298032294, 0.0034451541510222205, 0.0031471134793811407, 0.0002083245501456568, -0.00010777070506295349], [0.0002137171725047817, -0.00044868942980322974, 0.0034451541510222275, 0.0031471134793811424, 0.00020832455014565694, -0.00010777070506295376], [0.00021371717250478055, -0.00044868942980322784, 0.003445154151022208, 0.0031471134793811303, 0.00020832455014565686, -0.00010777070506295338], [0.00021371717250477076, -0.0004486894298032075, 0.0034451541510220245, 0.003147113479380975, 0.00020832455014564637, -0.00010777070506294892], [0.000213717172504781, -0.0004486894298032284, 0.0034451541510222158, 0.0031471134793811355, 0.000208324550145657, -0.00010777070506295337], [0.0002137171725047767, -0.0004486894298032203, 0.003445154151022136, 0.0031471134793810665, 0.00020832455014565095, -0.00010777070506295222]], [[0.0012197275350553504, 0.0012197275350552907, 0.0012197275350553068, 0.0012197275350553777, 0.0012197275350553476, 0.0012197275350554094, 0.0012197275350553313, 0.0012197275350553322, 0.0012197275350553244, 0.001219727535055255, 0.0012197275350553254, 0.0012197275350553016], [4.055119194383496e-05, 4.055119194383661e-05, 4.0551191943837166e-05, 4.0551191943834374e-05, 4.0551191943834164e-05, 4.055119194383338e-05, 4.0551191943835106e-05, 4.055119194383596e-05, 4.055119194383647e-05, 4.0551191943837355e-05, 4.055119194383465e-05, 4.055119194383747e-05], [-0.044571335899863486, -0.04457133589986067, -0.04457133589986171, -0.04457133589986446, -0.04457133589986313, -0.044571335899865575, -0.04457133589986256, -0.04457133589986261, -0.04457133589986231, -0.04457133589985929, -0.044571335899862376, -0.044571335899861064]]], "biases": [[[0.24743508240843073], [0.24743508240827514], [0.2474350824083297], [0.2474350824084773], [0.24743508240841272], [0.24743508240853904], [0.24743508240837384], [0.24743508240837703], [0.2474350824083638], [0.2474350824081994], [0.24743508240836778], [0.2474350824082936]], [[-6.5748327714594215], [-7.125580959734894], [-9.27592143082691]]], "cost": "QuadraticCost"}