{"sizes": [6, 12, 3], "weights": [[[0.0005587088957319492, -0.0011935526182929865, 0.006083365210601204, -0.005951644696049432, 0.001773591604537105, 0.003298288426315428], [0.0005587088957319464, -0.0011935526182929805, 0.006083365210601181, -0.0059516446960493985, 0.001773591604537095, 0.0032982884263154134], [0.0005587088957319571, -0.0011935526182930054, 0.00608336521060134, -0.005951644696049541, 0.0017735916045371195, 0.0032982884263154807], [0.0005587088957319586, -0.0011935526182930102, 0.006083365210601347, -0.005951644696049552, 0.0017735916045371212, 0.003298288426315485], [0.0005587088957319667, -0.0011935526182930267, 0.006083365210601414, -0.005951644696049653, 0.0017735916045371475, 0.0032982884263155435], [0.0005587088957319469, -0.0011935526182929803, 0.006083365210601182, -0.005951644696049398, 0.0017735916045370944, 0.0032982884263154134], [0.0005587088957319369, -0.0011935526182929597, 0.006083365210601116, -0.005951644696049283, 0.0017735916045370718, 0.0032982884263153657], [0.0005587088957319369, -0.0011935526182929603, 0.006083365210601117, -0.005951644696049283, 0.001773591604537072, 0.003298288426315366], [0.0005587088957319326, -0.0011935526182929501, 0.006083365210601071, -0.0059516446960492285, 0.0017735916045370566, 0.0032982884263153428], [0.0005587088957319557, -0.001193552618293003, 0.006083365210601301, -0.005951644696049505, 0.0017735916045371158, 0.0032982884263154637], [0.0005587088957319325, -0.0011935526182929495, 0.006083365210601068, -0.005951644696049233, 0.0017735916045370573, 0.0032982884263153428], [0.0005587088957319461, -0.001193552618292979, 0.006083365210601183, -0.005951644696049387, 0.001773591604537093, 0.003298288426315413]], [[-0.009902651516247349, -0.009902651516247337, -0.0099026515162477, -0.00990265151624785, -0.009902651516248095, -0.009902651516247338, -0.00990265151624694, -0.009902651516246927, -0.009902651516246651, -0.009902651516247578, -0.009902651516246655, -0.009902651516247274], [-0.02177196107650924, -0.021771961076509125, -0.021771961076510162, -0.02177196107651035, -0.02177196107651112, -0.021771961076509132, -0.021771961076508146, -0.021771961076508153, -0.021771961076507782, -0.02177196107650991, -0.021771961076507772, -0.021771961076509066], [-0.06327645908417935, -0.06327645908417875, -0.06327645908418171, -0.06327645908418222, -0.06327645908418471, -0.06327645908417875, -0.06327645908417592, -0.06327645908417591, -0.0632764590841745, -0.06327645908418099, -0.06327645908417452, -0.06327645908417864]]], "biases": [[[0.453449393922812], [0.4534493939227955], [0.4534493939229097], [0.4534493939229328], [0.45344939392301736], [0.45344939392279665], [0.45344939392266653], [0.45344939392266614], [0.45344939392260736], [0.45344939392287803], [0.4534493939226081], [0.45344939392278455]], [[-6.490650415506608], [-6.958818382237477], [-9.422238889940633]]], "cost": "QuadraticCost"}