{"sizes": [4, 20, 3], "weights": [[[-0.35800234743405096, 0.3138891686693202, -1.0216948534047225, 0.044581966657487024], [-0.8035995145518396, -0.580691014965577, -0.14791524392256658, -0.9798325462563355], [-0.40172003195058775, 0.2892693784263149, -0.13799071514741656, -0.013067338451281692], [-0.061527368782908126, -0.03689831092158151, -0.036437625116511226, -0.4009742476156745], [-0.13235063979208406, 0.053778659122840224, -0.04297771720333315, -0.3838472528396066], [-0.4639148762242102, 0.17304785631533684, 0.8496851100179497, 0.5046463396181835], [0.467137423401412, -0.29891899824233065, -0.3133911338095729, 0.3387858364456108], [0.003536279795024139, 1.8641957485092813, -0.5899179509558065, -0.0652241601737669], [-0.31737956331973455, 0.8100800843464638, -0.14795701301694134, 0.18772599253204633], [-0.6136978932004435, 1.2630388202034015, 0.8343535107635557, -0.07074707500210489], [0.846762321493012, 1.0383076413686236, 0.3318476633073655, 0.1699520483117867], [-0.2625910041859569, -0.07277261188897872, 0.726785193938178, -1.0758343450734362], [-0.2100036716236688, -1.472007187878181, 0.2800212632212717, -0.15935194405500533], [-0.49137920733369733, 1.5773541816853007, -0.34100277589516986, 0.04848061473682816], [0.13447303515243858, -1.4829871925362221, -0.4691950740520774, 0.12149923801753108], [0.3167961457030978, 0.1445619822783227, 0.4051587634024683, -0.21745145687242634], [0.08032229543462385, 1.2171033580932475, 0.07139627357308781, -0.0985916096478536], [-0.1525179684322567, 0.45522170596521805, 0.4030764233967282, -0.31653962170706623], [0.005999998184170104, 0.2513773927018305, 0.1707010850129763, -0.37280009797224134], [-0.1583006544178067, 0.15956897197595837, 0.4750523494841019, 0.44019109082518504]], [[0.19084007572380818, -0.25735346023808126, 0.03491715816453535, 0.11425386184370334, 0.027976061328871156, -0.33249763099814417, -0.19549379869774586, 0.47040144542131235, 0.19328852988694875, 0.18514722078648044, 0.4265603371148756, -0.6665935210862616, -0.47226223171950943, 0.30195560424232004, -0.6847320370662164, -0.09425190402864843, 0.35415320579495135, -0.026108115774782097, -0.0799602761944153, -0.09292682348537332], [0.49500414369131374, -0.11435665823580475, 0.42722259673249535, -0.020609205171234126, 0.056748898737247866, 0.3145984088127246, -0.20928247496686023, 1.0896560456805404, 0.6100368688000081, 0.9341309602986243, 0.6400338998040873, -0.4849079614017348, -0.831697633749176, 0.9762553963644475, -0.6115867785830882, 0.27869485551160483, 0.5526858566446239, 0.1357697979111227, -0.0024655937002042764, -0.14644983917145843], [0.1533871118145372, 0.3969826980863381, -0.005734840282728884, -0.101225843899398, 0.09162808325618972, 0.3551245571347401, 0.1934695334336092, 0.7844372863661857, 0.19009347264127938, 0.49229063616786567, 0.31518490759184137, -0.04896848954740516, -0.22839212686630958, 0.5983183193402299, -0.49970445929999024, -0.15095542754003924, 0.7261203238768528, 0.2229895713008787, 0.03887244427857262, 0.4188930054479126]]], "biases": [[[-0.01410748518676726], [-0.0035648742161939694], [-0.9788322551527082], [-0.1671310081610781], [1.1769125582226723], [0.49988214765167877], [-1.8347775922775615], [0.5953287378052339], [-0.4937129392490188], [-1.80354621650693], [-2.3947569042345656], [-1.7868867829359614], [-0.2675403318001185], [0.3266153796750577], [0.49187435088234244], [0.05996421895651805], [0.8454223072936643], [0.8912570731872992], [-2.025579845522419], [0.15075369306289396]], [[1.0798829769347147], [-0.3834278633992885], [-0.7614266540374672]]], "cost": "CrossEntropyCost"}