{"sizes": [4, 30, 20, 3], "weights": [[[-0.26188789720293953, 0.38551274897536947, -0.4487404244435433, -0.7854172066714603], [0.16426796186862636, 0.48830072670827107, 0.02581332182083413, 0.6957456203200412], [-0.36559929616512127, -0.5715764264617806, 0.9487420667029142, 0.27210850573031015], [0.36032155153116646, 0.35101470762785314, -0.23991647015466533, 0.06281803060501098], [0.31039942933514997, -0.7042321120788811, 0.7260977624285172, 0.23641198957108933], [-0.21375945166852417, 0.08672231727637958, 0.20648128946563563, -0.0872966916978642], [-1.2027453527778895, 2.386720843510806, 0.023673043024493, -0.023654544836427815], [0.010728624206440192, 0.8938740301179291, -0.027859363382900078, 0.31106614371576435], [-0.2598886228970788, 0.19723514112059073, -0.10075674564516969, -1.2222462429016878], [-0.20666246021828386, -0.31835425442422327, -0.17348140251915833, 0.6050927771337461], [0.8570626766094406, -2.3223905821743367, -0.3979578888588407, 0.0966016449534581], [-0.5880046818264674, -2.1866594052434953, 0.14542605127192273, -0.12858929903806568], [0.6392019912131545, 0.5458607140505145, 0.4478393963918994, -0.5766455819914938], [-0.14574318118171709, -0.2493029723928623, 0.2731971370589543, -0.480586898046053], [-0.01523132684020197, -0.19270399951280723, 0.2965120121724785, 0.043338496662531326], [-0.39171489152582734, 0.8412276359684401, 0.21320434754873552, 0.061957041264431086], [-0.6192539843285738, 0.1346430572440849, -1.2267159359056345, 0.08754912554388049], [-0.03778130336621967, 0.28026724901055944, 0.1459112293729459, -0.8767552545941181], [0.5513424617697003, -0.9132372044608312, 1.156364923814926, -0.1490588751330008], [-0.47379163562446625, -0.5005135586570617, 0.9160364534462346, 0.9659150318109038], [-0.8967752756895077, -0.6063945803617432, 0.320787327588757, -1.0538860159502321], [0.3670909215304922, 0.8384262181097095, -0.2480945705660401, 0.2242953905454552], [0.49511803453041014, 0.14866101565106746, -1.0022823217464354, 0.12743968513915163], [-0.11415441591038364, 2.0366585768904435, 0.5243727790593402, -0.23594144169922854], [0.709924667166573, 0.261522185814024, -0.0032221567010971724, 0.12482295820085446], [-0.07895253377132992, -1.09953673838659, -0.9123919366533777, 0.37198556898440793], [0.24123396955435616, 0.4216750324325316, 0.7515661814405915, -0.3019864853521167], [0.40641850801251744, 0.7568215649279816, -0.2559735742669151, 0.1397212216145475], [-0.12160810640155106, -1.308525392062928, 0.15508633499562965, -0.8061980047846121], [0.18769427855118168, 0.33315074971851183, 0.06635431271214809, -0.05651161611389531]], [[-0.13808586768808911, -0.2587596908996852, 0.37142838067286243, 0.10931530157530338, -0.061853389071860776, 0.06265541386771181, 0.3139885472285151, -0.23804235881463612, -0.2848810493056749, -0.142557576174825, -0.14908870409527408, 0.42192263610893477, -0.04050668803517826, 0.2718320552296461, -0.16318326336579497, -0.3720061562581367, -0.23506915026926986, 0.1178493402608475, 0.144869071034178, 0.046478059438516545, -0.08299807012391436, -0.008065965906399384, 0.04148495334536213, 0.14174402261147726, -0.06280213464013328, 0.1870298106819239, 0.3102504433555733, -0.09040793907203785, 0.024341096075244182, -0.14531165329207574], [0.13599220666832582, 0.14250468999730664, 0.2672950103774921, -0.12947710987495814, 0.31701614396771466, -0.05904329568313578, -0.19605881457075974, 0.06043537503601835, 0.44993058726560764, 0.04075605794307289, 0.2221940879647282, 0.34587584295811624, 0.12394344713497503, 0.05506426611558009, -0.27088538519938277, -0.03008756154893496, -0.07421353324854693, 0.11267786761364136, -0.02282903023571415, 0.25079960148944186, -0.2050290023008869, -0.06242531000636561, -0.2687631425618316, -0.25325500082434527, -0.41372364974189335, 0.19510925743451266, -0.029898410313196615, 0.12198293330378092, -0.14756546347163613, 0.11954333488271651], [-0.28887731655856835, 0.03850099259212288, 0.02765271353341113, 0.08573515386236945, -0.3624776915239494, 0.10320839185800566, 0.021414331355115154, 0.14069615419635229, -0.132003715925046, 0.16210420817894675, -0.3527796253155058, -0.30934245039797553, -0.28601253576491287, 0.02306527420691168, -0.14623283359384068, 0.43184293768800097, -0.0684059841896679, -0.02064370137193743, -0.10074977405229708, 0.059923551337495495, 0.1699636252826201, 0.28416230508214974, 0.12014823587096184, 0.21427483616018925, -0.20207425645778848, -0.3421972970643728, 0.14921763901112486, -0.21742484355043548, -0.09114985392759961, 0.062380700786040494], [0.10865934104912117, 0.08979073296846218, -0.22478282125887544, -0.04198203729259871, -0.310448956955844, 0.23521877336261346, 0.3834090416667266, 0.6629833073540234, 0.2048202815635079, 0.07911771837042636, -0.5181263968847102, -0.8098551080084374, -0.42859190349317744, 0.00011044149381587524, 0.015113969297642487, 0.3774282184554556, 0.0328735734450512, -0.3976415686114335, -0.17979549817719717, -0.40110081042726997, 0.3092448539967705, 0.3391345503333163, 0.028762430607666378, 0.6631767590336908, 0.09044684458466698, -0.6213618160651078, -0.0561328964256014, 0.13154234847954835, -0.16429707161509957, 0.26395572882914425], [-0.08709047425571811, -0.23970935096361592, -0.13715374576720343, -0.053306287178602245, -0.25767086983655146, -0.28609135061581353, 0.9868795045142148, 0.4576327801759107, 0.25371937834568414, -0.14959307324279847, -0.681944309701448, -0.933764461600906, -0.011195025605537241, -0.47941451203082114, -0.20123590510293687, 0.3234129099985675, 0.013214550042822746, 0.006314877658236148, -0.4163033963926512, -0.3242428384334315, -0.1111102228755645, 0.46218809798404836, 0.12096587916658325, 0.4440659300347335, -0.09877460774699084, -0.4076700481412233, 0.481738269792865, 0.20499264716639665, -0.22199784731854813, 0.12514167770229898], [-0.28071550852724025, 0.15687114504840552, -0.11374608208409787, -0.14710973551867787, -0.3559246665294043, -0.1559708415555021, 0.42590872657152173, 0.1585909850947421, -0.03840598110332762, -0.15752282941903709, -0.5899946900626523, -0.5963934536055159, -0.00922051248327287, -0.14640948147089122, -0.11542609983565393, 0.12738433190374596, 0.11390895841437244, 0.14368646174264285, -0.27570643816646695, -0.36186512819459593, 0.3764899968912355, -0.17299658971507378, -0.14467391537071922, 0.46834273606997373, 0.31204145556882096, 0.06756588400025018, 0.19469756817732076, 0.13048866127494801, 0.024606262719538686, 0.15102250585093577], [-0.23850896477911981, 0.031419448696375044, 0.21419571450866096, -0.08490636902776712, 0.0003836044322571934, 0.042034017273146096, 0.4255212583039297, -0.15438779036793301, -0.002992712153760691, -0.09087058325728868, 0.13674442148141733, 0.0830741143777945, -0.02392665307705244, 0.02500763795756337, 0.09207253116376495, -0.08675668357479177, -0.3318800796854397, 0.37519700067730977, -0.03780910006047143, -0.2887932043422549, 0.12291891266795685, -0.28457643621473633, 0.024430557593316877, -0.06383337899933435, 0.004261663655635474, 0.22442839824060754, -0.11105939798792629, 0.023601175328823176, 0.11735188602633867, -0.03243328232908783], [0.19840669162261748, -0.16987806871262792, 0.2945818823352566, -0.26858672016909574, -0.018204976528634644, 0.03125969783515695, -0.2004667387862817, -0.27785451647601045, 0.2854829638823604, 0.013153096335987931, 0.17859983836958676, 0.04014453493147367, 0.13170953829386048, -0.24315184566789666, -0.1470519908330247, 0.04029043324284316, 0.052386434938149776, 0.07872920419639112, 0.018239181641194993, -0.25504809896254504, 0.21565616494800818, -0.2541327486477459, -0.31725852509957087, -0.0264036104803412, -0.05176241633795835, -0.09219197488433267, -0.10161833309416338, -0.07202265674108088, -0.0505977969687713, 0.023379994729280106], [-0.061670569291195194, -0.4053942698159356, 0.04807534268640595, -0.11565979153990556, 0.2690099251532917, 0.05098303225454428, -0.6631089094774726, -0.017111622421009304, 0.07937536252084099, -0.1260293679799711, 0.5569035550331474, 0.28418014896799354, -0.06580833270177905, 0.09328102822459297, -0.102219123545719, -0.05158484380693714, -0.2024791864763072, 0.07847221304197999, 0.5678961465730176, 0.04850595325653218, 0.248164506691401, -0.3085239287617184, -0.15475723882854334, -0.30664854970010313, 0.023076535524766663, -0.017089042502879598, 0.22243124776218906, -0.13583796904474907, -0.04859054584853974, 0.0005817834200979748], [-0.36075142807105876, 0.023939819253659393, -0.2561735566427002, -0.19150471106432757, 0.3092883499291514, -0.09046488765490467, -0.29477947223676393, -0.001536563528879439, -0.2849236556687235, -0.19319555579319425, 0.3809217088984551, 0.38996018223816015, -0.03717281696378119, -0.27147855106935637, -0.11928918136287736, 0.031177801148722678, -0.08798849696438195, -0.01856556752824376, -0.010714345983484344, -0.04483913278639096, -0.2111759155524592, -0.007760183105011188, 0.2014565674790723, -0.22894638260316616, -0.2250605876247023, -0.22421047803217947, -0.14266456989435042, -0.21724539531658293, -0.0322303835982408, 0.1338830795219354], [0.1990607037459952, -0.263288778307656, 0.2651071334479263, -0.25333726125770645, -0.2028916658657145, -0.14381983771513754, -0.2503405471845802, -0.07540384976988261, -0.22584403952393542, -0.27095624755717745, 0.3110329836103902, 0.31341457119120497, -0.1693753048515243, 0.1364105946207184, 0.014595213657513626, -0.3287986060075764, -0.013655907072123268, 0.18154078750967884, 0.31980966451312287, -0.21929330982932488, 0.1428051165829274, -0.30332164653873117, 0.022625921878770928, -0.35023370286818983, -0.05135325366609827, 0.02847867925686183, -0.014670421293510752, -0.32704342629510935, -0.007788262854718399, -0.23866437597782467], [0.11019788158378892, -0.09214763548754651, -0.086429658457789, 0.23888629308536097, -0.17785964404439697, 0.039503229081809726, -0.21102928711191443, 0.10635682976940025, 0.08832909062823054, 0.21991160794548037, -0.00021532269010941964, 0.06949245810624495, -0.24613784502589311, 0.19948839738035612, 0.00997977749757422, -0.22550486601057476, -0.040361452117574206, -0.1892494110595716, -0.3227884897850815, -0.11787853588682651, -0.05412140687464828, -0.12546972208114782, -0.059506965691290256, -0.12878962795112608, -0.1465604392308349, 0.0628370250886975, 0.08560456950516218, -0.09953123800192375, 0.01570966677746425, -0.059778887146475675], [0.07267638948346486, -0.10455334498000887, 0.09975093177491552, -0.2707636535894705, -0.1499559242790733, 0.05834018117039521, -0.29607670677373665, -0.24479632449181019, 0.31387123466958267, -0.09482911856944795, -0.15454831927604723, 0.23392895014023268, 0.025641155854915266, 0.17674213373005762, -0.2422289331458229, -0.2258239510971208, 0.17469476596813843, 0.014905810688746694, -0.32092720258110924, -0.13584491820920336, 0.04195678535966903, 0.11924236032721858, 0.04992211609606865, -0.14022941993794433, -0.07582991687107854, 0.4190000623420386, 0.1347039354092931, 0.09763735434612722, -0.31994136674635404, -0.29540771535005705], [0.04398653284908573, 0.07254838137289504, -0.0029974129222764276, 0.20637001126381124, 0.057757573716658656, -0.0737038059058379, -0.22422823329734798, -0.0414480119686174, -0.00040569611195275223, -0.03501600826345411, 0.021925238065707, 0.0031301802868568857, 0.11807507956637182, 0.20295843412906858, 0.02616324885872745, 0.01124174645849007, -0.2882030757832838, 0.043052858867230315, -0.37581489198124485, -0.13162013621821889, 0.12907415153874813, 0.07665050736116238, -0.46355907845609023, 0.08033577970449067, -0.06614717425038114, 0.04346600001390451, -0.019247253561811725, 0.04464251789701262, 0.18237413943917052, 0.22436439610160333], [-0.02037332783534971, -0.029840831105858317, -0.21175627748541873, 0.021409221833120454, -0.3001796400555237, -0.20405442417927325, 0.1556838110021291, 0.08801388283697363, -0.11877610670222992, 0.12862594872006208, -0.45566289188249, -0.5005303233950676, -0.0313300963031906, -0.06878206489379135, 0.00923030920251304, 0.23828932233518793, 0.06425246596668553, -0.020556034407402887, -0.35615835256922346, 0.12765279395243667, 0.2116820846679991, -0.06187929026179078, 0.03735898848904806, 0.15214662357942565, 0.0674896554873457, -0.44042778146695377, -0.16410358871754188, 0.3331786512074849, -0.05418485889662307, -0.48878681009281016], [0.24512221215214383, -0.01196543693378195, 0.24664724132109334, 0.039915918922465043, -0.16224568068934223, 0.20140567963328088, -0.1140370056278869, 0.1958238658957384, -0.14306968289677768, -0.18549615781830495, 0.07653693414557682, -0.19989073663961507, -0.10807322957652842, -0.37198661460786, -0.10879929912372022, -0.33797301577581873, -0.04831431947564089, 0.1603289573157551, -0.10639347850346599, -0.18530614638935478, -0.06089731564340135, -0.16495069620171982, 0.07545791297974046, -0.39662443395123853, -0.19320974316381193, -0.07888320904527671, -0.06246031038596449, -0.18275021723391563, 0.1825954486716266, 0.15293068560017348], [0.05889922622535837, -0.15502463897252908, -0.5686860657203268, -0.07332079832864315, -0.5468742187029546, 0.19522477508886074, 0.5571786371133303, 0.14134449561942028, 0.11376245909920989, 0.11217692418186496, -0.6174979948261123, -0.332863783548881, 0.019591730389197155, -0.2685947960317772, 0.012562095317021257, 0.07782164729745482, -0.007112090403936444, -0.0681889205595009, -0.4789728140008035, -0.14706220564012631, -0.07243853903419317, 0.10010882332677286, 0.2538578574419825, 0.5206837601331934, 0.07768289353423949, -0.21791799170788434, 0.21238875955947512, 0.12693860794708384, -0.21153255789670158, 0.12221470162861874], [-0.13032267326215452, -0.33351465472073927, 0.16797160929897703, -0.07765001396009161, -0.10268237701351658, -0.09438204190445157, -0.665728869620734, -0.35398841064096404, -0.04104395560244537, -0.08144693746143067, 0.5293215390178359, 0.27534031836249606, 0.21046731253023293, -0.2297953474881916, -0.19268825578032622, -0.32277202485552253, -0.10068527686907675, 0.2230546261126428, 0.23341332712995827, 0.04470354556220071, -0.15020541464191342, -0.2792842905247619, -0.10438878329111292, -0.3837348940278106, -0.03585467151451987, 0.1558733820938324, 0.0392722474065493, -0.4083745607062295, -0.014730588853091368, 0.024753486730147527], [0.26130616358868014, 0.25159151665107615, -0.16842592547882929, 0.05385746658129313, -0.02897169648880677, 0.2170963440781902, -0.17729447326896458, -0.28593208789349966, -0.07567073424533853, -0.12796886241574157, -0.21354865767854145, 0.05691590033743173, 0.031219004148894478, 0.2721900509971896, 0.3314877202548684, 0.20048257976411873, 0.048799532439410424, -0.046691929312688375, -0.1313158134569391, -0.34583286303888494, 0.06400124266428886, -0.081145532733516, 0.2648609136942499, -0.22152724753635142, -0.03491548839420763, 0.1722796125375201, -0.024075290228598455, 0.1544199178613141, 0.02625547856591222, -0.22279838968583174], [0.11887182092571544, -0.09766718014540933, -0.3454053888453542, 0.2508771736471303, -0.1588373276485843, -0.02530254897129317, 0.1857265132005453, -0.26990899025549586, -0.09355604102045653, -0.12476344388774127, -0.2528350888423915, -0.2954512436477648, -0.22738913635631644, -0.20936658483355663, -0.06588787708680327, -0.15517248778214662, 0.09416540372622968, -0.1608065939137699, -0.08218433204716742, -0.08121814898959903, 0.040404238476748504, -0.08876431446769456, 0.3732343178947568, 0.2648730484923282, -0.08670319236314239, -0.12351855458107376, -0.09235030923542842, 0.06387404188873293, -0.09918585813695292, 0.2651845777033754]], [[-0.1619176055474305, 0.07582377623521598, 0.1675543432391822, 0.6368023889165717, 0.8799288652127966, 0.45600998386386654, 0.3500346288776759, -0.13808010188725225, -0.39244506207098545, 0.001784818594167898, 0.10865793705576639, -0.009363288755165572, 0.05909025624899705, -0.1651274677415892, 0.2170501126570868, -0.326246762539502, 0.23495575433255347, -0.15799762721959887, 0.1549074400609991, 0.33274648654278344], [0.008808091491263562, -0.3896346009004944, 0.5402209132259173, 1.004748030172722, 1.0174248830732577, 0.664725806592799, 0.08942164829884885, -0.24656607408780484, -0.636328473273644, -0.4195428243607711, -0.5160163995066446, -0.14316734631097872, -0.030645828034859518, -0.02890547107380076, 0.7197079224875585, 0.2905582274605375, 1.0067386561646154, -0.35223591171437907, -0.22474707869714625, 0.4997002761172395], [-0.1674495801243701, -0.38978576766274353, 0.018776550381018078, 0.3191751921163718, 0.6745488595643554, 0.2763736302659759, -0.5877495246299695, -0.19447441733717202, -0.3141319261453519, -0.07920819708595278, -0.3237278199764025, 0.10209370120950279, -0.20190326501430256, 0.10248787680653873, 0.10290738520936041, -0.2693884469879391, 0.661496165909317, -0.8877815973946043, 0.23401793561131284, 0.14960907365113857]]], "biases": [[[1.8570636008315407], [-0.4579025950645731], [-1.9298208433911785], [-1.384559690320578], [-1.1462379018463056], [-0.26244972015788076], [0.4540439396637681], [-1.7471430826432366], [-0.583354770545526], [-0.7111473445857626], [0.09629610582958806], [0.3940415621463331], [-0.926580455279326], [1.1348677297311243], [1.6785135114787448], [-0.863608365039842], [-0.43297403940687096], [-1.1711001724134904], [0.05252803401480594], [-1.001938886314182], [-0.40577145104809675], [-0.4306074575465104], [-1.067612553980621], [0.37849451072508056], [0.23373431220527044], [-0.2677998205957269], [0.1607191900084443], [0.2085828181160069], [-0.9436560713526543], [0.6461205578724111]], [[-1.086299316387927], [-1.1801304019698005], [-0.087567822675555], [-0.6090986665887062], [0.2610621697569481], [-0.03176801138056149], [0.838898486791968], [-0.31378931673065025], [0.013884513199343196], [0.06111929871722721], [1.1608510502616611], [-1.6595842546765962], [0.7021559064842792], [-0.8584842482968936], [0.7341742523231095], [1.1473042693306754], [0.44013782851678984], [1.729588772065726], [-1.8856225953768466], [1.119040484224149]], [[0.0374883562377028], [0.40996096749561434], [2.036622576054261]]], "cost": "CrossEntropyCost"}