{"sizes": [4, 20, 3], "weights": [[[-0.26670272752382856, -0.2780773766651624, -0.08677759120754569, -0.08962626575449742], [0.14050455630134812, 2.4701569243934993, 0.2193764955569537, -0.3103791133605177], [0.9280168537226366, -3.0543179176657738, -0.42790516857168676, -0.10769601514766804], [0.6045075784208036, 0.5768710354831796, -0.7770788092207279, 0.9570246935069834], [-0.3454352385814762, -0.33284443360687155, 1.1279575374256188, 0.5080386093913097], [-0.27987980146416314, 0.19581088288227116, 0.05603710616869543, 0.08979282403456917], [0.16992100596603998, -1.8095963554939947, 0.06935564422908991, -0.09028174140823093], [0.3527450741199094, -0.8518251021283699, -0.8319514559960572, 0.15706048820988], [-0.12690587300183404, -0.8494263727700063, -0.2250121005977095, 0.5167801079012414], [0.7738566620634296, 0.8728708087531354, 0.08459870199504445, 0.17249119692925435], [0.8160842381312186, -0.030986962959187812, -0.026046465787989786, 0.5588078844794786], [-0.5889184482624847, -0.024809853999719314, -0.0022031976070306047, -0.5308226884688733], [0.3765229484176388, -0.1327204968469366, -0.42844591473263166, -0.5185915095774478], [-0.4336495028529788, 0.10461331793259997, 0.07542888989422777, -0.44878788796380864], [-0.196783110928366, 0.2690455320412515, -0.34647426591482544, -0.08781825885846581], [0.15745072467193857, -0.7656454441316578, 1.0324468854660167, -0.21250613703485194], [-0.27761566164144597, 0.9361651924565348, -0.548109527421889, -0.23413062256318237], [-0.860228398296931, -0.5615597952412651, 0.011808607824959464, -0.32904161127253423], [0.012759693980342606, -0.3313967593714763, 0.5849121153939958, -0.48046738629769636], [-0.027862532062901936, 0.3504351084934078, -0.10977763149006757, 0.06874891970670187]], [[-0.17036726032733882, 0.5813140001242761, -0.5881636409415013, 0.20221960892064622, 0.23777424030752953, 0.3010687545947286, -0.12454019910308735, -0.17490903766764274, 0.237483622132686, 0.4020165953039879, 0.24505724744165008, 0.607141683911681, -0.07598466711851301, 0.207449418335045, 0.4342940468047094, -0.1468414184548376, 0.2794315281041562, -0.4351303133409426, -0.32200853183147826, 0.1912109345304825], [-0.2809487135900546, 1.1161481450911976, -1.2559401272472894, 0.4093752697796279, 0.40893417926472536, 0.00838794872289359, -0.8028957884561824, -0.2580487758302712, 0.460442392317652, 0.3690392456274122, 0.020008562975148234, 0.005481874198245514, 0.3002429083360835, -0.13251823850507333, 0.03241348740801763, -0.5241502188862904, 0.5933098325318931, 0.18272948259446378, 0.010821519354770989, 0.29202598840476096], [0.34490641458432764, 0.4890391448757882, -0.9410310557544252, 0.3330080752409085, 0.15526558284242575, 0.07540157308740532, -0.23305976655534671, -0.2708792220573825, 0.39778271099469337, 0.2578561398053527, 0.3682732632329268, 0.16154224119022606, 0.13929328086781312, 0.24603527871385994, 0.10819984469964826, -0.3508526021687177, 0.6519548777907249, -0.03795178695186491, -0.02413968670682169, 0.2314311857926993]]], "biases": [[[-1.7701415471816253], [1.0685351366513085], [1.4487050298505244], [-0.8814775819435798], [0.7953279668281249], [-1.2984201056643463], [0.29741506646723065], [1.4542904432829247], [1.7495948514218973], [-1.6544813312868771], [2.351404606186972], [0.3379814160769561], [0.7879034916880764], [-0.509870243326313], [2.1385979793492447], [0.03536783003756566], [0.8227527863764538], [-0.4498675096989583], [-1.365831834584317], [0.861134234674812]], [[-0.41844111614801244], [0.8430780468734691], [0.24980612180590017]]], "cost": "CrossEntropyCost"}