{"sizes": [6, 12, 3], "weights": [[[0.0058019350375658465, -0.009709088630655059, 0.08196172005337807, 0.06099174126746847, 0.01980847102718928, 0.004748266956284054], [0.005801935037565617, -0.009709088630654783, 0.08196172005337535, 0.06099174126746653, 0.01980847102718861, 0.004748266956283835], [0.005801935037565747, -0.009709088630654934, 0.08196172005337685, 0.0609917412674676, 0.01980847102718901, 0.004748266956283954], [0.005801935037565622, -0.009709088630654792, 0.08196172005337543, 0.060991741267466655, 0.01980847102718864, 0.004748266956283842], [0.005801935037565741, -0.009709088630654929, 0.0819617200533768, 0.060991741267467585, 0.01980847102718897, 0.004748266956283954], [0.0058019350375655716, -0.009709088630654724, 0.08196172005337492, 0.06099174126746608, 0.0198084710271885, 0.004748266956283799], [0.00580193503756555, -0.009709088630654679, 0.08196172005337463, 0.060991741267465864, 0.01980847102718839, 0.004748266956283775], [0.005801935037565772, -0.009709088630654962, 0.0819617200533771, 0.06099174126746787, 0.01980847102718905, 0.004748266956283978], [0.005801935037565866, -0.009709088630655081, 0.08196172005337833, 0.06099174126746864, 0.019808471027189318, 0.004748266956284066], [0.0058019350375655265, -0.009709088630654634, 0.08196172005337425, 0.06099174126746567, 0.01980847102718834, 0.004748266956283729], [0.00580193503756576, -0.009709088630654939, 0.08196172005337686, 0.0609917412674677, 0.019808471027189016, 0.004748266956283959], [0.005801935037565698, -0.00970908863065486, 0.08196172005337607, 0.06099174126746729, 0.019808471027188815, 0.004748266956283908]], [[-0.03056547816874086, -0.03056547816874161, -0.03056547816874116, -0.030565478168741517, -0.030565478168741177, -0.030565478168741687, -0.0305654781687417, -0.030565478168741132, -0.030565478168740803, -0.030565478168741753, -0.03056547816874115, -0.030565478168741295], [-0.04993335743226866, -0.049933357432269246, -0.04993335743226893, -0.04993335743226924, -0.04993335743226894, -0.049933357432269336, -0.0499333574322694, -0.04993335743226889, -0.049933357432268594, -0.049933357432269475, -0.04993335743226891, -0.04993335743226907], [-0.43808181050812667, -0.43808181050813094, -0.43808181050812817, -0.4380818105081309, -0.4380818105081283, -0.43808181050813133, -0.43808181050813194, -0.438081810508128, -0.4380818105081265, -0.43808181050813255, -0.4380818105081281, -0.4380818105081295]]], "biases": [[[1.4662731679549799], [1.4662731679550565], [1.4662731679550143], [1.4662731679550538], [1.4662731679550163], [1.4662731679550685], [1.4662731679550773], [1.4662731679550058], [1.4662731679549743], [1.4662731679550869], [1.4662731679550118], [1.4662731679550312]], [[-6.233814369332922], [-6.582961151574482], [-17.978530334737687]]], "cost": "QuadraticCost"}