{"sizes": [5, 20, 3], "weights": [[[-0.1901056637288653, -0.055697605326093906, 0.06840827005676711, 0.105407385718092, 0.27540166877754235], [-0.15826373372692382, 0.49631098324053147, 0.37894181466564913, 0.12116113587085757, 0.23292061139799605], [0.229648372018926, 0.24311597892047349, -0.3447591481054779, -0.4927198027188822, 0.3687359202835093], [0.29072289445904015, 0.017691788465555396, 0.7500429530838219, -0.8315352738019824, 0.043223649877719754], [0.14971943211080047, 0.6714787909482793, 0.18318691970074116, 0.16626131880398312, 0.15199274282716602], [0.221952367807485, -0.2719213053829785, 0.10999763162382849, -0.49576104312647484, 0.19711427214049082], [0.20220954510183656, 0.45919273687408435, -1.204563332588851, 0.7324420493728876, -0.637185072944962], [-0.36622645415344685, 0.013450456983684926, -0.40085951613646237, -0.2567579285331909, -0.2201074632964628], [0.0950626697023944, 0.11372881827298324, -0.5550085679708826, -0.04189032656906875, -0.7577602662728333], [0.18329367584877573, -0.553987696248563, 0.06743778525835313, 0.7076540628446795, 0.6701175226392384], [0.026607505764577613, -0.5349067786520716, -0.17530817042564575, -0.21866211513846728, -0.3664166617194051], [-0.7539087112365354, 0.16860432243281806, 0.7450538660043166, 0.5075704739907281, -0.27484245203107843], [-0.3236015668757975, -0.24228810031358222, 0.5391729277237127, 0.0644281704415025, 0.460558247649944], [-0.1863480288056553, 0.09838355521838921, 0.23521624541474914, 0.17622810742013703, 0.4340277940991392], [0.38744221132492557, 0.33058230261646754, 0.25747241376787394, 0.18244872733632406, 0.3064841745956952], [0.39279149574366334, -0.20027601733218395, -0.1733265013986211, -0.3289013045407431, -0.47491629191071555], [0.2865081073269811, 0.10485166143314276, 0.060751306872609, -0.44271517566436974, 0.098273949413676], [-0.05669307961002064, 0.2647697108210095, -0.39001889972421244, 0.43499990241783926, 0.4130009064351673], [0.4627783629979243, -0.7123676398592886, -0.9132619104410578, -0.7930876805486986, -0.5187195642165212], [0.08556505455974027, -0.41676060006380033, -0.23057345642833316, 0.24373547572223528, 0.12577312258982468]], [[-1.1910891362518532, -2.0070237557426966, -0.7854362791746052, -0.7035882812207567, -1.2282808626203054, -1.6190485409760018, -0.62074692573301, -0.7633694999982595, -0.17638344575516288, -1.3384580404853548, -0.5979363562550595, -1.6316120223823973, -1.7123345328009123, -1.5424117660932033, -1.2670358514685625, -0.5117666577151461, -0.8741884014605074, -1.0728967104703409, -0.7143452367792879, -1.014590461760445], [-0.899204222133, -1.4064375070375232, -0.7467068588204613, -0.25847233436802125, -0.9489737564791423, -1.2132512297607105, -0.4800968500877348, -0.49239268316604085, -0.08646098544976737, -0.6352982442831016, -0.3205117110998296, -0.963245469047981, -0.9422713005027343, -1.1008073237676834, -0.6329219639077466, -0.12699087562095973, -0.7545120008903128, -0.8583781068786676, -0.24721850430991363, -0.4702657778695588], [0.135540073210519, -0.19103999228886348, -0.09420795151929197, -0.18503355229493007, 0.2559484535801434, 0.17453347345801282, -0.08703389671318584, 0.4362221098511312, 0.05176602162446157, 0.38829833837667416, 0.17510393484989242, -0.029427989575271023, 0.19804606017456336, 0.44114867487322124, -0.2298601190385361, 0.03571830643422921, 0.4497493538769842, -0.2257198969401917, -0.3701237459651149, -0.18493130661004656]]], "biases": [[[1.1146883362025406], [1.584529209478468], [-0.5934569388281634], [-1.5502027367384528], [-0.3135361898334237], [1.970536477207209], [0.1154910448266944], [0.8007251309557387], [1.112853585763292], [-1.0072466569733671], [-1.5228827725917853], [1.0715681353004178], [0.663186165206443], [0.20101340475536417], [0.1443255025913811], [-0.16234018653978982], [2.8955441603954766], [1.034343678996837], [-0.3002820589392736], [-0.28379016984214606]], [[-1.5765798139560188], [-0.6651559422369746], [0.7108101414775291]]], "cost": "QuadraticCost"}