{"sizes": [5, 20, 3], "weights": [[[-0.5223781652046092, -0.5841423582512977, 0.1455468598600558, -0.07740476108965476, -0.4782724614869673], [-0.2659929199614128, -0.030171274875190078, 0.36222916304126973, 0.45195290754301987, 0.08371336368012441], [-0.3488574144466787, 0.2848187860332044, -0.23638773941204852, 0.08057921295011178, -0.05242104557010844], [0.6174312371447913, -0.5008568032940033, -0.34272360030250465, -0.16001644881426408, -0.200292634632392], [-0.7982699172665242, -0.27883737649836404, -0.5907793188315035, 0.36006045185142727, 0.9775798607327811], [-0.009511786959197237, -0.1110199751272823, -0.1027339219026882, -0.24297343967022128, -0.6131226672389125], [0.9991531006700651, -0.12225343391085515, 0.46289328717389583, 0.03777062109711035, 0.31566805820574817], [0.17461806313252717, -0.06864950071874354, 0.13833768702542693, -0.5373029749433158, -0.030147394768685106], [0.3375955951837971, -0.20548672543291138, 0.28326711585032854, 0.13873787808357688, -0.11218747203592065], [0.5365073070716787, 0.09326755917529886, -0.572356315290733, -0.12821351363519318, 0.15097190379585476], [-0.061492232953526745, -0.7328616824075495, -0.17386994104810544, -0.2642711617522, -0.5381879819230877], [0.8480875184031125, 0.06602019281925839, 0.17142713239410085, -0.3193862210568908, -0.6800939810136136], [-0.5200152974682792, 0.20423234328846965, -0.08059050064170564, 0.6102553529294263, 0.28920465181628996], [0.026812726812289047, 1.0552963379837337, -0.2309815122891011, -0.0856480858495111, 0.5831710239832166], [0.45208607635634657, 0.39883498868977335, -0.07995365765395204, 0.3751909195052841, 0.2548455671805009], [-0.21745062412854457, -0.3364948655059934, -0.06830299660385145, -0.5191428305568324, -0.4739067243714973], [0.09022728272950331, 0.4013174001968894, -0.00015321059558255496, -0.2897575186688939, -0.13831327135703114], [-0.11429697478740233, -0.9086643475874967, 0.24544541122559946, -0.12612021625434394, -0.08035665935313369], [0.06504238641454471, 0.29514573752735623, -0.24763538933539447, 0.42000030067791233, 0.39990435814303266], [-0.37146166781406087, -0.052999114354215345, -0.6537636650660226, 0.03579363399054194, 0.41746386902407345]], [[0.11818372984579069, 0.2415969618977892, -0.03489175193933133, -0.034740575171321335, 0.21879136920237202, 0.006296927820805176, -0.11104998174457881, 0.11460703201189151, -0.01008587156023904, 0.7287921980635121, -0.023565423961377518, 0.16464493937340516, 0.08592944175475559, -0.08558644637011292, 0.13733549224195202, 0.09480202016154468, -0.20910770740311288, -0.5704646875003312, 0.22007015134190328, 0.10179326401601224], [0.058355447200492794, -0.05744825969586995, 0.10195320212975378, 0.09184958870291003, 0.25291875154672033, 0.2647032637185524, 0.19379778294261057, -0.5266590890806039, -0.2005493407034079, -0.0669137711940034, 0.4360501416926451, 0.08504389921140944, 0.15074477068566872, -0.18555727533285943, 0.11114328377829982, -0.09929818695089679, 0.08498480190073718, -0.06618601466372503, -0.0005085803187159545, -0.2508455786768726], [0.20833674648424916, 0.116151803612433, -0.40030855483604216, 0.1946440652057841, -0.07187116803550292, 0.1677866311957135, -0.10214777748820966, 0.3253592044856091, -0.1679791316668827, -0.10966473471764436, 0.3071735016947514, 0.1310206343422312, -0.17359845587305772, -0.0003722267403063288, 0.27008158354195305, 0.013661671755420766, 0.037431609358960054, 0.007570231295287675, -0.004043494529736355, -0.2787091879916071]]], "biases": [[[-0.06041955395990599], [-0.34582169015179104], [0.7185853746854572], [-1.8271209521656193], [-0.00832392358332523], [-0.9811025764266332], [-0.11808679884737704], [0.4015913865907898], [-0.5752190531564932], [-0.7937115143159051], [0.02677531100440426], [-0.3317997347007383], [-1.1758650104692314], [-0.8320080754265536], [0.45523097637506593], [0.06836784525503471], [0.3630477704692515], [0.810160134121833], [1.7786775347660702], [0.028626695424663947]], [[-0.23564692906285678], [0.5165501659674162], [0.07172027771285688]]], "cost": "QuadraticCost"}