{"sizes": [4, 30, 20, 3], "weights": [[[-0.672714383210472, -0.38203230171477703, -0.38256640113633683, -0.24705543735109467], [0.37733495542284273, -0.15078989892341302, -0.40386422191983795, 0.1240962401436461], [0.19531794631301294, 0.3029905543706942, -0.44309265619073884, 1.0275377384623612], [0.4367918621841736, -0.6773885174960775, -0.22193457677674353, 0.19735551881239266], [0.09014521771229292, -0.1513009583567009, -0.9938580539260135, 0.2321667671872748], [-0.6995010828970848, 0.020053173022133768, -0.13253100653940103, -0.43594059887313275], [0.008875062127933691, 0.32365072119288385, -0.11343714005215061, -0.2506584578515734], [-0.4193276836357418, -0.3331781075245106, 0.4971286326544049, 0.11519144181000134], [0.3931052782838965, 0.9748253774297094, 0.06763682894505388, 0.7589576215858715], [0.8930644061202067, 1.1137420547731582, -0.8443396096517527, 0.9696082827579873], [0.2125828239762008, -0.04577085021257717, 0.5520080543314335, 0.35083505932857767], [0.013712432654902261, -0.14510980379993363, -0.423157074755982, 0.37533806591224644], [0.16085508989302116, 0.13605668027056325, 0.13792971059423, -0.495494996873639], [-0.6195901091095438, 0.15381798755626302, -0.8413381284845325, 0.7455345211584924], [0.1577015571132987, -0.5415666445455114, 0.2048571160318487, -0.08358794388333896], [-0.6823255050195798, 0.14920717999750346, -0.04918629416951551, 0.614005459174965], [0.41789550713317786, -1.4955433203680244, -0.04121980334650198, 0.22878746298173774], [0.3672419818867404, -0.30917795265327963, 0.31464942228264914, 0.2251828208294191], [-0.1829422951337369, 0.2848360734911238, 0.6761859317527784, 0.022239612591556834], [-0.8330597004260424, -0.7984976125296981, 0.6868959653003203, 0.47877988361175167], [-0.6930285933827786, 0.4087965456718345, 0.2782227605196919, 0.654159601310222], [-0.6135601883995677, 0.4959240784560945, 0.6649038756455428, -0.18021028135539902], [0.4895209330883463, 1.1389114529924471, 0.2540947217042257, 0.031811741979164136], [0.5433369842257921, 0.3287861121303577, -0.3281277905468991, 0.4618546176531394], [0.9084751993341288, 0.14283828871885051, 0.2875367959428986, -0.25673817139911326], [0.11362183507267709, 0.12729420325353202, 0.405479305698179, -0.7565296425627135], [-0.951476419618019, -0.46794449130813714, -0.07994043089979914, 0.2384806865706845], [1.0351405437473828, -0.862462210514994, 0.15583074559889337, 1.0506476118248078], [0.3333163867336896, -0.004740988128494431, -0.6020622594006325, -0.08519760305253206], [-0.6553345785506718, -0.02335976578456091, -0.05758838319057872, 0.27140878254759554]], [[-0.3417353968582838, -0.00015434673499004943, -0.05297219874766134, -0.13463877112305567, 0.3080076735734723, 0.0023034329975957285, 0.015851447309225688, -0.059448824021340455, 0.11727743189636096, -0.14731354402805882, -0.31701969673463054, 0.29150595746513214, 0.06630323477661756, 0.04226464618492729, 0.14704114189054251, -0.021380424962960106, -0.07022470988087087, 0.19350758394057468, -0.2618044595541179, -0.046504312511510056, -0.20965606961457314, -0.29871061672901794, -0.15960888805321263, -0.35310595895470465, -0.07087782084954856, 0.09608880611682154, -0.10663869815537706, -0.40197496646118636, 0.23224877136587524, 0.24289706154535118], [0.03889639624808898, -0.03637115515210432, 0.001899142073168824, 0.09566980720508231, 0.04726427907928246, 0.17595876839348173, 0.2400468736618209, 0.004951820922814283, 0.2528431920303607, 0.16713586792916202, 0.298423265752971, 0.08591818673177674, -0.2614541318834826, 0.006672911013004698, -0.24257411151330607, 0.25949044761983037, 0.135357014074192, 0.0523906088008494, -0.13298062690147144, 0.27547333509704014, 0.15773471732986072, -0.14790272731457274, 0.00993357158903574, 0.0980413848994315, 0.0541769815691928, 0.058317618282142596, -0.023789009726303403, -0.03870679509165729, 0.43133338369792745, -0.24298229768147558], [-0.28182029734281505, 0.10610660598505652, 0.072047833231289, -0.09599427814690797, 0.14310008930460577, -0.0024158520349574345, 0.23523112168167146, 0.005178289011893496, -0.3144531349809583, -0.38144156401871004, -0.029867534171916347, -0.03866493318353716, -0.09115200894318844, -0.02497664715058582, -0.03838366845839118, 0.3448180463350489, -0.018869712011107913, 0.02304608655785704, -0.06268920499149377, 0.07373512514089324, 0.1143883415260081, 0.1859891099563951, -0.22437102413123286, 0.047492932776799696, -0.12915676306660556, 0.06411505245001599, 0.09443752059125304, 0.10642787153286094, 0.25741358743405063, 0.06603733071818214], [-0.06929039500158056, -0.14041942574275, 0.09491662483550468, -0.03409873082231358, -0.12201103475428444, 0.053402907016008166, -0.20493485910903758, 0.1223282555243215, 0.25531216429919823, -0.2215198445747011, 0.12848148613676838, 0.13991706616837285, -0.198867182998302, -0.005037774143170459, 0.09877769840513792, -0.24774724111136906, -0.03935867349778498, -0.10427444292154511, 0.15033293528099428, 0.48375556762377053, 0.2363711225889818, 0.12966874147286542, -0.16678193816988146, -0.17789598309927512, 0.06683019314542692, 0.0015004897270924195, -0.34051046156792536, 0.013999518004093691, 0.25738121806994385, 0.0580712006969594], [-0.2075654540378332, 0.23298233634497933, -0.28830231234690856, 0.32445289146222006, -0.07428866732294374, -0.2340478555963349, -0.1437321587252501, 0.3269245036815084, -0.010820051162975821, 0.0200630272381277, 0.25465390927765463, 0.020578950764691958, 0.031343601034566966, -0.14228630094489783, -0.07815211702134747, -0.43710422523974696, -0.1279661683825674, 0.08169570395703282, 0.03671196478165438, -0.1785741781300128, -0.17449563109844574, -0.03994893171755734, 0.13759184582536002, -0.1265099932124679, 0.0816063687200881, 0.3036178510238877, 0.32225158542211924, 0.31526749479708277, 0.11636248754836152, -0.16029169811290836], [0.03407355040576075, -0.17175772770388134, -0.08763580683341277, 0.2562764062790648, -0.13232625951356458, -0.3649321339453169, -0.05579004139147818, -0.3487890853306197, -0.17685978138801803, -0.0528595003987165, -0.21712824752589238, -0.12244141490585682, 0.14077871321849428, 0.08809137701500358, 0.12787343910597615, 0.1670228023096739, -0.17024183052628658, -0.13643065729493836, 0.10250392302599699, 0.1919620055737219, 0.14894270507578852, 0.0009855979092984754, -0.02840792427567156, -0.14159650267753487, -0.09484090863132123, 0.20706439894485792, 0.04020811727063848, -0.059831209908009796, 0.26447809953637247, -0.06333017158024688], [0.04643153834443977, -0.09310824695718417, -0.23990459619554536, 0.09519043001521073, 0.11299881629817105, 0.21812374301246437, -0.033151159607430196, 0.13801100801485383, -0.033884466692674635, 0.15387842567218263, 0.04333148809794597, -0.18677002069921114, -0.06722181104870323, 0.25065070188526484, -0.16816576676757788, -0.04045633008806918, -0.09922635548305932, -0.1072050754103593, 0.1690610371228731, 0.11480538773427944, -0.06081851117883385, -0.05326269272943779, -0.06739324063529753, 0.033825629588027734, -0.04302934317607884, -0.3050214348799827, 0.14655713262613232, -0.22831779602895327, -0.10884742059802713, -0.013998740297231593], [-0.26461695645212485, -0.005801943319543518, 0.08895618704417753, 0.06503925420576448, -0.04589553954717235, 0.24239914147730796, -0.09982704585443632, -0.06328419943784046, -0.107955846729013, 0.03769716152896355, 0.22468122424030898, -0.11593266243732404, -0.16488056535865236, -0.20909637363662328, 0.06445485458892096, -0.1502038662475517, -0.14941198968125954, 0.08577681768319464, -0.17632144611723966, -0.04768013990851746, 0.23719951232224296, 0.11411544483126794, 0.11931944698549668, -0.017081930375840756, -0.065614094044851, 0.15109948911670001, -0.061519010397704736, 0.0046171372807552674, 0.08111074448550226, -0.06965972908112004], [0.0053455053954288055, 0.1205075721555489, 0.09460547689176531, 0.1443317963880431, -0.04512150739152391, -0.014842940484071853, -0.12034721840297437, 0.3623320887771628, 0.01651576951968612, 0.16914210090205373, 0.16116190163221092, -0.2545060821878556, 0.31590113000705927, -0.19959939662533818, -0.07520125987406709, -0.05422149110077737, 0.0769953658253555, 0.31807413222226283, 0.05638447048118063, -0.1420906164704471, -0.16035994982896506, -0.12846444265962892, 0.014575730126298085, -0.10072804427294636, 0.07689640192487314, -0.014072668957982423, -0.09791880498802935, 0.007084124499360663, 0.18554250115280058, -0.08310378698106242], [0.14011571610767704, -0.04943439263431632, -0.026440348352579274, 0.18374448545569871, 0.1944989765796092, 0.42799045315311235, -0.04201947285258279, 0.05177069752032202, 0.14012749584703874, -0.20680116915572894, 0.18098012818835663, -0.19057354050914488, 0.05821242519124997, 0.019012494856372783, 0.3894565006323259, -0.14219760078031818, 0.4083561050100033, 0.09136715936640309, 0.428954221997039, 0.004330834204784386, -0.0501646548336014, -0.21505026191717955, 0.18166459674691726, -0.3041305052934594, -0.16533076427191445, 0.15117562657021252, -0.091947886957001, -0.08435721545000054, -0.312448875361269, 0.12615184195202264], [-0.17195890845185055, -0.35731696018523934, 0.04788343469461175, -0.13498983792180613, 0.037204196172972645, -0.045843598464627246, 0.12809110372495122, 0.1378053747437703, -0.015778323038386433, 0.03688575473287486, 0.1596648659540879, -0.08508706461443055, 0.02027058772264014, -0.2842091872841915, -0.24145668556211725, -0.028413335012843998, 0.36588200611669003, 0.03011970313619467, -0.2023479904509318, -0.21576412687772817, 0.08731125877875191, -0.12100939415465503, -0.23139944858774056, 0.027567418615200786, 0.16134864116750686, 0.08427817408748164, -0.02021489638828039, 0.06728560214339027, -0.2522602156851283, -0.09626231839299933], [-0.1515960928065854, -0.02329120172084519, 0.26105801581314536, 0.2469620910645357, 0.1011904995739585, -0.20065790163816377, 0.2984783207576427, -0.06484913469611374, -0.21141599905812164, -0.31515755382877003, 0.07615010925461518, 0.3834312724456846, 0.22706948551098896, -0.2619823520411062, 0.09424723837259635, 0.04152859364192457, -0.36326887666122554, 0.13501323169700302, 0.04572041098650804, -0.0591766343719413, 0.3391316237498113, 0.32789092276773757, 0.007454427267272548, -0.013822054181896958, 0.08495297423615902, 0.059211449094363856, -0.21583222345635478, 0.21448222095305391, -0.2690629840822173, 0.23779372768552648], [-0.1545585698690254, -0.10178047193949116, 0.0826479917258915, 0.2115831732279613, -0.2271462607253272, 0.1345383691526479, 0.09830379212198392, 0.045691272143044, -0.11488977175283681, -0.0955382768521369, 0.027707016424708457, -0.01728717066506833, -0.006014744194124954, 0.13308288524617604, 0.2856887705588695, -0.050426191055654254, 0.18758973729937733, -0.1906320672476851, -0.06826028347068483, -0.15376787234803277, 0.0503079027483894, 0.2420603620296405, 0.037596451613134955, 0.09354393007055177, -0.35485570522273235, 0.1822249114176996, -0.24277683422253205, 0.25969172344898817, 0.22202904046980015, 0.06080491103797619], [-0.20329037768662003, 0.014740143671924503, -0.02312446274628299, 0.258155280564465, 0.16979923158952867, 0.0896586547010925, 0.13521974913139465, -0.10589974590770927, 0.07702863178480046, 0.11699057601292465, -0.01079107291954213, -0.0454247384020358, -0.13300110560893164, -0.034375758229528215, 0.15345464839660738, 0.014441617511612574, 0.13326932992524312, -0.06513744451354628, -0.1551806837336719, 0.05221656342413352, -0.025329734454219693, -0.06018390645102868, 0.12673156081131526, 0.11343670241703992, -0.2736385508109669, -0.2504614511138597, 0.2192954412663016, 0.03734768189229565, -0.056704780715355424, -0.1705291953349342], [-0.0550052382187225, -0.01582277425409667, 0.12712966501317374, 0.12974967350055014, -0.12251747121444183, -0.14762786397973224, 0.5361451840314136, 0.07454343567515065, -0.09397781437076794, 0.1315570552697644, -0.04666097381441988, 0.3527547174039395, -0.12525317088416016, 0.199320743509975, -0.1529799795505437, -0.016623247542611252, -0.17927292749725846, 0.07455498215163293, 0.4061005043970533, 0.25231761355532567, -0.07015036656666239, -0.0596398713009683, -0.09747331131922905, 0.0833603522392378, -0.21186756014620284, 0.07811610633665457, 0.2635895620703535, 0.010748837853725046, 0.26315397535181334, -0.21931875465015194], [0.0016426957673504096, -0.10512300807479252, 0.034532500168671175, -0.08119817409860156, -0.12430803804831668, 0.1840800930243245, -0.16422614296159488, 0.20285969366421402, -0.10432660891503186, -0.3064022247960527, -0.18752516517918616, -0.01171213860204194, 0.0695497595040657, -0.21259983422915568, -0.14641157553068468, -0.18521349253691083, 0.11930955281228713, -0.009850346503026599, 0.20037181320791034, 0.2528501729656157, -0.3658931960747166, -0.2527526744506698, 0.008643794642503462, 0.09614298333870842, 0.06047091616910332, 0.018697594471006346, -0.012369479296934988, 0.11104884531062315, -0.3193804269575657, -0.03741181687344741], [-0.08118080641099767, -0.22627980214418772, -0.169819642880108, -0.35289419797647853, -0.13209553168635488, -0.3803429036332106, -0.589461851940189, -0.28382423654345934, -0.0159686144931338, 0.30563849178033947, -0.05115622972628796, 0.13679054792374715, 0.05958345632916018, -0.14690538201113781, -0.04692387270947548, 0.04319612865336338, -0.024014865177757885, -0.12612185571405735, -0.058790464322416164, 0.048841534972393984, 0.11751261251136699, 0.04715616261025937, 0.15456469091474984, -0.04130812823977391, -0.40882198112719415, -0.14081445823213978, 0.0045594974225668435, -0.023763885614684614, 0.08288071542536207, 0.053035537905851714], [0.010504504766325447, 0.2125282541790749, -0.16705130793002138, 0.05614256862740931, 0.13088942632598224, -0.002481889542092942, -0.2519869363223153, 0.1938417854503477, 0.02487617577572517, -0.26362230904450773, -0.0896161100296432, -0.19102314602026757, -0.11167611065923842, -0.11587662736156619, 0.3705430874071872, -0.26570289042979545, 0.06336368591204948, -0.2524912113832339, -0.09064671418297075, 0.13347638933397507, 0.3032414803046528, 0.2513263967539141, -0.006993310040212426, -0.038450399082381216, -0.06408510349376238, 0.0472496744551294, -0.12183236831660724, -0.08102083463819086, -0.39894522786870473, 0.09741501158004477], [-0.138955476103901, -0.021634822041448207, 0.06273629945797932, 0.07223744259542265, -0.20158513740936573, 0.0062780777439278915, 0.15775189605693657, -0.08035831033789693, 0.13684628511148378, 0.0380727161896365, -0.17574854485741037, 0.24686101601217364, -0.3746085450409808, -0.16921113151147207, -0.0443660414339876, 0.002372399844421066, -0.19710454591847731, 0.16561100147063734, 0.04139633680302949, -0.01709338781901031, 0.22148389274318409, 0.2167247408618167, 0.14754745055512755, -0.07285886610965568, -0.048418437646258077, 0.09642498004633407, -0.030643669594505176, -0.18526113219452697, -0.020168289362334176, 0.23054708476191677], [0.28901830784770655, 0.1322442604476157, -0.06037641596968467, 0.08206387319855261, -0.2615218649877072, -0.052729185643902735, 0.11425823597076049, 0.02877788459785974, -0.2900600060093964, -0.2421905605697404, -0.15531028565131189, 0.03334377891002657, -0.15068068041704902, -0.059294679193078924, 0.2195819425250845, -0.05811436104384783, 0.1519054271629313, -0.17114448389473236, -0.13757632519571233, -0.23954292060814777, 0.12290395548615937, 0.21780198159395114, 0.03506694295549399, -0.4272354105331213, 0.13196770807847494, 0.1560388629268775, 0.144476473185949, 0.00732843026916963, 0.05768280828524408, -0.010254305888624795]], [[-0.17867680146771223, 0.16880515057853906, 0.05692530115265026, -0.27939417853177406, 0.09445073058301581, 0.46975703013913256, 0.03209329312423799, 0.024048826341110493, 0.25046060626243993, 0.22423403845674192, -0.18254110984990796, 0.3438117052097271, -0.0007691394672804492, 0.1525918374701788, 0.4197090959438742, -0.16194685298687705, -0.17024058013539095, 0.03877852622603884, -0.12472694535755253, -0.12044747533727405], [-0.1828005587164845, 0.3763623793975384, -0.3207269956977053, -0.13893009879973037, -0.3784840869946577, -0.2033959053288107, 0.36873864435359965, 0.3571818469722079, -0.1444674884581413, 0.44082773088551, 0.13363297428473384, 0.3780895163883693, -0.013451094701193296, 0.20563309481921904, -0.3096753741209928, -0.25770079010549996, -0.035520734043834955, -0.06578868972512178, 0.24258654328528265, 0.07817004647722677], [0.10391615326943357, -0.1674649962909524, 0.46997608515775446, 0.2208851317637168, 0.5152796931120311, 0.4101380703556428, -0.1179816573871773, 0.059363012354858614, 0.15497288667198714, -0.01319305099894137, 0.05581555116205853, 0.3961924032894673, -0.0625620651210289, -0.03828683014532351, 0.0411160055372303, 0.26022191345934365, -0.16229371241071758, -0.009387920486566016, -0.039387827979626165, -0.05853812305108638]]], "biases": [[[0.08297914792162109], [0.5904696896075246], [1.1372301577053026], [0.9174573661568993], [-0.5221972287015585], [0.9662630072915777], [0.32459117763544687], [1.0465181272377007], [0.19154719732046208], [0.40017283299128326], [0.629792248693019], [-0.6350641357348981], [0.3407030893013943], [1.4282818994079893], [-0.7901862451843765], [-0.49947622836709166], [-1.9672589162437362], [-1.1827465819124714], [-1.3217819230906473], [-0.8703932068247929], [0.6736698928725091], [-0.0590873801897972], [1.880221598157088], [2.2120327027941387], [-1.364248521017601], [0.42026101508916014], [-0.24635604386607615], [0.9050485001000629], [-0.47770006963806966], [0.41971916901572115]], [[0.414930678595652], [-0.0019548049682956395], [2.234211852743898], [-1.1534830506112044], [-0.15792147872521575], [-0.5574262281660028], [1.0550342231897214], [0.09230042595303205], [1.768430411714709], [0.15545391005402634], [0.9019447590293125], [0.4101133507673138], [-1.1664988732601587], [-0.2601600014791855], [-3.9048369764863637], [-0.9853965373639274], [0.9071231873376706], [-0.8510680308269701], [0.20916507977840382], [-0.06811674930884544]], [[-0.07625128706137299], [0.027700170807042967], [-0.21825449689947984]]], "cost": "QuadraticCost"}