{"sizes": [4, 30, 3], "weights": [[[-0.3059851214498571, 0.6916580183804386, -0.127756968958429, -0.8925810478342403], [-0.34251653438558505, -0.21698906933368134, -0.3923053509029787, -0.32165651521444555], [-0.10450856326568872, 0.34802350250343267, -0.3029404736182652, 0.4188290222520428], [-0.28870577853455187, 0.44472645337572475, -0.3830407053378505, -0.8177434852710795], [-0.142339084433941, 1.2642342180393407, 0.43194196646321703, 0.34045263078961074], [0.2946906454711261, -0.5259646762088688, 0.3813448987696609, 0.2901810980494468], [-0.15242456702179077, 0.6603008901894565, -0.09338212244974227, 0.004087579272011724], [0.19590167571011105, 0.2118257776530938, -0.10392814494238094, -0.19135581029758025], [-0.26466601847197246, 0.1494072724631382, -0.16431653310687622, -0.287184953816753], [0.1650393879802962, -1.1426335069293039, -0.10764456087286849, 0.6526453150038598], [-0.4231412852162657, -0.7926463975552861, 0.5951688480786246, 0.131988959323677], [-0.6000539367602498, 0.5557237338704115, 0.41029042771039503, -0.4160013475382525], [0.3725257016130268, -0.6301080928656595, -0.12760297468601192, -0.9416277613729497], [-0.5992514044399674, 0.30478556580936644, -0.45080197636949493, 0.16003303635819274], [-0.4270356040221797, 0.21734458965413017, -0.3054997614483672, -0.7588300181654859], [-0.6446570273702713, -0.6399884326942439, -0.2644292287415067, -0.841550744035711], [0.6812930795157718, 0.10937057387590522, 0.40400676427158433, 0.05067489509528591], [-0.13050543154852473, -0.2543047044557453, 0.3874814389541075, 0.28804120692710194], [0.47781319045552734, 0.263451264299139, 0.3430418555163921, -0.31151718836270453], [0.03879512518921133, 0.5427154702018819, 0.11807566625986766, -0.6053892477469456], [0.46687584246024416, 0.13804980534631295, -0.8933749586649945, 0.31876573540919195], [0.8599925651154895, -0.7323548994046011, 0.6182730013485288, -0.4827003424166565], [0.03941194287277834, 0.3559315952075794, 0.16041067960400265, -0.5082137483444351], [0.09975583238576044, 0.4192658499638027, 0.147896196451573, 0.3811009590964066], [0.3455882682852857, 0.8259058945182122, -1.0672174493615456, 0.0665301953876869], [-0.02112921844012938, -0.6303340876680064, -0.2594220761526068, 0.7801497088059562], [-0.45622752616523915, -0.4601077514121095, -0.22311204973011367, -0.18627754643384298], [-0.42114106473299967, -1.0438138550874467, -0.2771487236043005, -0.40887502515353097], [0.030145388009506176, 0.6984549428214167, 0.645980662167731, 0.0005200339516552297], [-1.1451280369254855, -0.06859835735904256, 0.055589583174564944, 0.16373372870844613]], [[-0.17233360742817092, -0.08212314693167665, -0.2121370968261812, 0.054078408576373894, -0.1471800212909032, 0.06133742176038727, 0.21146779472331617, 0.018010548528879695, -0.010329987955975822, 0.023284092483840512, -0.12810795382485685, 0.08719712026982275, -0.33507738439004514, -0.27128430725818947, 0.10842958711641165, -0.022178609815462658, -0.27776851683633763, 0.07580679999793978, 0.14949226025151924, -0.030163487772551588, -0.0561272374820774, -0.06374865276956965, 0.09953810564251167, 0.01437255875685435, -0.032440389237009454, -0.1693741004362584, -0.016520272781158186, -0.18376969489076292, -0.07914526944915974, 0.1127453005008427], [-0.19244745170304492, 0.08405846194515468, -0.3286046980102873, -0.11624453017342051, 0.5237991871332555, 0.08087691510646203, 0.19936783072051342, -0.023515404978254866, 0.008607449700994156, 0.1234484401582409, 0.09163546680921039, 0.016221861934604585, -0.09318832878792782, 0.14325760397686502, 0.029076468392814515, -0.15680736203517084, 0.002611569159525589, -0.031031472368137546, -0.17496209595693557, -0.3446319923533282, -0.15288963433743757, 0.08668245698562718, 0.09794935439330717, 0.08357698774724227, -0.18867962974779132, 0.008911699740685163, 0.11172649304501121, 0.11674196338957443, -0.26432929986577225, 0.18907569758444573], [-0.12017521906204551, 0.046180408468168656, 0.010514800697854114, 0.20942188259796662, -0.12993922108013245, 0.46117248968910285, 0.0160127736519112, -0.17490215203539133, -0.2455822164698725, -0.05102179520705173, 0.04733987989631654, -0.10397946420766074, -0.013845671281659805, -0.13063025665557593, -0.21005835895808997, 0.0394237762349, -0.2892226011652887, -0.1892395958639297, 0.2168156520578934, 0.06999492451746536, 0.4184176029589923, 0.02400799640077851, 0.12398229210775294, -0.06260570422900114, -0.13760701457296418, -0.05406004006914222, 0.0017294375758161306, 0.18732707622063713, 0.08479062015856671, -0.021035452689038347]]], "biases": [[[-0.3963631066056356], [-0.18407752563121635], [1.5794706213976355], [-2.1021637836431792], [-0.17185209729047166], [0.7264043308756122], [0.14708666510821253], [0.06535035585525924], [-0.8549685775930502], [0.7254147024166941], [-0.6914135651494706], [-0.7004323828687242], [-2.147714337793673], [-0.25361973111572306], [-1.4389709137589206], [-0.698114233381101], [-0.6729546899724601], [0.47757306978632935], [-0.16381762768528302], [-0.31550381734556454], [-0.8261495588978089], [-3.0496579265047528], [0.5167906844419394], [-1.5443914146367148], [0.2854855999759663], [-1.0061449434013374], [1.1703627199036832], [0.3888448473015418], [-0.13291232295460745], [0.4979569010304598]], [[1.1999529415785513], [0.4913370873413897], [0.7385745962794307]]], "cost": "QuadraticCost"}