{"sizes": [4, 30, 3], "weights": [[[0.8009919250130739, 0.7195553005854963, -0.40203488200053794, 0.7236146706964581], [0.7100641720935644, 0.08336891199424529, -0.21875614406591173, 0.418078282292294], [-0.25391788764648904, 0.10808072055958971, 0.6410872461681383, -0.8550741374203493], [-0.4599534263237711, 0.4539278195900199, -0.5420133688467617, 0.1391936653870124], [-0.7267394070305032, -0.5195374119229793, 0.3773252075702846, 0.27415701932301934], [-0.7673763319490441, -0.2899336157803636, 0.681068499338767, -0.3477993918183201], [-0.2677416502654459, 0.0769912546244555, 0.7304923271251373, 0.1592068926100784], [-0.3130444776299667, -0.782070500578715, -0.49476743259160494, -0.502606868846096], [0.04226759424705077, 0.3319264742324839, -0.15752915284002764, 0.32680236850510735], [-0.6869485656290502, 1.0143321088464912, 1.2947903626456416, -1.1613184092374207], [-0.23675329188081748, -0.05530323094392886, -0.7901140993724624, -0.5238468694137803], [0.4176745656342138, -0.22863537467601883, 0.46223587761098484, 0.12430564392848839], [-0.1598327119138039, -0.38359287992918895, 0.36823307657376103, 1.1529475969420728], [0.9172581138577973, -0.24499520812526301, 0.024170643324123497, -0.0906721942937415], [-0.7850872955071239, 0.4573680276431602, -1.06541271596348, 0.03568262328741551], [-0.10819347106609835, -0.32336877870741165, -0.1592472795453865, 0.22643897487162648], [0.3553168369903055, 0.38538516923505595, 0.0286088988777346, -0.7452787615815782], [-0.1285513584315017, -0.252312188523341, 0.0282323002793682, -0.16803757992850538], [1.1568679284111456, -0.7264166587969971, 0.5115927771366919, 0.46106915178323343], [1.1872219343999595, -0.48129080919770323, 0.6717636967163094, -0.2563928199867429], [-0.16149911963491828, -0.22903606034696566, 0.6039071349489795, -0.01417122888960453], [0.5853012979493164, 0.9161334574318213, 0.46273537932988995, 0.3629772927703512], [-0.5798940625233978, -0.11876974223959301, -0.5462123403181369, -0.5917736721823574], [0.19783586424609143, 0.8020895630414973, -0.493136887423829, -0.2936794081373684], [0.027028248017650514, -0.9476956294295934, -0.21054806121714362, -0.557314922739999], [-0.7416404148610385, -1.1630526025141688, -0.8218572288120576, 0.7958655244481391], [0.27136508653118996, 0.2810234065828297, 0.21177557583575884, -1.4262421897176252], [0.13727901525351802, -0.3938816472930905, 0.41319990128833484, 0.6187604935207037], [0.23692520770059927, 0.2759290421403189, -0.6254850262216061, 1.150370987704149], [0.4590829061286064, 0.025441692138833353, -0.28485677036299656, 0.36407536515659605]], [[0.16380298572523203, 0.10967580002627358, 0.08446273764036494, -0.3378717403603859, 0.1333064463286575, 0.23215972464561227, 0.296187825497559, 0.11999767152257679, 0.1267024011006118, 0.023173374912278104, -0.13569801901093412, 0.2360880263711351, -0.010104643221455462, 0.3182530277558854, -0.04516280740008789, 0.13871889295598255, -0.25203663065091275, 0.033931143411238186, -0.02560605855656445, -0.4239036075661632, -0.01590574168081387, 0.04758833266129286, -0.33675175129242174, 0.10343551293791901, 0.1395098636056561, 0.21483622644811248, -0.1470597052471709, -0.08433690885312604, 0.15416140691615862, -0.12596541757668192], [0.28964949622832753, 0.025839855266259235, -0.1081782596976676, 0.22110817432561464, -0.18507835704598272, -0.0612907827383204, -0.19793697374904362, -0.06406019378730628, 0.15222359670202176, -0.31157871646958624, -0.08498742529671398, -0.08146563713033673, 0.13660810962661954, -0.01551447457770805, -0.16206208917250925, 0.0429389372088446, -0.12359748740901287, 0.2516175709180774, 0.028212812125957994, -0.003788649906510265, 0.18541690741539005, 0.041821862463251605, 0.022845755218719194, 0.06786202814645562, -0.021920476280936314, 0.07681914542304764, 0.1745196079235325, 0.04819363373549809, -0.17019176550997886, 0.0532787762145651], [0.1299624006597596, -0.10020941407821658, -0.14184624633566903, -0.08132063575349745, -0.15348204534692972, -0.0481935684415556, -0.09528600627375884, 0.1337793316815066, 0.032645933304807695, -0.10963728758157183, -0.15039677665063608, -0.10887002076157347, 0.13878040198883532, -0.16446364711502184, 0.14449754209131907, -0.11700495614354872, 0.15120394284880564, -0.07969561300946683, 0.004628109465568835, -0.06828372828197479, 0.1404125258597175, -0.3187809842269916, -0.07827489205370108, -0.07046784440101087, 0.03834842556980735, -0.025947862602410863, -0.04224882888196952, -0.29224257124017977, -0.07767729175147957, 0.17090621287753713]]], "biases": [[[0.2608763161887516], [-0.3889580829991507], [1.1425906241538017], [-1.2617942741252859], [2.4722082313651645], [0.16729481036461988], [-0.2845935273895501], [-0.42003155012692434], [0.9319139193149074], [-1.3000445165096528], [-0.29798344922463854], [0.7147924790976534], [1.100138723286373], [-0.6559628801941577], [-0.5284121865541761], [1.9192600428362847], [0.6329491968994715], [0.5003561271931345], [-2.0020039772341036], [0.4039940032370399], [0.07873193926134911], [-1.4997285021949551], [0.034986235909663745], [1.931381245552397], [-2.190406749551917], [-0.6903930518314211], [-0.22587466199650288], [-0.5556844837459332], [1.4829746020599321], [-0.45204749535653715]], [[-0.6505050776460163], [0.41501164242552785], [1.5434211817852344]]], "cost": "QuadraticCost"}