{"sizes": [4, 30, 20, 3], "weights": [[[0.32641570654620544, -0.1215962563646716, -0.24638275593672243, 0.26605991896480535], [-0.23368543296544053, -0.17226389049739835, -0.19863483319015895, -0.9554373208319368], [-0.5676795230669942, 0.13601391983276817, 0.5876060020280286, -0.2259038001830973], [0.3099365207935787, 0.160693613600137, -0.5092418858379724, -0.009532383293322127], [0.27617334275688477, -1.3386370240388628, -0.4101693208527493, -0.5383912052166339], [0.11252042005726415, 0.764950010418368, 0.1351862947705433, 1.0459803995768593], [-0.07002163492614027, -0.3203743831737478, -0.3519135714449899, 0.4203969376153912], [-0.5061338081620383, 0.2217605405709974, 0.33952546155147173, 0.9159429007036649], [0.41525914472213177, 1.258119877557259, -0.6223693400136525, 0.6521127522259639], [0.3702503163248965, 0.1584813273545663, -1.0664572244038824, 0.3377811459365431], [-0.37867727798652795, 1.171479813421939, -1.1693583587137577, 0.27242984231048406], [0.7737164112031139, 0.3526434008650461, -0.016317637645388385, -0.6980493355774103], [0.5674228436359993, 0.3738475023923179, -0.24470710473880894, -0.8081667022365012], [-0.8558365829966041, 0.582312300919657, -0.09805769098642698, 0.16237229845169956], [0.025756241013462595, -0.09093460915528245, -0.3809801732933585, -0.2097864200522386], [0.8549196799050417, 0.6788368189872939, -0.31175654244308704, 0.0653348950582085], [-0.44963245409468844, -1.0550256295698084, 0.07963920928081467, 0.5621301021051656], [0.36258677322416183, -1.0213968036076826, 0.6943725416943434, 0.14290157041362184], [-0.23359122049024486, 0.0708542850577314, 0.6647403102154599, 0.36137576658820386], [0.9931961665109624, 0.8228882858753119, -0.3540364025051749, 0.3389650363446555], [0.32832367691455266, -0.19299792467440177, -0.14578868439307777, 0.05257301155685287], [0.35141762794180564, -0.677530066886079, -0.6538986482852615, -0.27904590194325196], [0.2800000299640841, -0.17477608161006614, -0.2600873822035239, -0.5666916735163657], [0.18147672147143964, 0.5873642980552665, 0.1967452152500682, 0.2174068579566636], [-0.033228420718941866, -0.18591911744998754, 0.8035644773892356, -0.17319043103062995], [-0.6131283401925894, 0.09383940946776943, -0.24709812788090693, -0.10584474116295403], [-0.303069525932417, -0.581369349672017, -0.045807811853200514, -0.15951256896705962], [0.36343750096708094, -1.2539094077041422, -0.0820181877250278, -0.10166730899292574], [-0.22210577659310907, -0.594558423548765, 0.44007622505212535, 0.7428214576564929], [-0.5711258766295138, -0.5691477212684306, -0.5023082216081568, -0.21531357349663255]], [[0.05238307108448994, -0.09893304578281652, -0.17470240913727278, 0.2380387747062087, -0.23406292476696622, 0.13362117855000882, 0.0004829425798808599, 0.13607281500208881, 0.0452249561447711, 0.023108475597159072, 0.10353223862876038, -0.05579548886989513, 0.1201324979928905, -0.08152335951199674, 0.1707110897161129, -0.12843893184503102, -0.14792037826968668, -0.02986247972500955, 0.019327923702013923, -0.05430322666649529, -0.020630042028549463, 0.15039233819953104, 0.021848908177610645, -0.3464013135829761, -0.1855198193437756, -0.15364051941435605, 0.21641610364841601, 0.20242285094643256, 0.29878072376030673, -0.1559352812825136], [-0.20922871798552994, 0.011549657232029546, -0.3532024724160814, 0.05560590023269564, -0.057831917044250565, -0.05002835973250944, -0.23265045164570347, -0.05001857806804923, 0.09684424560822541, 0.11036114573219767, -0.07209548266703274, 0.0842102016600251, -0.28188863125442865, -0.2624942855437596, -0.038193551220767605, 0.1326653747752276, 0.13076416655109052, 0.19054385312411085, 0.05441832473387274, -0.24447362109970142, 0.074642046122368, 0.05116672289720564, 0.10279057449169833, 0.06454026456184332, 0.5167398397781185, 0.12155547456144593, -0.13517208105998454, -0.22932693049789318, 0.2807179027541583, 0.21323624080634423], [-0.01822935618566633, 0.1452032741009508, -0.07828098492433463, 0.34618573703119654, -0.08450142969883438, -0.21228086716430491, -0.27413506442054425, -0.08026353511245878, -0.15445264037508458, -0.1886997415412257, 0.09137695116176182, -0.05524279241048183, -0.010558397927008535, -0.007891640305240541, -0.005458680307391191, 0.15881992761318045, 0.0709798434672085, -0.07605403050414172, -0.029049417684357804, -0.11697085840566085, 0.1548844425004939, -0.43008721566163266, 0.022261705875214626, 0.08238285097648722, -0.1706305636653539, -0.19592642368937122, -0.306438418689777, -0.024191723564496427, 0.14104996959725807, 0.10497111799873723], [0.06073877212670958, 0.16070258703026044, -0.12821744614477315, -0.3446519384653653, -0.027689237540778656, -0.16483240576789404, -0.3664762836225495, 0.04585240924817945, -0.001092802225995513, -0.044358527483165704, 0.511181609173536, -0.1716306249086763, -0.2368843346156088, 0.00876392911059021, 0.21899781447416983, 0.1632062456903671, -0.017450895759572812, 0.10198714661783291, 0.019678768840018884, 0.17755419983891588, -0.08844573171070552, 0.14864201764523793, 0.11248791716370803, -0.31866902756755505, -0.013446703161961775, 0.006713580172675906, 0.35600658170787086, -0.16011994513015035, -0.2260193496205668, 0.013386817433311694], [-0.07045284415736833, 0.175911901744416, 0.2718105602005016, -0.22954360425088227, -0.08029698409400833, 0.011183353461510783, 0.09494994340985517, -0.15851353246921995, -0.07015572273484992, 0.20117804136980075, 0.1776957319080303, -0.0659645173106466, 0.025880263068941367, -0.21600350605934185, -0.06179433024684842, 0.08424156585900011, 0.09323516651198593, -0.06568584765733412, -0.023723253686702125, -0.13705650301813857, -0.1452998190348653, 0.012766669650796768, -0.05113287870402313, 0.1668437598545404, 0.3091477105053103, -0.026919377596118593, 0.18601548957543382, -0.11385928675419178, 0.12306229554001792, 0.08180021930704413], [-0.07030998618272331, 0.048976134088944176, 0.169655516174997, 0.16711421156694542, 0.384092220347558, 0.2642758879855578, -0.3182116581580593, -0.05397318349283464, -0.09545939738945847, 0.04093214608992709, -0.06201402504976991, -0.23347758506232494, 0.0640176052446591, 0.11126333390736942, 0.07030803155617166, -0.048168524848696936, -0.09179979921119402, -0.15079710956884557, -0.07874350414669203, -0.035469316958253116, -0.21346136168049454, 0.4577971220528159, -0.16546089256567156, -0.12700504203199403, -0.26525898066103865, 0.024039050951417763, 0.08386640302795784, 0.06710378749431525, -0.05662693229212822, -0.14951096463056507], [-0.09357517226922155, -0.07313311707299595, -0.034560075700184247, -0.09729184453344686, -0.03918496418478275, 0.3678603725095386, -0.11737286460683444, -0.11164757080359228, 0.1051899225662705, -0.07729763779662799, -0.11712297301752606, -0.1399544496357498, -0.18556333803512923, -0.03448795076205331, -0.09753851996888757, -0.27330595374145306, -0.11734076301837444, 0.07455754592682257, 0.07327257854044832, 0.30127296816141175, 0.16314068687826808, -0.14985344160807584, 0.04253280524695458, -0.07587990295915689, 0.3022451302801884, 0.21330519430167716, -0.006368464145871407, 0.12291568919434215, -0.1618799365563369, 0.008538218537339699], [0.09294205216412799, 0.3186850538161309, -0.09197632048149365, -0.1514832317242218, -0.10444059227115683, -0.19440783682466098, -0.06314527380310335, -0.0822004405145149, -0.23540148374675798, 0.32595940280239727, 0.2103839067569955, 0.09475756138356314, -0.05578886463612206, -0.019955453746880528, 0.032420700959633425, -0.37955917310983583, 0.003532580371127505, -0.12335763797021364, -0.005544233077334979, -0.46340301655120747, 0.12343285984236677, 0.16727651752873926, 0.2692030244131113, 0.2972495867544552, -0.03938009630619669, -0.013418934687965532, -0.022922078651886633, 0.2989434353275511, 0.032699899682293636, -0.05512405120773664], [0.03714186309355846, -0.0612932112152259, -0.25497450122197374, -0.24538063027930024, 0.06879024952307773, -0.2844911613909348, -0.17629288082380726, 0.2154709471838781, -0.10294611032116907, -0.08567305086114099, 0.12248861807665179, 0.05654521075355512, -0.16601142286392834, 0.0886777685818356, -0.15257533640018583, -0.041529461415651926, -0.26463075410513215, 0.0873056635242107, 0.051830705391571495, -0.04264703427623815, -0.26114351303230726, -0.02490264165238427, 0.2026113807172712, -0.09108112338532, -0.057804115930696384, -0.19341111646253928, 0.026994706861514523, 0.539159233014664, -0.07858867089723276, 0.0067140980390224736], [0.19892478061097493, -0.07565345961387658, 0.23848022363480365, -0.03660832658802519, 0.08621344576827565, -0.0045274419316894705, 0.2273390002214314, 0.1430490124772239, 0.10944806526585585, 0.14654056544982308, 0.18894409686585942, 0.23251622879044415, 0.35802581342996925, -0.08785090409515849, 0.354956197304788, 0.040895240416858165, -0.007832997288388524, 0.15392653997702332, -0.030315005362147252, -0.07485901184325362, -0.2807208779276228, 0.07141127877387171, 0.22572108195699697, 0.03390301665208201, 0.2174812973055773, 0.1977731427884141, 0.16708650955355486, 0.12806023868543515, 0.30123575063764174, -0.010930460262494723], [0.21686658395520925, -0.10172120611843354, -0.017426299009209823, -0.1319906859594236, 0.13998884865178218, 0.019903709997258632, 0.026144872714863838, -0.06459448229418904, -0.562127952082153, 0.23860052794477643, 0.271196506816582, 0.09122674063833189, -0.09651357459932723, 0.18662839738744622, 0.36815672282531514, 0.10869333968714238, -0.06304962244281462, 0.293512835809972, -0.06904252993739445, -0.32390343777103187, -0.2554022303826477, 0.0716124817138735, -0.2961613104517813, 0.03674018187575706, -0.07588326764209052, -0.43465856071908204, 0.2879631443613961, -0.3304098274844773, -0.024934775290490825, -0.05900911941234601], [0.07371522924814213, 0.1523854582509276, -0.015567707896184516, -0.24131695995683136, 0.12769648569689382, -0.20411158659867001, 0.26867288100474496, 0.10072012016821909, 0.10267086789396097, 0.011714969651134161, 0.027749366364859262, -0.021037629403710956, -0.16503229935577918, 0.20159806809491457, 0.09182837127193025, -0.23025644908136353, 0.0871825465759072, -4.066731324851423e-05, -0.25370695461541287, 0.051821421043672315, 0.21608257647685342, -0.005059817732604446, -0.1275193385305174, 0.17992490136323766, -0.03209635151593924, -0.002510968480387249, -0.10904668329308698, 0.1848801575733245, 0.13160527420754398, 0.15401570278000387], [0.3196940005835063, 0.12782806483402123, 0.04158252370452561, 0.021373689824640225, 0.04887381771709703, 0.13897110163243545, 0.17582546270836347, 0.02378739366301224, 0.04138941245091608, -0.10273464812541988, 0.15492431207683682, -0.09120627362262022, -0.19594852285029804, 0.19608562010951483, 0.07689563277892235, 0.0030108129144788788, -0.036774543644014675, 0.04735200084297327, 0.2548289434040047, -0.1584721690921165, 0.1719098200085242, 0.06901804415698062, -0.020817169627932473, -0.3323202103615982, 0.22557261996252234, -0.002850671189259523, 0.026464235135622724, 0.06459358807856502, 0.021342746364472195, -0.17507768884179808], [-0.030217199993107305, 0.07581639574612842, 0.23238833243640694, -0.13225108757359152, 0.13799941725645942, -0.13609507094548023, -0.18902991861179527, -0.08072127076111982, 0.04375666664003366, -0.08295464732284707, 0.09382088373119761, -0.07613830008256622, -0.13487776423166628, 0.0937383978780528, 0.09983366816317621, -0.1711998690604545, 0.03508383553829964, 0.2632669118953814, -0.20909830495510853, 0.024879679980004406, 0.2445650370357854, -0.045203386844988404, 0.06045342743441795, 0.05406978564389897, -0.025541101202496905, 0.04622844570497143, -0.011667729332881818, 0.12254399064789681, 0.10396177765110833, 0.07505286421782507], [-0.002163840144604651, 0.3134094941459551, 0.13730839148166832, 0.17194000266253553, -0.03297409681952343, -0.14178594718149534, -0.12928947031484464, -0.20327957447309158, -0.15706924222255159, 0.26276137808943106, -0.027343821311275038, -0.14298364803522284, -0.018827825897996316, -0.04998437934290039, 0.018548229013645744, 0.196824245217754, -0.0954978126955981, 0.005269627325623989, 0.08349378206527058, -0.08306353612031465, 0.3369651570062911, 0.2502849138948006, -0.0464010261762359, 0.15846233440130303, 0.035073161747840226, 0.049369825314913844, -0.1393266631993736, -0.2208322716469593, -0.05991111102668254, 0.1786390798738919], [0.19980760878055642, 0.11884769471381759, 0.006259926655907296, -0.6041970805900894, 0.07830547340393333, 0.5262369084054908, -0.05827171460977812, 0.10774368028197136, 0.364610854545979, -0.0661547180412424, -0.03548756988659438, 0.09157361188280994, -0.0458849565502012, -0.20265447917308788, 0.08995304419969198, -0.09940338543595326, -0.28321300733076654, -0.35825654183282907, 0.07591710307282008, -0.050662942388511045, 0.0536576289230195, -0.0246404947489666, -0.27062238837011665, 0.01828721854435551, -0.3532710875996834, -0.16996566935758667, 0.1758718457126707, -0.2539972608055111, 0.21122191035423354, -0.05776512599613275], [-0.11828929548618494, -0.018946213663818334, -0.11795517920865285, 0.23767034979637466, 0.25644221765579456, 0.008166536237794524, 0.029143444446505736, 0.11528121015796965, 0.1289401027590957, 0.022507186617173342, 0.04915227921791757, 0.005052101964580303, 0.16013249404113433, 0.30374486253009736, 0.36704971394345026, -0.28638862992901204, -0.37473604495889684, 0.29023222059492026, 0.2422021743454684, 0.1584115539016695, -0.13338175478788147, -0.1372779413214661, -0.03397504635687752, -0.040635946186799186, -0.1494798208891696, -0.028624792184510472, -0.14832487035154512, 0.18529874388842088, 0.0008341469861661614, -0.17124565506008682], [0.04057336249637681, -0.05325831287128539, -0.14323066611757831, -0.07110643007065093, 0.06774554519796468, 0.2504541800842024, 0.1867385332143497, -0.06962631136964377, 0.21991755428605747, -0.26074448345595524, -0.18237657078792044, -0.08350790309372923, -0.019617494969406207, 0.2679692430379986, 0.013755067215396393, -0.17737484364386213, -0.2425968615164887, -0.08307304651669077, -0.22683349215884868, -0.17863035561024262, -0.09102347493729007, -0.17980824107972457, 0.03045442773274855, -0.03493015113334384, -0.17290119357511285, 0.24915897082316676, -0.04170717264874624, 0.13962534578295258, 0.026851080846205327, 0.053007919963605585], [0.21705094235963868, 0.04520576166813998, 0.2514724703489137, -0.1434632409390576, -0.3865454469145391, -0.15081553474018206, -0.0945382467317286, -0.020572404396388022, -0.021241402617672527, 0.012554639537191218, 0.12781657911584052, 0.04979433537863736, 0.35005174159225155, -0.15590560458076677, 0.221609224230783, -0.09493440237603201, -0.27991579216299484, -0.19196402573788238, 0.1978715073943647, 0.1079607857858317, -0.0016902150755892097, 0.3439247887298301, 0.020534439785594112, -0.3678050612302628, 0.29488353491085423, 0.10300404581539513, -0.47509541571091884, 0.5310238162436673, 0.32495771781583377, -0.05493134591549722], [-0.052335488834688845, -0.07578966868495049, 0.20083337188632777, -0.24717437399484557, -0.026152914363351674, -0.3066576724769722, -0.06354234145149136, 0.1079583337499763, -0.170390437013252, -0.052101661153975166, 0.19888839886668933, 0.2940834747984184, 0.2566957082641928, 0.15625532435024866, -0.03951956184527113, 0.07048566882942546, -0.2772626284429139, 0.2107883408659624, -0.012615646034441597, 0.09724742063706797, 0.08317230406884266, 0.12915742902666122, -0.09650565954107837, 0.0020998679464467058, -0.26973091873849175, -0.16616522035861941, 0.2588026865319335, -0.035962968494410844, -0.022201736844124124, 0.22664484114814593]], [[0.36401259335394165, 0.26305377191901513, -0.4720319286341029, 0.01503182130564276, -0.3524234522242141, -0.3033939848746721, 0.25970706009724415, 0.08984652415113821, 0.002010017855677582, 0.1958889271729155, -0.2146611396890343, 0.14948387320146658, 0.13451785480442782, -0.40314838872429876, -0.21268778553425932, 0.132295550746538, 0.02788887003089531, -0.23634479530712232, 0.2814505764949847, 0.15440582291465688], [0.38630405743545204, -0.322530243676078, 0.19023210203033641, -0.23432609968939455, 0.35436942641787594, 0.13554093093058267, -0.30496992471587325, 0.24956838155914368, -0.12942394601276097, -0.2658673738791849, -0.2424202082044035, 0.11905155465433444, 0.24466784993737614, -0.054360341468039135, -0.13411274499283307, 0.16951255366729184, -0.3194988987897228, -0.032816896031839814, -0.30726145529308596, -0.24828410936829767], [0.377860859857218, 0.24060465064047482, 0.08637922465574129, 0.21301501462346645, 0.1341619928404301, -0.3536496206427378, 0.06451234613435208, -0.38492742639835376, 0.1669200884856388, 0.1401267933762671, -0.08336658861036697, 0.21810632292111612, -0.30746330421903223, -0.12195688951020763, 0.23746825500925783, -0.3835145175965564, 0.08299660432448693, 0.16881247589760845, 0.17604110438866202, -0.15619749225883897]]], "biases": [[[0.5669033714809363], [0.2605293106710366], [0.24170148848061457], [0.8803623491029883], [0.4737535273469621], [-2.2965477064240294], [1.8806686441963678], [0.9724326033850673], [-0.347107538669244], [-0.21024219727835033], [0.920246647180895], [1.1619589732536155], [-2.1192460899574956], [-1.1860699053835724], [-0.841382901034051], [0.2064197168667225], [0.14007894625920275], [0.7134364248826288], [0.2534845886834937], [0.6856012867060353], [1.138428973512865], [-1.2123068536045085], [-0.3067320334916446], [0.8609148367435128], [2.072124043501605], [0.06625171624639951], [-0.3369081412797064], [0.24375596680307732], [1.3578505327912849], [1.4337975361517534]], [[2.5449916479653734], [0.06308464419305063], [1.0434134250420959], [2.68589330623741], [0.1771436217329589], [-0.27952423067503634], [-1.0684479975464074], [-1.111800233383675], [-0.8078476408365748], [-0.39568155162357604], [-0.5885413904394527], [-0.6528517267513463], [0.04367588348898642], [-1.4351833852282978], [0.11113467369085313], [0.986605138791852], [1.3366329972108772], [-0.9572868653217746], [1.2460981664194812], [-2.361655152367332]], [[0.31142798239774516], [1.2321905548147516], [0.004553551360069344]]], "cost": "QuadraticCost"}