{"sizes": [4, 30, 3], "weights": [[[-0.6743413845691167, 0.2879415634792011, -0.22192438242669923, 0.4357676863038732], [0.44019560301708655, -0.36750977787439215, 0.7200454688092341, -0.4830218414830993], [-0.4618228217043737, 0.05737731502155455, 0.41966265521450025, -0.4853799669444953], [-0.33632786536088477, 0.8468732571332325, -0.7199144692291657, 0.31071480375778743], [0.0801094730703556, -1.0379154245861986, 0.09947124362802397, 0.5498905086867261], [0.6498894276261431, 0.38732622608319583, -0.26503959195081983, 0.22326552624686882], [-0.3303564650537615, 0.3674907418725027, -0.5864449349576306, 0.0063095249049087984], [-0.6057160662508924, -0.4214669887391718, 0.5535337996416808, 0.6168539308149951], [0.5884984899819677, 0.6588140339365298, -0.274718690414914, -0.2264000519569985], [-0.04441986556441314, 0.3470522283906051, 0.2598237753068016, -0.6579710876093203], [0.5663695289494195, -0.16612686828342288, -1.0004947003752815, -0.29016375142748296], [0.3604893485718886, -0.9716924850441852, 0.07955328636947935, -0.42003015179959463], [0.2144835020092625, -0.5351782018065694, -1.2265107739073766, 0.3669432984917422], [0.4526713882507611, 0.6337355679723785, 1.0482543784501936, -0.22983444120670835], [-0.024284853381914676, -0.3954815675519317, 0.7378192317807507, -0.02932146812138268], [0.38749178691150815, -0.029264150564780336, 0.40636792109080533, -0.6652820918619554], [0.41017617619036506, -0.14766854708958774, 1.3092078576346193, 0.2643694424003532], [0.1328405568120355, -0.0751474907588892, 0.03046835271813309, 0.4627819423076142], [1.0064202435746517, 1.1077721838144052, -0.0024125041431842936, -0.7819200727195122], [0.1917664112624839, -0.13325731259518234, -0.5144563505780788, 0.16756704912156486], [0.3872358224108211, 0.18348961451842102, 0.7954420904438716, 0.3069964936640557], [0.6047255718784299, 0.11425820295653703, 0.08050102197925073, -0.0300759669572352], [-0.2870241779784126, -0.2692109062764498, -0.2429577684680446, -0.2363921631341727], [-0.14926869281002378, 0.10159428690488634, 0.5645836658086327, 0.2990190300174859], [1.422089725863156, 0.16900231837076451, 0.4963944991102806, -0.24025813939092086], [0.0023688496206657503, 0.011023396520314347, -0.7685158416426726, 0.35314416377970276], [-0.21672697419073825, -0.1263310580278826, 0.6772841438820962, 0.025537915145395388], [-0.02670951045764754, -0.5393589385654267, -0.11618956072359184, -0.09726580129727842], [0.40056458938093575, 0.5405229365791996, 0.21988539462979895, -0.0037304982166633236], [0.11781768396952795, 0.04382315576951165, -0.3432105911791571, -0.47160805832123015]], [[-0.22744826923449446, -0.1599234683914698, -0.20075374754069072, -0.17035829915040296, -0.06244071935867528, -0.1856319060237373, 0.02680851209632776, 0.17031956496043735, 0.2488001894409475, 0.07718820541760579, -0.12179968970197315, -0.033304946665305764, -0.05443235491985922, -0.14996335144450101, 0.14952521409296857, -0.041847058235226914, -0.21927566445699556, 0.4466881798575329, -0.0393449251134474, 0.21161796741211042, 0.2530538493718677, -0.12576241724775583, 0.19176847850581963, -0.18461220450909224, 0.32724304228046874, -0.35779711016515275, 0.1693354470605543, 0.3298090238318254, -0.029726131739673683, 0.3848862459834108], [0.30727958839817404, 0.09293322465778145, 0.3206082593503983, 0.08807690796924057, -0.13792558859293705, 0.08989282340544422, 0.11376093509949158, -0.12263450735798262, 0.2366424879037121, 0.04535141847390212, -0.05357919372063104, 0.0033636632044523563, -0.2143132855171244, 0.10384023858783344, 0.15290474734597392, -0.4014528405453755, -0.222977598280503, -0.04296570616683446, -0.15009675176837634, -0.05865634646663341, 0.12348358188377602, -0.0652725429822291, 0.17170494456263635, -0.027893199214411184, -0.15664374846468107, 0.16009521848557032, 0.264495818941314, -0.0329048216439576, 0.44117255600644073, 0.03785267204298411], [-0.1892813189221694, -0.21008992866963577, -0.1920561554351753, 0.11040395502832956, 0.1242157546254594, -0.1949826994982864, 0.29286354763946354, 0.1467430484876205, 0.14769079193656973, -0.09193710625003775, 0.04911649099891556, -0.27893247283532924, 0.09825039572535932, -0.00929598920134357, -0.06319341899757473, -0.08640753713772316, -0.2435064669619728, 0.3095461026168583, 0.027752344331745345, -0.15552497773488058, 0.2747097360962384, -0.08601712327077915, 0.05766374339807522, 0.13213726527456068, 0.3398166786711124, -0.10302743343830315, 0.09192126411213834, 0.21519994361414035, -0.12236532821899149, -0.0842840168022424]]], "biases": [[[-1.9736116375817072], [1.7093727403224181], [0.2010345541193581], [-2.3897322983549003], [1.3463856525894058], [-0.5798502396043386], [-1.5083440644817063], [1.1310915156333246], [-0.08406076703367386], [1.8132341854090537], [0.5804289346683591], [-0.9187009305512271], [0.6194706295174072], [-0.3481586257762956], [0.8348532049132045], [-0.5782444809402434], [1.2375668498886858], [0.14526789234014192], [0.9395195999238787], [-2.8853440460396866], [0.7429107673397685], [-0.04804294058929298], [-0.5035186233071886], [0.3670631007580037], [-1.791081765929401], [1.640419352103118], [-0.6491785982770694], [-3.199234066964904], [0.1448774025327535], [1.1967985333214066]], [[0.7897324845851229], [0.10089148202575945], [0.4817915386443792]]], "cost": "QuadraticCost"}