{"sizes": [4, 30, 3], "weights": [[[0.3914581833652965, 1.3074725202291717, 0.4218543038389797, 0.13153632527284756], [-0.19876594332877712, -0.48922034372262757, -0.5216801829670104, -0.06005655306394702], [0.32344170010641327, -0.6974682724082929, -0.3459060599392739, -0.5219720646672643], [0.1182919489292193, -0.2511913606121225, -0.17994208705941034, 0.3419668007222933], [-0.46958788180175304, 0.02885941687417928, 0.1078294920681322, 0.10716704656135508], [-0.3960223871117853, -0.08842283402537245, -0.09220292683806243, 0.1232514460477101], [-1.2002828262930747, 0.4230304639259963, -0.46380779147028856, 0.32147485917894947], [-0.41921538709921286, -0.02823188340017258, 0.549777625778614, 0.27306579764789973], [0.9288710208649134, 0.7306893664790112, -0.8518392183435781, -0.09728547697652226], [0.5254240691044192, 0.6072133687336835, 0.39783125550695575, 0.5774788174755016], [-0.16340965881535535, 1.1135733145157647, -0.06917366038490205, 0.1681002624558947], [0.4681259875855764, 0.06599973083146389, -0.28713088393734526, -0.2837980016121166], [1.2173479639963107, -0.49316491904976806, -0.35186785652951713, -0.7169163303334316], [-0.6426818001974284, -0.6129593936806771, 0.4317318180868018, -0.060253884157759875], [0.25409384412001745, -0.0678357102405246, 0.2267320880565765, -0.42505040971271635], [-0.7617187087889921, 0.19469818646474676, 0.2141801707566804, 0.19513803877019403], [0.033503135497100336, 0.6705218896090691, 0.10155096216187647, -0.47338761502346993], [0.26735830763695523, 0.07221070079936737, -0.807620972752801, -0.5296253477285844], [0.3266901232608633, -0.11404575511673291, -1.3654247004667166, 0.11187640948364203], [0.42914494193198405, 0.3604663875413915, -0.3745683451671569, -0.3871353400688462], [-0.4048247623289877, -0.9071437299642217, 0.6051402106840029, 0.6687484765279087], [0.0412709018732416, 0.8706584705274284, 0.18000604536576453, -0.25427602642949887], [0.7455468339199568, 0.5697591140453351, 0.46943342756549744, 0.5490217962050923], [0.603798146422401, -0.33751736115582637, -0.5009830392618111, -1.2686716550929702], [-0.12415276784320084, 0.9688706670364863, -0.3801881429136844, -0.7408362766875968], [-0.15556780405624474, 0.025152782579364562, -0.3071700367849675, 0.4696051722645059], [0.11027234308663632, -0.5100836091748192, -0.25059027763815733, 0.9196891574990983], [0.2301204958753441, -0.033283318017686345, 0.36284282561287096, -1.1074160464805725], [-0.3068023357767505, 0.17871686211303725, 0.23172584363140317, -0.2687583679220498], [-0.4743722799165603, -0.6848885964120238, 0.07624778114797687, -0.2279615234561995]], [[0.07751098036133862, -0.0031507661455064326, -0.17568805193654208, 0.1918954033609655, 0.13187283545353737, -0.08540624175852733, 0.39407675404178527, 0.21086098244632986, -0.28660778223805833, 0.11447530749577489, -0.011002917014210767, -0.08357250684509522, -0.0579709762922353, 0.0857051125751327, 0.1348043984615899, -0.1051818711245847, -0.03621980037929501, 0.0320077472943555, -0.18750862492444534, 0.09047159482521669, 0.18149600712113845, 0.11700566340385575, -0.0768273696728159, 0.24600040752549923, -0.09834221489882751, -0.14161039903519854, -0.24463087375085885, 0.17367543569473, 0.12277221728613945, 0.0108498248660481], [-0.03204791994963541, 0.10122724134715308, -1.539977648812009e-05, 0.011526290847376603, -0.0217262368912244, -0.16191929617657128, -0.013531464827524339, -0.36738993444497636, 0.1533213470790649, -0.244548864615526, 0.24453876935786192, 0.04878087692813265, 0.02588094684865121, 0.07773358292011773, 0.2189163457500506, 0.021978684833572338, -0.07041774910253609, -0.1551264928334184, -0.1421569976621505, -0.15385298730847416, 0.11372524460022763, -0.02561709742857468, 0.0629561170384674, -0.378636411086939, 0.24668860726276132, -0.055013202475620714, -0.0005460005634011034, -0.05880042054450515, 0.05050620385318699, -0.10882917941299833], [-0.17227546790773018, 0.08002519058233756, -0.22219545062453855, -0.22383676912797437, 0.18307591373040366, -0.0009246209516162049, 0.4568749859812537, 0.20683454604971632, -0.03378271063446239, -0.0013009249529975478, 0.11531270585964233, 0.2968730415588954, 0.04198873961187161, -0.07058765840420199, 0.40427692990820513, 0.20303873684289278, -0.18539245810069593, -0.0869584534996886, 0.13847551378594855, -0.08496280451327495, 0.4135701485210816, -0.016194728992043345, 0.11627502509328844, 0.04305222171086441, 0.1504993752884797, -0.04988592947438946, -0.2715736644993203, 0.29602573696210405, -0.024458589114998992, -0.10705426247752983]]], "biases": [[[-1.3666609452998857], [0.8063388585669732], [0.5885327602907214], [0.41366197978138564], [0.7295103728161537], [-0.8096579033444665], [0.07793318683694225], [0.005655096315924025], [0.9835507351270077], [-0.39780698966537514], [-0.08622610889663551], [0.4023790001589572], [0.18175154320773138], [-0.899065375781497], [1.7963047165721626], [1.3644836272725154], [0.1957137039962904], [-2.9365023537239354], [1.877217085976556], [-0.3834368819393216], [0.8384416752005832], [0.16962701474507821], [-0.2227077191970356], [0.6288966518568925], [1.1237676216068877], [0.6653217002822353], [1.2144605738468066], [-0.9911423948629222], [0.23378693344287418], [0.7448881714196932]], [[0.17309541512607854], [1.0889185649115747], [-0.26092181518711927]]], "cost": "QuadraticCost"}